//Numpy array shape [60]
//Min -1.942475438118
//Max 0.929764270782
//Number of zeros 0

#ifndef B2_H_
#define B2_H_

#ifndef __SYNTHESIS__
model_default_t b2[60];
#else
model_default_t b2[60] = {0.6576344967, 0.8564347625, 0.6479045153, -0.5730602741, -1.0377510786, 0.6430929899, -0.4734391868, -1.9424754381, 0.8196846247, 0.9063866138, 0.2831388116, 0.5924619436, 0.8142775297, -0.1462334692, 0.9297642708, -1.9154993296, 0.0000749071, -1.0012290478, -0.8803070784, 0.9174731374, -0.2512426972, 0.4580197632, 0.1258596033, -0.2695970833, -1.2363423109, 0.2840018570, -0.3220037222, -0.0460294038, -0.1748029590, 0.3379620016, -0.3993616402, 0.1802809536, 0.4362564087, 0.1235087290, 0.7451173663, -0.5330158472, -0.5632994771, 0.0969098359, 0.2223594189, 0.2316230834, 0.0521957986, 0.0126857320, 0.1354114413, -0.3641192913, 0.0365009755, -0.1672333330, -0.0644475892, 0.1385894567, 0.0034764516, 0.1675250232, 0.1631851345, 0.4262816608, 0.0178728551, 0.1136655658, -0.0620501712, -0.1812043488, -0.1283118725, -0.1569427699, -0.3684673905, 0.1218619198};
#endif

#endif
