2.689409554004669189e-01
8.082318119704723358e-03
-1.899021565914154053e-01
-2.105806581676006317e-02
2.611580193042755127e-01
1.856236667663324624e-05
-1.443493664264678955e-01
-1.219489422510378063e-04
-2.738435566425323486e-01
7.972892373800277710e-02
5.934572982368990779e-05
-5.680911242961883545e-03
-3.854118986055254936e-04
-1.999956667423248291e-01
-5.064702033996582031e-02
-2.618020176887512207e-01
7.516466212109662592e-06
-1.297896634787321091e-02
-1.904795616865158081e-01
-1.583663523197174072e-01
9.591253910912200809e-05
7.308421572815859690e-06
-8.024195209145545959e-03
-2.730119740590453148e-03
2.776504516077693552e-05
1.004930213093757629e-01
3.860875368118286133e-01
1.752581298351287842e-01
-4.402342601679265499e-04
5.062815546989440918e-02
-4.093506336212158203e-01
3.074338601436465979e-04
-1.001971140503883362e-01
-1.548689007759094238e-01
-1.383370757102966309e-01
-5.546502768993377686e-02
-5.624886136502027512e-03
4.299773275852203369e-02
-2.232971936464309692e-01
5.258310120552778244e-03
4.761066753417253494e-03
-6.286853551864624023e-02
1.561298966407775879e-01
-4.334911704063415527e-02
-5.887517333030700684e-02
-2.168619036674499512e-01
7.465018890798091888e-03
-4.798101261258125305e-02
1.246664393693208694e-02
-1.947110146284103394e-01
1.718012988567352295e-01
2.295767068862915039e-01
-3.131360933184623718e-02
-5.635242443531751633e-03
-2.756343747023493052e-04
2.366581745445728302e-02
-7.127784192562103271e-02
2.750723361968994141e-01
2.475682348012924194e-01
8.539557456970214844e-03
2.852769196033477783e-02
-4.867210388183593750e-01
7.357913535088300705e-03
5.172255896468413994e-06
7.246313989162445068e-02
-1.147120967507362366e-01
-1.295918673276901245e-01
-4.178813844919204712e-02
-7.740236073732376099e-02
-8.527128398418426514e-02
-1.848794072866439819e-01
4.468856845051050186e-03
-1.349797397851943970e-01
8.938556537032127380e-03
2.102984581142663956e-03
-8.066768199205398560e-02
9.040042012929916382e-02
-6.451390683650970459e-02
-1.361911417916417122e-03
-3.670274466276168823e-02
4.941228777170181274e-03
9.551936388015747070e-02
5.862262099981307983e-02
2.298376709222793579e-01
4.108792915940284729e-02
-8.408179879188537598e-02
3.728750452864915133e-04
3.494580835103988647e-02
-1.834501884877681732e-02
2.092926204204559326e-01
1.491951197385787964e-01
9.686605632305145264e-02
-3.984430513810366392e-04
-1.520979553461074829e-01
-1.353160291910171509e-02
9.931086003780364990e-02
1.381381005048751831e-01
1.920170150697231293e-02
5.295718088746070862e-02
-9.685098193585872650e-03
-5.090515017509460449e-01
5.255059477349277586e-06
3.127349773421883583e-04
2.261902987957000732e-01
2.425851225852966309e-01
-1.329898647964000702e-02
-2.261363079014699906e-05
1.033778753480874002e-04
3.349288308527320623e-04
4.901995416730642319e-03
-1.828272640705108643e-02
2.147269845008850098e-01
1.534548355266451836e-04
-2.456316910684108734e-02
-4.823206472792662680e-05
-1.760931909084320068e-01
-6.116420030593872070e-02
4.952445626258850098e-02
-6.342966854572296143e-02
-3.406076575629413128e-04
3.847522893920540810e-03
-5.076969414949417114e-02
7.303557544946670532e-02
-1.305514451814815402e-04
-1.154267738456837833e-04
-2.538166154408827424e-05
-2.151075899600982666e-01
3.102999925613403320e-01
-6.823993921279907227e-01
-2.481562457978725433e-02
-4.151952918618917465e-03
5.308728199452161789e-03
-2.627839520573616028e-02
6.609530653804540634e-03
-4.913151636719703674e-02
-1.496960818767547607e-01
5.425122752785682678e-02
-2.017539925873279572e-02
-1.361357513815164566e-02
-1.362664334010332823e-04
-1.431973651051521301e-04
2.102449983358383179e-01
8.879016240825876594e-05
3.290934562683105469e-01
-7.825047941878437996e-05
2.182194441556930542e-01
-3.999790251255035400e-01
2.993462258018553257e-04
-1.116044595837593079e-01
1.685744673013687134e-01
2.582064568996429443e-01
1.115518607548438013e-04
4.534651339054107666e-02
1.629226952791213989e-01
2.387590557336807251e-01
1.733540371060371399e-02
-4.467579536139965057e-03
-1.478786143707111478e-04
-1.378977950662374496e-02
2.262477129697799683e-01
5.769685283303260803e-02
-1.541906094644218683e-04
1.492405235767364502e-01
-6.484496593475341797e-01
-1.377164959907531738e+00
-3.504033982753753662e-01
3.542299568653106689e-01
-6.220824122428894043e-01
-3.100235771853476763e-04
-6.773461103439331055e-01
-5.010183453559875488e-01
-3.410575389862060547e-01
3.533558547496795654e-01
-4.115820775041356683e-05
-1.484389510005712509e-02
5.053560016676783562e-05
-1.103198792407056317e-05
-4.034701851196587086e-04
-1.322027891874313354e-01
-1.042601943481713533e-04
-4.891993105411529541e-01
1.920840622915420681e-05
1.859501153230667114e-01
-6.460794247686862946e-05
2.201223187148571014e-02
2.677206099033355713e-01
5.125191435217857361e-02
-1.151405740529298782e-05
-1.116474886657670140e-04
2.055684924125671387e-01
-3.414082899689674377e-02
2.005828619003295898e-01
-3.597986325621604919e-02
-1.572372615337371826e-01
-2.416307628154754639e-01
-4.695004969835281372e-02
-2.885462939739227295e-01
6.614735722541809082e-02
-1.799469292163848877e-01
-1.419831216335296631e-01
-4.147681593894958496e-01
4.840938746929168701e-02
-5.077551584690809250e-03
-1.591758131980895996e-01
1.189969405531883240e-01
-1.012913789600133896e-02
-4.147339612245559692e-02
-5.537080168724060059e-01
-2.061380946543067694e-04
8.400669693946838379e-02
1.916797161102294922e-01
-1.622886955738067627e-01
-1.499473899602890015e-01
-6.260895729064941406e-02
-1.295957481488585472e-03
2.761781029403209686e-02
-4.544947296380996704e-02
-6.481460928916931152e-01
-2.649210393428802490e-01
-4.496634379029273987e-02
5.727002397179603577e-03
-2.130091562867164612e-02
3.058675117790699005e-02
-7.167832227423787117e-04
-1.535640805959701538e-01
-9.042664617300033569e-02
-7.945380359888076782e-02
-2.372073531150817871e-01
-1.158012524247169495e-01
-2.943178697023540735e-04
1.044657304883003235e-01
-7.907386124134063721e-02
2.006168812513351440e-01
1.541994715807959437e-04
1.210880145663395524e-04
-1.188926908071152866e-04
2.188719660043716431e-01
1.392802514601498842e-04
-1.873106375569477677e-04
-7.075848430395126343e-02
-3.696002531796693802e-04
6.093844785937108099e-05
-3.892386157531291246e-04
1.070631260517984629e-04
-3.466551424935460091e-04
-5.138192791491746902e-04
2.018955856328830123e-04
-1.996983519347850233e-05
4.413109272718429565e-02
-1.799628883600234985e-01
1.385533995926380157e-02
-2.508586912881582975e-04
-7.208393514156341553e-02
-6.810277118347585201e-04
4.519757640082389116e-04
-1.541639503557235003e-04
-4.774438142776489258e-01
-5.712153390049934387e-02
-3.800973892211914062e-01
1.223044320940971375e-01
4.869516193866729736e-01
-2.259687425976153463e-05
-2.902339957654476166e-02
2.389204353094100952e-01
-4.387742877006530762e-01
-4.669754952192306519e-02
1.172156917164102197e-04
-2.014752775430679321e-01
-3.474755503702908754e-04
7.616255432367324829e-02
-1.904973238706588745e-01
7.539106011390686035e-01
-8.566760458052158356e-03
4.677972197532653809e-02
2.077408581972122192e-01
2.448737174272537231e-01
2.060526749119162560e-04
-3.358144164085388184e-01
2.206154895247891545e-04
4.115723967552185059e-01
-1.811719089746475220e-01
6.976457238197326660e-01
-1.492377966642379761e-01
-2.038714736700057983e-01
-4.719364941120147705e-01
-4.641661047935485840e-01
3.003916935995221138e-04
5.343295261263847351e-02
1.255626120837405324e-04
-1.548797357827425003e-02
-7.385177910327911377e-02
3.229748472222127020e-05
3.085283637046813965e-01
-2.016648463904857635e-02
-6.363436579704284668e-02
9.183634817600250244e-02
1.014487966895103455e-01
3.427202347666025162e-03
-8.534329943358898163e-03
-3.565669467207044363e-04
-2.168782884837128222e-05
-1.136242523789405823e-01
-9.517584840068593621e-05
2.528544282540678978e-04
1.908627928060013801e-05
-5.036364775151014328e-03
2.149667590856552124e-03
8.492913097143173218e-02
1.925279386341571808e-02
-9.873742965282872319e-05
2.212678518844768405e-04
7.172209676355123520e-03
3.836794942617416382e-02
-1.320193707942962646e-01
6.797232478857040405e-02
2.485842108726501465e-01
-3.310329339001327753e-05
6.105691194534301758e-03
4.958333820104598999e-02
6.944076716899871826e-02
9.627045691013336182e-02
4.725868348032236099e-05
-1.030843108892440796e-01
-2.508211135864257812e-01
-7.940490245819091797e-01
1.330588608980178833e-01
4.441520723048597574e-04
-8.273764252662658691e-01
3.636791557073593140e-02
-2.858601510524749756e-04
3.680984489619731903e-03
-1.626811455935239792e-03
1.056321989744901657e-02
2.378896460868418217e-04
-1.890038698911666870e-02
-3.816583454608917236e-01
-1.160715328296646476e-04
2.198845148086547852e-01
1.263834238052368164e-01
1.912484019994735718e-01
-4.396259486675262451e-01
-3.558608889579772949e-01
1.200752258300781250e-01
-3.483518585562705994e-02
-4.609993845224380493e-02
3.585260212421417236e-01
-9.663854539394378662e-02
-2.812854363583028316e-04
-1.308884820900857449e-04
2.111203968524932861e-01
-1.450419804314151406e-04
6.289884448051452637e-03
-1.973052024841308594e-01
-4.930106699466705322e-01
6.729208507749717683e-06
-2.113880822435021400e-03
3.320722281932830811e-01
-2.691686749458312988e-01
-2.213947325944900513e-01
1.159266531467437744e-01
-6.004512542858719826e-04
1.487558931112289429e-01
7.403038442134857178e-02
-7.565335929393768311e-02
2.567730844020843506e-04
1.414732914417982101e-02
-2.119949087500572205e-02
-2.530246675014495850e-01
1.754252016544342041e-01
2.853251993656158447e-02
2.972589433193206787e-01
8.654766529798507690e-02
5.656239227391779423e-05
-3.780573979020118713e-02
1.260402053594589233e-01
-8.640823513269424438e-02
-3.080362379550933838e-01
-6.703249178826808929e-03
1.850207000970840454e-01
-2.104971063090488315e-04
8.427882567048072815e-03
-9.468901157379150391e-02
1.375051438808441162e-01
2.762631177902221680e-01
1.515264715999364853e-02
1.235800446011126041e-04
2.192930281162261963e-01
8.404847234487533569e-03
-4.069688171148300171e-02
1.804608553647994995e-01
9.223349392414093018e-02
-3.050322993658483028e-04
8.137963013723492622e-04
-1.401949375867843628e-01
-5.466455593705177307e-02
-1.673517674207687378e-01
-2.294699370395392179e-04
5.044487863779067993e-02
-6.891825050115585327e-02
8.431749939918518066e-01
2.820167283061891794e-04
-9.410405904054641724e-02
-1.886697709560394287e-01
-1.318683661520481110e-02
1.986813843250274658e-01
1.279640942811965942e-01
1.946821430465206504e-04
-2.527392702177166939e-03
2.195393592119216919e-01
2.681351006031036377e-01
4.953379034996032715e-01
1.036457531154155731e-02
1.505432883277535439e-04
4.360759921837598085e-04
-1.191460341215133667e-02
-7.152413576841354370e-02
-1.561394035816192627e-01
4.838408529758453369e-02
3.938303142786026001e-02
-2.472141087055206299e-01
-2.695254683494567871e-01
4.689429700374603271e-01
4.915378615260124207e-02
1.350128604826750234e-05
-1.607537716627120972e-01
-8.828057348728179932e-02
1.295238286256790161e-01
7.084175199270248413e-02
5.706927622668445110e-04
-7.843651622533798218e-02
2.860770225524902344e-01
-2.126593317370861769e-04
-1.357757579535245895e-02
1.500588550698012114e-04
1.312504615634679794e-02
-4.648664221167564392e-02
7.830508798360824585e-02
1.576923020184040070e-02
1.140896379947662354e-01
-2.470107865519821644e-04
3.356560599058866501e-03
6.580981612205505371e-01
-5.637963116168975830e-02
-2.299242466688156128e-02
-1.357845903839915991e-04
-1.092337444424629211e-01
-4.007328301668167114e-02
1.759620010852813721e-01
5.893595889210700989e-02
7.416539639234542847e-02
3.264838159084320068e-01
-3.975606709718704224e-02
1.009619012475013733e-01
3.508628308773040771e-01
6.727748550474643707e-04
-2.939458377659320831e-02
1.180014684796333313e-01
-1.138368174433708191e-01
-1.009694460663013160e-04
-1.191540881991386414e-01
3.232893650420010090e-04
3.931889533996582031e-01
-1.765921898186206818e-02
1.605791389010846615e-03
2.361698448657989502e-01
6.646976689808070660e-04
2.955755451694130898e-03
-3.128342330455780029e-01
-2.455258071422576904e-01
-3.607922047376632690e-02
-2.492433304723817855e-05
-1.458833813667297363e-01
-3.608886152505874634e-02
-8.243338018655776978e-02
-1.964051574468612671e-01
-2.124383300542831421e-01
3.004273213446140289e-02
1.116217374801635742e-01
-3.972463607788085938e-01
3.240947844460606575e-03
-2.984754443168640137e-01
1.015823727357201278e-04
-1.484662760049104691e-02
-4.964999854564666748e-02
-2.397836651653051376e-04
1.333381533622741699e-01
-7.737358659505844116e-02
2.710301578044891357e-01
-3.631399571895599365e-01
-5.854371120221912861e-04
4.021136919618584216e-05
-6.633510565734468400e-06
3.593658329918980598e-04
1.398167223669588566e-04
-3.668955061584711075e-03
-9.058523923158645630e-02
7.922486960887908936e-02
1.832622438669204712e-01
-9.283889085054397583e-03
-2.512552142143249512e-01
-5.875826627016067505e-02
1.118260398507118225e-01
6.299043446779251099e-02
4.691148351412266493e-04
3.048465820029377937e-03
8.168312162160873413e-02
-2.394480854272842407e-01
1.142436885857023299e-04
-4.218185495119541883e-05
3.303251229226589203e-03
5.096631357446312904e-04
-1.257829517126083374e-01
-3.361320197582244873e-01
-5.835501942783594131e-03
-2.968962537124752998e-03
-1.737846620380878448e-02
-4.821268841624259949e-03
1.055025458335876465e-01
6.625894922763109207e-03
3.466402739286422729e-02
3.815816342830657959e-02
6.293825060129165649e-02
7.888988405466079712e-02
1.611814051866531372e-01
2.679664641618728638e-02
-9.670934826135635376e-02
4.937376361340284348e-04
3.814691007137298584e-01
3.179889754392206669e-04
1.120211905799806118e-03
-2.536443294957280159e-03
1.100388839840888977e-01
1.423698812723159790e-01
3.086254559457302094e-02
4.120970517396926880e-02
-2.968863397836685181e-02
-3.217119351029396057e-02
2.652796544134616852e-02
-6.706923991441726685e-02
-1.266548484563827515e-01
2.094947099685668945e-01
-3.074905648827552795e-02
3.165810927748680115e-02
-1.877902448177337646e-01
1.421687193214893341e-04
-3.257070420659147203e-05
3.767730295658111572e-02
1.412082056049257517e-04
9.067119956016540527e-01
-7.372997933998703957e-04
1.183691165351774544e-05
-8.429913577856495976e-06
1.096501126885414124e-01
-7.511245459318161011e-02
2.205266355304047465e-05
7.118942448869347572e-05
1.108318567276000977e-03
1.291271746158599854e-01
4.841369445784948766e-05
-1.453599780797958374e-01
-7.355686102528125048e-05
-6.698707491159439087e-02
3.274457752704620361e-01
2.331044961465522647e-04
-1.796641845430713147e-05
-2.839739609044045210e-04
9.348489402327686548e-05
-6.095709977671504021e-06
3.286177525296807289e-05
6.833855807781219482e-02
4.902976070297881961e-05
5.632075772155076265e-05
-1.424132960892166011e-06
-1.447918475605547428e-04
2.278852771269157529e-04
4.141704738140106201e-02
-3.349527483806014061e-03
2.901554293930530548e-02
-7.454945589415729046e-04
4.789192602038383484e-02
-4.442313313484191895e-02
-1.192924454808235168e-01
-6.239901483058929443e-02
2.778114378452301025e-01
2.925871231127530336e-04
9.687019139528274536e-02
-1.103079412132501602e-02
6.492828577756881714e-02
-3.316773101687431335e-02
-1.575522720813751221e-01
-1.905245780944824219e-01
1.309289969503879547e-02
-7.455869763361988589e-06
-3.483816608786582947e-02
9.192321158479899168e-05
4.271932702977210283e-04
-5.169676151126623154e-04
7.572653889656066895e-02
3.564455360174179077e-02
-1.257925778627395630e-01
1.117558032274246216e-01
-1.644759774208068848e-01
2.183688571676611900e-03
6.724410468450514600e-06
-1.676558405160903931e-01
4.311787051847204566e-05
4.560944065451622009e-02
-3.106776252388954163e-02
-1.151027530431747437e-02
-9.895291924476623535e-02
2.271970151923596859e-04
-5.979136005043983459e-02
2.159544676542282104e-01
-2.843803667929023504e-04
-2.085173688828945160e-02
1.067553460597991943e-01
-3.908142149448394775e-01
1.279897114727646112e-04
-3.855564445257186890e-02
-2.128014573827385902e-03
3.515050113201141357e-01
2.294334918260574341e-01
-9.928123652935028076e-02
-2.076385170221328735e-02
-2.555544488131999969e-04
6.787970778532326221e-04
-1.706072216620668769e-04
3.415305982343852520e-04
1.895407185656949878e-04
-1.357632726430892944e-01
-1.189387217164039612e-01
1.308696419000625610e-01
4.398200690047815442e-05
-1.370470076799392700e-01
2.444032952189445496e-02
-8.034190535545349121e-02
-3.326735273003578186e-02
1.359307616949081421e-01
5.618418799713253975e-04
-2.470812052488327026e-01
6.347318291664123535e-01
3.419589102268218994e-01
-2.493117600679397583e-01
3.256456460803747177e-03
-3.460433185100555420e-01
6.833900988567620516e-05
2.228269726037979126e-01
3.109908103942871094e-02
2.238015532493591309e-01
-2.885411668103188276e-04
-1.548092663288116455e-01
-7.849378138780593872e-02
1.417491585016250610e-01
2.767734415829181671e-02
-9.817769378423690796e-02
1.317311823368072510e-01
5.352437496185302734e-01
-1.300071477890014648e-01
-2.960884571075439453e-01
9.110702376347035170e-05
-2.866649813950061798e-02
-1.766170561313629150e-01
-1.209626998752355576e-02
-1.524083432741463184e-03
8.596649765968322754e-02
-3.604056537151336670e-01
8.892355114221572876e-02
-1.076649758033454418e-03
3.214973839931190014e-04
1.090535968542098999e-01
-2.883423678576946259e-02
5.957409739494323730e-02
-9.254506975412368774e-02
-1.919043809175491333e-01
-3.627253696322441101e-02
-1.673105657100677490e-01
-1.715206727385520935e-02
4.922051727771759033e-02
2.077007229672744870e-04
-1.134800165891647339e-02
3.764846920967102051e-02
-3.442284185439348221e-03
2.356664772378280759e-04
-2.169285118579864502e-01
1.020073816180229187e-01
8.037671446800231934e-02
-1.023447141051292419e-01
4.434829950332641602e-01
-2.299001353094354272e-04
1.923732488648965955e-04
-4.025983624160289764e-03
7.075093162711709738e-05
3.160555362701416016e-01
-4.705978035926818848e-01
-1.082986816763877869e-01
-5.594617873430252075e-02
-1.859792135655879974e-02
1.971129775047302246e-01
-5.239561572670936584e-02
1.762029901146888733e-02
4.843067526817321777e-01
-5.125061273574829102e-01
-3.671296834945678711e-01
2.244673296809196472e-02
1.681451685726642609e-02
-5.882721021771430969e-02
-1.130958116846159101e-05
2.121383877238258719e-04
-7.188991904258728027e-01
-6.063888669013977051e-01
1.509408582933247089e-03
-1.432646240573376417e-04
-2.650540471076965332e-01
2.465933747589588165e-02
3.901850868714973330e-05
-2.748978137969970703e-02
1.969349432329181582e-05
-5.835170671343803406e-02
-5.260563641786575317e-02
-6.885062158107757568e-02
-1.469898074865341187e-01
2.822692990303039551e-01
1.096196428989060223e-04
4.618918523192405701e-02
-4.302892775740474463e-04
-7.054085284471511841e-02
7.434280269080772996e-05
-8.678026497364044189e-02
2.195454388856887817e-01
-6.223986148834228516e-01
2.201132476329803467e-01
-1.147570001194253564e-04
-4.844374489039182663e-03
2.000652849674224854e-01
-8.967454778030514717e-05
2.362865805625915527e-01
-1.824592327466234565e-04
5.167918279767036438e-03
-4.313855245709419250e-02
7.514058053493499756e-02
5.535185709595680237e-02
-3.419291377067565918e-01
2.438859228277578950e-04
6.440170854330062866e-02
5.796163082122802734e-01
-8.961585350334644318e-03
1.672100734140258282e-05
5.634598806500434875e-02
3.589759469032287598e-01
-3.174341097474098206e-02
1.397798489779233932e-02
1.010186150670051575e-01
-1.020032068481668830e-04
2.777617797255516052e-02
-2.815689949784427881e-04
9.276013006456196308e-04
-2.737077474594116211e-01
3.835136815905570984e-02
7.026722282171249390e-02
2.271853014826774597e-02
-1.348743098787963390e-04
2.182765454053878784e-01
4.505685064941644669e-03
1.260536313056945801e-01
-4.175892770290374756e-01
1.028075665235519409e-01
3.956862390041351318e-01
5.653313361108303070e-03
-3.509187102317810059e-01
2.110766619443893433e-01
-2.604327201843261719e-01
1.229626312851905823e-01
-1.054203659296035767e-01
2.551951620262116194e-04
4.976708292961120605e-01
-2.327612638473510742e-01
-2.911870479583740234e-01
1.713579297065734863e-01
-2.226723879575729370e-01
-2.353233285248279572e-02
-8.595739491283893585e-04
3.440417349338531494e-01
-1.557837822474539280e-03
-3.017231225967407227e-01
-8.304884249810129404e-05
4.408915042877197266e-01
-4.709707796573638916e-01
-2.425564080476760864e-02
3.166371881961822510e-01
-3.626667559146881104e-01
5.299255996942520142e-02
-1.510378997772932053e-02
2.714402973651885986e-01
-5.086283087730407715e-01
-3.627579510211944580e-01
-1.961363106966018677e-01
-7.856344018364325166e-05
1.035327911376953125e-01
2.511150203645229340e-02
1.783599257469177246e-01
-9.072367101907730103e-02
5.199519917368888855e-02
-1.576215872773900628e-04
1.498137414455413818e-01
-3.791188448667526245e-02
2.270069420337677002e-01
1.983085880056023598e-03
-1.117720827460289001e-02
-2.056285273283720016e-03
1.142578199505805969e-03
7.578040094813331962e-05
-1.398736094415653497e-05
-1.832556095905601978e-03
5.201718807220458984e-01
1.259853597730398178e-02
1.888440400362014771e-01
2.793153980746865273e-04
-2.116236984729766846e-01
-7.633041590452194214e-02
-8.262133633252233267e-05
-1.657806523144245148e-02
4.212193563580513000e-02
-6.986357766436412930e-05
-1.851863712072372437e-01
-7.278359407791867852e-05
2.956037223339080811e-01
3.102453947067260742e-01
-5.065954246674664319e-05
-1.629967428743839264e-02
3.763996210182085633e-05
-5.023353733122348785e-04
-9.642884135246276855e-02
-8.074977993965148926e-02
9.024061000673100352e-05
2.729627490043640137e-01
7.036283204797655344e-05
1.175422439700923860e-04
-1.135377660393714905e-01
3.655252803582698107e-04
-8.637678027153015137e-01
2.155259251594543457e-01
1.373479142785072327e-02
2.671904116868972778e-02
-3.598587512969970703e-01
3.414588747546076775e-03
-1.374120712280273438e-01
-3.318440541625022888e-02
1.696704566711559892e-04
1.964332535862922668e-02
1.909555139718577266e-04
1.124022901058197021e-01
2.778483321890234947e-04
-8.875121362507343292e-03
3.292272388935089111e-01
3.765165805816650391e-01
-2.209132015705108643e-01
-1.420292556285858154e-01
2.495510876178741455e-01
-3.056286573410034180e-01
2.935742773115634918e-02
-5.951810162514448166e-04
-1.010483902064152062e-04
-1.950634614331647754e-04
1.841691136360168457e-01
-1.134942844510078430e-01
-5.528728943318128586e-04
-2.392007261514663696e-01
-2.020013928413391113e-01
-1.376969367265701294e-02
-1.348580121994018555e-01
7.483424269594252110e-05
9.107821434736251831e-02
-2.396747916936874390e-01
-8.328996598720550537e-02
-4.961263015866279602e-02
2.448364684823900461e-04
2.793967723846435547e-02
-9.845979511737823486e-03
-6.097910180687904358e-02
9.561498463153839111e-02
2.228898257017135620e-01
1.311954557895660400e-01
-1.307585239410400391e-01
4.878892749547958374e-02
-1.175107341259717941e-02
-2.853354439139366150e-02
2.252246625721454620e-02
1.589937694370746613e-02
-6.942340731620788574e-02
8.909720182418823242e-02
-9.067528694868087769e-02
5.982010811567306519e-02
-2.323394728591665626e-04
-2.952538728713989258e-01
-2.631045691668987274e-02
2.248963415622711182e-01
-2.690340392291545868e-02
-8.273173868656158447e-02
7.695077359676361084e-02
2.531439065933227539e-01
8.477906137704849243e-02
8.239435404539108276e-02
4.668751731514930725e-02
-2.014181315898895264e-01
-2.051972448825836182e-01
6.847997009754180908e-02
1.213786657899618149e-02
4.319054260849952698e-02
2.233183383941650391e-02
5.432500038295984268e-03
2.051667571067810059e-01
7.334052585065364838e-03
-5.391597375273704529e-02
1.033525094389915466e-01
-2.963706292212009430e-02
-3.572626039385795593e-02
1.100892052054405212e-01
-1.239103600382804871e-01
-2.663697116076946259e-02
1.270024180412292480e-01
2.217994816601276398e-02
-1.066790148615837097e-01
-1.978508830070495605e-01
-1.174297090619802475e-02
-2.791370451450347900e-01
6.006686016917228699e-02
1.016995683312416077e-01
1.199302496388554573e-03
-1.359508000314235687e-02
-1.973187737166881561e-02
-1.186084933578968048e-02
-3.465775400400161743e-02
-1.315477490425109863e-01
-1.402800828218460083e-01
6.316303461790084839e-02
8.276231586933135986e-03
-1.824584156274795532e-01
1.673861593008041382e-01
-2.080459892749786377e-02
-5.811864393763244152e-04
-1.101447418332099915e-01
5.229206290096044540e-03
2.953157387673854828e-02
-5.261194705963134766e-02
-1.588080264627933502e-02
-4.170209169387817383e-02
-8.035038411617279053e-02
2.868043666239827871e-04
-1.403990536928176880e-01
1.019087508320808411e-01
-2.114613503217697144e-01
5.000210367143154144e-03
4.197090864181518555e-02
1.239617168903350830e-01
2.658917568624019623e-02
5.990295670926570892e-03
2.919934093952178955e-01
5.161167681217193604e-02
2.702296187635511160e-04
8.383440971374511719e-02
-1.936149038374423981e-02
2.527479231357574463e-01
-9.424419840797781944e-05
-3.292745724320411682e-02
-2.136919349431991577e-01
-7.510906457901000977e-02
4.114332199096679688e-01
-6.891071200370788574e-01
-3.495984971523284912e-01
-1.995286196470260620e-01
-2.194466292858123779e-01
-2.535218298435211182e-01
-5.699250032193958759e-04
4.843071699142456055e-01
-2.615828812122344971e-02
1.165623179986141622e-04
-2.111813277006149292e-01
4.457265734672546387e-01
-4.127601087093353271e-01
1.545423292554914951e-04
-2.921323466580361128e-04
-3.362034857273101807e-01
1.643969881115481257e-04
-4.179342738552804803e-07
5.619491636753082275e-02
-5.737829580903053284e-02
-1.477382630109786987e-01
-2.734047120611649007e-05
1.745650470256805420e-01
3.402950242161750793e-03
-8.022780716419219971e-02
8.387202396988868713e-04
3.679772615432739258e-01
-1.118246391415596008e-01
1.319260597229003906e-01
-3.229692578315734863e-02
7.629055529832839966e-02
-3.682708134874701500e-03
-2.866389229893684387e-03
-9.293313324451446533e-02
2.916008816100656986e-04
9.217652678489685059e-02
-1.802147926355246454e-05
-5.870331823825836182e-02
-4.430174885783344507e-04
2.286421060562133789e-01
1.925321668386459351e-02
4.044329002499580383e-02
2.393471077084541321e-02
-2.398348227143287659e-02
2.028206363320350647e-02
1.868763793027028441e-04
-9.013371542096138000e-03
-4.496583278523758054e-05
-3.056435883045196533e-01
-9.307132131652906537e-05
5.783861503005027771e-02
-1.162349656224250793e-01
-1.351697444915771484e-01
-5.971210703137330711e-05
-8.083055727183818817e-04
5.577682852745056152e-01
-2.856917679309844971e-01
-1.161187663674354553e-01
-4.404154419898986816e-02
-1.032576635479927063e-01
-6.447353214025497437e-02
3.629050776362419128e-02
1.395224332809448242e-01
-1.298390179872512817e-01
-1.293478417210280895e-03
-2.198457866907119751e-01
6.074495241045951843e-02
1.360232979059219360e-01
-2.133846580982208252e-01
-2.527782917022705078e-01
2.386246807873249054e-02
-6.833761334419250488e-01
-7.534443587064743042e-02
-1.234891787171363831e-01
-1.977785974740982056e-01
-3.390221972949802876e-04
1.342470347881317139e-01
4.937057383358478546e-05
-4.564255103468894958e-02
-4.459195584058761597e-02
5.053865970694459975e-05
1.039490525727160275e-04
-5.898226425051689148e-02
-7.543203234672546387e-01
-5.553232431411743164e-01
-2.725101709365844727e-01
5.593835934996604919e-02
2.062880098819732666e-01
-2.485476143192499876e-04
2.403241842985153198e-01
-9.213444590568542480e-02
-2.148267626762390137e-01
1.637457311153411865e-01
7.460649311542510986e-02
4.343023151159286499e-02
-9.192614257335662842e-02
-3.262849897146224976e-02
9.859734773635864258e-02
5.390453934669494629e-01
-1.712103635072708130e-01
-6.170343840494751930e-05
-4.124311089981347322e-05
1.176091209053993225e-01
-5.489542335271835327e-02
-1.785203628242015839e-02
-1.667931303381919861e-02
-9.988503158092498779e-02
-8.600383298471570015e-04
4.632978743757121265e-05
2.266353219747543335e-01
-1.329351216554641724e-01
-2.957400865852832794e-03
1.286329627037048340e-01
-1.016562432050704956e-02
7.089251448633149266e-05
5.263344049453735352e-01
3.242376148700714111e-01
3.221743740141391754e-03
3.518444718793034554e-04
-4.208191633224487305e-01
-6.828220188617706299e-02
-1.868809340521693230e-05
1.505795586854219437e-02
4.833507910370826721e-02
-1.374889817088842392e-02
7.443442882504314184e-05
2.314356863498687744e-01
-4.831639528274536133e-01
1.569631567690521479e-04
-9.503819793462753296e-02
1.864685267210006714e-01
9.685979603091254830e-05
-1.848631910979747772e-02
1.014066292555071414e-04
3.288499719928950071e-04
-1.896178873721510172e-04
5.832133814692497253e-03
-1.074456349015235901e-01
2.595042884349822998e-01
-5.481515545397996902e-03
-1.540914177894592285e-02
-2.688074573597987182e-06
3.367323370184749365e-04
-7.572723086923360825e-03
2.586143673397600651e-04
-5.219426384428516030e-05
1.286245509982109070e-02
-3.169444799423217773e-01
5.167551711201667786e-02
1.832327395677566528e-01
-3.194041550159454346e-03
9.423832595348358154e-02
-3.169947594869881868e-04
7.481374591588973999e-02
-2.011834084987640381e-01
9.137625806033611298e-03
-4.823676645755767822e-01
6.907456554472446442e-03
-4.993674531579017639e-02
-3.976917639374732971e-02
-1.226704800501465797e-03
-9.108814597129821777e-02
-3.594224527478218079e-02
-6.532245874404907227e-02
4.702989757061004639e-02
2.688743546605110168e-02
-1.772910803556442261e-01
5.332648870535194874e-04
-1.845894614234566689e-03
-8.093059994280338287e-03
7.049354910850524902e-02
-2.025779522955417633e-02
-2.755505591630935669e-02
-2.899380959570407867e-02
-7.684245356358587742e-04
2.710260152816772461e-01
-3.326610385556705296e-05
8.396126213483512402e-05
-9.351742453873157501e-03
3.173182606697082520e-01
1.887169033288955688e-01
3.401309624314308167e-02
-9.639996290206909180e-02
-9.889722801744937897e-03
6.523668766021728516e-02
5.758483707904815674e-02
3.406534343957901001e-02
3.906917199492454529e-02
-1.627049496164545417e-04
4.086667322553694248e-04
-4.686809480190277100e-01
4.366137459874153137e-02
2.485900558531284332e-02
-2.587460912764072418e-04
7.030827691778540611e-04
-1.694588065147399902e-01
-1.789687121345195919e-05
3.215609467588365078e-05
-1.608079820871353149e-01
2.420071250526234508e-04
3.183103981427848339e-04
3.433499950915575027e-04
5.220064849709160626e-05
-3.557814359664916992e-01
9.544098749756813049e-03
-5.118683911859989166e-04
-3.923718759324401617e-04
1.603499404154717922e-04
1.289613246917724609e-01
-9.827861504163593054e-05
1.403020578436553478e-04
4.558806121349334717e-01
3.401630818843841553e-01
1.798851444618776441e-04
1.689554774202406406e-04
-2.335519492626190186e-01
3.782223502639681101e-04
-7.556890341220423579e-05
7.577744126319885254e-02
5.274378880858421326e-02
2.531140148639678955e-01
-2.482817023992538452e-01
1.323461383581161499e-01
1.187360957264900208e-01
6.260789465159177780e-03
1.918326169252395630e-01
1.190520916134119034e-02
-1.197187136858701706e-02
3.732656687498092651e-02
5.794481839984655380e-03
-5.269942339509725571e-04
1.206192821264266968e-01
-5.608101375401020050e-03
-3.956001624464988708e-02
7.246671593748033047e-04
3.181013092398643494e-02
-4.820219427347183228e-02
9.874517470598220825e-02
3.250113129615783691e-02
-5.804393291473388672e-01
-1.144262850284576416e-01
9.136208891868591309e-02
-1.581791002536192536e-05
-5.049378871917724609e-01
-1.261080652475357056e-01
-2.301923558115959167e-02
-6.677784840576350689e-04
-5.711784586310386658e-02
5.132532533025369048e-05
-3.955092653632164001e-02
1.832385431043803692e-03
-1.132834659074433148e-04
-9.147154539823532104e-02
-1.682719737291336060e-01
4.197513684630393982e-02
2.115427196258679032e-04
9.532614052295684814e-02
-5.724471993744373322e-03
2.495894879102706909e-01
-4.023017827421426773e-03
1.151222750195302069e-04
-3.434377610683441162e-01
-3.834771632682532072e-04
1.259459853172302246e-01
-1.979670778382569551e-04
-2.606258988380432129e-01
5.873897680430673063e-05
-1.131504680961370468e-02
2.629245519638061523e-01
-3.827072214335203171e-05
-4.365535974502563477e-01
-1.147232251241803169e-04
2.580268979072570801e-01
-7.636189548065885901e-05
-9.108767699217423797e-05
1.388969868421554565e-01
-9.382526576519012451e-02
6.917240470647811890e-02
2.430738968541845679e-04
-2.014489173889160156e-01
1.034171145875006914e-04
2.453033812344074249e-03
-2.161873579025268555e-01
1.155028352513909340e-03
5.271437112241983414e-04
-5.990928038954734802e-03
4.957524836063385010e-01
-1.241773664951324463e-01
-5.571090616285800934e-03
-7.320891600102186203e-03
-4.471907019615173340e-02
-5.039180442690849304e-02
6.519091874361038208e-02
1.328586637973785400e-01
-3.678770735859870911e-02
2.495200484991073608e-01
1.658737746765837073e-04
-3.673238970804959536e-04
-2.840735018253326416e-01
-5.600053700618445873e-04
4.547354765236377716e-04
-7.961041480302810669e-02
2.092197770252823830e-03
3.731879964470863342e-02
1.338887959718704224e-02
-9.134059771895408630e-03
-5.078214779496192932e-02
-2.028730511665344238e-01
-2.958259284496307373e-01
2.452774497214704752e-04
-1.132570281624794006e-01
3.979756310582160950e-02
-3.104718925897032022e-04
7.562830299139022827e-02
-4.131565988063812256e-01
-1.563980132341384888e-01
-1.561668664216995239e-01
9.108782978728413582e-05
5.712574124336242676e-01
-2.225414961576461792e-01
6.500481686089187860e-05
-5.417306348681449890e-02
-4.098253548145294189e-01
1.385419219732284546e-01
-2.071782182611059397e-05
5.671485066413879395e-01
4.495409666560590267e-04
-4.741960391402244568e-02
-2.455773064866662025e-04
3.169292211532592773e-02
-1.858923956751823425e-02
4.331418895162642002e-04
-4.651580005884170532e-02
4.954005479812622070e-01
3.877994045615196228e-02
-4.169581085443496704e-02
1.095308065414428711e-01
-2.870534081012010574e-04
-3.871615263051353395e-05
-9.717671573162078857e-02
-4.683608189225196838e-02
-4.678657650947570801e-01
-1.444088816642761230e-01
-4.873500074609182775e-05
-1.034237560816109180e-03
-5.864595249295234680e-02
2.258978337049484253e-01
-7.995164990425109863e-01
-7.244026660919189453e-01
-1.701399385929107666e-01
6.693530678749084473e-01
-4.502927549765445292e-05
-3.466564118862152100e-01
2.648592293262481689e-01
5.933888629078865051e-02
8.904756396077573299e-04
2.084572911262512207e-01
-2.714199721813201904e-01
8.771268767304718494e-04
4.289119504392147064e-03
-3.125796839594841003e-02
1.802867092192173004e-02
-1.037717312574386597e-01
-9.214665293693542480e-01
1.678268462419509888e-01
3.448490798473358154e-01
2.651362717151641846e-01
2.642807085067033768e-03
2.905845828354358673e-02
-4.028762578964233398e-01
-6.327160596847534180e-01
-4.930317401885986328e-03
-2.997975945472717285e-01
-4.578444957733154297e-01
-1.949030160903930664e-01
-8.770189285278320312e-01
4.191927015781402588e-01
4.292607605457305908e-01
2.502234419807791710e-04
6.188211264088749886e-04
2.248569624498486519e-03
2.029598545050248504e-04
2.589409649372100830e-01
-1.869824826717376709e-01
1.782141253352165222e-02
7.296565175056457520e-02
-3.489807844161987305e-01
3.672574460506439209e-02
-4.504034761339426041e-03
-9.513991535641252995e-04
-1.826175575843080878e-04
2.396033853292465210e-01
5.190134048461914062e-02
2.173313312232494354e-02
6.181216239929199219e-02
3.332614600658416748e-01
-2.184453159570693970e-01
1.194298092741519213e-04
-1.642661541700363159e-01
-2.841730020008981228e-04
3.146847486495971680e-01
8.141067810356616974e-03
-2.810625359416007996e-03
-5.610956549644470215e-01
-9.155458770692348480e-03
-1.543453633785247803e-01
-6.093836575746536255e-02
3.549364395439624786e-03
1.350751966238021851e-01
1.036938428878784180e-01
-4.325919225811958313e-02
1.339328587055206299e-01
-3.038159608840942383e-01
2.068488113582134247e-02
1.936510950326919556e-01
-3.954951837658882141e-02
-4.628101363778114319e-03
1.633177250623703003e-01
2.690815308596938848e-04
-1.945732365129515529e-04
-6.539182364940643311e-02
2.787665289361029863e-05
3.846775507554411888e-04
-3.420724347233772278e-02
-1.216891929507255554e-01
-6.631059944629669189e-02
-5.636521428823471069e-02
-6.283982843160629272e-02
-1.097910329699516296e-01
1.199697799165733159e-04
-2.854817430488765240e-04
-4.470041394233703613e-02
-6.662784516811370850e-02
3.978024423122406006e-01
2.852417310350574553e-05
-3.599772453308105469e-01
-8.446873165667057037e-03
1.232097744941711426e-01
4.298815620131790638e-04
3.722688461493817158e-06
2.509718537330627441e-01
-4.147366562392562628e-04
-1.012765133054926991e-04
4.106008447706699371e-03
-3.444496833253651857e-04
-1.562392413616180420e-01
-8.602983355522155762e-01
9.208171977661550045e-04
3.163376240991055965e-04
-6.492733024060726166e-03
-5.995390415191650391e-01
8.158983290195465088e-02
-9.804929047822952271e-02
-5.828322537126950920e-05
4.741576849482953548e-04
-3.699344098567962646e-01
-4.577641934156417847e-02
-2.693404676392674446e-04
1.359362271614372730e-03
8.275775238871574402e-03
3.629468753933906555e-02
3.452601432800292969e-01
-1.196215748786926270e-01
-2.990124225616455078e-01
1.143086046795360744e-04
-2.578580975532531738e-01
-9.866320341825485229e-02
-2.313428819179534912e-01
-7.385531440377235413e-03
-1.251128688454627991e-02
-1.815732754766941071e-02
-4.711163341999053955e-01
-3.406723588705062866e-02
2.422687262296676636e-01
1.132414191961288452e-01
2.191985696554183960e-01
-1.982488436624407768e-03
1.593143492937088013e-01
-2.109295278787612915e-01
-1.244582757353782654e-01
9.563072770833969116e-02
6.867269426584243774e-02
-4.705579206347465515e-02
-1.184735447168350220e-04
-1.187993984785862267e-04
-2.090211637550964952e-04
-3.033922694157809019e-04
-3.203494250774383545e-01
-7.257697143359109759e-05
1.442308276891708374e-01
-1.143202036619186401e-01
3.483740985393524170e-02
-1.321764662861824036e-03
-1.023077522404491901e-03
2.074011266231536865e-01
-3.270918726921081543e-01
2.808398902416229248e-01
4.751496016979217529e-02
2.628900983836501837e-04
2.118952274322509766e-01
3.172992030158638954e-03
-3.610153496265411377e-02
-3.804956078529357910e-01
-1.094038188457489014e-01
-1.702481508255004883e-01
1.775604486465454102e-01
2.483256685081869364e-05
7.206001318991184235e-03
-3.658638894557952881e-01
-2.409837907180190086e-03
2.067252844572067261e-01
-1.415662020444869995e-01
-1.206151116639375687e-02
-7.233267388073727489e-05
2.036661282181739807e-02
4.588966839946806431e-05
2.517833127058111131e-05
-2.037944942712783813e-01
9.601421654224395752e-02
6.061175372451543808e-03
1.571371976751834154e-04
3.743772953748703003e-02
-3.220462240278720856e-04
-1.487062275409698486e-01
1.789748854935169220e-02
1.746192720020189881e-04
-3.432346880435943604e-02
-2.191733382642269135e-02
2.963146567344665527e-01
-8.904426067601889372e-05
6.294026388786733150e-05
-2.926567196846008301e-01
-3.268490731716156006e-01
2.414332926273345947e-01
-1.256148214451968670e-03
-3.474647237453609705e-04
2.770151756703853607e-02
2.826492190361022949e-01
-3.407576084136962891e-01
-5.539487392525188625e-05
-2.126998156309127808e-01
4.273791331797838211e-03
-3.533506393432617188e-01
3.404021981623372994e-06
-2.521707501728087664e-04
-6.536807119846343994e-02
-5.322895050048828125e-01
-2.572911418974399567e-02
9.787936869543045759e-05
-8.286228403449058533e-03
-3.330174076836556196e-04
8.573149534640833735e-05
-8.563219569623470306e-03
-4.973039031028747559e-02
-1.474851965904235840e-01
-9.536988288164138794e-02
6.622146815061569214e-02
-2.386968350037932396e-03
-2.528738602995872498e-02
7.502383232349529862e-05
3.366703391075134277e-01
-1.365137432003393769e-04
1.494417786598205566e-01
9.170135855674743652e-02
-1.375971585512161255e-01
2.132855504751205444e-01
-4.575310274958610535e-02
4.526620614342391491e-05
-1.135930768214166164e-03
5.820502638816833496e-01
-3.139829039573669434e-01
2.971820160746574402e-02
5.066611617803573608e-02
-2.806896716356277466e-02
2.442255318164825439e-01
-3.022399842739105225e-01
-6.987744942307472229e-03
2.656098008155822754e-01
1.593037843704223633e-01
9.212338365614414215e-03
-1.121536479331552982e-04
-6.842583417892456055e-02
-8.946612477302551270e-02
-6.468862295150756836e-02
-4.962992668151855469e-02
9.022401273250579834e-02
-1.183008498628623784e-04
8.095003664493560791e-03
1.413386911153793335e-01
8.779090421739965677e-05
1.160581086878664792e-04
1.494993548840284348e-02
2.520138025283813477e-01
4.572161287069320679e-02
6.689112633466720581e-03
-1.075965687632560730e-01
-9.651239815866574645e-05
2.602526183181907982e-05
-1.415671221911907196e-02
-1.207154244184494019e-02
-3.028539940714836121e-04
6.758221983909606934e-02
-1.644189469516277313e-04
3.867679275572299957e-03
-2.119841426610946655e-01
-7.450154423713684082e-02
2.821637392044067383e-01
-3.389760968275368214e-04
-7.739311456680297852e-02
2.444890290498733521e-01
-5.294831097126007080e-02
2.916514575481414795e-01
8.553490042686462402e-02
-1.201848313212394714e-01
5.611712113022804260e-04
3.527862019836902618e-03
-1.466853171586990356e-02
2.125834487378597260e-02
-7.705558836460113525e-02
-2.632937431335449219e-01
2.779521644115447998e-01
1.553413867950439453e-01
6.347073316574096680e-01
2.006923705339431763e-01
2.480859458446502686e-01
-2.250508987344801426e-04
3.736528378794901073e-05
5.036506263422779739e-05
5.735868960618972778e-02
7.924865186214447021e-02
-4.199290275573730469e-01
-2.008868323173373938e-04
-5.109940189868211746e-03
-6.554668303579092026e-03
5.227735382504761219e-04
-8.761189877986907959e-02
-1.035375148057937622e-01
6.032876990502700210e-05
-2.436521202325820923e-01
7.974802429089322686e-05
1.914531737565994263e-01
1.091649159789085388e-01
5.311435088515281677e-02
-9.872131049633026123e-02
7.553749310318380594e-05
-5.251724360277876258e-05
-2.273550780955702066e-04
-1.634388900129124522e-04
-4.264482110738754272e-02
2.020379900932312012e-01
-3.921597453881986439e-05
-5.098973051644861698e-04
-3.023199439048767090e-01
1.796220312826335430e-04
-1.923913806676864624e-01
-9.924587793648242950e-04
1.818806194933131337e-04
-4.102493170648813248e-03
1.507586054503917694e-02
1.745050586760044098e-02
2.793410234153270721e-02
1.384030431509017944e-01
-6.500137597322463989e-02
-7.639850489795207977e-03
-4.486353993415832520e-01
7.883414626121520996e-02
4.418147802352905273e-01
-8.682256564497947693e-03
6.622452288866043091e-02
-1.046966686844825745e-01
-8.537504822015762329e-02
3.337508067488670349e-02
1.602257490158081055e-01
8.568132761865854263e-05
5.270259976387023926e-01
3.255219198763370514e-04
-2.141205407679080963e-02
1.889433152973651886e-02
9.407287836074829102e-02
-2.592812525108456612e-03
5.323029682040214539e-02
1.033257618546485901e-01
-4.275183659046888351e-03
-4.451518356800079346e-01
-5.639523267745971680e-02
-1.651343307457864285e-03
1.162923276424407959e-01
1.706148264929652214e-03
-4.806159704457968473e-04
1.124879792332649231e-01
1.796489022672176361e-02
-2.636019587516784668e-01
-1.026949360966682434e-01
1.322297155857086182e-01
-2.824751473963260651e-02
2.581058144569396973e-01
-1.090485369786620140e-03
-1.787310689687728882e-01
1.297057047486305237e-02
1.019064933061599731e-01
-4.344307308201678097e-05
-3.870514780282974243e-02
-3.529604077339172363e-01
-4.018107138108462095e-04
4.602610319852828979e-02
-4.602637141942977905e-02
1.649104505777359009e-01
-3.416211903095245361e-02
-8.270913967862725258e-04
-3.339651599526405334e-02
-2.432743058307096362e-04
-3.700207546353340149e-02
9.000936552183702588e-05
3.130750656127929688e-01
6.823475268902257085e-05
-1.716425293125212193e-03
-2.355224278289824724e-04
-1.635746302781626582e-04
-2.364230604143813252e-04
-4.077235644217580557e-04
3.411215171217918396e-02
1.259115636348724365e-01
1.711517506919335574e-05
4.162802360951900482e-03
3.238688409328460693e-02
-5.381372175179421902e-04
8.723595237825065851e-05
2.040324918925762177e-02
1.505219261161983013e-03
9.680819511413574219e-02
-3.088358938694000244e-01
1.302774846553802490e-01
1.798181049525737762e-02
-1.049900203943252563e-01
-3.992752134799957275e-01
-1.831039972603321075e-02
6.698741763830184937e-02
-3.974378108978271484e-01
5.115647912025451660e-01
7.165711373090744019e-02
1.564186811447143555e-02
9.426281601190567017e-02
4.435560852289199829e-02
6.935945712029933929e-04
4.078189134597778320e-01
-8.412193506956100464e-02
5.206033121794462204e-03
1.002773860818706453e-04
-6.700618658214807510e-03
3.776305820792913437e-03
-4.317570030689239502e-01
1.694627478718757629e-02
1.529065370559692383e-01
3.758438304066658020e-02
3.609646111726760864e-02
-6.562917232513427734e-01
-3.408521711826324463e-01
-2.406580001115798950e-01
2.675806172192096710e-03
-1.763304462656378746e-03
3.259250521659851074e-01
-2.047399580478668213e-01
-1.284328009933233261e-02
-1.943372637033462524e-01
-1.033813655376434326e-01
-4.086519181728363037e-01
-2.601702511310577393e-01
3.362140059471130371e-01
3.098854124546051025e-01
-1.700900793075561523e-01
4.160115122795104980e-02
-3.876147791743278503e-02
-9.392196685075759888e-02
-2.513649463653564453e-01
1.031307354569435120e-01
-2.841627299785614014e-01
1.887344270944595337e-01
-3.334540524519979954e-04
3.358788788318634033e-01
-2.076149939966853708e-06
-7.805485278367996216e-03
-1.353561133146286011e-01
-4.157676175236701965e-02
-6.446868926286697388e-02
-2.656323313713073730e-01
8.238561451435089111e-02
-1.055107422871515155e-04
-6.322351284325122833e-03
-2.281722575426101685e-01
3.148738741874694824e-01
2.790826261043548584e-01
-9.044896811246871948e-02
-6.305108666419982910e-01
1.428478956222534180e-01
3.840567078441381454e-04
-2.555134892463684082e-02
-2.114765375154092908e-04
-9.719451516866683960e-02
2.848622761666774750e-02
9.117360226809978485e-03
6.967955082654953003e-02
5.765370093286037445e-03
1.178928986191749573e-01
-9.337493102066218853e-04
2.190801751567050815e-06
9.542392939329147339e-02
1.843228004872798920e-03
1.222637016326189041e-02
-1.323245465755462646e-01
-1.076983213424682617e-01
7.769857620587572455e-05
1.817565262317657471e-01
5.681641027331352234e-02
1.257510334253311157e-01
-1.652974635362625122e-02
-1.598388254642486572e-01
-1.774802949512377381e-04
7.430086284875869751e-02
-1.373409759253263474e-04
3.237893059849739075e-02
-4.816958680748939514e-03
6.752894818782806396e-02
2.131863147951662540e-04
8.316939324140548706e-02
-3.794737160205841064e-01
-7.031804852886125445e-05
3.104201257228851318e-01
-9.008808992803096771e-03
1.499303579330444336e-01
-3.052304089069366455e-01
-1.930859386920928955e-01
-8.640993473818525672e-05
-1.320633455179631710e-04
2.735503204166889191e-02
2.320709172636270523e-03
-1.259261518716812134e-01
2.088043220282997936e-05
1.967135118320584297e-03
3.077201836276799440e-05
3.346822632011026144e-04
-1.291078031063079834e-01
1.426275968551635742e-01
-1.602671458385884762e-03
-3.089133463799953461e-02
1.457136677345260978e-04
1.200416088104248047e-01
-2.007898837327957153e-01
1.161977052688598633e-01
1.401082724332809448e-01
1.289719194173812866e-01
-4.216026354697532952e-05
5.514832139015197754e-01
-1.531111150979995728e-01
3.634182810783386230e-01
-5.151556804776191711e-02
-3.606439530849456787e-01
-1.733688116073608398e-01
1.394138485193252563e-01
-5.431022047996520996e-01
-2.669961191713809967e-02
-1.540139317512512207e-01
-4.430480112205259502e-05
2.607805430889129639e-01
-1.785191893577575684e-01
-5.990148708224296570e-02
2.382493466138839722e-01
9.459508955478668213e-02
-2.379746735095977783e-01
1.452897704439237714e-04
-2.813087776303291321e-02
-9.798053652048110962e-03
1.375373154878616333e-01
-2.456709891557693481e-01
-1.118922419846057892e-02
5.793104719487018883e-05
-6.460890290327370167e-04
-1.603939570486545563e-02
1.161780310212634504e-04
-1.900869309902191162e-01
-1.909881830215454102e-04
8.007693395484238863e-05
-3.283255994319915771e-01
7.020339369773864746e-02
6.198599338531494141e-01
3.458414077758789062e-01
-3.580803424119949341e-02
-1.605715751647949219e-01
-4.486425220966339111e-01
3.344993456266820431e-04
-4.879795759916305542e-02
2.142640762031078339e-02
2.137349694967269897e-01
2.127411216497421265e-02
-1.511137187480926514e-01
4.602978006005287170e-03
-2.542181126773357391e-02
1.920782960951328278e-04
2.084628492593765259e-01
2.149417996406555176e-01
-1.336356252431869507e-01
1.405001133680343628e-01
2.402587048709392548e-02
-7.463794463546946645e-05
-1.423640642315149307e-02
-1.587791442871093750e-01
2.529456615447998047e-01
-4.239251092076301575e-02
-3.231008946895599365e-01
1.143502742052078247e-01
-1.531224261270835996e-04
-2.078113611787557602e-04
1.168604567646980286e-01
-7.431870698928833008e-02
-4.816784989088773727e-03
-5.159017443656921387e-02
8.814325928688049316e-02
-1.402844488620758057e-01
1.341476291418075562e-01
-3.637467324733734131e-01
8.047409355640411377e-02
-4.369610687717795372e-04
1.566646099090576172e-01
-4.288499057292938232e-02
5.879191448912024498e-04
8.903118968009948730e-02
1.056810287991538644e-04
-6.102138385176658630e-02
-2.849656855687499046e-03
1.026397496461868286e-01
-4.216874367557466030e-05
2.424924896331503987e-04
5.083119496703147888e-03
1.605789584573358297e-04
1.992884464561939240e-02
-1.062780842185020447e-01
1.041746791452169418e-02
1.107562631368637085e-01
4.672870784997940063e-02
1.055582538247108459e-01
-5.198595463298261166e-04
-1.331157051026821136e-03
1.279908418655395508e-01
2.474012970924377441e-01
-9.780425578355789185e-02
6.235670298337936401e-05
-2.039041370153427124e-03
1.143352873623371124e-02
-4.609763920307159424e-01
-8.129269117489457130e-04
-7.076738774776458740e-02
-2.186856872867792845e-04
5.645797848701477051e-01
2.695637813303619623e-04
-2.059051096439361572e-01
-2.684369869530200958e-02
-1.193332076072692871e-01
-8.807337842881679535e-03
7.012117188423871994e-03
9.072180837392807007e-02
-1.065495525836013258e-04
2.389141736784949899e-04
-2.313770167529582977e-02
7.067312300205230713e-02
-8.201375603675842285e-03
1.501821388956159353e-04
3.167335689067840576e-02
2.950359582901000977e-01
-1.019715592265129089e-01
1.260921545326709747e-02
-8.482217788696289062e-01
-1.114306878298521042e-02
-6.047905981540679932e-02
7.996484637260437012e-03
-4.990805312991142273e-02
9.201236069202423096e-02
-2.241137176752090454e-01
1.141716986894607544e-01
1.054299548268318176e-01
-1.310923602432012558e-02
-7.110273241996765137e-01
-2.285265475511550903e-01
-2.183056436479091644e-02
-1.833414472639560699e-02
3.905549943447113037e-01
-5.805652588605880737e-03
1.541091352701187134e-01
4.698289930820465088e-02
1.613155909581109881e-04
1.741799116134643555e-01
-1.134051308035850525e-01
-6.874009221792221069e-02
2.378832548856735229e-01
-1.598871350288391113e-01
5.749911442399024963e-02
-3.094075322151184082e-01
8.769495412707328796e-03
1.676714420318603516e-02
-8.386819809675216675e-02
5.387705750763416290e-04
4.741378063499723794e-07
-1.878602504730224609e-01
4.324941039085388184e-01
-2.467382997274398804e-01
-1.190561894327402115e-02
1.188475117087364197e-01
-1.417085295543074608e-04
6.930999457836151123e-02
-4.791087806224822998e-01
3.131775856018066406e-01
-5.795806646347045898e-05
-1.238321289420127869e-01
4.846715033054351807e-01
1.460615396499633789e-01
-1.577696502208709717e-01
-1.344036012887954712e-01
-5.371400117874145508e-01
-1.018404774367809296e-02
1.589080877602100372e-02
-2.968067747133318335e-05
6.580082699656486511e-03
-3.474128991365432739e-02
-2.679520547389984131e-01
-3.159829939249902964e-04
-3.924064040184020996e-01
2.839238150045275688e-04
3.036108911037445068e-01
2.442873567342758179e-01
1.888437196612358093e-02
2.266267256345599890e-05
-1.101309508085250854e-01
3.321173489093780518e-01
-3.698268119478598237e-05
-3.096520958933979273e-04
-4.130833549425005913e-04
4.339337944984436035e-01
1.590835629031062126e-03
-3.972978889942169189e-02
-5.103603005409240723e-02
-3.218477070331573486e-01
1.315922439098358154e-01
1.034209071804070845e-05
5.199846054892987013e-05
3.162698075175285339e-02
-7.111751288175582886e-02
-4.605922996997833252e-01
2.759053409099578857e-01
-4.433835744857788086e-01
5.113365128636360168e-02
-7.892040163278579712e-02
7.951024599606171250e-06
6.129432842135429382e-02
1.864396780729293823e-01
9.648331440985202789e-03
-2.975344192236661911e-03
-4.592318534851074219e-01
9.095930727198719978e-04
-4.354121847427450120e-05
2.422939985990524292e-01
2.770407497882843018e-01
-1.751506060827523470e-04
-1.415148872183635831e-04
-1.220868085511028767e-03
1.669739576755091548e-04
2.065050648525357246e-03
4.222588056990161931e-09
2.094954688800498843e-04
4.431381239555776119e-04
-6.256432970985770226e-04
1.699364781379699707e-01
-1.029516309499740601e-01
-4.319704771041870117e-01
-3.313992172479629517e-02
-9.887413680553436279e-02
-9.381325542926788330e-02
-6.923063099384307861e-02
-9.133434505201876163e-04
-6.289567053318023682e-02
-2.188925258815288544e-02
-1.039507146924734116e-02
1.414417773485183716e-01
-3.130693803541362286e-04
4.634622931480407715e-01
