0.2022722
-0.002507294
-0.35562792
-0.49015024
0.28848982
-0.20160957
0.13781515
0.2649855
-0.31120577
-0.087499745
0.2974433
0.027951067
-0.014315861
-0.14360972
0.13460518
0.050623737
0.12316608
0.20758452
0.025978273
-0.058361813
-0.024373112
-0.013117638
0.27819058
0.12769869
0.08587826
0.049394153
0.028921219
0.07946634
-0.079890236
-0.065889016
0.17418346
0.15084074
-0.058036406
0.23534082
-0.22628422
-0.19584368
-0.055222858
0.1415128
-0.17623411
0.14744586
0.20871192
0.050320577
0.07708435
0.098107345
0.028662078
0.15291704
0.020494195
0.1160403
0.0064931232
0.08074483
0.24713644
0.14834827
0.12680215
-0.17153393
-0.25445366
0.18095107
0.22068392
0.17020325
0.095986195
0.045257356
0.059400756
0.22133291
-0.16452476
-0.102629766
-0.06263402
0.023775097
0.15506573
0.17789572
0.19592121
0.07450072
0.10745058
-0.26599285
-0.043570768
0.20573424
0.035455078
0.27297997
0.07678854
0.08456125
-0.17527905
0.14038138
0.18578395
0.020095697
0.108965136
0.108046465
0.22413549
0.30017966
0.025474878
0.19475974
0.24411881
0.009229779
-0.16076207
0.0955592
-0.25459322
-0.2244906
0.10457648
0.32365584
0.23758915
-0.09185129
0.21737213
-0.12537003
0.31313267
-0.3643183
-0.30094516
-0.0623874
-0.07865277
-0.13008137
0.42735
-0.21992321
0.46805167
-0.331728
-0.03525176
0.010265558
0.10080738
0.20111205
0.005149334
0.0883763
0.14305541
-0.25525177
-0.007323566
0.050394665
0.21623221
0.059008442
0.049885847
-0.17005676
0.0440244
0.21636172
0.16655517
-0.14295605
-0.16896859
0.1829912
-0.009361715
0.18402804
-0.22395927
-0.08594993
0.1617776
-0.04548407
0.24906747
-0.020567842
0.18100992
-0.0994912
0.23657146
-0.15667848
0.1341172
-0.13312712
0.09168515
-0.032344554
-0.21083418
0.12119887
0.04765441
0.310289
-0.16940042
-0.10963538
0.28448558
0.08727591
-0.10687431
0.36319888
0.34952554
-0.19858049
0.12612061
-0.15601642
0.08909781
-0.12577334
0.018122545
0.0778021
-0.3096051
-0.1870613
0.061787877
-0.19010824
-0.24449632
0.23616248
-0.16120282
-0.23772846
-0.2490448
-0.15377243
0.26097086
0.096526295
0.2531975
0.1693573
-0.121623844
0.16550225
0.19448225
0.19093765
-0.2085005
-0.15160888
-0.2167049
0.23319082
-0.22626644
0.21670112
0.040060367
0.36915883
0.27127934
-0.2772405
-0.22466002
-0.104680434
0.13797967
-0.1007861
0.033670157
0.260993
0.031956207
-0.25435135
-0.1631128
0.08333673
0.086365774
0.04786693
-0.1246656
-0.21874861
0.12928455
0.03377584
-0.14691663
0.33264512
-0.21247002
0.19364177
0.04575412
0.32028937
-0.02006002
0.059391778
-0.16081859
-0.165775
0.0014379115
0.2771271
-0.17761782
-0.027780939
0.20635864
0.1423414
-0.13692768
-0.15490101
-0.017900895
-0.35219252
0.35093895
0.28225127
-0.24425179
-0.0025656158
-0.05500433
0.0414651
-0.1688657
-0.23508541
-0.29928714
-0.1405548
-0.25961852
0.25491333
0.6174091
-0.5464719
0.05922564
-0.26368234
0.35882497
0.3541987
0.0023720793
-0.25477037
0.22235559
-0.51980394
-0.254785
-0.052246317
-0.11739469
0.05710252
-0.07943921
0.0987932
-0.18481927
0.07319781
-0.050211918
0.22375716
0.1798312
0.10411543
0.12899987
0.0735106
0.026404444
-0.031082686
-0.13074043
-0.1401985
0.26848918
0.28056726
0.1354735
-0.024569318
-0.19010176
-0.21709302
-0.04597523
-0.07381981
-0.1309446
-0.14931823
0.016753737
0.5207495
-0.02858845
-0.033972334
0.18518344
-0.17026094
-0.25854364
-0.25553563
-0.40760437
0.19547462
-0.3251947
0.04906723
0.3961859
-0.35162494
-0.10663745
-0.06002319
0.24386644
0.16553494
-0.029121503
0.18343616
-0.1521774
-0.07119198
0.047058605
0.35638037
0.15508564
-0.24106956
-0.06535886
-0.35926813
0.007658653
-0.06334852
0.15646304
0.44595644
0.2257961
0.17353502
-0.10946597
-0.24281298
0.14985693
-0.21701773
0.11425122
-0.21672039
-0.16998261
-0.19284569
-0.26566917
-0.04655151
-0.20197998
-0.15519156
0.24321981
-0.5682437
-0.49338222
0.3287984
-0.06374222
0.51451033
0.12751493
0.116274096
0.19329186
0.20226029
0.22846586
-0.086516894
-0.23357075
-0.30423492
-0.4015354
0.23238605
-0.41283056
0.22455703
0.17644899
0.11238408
0.23567969
-0.22947814
-0.55137193
0.056429952
-0.45949066
0.29998928
-0.057963442
0.05445173
-0.048281226
-0.3000287
0.39638323
0.3415339
0.4726335
-0.29413748
0.08685351
-0.38583216
0.032833643
0.049662687
-0.07340772
0.10215559
0.046910476
0.31410334
0.3432245
-0.11033432
0.08811277
-0.37652647
0.056077186
0.19444469
0.08334969
-0.10481826
-0.0644489
0.14155683
0.25409672
0.014613466
0.19530219
0.11848755
0.08772212
0.33018968
0.1700131
0.23625419
0.047648095
0.032977432
0.0073998175
-0.18610536
-0.27371132
0.12381533
-0.0053082416
0.1432134
-0.088984475
-0.008198823
0.10783124
-0.14674604
0.059292458
0.18616332
0.07061578
0.017658211
-0.20722799
-0.07502103
-0.1071615
0.010597479
-0.24962616
-0.0131135145
-0.25412315
-0.24507424
0.10462883
-0.1235394
-0.022079842
0.107396916
0.11390073
-0.1511522
0.23504058
-0.1921656
-0.053976335
0.1467727
0.044928942
0.35971397
-0.108151026
0.21170911
0.0820698
0.34937578
-0.10413714
0.3241263
0.1054415
-0.4509075
-0.21680097
0.04509039
0.0975296
0.013400243
0.08301384
-0.10639624
0.072514184
-0.1934787
0.23663734
-0.014715951
-0.17919359
-0.20668507
-0.38901561
0.06408861
0.49728298
0.43924084
-0.013349908
-0.028408336
-0.12385755
0.24274848
-0.15680932
0.026203867
-0.096323684
0.12664187
-0.18701929
-0.26189223
0.114475764
-0.2420096
0.10252741
0.22700198
-0.13635406
0.3860187
-0.20863679
0.33602133
-0.08252196
-0.11172327
-0.3796773
-0.23556387
-0.3144545
0.00015876288
-0.01506681
0.29368514
-0.13744168
0.29367548
-0.15941754
0.14663258
0.16580449
-0.08167934
0.008726039
0.083157405
-0.11261644
0.22548145
-0.008794185
0.119916536
0.24724628
0.15193331
-0.32880083
-0.12035977
-0.023691004
0.19497246
0.118718244
0.21419023
0.007459791
-0.09284049
0.31560224
0.23098575
-0.26627785
-0.02646542
-0.1614734
0.1941205
0.11505776
-0.15097775
