-0.062749624
0.09531881
-0.07916519
0.12465486
-0.25157237
0.22586648
0.22762775
-0.19807327
-0.09823345
0.16755314
-0.18173823
0.18642308
-0.07630599
-0.2118406
0.15962408
-0.07512664
0.19050921
0.20900705
0.10461727
-0.34534886
-0.17738666
0.20684315
-0.11704605
0.07242641
-0.027137982
0.15312748
-0.11899162
0.10395252
0.34342155
0.15656276
0.19952974
-0.16529487
0.22222608
0.09947339
-0.20813562
-0.03537424
0.24380095
-0.15362296
-0.24211772
-0.05158695
-0.16279253
0.55670786
0.0040257643
0.18541935
0.042663254
0.24472176
0.113236316
0.12630913
0.7930408
0.3831029
0.28021127
-0.2599727
0.2170876
-0.089798264
-0.13921377
-0.15743555
0.083579235
0.14962675
0.030256007
0.13155928
-0.16058294
0.297169
0.2588878
-0.27552032
-0.12413107
-0.06825677
-0.022822767
0.1519368
0.088813566
0.18106182
0.16061337
-0.17525487
-0.06825872
0.18326767
-0.11180061
0.00898145
0.2634087
0.043894824
0.20805115
0.040324103
0.025710732
-0.10490459
0.2093797
-0.25463054
0.19102088
-0.15550414
-0.23740734
0.19848046
-0.13607444
-0.031251144
-0.2802401
-0.35297862
0.08274932
-0.04671626
-0.06388465
0.23728298
-0.06611202
-0.4585684
0.23809409
-0.05487011
0.2461427
-0.20814683
0.18579562
-0.24861386
-0.2562358
-0.03790451
-0.031453546
0.38009918
-0.04076212
0.26374823
0.061301377
0.1009327
-0.18656544
-0.02048885
-0.031148512
0.076565556
-0.0933194
0.22695762
-0.28634715
-0.12920983
-0.26192957
-0.23747376
-0.38623038
0.24547918
0.13435248
0.10278035
0.14170307
-0.09279084
-0.19065237
0.27815688
-0.1256401
0.09015104
0.23120525
0.21935336
-0.011308981
-0.022775944
0.16814451
0.14517318
0.17777896
0.040519524
0.25533485
-0.18498401
0.096940145
0.18560578
0.22647709
0.23994696
0.17613675
-0.063775636
0.23339002
-0.08278479
0.22895928
0.3277769
0.16587295
0.011631439
-0.26463917
0.16103393
0.054232676
0.24525695
0.049525138
0.19736657
-0.121032275
0.15780422
-0.13376486
0.027377091
-0.3283105
0.25053054
0.08622845
-0.14949343
0.21420309
-0.27002937
-0.20675844
-0.15810283
0.11602825
-0.1521431
-0.044065654
-0.1629057
0.14780264
-0.101778425
0.11179956
-0.22154738
0.2764106
0.062081616
0.10457101
0.053640056
-0.4559991
0.13695158
0.29004675
0.19970751
0.25447372
0.16315053
0.17903616
0.2439749
-0.039759483
0.2538668
0.23611149
0.19237965
0.12276206
0.18387337
-0.15559085
0.25274506
0.10154746
0.06906692
0.5205805
0.035831824
0.5523334
0.27683756
-0.5245778
0.26661646
0.38200065
0.30184633
-0.061689008
-0.10488443
-0.4648556
-0.018585812
0.04132742
0.22861773
0.19809559
-0.007711969
-0.050337125
0.13803487
-0.022761367
0.26013553
0.30801392
-0.16711235
0.07351297
-0.1742747
-0.01957241
0.30100417
-0.34500816
-0.055153385
0.2483611
-0.06463144
0.25926694
0.0086179795
-0.22572665
-0.28925508
0.37536955
0.26994717
-0.13834926
-0.31508833
-0.007854569
-0.23067717
-0.28531852
0.094885744
-0.4512392
0.17095906
0.041163664
-0.05925522
-0.094221905
0.09193831
-0.29052702
-0.2423459
-0.22254542
-0.042336028
-0.25563097
-0.18433353
0.05964871
-0.10315966
0.2075996
-0.2051723
-0.06718994
-0.07882665
-0.2153433
0.19745848
-0.15686001
0.22882158
0.23692368
-0.20303679
0.397377
-0.20682178
-0.00875809
0.3042326
-0.20420025
-0.117525555
0.10517698
0.11514096
-0.2506951
0.17022353
-0.046766598
0.1581445
0.13912879
0.090142414
-0.095570385
0.17935717
0.324831
0.15455657
-0.21310309
0.20363583
-0.10523534
0.11649834
0.16441908
0.020536846
-0.5445899
0.19365549
0.0018839804
0.08226497
0.15993845
-0.10994356
0.18031065
0.11362597
0.13006149
-0.0272939
-0.2580582
0.14447866
-0.16949454
-0.12806271
0.08626565
0.057412688
0.16963695
0.016352545
0.27014983
0.11235052
0.55259776
-0.2850787
0.00108365
0.06961491
-0.02463923
-0.02718987
-0.14660877
-0.004745003
-0.5216084
0.18270957
-0.061724443
0.060065072
0.06629841
-0.15059872
0.28948915
-0.0522444
0.47569352
-0.4157724
0.29218933
0.2659683
-0.19012612
-0.42453742
-0.04461174
0.3965848
0.022526007
0.20095965
-0.044077676
0.35079846
0.120887645
-0.34107837
0.0061093466
-0.81379414
-0.28233507
-0.3478308
0.101608776
0.0034113755
-0.657879
-0.2054135
0.31080335
0.30366483
-0.1405529
-0.17951581
0.37483612
0.06548077
-0.27784088
-0.12688033
0.266815
0.10726409
-0.09189073
-0.03266843
0.24395826
-0.21465783
0.012330019
-0.23895676
0.21132912
0.19810988
0.2610684
-0.380514
-0.07923876
-0.3674696
-0.03159633
0.09222051
0.4575035
-0.13453361
0.14687367
0.2746958
0.047612242
-0.14330208
0.40184772
0.055466086
-0.02612781
0.098081425
0.1526339
-0.086892135
0.033515524
0.10078635
-0.33348936
0.2737971
-0.2652577
0.1021705
-0.4452937
0.27153763
0.093394995
0.22223748
0.34784558
0.06805991
0.35558265
0.24083315
-0.46392
-0.09171292
-0.0574946
-0.17627946
0.16055508
-0.24165793
0.16080491
0.051273897
-0.42101052
-0.3548507
0.15421745
0.23197947
-0.19685891
0.037305698
-0.36112598
-0.11798885
0.13462871
-0.2358793
-0.17703742
0.06980292
0.3578308
0.30747843
0.21436246
0.1751807
0.22815625
0.02284685
-0.32285365
0.39411986
0.19002736
0.0063081034
-0.1993398
-0.11314287
0.01564328
0.24516965
-0.16105634
0.21124852
-0.011384451
-0.008686863
0.13285954
0.055816144
-0.0043488992
0.22145748
-0.22252494
-0.136171
0.2259198
0.24252325
-0.10595885
0.17464565
-0.03117746
0.20781323
0.14651205
0.28070292
-0.015406937
-0.38396508
-0.0016400251
0.22328173
-0.14151672
0.26743054
-0.30534086
-0.2063869
0.17881587
-0.20395331
-0.054643314
0.07437849
-0.118603796
0.11781612
0.023390103
0.015307708
-0.29415494
0.030726653
0.3869886
0.15805918
-0.018903952
0.12622759
0.3318949
0.13583058
-0.16275693
-0.025229186
-0.14496793
0.069486745
-0.07874282
-0.14289422
0.31872696
-0.17412537
-0.28553843
0.16290365
0.059265845
0.34968743
0.03805524
-0.07891731
0.1758046
0.10947039
0.07013139
-0.11887553
-0.66480964
-0.31648928
0.27477524
0.2910092
0.11416746
0.0480082
