//Numpy array shape [64, 5]
//Min -1.204963088036
//Max 1.343147635460
//Number of zeros 0

#ifndef W13_H_
#define W13_H_

#ifndef __SYNTHESIS__
model_default_t w13[320];
#else
model_default_t w13[320] = {-0.7296636701, 0.2424117029, -0.7665146589, 0.1376742423, 0.6073063612, -0.1439030170, 0.8008293509, -0.4774470031, -0.5012358427, 0.2189403325, 0.1926120222, 0.2901101410, 0.0577807613, -0.4502077699, 0.3023011088, -0.0229735598, 0.2539321482, -0.2738655508, -0.0701302662, 0.4739044309, 0.0920587406, -0.1874649823, 0.6188827157, 0.4225453138, -0.0677211955, 0.2516633272, -0.4635253251, -0.7472941875, 0.3899326622, -0.2707712054, 0.3980555534, 0.3369835317, -0.2692116499, -0.0655349717, -0.3534780741, 0.5264229178, 0.1592805386, -0.0300958659, -0.4570979774, -0.6362184882, -0.2411914319, -0.5597081780, -0.6489539146, 0.3755438626, 0.9225767851, 0.2924701571, -0.2942027450, -0.3540150225, -0.0312516093, 0.8654273152, 0.8114177585, -0.3931096494, -0.4371209145, 0.1308448762, 0.5308064818, -0.7775481939, 0.3302678168, 0.4380767643, 0.1948429942, -0.0855291188, 0.4984038174, 0.1367312819, 0.2926931679, -0.3823266029, 0.0438251942, 0.1299021393, -0.1382794380, -0.5206257105, 0.2241125256, 0.3653009534, 0.0698848665, 0.3162481189, -0.8862893581, -0.2135238200, 0.7730697393, -0.6071263552, 0.2168419361, 0.1785199493, 0.5300827622, -1.2049630880, 0.3993299305, -0.4421324432, -0.6277728081, -0.0273819920, -0.7617601156, -0.2540753186, 0.3031846583, 0.0465090014, 0.5001627207, -0.3683653474, 0.2266972959, -0.4200923145, -0.3321668804, 0.3911350667, -0.3751509786, 0.1597407907, -0.3137986362, 0.7841033340, -0.2445910126, 0.2691972852, -0.0444994010, 0.2891558409, -0.5152335763, 0.0080517232, -0.0546052381, -0.5399616957, -0.1388944238, -0.1005620509, 0.2513877749, 0.2304619402, -0.2675741911, -0.4935073853, 0.0324330181, 0.2612074316, 0.0558653027, 0.4210871756, -0.1602564305, -0.4036613107, 0.0870629922, -0.5577001572, 0.2177668959, 0.0523766913, -0.5983678102, 0.1385253817, -0.0755506381, -0.4994853735, -0.0888130739, -0.0540829077, 0.3026843369, -0.2303726822, -0.4878028929, 0.4538148344, 0.2794663608, -0.1482796520, 0.6349937320, -0.1117536649, 0.3259811997, -0.0412211083, -0.2025986910, 0.4217432737, -0.3454775810, -0.1869958341, 0.9367379546, 0.0817535073, -0.2894831896, -0.0295004845, 0.2455425858, 0.1341799498, -0.0806780010, 0.1616165042, -0.0254809745, -0.2145275772, 0.5642043352, -0.0212469455, -0.5168534517, 1.3431476355, 0.1692562699, -0.2554949820, -0.4627457857, 0.6726980805, -0.0342505686, -0.2941294611, 0.6160448194, -0.0022389779, 0.6164280176, -0.4962599874, -0.5049568415, 0.2577069402, 0.4520484209, 0.0521383435, 0.0568757020, 0.2432539016, -0.5930773020, 0.1000138149, 0.1743628234, 0.5549175143, -0.5679978728, 0.4569554031, -0.1571827084, -0.1501423866, -0.0688233450, -0.3592834473, 0.0274356380, -0.3035574853, 0.5623410344, -0.3345637321, 0.4362961948, 0.5815818310, -0.2205100656, -0.3569987416, 0.8799815178, -0.1909840107, -0.0107462760, -0.2052135766, -0.1390800178, 0.0693062469, -0.3385916054, 0.3846812546, -0.2035467178, 0.2898299992, 0.3211504221, -0.6413419843, 0.1750215441, 0.2909730673, -0.0468190536, 0.2262231261, -0.1155346856, 0.1777274013, -0.3898216784, 0.3356781304, 0.0300003700, -0.4904527962, 0.7877113223, -0.2428689897, -0.2369670868, 0.2481980324, -0.3208124638, -0.5860973597, 0.2176559269, -0.5764667392, 0.2496439666, 0.1478816122, -0.6742830276, 0.1120086908, -0.1992315352, 0.3454242647, -0.6340095997, 0.0588114895, 0.4566169381, 0.2554070950, 0.0955843106, -0.1549358666, -0.2071325928, 0.2496578693, -0.0235447269, 0.0800692141, 0.1931926161, 0.1238280684, 0.0195697956, -0.8887515664, -0.0237504095, -0.1828899086, -0.7417730093, 0.2024395317, 0.1280032694, -0.3502359986, 0.8627943397, -0.3254920840, -0.2232986242, 0.4005237222, -0.1207361370, -0.2322764099, 0.5234717131, 0.0071208645, -0.2929238975, 0.0095789563, -0.8279770017, 0.2560917437, 0.1879822463, 0.3272806704, 0.2379440516, 0.0589233860, -0.0283576939, 0.1287305653, -0.4067503512, -0.3647083938, 0.5496121645, 0.2340639830, -0.0623516552, 0.2407550812, 0.5635147691, -0.1768520772, -0.2412768900, -0.0092663206, -0.4368617237, -0.5743977427, 0.1928551793, -0.1106259748, 0.4384321868, -0.7508976460, 0.3891909122, 0.1241621748, -0.0271028392, 0.2187571675, -0.5613070130, 0.3983801901, 0.3540334404, -0.8391707540, -0.0283718370, -0.3747037053, -0.0178227946, 0.0029606731, 0.4300839901, -0.1189245954, -0.4791654050, -0.0259928908, 0.3794182837, -0.6406966448, 0.2082712948, -0.8871422410, 0.1796108633, -0.6137970090, 0.4874711633, -0.4680476487, 0.5746855140, -0.1997842640, -0.0026777380, -0.1575442255, -0.1465302259, 0.4155712426, -0.2956589162, -0.1785972118, -0.3451000154, -0.2376484722, 0.8307770491, -0.0006751049, 0.5890411735, -0.1001091599, -0.4158227146, -0.4739000797};

#endif

#endif
