//Numpy array shape [360]
//Min -0.607118844986
//Max 0.428868710995
//Number of zeros 0

#ifndef BR2_H_
#define BR2_H_

#ifndef __SYNTHESIS__
model_default_t br2[360];
#else
model_default_t br2[360] = {-0.3572736084, 0.0373694524, 0.1628263742, -0.0051977104, 0.0696146563, 0.0252346676, -0.1208040640, 0.0608393140, -0.2895757556, 0.0896584094, -0.0302845091, -0.0035869409, -0.0212291405, 0.1238653064, 0.0646512657, -0.0841338933, -0.0525985099, 0.0562147573, -0.4190411568, -0.2429735661, 0.1085257530, 0.1148840114, -0.1489153802, 0.0520629287, -0.1045932397, -0.0025396592, -0.2514300942, 0.0685285479, 0.0524014831, -0.0551107861, -0.1148201004, 0.1076076627, -0.0755228326, 0.0050239200, -0.1230715811, 0.1135827228, 0.1186462343, 0.0637381151, -0.0907129496, -0.0433089212, -0.0743806660, -0.3544510901, 0.1606076360, -0.1167316958, 0.0458749123, -0.0025726676, -0.3241022229, -0.0324808210, 0.0116595970, -0.1306959391, -0.1946929246, -0.1298236996, 0.2292857617, -0.1694772989, -0.0284838844, -0.3550481200, -0.0935706422, -0.6071188450, -0.2264022827, 0.0450042039, -0.1474312246, -0.1213471666, -0.0113599990, 0.2043247670, -0.0740507618, 0.0722147673, -0.3904487789, -0.3358220458, 0.1862390041, -0.0905776322, -0.0415487252, -0.0235284604, -0.0984719694, 0.0717377439, 0.1200126782, 0.0050740698, 0.0522849448, 0.1303064972, -0.0367186926, -0.0053968197, 0.0449584834, 0.0688363612, -0.4573003054, -0.0826695412, -0.0103092315, 0.1185380891, -0.2697742283, 0.1088631898, 0.1828266978, 0.0328617059, 0.1120021641, -0.1539810300, 0.1913493574, 0.0805844665, -0.0459681451, 0.0294441413, -0.0915487632, -0.2180538625, 0.0638790131, -0.0822261348, -0.4035297930, -0.1191716194, -0.3372295499, -0.0631983578, 0.0565196276, -0.1418551505, -0.2330235243, 0.2062506825, -0.0069232625, -0.1363517791, 0.0306358375, -0.2273642868, 0.0714061558, 0.0153159490, 0.0283724479, 0.0113211069, -0.1219895259, -0.2692857981, 0.1620183885, 0.1156095490, 0.0080381949, 0.0395646431, -0.0109440265, 0.0840739161, 0.0551111661, 0.0457980633, 0.0486710407, 0.2031655908, 0.0344137177, 0.0351589061, 0.0503464490, 0.1098727733, -0.0399318188, 0.1585294604, 0.0573896989, 0.1972390115, 0.0167876426, 0.1049733683, -0.0092366887, -0.0084079579, 0.0568775088, 0.4288687110, 0.0728062019, -0.0024402556, 0.0781772435, 0.0941136181, 0.0413841493, 0.1182623953, 0.0684968084, -0.1189987063, -0.0025146080, 0.0738984272, 0.0608037002, 0.0730310306, 0.1718590558, 0.2815712392, -0.0198582746, -0.0850421041, -0.0477330573, -0.0863700137, -0.1370728165, 0.0226028487, 0.1895080060, 0.0085265879, -0.0052256584, 0.0531119220, 0.0121475980, 0.0792816952, 0.0689013451, 0.1011451855, 0.0565001667, 0.0210114568, 0.1671655178, -0.0048833801, 0.0711730570, 0.1266484857, 0.0708281174, 0.1665572971, -0.1086688712, 0.0257234164, 0.0449141301, 0.0051787207, 0.1603571922, 0.1319575310, 0.0039617461, 0.0940232500, 0.1177883297, 0.0353816748, 0.0565957725, 0.0513658188, 0.0623183437, 0.1223699898, 0.2693513632, 0.1071155146, -0.0473567545, 0.0866600871, 0.0190682635, 0.1248689517, -0.0030599709, 0.0915180743, 0.0966635048, 0.1336183101, 0.1112022400, 0.0980675593, 0.1200667098, 0.0457070135, 0.0248193387, 0.0975516140, 0.0761893317, 0.0762139335, 0.1048714891, 0.2233966142, 0.0041244859, 0.0521417744, -0.0159319881, 0.0823656917, 0.0064641172, -0.0126180146, 0.1525431871, 0.1561668217, 0.2097295970, 0.1215344965, 0.0686100870, -0.0595356487, -0.0157170668, -0.0117928265, 0.1799658537, -0.0608829483, 0.0628753081, -0.0068398523, 0.0166350417, -0.0047184345, -0.0423366874, -0.0340255797, 0.0831899196, 0.0477962978, 0.0638001263, -0.0526917987, 0.1334839612, -0.0155358603, -0.0350136794, 0.0010594126, -0.0060263365, 0.0239875596, 0.0924936682, 0.0158022512, -0.0281381756, 0.0049352986, -0.0235921312, -0.0048650373, -0.0074300915, 0.0233137086, 0.0148720453, 0.1154792607, -0.0754751414, -0.1812536567, -0.0260000695, 0.0440923497, -0.2339394689, 0.1528849751, -0.0369395874, 0.1683156043, -0.0457479246, 0.0010409672, 0.0184388440, 0.0221989397, 0.0658293962, -0.0064697480, 0.0476030782, -0.0127978362, 0.1050622836, 0.0031545612, -0.0445434526, -0.0192600377, -0.2546647787, 0.1950477362, 0.0263315458, -0.0370116197, 0.0288657248, 0.0087614926, -0.0612867698, -0.0197350103, -0.0676187128, 0.0085186260, -0.0750966072, 0.0100637460, -0.1904136240, -0.0898249224, -0.0259425342, 0.0987343863, -0.0011993833, 0.0636797398, 0.0127496095, -0.0458362885, 0.0137346657, 0.1015321761, 0.0457757749, 0.0943455994, 0.1065511927, 0.0366316997, -0.1350917667, 0.0193627235, -0.0131089455, 0.0891679153, -0.0101974001, -0.1295688152, -0.1332977861, 0.0022746893, -0.0629442781, -0.0185033213, 0.0599753968, 0.0861349553, -0.1363468915, -0.0141153261, 0.0154425651, -0.0277516842, -0.0078624142, -0.1445936710, 0.0123343617, 0.0524898432, 0.0075960625, 0.0014567003, 0.0395463184, -0.0293694306, -0.0213618726, 0.0102373362, 0.0137771778, 0.0262759514, 0.0589443371, -0.0450149998, -0.0787496567, -0.0384328142, -0.0901453868, -0.0272777714, 0.0748285726, -0.0327425450, 0.0112272184, 0.1125954315, 0.0315779485, 0.0999340191, 0.0849117264, -0.1761317253, -0.4413914979, 0.2373853326, -0.1198321506, -0.1328807473, 0.0967126712, 0.0044440911, -0.0076989499, -0.0129754264, 0.0359556489, -0.0502569340, 0.0123134935, 0.0272342656, 0.1009508893, -0.0077539585, 0.1051829457, 0.1300859004, 0.0095640663, 0.0209355131};
#endif

#endif
