//Numpy array shape [6, 360]
//Min -4.868963241577
//Max 5.242848873138
//Number of zeros 0

#ifndef W2_H_
#define W2_H_

#ifndef __SYNTHESIS__
model_default_t w2[2160];
#else
model_default_t w2[2160] = {-1.4217462540, -0.2985625863, -0.8245197535, -0.2066974491, -0.1815823913, 0.1392044574, 0.8246150613, -0.1452566683, 0.6426548362, -0.4086810350, 0.2931164801, -0.5776154995, -0.0669717863, -0.1170163676, 0.2348071784, 0.0062293336, 0.3107196093, -0.1175830588, -0.0632285327, -0.3415864110, 0.4143512845, -0.1103556305, 0.7430711389, -0.2964703441, -0.1206095219, -0.1688182950, -0.0448345803, 0.0139608588, -0.4134570658, -0.5297096372, -0.1842099279, -0.2713226676, -0.8419331312, -0.0951384082, 0.3638613522, 0.3596045673, -0.1215005666, 0.1716045141, 0.1788748503, -0.8523547053, 0.3471291661, -0.4379292130, 0.0673913956, 0.2020115107, 0.0264472272, -0.2040150613, -0.4378314614, -0.1299806982, -0.4056179821, -0.8570837379, -0.5864173174, 0.0991173461, -0.3871616721, 0.1109272316, 0.2602966726, -0.5183558464, -0.7471613884, 0.2143149972, 0.1309460104, 0.2455706745, 0.5928879976, -0.4589580297, 0.2597231865, 0.3168263137, 0.1774304509, -0.2743859589, 0.0106752384, -0.7720871568, -0.1411349177, -0.6931206584, -0.4406759441, -0.3510554433, -0.0446885191, -0.1114553139, 0.0833586156, 0.0115258927, -0.4027023017, -0.0527054593, 0.0066853147, -0.4200213850, -0.1994648278, 0.4005411565, 0.9466138482, 0.0427817367, -0.3815751374, 0.4048404992, 0.8985835314, -0.5898120403, -0.5705317855, 0.5216990113, -0.1741714478, 0.3021982014, 0.5175546408, -0.0757814273, -0.6646473408, -0.0925184265, -0.0817604661, -0.6352967620, 0.0067152870, 0.5764475465, -0.4273152053, -0.3090707362, -0.6697235107, 0.3116471767, 0.1412890553, 0.1846749634, -0.1379648149, 1.0239509344, 0.7656147480, -0.4330143929, -0.5788131952, 0.1137784719, -0.1705627739, 0.6691824198, 0.0281224586, -0.5196962953, -0.9867008328, 0.2956135571, -0.7203199863, 0.0725177377, -0.4412921071, 0.5029701591, -0.0331355520, -0.5028411150, 0.3941597342, 0.3902980387, 0.0851882175, -0.0358875357, 0.0235002413, -0.0261827875, 0.2167601585, 0.0593560897, 0.3828805983, 0.1663450003, 0.2221746892, 0.6089314818, 0.3942262828, -0.3967564106, -0.1999493241, 0.2945811450, 0.4087596834, -0.0833144486, -0.1175958514, -0.0359071679, -0.1174739450, -0.1459366083, 1.3794188499, 0.2806386650, 0.3330188692, 0.2483032793, 0.1454336941, 0.1074643880, -0.4068986475, 0.3471665680, 0.8538421392, -0.3113794625, -0.5170897245, 0.0572366342, -0.9934296012, -0.4849402606, -1.0288650990, -0.3892537653, 0.1695900410, 0.0125215640, 0.5679717064, -0.2858162522, -0.3970445096, 0.4687734246, 0.5402470231, 0.4741716981, -0.5743497610, 0.2410290241, 0.6458110213, -0.0014430538, 0.4613494277, -0.2897780836, 0.6053407192, 0.2510587573, -0.7417050004, -0.1481376439, -0.0322400071, -0.0463925302, 0.3790346682, -0.2540293038, -0.4421803951, 0.0896470770, 0.6330572963, 0.4089658260, -0.1554225534, -0.2828735411, 0.3398509622, -0.8921004534, -0.1573809683, 0.2108539343, -0.1642349511, -0.7259618044, 0.7986126542, 0.3976154327, 0.3157656491, 0.2660114169, -0.6521679759, 0.1345019639, 0.4553229213, 0.0303809848, -0.8912054896, 0.0100319022, 0.0217964798, 0.4832484424, -0.4329825938, -0.4499125779, -0.9538794160, 0.2694684267, 0.0125215026, -0.6426584125, -0.2355854809, -0.0890761018, 0.1816689670, 0.1040328443, -0.2212652266, -0.0317143127, 0.1047381759, 0.1442767382, -0.4273209274, 0.3385279477, 0.2414998114, 0.3610248864, 0.1193663254, -0.1885739714, -0.7581669092, 0.4720306098, 0.9439560771, 0.0060686315, -0.0298897084, 0.3394336700, -0.5547804236, 0.2774436772, -0.5871481895, -0.0751275942, -0.2340805084, 0.3326893747, -0.6350918412, -0.5150176883, 0.6200453043, 0.0798232630, 0.2525132000, -0.0213907678, -0.2091782987, 0.6180704236, 0.1995038837, -0.1252866238, 0.1026380137, 0.5370931625, 0.8583463430, 0.3351553977, 0.6182456613, 0.2101515830, -0.2691583037, 0.6015157700, 0.1057163626, -0.0343927443, -0.0877542496, 0.1935375631, -0.4569047391, 0.7062684894, 0.3710025847, 0.2604979873, -0.2225709707, 0.1037319750, -1.3780571222, 0.1932073534, 0.6112595201, -0.1096069515, -0.0998294428, 0.2036736608, 0.3541134894, -0.3590333462, 0.1286476701, 0.0289635584, -0.2043723315, 0.7700759768, -0.2566128671, 0.4497314095, -0.0124240415, 0.6978652477, -0.0864097551, 0.1772888303, 0.0706859380, 0.4140612483, 0.6470429301, -0.3246452212, 0.9753996134, 0.2619638443, 0.3686246574, -0.0858779997, 0.3383822441, 0.2971780598, -0.4764916301, 0.5071953535, -0.5439807177, 0.0234573446, -1.0038250685, 0.1061961427, 0.3370534480, -0.6259311438, 0.2771092355, 0.4830956459, 0.3518430591, -0.3989356160, 0.1037647054, 0.3483992517, -0.6529338360, -0.2178433537, 0.1956768036, 0.2525228560, -0.5327907205, -0.0982403159, 0.0896771923, -0.1238434836, 0.0181510653, -0.2058054656, -0.0914212465, 0.1766526550, -0.1937296689, -0.0751453042, 0.3177833259, -0.0582384355, 0.2842276990, -0.1529476196, -0.3793737590, -0.3805951178, 0.0008542353, -0.1283401549, -0.8829709888, -0.2242971659, -0.1012398675, -0.0436565764, 0.5649998188, -0.0289011579, -0.4081392884, -0.2032180279, -0.0884075165, 0.2201680839, 0.4205417335, 0.1663118154, 0.2654406130, -0.0908781365, -0.4660177529, 0.1315658987, 0.5119513273, 0.2577351034, -0.2014696151, -0.2738148272, 0.0927449316, -0.0428857133, 0.5826247931, -0.3840060234, 0.0016396979, -0.1121504158, -0.4009400904, 0.2427099943, -0.5474702120, -0.7484591007, 0.0142456563, 0.6378266811, -0.6218658090, 0.2210330367, 0.9167190790, 0.2981568277, -0.0665833205, -0.3808490634, -0.2540948689, -0.0594885871, -0.6765926480, -0.3972555697, -0.0222291797, 0.2073402852, 0.5659485459, -0.8570541739, 0.0853414387, -0.4246871769, -0.1742377132, 0.2510927022, -0.1438306123, 0.3129048645, 0.2725604773, 0.5062558055, -0.2107519954, -0.5961162448, 0.5158292651, 0.7947199345, 1.3104720116, -0.0271062255, 0.0378913991, -0.1191425100, -0.5360013843, 0.1976235956, -0.5539393425, 0.0356348008, -0.5927003622, -0.8256418705, -0.1333627105, 0.0238668844, 0.0885538086, -0.0037681926, 0.2890070975, -0.0625917912, -0.3577198982, 0.7609087229, 0.5124347806, 0.1221271679, -0.6960518360, -0.0096173063, 0.1746657938, 0.2785433829, 0.8870536089, -0.2142657042, 0.4310850501, 0.3934684992, 0.1000894681, 0.1211520806, 0.2663327456, -1.2371885777, -0.0159140602, -0.9434979558, -0.4381576777, -0.3797323704, -0.2141022980, 0.3458289206, -0.1854741573, -0.3773661256, -0.1533869207, -0.0292095486, -0.4564265907, -0.4158166051, -0.6612111330, -0.3380331695, -0.2064827979, -0.1486356407, -0.0233005509, 0.0225817468, 0.5879840255, 0.5307878852, 0.0529119186, 0.1133755222, 0.2286182195, 0.6224442720, -0.2063769400, 0.3498708904, -0.0017743498, 0.6466881633, 0.4583681226, -0.2722454071, 0.9980098605, 0.2999200225, -0.4167667925, -0.5223825574, -0.6358023882, 0.6032484174, 0.1307068616, -0.4080304801, -0.5577853322, -0.2615117431, 1.5477005243, -0.3193894327, 0.4601162374, -0.0867697299, -0.4165142179, 0.6854367852, 0.3282728493, 0.2073814571, 0.3981549442, 0.5448647141, -0.0463572592, 0.6989798546, 0.0863379687, 0.6786515117, -0.2209898978, -0.1619931757, -0.4381735325, -0.0791209936, 0.1576789916, 0.1037136614, 0.0884944648, 0.0763331354, 0.0919886753, -0.5288739800, -0.4016248882, -0.3291789293, 0.0395391844, -0.7245877385, 0.1151206642, -0.6942885518, -0.8315780163, -0.0205417518, -0.7128996849, 0.1318114251, -0.8199633956, -0.1949187368, -0.0086982027, -0.1667720675, -0.2873650789, 0.6339064837, -0.2246221751, 0.0059770863, 0.2767225206, -0.0891258121, -0.2906007767, 0.2690555453, -0.2193207294, -0.3408433497, 0.4714023471, -0.0169472564, -0.0596520826, 0.7429504991, -0.0668977052, 0.1764923930, 0.0519857407, -0.7701148391, 0.0390186235, -0.3369305432, -0.1935345829, -0.4157025218, -0.5896338820, 0.2155641019, 0.6220259666, -0.1886240840, 0.0600693151, -0.4842117727, 0.4750618935, 0.0236770958, -0.3395685554, 0.0113892099, 0.6575297117, -0.6192536950, 0.9437276125, 0.9269589782, 0.2418398112, 0.7747898102, 0.1367385685, 0.3231282234, -0.4671048820, -0.4256557822, 0.1947400570, -0.1325306147, -0.5948875546, -0.0573686585, 0.6521109343, -0.5951530337, 0.2610765100, -0.3260214031, -0.1110742688, -0.1055734679, -0.1929637343, 0.0031929095, -0.2673028111, 0.3306531012, -0.7720143795, -0.6533462405, 0.2787052095, -0.2793497443, -0.0495195724, 0.1307765990, 0.4670944512, 0.5283076763, 0.8883140683, 0.6767153144, -0.1244987622, 0.5359950066, -0.2261697799, -0.5183624625, 0.0550173260, -0.3360831738, 0.3139598966, 0.2272395939, -0.3862512112, -0.1605750322, 0.1549488753, 0.6713373065, 0.4293209910, 0.7339828610, -0.5317000747, -0.3264359832, 0.0636340305, -0.3925167918, 0.0074184784, 0.0248900242, -0.6792399883, 0.8352156281, 0.4049040377, -0.0441675782, 0.0538492091, -0.1719099432, 0.7141322494, 0.5535252094, 0.3795145154, 0.2353336215, 0.8281434774, 0.0287705138, 0.2132568508, 0.2191981822, -0.7700513005, 0.6759389043, 0.0448679216, -0.2700130939, -0.8121216893, -0.0849256814, 0.0425542332, 0.4723320305, -0.3434222639, 0.9842886925, 0.4772956371, 0.0330611207, -0.1060122326, 0.8627904058, -0.3779197931, -0.3194623590, -0.5822558403, 0.0724506080, -0.3119361997, 2.1732647419, -0.4141191840, 2.5517179966, -0.2779181898, 0.1530869454, 0.3811054528, -0.7331932783, 0.3624936640, -0.1084471866, -0.0078763021, -0.4911265373, 0.7445880175, 0.2750383019, -0.3215968311, -0.2075629681, -0.1217798665, -0.1456002295, -0.4213240743, 0.0674556196, 0.3336805105, -0.1457753330, -0.3812448978, 0.3533114195, 0.1783236265, 0.1598831862, 0.1679375470, -0.1556402296, -0.0810913891, -0.5182054639, 0.3161730766, 0.5319847465, 0.1188824475, -0.0422973447, -0.2186027318, -0.2648056149, 0.1480477601, 0.1801923811, 0.3575156033, -0.0975215510, -0.0854945332, 0.0095255608, 0.1473107636, -0.4871308208, -0.0664848313, 0.2329796255, -0.4031885862, 0.1922954917, -0.2897095084, -0.0473830588, -0.6468856931, 0.1890820414, -0.0394033939, 0.2247339487, 0.0766884387, -0.1759319752, 0.0570284873, 0.2160007805, -0.8255832195, -0.4973659515, 0.6534543037, 0.6678441167, 0.4316661060, -0.1847049594, -0.0837298930, 0.1115296558, 0.1784834266, -0.2859831750, 0.4107758999, 0.5933051705, 0.5438321829, 0.1353652924, 0.3793234527, 0.1715827882, -0.0278974269, 0.7335417867, 0.8755157590, -0.2131042778, 2.2107734680, -0.4845120311, 0.4877143800, 0.6933199763, 0.0217812061, 0.4999890029, 0.1874407381, 0.6227052212, -0.7282660007, 0.0432591289, -0.4602107704, 0.3485851288, -0.1750229448, 0.2820365727, -0.3055010140, -0.0996875763, -0.0596848540, -0.5668877363, -0.2295557559, -0.1908304393, 0.4279847145, 0.7219403982, 0.0324020088, -0.0270172432, -2.3763339520, -0.2857887745, 0.6007919312, -0.0543890297, -0.5060135722, 0.0579720922, -0.9733108878, -0.0739284381, 0.3241458535, 0.2516333759, 0.6356760859, -0.0087488368, -0.2625725567, 0.2431165576, 0.0049748849, -0.0211543664, -0.6961382031, 0.0401500687, 0.2654562294, -0.0105114728, -0.8945478797, -0.2769582272, 0.0243552048, 0.4996764660, -0.3190177381, -0.4363133013, 0.2735353112, -0.0630323663, -0.0601798370, 0.5107601285, 0.0510318168, 0.1069177538, 0.5909990072, 0.5953003764, 0.1485976726, 0.0172218215, 0.3902401626, -0.0852829814, 0.5342056751, 0.3563775122, 0.2369457781, 0.0799980387, -0.2364422977, 0.3550981283, -0.0645335615, -0.1607532799, -0.0111805266, -0.0062981239, -0.0663954914, -0.0278884545, -0.0817258134, 0.3359609246, -0.6565847993, 0.3451142609, 0.1470472664, 0.2492137849, 0.1711996943, 0.4122677743, -0.0860309377, 0.1725986451, -0.4060664773, 0.1679098159, 0.6097022891, -0.0333091244, -0.4114836752, 0.5265291333, 0.2563076913, 0.4432579875, -0.0404040329, 0.4426685870, 0.3501881063, -0.0726919696, 1.0009443760, 0.2938350737, -0.0411480218, 0.0450416878, -0.2402579635, 0.3515939713, 0.2023258507, 0.1778085977, -0.2685230076, 0.0980662331, 0.3011167943, -0.3441697657, -0.1161032319, -0.5583284497, -0.7908015251, 0.5624785423, 0.6271403432, 0.1957646012, 0.3995350599, 0.3314433694, -0.4184752107, -0.0664526448, 0.5426002145, 0.2227777243, 0.1808483303, -0.1843205094, -0.2272759080, 0.1515146941, -0.4455476105, -0.1360287964, 0.1387669891, -0.0037764451, -0.0014053033, -0.1121344194, 0.3638122976, -0.1692281216, -0.3337952495, -3.3376290798, 0.7690505981, -3.2263867855, -0.2669126093, -0.4739933312, -1.4703586102, 0.2075257450, 0.7113492489, 0.0179226380, 0.0483819060, -0.2398415208, -0.4863445163, 0.0407106355, 0.3977709711, -0.1726935357, -0.1628315896, -0.0415769890, -0.1476816088, -0.0391528606, -0.1260732561, 0.0515274405, -0.0888749287, -0.1094972640, -0.9100986123, 0.0559453890, -0.3554166555, 0.7970782518, -0.2456761152, 0.5621788502, -0.0043327962, -0.0563348904, -0.0696289763, -0.6329991817, -0.4127910435, -0.5439653993, -0.3930068314, 0.2101790011, -0.5023525357, 0.5366787314, -0.7008734941, 0.0856092572, 0.5210277438, 0.3179828823, 0.7178574800, -0.4137755334, -0.3793776035, -0.0807040706, -0.2840391099, 0.0065767602, -0.6632763743, -1.5253397226, -0.1361048222, 0.5415197611, 0.3694236279, -0.0750204399, -0.7270103097, 0.3505928218, -0.9371089339, 0.2485200316, -0.2382797301, -0.2785559297, 0.1867943406, -0.1294255257, -0.0236509517, -0.5866392255, 0.1732389629, 0.1555290669, -0.8665442467, -0.2362872660, -1.0926218033, 0.0166909974, 1.6589668989, 0.1276954561, -0.1687439531, -0.1815599948, -0.4722590744, 0.0791670009, 0.2357467413, -0.3925432861, -0.3969995975, 0.3479693830, -0.3475823104, 0.1581590176, 0.1570241749, -0.0130780647, 0.4214324355, 0.5539620519, -0.1617914736, -0.1770135611, -0.1616272032, 0.3260021210, 0.3457169235, -0.2703675628, 0.8271163106, 0.2760665119, -0.0485674962, -0.4768768847, 0.0249952376, 0.5310502052, -0.3177376091, -0.4822852910, -0.1997075528, -0.3217833340, -0.0485706851, -0.0942065492, 0.0662007183, 0.0512146056, 0.4658321142, -0.4200063944, 0.2221913785, -0.2305813432, -0.1283476651, -0.1065752581, -1.0446243286, 0.1085854620, 0.2855691910, -0.4382670224, -0.4836851954, 0.2202994823, -1.1825789213, -0.4190495610, -0.3647242785, -0.1702400744, -0.0588259213, -0.2310091108, -0.5087002516, 0.0639584139, 0.3446373940, -0.0115282126, -0.0212654155, -0.7204555869, -0.0701785684, 0.0360391475, -0.1583680809, -0.0794544294, 0.1135450155, -0.0847939774, -0.1850268543, 0.3434373140, -0.6864782572, 0.1808305383, -0.7541405559, 0.1858565360, -0.5457071662, 0.0186558217, -0.2007187605, -0.0368105881, -0.3201564252, -0.1756731421, 0.3556536436, -2.2483930588, 0.2129140943, -2.0102605820, -0.2522785366, -0.1056395769, 0.3036309183, 0.8076735139, -0.0357234925, -0.1380836070, -0.8134117126, 0.7749944329, -0.0684520453, -0.6541492939, 0.1498095244, 0.2545580268, 0.5600060225, 0.4295706153, 0.6674707532, 2.7732005119, -1.3309403658, 4.0967769623, -0.0678813681, -0.0405794904, 0.8326990604, -0.1436455846, -0.1253137589, 0.3338279128, -0.8480879664, -0.5822427869, 0.3085125685, -0.1024552658, 0.1529226005, 0.0569883846, 0.7389322519, 0.0565587096, -0.1861564368, -0.1673736125, 0.5637233257, 0.0479868315, -0.3099867702, -0.1379346997, 1.1731990576, 0.0839041620, -0.1785888374, 0.0262963604, 0.1456437856, -0.4858450294, 0.9247699976, 0.6826781631, -1.1929711103, -0.4084905386, -0.3035748303, 0.3982424438, 0.1096884236, -0.3939828575, 0.4801310003, 0.0678364038, -0.0554992035, 0.4052055180, -0.2477540970, 0.0006020883, -0.1302141249, 0.3621020615, -0.6685278416, 0.2207962573, -0.8158730865, -0.0489090644, 0.3039276004, 0.4669059515, -0.4742271006, -0.3127173781, -0.0066061523, 0.4271908700, 0.6860417724, 0.2778861821, -0.9794520140, -0.4125045836, -0.0668756217, 0.1550931633, 0.4547597766, 0.4070775211, -0.4800866842, 0.6083601713, 0.0314901061, -0.7130337358, 0.6076566577, -0.5218732953, -0.2009730339, -0.5604554415, -0.1348553300, -0.3937714994, 0.1873639673, -0.3503970504, 0.2125056386, -0.3749249876, -0.0729057491, 0.0298608076, -0.0634992644, -0.1268957257, -0.0487269908, -0.2947379947, 0.6207519174, 1.6049300432, -0.6213436723, 0.9560555220, 0.6543540955, 0.0560640506, -0.6607620716, -0.5612549782, -0.0282784384, -0.5138694048, 0.1543666571, 0.1629833579, -0.1253437251, -0.5579813719, 0.6445635557, 0.2487870902, 0.0937091485, 0.7804477215, -0.0018155173, -0.4273898005, -0.3083662093, -0.7547823787, -0.1688859463, 0.6011515260, 0.2650409639, 0.2244406939, -0.1320536435, -0.6880249381, -0.5600304604, -0.6938294172, -0.7920774817, -0.1200543940, 0.6309248209, 0.1941232532, 0.4768963158, -0.2441744804, 0.2061846554, 0.2785930932, 0.4177734554, 0.1180118993, 0.4114968777, -0.0912738740, -1.3972816467, 0.2370573878, -0.4657080472, 0.1295110583, -0.2913399935, 0.3832715154, 0.1989331245, -0.0842601061, 0.5202423930, -0.1572357267, 0.0274315644, 0.4236818552, 0.4514007270, 0.7335214615, 0.3107986748, -0.3296591341, -0.8354275823, 0.4098303318, 0.2935253382, -0.2762246132, -0.6625952721, -0.7411685586, -0.2666280568, -0.6331618428, 0.0406499691, -0.0434129797, -0.2156774849, -0.1268923432, 0.1755777597, 0.2100946009, 0.9712545276, 0.3026998639, 0.5209038854, -0.1206197590, -0.0659239963, -0.4893065095, -0.5403706431, -0.1261653006, 0.1893250495, 0.1380788833, -0.4539638460, -0.1226968095, 0.2638970912, 0.0921208858, -0.1168824583, -1.2513551712, 0.1014441177, -0.3408772349, -0.2474698424, 0.1623779535, 0.3626923263, -0.4703120887, 0.7186607122, -0.5575346947, 0.3970328271, -0.4468199015, -0.1133442894, 0.3224680424, 0.3646168113, 0.7872236967, 1.7351427078, -0.6209723949, 0.1736063361, -0.6047286391, 0.2946491838, -0.3293794096, -0.9854959249, -0.1136627272, 0.2993682921, 0.2663335502, -0.5378477573, -0.0632853284, 0.7587624192, 0.8061261773, -0.1510208249, -0.1569881290, 0.1433635354, 0.6226183772, -0.1818563342, -0.1138701886, -0.0359232649, -0.2006452978, 0.3009339571, 0.3650393784, 0.1152445897, 0.4833233356, 0.4911772013, 1.0123572350, -0.3494211137, -0.1356925368, 0.0409869142, -0.6851998568, -0.2293326557, 0.5852807760, -0.3968058825, 0.3011335731, 0.6920737624, -0.0902337432, 0.8296384811, -0.5826523304, 0.4618583024, 0.4178144336, 0.2913028002, -0.4950643778, -0.0527087040, -0.1403556764, -0.2284379154, -0.5778598189, 0.1953106225, -0.1616915911, -0.6730548739, 0.0765960068, 0.3069319427, -0.3021994829, 0.4347445071, -0.0503590368, -0.8673312068, 0.6405583024, -0.7501040101, 0.5151698589, 0.6047403216, 0.0713950247, 0.1070636511, -0.4403496981, -0.3738315701, 0.1723810732, -0.8700743914, -0.1542845815, -0.7999522686, 0.3915076256, 0.1920549273, -0.1988946646, 0.2862529159, 0.3914206028, 0.0221516639, -0.6431562901, -0.8307746053, 0.7469746470, -0.2252870351, 0.4495706856, 0.4073804617, -0.1341900676, 0.0436567590, 0.4720729291, -0.4980546832, -0.3642881215, 0.1265427768, 0.4806995988, -0.1098921895, 0.5594965816, 0.8722296953, -0.0773004815, 0.2102052122, -0.4642693698, -0.7112041116, 0.0641676113, 0.3923848867, -0.0594309159, 0.8857918978, -0.0339735299, 0.4230209291, -0.4691685438, -0.6783257723, 0.0324726962, 0.5157926083, -0.1099618226, 0.5380949974, 0.0211536717, -0.4095234573, 0.0888188332, -0.0971568376, -0.1648969948, 0.1876941621, 0.3315706253, 0.1882092655, -0.2275311947, -0.3199707270, -0.6055424809, -0.2995699346, -0.3339698315, 0.6498185396, 0.7023923993, 0.7828399539, 0.5422068834, -0.8664209843, -0.5188034773, 0.2554946244, -0.2954431772, 1.0382186174, 0.1584760994, 0.3475739956, -0.0795531571, 0.4679816365, -0.4937526584, -0.7190704346, 0.0719274804, 0.0013251557, 0.4867035449, 0.3270672560, 0.4596883655, 1.2682915926, -0.0776619390, -0.2794389427, -0.2092427313, 0.3359629214, 0.1981781870, -0.4012641609, 0.8755942583, -0.2851252854, -0.3352058828, 0.1719869077, -3.3586962223, 0.2025976926, -3.9643819332, -0.5828452110, 0.3603455722, -0.9761296511, 4.0244593620, -0.0964403898, 5.2428488731, -0.3543593287, -0.2368101031, 0.8550077081, -0.1650483757, -0.1627851129, -0.7412170172, -0.9673845172, 0.0691574961, 0.2582770884, 0.0045475285, 0.1981874555, 0.0982282534, 0.3973107934, -0.1199448258, -0.4361504316, -0.3955562711, 0.6973929405, 0.0879338160, -0.5419179797, -0.3337391913, -0.5359990001, 0.2409608662, 0.0282068010, -0.6741850972, -0.4371996522, 1.1203017235, -0.2743720412, -0.4552539587, 0.0997192711, -0.2540057003, 0.5189133883, -0.1250449270, -0.1970267743, 0.2469564080, 0.2763938904, -0.2662761211, -0.6096050739, 0.0604358837, 1.1870619059, 0.2588814795, -0.5070023537, -0.6523953676, -0.1612945646, 0.3292849362, 0.1899617165, 0.2338919044, -1.6250740290, -0.4731728733, -0.4634488523, -0.0064036334, 0.0939468294, 1.0685793161, -0.0325310901, 0.4715247750, -0.4777003229, 0.6881625056, -0.3661546111, 0.0200919975, 0.7295243740, -0.4523373842, -0.1461399347, -0.0669807568, -0.3301722109, -0.0454472750, 1.0252300501, 0.0012087891, -0.5080059171, -0.2044910640, 0.1379558444, 0.1969937831, -0.1848638654, 0.7762479782, 0.1470333189, -0.5636513829, 0.5290805101, 0.1641461253, 1.2251889706, -0.3760030866, -0.6125534773, 0.3092379868, -0.6412155032, 1.2822135687, -0.1654982269, 2.9295940399, -0.4455703497, 0.4117359817, 0.8893273473, -0.8346145749, 0.0401478559, -0.1211031303, 0.0525751188, -0.1660085320, 0.0432313159, -0.8647836447, -0.0180505514, -0.0209900830, 0.7854351997, 0.2803789973, 2.0244362354, 0.5692371130, 0.0237399545, -0.3308960795, -0.0213084649, -0.3606144786, -0.1274977028, -0.8172403574, 0.2137093544, -0.8752055764, 0.2782653570, 0.2434603572, 0.0835851133, -0.1085084900, -0.0249011014, 0.1042907164, 0.2924695611, -0.1710751355, -0.1917907894, 0.0916282833, 0.3016070724, -0.2706153989, -0.7835706472, 0.2135275006, 0.1038143709, 0.5279931426, -0.0687843040, 0.7287408710, 0.0183497444, 0.7805840969, -0.4374629259, -0.0376933515, 0.1417501718, -0.1117910147, 0.2271302342, -0.6895024776, -1.0620502234, -0.1747296602, 0.1116446108, 0.1163366213, -0.8145702481, 0.0623632558, -0.0077442364, -0.0157155134, -0.0145392707, 0.0256712586, 0.1051629111, 0.0368202105, 0.2917751670, 0.4757774174, -1.5231052637, 0.1172779351, -0.1137544289, -0.1276577860, 0.0133389458, 0.1193257868, -0.2028701156, -0.3077852726, 0.5092725754, 0.3830305636, 0.1031957567, 0.1051884294, -0.2422538847, 0.5988403559, 0.2234609425, -0.1377518773, -0.0962111726, 0.5957730412, 0.5955711603, 0.4065190852, -0.0835502893, 0.5008651614, 0.3194880784, -0.1985016912, -0.5166186094, -0.2144313306, -0.3324128985, -0.2585640550, 0.3860138357, -0.5177638531, 0.0224872120, 0.6856935024, -0.5697399378, -0.0855480209, 0.7022055984, -0.3236248195, 0.1256277561, 0.2739208043, 0.7490105033, 0.2111379057, -1.5889767408, -0.1190356910, -0.6822284460, -0.4386689961, 0.1662647426, 0.2660055161, 0.7437661886, -0.1353626251, -0.3243645132, 0.8686140180, -0.8004295230, -0.3241527975, -0.1959857494, 0.2297042459, 0.1984046251, -0.5951641202, -0.1568266153, 0.1471915245, 1.6315902472, 3.3266968727, -0.0419208072, 2.8698058128, -0.1864114851, -0.0845271274, 2.5025882721, 0.3800757825, 0.2292059213, -0.3147433400, -0.0943697393, 0.0273090824, 0.1780290604, 0.1815089434, -0.1937123090, -0.0365787670, 0.1185807437, -0.2994398773, 0.0092990259, -0.0820156783, -0.1075246185, 0.0600042790, -0.0967680514, -0.0000440764, -0.8938736320, -0.8480908871, -0.4457965493, 0.0597966425, -0.3510706127, 0.7807548642, 0.1074701101, -0.1955668032, -0.4302920699, 0.1829719990, 0.0116034057, 0.1346713156, -0.1298325956, -0.2041711807, 0.0280060358, -0.1285586059, 0.4463511705, 0.0402718447, -0.0894263834, 0.5273366570, -0.1605957896, -0.5340700746, -0.1568131894, 0.0424655043, -1.0881010294, 2.5633616447, 0.1785845906, 3.6509149075, 0.2958337069, 0.3018543124, 0.1014110968, -0.2527782023, 0.3321712315, 0.2957385182, 0.0500487052, 0.4474811852, 0.7222422361, -0.2283685505, -0.3740351796, 0.5516558290, 0.2792782187, 0.6857792139, 0.4330022931, -0.0073768096, -0.0185422543, -0.0050278101, -0.1466823518, 0.1233749017, 1.6190587282, -0.4903195798, 0.2329672426, 0.4109038711, 0.0543186739, -0.0886292234, -0.4585159719, 0.3218144476, 0.1734019518, -0.0354902484, -0.1422528625, 0.4679524899, 0.1762298346, 0.0126332249, -0.2793504000, -0.0282540657, 0.2325547338, -0.0700486824, 0.0291756857, 0.3026856482, 0.0773397759, -0.1513181180, -0.1234228164, -0.0774572641, -0.3911722302, -1.4372226000, 0.2945709229, -1.3189076185, -0.5886216760, 0.3330436051, 0.3241829276, 0.0581996217, -0.4921724796, 0.4686125517, -0.2955923975, 0.1262827069, -0.2533466220, 0.0367572755, 0.0054486901, 0.6560041308, -0.2832556367, 0.1973293871, 0.8267398477, 0.5911866426, 0.1793189198, 0.9181354046, -0.5590192080, 0.0613250770, -1.5109530687, -0.3057465851, 0.4525250196, 0.4226787090, 0.0964634642, -0.0033719686, 1.5718894005, 0.1775171012, 0.4876650572, -0.2251250446, -0.2414083928, -0.0623235404, 0.0572123192, -0.1930776387, 0.2435125560, 0.1602025479, -0.0041233171, -0.0545060933, -0.4676740766, -0.3866715133, 1.7766169310, 0.0158093255, 0.0229613576, 0.0739207640, -0.1231935024, 0.1961588711, -0.0649829283, 0.2691095173, -0.0102319643, -0.2856492400, 0.0878472775, 1.3152967691, 0.3993465006, 1.4345573187, 0.5404167175, -0.7241128087, -0.1395706236, -0.8653510809, 0.0409824885, -0.1881468147, -0.1897877306, -1.1436164379, -0.3186278343, 0.3969970047, -0.1435388625, -0.1691172570, 0.1976936460, -0.2235534638, -0.8686084151, -2.3447740078, -0.3099551797, -4.8689632416, -0.0279495716, 0.1799042374, -0.3624308407, 1.6045907736, 0.1845480353, 0.5104116201, 0.3299610317, 0.0619547702, -0.0657639876, 0.2377245575, -0.9070823789, -0.1073954776, 0.1249174327, 0.1542666703, 1.5245141983, 0.2029569298, -0.3029257953, -0.1310693920, 0.2732545137, 0.4063262045, 0.2754723430, 0.4030863941, -0.8087219000, -0.1948806345, -0.0895231143, 0.0903803781, 0.4810113907, 0.4373400807, -0.2052060068, 0.1140264422, 0.4761167467, 0.3253020346, -0.0748963952, -0.1759362817, 0.0743528754, 0.1335825771, -0.0647039637, 0.1673764288, 0.7863403559, -0.4297365546, 0.8869015574, 0.6718481183, 0.1218090653, 0.1899049133, 0.1363885254, -0.1853720844, -0.8068689704, -0.0102625489, -0.2051906735, 0.3196476698, 1.4383938313, 0.3699687421, 1.2421205044, -0.2451537251, 0.3806854188, -0.2007639408, -1.3110954762, 0.1816526502, 0.4243348837, -0.4856324196, -0.5193152428, -0.2205279768, 0.5251292586, -1.7427647114, 0.7947058082, -2.6299629211, 0.0376761481, 0.2046272159, 0.0642588586, 0.7409503460, 1.3145517111, 0.0524526648, -0.1938357204, 0.3229922652, -0.5254168510, 0.1926579475, 0.1562316418, -0.2457828224, 0.0063636755, -0.3953368962, 0.2726178169, -1.6937537193, -0.4222621322, -2.1071956158, 0.5170533061, -0.0348726436, 0.0949906781, 1.2030072212, -1.1568523645, 0.3590888381, 0.0641862080, 0.2392134219, -0.2582740486, 0.1895245016, -0.1428484768, 0.2928576469, -0.0828522667, 0.1276297718, -0.6348912120, 0.5188118219, -0.1461254060, -0.0585039668, 0.5198985338, -0.0157570038, -1.9232676029, -0.5509906411, 0.0288550854, -0.7786581516, 0.1194025725, -0.0040525440, -0.5033661127, 0.2498473674, -0.8731648326, -0.3543261588, -0.0161566623, -0.2120272666, -1.2033270597, 0.3938521445, -0.1361295134, 0.6557574868, -0.2019887418, -0.1773764044, 2.5569872856, -1.0330907106, 0.6468635201, -0.6435786486, -0.0376437791, -0.1710975766, 0.4501740336, 0.5273841619, -0.1888542473, -0.0111874547, -0.3657511175, -0.4602304697, -1.2726569176, 0.3788259625, 0.3070136607, -0.4126065075, -0.1285451055, 0.3760918677, -0.6822182536, 0.1943572164, -0.1625698507, -0.9442760944, -0.0139929252, 0.6185761690, -0.2964379191, 0.3888363838, 0.7479342818, -0.0697650984, 0.2175828218, 1.0020868778, 0.1068363488, 0.7926631570, 0.2049748749, -0.0427512974, -0.2122539431, 0.0329748690, -0.0753912777, 0.0881821960, 0.1185894907, -0.3527202606, 0.6140635014, 0.6114470959, -0.3658464253, -0.3125502169, -0.3777337074, -0.3415439725, -0.6929539442, -0.0496543124, 0.1555993408, 1.2690879107, 0.0345128626, 0.5097949505, -0.1027943864, 0.3221323490, 0.4739335477, 0.3543619812, 0.5637518764, 0.3421775699, 0.0409930013, 0.2975541949, -1.1932727098, 1.1408954859, -0.8289160728, 1.4263846874, -0.2386590838, -0.1854582429, -0.1964562982, 0.1315489560, 0.2518896163, -0.2489184290, 0.9733883142, 0.1249522269, -0.1049075946, -0.2386155576, 0.3226927519, -0.8950303793, 0.3492798805, -0.7928071022, 0.0947505087, 0.2536993921, -0.0750823021, -0.1165856794, -0.5757665038, -0.4549447596, 0.0650090650, -0.1662098765, -0.0196599178, 0.0156845208, 0.1207284927, 0.1700771004, -0.8248552680, 0.4652777612, 1.2673603296, -0.4190483987, 0.1947352886, -0.0957263485, -0.3937320709, 0.6138131022, -0.3452088535, -0.0958554447, -0.8426432014, 0.4828161299, 0.1572284698, -0.2353160828, -0.2693501115, 0.6209856272, 0.1600843817, 0.1357853860, -0.3870905042, -0.4584340751, -0.4373394549, 0.1010926142, -0.2739905715, -0.7990699410, 2.1533772945, 0.3054924011, -0.2927033007, -0.2340990454, 0.3182541132, -0.1301287860, -0.4057342112, -0.1192367449, 0.0901250988, 0.4428692758, 0.6136133075, 0.0832619518, -0.0294174775, -0.2713889480, 0.0475133806, 0.6228585243, -0.0044594891, 0.3548481464, -0.2018927634, 0.0196830202, -0.0085587930, -0.0437790081, 0.1368607134, -0.4100394547, 0.3372584879, 0.6646943688, -0.4033223391, -0.2317197025, 0.4927009046, -0.2302814871, -0.3824312985, 0.1185921952, -0.5533071756, 0.1945567578, -0.1568613052, -0.2135922909, -0.4684855044, 0.5112378597, -0.0292265303, -0.2431496233, -0.3046787679, -0.3785723150, 0.2269615382, -0.2132355869, 0.5756584406, 0.2557587326, 0.3045749068, -0.4578543603, -0.4150669575, -0.6372100711, 0.6411566734, -0.7149332166, -0.2699916065, -0.7143560052, -0.2365038395, -0.5226203203, 0.0453795753, 0.1730800718, -0.1867966950, -0.1079201698, -0.2608528435, -0.8319198489, 0.7213674784, -0.2849310935, 0.1265954375, -0.0612125248, 0.0119631970, 0.4586279094, 1.1442009211, -0.2048925608, 0.2255248427, 0.2424039543, -0.5410100818, -0.4793651104, -0.1404269040, 0.4671860337, -0.4008453786, -0.5473070741, 0.4589777887, -0.1229222938, 0.1647777855, 0.1350632459, -0.1890760958, 0.7420570850, 0.0536517091, -0.1969060749, 1.5160124302, -0.0831852555, -0.0420062542, 0.0143635673, -0.0373082310, -0.1988860816, -0.3498676419, -1.1911313534, -0.7294889092, -0.4854443669, 0.4797809124, 4.1273117065, 0.1349773854, 4.8228783607, -0.1743632406, 0.1925505549, -1.6843057871, 2.1090335846, 0.0057322620, 3.3385620117, 0.0874221623, 0.2486690879, 0.5216147304, -0.1800799519, 0.7475484014, -0.0279603992, -0.2696744502, -0.6915900707, -1.8225002289, 0.1639078408, -0.0595511831, -0.2126807123, 0.2026537508, -0.2078202814, 0.5010960698, 0.3904970586, 0.4659808278, 0.1870618016, -0.1315279454, -0.3509766757, -0.0889189020, -0.2369367927, -0.2117656618, 0.2347392887, -0.2215727121, 0.6113649011, -0.0199126061, -0.5981019139, -0.0675967187, 0.1734997332, -0.0602290109, -0.1408196390, -0.2659581602, -0.5433897376, 0.3004192114, 0.2197387218, 0.3091414273, -0.0097268615, -0.0824815705, -0.2225616574, 0.0142293368, 0.4514359236, -0.1302229315, 0.6195872426, 0.3316687047, 0.1166234761, 2.0168933868, -0.1614145488, -0.1469965428, -0.0224061292, -0.2409979403, 0.3685394526, 0.0259682015, 0.0504362658, 0.3621999621, -1.0779953003, 0.6232553720, 0.1417468786, 1.1891095638, -0.2467615455, 0.4719618857, 0.1521287709, 0.3709821999, 0.1091737971, 1.0327372551, -0.3675356209, 0.5539300442, 0.1301363260, 0.3050024807, 0.3782196343, -0.1579312235, 0.4215492308, 0.7462788224, -0.2599577308, 0.4817443788, 0.7169114351, 1.9523857832, 0.6124769449, -0.1156706214, -0.2130703926, -0.3549348712, 1.8759857416, 0.2650781274, 3.0549895763, -0.1316465139, 0.0421154983, -0.0106920162, -0.0613739640, 0.0369133800, 0.4396380186, 0.7486610413, -0.0456260853, 0.0109763900, 0.4574914575, -0.0604426675, -0.1461141557, -0.6348434091, 0.4761302173};
#endif

#endif
