//Numpy array shape [6, 360]
//Min -0.127522096038
//Max 0.128012537956
//Number of zeros 0

#ifndef W2_H_
#define W2_H_

#ifndef __SYNTHESIS__
model_default_t w2[2160];
#else
model_default_t w2[2160] = {0.0516815186, 0.0894822925, -0.0868736655, 0.0186922401, 0.0925558656, -0.0580576509, -0.0496989489, -0.0991799682, 0.1203726232, -0.0379755124, -0.0773897320, 0.0767052323, -0.1211291626, -0.0033205971, -0.1130125374, -0.0942977965, 0.0799840093, -0.0997325331, -0.1153950617, -0.0586936995, -0.0885166526, -0.0694974363, -0.0560830832, 0.1074533761, -0.1037346572, -0.0398396328, 0.0036028177, 0.0990515798, -0.1233457178, 0.0632213056, -0.0761743188, -0.0452547669, -0.0204117969, 0.0958797336, 0.0867638290, 0.0986461937, -0.0835140198, 0.0418184400, -0.0237167031, 0.0701090693, 0.0465142578, 0.0502153039, 0.0704344213, -0.0694299191, 0.0907143056, -0.0751201510, 0.0463139415, 0.0215580612, 0.0131418854, 0.0810478479, -0.0508104414, -0.1062718853, -0.0631997287, 0.0799270421, 0.0860178173, 0.0651101619, 0.0323476344, -0.0904584676, -0.0008680820, -0.0486514345, -0.0792275965, -0.1079646647, -0.0109851882, 0.0746867061, -0.0917719230, -0.0960216224, 0.0872060657, 0.1048204750, 0.0069737136, -0.0325788409, 0.0226519406, -0.0948694646, -0.0263635218, -0.0107254684, 0.0709589124, -0.0456729457, -0.0730014443, 0.0834710151, 0.0491690040, -0.0953131318, -0.1217560843, 0.0452861786, -0.0933319777, 0.1000113189, -0.0031312406, -0.0009424090, -0.0769599453, -0.0761608928, 0.0344513059, -0.0188112035, -0.0727586597, 0.1069912761, -0.0847978666, -0.0600630492, 0.1021849811, 0.0304452330, 0.0105816573, 0.0028381646, 0.1043127924, -0.0899277329, -0.0251045823, -0.0091882274, 0.1050824523, 0.1130023450, 0.1014441103, 0.1183223277, -0.1175609976, -0.0107751712, 0.0527096391, 0.0013020784, 0.0049265623, -0.0979507044, 0.0876825452, -0.0367813185, -0.0968196392, -0.1215026528, -0.0401366577, 0.0378228426, -0.0559131727, 0.0515394211, -0.0561968535, -0.0204163119, -0.0123776495, 0.1171534657, 0.1272554398, -0.0430913940, 0.0340601653, -0.0196747035, 0.0801469237, -0.0094081983, -0.1068171784, -0.1063380688, 0.0058964491, -0.0208808035, -0.0326734781, 0.0271520466, -0.0870804787, -0.1084065661, -0.1257560849, -0.0756554902, -0.0129257217, -0.0197461098, -0.0002168566, 0.0435796976, -0.0548470691, 0.0998068005, -0.1225935742, 0.0338896513, -0.0832642838, 0.0650442243, 0.0296377838, -0.0833795220, -0.0670099407, -0.0342185646, 0.0607385933, -0.0375686213, 0.1101514250, 0.1255706251, 0.0396757126, -0.0358407050, 0.0949781388, 0.1081564873, 0.0901649892, 0.1079698205, 0.0692989230, -0.0900424495, -0.1099798977, -0.1205385104, -0.0103445351, 0.0179491043, 0.0567629933, 0.0539522767, -0.0864152163, 0.0280429870, 0.0201167017, 0.0337886661, -0.0470523760, 0.0567257255, -0.0379117131, -0.0620989129, 0.0696316063, 0.1251812875, 0.0841571838, -0.0374711528, -0.0592655763, -0.0486412421, 0.0027091801, -0.0159008801, 0.0575386733, 0.1202173084, -0.1025319472, -0.0171529502, -0.0777969807, -0.0667617619, -0.0162826777, -0.0108289272, 0.0266361237, -0.0403216779, 0.0807284862, -0.0557048023, -0.1043638363, 0.0375603139, -0.0393584743, -0.0368747264, 0.0694997311, 0.0410898477, -0.0599725395, 0.0828538835, 0.0151993483, 0.0298608392, -0.1097870916, -0.1034985334, -0.0101759359, 0.0710099339, 0.0470523089, 0.0785953701, -0.0223857239, -0.0809602141, -0.0601469651, 0.0769920349, -0.0653358102, -0.0969511494, -0.0334030539, -0.0183115825, -0.0494531840, 0.1038289219, 0.0937431306, -0.0772836506, -0.0974743366, 0.1119113564, -0.0205965713, -0.0541004837, 0.0106531829, -0.1082906574, -0.0310611054, 0.0897321850, -0.0402923375, -0.0685622618, 0.0246547759, -0.0078164935, 0.0895751864, -0.0906958356, 0.0664998442, -0.0564588010, -0.0852356106, 0.0327338278, 0.0083097070, -0.0378842950, 0.1088080555, -0.1209478676, -0.0302849114, 0.0660558045, -0.1102049053, 0.0905147791, 0.0269295126, 0.0014324784, -0.0538262650, -0.0175603554, -0.0112080351, 0.0649125278, -0.1123837829, -0.1113223284, -0.0654616058, 0.0603182763, 0.0500836074, 0.0451945066, 0.0523751080, -0.1000699997, 0.0771921575, -0.1274475753, -0.0858358890, 0.0470711440, -0.0477733463, -0.0965117216, 0.0996875912, -0.0101006851, 0.0058110058, 0.0023971498, 0.0456482470, -0.0168415532, -0.0694849193, 0.1061509699, -0.0890795887, -0.1249692589, 0.0856370926, 0.0436319262, -0.1036514416, -0.1241273433, -0.1052296236, -0.0229788199, -0.0730729625, 0.1026228219, 0.0269348174, 0.0457590371, 0.0663666874, -0.0675379783, 0.1049902439, 0.0487372428, 0.0057130158, -0.0809950456, -0.1061241999, -0.1128917783, -0.0286647528, 0.1280125380, 0.1170111299, -0.0641899705, -0.0097028986, 0.1178109795, -0.0501661822, -0.1231118217, 0.0786035508, 0.1138763726, -0.0172556117, -0.1092383787, 0.0151475519, -0.0228942633, 0.0308092982, 0.1026716381, -0.0256446898, -0.0451315641, 0.0086864978, -0.0666195601, 0.1243449450, 0.1158535331, 0.0785591006, -0.1228893474, 0.0015010983, 0.0460374951, 0.0753579587, 0.0934277028, 0.0701072961, 0.0141283423, 0.0692645907, -0.0951787531, -0.0518547520, 0.0804420263, 0.0450489223, 0.0139402896, 0.0710984617, 0.0154682994, 0.0800365210, -0.0306727737, 0.0819619298, 0.0262266397, 0.0959134698, 0.0041966438, 0.0984106809, 0.1238920987, -0.0945610255, -0.0012040138, 0.0975467116, -0.0639852583, 0.0827356577, 0.0727107674, 0.1226789057, -0.1058591455, -0.0572578609, -0.0980129167, -0.0086166784, -0.0065164641, 0.0122838467, 0.0147282481, -0.0461934209, 0.0161450058, -0.1203647554, 0.0950909257, 0.0355011672, 0.1102188528, -0.1142113358, 0.0822231770, -0.0431638360, 0.0958201736, -0.0145448074, 0.0128146708, -0.0969734043, 0.0381314456, 0.0671607703, -0.0240280703, 0.0661325753, 0.0331635177, 0.0479799211, -0.0280637220, -0.0192524344, -0.0735601336, 0.0979090929, 0.1267527044, -0.0924935937, 0.0281368345, 0.0089467019, -0.1242164522, 0.0439125299, 0.1078040749, 0.0168199986, 0.0811647028, 0.0709926188, -0.0653305873, 0.0619485974, -0.0700038671, -0.0371601805, 0.0038066655, 0.0225894004, -0.0213631764, -0.1161255836, -0.0335538834, 0.0921558291, -0.0663447976, -0.0663809702, 0.0755847692, 0.0558179021, 0.0879110992, -0.0068537220, -0.0739776418, -0.0796178430, -0.0524081960, -0.0569837615, 0.0241282582, -0.0330829546, -0.0112042800, 0.0800739676, 0.0749978870, -0.0597054660, -0.1191325262, 0.0757523477, -0.0966040939, -0.0165359527, 0.1208743006, 0.1261764169, 0.1035570800, 0.0386338383, -0.0814939365, -0.0923868716, -0.0085114837, -0.0780159160, 0.0508116931, -0.0738172829, -0.0879739225, -0.1087569445, -0.0809030980, -0.0035018623, -0.1014760435, 0.0092594177, 0.1005730182, 0.0329524875, 0.1066290438, -0.0225504711, 0.0718511194, -0.1181993932, 0.0917986035, -0.0393922701, 0.0360535681, -0.0688182265, 0.1006534547, 0.0972820222, -0.0230239332, -0.0755887926, -0.1018598229, -0.0592694283, -0.0070447549, -0.1211191565, 0.1046253592, 0.1044735759, 0.0493149906, 0.1085793525, -0.0287696123, 0.0107979476, -0.0768595189, -0.1214600131, -0.0161902085, -0.1020637080, 0.0565034002, -0.0934486091, 0.0764997602, -0.0339408368, -0.0396692380, -0.1027162671, -0.1159416363, 0.0492562801, -0.1248472184, 0.0311246216, 0.1195109934, 0.0576889217, 0.0806463063, -0.0431727171, 0.0391420126, -0.0400711745, 0.0025849491, -0.1244690865, 0.0579366684, -0.0221168175, 0.0600484014, -0.0955086201, 0.0490366518, 0.0414336026, -0.0936536342, 0.0085602403, -0.0985725597, 0.0598589778, 0.0118151754, -0.0257014632, -0.1184584424, -0.0096215159, -0.0100405514, -0.0438876450, -0.0689260811, 0.0232290477, 0.0847942978, 0.0434702635, -0.0819026828, -0.0800484866, -0.0312831849, 0.0805561393, 0.0938258320, -0.0080006570, 0.0238074213, 0.1019068658, -0.1265723258, 0.1103831828, -0.0878840834, -0.1106613055, -0.0186759457, 0.0117083639, -0.0626663715, -0.1222805902, -0.0398799554, 0.0338122547, 0.1237742305, -0.0237457603, 0.1035193801, 0.0705353022, 0.0326237828, 0.1146331280, 0.0777061582, -0.0026775897, -0.0635521561, -0.0076351985, 0.0192819536, -0.1122701094, 0.0808396935, 0.1160367578, -0.1032971889, -0.0115556642, -0.0757717341, 0.0271588266, 0.0255773216, 0.0743412077, -0.0783191919, -0.0389126986, 0.1200816780, -0.0452391058, 0.0115217865, 0.0158797950, 0.0363678634, 0.0392368883, -0.0785724968, 0.0043879449, 0.1164850295, 0.0602335334, 0.0420325547, -0.1185844839, 0.1231742203, -0.1006492972, -0.0481456742, -0.0198565796, -0.1013850123, 0.1071249545, 0.0016751289, -0.0713697076, -0.0855421275, 0.0600921363, 0.0937403888, 0.0124211758, -0.0083750635, 0.0375041515, 0.0313962251, 0.0139456689, -0.0412863418, -0.0137694702, -0.1177233383, -0.0673643202, 0.0088883340, 0.0386791080, 0.1250040531, 0.0973953754, -0.0893636346, -0.1140307188, -0.0571441501, 0.0553576499, 0.1264629662, -0.0997523069, 0.1145911813, 0.1141395420, -0.0019447803, 0.0414470583, -0.0814894512, -0.1195982695, -0.0045885742, 0.0102228820, -0.0466395319, 0.0989579558, -0.1029418558, -0.1174394712, 0.0300727785, -0.1088800579, 0.1033436805, 0.0704074353, 0.0006001741, -0.0458040610, -0.0523462594, -0.0146941766, -0.0516411588, -0.0839188248, -0.0147687197, 0.1255919337, -0.1206263676, -0.0702217072, -0.0424713716, -0.0550660938, 0.0106720179, 0.0380991101, -0.0161451846, 0.1169835925, 0.0949337184, -0.0214676708, 0.1021458507, -0.0252251923, 0.1127910465, 0.1235387921, 0.0207532346, 0.0063463449, 0.0026400089, 0.1239868402, 0.0782681555, 0.0041860789, -0.0666617230, -0.0811212063, -0.0098951235, 0.1216016859, 0.1149324924, -0.0337925702, -0.1051524282, -0.0103051811, 0.0606507361, 0.0907269716, -0.1153527200, 0.1175746173, 0.0635344237, 0.1068941951, 0.0485025644, 0.0414118320, -0.1151152849, -0.0145222843, -0.0614628643, -0.0527719185, 0.0177616775, 0.1251668930, 0.0387770385, 0.0955608189, 0.0191357583, 0.1020321101, 0.0442627817, 0.1191344559, 0.0734602511, -0.0903626680, 0.0004636049, 0.0871804208, -0.1152631566, -0.0967790708, 0.0887612849, -0.1040526479, 0.1103539914, -0.1193920299, -0.0616302714, 0.0354702175, 0.0881216377, -0.1089574173, -0.0227928236, -0.1110076606, 0.1103111356, -0.0328905508, 0.0900932103, 0.0698243529, -0.0918243974, 0.0243135244, 0.0793065429, -0.1159558594, 0.1130646169, -0.0761811584, 0.0818581134, 0.0960582495, -0.0532010868, -0.0570891425, -0.0372984037, -0.1095333844, 0.0178640932, -0.0323179066, 0.0052002221, -0.1025231928, -0.1063918546, 0.0275827497, 0.0157068819, 0.0618083030, 0.0007528961, 0.0733148158, -0.0540460572, -0.0814391673, -0.1016892046, -0.0521796420, -0.0862229615, 0.1074001789, -0.0538250133, -0.0739510208, -0.0555894375, -0.0299642608, -0.0902967975, 0.0132160634, 0.0391989201, 0.0844465047, -0.0669625849, -0.0073189139, -0.0703773052, 0.0274597555, 0.0054632127, 0.0900223702, 0.0580254197, -0.1123564020, -0.0125169754, 0.1218778193, 0.0143478215, -0.1182021424, 0.0552501380, -0.0735383630, 0.0977361053, -0.0734265149, -0.0081381798, 0.0939997435, -0.1038109437, -0.0650708973, -0.0444494188, 0.0089430660, 0.0674102306, 0.0957051516, 0.0712037683, 0.1274461448, 0.0328590721, 0.0354506969, -0.1087733731, -0.0486166403, -0.0104845539, 0.0754647702, -0.0224725083, -0.0173858404, 0.1181166023, 0.0605085492, -0.0371230021, -0.0226298720, 0.0993901789, 0.1026525646, -0.0744147152, 0.0397503078, 0.1277194321, 0.0490602106, 0.0375006348, 0.0832799971, 0.0965397805, 0.0950814635, 0.0555423051, 0.0843730867, -0.1262334734, 0.0434687585, 0.0642665029, 0.1151744425, -0.0984345824, 0.0463608354, 0.0276738107, -0.1154440567, -0.0784166306, 0.1227552891, -0.0101331100, -0.1010086834, -0.0382617861, 0.0033370256, -0.0446567833, -0.0590119958, 0.0066226721, -0.0258799866, -0.0184457153, 0.0804889202, 0.0735339969, -0.0698781312, 0.1101405621, -0.0914337486, -0.0740506649, -0.1111247241, 0.0783687085, -0.1225332543, 0.0933796912, 0.0347500294, 0.0997672975, -0.0512584224, 0.0216352344, -0.1072005928, -0.0582731962, -0.0519919097, 0.0181419402, -0.0911406055, 0.0432741195, 0.0911030918, -0.0726830512, -0.1040561944, -0.0827099830, 0.1024012417, 0.0231654197, 0.0152649879, 0.0159914494, -0.0230245739, 0.0158580542, 0.0355178863, -0.0464718863, 0.1098047346, -0.0249646828, -0.0127860010, -0.0326510668, -0.0416166335, -0.1070417613, -0.0895111710, -0.0219616517, -0.0047724620, 0.0740207434, 0.0977183729, 0.0788175613, 0.0741409212, 0.0284401327, -0.0218677819, -0.0005808324, -0.1059795991, 0.0713817030, -0.1213017628, -0.1097098589, 0.0553225130, -0.0757509768, 0.0219739228, -0.1005858928, -0.0100821555, 0.0198141783, -0.0598930195, -0.1171629652, -0.0856304169, 0.0592088252, 0.0571978688, 0.0867508501, 0.0583324134, 0.1152552515, -0.0688565075, 0.0997291654, -0.0515475646, -0.0158546641, 0.0166286677, -0.0735948086, -0.1219673604, -0.0918074846, 0.0681960732, -0.1004424840, 0.0931349844, -0.1264257282, 0.0914267302, -0.0393333212, 0.0741252303, -0.0601541102, 0.0896572024, -0.1218129843, -0.0823837519, 0.0603599846, 0.0435831398, -0.0214588195, -0.0454494357, -0.0634725094, 0.0946163684, -0.1054205373, 0.0886060297, -0.0155291334, -0.0351532847, 0.0849486440, 0.0762448609, -0.0641090795, 0.0104313493, -0.0937606543, -0.0385787711, -0.0610253960, -0.0740319788, -0.0747145787, 0.0356532186, 0.0154297948, -0.0721059740, -0.0673960596, 0.1209636182, 0.0299422741, 0.0029994547, -0.0561258197, 0.0309597552, -0.0460295603, -0.1135960519, -0.0412818193, 0.0509524792, -0.1050343215, -0.0609801859, -0.0427121371, 0.0585411340, -0.0803679377, 0.1132333428, -0.0602443144, -0.1055233181, 0.0937708467, -0.1244768724, -0.0177236721, -0.0947975144, -0.1002867967, -0.0366850719, 0.1216967702, -0.0824728906, -0.0541689843, 0.0719297826, 0.0455085039, -0.0753690898, -0.0662942156, -0.0839221254, -0.0830242187, -0.0027420670, -0.0608114004, -0.0696298331, -0.0250510126, 0.1140205264, 0.1087265760, 0.0348099917, 0.0432346910, 0.0968251079, -0.0244141370, 0.0618274361, 0.1209627986, 0.0378762931, 0.0165215731, 0.1022723764, 0.0856519639, -0.0573901013, -0.0339875147, 0.0195752829, 0.1178041101, 0.0098913312, -0.1010190323, 0.0161283612, 0.1029992849, -0.0725542009, -0.0407864973, -0.0884575844, 0.1032508463, 0.0728263110, 0.0949136615, -0.0714941397, 0.0604663044, -0.1095428765, 0.1161866337, 0.0283143073, -0.0420574024, 0.0816513896, -0.0633669496, 0.0105360597, -0.0908783823, -0.0327711627, -0.0308517218, -0.0183042809, 0.0791065842, 0.0495460778, -0.1081713587, 0.0851901919, 0.0257899016, -0.0997836590, 0.1115959287, -0.0359164476, 0.0310520679, 0.1149877459, 0.0834068656, -0.0282177255, -0.0124363825, -0.1237083673, -0.0141226575, -0.0787915289, -0.1264713407, -0.1046249270, -0.0901321992, 0.1167597175, -0.0099662840, 0.0525515825, 0.1015442014, -0.0714761317, -0.0193357989, 0.0774649680, 0.1001131684, -0.0184466019, -0.0315499827, 0.0118474662, 0.1057969332, -0.0135242492, 0.0784677416, -0.0057864860, 0.1077617556, 0.0066432655, 0.0452887416, 0.0529591590, 0.0328485072, 0.1184328645, -0.0900603980, -0.1075217575, -0.0483117402, 0.0984759033, 0.0803073198, -0.1097164229, 0.1067386121, 0.0284242034, 0.0511645526, -0.0098737255, -0.0512761846, 0.0483529121, 0.0133616030, -0.0891521797, 0.0253849626, -0.0526707247, -0.0661560819, 0.0544299632, -0.0985402018, 0.0824066401, -0.0063324198, 0.0879226923, -0.0183875635, 0.0771492124, 0.0705043226, 0.0785237253, -0.0171467587, 0.0430409312, -0.0549789742, 0.0444572121, 0.0125617832, 0.0005785674, -0.1140390784, 0.0438085794, 0.1142887175, -0.0788847506, 0.0358672738, 0.0003022999, -0.0274986476, 0.1251705885, 0.0304604918, 0.0299045444, -0.0912008956, 0.0339334756, 0.0469424725, -0.1069224924, 0.0733079612, -0.0656124353, 0.0534261316, -0.1071826741, -0.0756019205, 0.0565385371, 0.0540214181, -0.0369094089, 0.1259729564, -0.1135609746, -0.0307639018, -0.1163084731, 0.0764517784, -0.0722919405, 0.0653590709, -0.0582220927, 0.0652822107, -0.0543204248, 0.0309474468, 0.0862395912, 0.0247174501, 0.0290125757, -0.0489105135, -0.1275220960, -0.0541812256, -0.0112892315, 0.1189973801, 0.0680967718, 0.0417120308, 0.1136109233, 0.0543030351, -0.0602711812, 0.0615608841, -0.0742952079, 0.0257801861, 0.0158611089, 0.0048918873, -0.0449175760, 0.0909361094, -0.0092530027, 0.1014830023, -0.0916832685, 0.0189135373, -0.0326835811, 0.0394210517, 0.0074565858, -0.0676697046, -0.0997192487, -0.0044262931, 0.1161284596, 0.0228850991, -0.0264864787, 0.0596162677, -0.0587315783, 0.1171819568, -0.0845270976, 0.1229898334, 0.1229404807, -0.0190910399, -0.0671479106, 0.0181915462, -0.0901920944, 0.0902051330, -0.0056279674, -0.0878510252, 0.0875333995, 0.0084401518, 0.0456246585, 0.0022223443, -0.0924451500, 0.0986909419, -0.0157117099, 0.0915147066, 0.0318728238, 0.0249724090, 0.0484358668, 0.0464984477, -0.0804850757, 0.0175732076, 0.0253014117, 0.0657929778, 0.0026383698, -0.0447986126, 0.1204546839, -0.0799626708, -0.0910444781, 0.1243562102, -0.1047170311, 0.0622650683, -0.0984419361, -0.0094900727, -0.0607587174, 0.0441664159, -0.1128387526, 0.0557436943, -0.0242981985, -0.0052773654, 0.1132891923, 0.0264061987, -0.0120699778, -0.0586693957, -0.0088907778, 0.1134817600, 0.0287227184, -0.0390715897, -0.0808945820, 0.0807956755, -0.0082203224, -0.0186793655, 0.0613839626, -0.1068659946, 0.0239462256, 0.0699199587, 0.0656682402, -0.0010836869, -0.0286387727, 0.0614876598, -0.0188311711, 0.0468262285, 0.0970523059, 0.0479191095, 0.0960627943, -0.0754842758, 0.0368399024, 0.0760047734, 0.0795399696, 0.0613891482, 0.0227212906, -0.1216664016, -0.0445146859, 0.0518629700, 0.0633893907, 0.1185603440, 0.0541783273, -0.0957873911, -0.0085694566, -0.1024855524, -0.0759387463, -0.1205326170, -0.1195413321, 0.0617432445, 0.0636599064, -0.0401558876, 0.0689925253, 0.0961896926, -0.0088298470, 0.1189073622, 0.1018666029, 0.0994516909, 0.0215663612, -0.0726484954, -0.0365711153, -0.0458055884, 0.0043776929, -0.0029265285, -0.0802482516, -0.0183642656, -0.1206544787, -0.0706229508, 0.0118288547, -0.0631335154, 0.0682940930, -0.0176991895, -0.1237403899, 0.0302889049, 0.0910937488, -0.1233678162, -0.1273982376, -0.1051584706, 0.0592825562, 0.0611725599, 0.0563190579, -0.1102509722, 0.0186186731, 0.0722305924, 0.0162486136, 0.0087289810, -0.0716629475, 0.0190519989, -0.0051490664, 0.0035397410, 0.0054940134, 0.0322863162, 0.0535004288, 0.0054649562, -0.0664468110, -0.1006165445, 0.0585103631, 0.1279051602, -0.0442694351, -0.0370319113, -0.0662335306, 0.0595055521, -0.0850738585, 0.0466427952, 0.0579839945, -0.0062057972, 0.1075610816, 0.0276799649, -0.1187703609, 0.0699219406, -0.1054985970, -0.1267930269, -0.0853964537, 0.0250809193, 0.1210891157, -0.0367791206, 0.0909396857, -0.1120526642, 0.1121896356, 0.0965297073, -0.0030895472, -0.0929617435, -0.0002489090, 0.0601001680, 0.1069478095, 0.1237545311, 0.0233449787, -0.0853645876, -0.1107828319, 0.0380568355, 0.0182789117, 0.0326485634, 0.1088392138, -0.0538328588, 0.0454796255, 0.1230949163, 0.0488408506, 0.1148276031, -0.1237782761, -0.0434202552, 0.0260490328, -0.0807710737, 0.0824504197, -0.0140540376, -0.1230965555, -0.0044465289, -0.1122955382, 0.0880561918, -0.0538365841, 0.0690755695, 0.1172934026, -0.0517067909, 0.0006600469, 0.0312717110, 0.0716057420, 0.0266885012, 0.0272951275, 0.1257169545, 0.0511896163, -0.0812158436, 0.0149723291, 0.0064606369, 0.0822673291, 0.1006441414, 0.0492035002, 0.0067648590, 0.0083180964, 0.0104956031, -0.0341581553, 0.0472670346, -0.0801712573, 0.0968762338, -0.1157857701, -0.1115793288, 0.0038509071, 0.1173101366, 0.0343138129, -0.0017976314, 0.0958155990, 0.0421886742, 0.1085686982, -0.0296074077, -0.0285126120, 0.0118808299, -0.1024354845, -0.1031628698, 0.0928583890, -0.0908853114, -0.0920851231, -0.0444631279, 0.0922889709, -0.0656271577, -0.0129212961, -0.0510073677, 0.1183166206, -0.1141193062, 0.0491617173, 0.0079724193, 0.0248245299, -0.0111023188, -0.0760503262, 0.1051747650, -0.0509647280, 0.0081165284, -0.0903325379, 0.0597495735, -0.0929099470, 0.0383565426, -0.0164488032, 0.0053160191, -0.1248626634, -0.0670861304, -0.1111045778, -0.0601634234, 0.0000874549, -0.1097924337, -0.0639683828, 0.0818228573, -0.0240538344, 0.0277387947, -0.0690070316, 0.0627499223, -0.0011116415, -0.0549936593, -0.0816967487, -0.0763437450, 0.0937568396, 0.0452091545, 0.0314231217, -0.0463165045, 0.0657231510, -0.0507210344, 0.0757557154, 0.0040006340, -0.0469438508, -0.0896582454, -0.1083135530, -0.0417909101, -0.0445548296, -0.0997794792, 0.0290906578, -0.0482001677, -0.0123783499, -0.1229325384, 0.0486308932, -0.0428485274, 0.0241227299, 0.0799167901, 0.0534439236, 0.0191009939, 0.0408003628, -0.0431359038, -0.0057953373, -0.1257778108, 0.0657057911, -0.0823718458, -0.0504415631, 0.1270484328, 0.1206447184, 0.0283833593, 0.0273068547, -0.0656631738, -0.0095463917, -0.0320111141, -0.0017057210, -0.0138325691, 0.0318714231, 0.0453718007, 0.1076172143, -0.0733026117, 0.0760245323, 0.1212106347, 0.1263298690, 0.1005367786, 0.1094589084, 0.1051945239, -0.0547664762, -0.0910063535, -0.0807704926, 0.0606066883, 0.0595264584, -0.1192620844, 0.0851383656, -0.1060198024, 0.0408765823, -0.0693064034, -0.0456464812, 0.0369985998, -0.1269578040, -0.1168743372, 0.0767225772, -0.0995921046, -0.0927783102, 0.0829990655, 0.0313329697, -0.0033132434, 0.1237519383, -0.1093251705, -0.0628798380, 0.0577672571, -0.0510028526, -0.1098653898, 0.0512770116, 0.1091163903, 0.0088488013, -0.0284632444, -0.0345865041, -0.0805435330, -0.0240669623, 0.0061483532, 0.0804671794, -0.0237659141, 0.0049197823, 0.1263796091, 0.1271326840, -0.0953088924, 0.0196273625, -0.0034986585, 0.1069454253, -0.1174727753, -0.0994273871, -0.0640937835, -0.0216497928, -0.1257921010, 0.0717945248, 0.0302261710, 0.0302597880, -0.1049304381, -0.0120887160, -0.1077924073, 0.1265178025, -0.1047007293, 0.1239428222, -0.1064205542, 0.1022435129, -0.0378485471, 0.0563163906, 0.0888605565, -0.0457885489, -0.0141777620, 0.0957759470, 0.0731812716, 0.1052234918, -0.0201231986, -0.0081987455, -0.0657243431, 0.0697772503, 0.0050907284, -0.0984712392, 0.0331508815, 0.0423465222, 0.0715640485, -0.0692837536, -0.1109374166, 0.1160434783, -0.1120715290, 0.0176072121, 0.0374117792, -0.0925275087, 0.0996140242, 0.0252036750, -0.0971464217, -0.0218570977, -0.0590233505, 0.0763964057, 0.0919958949, 0.0022376478, 0.0360517949, -0.0499440432, 0.0635233670, 0.0715600103, 0.0628543496, -0.1196524799, 0.0260846019, -0.0685825944, 0.1134869456, -0.0654346198, 0.0794531256, -0.0652884915, 0.1142626256, -0.0091706440, -0.1027964652, -0.0571046174, 0.0367015898, -0.1161054075, -0.0707291514, 0.0014660656, 0.0519517064, 0.1011831462, -0.1149536818, 0.0904669762, -0.0412873179, -0.0019660741, 0.0095183998, -0.0432109684, -0.1147692427, 0.0983416885, -0.0405271500, -0.0438627675, 0.0148081034, 0.0637986213, 0.1168144792, -0.0399001390, -0.0332811028, -0.0623777136, -0.1174206063, -0.0403661802, -0.0670069456, 0.0007881969, 0.1192263961, -0.1208976209, 0.0048722476, 0.0169215351, 0.0163541734, 0.1050967425, 0.0289500207, 0.1161492169, -0.1184902191, -0.0895503610, -0.1169708595, 0.0664773136, -0.0612309575, -0.1023469865, 0.0748036504, -0.0619037598, 0.0812108964, 0.0210638344, -0.1158792675, -0.0449901000, 0.0435040742, 0.0600035489, -0.0744012296, 0.0824606717, 0.0790603161, -0.0559822842, -0.0998009965, 0.0377841145, -0.0543250069, -0.1132168546, -0.0440052897, 0.1158581823, -0.1127782166, 0.0348112732, -0.0397950336, 0.0850179046, -0.0678468496, 0.0390882194, -0.1253838092, 0.0924759507, 0.0742485076, 0.0590064079, -0.0792555586, -0.1153319627, 0.0587264150, -0.0440560877, -0.0502992496, 0.0526403189, 0.0758845061, -0.0031699538, -0.0436663553, -0.0580439121, 0.0025246590, -0.0695896000, 0.0041792393, -0.0209159702, 0.0671930015, -0.0363970548, -0.1101184860, 0.0070835799, -0.0583541542, -0.0734442547, -0.0220856443, 0.1202887148, 0.0779323280, -0.0617930368, 0.0097443610, 0.0098502189, -0.0234043226, 0.0436619371, 0.1113874912, 0.0190153420, 0.0326680094, 0.0010158867, 0.0281354487, -0.0501669794, 0.0065759867, -0.0837248340, 0.0558730662, 0.1157762706, 0.1264179349, 0.1237885952, 0.0666519254, 0.0052508414, 0.1181304753, -0.0529294610, -0.0190929025, 0.0330114365, -0.1092031822, -0.0986087620, -0.1014058888, 0.0289357007, -0.1112503707, -0.1100259572, -0.0338780433, -0.0190590471, -0.0691919327, 0.1027314663, -0.0737560242, -0.1197659820, -0.1010129899, -0.1215623915, 0.1152525097, 0.0078483969, -0.0506281108, 0.0047691911, 0.0319155008, -0.0319240838, -0.0002154261, 0.0778049529, -0.1236685663, 0.1113669872, -0.0745345652, 0.0613111258, 0.0034808666, -0.0936024636, -0.0048662126, 0.0385762006, -0.0028529018, -0.0609366521, -0.0908112824, 0.0200697482, 0.0674723238, 0.0465701818, -0.0002347231, 0.1069241464, -0.0100181177, 0.0831695348, -0.0739609450, 0.1216424704, 0.0840117782, -0.0128492191, -0.0199540555, -0.1155648455, -0.0731511116, -0.0516607240, 0.1137923300, 0.0193348229, -0.0068162680, -0.0044253469, 0.0432697535, -0.0279941186, -0.1227544472, -0.0041565299, 0.0039675683, 0.0041342825, -0.0620886609, 0.0996375680, -0.0928468481, 0.0190875977, 0.0139354467, -0.0928874165, 0.0265984237, 0.0755113512, 0.0852092355, 0.0687596202, 0.0731474161, -0.0356687233, -0.0515898466, 0.0423856825, 0.0993000567, 0.0158641338, -0.0248973370, 0.1119593829, -0.0693928599, 0.0856135637, -0.1091899350, -0.0796345472, 0.0122928768, -0.0694989339, -0.0684120730, -0.0386540517, -0.0555331185, 0.0338291973, 0.0483730733, 0.0286181420, -0.0293466225, -0.1010771841, 0.0815242529, 0.1249952316, -0.1148722693, -0.0956475213, 0.0511606187, -0.0283005759, 0.1095550656, -0.1199325621, 0.1220421195, -0.0604120269, 0.1002375931, -0.0462563038, -0.0526624769, -0.0088495314, -0.0908520073, 0.0193402022, 0.0251863897, 0.0290750265, 0.1172019541, -0.0389292464, 0.0832730383, 0.0512712151, -0.0658003241, 0.0127915591, 0.1162339002, 0.1201771647, -0.0776087195, 0.1210163087, 0.0494174957, 0.0724342316, 0.0414067060, 0.1255827844, -0.1132406890, -0.1082887352, -0.1089847982, -0.0482235178, 0.1083171219, 0.0808957666, -0.0333464295, -0.0540057346, 0.1184170842, 0.0117125064, -0.0476847589, 0.0377652794, -0.0034162030, -0.0915696248, -0.0290213004, 0.0331775844, -0.0605185330, -0.1090251505, -0.1123902276, -0.0701428875, 0.0658410192, 0.1189364791, -0.0934704393, -0.0300829187, -0.0127501339, 0.1048728973, 0.0574226379, -0.1009879559, 0.1093941629, 0.0716441721, -0.0137927607, 0.1001017392, 0.0000344664, 0.0024913549, 0.0462871343, -0.1137186140, -0.0691752955, -0.0834223181, 0.1084696949, -0.1147954315, -0.0403325111, -0.1062884629, 0.0217403620, 0.1239493787, 0.1154786050, -0.0568338484, -0.0115596354, 0.0923710614, 0.1007370651, -0.0457792431, 0.0480245501, 0.0859099180, -0.0142611265, -0.0044610947, 0.1227660775, 0.0668074489, -0.0671937913, -0.1235579029, -0.0910092518, -0.0327631608, -0.0656045005, 0.0110479146, 0.0735596716, 0.0832619667, 0.0782531649, 0.1059361249, -0.0549058914, -0.0076023787, 0.0397716165, 0.0050251931, 0.1188223213, 0.1266691387, 0.0638120472, -0.0177731290, -0.0707463324, 0.0632356256, 0.1219357401, 0.1271944940, -0.0497299954, -0.1256071776, -0.1230935082, -0.0552349091, -0.0071598962, 0.0109004527, -0.0829719901, -0.0891294330, 0.0912318528, 0.0511729717, 0.0857039839, 0.0004249215, 0.1182408482, -0.0917636752, 0.0019733161, 0.0673915744, 0.0922416598, -0.1024088711, 0.0045930892, 0.0860386789, 0.0882210582, 0.0364882946, 0.1027422696, 0.0806297958, -0.0381651670, 0.0837918967, -0.0519470647, -0.0669635981, 0.1118331850, 0.1035998464, -0.0000439584, -0.0070168823, -0.0966519266, 0.0087978840, -0.0109506622, 0.1187889278, 0.0359430015, -0.0330697671, -0.0773874968, 0.0273124278, -0.1234226748, -0.0469309688, 0.0665902346, -0.0143728554, -0.0665471554, -0.1133575439, 0.0327477753, 0.1075716168, 0.1022877693, -0.1165784150, 0.1243656278, -0.0561580211, 0.1046293825, -0.0234161094, -0.0336715654, 0.0029312670, 0.0286290646, 0.0554538369, -0.0826521069, -0.0668916777, -0.0356560275, 0.0931700617, 0.0838811547, -0.0040596128, -0.0318217576, -0.1199881211, 0.1263290942, 0.1142661721, 0.0594675690, 0.0405143648, -0.0149216577, 0.0617025048, -0.1054968536, -0.0198335350, -0.0491352528, 0.1224715114, 0.0187725872, 0.0031171739, 0.0826459378, 0.1084091365, -0.0488115773, -0.0901419669, 0.0060110092, -0.0572496504, 0.1233437955, 0.0882188678, -0.0526389107, 0.0489050150, 0.0308499187, 0.1270215809, -0.0296417773, -0.1018013656, -0.1066772491, 0.0985399485, 0.0905225724, 0.0218129903, 0.1054025590, -0.1063213721, -0.0565629900, -0.0661048293, 0.0989707708, -0.0263035670, -0.0268702880, -0.0586341098, 0.1251910627, -0.1169933900, 0.0922613144, 0.0448640585, -0.0315595716, -0.0978097320, 0.0061939806, 0.0006494224, -0.1030377746, 0.0059743822, -0.0713780150, -0.0410046130, 0.0161726922, -0.0688482970, -0.0553985909, -0.0885832012, -0.0662732124, -0.0466544032, 0.1207165420, 0.0141455233, 0.0774665624, -0.0235431865, -0.0839412659, 0.1021435857, 0.1053491980, 0.0577905774, -0.0200236216, 0.0773526430, 0.0349708647, 0.0898073316, 0.0228572339, 0.0171828419, 0.0352532864, 0.1046244055, -0.0988399386, 0.1028674692, -0.1233997196, -0.0620780960, -0.0401279852, -0.0993906632, -0.1145295799, 0.0710644126, 0.0655671656, -0.0718199164, 0.0040450543, -0.0622001067, -0.1003085002, -0.0397219509, -0.0373656824, -0.0050489679, -0.1228888854, 0.0184203088, -0.1093712002, 0.1185784191, 0.0715536028, 0.0693697482, 0.0154218376, 0.0864283741, -0.1238127723, -0.0807015002, 0.0386335701, 0.1029959470, 0.0755095184, 0.1213597953, 0.0425534844, -0.1177580431, -0.0225187838, 0.0987707078, 0.0739632696, 0.0900444388, 0.0160659999, -0.0145711824, -0.0947015435, 0.0220799446, 0.0994139612, 0.0785916448, -0.0131481662, 0.0119915456, -0.0237462819, -0.1087728515, 0.0325496644, 0.1006890982, 0.1246041358, 0.1103554964, -0.0373199880, -0.1004652530, -0.0538064241, -0.1121272743, 0.0688700974, -0.1081044152, -0.1008980870, 0.0836895704, -0.0414684862, -0.0070315078, 0.0004601479, 0.1053918451, -0.0079485774, 0.0991196781, -0.0039995015, 0.0498823524, 0.0849286169, -0.0160417333, -0.1106583774, 0.0541217029, 0.0615189075, -0.0421329886, -0.0691687912, -0.0883142352, 0.0942672640, 0.0321113616, 0.0485310704, 0.0879739225, 0.0599824339, -0.0974325538, 0.0132963061, -0.1125762835, 0.0479905456, -0.0395160243, -0.0037338063, -0.1111242399, -0.0349183828, -0.0071336776, 0.0798403770, -0.0433073342, 0.0829797536, -0.0164338723, 0.1066580415, -0.0095911101, 0.0259159803, -0.0349377394, 0.1228050590, -0.0286383778, -0.0584222302, -0.0418930203, -0.0898573995, 0.0036613643, -0.0779374316, -0.0133420974, 0.0840666145, -0.1047527418, 0.0272877365, -0.1108732224, 0.1267600954, -0.1130255461, -0.0551278219, 0.0716082454, -0.1138880327, -0.1050190255, 0.1063150167, -0.0576947555, 0.0084857196, 0.0333660841, -0.0241371393, -0.0762877241, 0.0398392081, -0.0769578069, -0.0786764473, 0.0973207355, 0.0967790335, 0.1166091263, 0.0467789173, -0.0134651810, 0.0757525712, 0.1022381037, 0.0454776436, 0.0934582651, -0.1094572246, 0.0826404095, 0.0813219547, -0.1007889807, -0.0886053294, -0.0422056094, 0.0907816440, 0.0619534552, -0.0314210728, -0.0672760904, 0.1118296087, -0.0820774138, -0.0414869860, 0.0210050195, 0.0148642957, -0.1125110239, -0.0485192612, -0.0155271813, -0.0549671277, -0.0716876760, 0.0692216605, 0.0980713069, 0.0114991069, -0.1099661887, 0.0192136914, -0.0864780694, 0.1053110957, -0.1114433259, 0.1092005223, -0.1117225885, 0.0471090972, 0.0668911040, -0.0829712003, -0.1042471081, -0.1174205169, 0.0144625157, 0.0867487490, -0.0466114208, 0.0066298693, -0.0103343949, 0.0017651021, 0.0692511201, -0.0075892806, 0.0932123661, 0.1102799773, -0.0392415002, -0.1120883822};
#endif

#endif
