//Numpy array shape [120, 360]
//Min -0.210258752108
//Max 0.212148606777
//Number of zeros 0

#ifndef WR2_H_
#define WR2_H_

#ifndef __SYNTHESIS__
model_default_t wr2[43200];
#else
model_default_t wr2[43200] = {0.1012393236, -0.0363987982, 0.0517595708, 0.0910221264, 0.0094082095, 0.0435717851, 0.0456554815, -0.0332312956, -0.0757575557, 0.0235381983, 0.0529001504, 0.0926218629, 0.0566017143, 0.0826104879, -0.0022590160, -0.0538255647, 0.0198265426, -0.0789722055, -0.0249937922, 0.0263815429, -0.0244837105, -0.0018624105, 0.0856272280, -0.0554797724, -0.1092874259, 0.0443110093, -0.0417110026, 0.0823451281, 0.0125540141, -0.0230089668, -0.0085101593, -0.0647304580, -0.0535519347, 0.0217823219, 0.0111337136, 0.0414280482, 0.0403597429, 0.0398208685, 0.0201743338, -0.0041301232, 0.0490145460, -0.0437045656, -0.0382646210, -0.0731463134, -0.0457634516, 0.0374191515, 0.0320165642, -0.0187949035, -0.0794052258, -0.0117260069, -0.0267803129, -0.0306405947, 0.0569800436, 0.0923101231, -0.0564777963, 0.0011974276, 0.0408242531, -0.0155375116, 0.0311972164, 0.0711534023, -0.0064772200, 0.0154510159, -0.0471645147, 0.0507448465, 0.0091012605, 0.0477859415, -0.0441241041, -0.0077364724, -0.0471333601, -0.0198462084, -0.0005059871, -0.0097062271, -0.0580120385, 0.0205129385, 0.0395147763, -0.0279298592, 0.0314485282, -0.0276935361, -0.0300841406, -0.0566689447, -0.0087240189, -0.0302151553, 0.0583907217, 0.0477815270, 0.0371930301, -0.0453529023, 0.0295194499, -0.0118982662, -0.0125269229, -0.0474222302, -0.0030735927, -0.0555580407, 0.0277095530, -0.0642199144, 0.0218244493, -0.0681869388, 0.0530577973, 0.0021004644, 0.0466255397, -0.0535047017, -0.0377092138, -0.0330324136, 0.0155945085, 0.0097665880, -0.0629860610, 0.0046519958, -0.0131600574, 0.0289565343, -0.0136548821, 0.0672476143, 0.1304498166, -0.1543820351, -0.0262025613, 0.1045954227, 0.0062518734, 0.0456068814, -0.0871312469, -0.0199901946, 0.0409354270, -0.0915216208, -0.0723354593, 0.0366151333, -0.0629956797, -0.0598787181, -0.0591343381, 0.0083108116, -0.0608255267, 0.1389581859, -0.0415277109, -0.0866031647, -0.0089624645, 0.0219261553, 0.0783019513, 0.0218726303, -0.0213737357, -0.0428192168, -0.0174841583, 0.0579541512, 0.0781737566, -0.0421945229, 0.0370804630, 0.0018947725, 0.0380538926, -0.0978533924, -0.0861591026, -0.0008830589, -0.0615609586, 0.0624235719, -0.1090844870, -0.0078312028, -0.0240671225, 0.0072055655, 0.0011722157, 0.0570697859, 0.0690506771, -0.0641949251, 0.0034714609, 0.0262051299, 0.0082021728, -0.0459514298, -0.0098277507, 0.0777387172, -0.0567373112, -0.0176450014, 0.0286273882, 0.1368763745, 0.0035850108, -0.0391079970, 0.0597124919, 0.0475389808, 0.0651403964, -0.0569598265, -0.0909704044, -0.0976848006, 0.0412385613, -0.0043202057, -0.0336247236, -0.0365616418, -0.0114264973, 0.0494289622, -0.0298290960, -0.0044809226, 0.0781447738, -0.0029256493, -0.0254042875, -0.0891976431, 0.0552845374, -0.0251455400, 0.0179606695, 0.0350017361, 0.0402082987, -0.0479581691, 0.0601543412, -0.0070776152, 0.0549225509, -0.0104403468, 0.0060337558, -0.0604972728, 0.0050887247, 0.0043307263, -0.0600573570, -0.0496873409, -0.0642122552, 0.0915615857, -0.0353523716, 0.0460291989, 0.0491808727, 0.0265059397, -0.0190644003, 0.0057346425, 0.0089703733, 0.0224327203, -0.0168289728, 0.0525266118, 0.0347567610, -0.1116522849, -0.1347220540, 0.0207934901, -0.0260214899, -0.0163937788, 0.0666383654, 0.0213562865, -0.0502423793, 0.0110943075, 0.0113465898, 0.0276379157, 0.0423790365, 0.0372292995, 0.0342826433, -0.0694965124, 0.1046954617, 0.0050745578, 0.1071274802, 0.0684028864, -0.0256936550, 0.0332642123, -0.0505103059, -0.0201749410, -0.0019598685, -0.0096379053, 0.0326196887, 0.0211986657, 0.0234991312, -0.1370570809, 0.0642212257, 0.0037351537, -0.0048100073, 0.0196015742, -0.1024878323, -0.0372520871, 0.0458111614, -0.0645261183, 0.1207199022, 0.0104926880, -0.0156646185, 0.0453764386, -0.0201157369, -0.0719800070, 0.0524876602, -0.0248132478, -0.0665831044, -0.0183331501, 0.0401275083, 0.1112134606, -0.0484443009, -0.0160095319, 0.0227301903, 0.0405981094, -0.0688024089, -0.0511709787, 0.0907819122, -0.0517167449, 0.0420233756, -0.0479119457, -0.0409936346, 0.0487171561, 0.0081280805, 0.0633435324, -0.0087297689, 0.0043935832, 0.0698020607, 0.0508873910, 0.0440721735, -0.0235631447, -0.0919840261, 0.0527838692, 0.0499096811, 0.0064026639, -0.0122090420, 0.0635227636, 0.0324494056, -0.0017858509, 0.0307331681, -0.0248962790, 0.0220715590, -0.1102327332, 0.0300896503, 0.0423962399, -0.0208212622, -0.0007419402, -0.0172157120, -0.0697728246, -0.0693507046, -0.0912422091, 0.0676261783, -0.0286145844, 0.0168544408, -0.0247162357, -0.1026220843, -0.0562091731, 0.1042658687, -0.0901125968, 0.0229727104, 0.0221524965, -0.0070321122, 0.0898000449, 0.0444609895, 0.0201740675, 0.0111823073, -0.0532950126, 0.0324836895, -0.0354756750, 0.0617712475, 0.1032840163, -0.0476354323, -0.0487073138, 0.0557709895, -0.0984753892, 0.0330534913, 0.0239200965, -0.0018479736, -0.0410025902, 0.0055255149, 0.0543276928, 0.0051814588, -0.0368509777, -0.0112725748, -0.0286881365, 0.1078282669, 0.1235457286, -0.0457938686, -0.0191393830, 0.0167769529, 0.0796661898, 0.1080857962, 0.0161991343, 0.0334728137, 0.0561189987, 0.0012181732, 0.0543007329, 0.0769817755, 0.0722981915, 0.0665054768, -0.0360852815, 0.0300345756, -0.0070514567, 0.0127095422, -0.0310319010, 0.0626188442, 0.0418076292, -0.0813153386, -0.0679105818, -0.0094342390, 0.0122327805, -0.0012064220, -0.1250382513, -0.0405562855, 0.0168987680, -0.0139697054, 0.0066646645, -0.0304837115, 0.0697154030, -0.0077984296, -0.0429361798, 0.0154648740, -0.0831555873, -0.0606822520, 0.0382132828, 0.0142487008, -0.0010501419, 0.0194038339, 0.0258692931, -0.0810907632, 0.0157015622, -0.0533609018, 0.0593101755, -0.0586888455, 0.0372515731, -0.0088930484, 0.0408636518, 0.0181599334, -0.0639824495, 0.0316918753, 0.0209854618, 0.0840201899, -0.0100536523, 0.0386530869, 0.0432618111, -0.0377742201, -0.0600828528, 0.0539145358, 0.0185591001, -0.0611893535, -0.0367804170, -0.0175199565, -0.0162913688, 0.0280428864, 0.0484803244, -0.0243971907, -0.0294911470, -0.0256912727, -0.0749056488, 0.0300573725, 0.1334229708, -0.0938642621, -0.0021761328, 0.0264630802, 0.0337187499, 0.0860360712, -0.1400795132, -0.0570663176, -0.0512886047, 0.0351644531, 0.0281592626, -0.0511220433, 0.0043720929, -0.0172558799, -0.0059115705, -0.0596599095, 0.0451798476, 0.0524955355, 0.0462801717, -0.0153550217, -0.0451254919, -0.0097324541, 0.0737712756, 0.0952037126, 0.1579594910, -0.0865313783, -0.0059779659, -0.0157150216, 0.0101632271, 0.0635007694, 0.0226262640, -0.0487047024, 0.0332905464, -0.0477853343, 0.0788990930, -0.1214605495, -0.0046229102, -0.0138524380, -0.0613872968, 0.0816497654, -0.0431005284, 0.0530571602, 0.0034006964, -0.0018433030, -0.0184837021, 0.0023761913, 0.0171109866, -0.0833460540, -0.0629599318, 0.0043938942, 0.0004315898, 0.0566899292, -0.0465561077, 0.0544433668, 0.0157646090, -0.0314040929, -0.0252552237, 0.0001189709, 0.0065258546, -0.0379906408, -0.0058253501, -0.0957758948, -0.0064992672, -0.1609344482, 0.0116243241, -0.0278321803, 0.0002720766, 0.0370718911, -0.0126780132, -0.0687898695, 0.0769093633, 0.0312013626, -0.0482008718, 0.0656752437, -0.0316711776, -0.0985365212, 0.0249149688, -0.1279689372, 0.0058900807, 0.0502477549, 0.0275131166, -0.0194018725, 0.0092233354, -0.0170013290, -0.0411060378, 0.0802502632, -0.0278380569, 0.0051365057, 0.0509382375, 0.0060485294, -0.0421537124, 0.0321220420, -0.0200880282, -0.0075471965, -0.0181496572, -0.0065041273, -0.0795962214, -0.0336315297, -0.1222159937, -0.0341769084, 0.0223551318, -0.1206107065, -0.0459532700, -0.0499136262, 0.0298887026, -0.0957034230, 0.0075065354, -0.0553559884, -0.0111424401, -0.0239335671, 0.0230665654, -0.0736126378, 0.0488521792, 0.0286590140, 0.0249741245, -0.0301641040, 0.0129110450, -0.0258342288, 0.0416390039, -0.1050974503, 0.0769126788, 0.0390296057, -0.0468847081, -0.0342555307, 0.0450012200, -0.0779504031, 0.0069740377, -0.0130188875, 0.0735596344, 0.1012894064, 0.0615845695, 0.0498564765, -0.0679163635, -0.0242626276, -0.0534088686, 0.0607761666, 0.0067813899, 0.0075565018, 0.0697976127, -0.0161106754, 0.0521593653, 0.0289565530, 0.0376810580, -0.0616733246, 0.0022720033, 0.0365448110, 0.0589840189, 0.0478266887, -0.0848845989, -0.0068770871, 0.0824993700, -0.0376730375, -0.0251581036, 0.1218769401, 0.0494422093, -0.0194785744, -0.0411779694, 0.0321593173, 0.0140691865, 0.0131804822, 0.1934840977, -0.0014944170, 0.0276556555, 0.0460637473, 0.0124530373, 0.0800434202, 0.0122747449, -0.0441635512, 0.0827922747, -0.0084676733, 0.0731282458, -0.0134030823, -0.0340274945, 0.1242342293, 0.0218052864, 0.0262816716, -0.0045667179, -0.0128081487, 0.0372419879, 0.1127046347, -0.0049748770, 0.0243578460, 0.0487735197, 0.0378036276, 0.0421346240, -0.0021258704, -0.0994511694, -0.0537968390, -0.0494100079, -0.0599086732, 0.1025903374, 0.0092085134, 0.0555878878, -0.0198937971, -0.0234131087, 0.0654876009, -0.0870831981, -0.0048463680, 0.0342435390, 0.0212385729, 0.0963291079, -0.0702548027, -0.0012916159, 0.0673919767, 0.0738084167, -0.0294458587, 0.0839021057, -0.0305116922, -0.1176545024, 0.0223482326, 0.0444807187, -0.0751209781, 0.0656285211, -0.0455804318, -0.0107998736, 0.0022497578, 0.0528655611, -0.0448941514, 0.0461016484, 0.0582257174, -0.0569641776, 0.0608508624, 0.0431251712, -0.0099010784, 0.0766029879, -0.0524829440, -0.0118986377, -0.0385515317, 0.0403131619, -0.0118342526, 0.0282262452, -0.0293945652, 0.0683160275, -0.0562893413, -0.0193209350, -0.0544509068, -0.0520578921, -0.0044449405, -0.0073076254, -0.0390054286, -0.1211553067, 0.0369632691, 0.0188614391, 0.0340254270, -0.0493182242, -0.0244565737, -0.0101113431, -0.0538629927, 0.1011360139, 0.0365044512, -0.0489540473, 0.0811735615, 0.0174832996, -0.0098318504, 0.0025682824, 0.0473426022, 0.1238259822, -0.0609046519, -0.1126259416, -0.0802467093, -0.0276443008, -0.0338439420, 0.0038194419, 0.0519277677, -0.0029621888, -0.0779510140, 0.0112898983, 0.1394368559, -0.0449609570, -0.0011329623, 0.1034786254, -0.0395011343, 0.0033695537, 0.0273353998, 0.0255609043, 0.0013260720, 0.0633329973, -0.0331671722, 0.0164665040, 0.0571393371, 0.0690241382, -0.0370184742, 0.0043312451, -0.0319066197, -0.0022561327, -0.0208833553, 0.0316619165, -0.0055212183, 0.1122874767, -0.0093098115, 0.0119843837, -0.0377375819, -0.0449389666, 0.0142285312, -0.0287677292, -0.0294146296, 0.0287122522, -0.0348876007, 0.0539039597, -0.0447094552, -0.0145925237, -0.0658642948, 0.0246579666, 0.0505078994, -0.0306463055, -0.0657984316, -0.0778419897, -0.0364585109, 0.0643675327, -0.0349424779, 0.0481939018, -0.0081284977, -0.0147022419, 0.0020790100, 0.0216894001, 0.0308400467, 0.0361635499, -0.0006970102, -0.0102293063, 0.0766060352, 0.0485894792, -0.0099637872, -0.0522851162, 0.0435630567, 0.0401788801, -0.0508277342, 0.0077045187, -0.0296506695, -0.1010663658, 0.0533864647, -0.0386958420, -0.0012730183, 0.0096249208, -0.0069483109, 0.0048460658, 0.0300661251, 0.0311570112, -0.0047010127, -0.0117831640, -0.0502329245, -0.0518138818, -0.0288399681, -0.0031366097, 0.0216192361, -0.0605038814, -0.0572879091, -0.0818857774, -0.0228911359, 0.0131781902, 0.0026947907, -0.0346945077, 0.1395115256, -0.0124918297, 0.0484956764, -0.0912697986, -0.0087875929, 0.1552610695, 0.0493082032, 0.0018846299, 0.0085636638, -0.1106067449, 0.0220142510, -0.0024875079, -0.0127746062, 0.0608286746, 0.0198757406, -0.0246420521, 0.0429998003, 0.1117183119, 0.0187438056, 0.0654127672, -0.0296270624, 0.0123236086, 0.0747850612, 0.0417917036, 0.0483698770, 0.0120019577, -0.0776079595, 0.0077822842, 0.0992193744, 0.0524674281, -0.0068587638, -0.0120800892, 0.0036612237, 0.0571487658, -0.0687408745, -0.0119245630, -0.0135988388, -0.0195445158, 0.1031218320, 0.0114718936, -0.0408988297, 0.0048298715, 0.0531657189, -0.0357991643, -0.0421151146, -0.1203655675, 0.0641424134, -0.0363524482, 0.0053214864, -0.0742490813, 0.0228467416, 0.0618547760, -0.0551108383, 0.0073399390, -0.0176657140, 0.0786517486, -0.0859714597, 0.1012448445, -0.0398698300, 0.0717226043, 0.0781767368, -0.0192463957, 0.0064754440, 0.0366898626, 0.0027079945, -0.0323345996, 0.0308572687, 0.0159477834, -0.0104359481, 0.0562089831, 0.0210759025, 0.1072602421, -0.0231072158, 0.0576040149, 0.1052629128, -0.0775667652, 0.0806988925, 0.0402402282, 0.0158438794, 0.0490333959, -0.0787593722, -0.0218185298, -0.0597355142, 0.0720812082, -0.0569617748, 0.0104078222, -0.0075751040, 0.0437163375, 0.0407472812, 0.0070292242, 0.0188331567, -0.0094246985, -0.0381713063, -0.0199097116, 0.0058873324, -0.0350073278, 0.0922703594, -0.0226047710, 0.0036956510, 0.0274239816, -0.0197973214, -0.0247851051, -0.0076011526, 0.0348088145, -0.0095093222, -0.0154685751, -0.0464188866, 0.0593347475, 0.0615974665, -0.0238375999, -0.0064552724, 0.0523481816, 0.1036361605, 0.0120915212, -0.0418591872, 0.0007037362, -0.0048174514, -0.0317340940, 0.0724812299, 0.0842964724, 0.0389712229, -0.0009791898, -0.0015924408, -0.0101010371, -0.0049929721, 0.0360973477, 0.0993185639, -0.0389357693, -0.0337803736, 0.0198050123, -0.0170562547, -0.1107736677, 0.0296637155, 0.0641852394, -0.0092314277, 0.0377620384, 0.0604298711, 0.0678182021, -0.0032072850, -0.0003609823, 0.0627679750, -0.1646173894, -0.1131342798, -0.0518720746, -0.0866868794, -0.0267316382, 0.0086977500, 0.0154256020, -0.0137933353, 0.0140810199, 0.0068109245, 0.0140058706, -0.0060209455, 0.0604658909, -0.0444710851, 0.0682809651, 0.0617524274, 0.0024250695, -0.0239831861, -0.0810524896, -0.0412253588, 0.0687795877, -0.0212366711, -0.0917698070, 0.0385781229, -0.0110818483, 0.0306415930, 0.0481742024, -0.0604999959, -0.0349316597, 0.0010441020, -0.0040859357, 0.0999941528, 0.0669344738, 0.0277763978, -0.0386947133, -0.0289119054, -0.0108949132, 0.0329552330, -0.0184505396, 0.0121846292, -0.0596976466, -0.1097117811, -0.1306302696, -0.0016105678, 0.0407071337, -0.0951209590, -0.0175762959, -0.0295729190, 0.0107356515, -0.0580319874, -0.0442571901, -0.0323878676, 0.0596047193, 0.0808198005, -0.0539323911, 0.0155817140, 0.0396202058, -0.0412642993, -0.0489282124, -0.0601681992, 0.0234793350, -0.0947080627, -0.0357489213, -0.0142055750, 0.0371698774, 0.0120952046, 0.0164575763, -0.1049483046, -0.0319766626, 0.0390575193, -0.0082435710, 0.0137083624, 0.0071009500, 0.0027404542, -0.0552862287, -0.0051564416, 0.0172847882, -0.0664655715, -0.0170865636, 0.0046833055, -0.0566405430, -0.0944198743, 0.0000713902, 0.0021071259, -0.0308444798, 0.0390286520, 0.0189320259, -0.0542495102, -0.0983575806, 0.0171211623, 0.0164685827, 0.0578693859, -0.0811243579, 0.0258317739, -0.0452671461, -0.0795054138, 0.0212364756, -0.0468354523, 0.0746439844, -0.0360993221, 0.0195128378, -0.0355490781, 0.0288280286, -0.0206083581, -0.0300393458, 0.0439561121, -0.0460871346, -0.0479356274, -0.0121351592, 0.0648084357, -0.0071505904, -0.0768426955, 0.0006152634, 0.0944829211, 0.0294783190, 0.0133481789, 0.1014155298, -0.0607832782, -0.0258150510, 0.0157611836, 0.0420964099, -0.0584653914, -0.0383710265, 0.0394775905, 0.0140429791, -0.1099904850, 0.0134625109, -0.0190336537, -0.0240528695, 0.0254258998, 0.1093304232, 0.0265810378, 0.0871312693, 0.0472805277, -0.0460881181, 0.0079389494, -0.0359179936, 0.0506738424, 0.0277460683, 0.0719206929, 0.1248994768, -0.0175524913, 0.0049577611, -0.0131952083, 0.0338241644, 0.0664506853, -0.0045342478, 0.0172400456, 0.0683130175, 0.0628015175, -0.0449415036, -0.0118779922, -0.0805643797, -0.0552283674, 0.0141860042, -0.0190814715, 0.0170931853, -0.1003906727, -0.0047149081, -0.0255312063, 0.0835327953, 0.0137740141, -0.0012827851, 0.0837704986, -0.0624116361, 0.0040165074, -0.0295601897, 0.0711603314, 0.0193153601, 0.0130116139, -0.0032075802, -0.0849467069, 0.0101190284, -0.0429792926, -0.0484248772, 0.0323547237, -0.0602486469, 0.0300521813, 0.0560525730, 0.0576123223, 0.0113334339, 0.0056757019, 0.0265089814, -0.0104413973, -0.0241384506, -0.0269976873, 0.0440010279, -0.0452052131, 0.0145370327, -0.0374125838, -0.0297966413, -0.0727933794, -0.0764817670, 0.0738625377, 0.0832324550, -0.0041129719, 0.1138257012, -0.0501719117, -0.0819417238, -0.0072702076, -0.0278507527, -0.0113755520, 0.0343492441, 0.0559198558, 0.0450914577, -0.0229757242, 0.0510845855, 0.0486582145, -0.0705037415, 0.0179812238, -0.0315295346, 0.0091768019, -0.0527135991, 0.0227540545, 0.0641445443, 0.0240340829, -0.0066804439, 0.0915402696, -0.0216868669, -0.1433964074, -0.0055162907, -0.0593142733, 0.0489683524, 0.0077714296, 0.0285658091, -0.0191001091, -0.0463761725, -0.0639070496, -0.0140688419, -0.0107863210, 0.0004852600, 0.0622718520, 0.0305199903, -0.0538605899, 0.0204335619, -0.0821909606, -0.0423965119, 0.0263222605, 0.0087930560, 0.0185038466, 0.0515394434, -0.0195082091, -0.0177169442, 0.0469261482, -0.0463188626, -0.0241762362, -0.0893819407, -0.0608004369, 0.0140496511, -0.0138991531, -0.0252866670, 0.0920019969, -0.0060268678, -0.0535629801, -0.0229143072, -0.0178011246, 0.0206762962, 0.0349470451, 0.0468855202, 0.0059279231, 0.0351408795, -0.0047506508, 0.0600483641, 0.0105166668, -0.0228123553, 0.0144975763, 0.0388949215, 0.0885171294, 0.0386866890, -0.0907871127, 0.0105320252, 0.0237491876, -0.0876666382, -0.0028533991, 0.0208587404, -0.0313234292, -0.0029265899, 0.0751284510, 0.0416199155, -0.0191074088, -0.0425370783, 0.0165236630, 0.0559631921, 0.0147858253, 0.0777810961, -0.0464575961, -0.0267508328, -0.0628584549, -0.0824246705, 0.0655325279, 0.0236094687, 0.0094315866, -0.0293572210, -0.0180171914, 0.0380741656, 0.0516634397, -0.0500204228, -0.0340497419, -0.0038422216, -0.0525826700, -0.0860142782, -0.0604273044, 0.0350061506, 0.0254443865, 0.0671551079, -0.0776455402, 0.1521007717, 0.0605222061, -0.0583276972, 0.0166001525, 0.0395476706, 0.0264424551, 0.0220004413, -0.0340197869, 0.0346049257, -0.0727898180, 0.0018541603, -0.0591559745, 0.0640095472, 0.0294738449, 0.0293193981, -0.0488379151, 0.0832117796, 0.1057166904, 0.0605450980, -0.0662315637, 0.0184476469, -0.1066439599, 0.0117278332, -0.0493135080, 0.0315189846, -0.0306282919, 0.0003215435, -0.0362063758, -0.0222048275, 0.0332909338, 0.0444742963, -0.0562388934, 0.0156846344, 0.0814360008, 0.0536740348, -0.0009699687, -0.0127252378, -0.0653744712, 0.0530394912, 0.0208687298, 0.0751562193, -0.0225229226, 0.0488144681, -0.0486239642, 0.0076974425, 0.0142189395, 0.0169272479, -0.0548561104, -0.0243720300, -0.0274371393, -0.0748902485, -0.0518896207, -0.0190550275, -0.0911319852, 0.0256814230, 0.1148717627, -0.0533485040, -0.0096718660, -0.0719197467, 0.0939684510, -0.0287313871, -0.0094295992, 0.0337158665, -0.0267318301, -0.0634131506, 0.0112360138, -0.1177885607, -0.0521018207, -0.0041801427, 0.0326950289, 0.0492277145, -0.0068366956, 0.0507988594, 0.0083914138, -0.0584488213, -0.0174633060, -0.0290023405, -0.0135795008, 0.0492901579, 0.0234278403, 0.0210754257, 0.0300279185, 0.0155791584, 0.0340475738, -0.0813925713, 0.0413658917, 0.0165507682, -0.0433336236, 0.0381072089, -0.0887690708, -0.0697847009, -0.0303666797, -0.0406917706, -0.0640980005, -0.0478654951, -0.0403561890, 0.0158330463, -0.1057816818, 0.0383037142, 0.0346780010, 0.0697486848, -0.0446118414, -0.0766993761, -0.0019452232, 0.0193529371, 0.0159233622, 0.0773559138, 0.0651586503, -0.1011309922, -0.0537409633, -0.0055939434, 0.0129282475, -0.0058994507, 0.0285603609, -0.0064864354, -0.0132997865, -0.0452175885, 0.0199492667, 0.0479423366, -0.0088846702, -0.0098441839, -0.0804575980, -0.0907040238, -0.0010810378, -0.0040830527, 0.0317064971, 0.0296993349, -0.0322552063, 0.0814161003, 0.0813447982, 0.0474541560, -0.0292160325, -0.0385671146, 0.0292978119, 0.0032759837, 0.0669567063, 0.0155138150, 0.0085695507, -0.0352072790, 0.0326812640, 0.0162919797, -0.0995433554, -0.0040424955, 0.0613382570, -0.0432726890, -0.0873362273, -0.1346716285, -0.0359984748, 0.0804856420, -0.0292757526, -0.0257583410, -0.0074546793, -0.0325530022, 0.0710063726, 0.0113054011, 0.0316117965, 0.0041527115, 0.0102489889, -0.0833980218, 0.0435025059, 0.0472397767, -0.0027298229, 0.0145554291, 0.0033047148, 0.0516584627, 0.0017561023, -0.0526788980, -0.0029902798, 0.0309423953, -0.0742905065, 0.0227469765, -0.0017247468, -0.0750020593, 0.0497344062, 0.0284815058, -0.0209167935, -0.0299631804, -0.1222167611, 0.0532184690, 0.0270334929, -0.0111365607, 0.0758444667, 0.0462256372, -0.0714037418, 0.0540407784, 0.0858785808, -0.0491162129, 0.0604990348, 0.0116282217, 0.0787282288, 0.0048114308, -0.0595623851, 0.0254680477, 0.0252023339, 0.0452857204, 0.0420103259, -0.0970558673, 0.1215490550, 0.0320287496, 0.0482087322, -0.0517939776, 0.0076508904, 0.1032693088, -0.0367632471, 0.0924729779, -0.0279210750, 0.0026384597, -0.0041363621, 0.0141041037, 0.0857360959, -0.0026201317, -0.0204343013, 0.0720748976, 0.1173629165, 0.0606562980, -0.1066967100, 0.0301136263, 0.0817969367, -0.0341214687, 0.0042853891, 0.0017073378, 0.0628671050, -0.0020478228, 0.0127001097, 0.0436209440, 0.0069935415, -0.0246038195, -0.0747840926, -0.0715198442, -0.0444091633, 0.0348761566, -0.0101048499, -0.0376679525, 0.0201740712, -0.0162968226, -0.0083939470, 0.0663398802, -0.0344640464, -0.0818932876, 0.0137300845, -0.0607435480, -0.0519284010, 0.0195004828, -0.0271365158, 0.0211612452, -0.0115250293, -0.0392494574, -0.0690896213, 0.0202264264, 0.0295580775, 0.0198827125, -0.0587379634, -0.0462274104, -0.1039739400, 0.0095025524, 0.0021555694, -0.1185217053, -0.0060289726, -0.0115741529, -0.0216223188, -0.0326520130, -0.0097617693, -0.1238302663, -0.0020048297, 0.0396636017, 0.0278397240, -0.0495199040, -0.0134034418, -0.0656332970, -0.0183903240, 0.0408878736, -0.0101140458, -0.0439729318, 0.1237206087, 0.0597932637, 0.0208397172, -0.0287307017, -0.0270786677, -0.0324121453, 0.0669341385, 0.0045217713, -0.0713013858, 0.0413802452, -0.0173748136, -0.0603798702, 0.1127802730, -0.0107226763, -0.0499958992, 0.0382715091, -0.0079460721, 0.0824980438, 0.0236493591, 0.0175183527, 0.0296245329, 0.0650581867, 0.0296786204, 0.0669046566, 0.0094750952, -0.0089851450, 0.0031069540, -0.0394758433, 0.0506553948, -0.0275927633, 0.0444286354, -0.0128916968, -0.0187329520, -0.0052837916, 0.0195755828, -0.0289946683, -0.0505309552, 0.0394516326, 0.0198192894, 0.0464331582, -0.0323026180, -0.0883756429, -0.0046268054, 0.0417962596, -0.0252118185, 0.1448594779, 0.0351919271, 0.0471287332, -0.0657381341, -0.0016358830, 0.0539737381, -0.0474916361, 0.0497995913, -0.1321032941, -0.0101758419, 0.0384881534, 0.0749322772, 0.0268901624, 0.0336448327, -0.0293249805, 0.0022034817, -0.0191510525, -0.0713112429, -0.0513510592, -0.0264495872, -0.0167598184, 0.0686909482, -0.0489602424, 0.0341217369, 0.0787836090, 0.0614333600, 0.0114520425, -0.0774220228, 0.0151761947, -0.0045688478, 0.0580434427, 0.0768634602, 0.0336436369, 0.0289179794, -0.0325275324, -0.0367617756, 0.0817950666, 0.0059245415, -0.1138201952, 0.0255498774, -0.0315318853, 0.1284739524, -0.0253516678, -0.0506316610, 0.0405777693, 0.0324874967, -0.0607338473, 0.0111604054, -0.0656014830, -0.0257065278, 0.0432285331, -0.0307489745, 0.0264468901, 0.0097766863, -0.0044619646, -0.0479034372, -0.0844190493, -0.0566124357, 0.0107261902, -0.0988023579, 0.1255074888, -0.0199960321, 0.0242716186, -0.0398147628, 0.0307603478, -0.0092649926, -0.0251674056, 0.1214682758, 0.0790476948, 0.0308776386, -0.0542661883, 0.0143551743, 0.0390221961, -0.0301255304, -0.0565181077, 0.0186795220, 0.1057998613, 0.0002654598, 0.0595331155, -0.0450868383, 0.0346956328, 0.0578877442, 0.0716027096, -0.0892258063, 0.0347304419, -0.0055804532, -0.0485202335, 0.0125448136, 0.0247326028, 0.0056748698, -0.0950631052, 0.0788413435, -0.0208703186, -0.0437028669, -0.0118667129, 0.0975558013, 0.0435133725, 0.0265852548, -0.0314617828, 0.0015103435, 0.0389805362, 0.0370131060, -0.0714239627, 0.0421158969, 0.0318881832, -0.1764172018, 0.0205607302, -0.0227338057, 0.1176060066, -0.0333058760, 0.0418567583, 0.0915686861, 0.0235980675, -0.0872495323, -0.0303287935, 0.0005459851, -0.0662711710, -0.0177170113, -0.0528207570, 0.0051909788, 0.0012420635, -0.0037787547, -0.0095856925, -0.0618050732, -0.0675661340, 0.0445591733, 0.0113773486, 0.0102730803, 0.0341151506, -0.0588172413, 0.0205805525, -0.0772178918, -0.0016125757, -0.0163363572, 0.0076391459, -0.0507161543, -0.0530262478, 0.0054502031, 0.0008946704, 0.0734646991, -0.0655359775, -0.0344539843, -0.0463904962, 0.0347543359, -0.0365139991, 0.0331104174, 0.0174971297, -0.1161060035, -0.0284616090, 0.0975327492, 0.0635088980, 0.0577476881, -0.0672795177, -0.0870551616, 0.0292171463, 0.0058169267, -0.0481385887, 0.0077694673, -0.0318240076, 0.0806415007, -0.0410445184, -0.1046761870, 0.0008986294, 0.0109036220, 0.0089604389, -0.0096619129, -0.0196476430, -0.0158702731, -0.0685337707, 0.0164661501, -0.0128736738, -0.0389081612, 0.0351517648, -0.0169651806, -0.0289022103, 0.0653050542, 0.0388800427, -0.0048186509, -0.0666266754, -0.0008436050, 0.0940019488, 0.0202662684, -0.0362092331, 0.0325397030, 0.1451292485, 0.1011595428, 0.0137937386, 0.0470578298, 0.0125394724, -0.0878587216, -0.0594026223, 0.0492963195, -0.0510140918, -0.0941881314, 0.0238129161, -0.0086662062, -0.0447966084, -0.0279359855, 0.0047242739, 0.0251176562, -0.0482630506, 0.0855904892, 0.0979090929, -0.0121042598, -0.0457994565, 0.0039168745, -0.1078728214, -0.1028105095, -0.0114902072, -0.0114951972, 0.1212568954, -0.0008174460, 0.0352097079, -0.1088113040, -0.0562482662, -0.0707684234, -0.0606800579, -0.0900290310, -0.0002077012, -0.1229427606, 0.0690437406, 0.1181072146, 0.0428520329, -0.0586801656, 0.0949437767, -0.0541366041, -0.0421515629, 0.0509423055, 0.0223347377, 0.0281321537, -0.0251643229, -0.0950276479, 0.0055656480, 0.0113396952, -0.1130785048, -0.0864423290, -0.0576431081, 0.0332754180, 0.0804774761, -0.0076458193, -0.0462995060, 0.0110547114, -0.0604052655, 0.0717506707, 0.0292328727, -0.0229125507, 0.0607329607, 0.0112807686, -0.0088809729, -0.0309811868, -0.0763259232, 0.1109124124, -0.0401473641, 0.0409826376, -0.0031055966, 0.0703423917, 0.0027457178, -0.0621578246, 0.0582648702, 0.0230087563, 0.0450415388, 0.0627300441, 0.0610931851, -0.0134565290, -0.0353939943, -0.0044052480, -0.0091783162, -0.0218390245, 0.0122745782, 0.0225904137, 0.0029551182, -0.0791939348, 0.0814811215, -0.0022144141, -0.0580685139, 0.0826010779, -0.0569701754, -0.0415933691, 0.0908056572, 0.0292600170, 0.0716232061, -0.0976537392, -0.0310463011, 0.0218121260, 0.0544590056, 0.0091572981, 0.0038121343, 0.0823321417, 0.1098268703, -0.0059116641, 0.0421170034, -0.0112668388, 0.0814604536, -0.0714765266, -0.1172143668, -0.0824142918, 0.0117211537, -0.0235453546, 0.0354206599, 0.0038220026, 0.0357287228, 0.0375754051, 0.0096637364, -0.0819293410, 0.0649488866, -0.0509220026, 0.0582123101, -0.0303577539, 0.1018411219, 0.0576574951, 0.0153039694, 0.0724865124, 0.0934655517, 0.0096750371, 0.0254362412, 0.0091971168, 0.0028371178, 0.0124105373, -0.0179533046, -0.0353518575, -0.0791096017, -0.0211436674, -0.0669914633, 0.0666758046, -0.0543671101, -0.0490624122, -0.1340900213, -0.0627205968, -0.0441342108, -0.0307986066, -0.0709926486, 0.0618569925, 0.0487438887, -0.0368344523, 0.0207518525, 0.0940121114, 0.0104371309, -0.0238240808, 0.0015004519, 0.0365117900, -0.0214515757, -0.0086419005, 0.0204446651, -0.0429748148, 0.0042402362, 0.0528381243, 0.0248300564, 0.0315027460, -0.0634306595, 0.0537026227, 0.0126136197, -0.0298876688, 0.0332160592, 0.0379340947, -0.0037983430, -0.1153439283, -0.0794637650, -0.1069738865, 0.0388841704, 0.0265112035, -0.0232622512, 0.0686808005, -0.0510979667, -0.0527651310, 0.0664232522, 0.0412759446, -0.0317063034, -0.0285054501, -0.0377070233, -0.0023178938, 0.0546620116, -0.0148144215, 0.0540326461, 0.0639370233, -0.0955839753, -0.0557535961, -0.0080349687, -0.0229239333, 0.0298759453, 0.0075740628, 0.0179823413, -0.1379969716, -0.0029003937, 0.0050947890, 0.1069594622, 0.0640844256, -0.0012027326, 0.0254158303, -0.0360151827, 0.0452272259, 0.0460296124, -0.0340197533, -0.1007373258, -0.0212095920, 0.0306874048, -0.0218695030, 0.0171268843, -0.0270763189, -0.0852065906, 0.0101613821, 0.1210494712, -0.0129845366, -0.0614221804, -0.0432609469, 0.0672658384, -0.0819438249, 0.0331588872, -0.0733674765, 0.1053567007, 0.0069964994, 0.0306111611, -0.0258840676, 0.0243220218, -0.0644454286, -0.0271957517, -0.0815887228, 0.0792300999, -0.0114161093, 0.1036805212, 0.0358128250, 0.0495037958, 0.0092381537, 0.1067895219, 0.0552362800, 0.0084825568, -0.0669903532, -0.0450336896, -0.0513426103, -0.0106974356, 0.0490940586, -0.0147200469, 0.0340783671, 0.0329721235, -0.0325854607, -0.0790066645, 0.0433726609, -0.0140454620, 0.0247768834, -0.0488949791, 0.1188419610, 0.0343146995, -0.0289421044, -0.0797821581, 0.0230516940, 0.0620410033, -0.0080717076, 0.0429838486, -0.0514892898, 0.0443373956, -0.0388128236, 0.0071204854, -0.0010061692, 0.0689680651, 0.0005147438, 0.0636668727, 0.0286802277, -0.0263704490, -0.0448561795, 0.0585331246, -0.0197522081, 0.0093391929, -0.0371020362, 0.0398522466, 0.0129560679, -0.0786522329, -0.1380282342, 0.0863785669, -0.0463176481, -0.0654074550, 0.0332980752, 0.0284848493, 0.0225148834, 0.1304883957, -0.0250914358, -0.0683106929, -0.0504355095, 0.0226668958, 0.0620674379, 0.0439057313, 0.0033999337, -0.0213131718, 0.0807240680, -0.0179299898, -0.0961885005, 0.0483188033, 0.0550056584, -0.0454416201, -0.0186080635, -0.0142910872, 0.0338353179, -0.0481162071, -0.0130040431, -0.0171321705, 0.0700832456, 0.0021831556, -0.0339756534, -0.0165331010, 0.0282249860, -0.0296977777, 0.0217446536, 0.0797243416, -0.0283418484, 0.0183965117, 0.0019335459, 0.0165582802, -0.0035544932, 0.0330017544, 0.0273551513, -0.0385229886, 0.0647414997, 0.0389262028, 0.0939934701, 0.0550739914, -0.0659717619, 0.1236256957, -0.0220476910, -0.0285546780, 0.0679896101, -0.0245983489, -0.0166246723, -0.0978718400, -0.0004652025, -0.0647593588, 0.0419308618, -0.0016183251, -0.0533121563, -0.0169437975, 0.0201236866, 0.1762914658, -0.0699766055, -0.0162864830, 0.0179187544, 0.0176948141, -0.0389250964, 0.1501077712, -0.0693138689, 0.0513557494, -0.0640997738, -0.0399043933, 0.0075158803, -0.0869249925, 0.1052764431, -0.0785272345, -0.0390794873, -0.0426721685, -0.0415093638, 0.0364825502, 0.0063441200, 0.0173003990, 0.0914847553, -0.0440073200, 0.0458118990, 0.1459828317, 0.0591057763, -0.0479581207, -0.0298245549, -0.0377727300, -0.0049778600, 0.0029362717, -0.0199537799, 0.0160173364, 0.0243968368, 0.0863755941, 0.0207100883, 0.0574246645, -0.0080238972, 0.0276447628, -0.0101246340, 0.0143760117, 0.1274621785, -0.0968520045, -0.0168421343, -0.0869299397, 0.0715108663, 0.0064769601, 0.0062816758, -0.0580046996, 0.0263124034, -0.0252562985, 0.0811637416, 0.0615189336, -0.0159437750, -0.0322509818, 0.0224163942, 0.0390974954, 0.0236009359, 0.0259197485, 0.0064638630, -0.0737530589, 0.0383124202, -0.0361616388, -0.0331381336, -0.0581338331, 0.0504174158, 0.0096628647, -0.1006756946, -0.0199963301, -0.0285540484, 0.0695219189, 0.0338780209, -0.1152733043, 0.0336354002, 0.0614790916, -0.0887944847, 0.0201191045, -0.0419628881, 0.0341322869, -0.0706995279, 0.0023500561, -0.0081467293, -0.0179520026, 0.0789823011, -0.0276815295, -0.0635518134, 0.0444552638, -0.0212211367, -0.0102272015, -0.0627331883, -0.0442452058, -0.0378086418, -0.0083322637, -0.0381350815, -0.0271215942, 0.0278608371, 0.0105775148, 0.0747330189, 0.0415256470, 0.0939990580, 0.0490826778, 0.0190896932, 0.0392541513, -0.0370423123, 0.0122693758, -0.0873950496, -0.0359698795, 0.0126167182, 0.0656666607, 0.0142817143, -0.0045763114, -0.0005040998, 0.0021040442, 0.0427121855, -0.0588306300, -0.0106134154, 0.0558108650, -0.0158905480, 0.0704386160, -0.1003210768, 0.0066938787, -0.0410286188, 0.0207016338, 0.0770058781, -0.0310985968, 0.0663557649, -0.0329644978, 0.0211216435, -0.1176768169, 0.0839486942, 0.0622231960, 0.0084773451, 0.0860991180, 0.0637941435, 0.0406688116, -0.0718324333, -0.0365702845, -0.0348866954, 0.0304103270, 0.0007328568, 0.0968663692, 0.0175689645, -0.0078874798, 0.1159688383, 0.0679758638, 0.0315288827, 0.0436657593, -0.0003738999, 0.0455244333, -0.0350182280, 0.0388102196, 0.0244675353, -0.0189435519, -0.0138322106, -0.0072385874, 0.0694776624, 0.0819370970, -0.0835582763, 0.0175294802, -0.0299054515, 0.0069466718, -0.0554879084, -0.0185914058, -0.0634485707, 0.0917715728, 0.0113442373, 0.0829469934, -0.0346904658, -0.0549524464, 0.0505673997, 0.1283690482, -0.0270657446, -0.0223150384, -0.0558171049, -0.0822420791, -0.0589719228, 0.0480955541, 0.0547777750, 0.0209078453, 0.0149918953, -0.1589022577, 0.0026932077, 0.0090502314, -0.0713257343, 0.0395101309, -0.0076137260, 0.0684481263, 0.0238616355, -0.0603660867, 0.0146163804, 0.0555262677, -0.0260914564, -0.1425054967, -0.0462370552, 0.1100740880, 0.0035444410, -0.0391128287, 0.0148136960, -0.0300485585, 0.1023055539, 0.0430310518, 0.0113191586, 0.0316466391, -0.0196569040, -0.0660209954, 0.0345352180, -0.0539946221, 0.0278197899, 0.1399582475, -0.0485235415, -0.0106444201, 0.0107395761, 0.0437115915, -0.0832918957, -0.0614099912, 0.0342081971, 0.0289278515, 0.0124562448, -0.0068220007, -0.0573131330, 0.0414568633, -0.1411124170, -0.0277392175, 0.0083568664, -0.0323206708, -0.0003559534, -0.0004758774, 0.0664815381, 0.0045412108, -0.0680987015, -0.0526695140, 0.0619736537, 0.0430269837, 0.0414626412, -0.0435422547, 0.0248284694, 0.0617854297, -0.1236937866, -0.0200783350, -0.0423703417, -0.0302641578, 0.0749256909, -0.0398598909, -0.0340676457, -0.0095718764, 0.0336964130, -0.0357213616, 0.0528849736, 0.0489923619, -0.0355460942, -0.0262236148, -0.0646331757, 0.0243122764, -0.0203502495, -0.0195297599, 0.0015393808, -0.1156100631, 0.0070971111, 0.0422884822, -0.0337817967, 0.0338466614, -0.0902157500, 0.0079894206, 0.0015540337, 0.0167863257, -0.0006229747, 0.0340084210, -0.0237960126, -0.0247297958, 0.0033229473, 0.0689521879, -0.0447259024, -0.0182850491, -0.0261489358, 0.0595678948, -0.0547405593, -0.0494643264, -0.0029450816, -0.0300714113, -0.0512004159, 0.0577587560, -0.1652630866, 0.0091480790, 0.0205894541, -0.0289531704, 0.0435861200, 0.0675097704, 0.0128166536, -0.0920229703, -0.0015511848, -0.0409769379, -0.0229618419, 0.0267128684, -0.0087497253, -0.0531343222, 0.0085341781, 0.0352165774, 0.0223078262, -0.0497219451, -0.0367009863, 0.0049018092, -0.0360622518, -0.0054039420, -0.0051895417, -0.0845372826, -0.0336867981, -0.0225624125, -0.0285869539, -0.0252766982, 0.0413618274, 0.0309441201, -0.0314562842, -0.0034913071, 0.0010967487, 0.0309673287, 0.0449277163, -0.0200038888, 0.0687080994, 0.1511126608, -0.0544761792, -0.0099265426, 0.0191185698, 0.1442793906, 0.0548819900, 0.0612056777, 0.0764639229, -0.1026758626, 0.0073765619, -0.0675154701, 0.1043915227, -0.0402178280, -0.0785657614, -0.1031457037, 0.0462768078, -0.0284518171, 0.0724890232, 0.0283417851, -0.0867470801, -0.0954145640, 0.0066874223, 0.0042872615, -0.0989669189, -0.0262475982, -0.0634368286, 0.0464556925, 0.0834333524, 0.0141009931, 0.0419404767, 0.0345013514, -0.0161920302, -0.0135467248, 0.0130422395, 0.0032083523, -0.0163048282, -0.0641680211, 0.0127457185, 0.0098301498, 0.0868170634, 0.0049866657, -0.0580938496, -0.0774278045, -0.0173523165, -0.0891223773, 0.0009430051, -0.0794367194, -0.0006687184, -0.0427235663, -0.0502767451, -0.0485061780, -0.0461185388, 0.0008402374, 0.0639267415, -0.0224678256, -0.0825695768, 0.0279350430, -0.0042989282, -0.0335142836, 0.0869932696, -0.0557720028, -0.0558602251, -0.0040455749, -0.0467525013, -0.0543336384, -0.0665565729, 0.0042839916, 0.0202872101, -0.0029621830, 0.0662675723, 0.0294853728, -0.0558555536, 0.0103591196, 0.0075311521, -0.0232228804, 0.0352866463, -0.1189476475, 0.0597745515, -0.1362127066, 0.0013303685, -0.0687703788, 0.0051956451, -0.0820115954, 0.0057887807, 0.0242487956, -0.0697281212, -0.0303164758, 0.0442615934, 0.0768926516, 0.0068874005, 0.0642068461, -0.0381374396, 0.0649488643, 0.0377025269, -0.0483727381, 0.0832767636, -0.0053778160, -0.0453063250, -0.0914032161, -0.0024836939, 0.0132647082, -0.0218901020, -0.0432486981, -0.0606931709, 0.0293483213, -0.0276059154, -0.0223245509, -0.1250358820, 0.0361267924, -0.0471570157, 0.0744921938, 0.0007160576, -0.0486812964, -0.0777510777, 0.0514902286, 0.0258068293, 0.0515693240, -0.0457952097, 0.0287700035, 0.0206378754, 0.0086888354, -0.0871699676, 0.0168918800, -0.0144870728, -0.0276720710, -0.0173660778, -0.0667588562, 0.0760415867, 0.0309785139, -0.0009335941, -0.1034457907, 0.0057466449, 0.0380818695, 0.0156832840, 0.0123671629, -0.1016222388, 0.0182352439, -0.0128292739, -0.0789932162, 0.0591845103, -0.0852275938, 0.0833878145, -0.0218564756, 0.0105088353, -0.0735707954, 0.0039800941, -0.0297647845, 0.0405053571, 0.1346735656, -0.0788268968, -0.0097318385, -0.0257885475, -0.0324774683, -0.0396162011, 0.0083106253, 0.1405378431, -0.0580523312, 0.0191880278, 0.0056963619, -0.0608826913, -0.0025583245, 0.0077888127, -0.0270416774, 0.0232111868, 0.0575345643, -0.0523932762, -0.0028727055, -0.0600514151, -0.0950376913, -0.0451005884, 0.0000922377, 0.0100457501, -0.0249620993, -0.0170061160, 0.0549046062, -0.0096452478, -0.0188130848, 0.0122234523, -0.0470380485, 0.0771346539, 0.1089898795, -0.0247254185, 0.0104120765, -0.0865499675, -0.0427034274, -0.0354651101, -0.0840812624, 0.0238548592, 0.0063223783, 0.0078355689, -0.0455834940, 0.0417919196, 0.1077914536, 0.0125729907, 0.0402777903, -0.0748546645, -0.0346853733, -0.1171951890, -0.0524161123, -0.0079913707, -0.0804515481, 0.0584936664, 0.0628746673, 0.0324844830, -0.0443001091, -0.0013993192, 0.0209547002, -0.0438624546, 0.0280868150, -0.0280232113, 0.0160776414, -0.0194337834, 0.0058920914, 0.0718232095, 0.0354197174, 0.0359426700, 0.0435500927, 0.0867833495, 0.0176278111, 0.0114993351, 0.0248463284, -0.0242478363, -0.1221024841, -0.0748426840, 0.0254772063, -0.0567298792, 0.0336937085, 0.1046773195, 0.0384916738, 0.0906436592, -0.0519955307, -0.0443564057, -0.0335532799, -0.0171613917, -0.1359104216, -0.0010107369, 0.0428597741, 0.0749306828, -0.0380060375, -0.0548446923, 0.0117898509, -0.0355319045, 0.0276556965, -0.0349078663, 0.0284164529, 0.1107361689, -0.0489615873, 0.0880266055, 0.0416070409, 0.0028383490, -0.0174135156, -0.0579402149, 0.0560369492, 0.0195104871, -0.0006268816, -0.0507697538, 0.0822544396, -0.0327653959, 0.0269842055, -0.0976884738, 0.0951245874, -0.0357588902, -0.0900213271, 0.0330853015, -0.0464248285, 0.0177231338, 0.0236177873, -0.0028460450, -0.0110889561, 0.0247607715, -0.0648679584, 0.0386892445, 0.0890490636, 0.0819382817, 0.0308146514, 0.0500326417, 0.0367955565, 0.0280554444, 0.0088625439, 0.0714056417, -0.1031605527, 0.0356612764, -0.0677604824, -0.0509391949, 0.1306191087, -0.1212409958, 0.0495254844, 0.0889899135, 0.0246340893, 0.0401484855, -0.0700578839, -0.0379027836, -0.0508493893, 0.0037310719, -0.0325315967, 0.0455227047, 0.0035030697, 0.0546996444, 0.0233660936, -0.0164596029, 0.0302302204, 0.0218109302, 0.0422227196, -0.0250046216, -0.0727373213, -0.0441807657, -0.0034032068, -0.0527950972, -0.0989022180, 0.0243594982, -0.0367308594, -0.0121227903, -0.0045821313, 0.0440030396, 0.0003876872, 0.0022111535, 0.0503068864, 0.1380350441, -0.0449549444, 0.0214214139, -0.0392032564, 0.0522347540, 0.0844074041, 0.0614983104, 0.0058283433, 0.0719608143, -0.0039308062, -0.0241141710, -0.0019288547, -0.0437303856, -0.0343832634, -0.0548070595, 0.0099989921, -0.0082300883, 0.0352134183, -0.1150343344, -0.0491675995, -0.0130045190, 0.0437148362, -0.0267499816, -0.0655999631, -0.0193514582, -0.0028461777, 0.0626105517, 0.0503094904, -0.0601310618, -0.0097217895, -0.0060296878, -0.0466050133, -0.0817289874, 0.0949812755, 0.0430146568, -0.0108754961, -0.1303810030, 0.0649702698, -0.0730740055, -0.0030243723, 0.0498029962, -0.0018626014, 0.0773780495, -0.0201870799, 0.0168145709, 0.0851874277, 0.0727492049, 0.0189470947, -0.0400113761, 0.0012708767, 0.0405804291, 0.0502298474, 0.0056892242, -0.0804409832, -0.0457381830, -0.0065155374, 0.0689642876, -0.0027787711, 0.0145424828, -0.0201476701, 0.0309994351, -0.1218999028, -0.0414862074, 0.0837521479, 0.0428505614, -0.0298800655, -0.0933973789, -0.0667431951, -0.0178241711, -0.0196192283, -0.0722827092, -0.0076005487, -0.0423566215, -0.0129340151, -0.0591080971, -0.0226037018, 0.0281953700, -0.0379281268, 0.0323118530, -0.0147708077, -0.0989216045, 0.0927270353, -0.0966130123, 0.0247240700, 0.0320790634, -0.0118967416, 0.0193063915, -0.0445993543, 0.0551929697, 0.0660586953, 0.1113936678, 0.0313050747, -0.0342884324, 0.0430623256, -0.0756852552, -0.0064861411, -0.0379968062, 0.0849359781, -0.0019615276, -0.0403356403, 0.0036653248, 0.1132979989, 0.0632593483, -0.0927117020, 0.0264899433, 0.0226779580, 0.0395388529, 0.0203487817, 0.0234557465, -0.0632194057, 0.0391529128, -0.0360022485, 0.0111725591, 0.0787859783, -0.0302556641, 0.0013942691, 0.0945379287, -0.0445778742, -0.0198201351, -0.0073122606, -0.0075634308, -0.0747965425, 0.0724921748, 0.0003661760, 0.0391019434, -0.0458615571, 0.0495647192, -0.0201223250, -0.0057892161, -0.0370665044, 0.0455336794, 0.0169099215, -0.0716234818, 0.0640026256, 0.0035899533, -0.1274433881, 0.1167679504, -0.0675615296, 0.0125417691, 0.0002318986, 0.0506496504, -0.0446534865, -0.0338033587, -0.0744182765, -0.0494564660, 0.0204535834, -0.0174986571, 0.0013517076, -0.0189542864, 0.0059908256, -0.1304482520, 0.0871405005, 0.0416916795, -0.0434506387, 0.0011145677, 0.0119418446, -0.0512276068, -0.0452753901, 0.1235909909, 0.0106143281, 0.0718106925, -0.0987917930, 0.0721634850, 0.0563837290, 0.0402390994, 0.0103012361, 0.0260099322, 0.0582722947, -0.0445746742, -0.0755433738, 0.0353918821, 0.0407615043, -0.0624527745, 0.0301074740, 0.0681820810, 0.0509295389, -0.0857736692, -0.0063901502, -0.1169581562, -0.0530545972, -0.0106745176, -0.0065948218, -0.0865552127, 0.0213083886, -0.0141893309, 0.0125170164, -0.0169379152, 0.0727263466, -0.0193249751, 0.0059505859, -0.1200612485, -0.0141532291, -0.0176975876, 0.1226922944, 0.0736806691, 0.0349803343, 0.0498198606, 0.0121110305, -0.0537497848, -0.0445683524, -0.0033611641, 0.0181693882, -0.0608411543, -0.0646758750, 0.0421525277, 0.0440771915, 0.0540102050, 0.0184247550, 0.0167872906, 0.0084162857, 0.0712104514, -0.0608358681, -0.0859139040, 0.0237994157, 0.0327973254, -0.0339680612, 0.0703064203, -0.0854949802, 0.0041227937, -0.0010005478, 0.0099853268, -0.0079884250, -0.0621703938, -0.0098248851, 0.0525767244, -0.0708774030, -0.0077612754, 0.0152550824, -0.0062095765, 0.0352332108, -0.0040738992, 0.0171267558, -0.0552474409, -0.1102395207, -0.0734415352, 0.0591062009, -0.0344619490, 0.0016024183, 0.0448172428, 0.0413062461, -0.0381532088, -0.0443060137, 0.0250492990, -0.0350547954, -0.0672882646, -0.0297875889, -0.0570282638, -0.0488975309, 0.0683330670, -0.1025099158, -0.0069793779, -0.0775631666, 0.0175145213, -0.0609467402, -0.0724532828, -0.0228975210, -0.0780372471, -0.0979598910, -0.1063158214, 0.0490830988, 0.0329962410, -0.0040057031, 0.0267993752, -0.0911122561, 0.0563183390, -0.0236367844, 0.0157009307, 0.0342501551, -0.0182470754, -0.0558315478, 0.0281700790, -0.0322367363, 0.0187174864, 0.0369311646, -0.0552769788, 0.0457662791, -0.0054766880, -0.0578509569, 0.0166484434, 0.0096363341, -0.0331124812, 0.0421117097, 0.0540089160, -0.0950094163, -0.0736116990, 0.0211326107, 0.0079688895, -0.0539467968, -0.0660079569, -0.0505891517, -0.0000675675, -0.0047420394, -0.0603619367, -0.0507328138, -0.0238665082, 0.0556473248, 0.0154902441, 0.0073724450, -0.0419516712, 0.0615664721, -0.1040221378, 0.0282359123, -0.0212678071, 0.0153370267, -0.1568555385, -0.0491369292, -0.0592383817, 0.0236506630, -0.0567311086, 0.0343271382, -0.0085082129, 0.1286109090, -0.0524547100, -0.0167821385, -0.1267842054, -0.0435990542, -0.0226914547, -0.0790728182, -0.0665775985, 0.0003031660, -0.1459130645, 0.0963099226, 0.1068171859, 0.0675721020, 0.0127437618, 0.0610379465, -0.0293060653, 0.0453009009, 0.0045982669, -0.0146547705, -0.0177709572, 0.0201075487, -0.0560638160, -0.0694359764, 0.0020271726, 0.0508098416, -0.0644864962, 0.0435214527, 0.0037680089, -0.0426525250, -0.0063483552, 0.0140560158, 0.0184947830, -0.0229738615, -0.0133553343, -0.0049667880, -0.0135681098, -0.0192171503, -0.0473844782, 0.0234492719, 0.0685887039, 0.0148608182, 0.0054153735, -0.0633886456, 0.0337436274, 0.0553571954, -0.0940964594, -0.0077706045, 0.0540341698, 0.1089826152, 0.0197692756, -0.1036476791, -0.0608417988, 0.0859568268, 0.0084378570, -0.0397711061, -0.1192761511, 0.0002963729, 0.0119317621, 0.0019974895, 0.0312614664, -0.0124091785, -0.0312000774, 0.0690032616, 0.0240983125, -0.0244226009, -0.0543500707, -0.0248465762, -0.0075012818, -0.0082715061, -0.0590373576, -0.0041676760, -0.0454564020, -0.0353483185, -0.0382046178, 0.0409337990, -0.0092597529, -0.0664210692, -0.0008500782, -0.1120150238, -0.1365187019, 0.0037131589, 0.0086519439, -0.0475714132, -0.0460442901, -0.0496235713, 0.0259701088, -0.0150264762, 0.0426075794, -0.0450347438, 0.0207602940, -0.0678970367, -0.0638306513, -0.0135699846, 0.0279715806, 0.0639222115, 0.0302938111, -0.0546346456, 0.0810673982, 0.0122082550, -0.0078387009, 0.0084683383, -0.0636391640, -0.0663012117, -0.0178023204, 0.1003900096, 0.0968755186, 0.0083619691, 0.0900285318, 0.1483773589, 0.0818873420, 0.0373224653, -0.1178245321, 0.0008179469, -0.0420369022, 0.0046776170, 0.0840771645, -0.0307627749, -0.0566637628, -0.0389905125, 0.0217655264, 0.0381976403, -0.0260836408, 0.0721744969, -0.0122678299, -0.0042792927, -0.0286649298, 0.0208530407, 0.0343330316, 0.0522488207, -0.0953468680, 0.0156809688, 0.0196342133, 0.0985698849, -0.0615497977, -0.1085601375, 0.0705916062, -0.0509049669, 0.0102416603, 0.0936469659, 0.0881151333, -0.0642635301, 0.0133195287, -0.0466041490, 0.0103603378, -0.0411870144, -0.1060970351, -0.0734899566, 0.0741566867, 0.0190077908, 0.0660984665, -0.0135535449, 0.0218633730, -0.0468446687, 0.0003361646, -0.0394408703, 0.0420551710, -0.0368060470, -0.0324141197, 0.0796603784, -0.0597035810, 0.0238440745, 0.1124553606, -0.0648836792, -0.0200020373, -0.0745538622, 0.0597267486, 0.0541160740, -0.0240259599, -0.0610057898, 0.0056079710, 0.0546560585, -0.0918531120, -0.0486082584, -0.0181754902, -0.0406289622, -0.0689072013, 0.0498177484, -0.0303053260, -0.0347430781, 0.0347860195, 0.0509797484, 0.0103356615, -0.0562585853, 0.0351056270, -0.0342222676, 0.0542290024, 0.0371375941, 0.0146035459, -0.0106269754, 0.0258702058, 0.0414246731, -0.0116444575, -0.0300257429, 0.0163410455, 0.0499749817, -0.0250931941, -0.0126520116, 0.0300604962, 0.0331542492, 0.0186933056, -0.0331174321, -0.0463435166, -0.0279479586, -0.0211599730, -0.0565909557, -0.0983176082, -0.0401412547, 0.0542696193, -0.0114280339, 0.0265917890, 0.1055173874, -0.0337654799, 0.0381253362, -0.0348447450, -0.0159988850, -0.0301801171, -0.0429206826, -0.0577652305, -0.0345166065, -0.0187702104, 0.0089526186, -0.0349871144, 0.0659771562, 0.0826275721, 0.0111618545, 0.0427500829, -0.0773109198, 0.0107670669, 0.0696514994, -0.0396055393, -0.0259827431, -0.0315011740, -0.0148560489, -0.0359058306, -0.0490600541, -0.0081816763, -0.0424717143, 0.0092018340, 0.0171178691, -0.0095595848, -0.0584077388, -0.0001444502, -0.0400850996, 0.0203077309, 0.0523961373, 0.0418041162, 0.0334360674, 0.0296897665, -0.0522694737, -0.0023517788, -0.0429358371, 0.0174919982, 0.0781057179, 0.0197101533, -0.0422357023, -0.0602453165, 0.0147122247, 0.0203082412, 0.0233764835, 0.0776858479, -0.1198411062, -0.0598169863, 0.1098935455, -0.0158119034, 0.0008659009, 0.0876600295, -0.0361496434, -0.0159557015, -0.0507232249, 0.0148447677, 0.0518934429, 0.1068324372, 0.0570145287, -0.0462120548, 0.0283802748, 0.0339195505, 0.0015507983, 0.0723979995, -0.0251517911, 0.0191233475, 0.0389148779, -0.0383660570, 0.0174567904, 0.0751806274, -0.0531918854, 0.0485232025, 0.0002882755, -0.0118427053, -0.0256045684, -0.0454481691, 0.0786830932, 0.0117046461, 0.0494662151, 0.0448380038, -0.0096074007, 0.0261996016, 0.0181519464, -0.0241323542, -0.0208631810, 0.0168738812, 0.0971786305, -0.0021130233, 0.0570925698, 0.0139108757, 0.0049395058, -0.0330222845, 0.0456605330, -0.0011324650, -0.0715235770, -0.0206647217, 0.0026158560, -0.0405756161, 0.0460631140, 0.0285124891, -0.0963897407, -0.0031521413, 0.0501632243, 0.0014890400, -0.1024001464, -0.0186225940, 0.0048048049, -0.0233900193, -0.0074992962, 0.0550771505, 0.0627196208, 0.1014806926, -0.0145899747, 0.0845170915, 0.0107972417, 0.0774234235, -0.0623691790, 0.1013872623, -0.0261431448, -0.1021018177, -0.0343399085, 0.0180711336, -0.0167276021, -0.0058462182, 0.0521791726, -0.0241067801, 0.0414427593, -0.0432920679, 0.0009810049, -0.0115072699, 0.0278072525, 0.0741354302, 0.0283577684, 0.0729159415, 0.0369459689, -0.0174061023, 0.0652405918, 0.0071097445, -0.0520319529, 0.0379879102, 0.0513230637, -0.1174944416, 0.0617051348, -0.0570715033, -0.0028998512, 0.0295598246, -0.0754120499, -0.0216448139, 0.0020772461, 0.0348695144, -0.0045449203, 0.0390809551, -0.0087898374, -0.0848157182, 0.1219959483, -0.0572933666, -0.1008484364, 0.0205453932, -0.0309112221, -0.0161254555, 0.0654411614, 0.0171635598, -0.0270749237, -0.0386265293, 0.0816271901, 0.0242706258, 0.0576812252, -0.0308528412, -0.0265540015, -0.0192427896, -0.0683463886, -0.0214987583, 0.0140998801, -0.0126451738, -0.0256437231, 0.0364155695, -0.0514641553, 0.0762879476, 0.0471223444, 0.0072654588, -0.0044134310, -0.0297117904, -0.0006457432, -0.0372111201, -0.0823505223, 0.0531068817, -0.0554336384, 0.0021704095, -0.0431366004, 0.0489914566, 0.0215084869, -0.0434245244, 0.0226739664, -0.0377506651, -0.0059135291, -0.0625485182, -0.0798662752, -0.0367147326, 0.0183117073, -0.0501638167, 0.0062865852, 0.0187715180, -0.0153700355, 0.0850256532, -0.0235037804, 0.0511026308, 0.0738173574, -0.0674131736, -0.0256731119, 0.0254412014, -0.0041536950, -0.0200677495, 0.0040349625, -0.0386544764, -0.0584975779, -0.0187115688, 0.0178433545, 0.0521729849, 0.0379797593, -0.0373459198, -0.0384707898, -0.0556273237, 0.0253495127, -0.0150345387, 0.0351345316, -0.0112662623, 0.0278029256, 0.0691930056, -0.0134888785, -0.0314724818, 0.0074589141, -0.0484197959, -0.0348052830, 0.0522713698, 0.0465302095, 0.0498009510, -0.0161172897, -0.0073130550, 0.0160496049, 0.0233494770, -0.0078934822, 0.0929994136, 0.1086245179, -0.0359841138, 0.0168067701, 0.0069401488, -0.0114173153, 0.0711599290, -0.0415478423, 0.0791389793, -0.0943198726, -0.0677534044, -0.0171953607, -0.0664418414, 0.0038161168, -0.0305914208, 0.0090235509, 0.0860353634, 0.0667886212, -0.0047102012, 0.0789013132, -0.0371637493, -0.0259154961, 0.0110058794, 0.0422261432, -0.0072817653, 0.0376870520, 0.0164532829, -0.0186380781, -0.0032080023, -0.0530930758, -0.1157224178, 0.0506462790, 0.0051730233, -0.0080138147, -0.0262331124, 0.0552317053, 0.0397318937, 0.0519398153, -0.0082938606, 0.0319119170, 0.1074284688, 0.0667831600, -0.0471819937, 0.0706335902, 0.0052509457, -0.0592912063, -0.0050918227, 0.0444378778, 0.0218750760, -0.0627800748, -0.0118170595, 0.0209127460, -0.0199289098, -0.0631791875, -0.0055316836, -0.1125145629, 0.0028218934, -0.0648328140, -0.0168647394, 0.0135423653, 0.0228512026, 0.0344279557, -0.0032867305, 0.0138075184, 0.0025262907, 0.0370158553, -0.0345456898, 0.0038253732, -0.0545565300, -0.0342486352, 0.0210874975, -0.0140067954, 0.0580868274, 0.0428848825, -0.0428964682, 0.1172820628, 0.0458116457, -0.0034534503, 0.0369662791, 0.0477468520, 0.0592157878, 0.0379402339, -0.0882158056, 0.0028947766, -0.0559218340, 0.0090098642, 0.0681619197, -0.0566470139, -0.0054547885, -0.0023148758, -0.0542914495, -0.0346170068, -0.0448743328, -0.0223033205, -0.0448310301, 0.0626581311, 0.0248968601, -0.0718511045, 0.0661457330, 0.0024975352, 0.0178407636, 0.0631863698, -0.0157149993, -0.0215920638, 0.0485813692, 0.0336972550, -0.0200432222, -0.0272769425, 0.0961766765, -0.0211722869, -0.0039892928, 0.0884378403, -0.0222776234, 0.0691205710, -0.0658028126, -0.0736951679, -0.0095796175, 0.0450528935, -0.0528156757, -0.0751919523, -0.0129066957, -0.0307901930, -0.0430121571, -0.1483909935, 0.0496658795, 0.0344812237, -0.0031988407, -0.0600311309, 0.0395220891, -0.0102093052, 0.0034616124, -0.0754972026, 0.0244742651, 0.1020874232, 0.1013223976, -0.0121281594, -0.0270149466, 0.0188614205, 0.0877480283, 0.0428124629, 0.0277431309, 0.0194332227, -0.0881691799, -0.0824537203, -0.0168256387, -0.0327151418, -0.1064486653, -0.0453988388, 0.0480925590, -0.0796592981, -0.0666624978, 0.0051001655, 0.1031015590, 0.0813234150, -0.0009305310, 0.0372098126, -0.0941712260, 0.0139373969, 0.0583786927, -0.0132970810, -0.0924953222, -0.0389683656, -0.0763534233, 0.0160789657, -0.0476765260, -0.0005364865, -0.0170286410, 0.0510528982, 0.0378083438, -0.0882364437, -0.0360518396, -0.0058886409, -0.0594636574, -0.0422596037, -0.0027910662, 0.0795237124, 0.0015750763, 0.0351152383, -0.0001824629, -0.0191913918, 0.0317017734, -0.0208485052, 0.0528799184, -0.0358416960, -0.0132826241, -0.1207640469, -0.0430895947, 0.0156362131, -0.0059457431, 0.0290787555, -0.0783861428, -0.1154346615, -0.0323395021, -0.0261249989, 0.0783136785, -0.0726300031, -0.0333058275, 0.0236563236, 0.0538863167, -0.0207106024, 0.0257234089, 0.0173459202, 0.0233019292, -0.0837209746, -0.0523525961, 0.0198611896, -0.0518640876, -0.0481092222, 0.0358851589, -0.0175398160, 0.0306851622, 0.0278520919, 0.0058222711, 0.0798075572, -0.0202963911, 0.0376014225, -0.0164496638, 0.0277094301, -0.0307876989, -0.0740951896, 0.0094598699, -0.0355591774, 0.0615962669, 0.0136034768, -0.0395512059, -0.0724587590, 0.0203022584, 0.0555873513, 0.0415779576, -0.0767558962, 0.0408407487, 0.0344083048, 0.0622541271, 0.0112147965, -0.0811913759, 0.0184408687, 0.0999096408, 0.0176096298, -0.0100227743, -0.0237920620, 0.0324512459, 0.0681617185, -0.0347171351, -0.0298810676, -0.0050567347, -0.0875911862, 0.1109764948, -0.0657061338, -0.0455641896, 0.0112406798, -0.0320642106, -0.0678805858, -0.0037870407, 0.0402556993, 0.0663862675, 0.0760855675, 0.0616767555, 0.0682319552, 0.0316663310, -0.0008054823, 0.0655121654, -0.1107041910, -0.0513657741, -0.0578756370, 0.0387487300, 0.0070266929, 0.0015333677, -0.0168126225, 0.0555080548, 0.0769131333, -0.0667892694, 0.1185069978, -0.0626190752, -0.0279908143, 0.1096338928, 0.0103412569, 0.0523034371, 0.0127351796, -0.0563708432, -0.0426682681, 0.0205981284, 0.1078580618, -0.0825484917, 0.0144261830, 0.0394279324, 0.0826885998, -0.0075050090, 0.0127032818, -0.0170784295, -0.0392567366, 0.0133707542, 0.0492121205, 0.0108445203, 0.0813707709, 0.0395494998, 0.0165858958, -0.0285707954, -0.0258123185, -0.1279742569, -0.0812816545, 0.0633530542, -0.0538785681, 0.1153777093, -0.0855823904, -0.0011488181, -0.0111406241, -0.0285817049, 0.0770679414, -0.0215734839, 0.1096036956, -0.0137969628, -0.0177608691, 0.0313710645, 0.0154886469, -0.0776770264, -0.0111427298, -0.0415444560, 0.0967539102, 0.0592580922, -0.0218252130, 0.0727368891, -0.1122891381, -0.0007267185, 0.0266214609, 0.0035514366, 0.0286450703, -0.0128560523, 0.0444420986, 0.0371746570, -0.0232519843, 0.0229399800, 0.0424419306, 0.0725947767, 0.0065599829, -0.0206543598, 0.0225137081, 0.0255553536, 0.0543331504, 0.0530326739, -0.0326811969, -0.0549157932, 0.0130842719, -0.1215971783, -0.0393926129, -0.0653944761, -0.0654912442, 0.0184647217, -0.0809619725, 0.0635616630, -0.0556621850, 0.0442636907, -0.0056271544, -0.0774714425, 0.0500692651, -0.0206129737, -0.0699898005, -0.0079078730, -0.0501487963, 0.0172349960, 0.1371992975, 0.0509216040, 0.0187975299, 0.0281916857, 0.0242497511, -0.0424729735, 0.0178143289, -0.0646165907, 0.0723949075, 0.0091141574, -0.0186567381, -0.0408682935, -0.0137612503, 0.0829147547, -0.1133244038, 0.0049510025, -0.0368953161, 0.0708412156, -0.0029002428, -0.0314930007, 0.1091829762, 0.0135682225, -0.0194458999, -0.0927919298, 0.1008929014, -0.0021340633, -0.0062505621, -0.0242405906, 0.0605207421, -0.0158408303, -0.0122718550, 0.0035812468, -0.0243099779, -0.0049406411, 0.0760897622, -0.0836201310, 0.0651890635, -0.0428905450, -0.0341328457, -0.0647328123, 0.0236699991, 0.0459041148, 0.0718798041, -0.0163167473, -0.0616310090, -0.0381247178, 0.0021199984, -0.0479653589, -0.0297624357, 0.0345563293, -0.0418487601, -0.0172992516, -0.0143467002, 0.0366985090, 0.0985558555, 0.0605764166, 0.0511682481, 0.0315350257, 0.0231867246, -0.1008092761, -0.0559848286, -0.0491924882, -0.0048830640, -0.0306566916, -0.0122690219, -0.0096732648, 0.0406592228, 0.0095888935, -0.0904589891, -0.0460734256, -0.0416846834, -0.0259703547, 0.0667697489, 0.0365747064, 0.0690781176, -0.0580341667, 0.0123540089, -0.0101134526, -0.0826710537, 0.1065677628, -0.0497674234, 0.0030729307, -0.0055347309, 0.0613417812, -0.0534933656, 0.0777454674, 0.0309420098, 0.0038923831, -0.0251992121, -0.0746317506, 0.0472368896, 0.0237733666, -0.1076794863, 0.0077160154, -0.0007018114, 0.0516812950, 0.0693564862, -0.0161009338, 0.0456474349, -0.0076714177, 0.0335435644, 0.0142029477, -0.0065672458, 0.0145387389, -0.0120588709, -0.0431341007, -0.1455784738, 0.0071771629, 0.0125660282, -0.0051078429, 0.0256029423, -0.0805433840, 0.0831643343, -0.0418395698, 0.0703834370, 0.0332237929, 0.0000900710, 0.0422226675, -0.0986710638, -0.0025828071, 0.0419056751, -0.0416842513, 0.0343561247, -0.0012092181, -0.0289128479, -0.0060168356, 0.0773444772, 0.1122314259, 0.0631513596, -0.0175534189, -0.0026738597, -0.0307668522, 0.1205783263, 0.0336544588, -0.0013986602, -0.0152323786, 0.0735348836, -0.0080089802, -0.0671280771, -0.0100099780, 0.0530930907, -0.0201319158, 0.0426464826, -0.0320731029, -0.0306905061, 0.0230468810, -0.0128264483, -0.0127063543, 0.0078442376, -0.0281775147, 0.0545584671, 0.0768143982, 0.0984091908, -0.0634765252, -0.0161316153, -0.0237780493, 0.0758623257, -0.0178159960, 0.0055189244, -0.0441450179, 0.0677046403, 0.0283218361, 0.0548719540, 0.0335664004, -0.0886730775, -0.0036746515, 0.0171631575, 0.0247650538, -0.0492050387, -0.0358969308, -0.0217133779, -0.0609544218, -0.0051324638, -0.0458200127, -0.0294088814, -0.0177472066, 0.1203171462, 0.0445593782, -0.0142085310, 0.0119315535, 0.0707431734, 0.0120399687, 0.1020704359, 0.1930458099, -0.0333043709, 0.0276303217, -0.0352073088, 0.0849606395, -0.0113560995, -0.0556307212, 0.0334345102, 0.0513353683, 0.0191739406, 0.0079204207, 0.0220147427, -0.1122075766, 0.0057628648, 0.0772055686, -0.0815524012, 0.0151539398, 0.0008174079, -0.0077221263, 0.0418004096, 0.0038481075, -0.0081668915, -0.1102172509, -0.0645453110, -0.0231441427, -0.0248971842, -0.0180683360, -0.0794837177, 0.0226689018, -0.0437221043, 0.0288950130, -0.0899024308, -0.0306857154, -0.0145254321, -0.0167587381, -0.0101783117, 0.0392072871, -0.0088777710, 0.0001538827, -0.0692761689, 0.0207966138, 0.0175336562, -0.0034454446, 0.0498516411, 0.0081955642, -0.0250795763, -0.0564258024, -0.1039077640, 0.0536292121, 0.0664674118, -0.0895020664, -0.0722550601, -0.0425918996, 0.0524840355, 0.0384841077, 0.0135661885, -0.0376928039, 0.0111690117, -0.0032318337, -0.0847417265, 0.0370379016, 0.0554085001, 0.0471737087, 0.0590844825, 0.0740828291, -0.0404190384, -0.0057643112, -0.0627116412, -0.0305182487, -0.0653394461, 0.0035250708, 0.0000998508, 0.0042491886, -0.0371242352, 0.0635139272, -0.0233272240, 0.0202004034, -0.0703725219, 0.0127932951, 0.0988718271, -0.1118576974, 0.0340124741, -0.0175650902, -0.0350129791, 0.0197863672, -0.0102660470, -0.0033523582, 0.0545819998, -0.0432242341, -0.0125874570, 0.0876608565, 0.0300404057, 0.0061767995, 0.0176302344, 0.0005142675, -0.0067188507, 0.0284038931, 0.0596076734, 0.0602711253, 0.0526453555, -0.0599417128, -0.0329845250, -0.0168157741, 0.0196461733, 0.0168858506, -0.0216571521, 0.0643588528, 0.0746655613, 0.0316440985, 0.0763191208, -0.0618281513, -0.0959412754, 0.0329868495, 0.0215949267, -0.0448088609, 0.0455647297, 0.1438142657, -0.0369218253, 0.0107909217, 0.0433803461, -0.0180760249, -0.0753191113, -0.0504595377, 0.0405131727, -0.0416682512, 0.1024554595, -0.0629868135, -0.0046392577, 0.0245778318, -0.0643476397, -0.0171229616, -0.0425839946, -0.0544146597, -0.0115024094, 0.0238655172, -0.0455179550, -0.0817541927, 0.0043979995, 0.0250628628, 0.0982952714, 0.0413857251, -0.0085558565, -0.0514271967, 0.0453291535, 0.0305664521, -0.0406027883, 0.0654992312, 0.0047133891, 0.0108826738, -0.0564551316, -0.0514803231, -0.0014937818, 0.0693842918, 0.0343678966, -0.0768967867, -0.0742232800, -0.0427913591, 0.0666670203, 0.0945312977, -0.0381426513, 0.0868338421, -0.0468098558, 0.0197411217, -0.0950116739, 0.0268826839, 0.0826881677, -0.0262449775, 0.0033294728, 0.0860283524, -0.0103495568, -0.0402358919, 0.0240116548, 0.0327647403, 0.0423144363, 0.0875143260, 0.0508340448, -0.0128712971, 0.0192177258, 0.0041949973, 0.0249400530, -0.0842787623, 0.0274950974, -0.0508869067, 0.0100215841, -0.1233714446, 0.0332427882, 0.0603645965, -0.0690140203, 0.0477131642, -0.0694399178, -0.0411599651, 0.0291805193, 0.0214550178, 0.0489956141, -0.0897889361, -0.0059466860, 0.0203620009, 0.0542940907, -0.0492121167, -0.0541452132, -0.0593750514, -0.0741933510, -0.0187859051, 0.0289034490, 0.0094014723, -0.0608130619, -0.0332838111, 0.0457520671, -0.0097597735, -0.0181901399, 0.1296112090, -0.0191495419, -0.0905355066, 0.0547642894, 0.0276892819, -0.0370516889, -0.0794705153, 0.0337423831, -0.0873708948, 0.0551287606, -0.1520057172, -0.0683380365, 0.0687583387, -0.0100866472, 0.0309652574, 0.0320693702, 0.0079920692, -0.0035930397, -0.0628767461, -0.0020285593, -0.0310559031, -0.0829877630, 0.0042517111, 0.1015863866, -0.0527732074, 0.0113194007, 0.0877902284, 0.0033310456, 0.0149199944, 0.0401199982, -0.0203144588, 0.0084832767, 0.0298520103, -0.0237490665, -0.0348448455, -0.0314378254, -0.0150998812, -0.0649546087, -0.0372418836, -0.0085129188, 0.0040342454, -0.0383733325, 0.0143848537, 0.0285193939, -0.0983704552, 0.1043119803, -0.0154221561, 0.0032504313, -0.0601369552, -0.0012816768, 0.0909511074, 0.0434745774, 0.0441802070, 0.0289033540, 0.0411376879, 0.0755574778, 0.0401882567, 0.0131060500, -0.0397899039, 0.0028377753, 0.0287366249, -0.0101904906, -0.0264100321, 0.0643566847, 0.0242049322, 0.0529470481, -0.0483892746, 0.0013136957, -0.0273583215, -0.0270259622, -0.1043763757, 0.0795221478, -0.0100256726, 0.0268288013, -0.0780603513, 0.0107298335, 0.0316015780, 0.0070006121, 0.0156683158, 0.0869707540, -0.0183419958, -0.0227331501, -0.0152580291, 0.0814250484, -0.0499641746, -0.0298600160, -0.1122255996, -0.1090276912, 0.0761855319, 0.0487841889, -0.0524184108, -0.0765706226, -0.1007485390, -0.0182525627, -0.0125930523, 0.0221806765, -0.0255415291, -0.0332082510, -0.0046968013, 0.1240814403, -0.0456618629, 0.0057821264, -0.0131518459, 0.0348857045, -0.0025183950, -0.0476343930, 0.0384178236, -0.0722204596, -0.0084895166, -0.0130163431, -0.0498180613, -0.0610018894, 0.0021209647, 0.0135113923, 0.0224259514, -0.0351050496, 0.1542595476, -0.0158937164, -0.0585563928, -0.1982614994, -0.0636430979, -0.0053832885, 0.0083590560, 0.0758936256, 0.0643312186, 0.0228689611, -0.0263524652, -0.0030675745, 0.0775763243, -0.0682897866, -0.0041736662, -0.0028898446, -0.0183916241, -0.0237199999, -0.0525302552, 0.0518529788, 0.0792397112, -0.0493551455, 0.0539378114, 0.0357564762, -0.0338598974, 0.0070683546, 0.0163187347, 0.0151776522, -0.0351349898, -0.0114795938, -0.0295431782, -0.0667245090, -0.0385449491, 0.0415109619, 0.0049792565, 0.0175804347, -0.0038827285, -0.0251969118, 0.0304014962, -0.0474743918, -0.0630181208, 0.0114775887, -0.0387631282, -0.0650678501, 0.0341120064, -0.0555489548, 0.0521460697, -0.0490391143, -0.0635232329, 0.0176144764, -0.0014158497, 0.0544344820, -0.0595645830, -0.0492565930, -0.0272973757, -0.0360258780, 0.0435428843, -0.0017719902, 0.0228969399, -0.1075361669, 0.0176199581, 0.1150704548, 0.0533750951, -0.0405651033, 0.0656011626, -0.0071339030, 0.0043377187, -0.0322420485, 0.0472020060, -0.0386078060, 0.0275458600, 0.0443116724, -0.0707223117, -0.0332752429, -0.0155774392, 0.0229604207, -0.0732238218, 0.0101132207, 0.0326544121, 0.0479992591, -0.1133611649, 0.0265935846, -0.0111394115, -0.0019774325, 0.0458072424, 0.0791874900, 0.0064801332, 0.0573090464, -0.0325130969, -0.0467302836, 0.1092099324, 0.0301814303, -0.0758275688, 0.1186989099, -0.1187941730, -0.0232010391, -0.0389680527, 0.0780450702, 0.0115832686, 0.0204038695, -0.0650986061, -0.0532555059, 0.0801817328, 0.0096470648, 0.0571457669, -0.0581358932, 0.0593475699, -0.0367030613, 0.1482087225, -0.0490621328, 0.0443997979, -0.0618311167, 0.0219748579, 0.0469150469, 0.0407105647, 0.0056601455, -0.0019063602, -0.0209865011, 0.0905452222, -0.0400761105, -0.0445537567, 0.0145780612, -0.0199052282, 0.0256452635, -0.0377712287, 0.0773632079, -0.0140179489, 0.1675602496, -0.0226350576, 0.0615512319, 0.0363162681, -0.0827885419, -0.0113033885, -0.0228399616, 0.0187772047, -0.0381234698, -0.0586055219, 0.0458117351, -0.0789204314, 0.0264483653, -0.0648050383, 0.0712159052, -0.0539263971, 0.0293698534, -0.0113206506, -0.0714088678, -0.0619208738, 0.0169010684, 0.0307648852, -0.0358795673, 0.0175037831, -0.0119690932, -0.0603036359, 0.0754682720, 0.0235872269, 0.0057743490, 0.0220465325, 0.0025595166, -0.0982854813, -0.0220180862, 0.0078719528, 0.0056623071, 0.0027145119, -0.0394605026, 0.0614120625, 0.0652249083, -0.1276416332, 0.0256685931, -0.0617762022, 0.0424876697, 0.0705836713, 0.0565551668, -0.0206455439, 0.0394132882, 0.0254014730, 0.0731837302, -0.0081397286, -0.0115386453, -0.1159380898, 0.0085049914, -0.0059696878, 0.0650133193, 0.0428233966, -0.0249580853, -0.0107138343, -0.0098587256, 0.0253017340, -0.0124988453, -0.0342431217, 0.0280348919, 0.0318092257, 0.0126536405, -0.0257960856, -0.0219132602, -0.1347726434, -0.0647922382, 0.0128691364, 0.0017528376, -0.1065370888, 0.0036845040, 0.0597461760, -0.0369785726, -0.0336778685, 0.0093655773, 0.0017525260, 0.0378706455, 0.0064367196, 0.0112936022, -0.0157243535, -0.0236200895, 0.0792621002, -0.0147514194, -0.0053383685, 0.0024394011, -0.0464984775, 0.0632890910, 0.0059089428, -0.0298797004, -0.0249384996, -0.1586741656, -0.0075647309, -0.0698940530, -0.0030813355, -0.0483178310, -0.0033649802, -0.0152754085, 0.0197258145, 0.0190565567, 0.0663242117, -0.0583533943, -0.0778819919, -0.0914641842, 0.1129774228, 0.0037005660, 0.0320400447, 0.0258668233, -0.0496730469, -0.0405648276, -0.0362434462, 0.0563028753, 0.0430670157, -0.1280488074, 0.0855006427, -0.0355794579, 0.0726575851, 0.0143703371, 0.0180463698, -0.0104882792, 0.0854332000, 0.0184700452, -0.0073624477, 0.0066886391, 0.0441213697, -0.0699624345, 0.0409647115, 0.0069740675, -0.0038881674, 0.0066163903, 0.0401218832, 0.0298710000, 0.0144517226, 0.0046343184, 0.0131549863, -0.0026800486, -0.0411986671, 0.0168327801, 0.0072118603, 0.0199648216, 0.0574134514, 0.0448718593, -0.0301987380, 0.0314584598, 0.0106197549, 0.0334915705, 0.0310514793, -0.0703847855, -0.0666967854, -0.0795047432, -0.0180638060, -0.0053590834, -0.0467213951, 0.0415161811, 0.0372794606, -0.0379853472, 0.0246929172, -0.0290606208, -0.0113492217, 0.0152907912, 0.0238566361, -0.1000078693, -0.0406957865, -0.0146095501, 0.0014694184, -0.0421326086, -0.0084374631, 0.0200647451, -0.0487088561, -0.0206649192, 0.0133403214, -0.0554338656, 0.0040420182, -0.0132343899, 0.0555007160, 0.0733482018, 0.0464347117, 0.0082156314, 0.0422623940, -0.0443050861, 0.0195924826, 0.1040327027, -0.1000229493, 0.0037686946, 0.0470243469, 0.0547166727, 0.0060809553, 0.0042198617, 0.0427424982, -0.1054703072, -0.0398662314, -0.0513576157, 0.0694518387, 0.0160407014, 0.0198214985, 0.0290514510, -0.0387528799, -0.0641486272, 0.0178582184, -0.0145553481, 0.0168779418, -0.1216856912, 0.0054457635, 0.0199830700, 0.0034293656, 0.0647772849, 0.0265479423, 0.0492324643, 0.0223462284, -0.0943929031, -0.0148018794, -0.0032655969, 0.0667256415, 0.0066892048, 0.0264612660, 0.0296838712, 0.0097439000, -0.0240597501, 0.0109479036, -0.0619149357, -0.0164790582, 0.0469753332, -0.0525761358, -0.0145558249, 0.0447602645, 0.0301122628, -0.0367634073, 0.0211602151, -0.0295180269, -0.0016222958, -0.0365846939, -0.0351511873, 0.0741969794, -0.0604426712, 0.0003840700, 0.1063349843, 0.0069179283, 0.0006295778, -0.0329059996, 0.1060260460, 0.0006225873, 0.0868792161, 0.1110090464, 0.0394845828, -0.0389611199, 0.0231448486, 0.0271111149, 0.0182664357, 0.0210161824, 0.0160999522, -0.0218702294, -0.0218375064, 0.0619197935, -0.0463838130, -0.0466344208, -0.0510086305, 0.0092784632, -0.0467079133, 0.0520932600, 0.0202497169, 0.0136737246, 0.0339503437, 0.0605205297, 0.0205082912, -0.0430699177, -0.0489706621, -0.1116012335, 0.0636121780, -0.0290735960, 0.0245478787, 0.0103255734, -0.0039329976, 0.0964984372, 0.0425637253, 0.0635404363, -0.0424076915, 0.0419618413, 0.0639857724, 0.0306617524, 0.0271345191, 0.0606946051, 0.0939414725, -0.0301439092, -0.0275229663, 0.0228219796, -0.0166485757, -0.1097939163, -0.0110265203, -0.0821822733, 0.0377938636, -0.0233449042, 0.0518318079, 0.0708054751, -0.1160907447, -0.0469374619, -0.0568402112, 0.0090437261, 0.0223523304, -0.0037584081, 0.0739891902, 0.0459086336, 0.0664502680, -0.0474074781, -0.0142217707, -0.0155126387, -0.0312483534, -0.0152707193, 0.0368624702, 0.0072007179, 0.0410741568, -0.0202499293, 0.0744498670, -0.0511901379, -0.0087234303, 0.0605772920, -0.0491797365, 0.0052808654, -0.0397629887, -0.0449267626, 0.1315271109, -0.0090554152, 0.0149297640, 0.0459718928, 0.0151939280, 0.0541614778, 0.0128360745, 0.0381928459, -0.0406426080, 0.0662498772, 0.0016770987, 0.0500285402, -0.0182881765, 0.0525593683, 0.0696448162, -0.1043851152, -0.0146565940, 0.0553006604, -0.0460326523, 0.0226516351, -0.0268196221, 0.0497729555, 0.0561179519, 0.0179535374, -0.0715914294, -0.0641087741, 0.0260437243, -0.0747667924, 0.0393860079, 0.0096835867, 0.0470614657, 0.0807607099, -0.0447964519, -0.0126534263, -0.0151615161, -0.0229255743, 0.0279261693, -0.0147877829, -0.1314134598, -0.0207388103, 0.0333152637, -0.0001197825, -0.0252662040, -0.0247803144, -0.1045918092, -0.0051683998, -0.0793343037, 0.1322397888, 0.0581309646, -0.0927015841, 0.0656943470, -0.0820777342, -0.0749990419, -0.0046565183, 0.0322797373, 0.0388253033, -0.0437375493, 0.0523004197, -0.0071377577, -0.0108664930, 0.0897396430, -0.0661831647, -0.0714150965, 0.0186896622, -0.0121844942, 0.0402276143, -0.0381607600, -0.0829619914, -0.0161663033, -0.0382341109, -0.0234955382, 0.0086849527, 0.0446015894, -0.1792832464, 0.0337832682, -0.0850353837, 0.0343034193, -0.0476252809, -0.0089117084, 0.0602573901, 0.0180961080, -0.0198016521, 0.0184492860, 0.0300125554, -0.0822854266, 0.0203140043, 0.0941069275, -0.0122005586, 0.0764169991, -0.0310153030, 0.0095122987, 0.0352798253, -0.0757227913, 0.0108379871, -0.0602988079, -0.0025105998, 0.0346746966, -0.0052252151, -0.0054764636, 0.0206158981, -0.0527489148, -0.0014646314, -0.0262978356, -0.0329457782, 0.0028253654, 0.0371438898, -0.0945312604, 0.0099947164, 0.0635548234, 0.0392759480, -0.0067780241, 0.0353108980, -0.1076733321, -0.0162989236, 0.0411081091, 0.0199319832, 0.0144474357, -0.0092996806, 0.0428715385, 0.0110998545, -0.0491054021, -0.0608442128, -0.0555917546, -0.0393059552, -0.0147815794, 0.0297083631, 0.0467218980, -0.0389926247, -0.0018256977, -0.1310386658, -0.0716503561, 0.0044282908, 0.0587361529, -0.0069806576, 0.0217403639, 0.0084799044, -0.0865850151, 0.0362365060, 0.0228658877, -0.0415516384, -0.0019791638, -0.0020122067, 0.0749824345, 0.0570072383, 0.0237854719, 0.0255593415, -0.0304862931, 0.0657697991, 0.0924068689, 0.0518479273, 0.0422749333, -0.0307844430, -0.0273646154, -0.0394238234, 0.0720840096, 0.0538648739, -0.0045701433, 0.0487773828, 0.0178082380, 0.0063800467, 0.0275577884, -0.0803650543, -0.0537864566, 0.0514028557, -0.0080128880, -0.0439818725, 0.0197953358, 0.0070975600, 0.0481811836, 0.0136406692, -0.1051416025, -0.1017444804, -0.0028836462, 0.0455720723, 0.0152460719, -0.0451707505, -0.0969984531, 0.0434844755, 0.1158836186, -0.0050953357, 0.0495731309, -0.0033527538, 0.0133617474, 0.0267616734, -0.0695427135, -0.0379357450, -0.0702160820, -0.0784344822, 0.0149920043, -0.0354739502, 0.0122495219, -0.0939307064, 0.0229184274, 0.0051715733, 0.0477069393, -0.0334278196, -0.0230549276, 0.0085792169, 0.1087515131, -0.0107363742, 0.0076800017, -0.0355468318, 0.0226243827, -0.1066131815, -0.0039386177, 0.0029918300, 0.0629936606, -0.0588846207, 0.0090866629, 0.0321811438, -0.0727112591, -0.1038792059, 0.0165704526, -0.0255870298, 0.0330279320, 0.0454896763, 0.0017267242, 0.0141401533, 0.0435116217, -0.0322319418, 0.0615300015, -0.0333958939, -0.0451231152, 0.0107246805, -0.0026423521, -0.0514094271, -0.0055752937, 0.0713702440, -0.0751871243, -0.0464976951, -0.0210745540, 0.0468206108, 0.0238080751, 0.0645780861, -0.0493439399, -0.0249858480, -0.0234330781, -0.0161848422, -0.0843662024, -0.0453835651, -0.0639165565, -0.0525197163, -0.0456711873, -0.0211338401, 0.0405631773, 0.0269532427, 0.0862599984, -0.0641344786, -0.0935937092, 0.0264035054, -0.0257648192, -0.0198414624, -0.0779841468, -0.0974041075, -0.0048746769, -0.0067782681, -0.0422666408, -0.0125276297, 0.0049185585, -0.0084319022, -0.0406876728, 0.0877312571, -0.1222517490, 0.0433113202, 0.1158624366, -0.0359270461, 0.0243240148, -0.0485279672, 0.0155482534, 0.0338766612, -0.0417042859, 0.0197485387, -0.0610251054, -0.0098954095, -0.0305386111, -0.0060242862, -0.0329385288, 0.0972985998, -0.0437297337, -0.0741423815, 0.0419067778, 0.0188768618, 0.0229578707, 0.0891623721, 0.0696539134, 0.0427618660, -0.0040456872, -0.0211326443, -0.0924812108, -0.0269641988, 0.0765617564, 0.0499902070, -0.0276241209, -0.0240996834, 0.0504217595, -0.0104715526, -0.0035735196, 0.0546908155, -0.0297412090, -0.0071165017, 0.0380961969, 0.0519910157, 0.0380608588, 0.0370179228, 0.0355597325, -0.0853607953, 0.0566484816, -0.0069713565, 0.0270559788, 0.0002864785, -0.0399848074, -0.0140012596, 0.0516667068, -0.0449217446, 0.0131327575, -0.0017717516, 0.0641066954, 0.0338491201, 0.0477501154, 0.0102647953, -0.0635893419, -0.0518603213, -0.0184575692, 0.0840244964, -0.0674639195, -0.0390326492, -0.0193748549, -0.0671272501, 0.0517153516, 0.0312003680, 0.1273807585, 0.0081882179, -0.0142032783, -0.0596668795, 0.0049595777, 0.0033178404, -0.0560619459, 0.0180466883, -0.0272488613, -0.0698434263, -0.0249411054, 0.0539382510, 0.0174811427, -0.0222287849, -0.0035229302, 0.0824065357, 0.0846441388, -0.0324846357, 0.1005039960, 0.0280494373, -0.0020031342, 0.0109716216, -0.0059433859, -0.0107377078, -0.0766756162, 0.0408283770, -0.0617950819, 0.0570341498, -0.0817671940, 0.0372386537, 0.0887678191, -0.1071771905, -0.0266652554, 0.0050959121, 0.1566265970, 0.1257377118, -0.0113129131, 0.0114053059, 0.0577491447, 0.0353668779, 0.0689735860, -0.0235022437, -0.0633173063, -0.0884251967, -0.0271282401, -0.0448804013, -0.0167604014, -0.0115643926, -0.0152497524, 0.0254576281, -0.0185788535, 0.0777752474, -0.0701958910, 0.0090210484, -0.0805438608, -0.0828744099, 0.0242612548, -0.0118109696, -0.0448165797, 0.0387031473, -0.0359184556, 0.0842552409, 0.0622775145, 0.0310362112, -0.0276869982, -0.0394037999, -0.0467860512, 0.0128204804, 0.0103014391, 0.0269359369, 0.0052110003, -0.0120916162, -0.0331367031, 0.0589371361, 0.0595030226, -0.1025094166, 0.0664117709, -0.0014566173, -0.0783603564, 0.0774526894, 0.0124961752, -0.0133881429, 0.0076789055, -0.0222147088, 0.0046176892, 0.0102233468, 0.0523554236, -0.0927242413, -0.0686315447, -0.0392678455, -0.0186984390, -0.0184755940, 0.0020693354, -0.0028564397, -0.0610413477, -0.0817952231, 0.0767965615, 0.0160270333, 0.0190871581, -0.0263795517, 0.0210432038, 0.0283674132, 0.0467989817, -0.1519222260, 0.0237994604, 0.0373046845, 0.0738266259, 0.0097335167, -0.0059453817, 0.0443925001, -0.0287597831, -0.0033947770, 0.0297514908, 0.0103993658, -0.0261950828, 0.0400792584, 0.0463448837, -0.0455307737, -0.0758167878, -0.0180102792, -0.0218795314, 0.0835992470, -0.0895755365, -0.0996313989, 0.0031917100, 0.0162706152, 0.0471663550, -0.0786498263, 0.0067116590, 0.0514116175, -0.0083116088, 0.0416249111, 0.0456150919, 0.0415926278, -0.0368533880, -0.0130312834, -0.0799676478, 0.0286845956, -0.0648961887, -0.0297921561, 0.0234933849, 0.0083455518, -0.0764013827, 0.0663243830, 0.0208258592, 0.0671226904, -0.0080115311, 0.0693793818, -0.0895711258, 0.0132786315, -0.0053814650, -0.0146021228, -0.0003490469, 0.0488396883, -0.0004124572, 0.0773666278, 0.1596700400, -0.0372504666, -0.0124507844, -0.0343143828, 0.0482228249, 0.0009364624, -0.0337045193, -0.0767395124, 0.0091584586, -0.0281817354, -0.0411239788, 0.0113550629, 0.0464148819, -0.0417643748, -0.0172593053, -0.0035827933, 0.0167014897, 0.0284968913, 0.1097482666, -0.0520780161, 0.0391344726, 0.0246041175, 0.0042234310, -0.0388525315, 0.0311648473, -0.0295863077, 0.1455498040, -0.0215579271, -0.0364948548, -0.0543910637, 0.0610077418, 0.0009069326, -0.0056439359, 0.0992098600, -0.0790079385, 0.0428600311, 0.0934830755, 0.0520650893, 0.0082748327, -0.0329447761, 0.0810027048, -0.0178048871, -0.0724623501, -0.0229799412, 0.0331192687, 0.1576117128, -0.0389424227, 0.0139778154, -0.1343075037, -0.0728314370, 0.0038178605, -0.0280095804, 0.0192782730, 0.0176351555, 0.1168175861, 0.0513401628, 0.0655553713, -0.0318201780, -0.0285535213, 0.0315537155, -0.0607431456, -0.0209666193, -0.0544979684, -0.0968666598, 0.0131574469, -0.0198198706, 0.0490678288, 0.0303107500, -0.0051739751, -0.1012488678, 0.0548281744, -0.0117680356, -0.0182230361, -0.0050178310, -0.0334631689, 0.0557365119, -0.0846481174, 0.0185278933, -0.0442015305, -0.1111318469, 0.0416492373, -0.0377487466, -0.0006747218, 0.1142171919, 0.0565963350, 0.0256108753, -0.0779058114, -0.0027496126, -0.0482366160, 0.0535540059, -0.0406028926, -0.0840762779, 0.0468958803, 0.0169751626, 0.0015709260, 0.0044105351, -0.0172081050, -0.0496677272, 0.0550818630, 0.0072856480, -0.0261150040, -0.0013325289, 0.0556145720, 0.0537542626, 0.0419698469, -0.0255016163, -0.0141765792, -0.0038791918, -0.0520396680, -0.0440861210, 0.0255957022, 0.0611405782, -0.0197789390, 0.0716369003, 0.0250340831, 0.0373555273, 0.0162132084, 0.0475834049, -0.0108744204, 0.0722760037, -0.0194867924, -0.1251470745, -0.0062221265, -0.0490256138, -0.0663740113, 0.0878369063, 0.0681923330, -0.1019800454, 0.0574266240, 0.0504886843, 0.0442964770, -0.0890474096, 0.0648365021, 0.0357930772, -0.0027140528, 0.0445814282, 0.0180612952, 0.0006394282, 0.0145530272, 0.0315788724, -0.0055926368, 0.1172916219, -0.0383065641, -0.0478740931, 0.0606938377, 0.1952881962, 0.0154916737, 0.0488840900, -0.0039203120, 0.0008102991, -0.0292402543, -0.0637429357, 0.1162364334, -0.0700564012, 0.0541660935, 0.0137920771, -0.0376389958, -0.0621555820, -0.0618322156, -0.0245285034, 0.0113217738, -0.0552078187, 0.0788924620, -0.1267798692, 0.0158290118, -0.0111800656, 0.0264609829, 0.0819406509, -0.0876091421, 0.0596395619, 0.0016752556, -0.0022718646, -0.0466712490, -0.0184441172, 0.0620022826, 0.0248234309, 0.0046720682, -0.0286007635, 0.0033552255, 0.0197513327, -0.0493741184, 0.0500916801, 0.0197939798, 0.0064356215, 0.0184770636, 0.1264491677, -0.0219186079, -0.0420032516, 0.0387652218, 0.0371203944, 0.0816843286, 0.1008650437, 0.0111329965, 0.0638523325, -0.0233156979, 0.0166975316, 0.1316825449, -0.0354436822, 0.0316677913, 0.0903916061, 0.0116554862, 0.0629992560, -0.0010492504, -0.0145245083, -0.0860514119, -0.0374828391, 0.0288553517, -0.0249049515, -0.0229049493, 0.0045873132, 0.0439300016, 0.0202438701, -0.0018421933, 0.0647538528, -0.0025360198, 0.0494772568, 0.0272211079, -0.1253175288, -0.0201924853, -0.0057446426, 0.0806612447, 0.0832419470, 0.1006497070, -0.0437430628, 0.0607711524, -0.0767807290, 0.0379985198, -0.0781076998, -0.0052684136, 0.0268384870, -0.0293728188, 0.0758740455, -0.0053777983, -0.0027109194, 0.0271923877, 0.0553007573, 0.0441976637, -0.0502252504, -0.1018223912, 0.0594526753, -0.0115219075, -0.0203290153, -0.0088515524, 0.1213841513, -0.0491909310, -0.0507679135, 0.0295393784, 0.0065309554, 0.0000843990, 0.0298061445, 0.0110488404, 0.0224252939, -0.0418545492, -0.0254784301, 0.0551810414, 0.0206585433, 0.0094251055, -0.0001341607, -0.0551829860, 0.1125259995, -0.1034536138, -0.0970835090, 0.0228858422, 0.0107199606, -0.0432963036, 0.0829194561, 0.0226698369, -0.0291865468, 0.1027110368, 0.0503083542, 0.0114890020, 0.1384983063, 0.0530083925, 0.0368321165, -0.0173311159, 0.0073683504, -0.0609715767, 0.1280391067, 0.0100272708, 0.0225027613, 0.0505955853, 0.0044247052, -0.0429730266, 0.0159191675, 0.0888815448, -0.0165001638, -0.0233914349, 0.1101241186, 0.0287295561, -0.0187167954, 0.0290507786, -0.0288900118, -0.0583386645, 0.0436750725, 0.0152460821, -0.0472317897, 0.0018066994, 0.0978631899, -0.0048194323, -0.0656948015, -0.0947652459, 0.0040554134, 0.0086224042, -0.0831852406, -0.0672246069, -0.0290595107, -0.0329223573, 0.0270982813, -0.0681912526, 0.0147348298, 0.0400941074, 0.0134746172, 0.0016535027, 0.0562936440, -0.0472070798, -0.0669715405, 0.0263194218, -0.0153488396, -0.1269453317, 0.0978102684, -0.0232328959, -0.0195977092, 0.0395066924, -0.0691791922, -0.0132266264, -0.0006650276, 0.0277333595, 0.0266950056, -0.0230983682, -0.0168336853, 0.0695647523, 0.0663201213, -0.0980964378, 0.0414827131, 0.0341610759, -0.0640139356, 0.0403623804, 0.0909627303, -0.0013898807, -0.0217815936, 0.1065272987, -0.0463350117, 0.0128497239, -0.0852757916, 0.0893207192, 0.0620746426, 0.0042782715, 0.0018308237, 0.0678947195, -0.0089762118, 0.0005259328, -0.0012392504, 0.0488110669, 0.0387158729, 0.0770436972, 0.0165644605, -0.0421913862, 0.0162074864, 0.0630846918, -0.0047106743, -0.0467820689, 0.0233306140, 0.0243298821, 0.0050473204, -0.0152123868, -0.1063196361, -0.0963568464, 0.0424871221, 0.0158475153, 0.0037425989, -0.0143372659, -0.0889539346, 0.0205816645, -0.0663375631, -0.0498177856, -0.0245981179, 0.0179651193, -0.0728525817, -0.0595443808, 0.0071995012, 0.0013543908, -0.0291387402, -0.0167042501, 0.0152545990, -0.0107301651, 0.0136616994, 0.0612328090, 0.0220572762, -0.0576253794, -0.0337010473, -0.0314262584, -0.0253425557, 0.0308341105, -0.0335610211, 0.0132168327, -0.0380959548, 0.0500382408, 0.0351401716, -0.0513451993, 0.0552773736, 0.0099758124, -0.0162023976, 0.0352894217, 0.0563720837, 0.0412458479, -0.0719962344, 0.0618272163, -0.0588462241, 0.0232646428, 0.0298602432, -0.0029625930, 0.0259948429, 0.0529542081, -0.0423508994, -0.0506094657, 0.0193908475, -0.0199951064, -0.1070578545, -0.0451417863, -0.0272886530, 0.0134953614, -0.0280032866, 0.0798598379, 0.0104036657, 0.0273175351, 0.0504671298, 0.0172729492, 0.0680811629, -0.0487944484, -0.0188832227, 0.0727032349, 0.0614402890, 0.0149303116, 0.1074721143, 0.0326323025, 0.0690195337, 0.0832528844, 0.0666234195, -0.0436395071, 0.0176452883, -0.0169815756, 0.0067306766, 0.0669257417, -0.0194366239, 0.0583578721, 0.0146239996, -0.0323045403, 0.0141426437, -0.0941854939, -0.0088955751, -0.0162503254, 0.0650569350, 0.0134842461, 0.0365402885, 0.0382889956, -0.0156461969, -0.0148448525, 0.0413275398, 0.0693226755, 0.0379867777, 0.0390196405, 0.0309824310, -0.0656329617, -0.0299907178, -0.0048711086, 0.0085394885, -0.0245266296, 0.0223579016, -0.0624505505, -0.0087588402, -0.0503190309, 0.0253427848, 0.0665026233, 0.0610763021, 0.0394483730, 0.0250971150, -0.0329234526, -0.0234574191, -0.0013188375, 0.0099223349, 0.0017586444, -0.0786686689, -0.0114363162, 0.0257878006, -0.0322466940, -0.0285428744, -0.0000931891, 0.0707424358, 0.0168038402, -0.0162727982, 0.0557207130, 0.0049336022, -0.0251997933, -0.0439465605, 0.0605003238, 0.0307807587, 0.0381702408, -0.0890783295, -0.0927200466, 0.0246792901, 0.0542054325, 0.0088731609, 0.0522019900, -0.1469968408, 0.0730023533, 0.0132774021, -0.0669167340, 0.0753722936, -0.0808468610, -0.1287067384, -0.0534588248, -0.0111726485, 0.0024531335, -0.0342609696, 0.0802572966, -0.0097513879, -0.1523307115, 0.0055018226, 0.0186086129, -0.0643695146, 0.0087043196, 0.0049876366, 0.0060819853, 0.0081608649, 0.0182073265, 0.0769283473, 0.0211188197, -0.0027582720, 0.0997034535, -0.0540687479, 0.0196753927, 0.1214921996, 0.1034072936, 0.0581010729, -0.1122400910, -0.0128653785, -0.0228025746, -0.0329162329, -0.0415617600, 0.0442653969, -0.1043644398, 0.1665812582, -0.0239484068, -0.0299884770, 0.0455080532, 0.0332669318, 0.0201671831, 0.0404625572, 0.0437184535, 0.0546386056, 0.0022214311, -0.1020780131, 0.0317690596, -0.0626248270, -0.0020417334, -0.0754896253, 0.0811031982, 0.0265119728, 0.0912732407, 0.0402421281, -0.0278059691, 0.0843716562, 0.0264559351, 0.0078216214, -0.0173493437, -0.0126998331, -0.0105683468, -0.0291023571, 0.0210448485, 0.1157111377, -0.0597529262, -0.0272143111, -0.0178777650, -0.0205126461, -0.0709998682, -0.1061117724, 0.0084989155, 0.0510417633, 0.0250743441, 0.0605954751, -0.0138206631, -0.0174063947, -0.0295463149, -0.0434028581, 0.0672789961, 0.0396668389, 0.0183472149, -0.0198434442, -0.0490341634, 0.0804304257, 0.0165570453, -0.0033109579, -0.0532405823, 0.0167601891, -0.0447318852, -0.1020170450, 0.0690880343, 0.0222774222, 0.0344121233, 0.0133001581, 0.0183765516, -0.0198524874, -0.0345714875, 0.0045308582, -0.0360383019, 0.0549296811, -0.0046264995, -0.0396177359, 0.0410793312, 0.0174656436, -0.0090671778, -0.0723604411, 0.0572957247, -0.0567345247, -0.0074178781, 0.0463143848, 0.0152565725, 0.0031663291, 0.0001345854, 0.0775756910, -0.0161300432, -0.0070891413, -0.0505094938, -0.0268814471, 0.0036150764, 0.0605170205, -0.0473691747, 0.0023872680, 0.0062853554, 0.0095956344, 0.0236636624, 0.0208598785, 0.0180202257, 0.0013054004, 0.0153376404, 0.0873256251, -0.0398328938, 0.0541193411, -0.0046857353, -0.0313676856, 0.0145244002, 0.0056088073, 0.0754462928, -0.0360278934, -0.0343325585, -0.0122830523, -0.0382998139, 0.0379333049, -0.1447510868, 0.0198774226, 0.0809593648, -0.0545169078, 0.0388145335, 0.0703603700, 0.0125991292, 0.0449616089, -0.0223990586, 0.0762522891, 0.0921589583, 0.0403739400, 0.0287230723, 0.0359109417, -0.0008337833, 0.0289625805, -0.0594581291, 0.1011893675, -0.0499869250, 0.0089174956, 0.0414126068, -0.0282759890, -0.0928652585, 0.0904924423, -0.0477329567, -0.0409246236, 0.0172258206, 0.0122866966, 0.0507198423, -0.1317445934, 0.0525797382, -0.0555538759, -0.0556191057, 0.0080297440, -0.0300245285, 0.1414521635, 0.1310193837, -0.0023184139, 0.0343682170, 0.0188396759, -0.0468370877, -0.0584957935, 0.0097678201, -0.0478778780, -0.0524997599, -0.0447913036, 0.0129149472, -0.1021706015, 0.0333500504, 0.0197295416, 0.0273227654, -0.0347434171, -0.0058829705, 0.1083921567, 0.0302369408, 0.0789595097, 0.0380909741, 0.1106531098, -0.0095703118, -0.0279722512, 0.0466784537, -0.0227656607, -0.0242111124, -0.1211916134, 0.0119844535, -0.0298904851, 0.0066386471, -0.0451281443, 0.0573605560, -0.0623353943, 0.0139652751, 0.0484274440, -0.0428181216, -0.0134923337, 0.0458131693, 0.0380612016, 0.0556675121, 0.0185735077, -0.0298558213, -0.0098193623, 0.1432585865, -0.1133759320, -0.0038945330, -0.0346177071, -0.0862352327, 0.1012532711, 0.0125916805, 0.0304782782, 0.0143406531, 0.0477991849, 0.0071546426, -0.0009925000, 0.0256260093, -0.0249265917, 0.0281338058, -0.0459682047, -0.0263708029, -0.0828412920, -0.0176043883, 0.0015319078, 0.0026242700, 0.0356711820, -0.0675614476, 0.0133448401, -0.0422520898, 0.0087395553, -0.0270130802, 0.0162623003, -0.0509121828, 0.0318026431, -0.0234313384, -0.1013786420, -0.0670341998, 0.0769319758, -0.0435910150, -0.0181419253, -0.0281183273, 0.0308728628, -0.0078978557, 0.0105567500, -0.1245469600, 0.0246401392, -0.0352485366, -0.0300862473, 0.0622817688, 0.0125997066, 0.0720884278, -0.0363925248, -0.0351368152, -0.0530109033, -0.0232079215, -0.0202541780, -0.0290960800, -0.0158796795, 0.0986124203, -0.0008966327, -0.0667597353, -0.0866363719, 0.0278239530, 0.0325453132, -0.0352625549, 0.0114780478, -0.0315567143, 0.0269134548, -0.0097528920, -0.0203479696, -0.0278106071, -0.0439694002, 0.0597177781, -0.0777539760, 0.0221739933, -0.0248963255, -0.0967310965, -0.1176557839, -0.0441486202, 0.0626860261, -0.0379073992, -0.0214484073, 0.0002249479, -0.0279580932, -0.0682946816, -0.0166841242, 0.0948223919, -0.0520200543, -0.0041310601, 0.0355453193, 0.0515196398, -0.0037555378, -0.0079216175, 0.1064498425, 0.0897915661, 0.0063409321, -0.1052113995, -0.0389078148, -0.0317289755, -0.0452601053, 0.0055590495, 0.0607855432, 0.0050197998, 0.0199834574, 0.0160182063, -0.0149554322, -0.0546744615, -0.0503268167, 0.0774065107, -0.0939029977, 0.0279444139, -0.0483628958, -0.0297962297, -0.0487494059, -0.0306515079, 0.1006061286, 0.0521846637, -0.0847771466, -0.0070720622, -0.0403546728, 0.0961664096, 0.0494424999, 0.0192319527, 0.0440301448, -0.0603976138, -0.0292911585, 0.0063788663, 0.0495883040, -0.0766441897, -0.0743536651, -0.1064541563, -0.0467023812, 0.0267453194, -0.0015866829, -0.0382192284, 0.0816546753, -0.0380385108, -0.0852015615, -0.0287812706, -0.0087116668, -0.0343188047, -0.0115305651, 0.0358761325, -0.1029810905, 0.0425655209, -0.0543669648, -0.0764013156, -0.0407001376, 0.0522427075, -0.0735169500, -0.0290530473, -0.0623805448, -0.0419644490, 0.0151602272, -0.0564258806, 0.0538744815, 0.0767722577, -0.0183008574, 0.0235299934, 0.0497308448, 0.0572000407, -0.0144344717, -0.1466483921, -0.0201632492, -0.0017732233, -0.0276528709, -0.0358572081, -0.0025075180, 0.0430148132, -0.0430098809, -0.1098845080, 0.0459284112, 0.0168935135, -0.0264064074, 0.0129029965, -0.0209950823, -0.0243458878, 0.0615984425, 0.0254909694, -0.0054760603, -0.0124785397, 0.0411058515, -0.0295359287, 0.0220811423, -0.0175307337, -0.0323332995, 0.0187053792, -0.0432870500, 0.0017956670, -0.0069738398, 0.0396846905, 0.0413352624, 0.0674426705, -0.0196897760, 0.0797214434, -0.0193069205, 0.0008046664, 0.0988038778, 0.0188676473, -0.0502311885, 0.0423558280, 0.0401438214, 0.0226649959, 0.0392475352, 0.0358241647, 0.0007464122, 0.0546437986, -0.0498391427, -0.0016369679, -0.0742821619, 0.0433245935, -0.1012887657, -0.0075496919, 0.0142948395, -0.0057104547, 0.0274431147, 0.0439449064, -0.0396749899, 0.0309829060, 0.0387721360, -0.1017187312, -0.0528819859, -0.0278228167, 0.0108781364, -0.0327524468, 0.0910219923, -0.0763574541, 0.0750681907, 0.0290287696, -0.0644085631, -0.0410421938, 0.0204715077, -0.0730901659, 0.0077689933, -0.0353373885, 0.0531432889, -0.0139417173, -0.0785095841, -0.0116381533, 0.0125371786, 0.0663630441, 0.0209540296, -0.0269404966, 0.0616355874, -0.0109902509, -0.0126268379, -0.0774644390, -0.0057926457, 0.0121272476, 0.0463008285, -0.0224095900, 0.0476108976, -0.0963403061, 0.0522481240, -0.0448377356, 0.1050685123, -0.0709135532, -0.0604235306, -0.0162598919, -0.0088614039, -0.0514052249, -0.0139527684, 0.0562358610, 0.0172663182, 0.0526996106, 0.0906776786, -0.0841305777, -0.0354461409, -0.0724608451, 0.0485657044, -0.0144753344, -0.0239701588, 0.0989472270, 0.0177314393, -0.0161164515, 0.0901293531, 0.0282689072, 0.0203992501, 0.0322657265, -0.1038361788, -0.0031025410, 0.0725505278, 0.1501347274, 0.0290608294, 0.0178928040, -0.0149645330, 0.0627049059, -0.0317622423, 0.0219666623, -0.1152102947, 0.0491261594, -0.0367368720, 0.0245837737, 0.0131769218, 0.0285353884, -0.0170138888, -0.0543922856, -0.0693245158, 0.0437244102, 0.0907581523, 0.0268640723, -0.0310293976, -0.0143653266, 0.0313793086, 0.0549416728, 0.0915330127, 0.0239106081, 0.0207507238, -0.0621684827, 0.0190491285, -0.0164849628, -0.0725158155, 0.0066441800, 0.0332220681, 0.0705818832, -0.0635199472, -0.0262763947, 0.0266000442, 0.0446144044, -0.1138518229, -0.0152105205, 0.0104539208, 0.0533254743, 0.0688399822, -0.0633131117, 0.0291926619, -0.0319539793, -0.0402763039, 0.0444987416, 0.0038113208, 0.1137185693, 0.0547303408, -0.0627874285, -0.0490568615, -0.0256041139, -0.0787366629, -0.0346138328, 0.1006263942, 0.0948195159, -0.0384501889, -0.0455421321, 0.0111419875, 0.0486577637, -0.0099197784, 0.0373734832, 0.0180150177, 0.0245577991, -0.0554912798, -0.0330081880, 0.0438899435, -0.0310857184, -0.0550601780, 0.0623385608, -0.0759086087, -0.0501283631, 0.0384075940, 0.0406277888, 0.0854999423, 0.0434148796, -0.0912716314, 0.0155228749, -0.0206861217, 0.0068093697, -0.0245872475, 0.0006206441, 0.0871511772, 0.0093037868, 0.0345085859, 0.0171787720, -0.0693317205, -0.0766435191, 0.0108221686, -0.0477691479, -0.0809982866, 0.0067715594, -0.0328026228, -0.0360115096, 0.0852993876, -0.0636950433, 0.1128987595, 0.0878201351, 0.0313610397, -0.0210456215, 0.0203657094, 0.0678285360, -0.0171750486, -0.0072324774, 0.0801226050, 0.0218687765, 0.0731446147, -0.0494512953, -0.0444206372, 0.0594410598, -0.0346320383, -0.0103357630, -0.0240064561, 0.0157168433, 0.0638501346, -0.0180327576, 0.0236901660, -0.0186960511, 0.0540400334, 0.0130453575, -0.0771763772, 0.0337511934, 0.0492354222, 0.0376217067, -0.0378612801, 0.0353013985, -0.0151774343, 0.0819666386, -0.0515802056, 0.0378853753, -0.0665307343, -0.0951959118, -0.0505763032, 0.0299081244, -0.0255773962, -0.0070764106, 0.0491428412, -0.0292410310, 0.0067435913, -0.0275364276, 0.0001575865, 0.0477048010, -0.0642532781, -0.0260054991, 0.0161801595, 0.0024874136, 0.0531526282, -0.0500921682, 0.0313084498, 0.0572017655, -0.0238374583, -0.0307780318, -0.0062719975, -0.1893432140, -0.0576846860, 0.0251503885, -0.0973336101, 0.0204686038, -0.0632321760, 0.0514528379, 0.0474335104, 0.0188739523, 0.0576511323, 0.0015595309, 0.0291873012, -0.0177725405, 0.0747909248, 0.0146903321, 0.0388131961, -0.0186988804, -0.0413187742, 0.0899029225, 0.0536207929, 0.0309400298, -0.0358169377, -0.0201061517, 0.0445096903, 0.0061615193, -0.0385052748, -0.0868263692, 0.0217573568, -0.0011778018, 0.0574778765, 0.0002398789, 0.0315557346, -0.0533705913, -0.0549880303, -0.0054081362, 0.0151474560, 0.1225122288, 0.0037590647, -0.0770670101, -0.0150164794, 0.0202196985, -0.0888354927, 0.1114967316, 0.1321123987, 0.0648315996, 0.0364082344, -0.0263780802, -0.0401985683, -0.0802278891, -0.0020138929, -0.1024700850, 0.0117286956, 0.0093199862, -0.0342233405, 0.0620993152, 0.0295838434, -0.0280499645, -0.0112641156, 0.0280941166, -0.0966551602, -0.0194750428, -0.0531845093, 0.0193839297, -0.0138033088, 0.0433176123, 0.0169414617, -0.1304441839, -0.0352493338, -0.1117350981, -0.0533231907, -0.0434631482, 0.0913850591, 0.0258966833, -0.0061540809, 0.0169665180, 0.0397497751, -0.0568149760, 0.0762707144, 0.0650698617, -0.0296662152, 0.0398245677, 0.0908949077, -0.0042160135, 0.0090411315, 0.0153384982, -0.0164766740, 0.0052897111, 0.0295156818, -0.0248525348, -0.0105839372, 0.0230560936, 0.0092162723, 0.0255882032, 0.0137407742, -0.0177348647, -0.0008781012, 0.0074061509, 0.0158415847, -0.0234564990, 0.0132780308, 0.0486777537, 0.0470138974, -0.0113115115, -0.0054778093, -0.0590235814, 0.0155615024, -0.0089800414, -0.0346181206, -0.0261813141, -0.1166374236, -0.0550122336, 0.0699977428, 0.0374140069, 0.0326285698, -0.0471703336, 0.0040970286, 0.0125661045, -0.0253158174, -0.0018210271, -0.0149617344, 0.1432269514, -0.0551816858, -0.0136163812, -0.0273878723, 0.0929707065, -0.0347158425, -0.0655029044, 0.0470216051, -0.0607844926, -0.1312826276, 0.0473237745, 0.0818402395, -0.0033905739, 0.0414032377, 0.0845447555, -0.0869075954, 0.0155374277, -0.0023237420, 0.0451829396, -0.0420259237, -0.1172354370, 0.0029699542, 0.0373988487, -0.0391088575, 0.0046818163, 0.0496065207, -0.0043893680, -0.0236118622, 0.0918872207, -0.0002013668, 0.1134147793, -0.0491389669, -0.0299992617, -0.0994509384, 0.0049046027, -0.0138005055, 0.0386961997, 0.0225937963, 0.0083944174, 0.0346626677, -0.0322217122, -0.0311876871, 0.0171209089, 0.0136712994, -0.0051511833, -0.1194428578, -0.0369704217, -0.0015168227, 0.0572776571, -0.0146303121, -0.0037146034, -0.0150071215, 0.0422087684, -0.0887239128, -0.0913132653, 0.0497570857, 0.0122943632, -0.0714415461, 0.0102571882, 0.0227089636, 0.0663855076, -0.0052797762, 0.0492896549, 0.0079790484, 0.0313598886, 0.0070990119, 0.0154518746, -0.0668882728, -0.0133660482, 0.0467918180, 0.0505449437, -0.0354007930, -0.0572259054, -0.0124848522, -0.0771524534, 0.0036564101, 0.0641855896, 0.0400215350, -0.0359681845, -0.0027633798, 0.0819738880, 0.0155007290, -0.0228887014, -0.0542552210, -0.0343827978, 0.0520813800, -0.0071362304, 0.0529695675, -0.0766724125, -0.0306601487, 0.0616154894, 0.0028370391, 0.0623178333, 0.0248713773, -0.0809509009, 0.0320594572, 0.0023448067, -0.0464616790, 0.0247574374, -0.0034044301, 0.0561759397, -0.0560247116, 0.0006987071, -0.0993915796, -0.0437977687, 0.0268357042, 0.0062330947, 0.0070331329, 0.0226598047, 0.0591552630, 0.0927690789, 0.0756304711, 0.0698364377, 0.0231837928, 0.1302809119, -0.1025463417, -0.0226364136, 0.0782515034, -0.0442045778, -0.0148215462, -0.0999225676, -0.0333307981, 0.0386230648, 0.0567507893, 0.0089586899, -0.0697023347, -0.0686962232, 0.0061264350, 0.0009410954, -0.0215893704, 0.0787139982, -0.0193404630, 0.0444073230, 0.0507510193, 0.0399224907, -0.0551851839, 0.0279784650, -0.0397054218, -0.0130104534, 0.0182233807, -0.0101228161, 0.0359160900, -0.0002860175, 0.0174289364, 0.0967804193, 0.0901231766, -0.0031339212, -0.0492934883, -0.0350556336, 0.0020664139, 0.0618001297, 0.0248942450, 0.0304765441, 0.0637146533, -0.0442374274, 0.0123002166, -0.0511167683, 0.0173294507, 0.0584066249, 0.0205716901, 0.0112777576, 0.0237935670, 0.0556748249, -0.0174887925, -0.1052984223, -0.0464555100, 0.0146763753, 0.0032353327, -0.1115456969, -0.0636206120, -0.0416845232, -0.0534141511, -0.0130561311, 0.0638111681, 0.0298797116, 0.0224392768, -0.0256398469, 0.0064554475, 0.0032529747, -0.0215442106, 0.0578213185, 0.1054397300, -0.0780451745, -0.0168590285, -0.0351713821, -0.0199558698, 0.0138853472, -0.0164451040, 0.1362757534, -0.0268633738, -0.0673430413, -0.0945026875, 0.0479257889, 0.0131384227, 0.0551214591, -0.0347040147, 0.0907597244, -0.0933083147, -0.0073514376, -0.0759970546, 0.0249352586, -0.0145537117, -0.0460308008, 0.0290395729, 0.0078791128, -0.0757929161, 0.0795771480, 0.0116696088, 0.0228111316, -0.0302962754, 0.0003785584, -0.0215311293, 0.0090630660, -0.0295342021, 0.0242806301, -0.0446282104, 0.0015245769, -0.0001419466, 0.0750304833, -0.0139809456, 0.0181795154, -0.0595298782, -0.0799077377, -0.0588545650, -0.0752604380, 0.0301875118, 0.0445913821, -0.0454734489, -0.0660078079, 0.0363693796, 0.0235829968, -0.0046924576, -0.0953289419, -0.0498093292, 0.0015108995, -0.0054008253, 0.0288938247, -0.0328924358, -0.0496003591, -0.0789482668, 0.0385377668, -0.0380722284, -0.0547144711, 0.0465356112, 0.0252519809, 0.0467718802, -0.0676670671, 0.0450042002, -0.0882918611, -0.0126297679, 0.0271260533, -0.0205586795, 0.0025979932, 0.0105087487, -0.0122527685, -0.1089815199, -0.0179122761, 0.0669905320, 0.0063974224, 0.0937739685, -0.1003180519, 0.0061904471, -0.0651683286, -0.0161173996, -0.0732922703, 0.0152194500, 0.0099449409, -0.0878811479, 0.0515502840, 0.0257448442, -0.0550362319, 0.0212806463, 0.0134277474, -0.0481936373, -0.0872431546, 0.0070464178, 0.0055409651, -0.0562605932, -0.0193316508, 0.0597171448, -0.0546386950, -0.0175970476, 0.0120062474, -0.0042769667, 0.0151323723, -0.0583011210, -0.0153756542, 0.0469269305, 0.0042187423, -0.0145514328, -0.0168021098, -0.0139065422, 0.0695736259, -0.0158161800, -0.0061878273, -0.0409230664, -0.0774827823, -0.0460771061, -0.0081698522, 0.0791929960, 0.0400777310, 0.0766731054, 0.0655757487, -0.0547554754, 0.0808304846, 0.0086818151, 0.0053055515, 0.0178756285, 0.0774333328, 0.0270742811, -0.0305567868, -0.0303732604, 0.0642178133, 0.0229660887, -0.0972346589, 0.0240981579, -0.0140697425, 0.0281217229, -0.0251122359, 0.1054121330, -0.0526577532, 0.0063779647, 0.0340164676, 0.0083311815, -0.0608767755, -0.0625795126, 0.0041798130, 0.0301196482, 0.0169924032, -0.1147589684, 0.0700969845, 0.0280248914, -0.0039257370, 0.0010874961, 0.0176956598, 0.0710723698, 0.0760840252, -0.0406060144, 0.0410542637, -0.0167494453, 0.0823273137, 0.0963351727, 0.0064826189, -0.0093106152, 0.0726432800, 