//Numpy array shape [3, 3, 6, 8]
//Min -0.531250000000
//Max 0.500000000000
//Number of zeros 29

#ifndef W6_H_
#define W6_H_

#ifndef __SYNTHESIS__
weight6_t w6[432];
#else
weight6_t w6[432] = {0.12500, 0.00000, 0.03125, -0.15625, 0.12500, 0.00000, 0.09375, 0.25000, 0.09375, 0.09375, -0.18750, 0.31250, -0.15625, 0.09375, 0.28125, -0.06250, 0.06250, 0.31250, -0.18750, 0.12500, -0.25000, -0.12500, 0.03125, 0.09375, -0.09375, 0.06250, 0.21875, 0.03125, -0.18750, 0.18750, -0.03125, -0.12500, -0.31250, -0.15625, 0.12500, 0.21875, -0.12500, 0.15625, 0.21875, 0.25000, 0.18750, -0.06250, -0.12500, 0.12500, -0.03125, -0.15625, 0.18750, -0.09375, 0.12500, 0.12500, -0.12500, 0.21875, 0.00000, 0.09375, 0.09375, -0.18750, -0.03125, 0.09375, 0.15625, -0.09375, -0.09375, 0.03125, 0.21875, -0.06250, 0.12500, 0.09375, 0.00000, -0.09375, 0.09375, 0.15625, -0.21875, -0.06250, -0.12500, -0.21875, 0.00000, -0.18750, 0.03125, -0.06250, -0.18750, 0.00000, -0.06250, -0.12500, 0.09375, -0.03125, 0.12500, 0.09375, 0.18750, -0.18750, -0.21875, 0.09375, 0.12500, -0.21875, -0.12500, -0.12500, -0.09375, 0.06250, 0.12500, 0.06250, -0.12500, 0.06250, -0.28125, -0.18750, -0.06250, 0.06250, -0.18750, 0.06250, 0.09375, 0.00000, 0.12500, 0.12500, 0.03125, -0.18750, 0.06250, -0.03125, -0.15625, 0.00000, -0.09375, -0.15625, -0.06250, -0.12500, -0.25000, -0.15625, 0.09375, -0.15625, 0.12500, -0.31250, 0.06250, -0.15625, -0.18750, 0.00000, -0.15625, 0.25000, 0.09375, -0.18750, 0.06250, -0.06250, -0.18750, -0.03125, 0.12500, -0.12500, -0.06250, 0.15625, -0.21875, 0.12500, -0.09375, 0.12500, -0.12500, -0.15625, -0.03125, 0.06250, 0.03125, 0.03125, -0.09375, -0.06250, 0.12500, -0.03125, -0.25000, 0.12500, 0.00000, 0.18750, -0.03125, 0.18750, 0.15625, 0.00000, 0.03125, -0.12500, -0.03125, -0.09375, 0.06250, 0.03125, 0.09375, -0.25000, -0.15625, -0.21875, 0.12500, 0.18750, -0.03125, -0.28125, -0.21875, 0.00000, -0.03125, 0.18750, -0.09375, 0.21875, -0.15625, 0.15625, 0.21875, 0.18750, -0.09375, 0.00000, 0.09375, -0.15625, 0.15625, -0.31250, 0.06250, 0.06250, 0.06250, 0.18750, -0.18750, -0.15625, 0.00000, -0.18750, 0.06250, 0.25000, 0.06250, 0.03125, -0.25000, 0.06250, -0.18750, -0.06250, 0.09375, -0.18750, -0.03125, -0.06250, -0.09375, -0.21875, -0.03125, 0.03125, -0.15625, -0.12500, 0.06250, 0.15625, 0.15625, -0.06250, 0.25000, 0.15625, 0.09375, -0.21875, -0.21875, -0.25000, -0.15625, 0.15625, -0.18750, -0.03125, -0.06250, -0.21875, -0.15625, 0.15625, -0.03125, 0.15625, -0.15625, -0.12500, 0.03125, -0.09375, 0.00000, 0.00000, -0.12500, 0.18750, -0.09375, 0.18750, 0.06250, -0.18750, 0.18750, -0.06250, 0.21875, 0.06250, -0.12500, 0.18750, 0.00000, -0.15625, 0.28125, 0.31250, -0.12500, -0.21875, -0.09375, -0.06250, 0.18750, -0.15625, 0.06250, -0.21875, 0.21875, -0.06250, 0.00000, 0.00000, 0.06250, 0.18750, 0.00000, -0.06250, 0.15625, 0.06250, -0.25000, 0.06250, -0.18750, 0.00000, -0.06250, -0.18750, -0.06250, -0.15625, 0.15625, -0.03125, 0.18750, -0.25000, -0.09375, -0.06250, 0.15625, -0.15625, 0.09375, 0.28125, 0.15625, 0.12500, 0.28125, 0.28125, -0.09375, 0.25000, -0.09375, 0.25000, -0.12500, -0.12500, 0.03125, -0.06250, 0.09375, 0.12500, -0.06250, 0.15625, 0.15625, -0.12500, 0.12500, 0.06250, 0.18750, 0.03125, 0.15625, -0.12500, 0.09375, 0.03125, -0.21875, 0.18750, -0.06250, 0.03125, 0.03125, -0.03125, -0.12500, -0.09375, -0.21875, -0.09375, 0.06250, 0.21875, 0.37500, -0.12500, 0.00000, -0.18750, 0.00000, -0.18750, 0.21875, 0.06250, -0.21875, -0.12500, 0.25000, 0.21875, 0.06250, -0.21875, -0.09375, 0.06250, 0.03125, 0.03125, -0.21875, -0.15625, 0.03125, 0.03125, 0.00000, 0.09375, 0.03125, 0.06250, -0.15625, -0.03125, 0.12500, 0.00000, 0.06250, -0.25000, 0.12500, 0.21875, 0.25000, 0.06250, 0.06250, 0.43750, 0.06250, 0.28125, 0.28125, 0.50000, 0.06250, 0.06250, -0.15625, -0.28125, 0.00000, -0.21875, 0.12500, 0.00000, -0.25000, 0.00000, 0.15625, 0.50000, 0.28125, 0.21875, 0.50000, 0.12500, -0.12500, 0.12500, -0.21875, -0.18750, 0.12500, -0.06250, -0.12500, 0.06250, -0.21875, -0.03125, -0.21875, 0.31250, 0.00000, -0.65625, 0.50000, 0.09375, -0.28125, -0.12500, -0.37500, -0.18750, -0.09375, -0.21875, -0.31250, -0.18750, 0.09375, 0.06250, -0.28125, -0.31250, -0.06250, -0.15625, -0.15625, -0.12500, 0.12500, -0.15625, -0.25000, -0.18750, 0.06250, 0.06250};

#endif

#endif
