-0.124822944
-0.21295741
0.0029469335
0.0019368338
-0.072670996
0.14805296
-0.04611725
-0.15598337
0.09185689
0.19258358
0.14171827
-0.06815279
0.03918577
0.10330437
0.19146931
-0.10227551
-0.067663446
-0.11312346
-0.113536656
-0.16423759
-0.06943669
-0.18431893
0.1172935
0.011853221
0.06705822
-0.07812925
0.11066411
0.09729381
-0.10781262
0.045317154
0.088788025
-0.17084593
-0.27073804
0.09212881
0.34946865
-0.09554086
-0.1706726
0.14121614
0.03307572
-0.17907684
-0.09332554
-0.09128096
0.011684861
0.0055263042
-0.05401593
-0.1023645
0.22522189
0.04981201
0.08711188
-0.116943054
0.20760968
-0.12576601
-0.056424256
-0.025261424
0.11566355
0.23260209
0.1864194
0.029729666
0.1510797
-0.22247465
-0.044039376
-0.038094334
0.13935658
0.042673364
-0.084308326
-0.059611846
0.13261767
0.0022329823
0.020310132
0.109815255
0.18328993
-0.11309113
-0.2162761
-0.048539676
0.022723112
0.16619831
-0.119159065
-0.2260095
0.0522949
-0.15415058
0.21812463
0.05308892
0.032181
0.026126033
0.09491682
0.080659196
-0.05186796
0.05737573
-0.13251916
0.034530517
-0.19630225
-0.23129192
0.2602418
-0.1668825
-0.18445466
0.050286625
0.012086231
0.040908948
0.060695317
-0.09406166
-0.038108386
-0.12456164
0.08199994
0.2580429
0.006205984
0.114372246
-0.18532445
-0.07501415
0.13469896
0.07000897
0.058588073
-0.07573351
-0.063787885
-0.26217577
0.2036654
0.08386372
0.21023525
-0.13842182
0.11130456
-0.02382758
-0.045867935
0.23171245
0.12982906
0.10944439
-0.03387858
-0.08057791
-0.04987697
0.0808512
0.23143536
0.08444166
0.26852578
0.059508048
-0.049473006
0.09650616
-0.043309312
0.162804
0.07487951
-0.085303724
0.19988294
0.056756232
-0.12996145
-0.0814991
-0.039785728
0.004579705
-0.06284739
-0.094033
0.19010253
0.024830025
0.29219928
-0.057274524
0.026316235
0.106134586
0.025851239
-0.22557482
0.12941763
0.029216085
-0.1494739
0.021745333
-0.01816202
0.16342972
-0.092712045
0.0036192127
-0.19366017
-0.01195558
-0.11817514
-0.055599466
-0.21861698
0.056465268
0.11004263
-0.068297766
-0.024228863
-0.11768009
0.051764503
-0.08140283
-0.013408048
0.046357557
-0.11914978
0.10047624
-0.09038269
0.15167034
0.08015089
-0.09394584
0.26578262
-0.15270676
-0.014922334
0.16745475
-0.13672474
0.0476993
-0.18830426
-0.12900256
-0.088211305
0.03492278
-0.10027811
0.038679957
-0.20837191
0.17136481
-0.06715981
-0.1621242
0.048381124
-0.071032435
-0.00063780457
0.08273531
0.15203838
0.08807801
0.016199717
-0.012277554
0.019427396
0.16119188
0.089640886
0.055065654
-0.12161568
-0.09122671
-0.102613166
-0.04774259
0.021664426
0.0052171475
0.08270682
0.1534647
-0.09537075
-0.078284234
0.066310994
-0.02336122
0.12431502
0.059086323
0.0977614
0.10644687
0.06630315
0.24620867
0.018926894
-0.15358186
0.1099371
-0.13701563
-0.10757364
-0.081449255
-0.14217438
-0.19939066
-0.16728571
0.027308557
0.13147055
0.053229433
-0.1416511
-0.010219776
-0.07997169
0.013735123
-0.1644996
0.04567736
-0.056470625
0.203483
0.06291942
0.03824752
0.06735116
0.078762405
0.19788767
0.11215178
-0.03845796
0.094138555
0.059179664
-0.09087459
-0.0054617203
-0.1756002
-0.2050648
0.070229754
-0.09893089
0.008193471
-0.22355142
-0.011849445
0.13813582
-0.06509686
-0.23383191
0.1784345
-0.016505739
-0.07456496
-0.01436893
-0.0024139157
-0.057826355
-0.04409021
0.08256672
-0.101821035
-0.13985254
0.06820647
-0.06814928
0.052332584
-0.004128738
0.041575383
0.0751587
-0.14147541
0.06954872
0.08096059
0.011812004
-0.14452699
0.0598111
-0.009050795
-0.09511904
0.05543365
-0.06526943
-0.18300189
0.0543822
0.01178179
0.027225656
0.15144967
-0.15865013
0.16111876
-0.017748965
-0.05483324
-0.14260525
0.044586822
-0.15475775
-0.092737675
0.15325399
0.24747913
0.03914686
0.004797504
-0.17368704
0.03281315
-0.20700379
-0.07960123
0.12054183
0.19286464
-0.12611073
0.18828686
-0.0058701294
-0.0073625217
-0.15440829
-0.12501268
-0.1853645
0.037546095
-0.10715942
-0.27907795
-0.08892704
0.0306136
0.059968393
0.055002663
-0.042333525
-0.045122195
-0.030746011
0.085368685
-0.03062589
0.12485899
0.054942623
-0.06819556
-0.05886818
0.06199421
-0.24498904
0.042698093
0.08227349
0.03626472
0.023063164
0.023537708
0.0022647944
0.12350846
0.06953306
0.0761062
-0.09170123
0.02283555
0.0315668
0.044653613
0.15660399
0.12456762
-0.06956606
0.094346516
-0.05450204
0.06415263
0.014515219
-0.101915896
-0.052103642
-0.20074409
-0.0033382203
0.11881593
-0.13049006
-0.119470015
0.09345302
-0.111677215
-0.0844889
0.08165345
-0.07195754
-0.080728695
-0.11968112
-0.14929722
0.13088508
0.024771197
-0.27584395
-0.04497735
0.105980754
-0.21520264
-0.030067863
-0.07179027
0.100747794
0.16512455
0.06715183
-0.064418904
0.15091306
-0.1631781
-0.0784159
0.2006752
-0.15115961
-0.031488683
-0.12043478
-0.073556416
0.038997687
-0.3411263
-0.013280666
0.077736415
-0.23658225
0.004038098
-0.052385002
-0.056326054
-0.056808423
0.016031612
0.0061861644
-0.009023071
0.20647036
-0.064353734
0.05818857
0.020354962
0.08010713
0.054720443
-0.03713389
-0.08940107
-0.25013357
-0.18021066
-0.17575155
-0.12949336
-0.01531663
0.037563495
-0.0717912
-0.090875685
0.005816563
-0.050066117
-0.112560324
-0.05296016
-0.07369706
-0.077562645
0.1613294
-0.19044448
0.1525299
0.03165645
-0.042059626
0.055055697
0.04050004
0.11369962
-0.14702888
-0.19745804
-0.10465061
-0.06656638
0.0964547
-0.08495198
0.07340569
-0.19744846
-0.20822825
-0.04653326
-0.16958316
-0.13517474
0.06106439
0.058992
0.03372926
0.07814563
-0.12322996
-0.20073082
-0.081262134
0.033340406
-0.002284842
0.1407322
0.046969317
0.10877572
0.031553745
-0.16344199
-0.14492047
-0.11591168
0.067204624
-0.045160193
-0.20480251
-0.13904963
0.08562393
-0.0055997744
0.18653703
0.11902509
-0.054625385
0.012268628
0.0417634
-0.020373495
-0.17465001
-0.19816247
-0.13358736
-0.14746846
-0.16310355
0.061560765
0.17969878
-0.044227272
-0.077505894
-0.18223566
0.108839855
-0.061983865
-0.24488598
0.10869071
0.043825876
0.14113832
-0.08076291
-0.13146415
0.101639286
-0.008189738
0.07613447
-0.018621596
0.07785592
0.054722894
-0.060942207
0.068530194
0.12987603
0.18124999
0.12709633
-0.18706487
0.030931622
-0.08949361
-0.09634409
0.05204405
-0.021485895
-0.11112608
0.164405
-0.045250457
-0.22226827
-0.42100856
-0.006375287
0.009096848
0.12566215
-0.15320878
-0.026599033
-0.14460678
-0.1288419
0.0683719
0.14004156
-0.2557479
-0.017251976
-0.11411876
0.056199383
0.15857334
-0.14040823
-0.037336238
-0.09098409
0.10702686
-0.10498955
0.02076623
-0.008821798
0.029406399
0.03744536
-0.07217668
-0.06316611
0.014645524
-0.041168075
0.022163987
0.122348286
0.06414158
0.04039173
-0.011419739
-0.14025818
0.044426583
-0.16899583
0.030829255
0.05831353
-0.03302969
-0.025319673
-0.0113703115
0.07294245
-0.112716384
-0.21751007
0.033506047
0.14404376
-0.1541885
-0.00075380807
-0.15889785
0.09313202
-0.09855917
-0.1633448
-0.05031947
0.20088375
-0.014342013
0.12557943
-0.08895246
0.13425396
-0.0119272955
0.13344298
0.10627959
-0.048370283
0.045719378
-0.0008315822
0.03099209
0.015528403
-0.27603364
-0.03494484
0.014095662
-0.17836481
0.113013275
-0.086026065
0.006291249
0.11200687
0.012556046
0.3130877
-0.0563519
-0.064773634
0.110296234
-0.16924955
-0.14294721
0.066263326
-0.10819155
0.038061373
0.026604611
0.051184766
0.16226658
-0.042277507
0.14336644
-0.12290711
0.082630366
-0.0046177576
-0.085370325
0.0844635
-0.02023342
-0.10268038
0.023125064
0.020917011
-0.07279073
-0.18589492
-0.0104188
-0.12376401
0.16632615
-0.10843567
-0.19701879
0.08368184
-0.08961376
-0.10808378
-0.09020731
0.12154523
0.15580024
-0.10546246
0.061499543
-0.14145927
-0.1718614
-0.19304459
0.06967909
-0.0067665046
0.030469878
-0.009627564
-0.025635285
-0.024045458
0.06727849
0.000746317
0.16106743
0.048958298
-0.09607515
0.15041439
-0.11059525
-0.083446614
0.00091456535
-0.06523053
-0.056498483
-0.04029786
0.30484328
0.03829796
-0.113727815
0.06506552
-0.07958679
-0.08895713
0.08147266
0.007454058
-0.07339967
-0.07274969
0.079644755
-0.065652646
0.1442833
0.009809094
0.10001999
0.24619018
0.07697465
0.11637463
0.20080365
0.026842026
-0.0381207
0.109831214
0.0070440676
-0.012634473
0.14175665
0.031115104
-0.30396405
0.073442765
-0.16974077
0.051787924
0.19470999
0.13441448
-0.12709083
-0.06343746
0.06642129
0.193711
0.11181715
-0.09506954
0.048159126
0.20210513
-0.058854874
0.30211392
0.028139222
-0.08205125
0.18026747
0.011414031
0.029545838
0.21395332
-0.032393478
-0.08792339
-0.23617744
0.067358606
0.1328379
0.018305784
-0.06406234
0.023702793
0.03926262
0.22278507
-0.15500458
-0.067582734
0.16138993
-0.1259004
0.038828395
-0.11539816
0.1258426
-0.21045469
-0.10723661
0.07749576
-0.17092228
0.0808746
0.059793886
0.0956672
-0.08088051
-0.21540226
-0.17916769
-0.18322483
-0.2913931
0.012503545
-0.07429755
0.22625864
-0.022376934
0.0077872407
-0.16427217
-0.16642964
-0.07158511
-0.037977625
-0.019648291
-0.06417948
-0.09934903
-0.19726495
-0.1547923
-0.011181779
0.040460512
-0.012630546
-0.04608924
-0.121989384
-0.28305715
0.068700634
-0.012835904
0.1856271
0.063081004
0.0189234
0.10667331
-0.022161135
-0.08265229
0.15106401
-0.17948082
-0.16712786
0.01137787
0.07005748
-0.11335259
0.04668556
0.201614
0.18100609
0.107940145
0.007928372
0.029126424
-0.10145646
0.098795384
0.05800995
0.14528084
0.10812689
-0.13738385
-0.074658886
-0.12822175
-0.07753094
0.03722609
0.10466744
-0.12386741
0.14992785
0.060280778
-0.090508446
0.253305
0.04726053
0.009883504
0.038486972
0.14467417
-0.16696392
0.24632958
0.12300042
-0.20590647
0.2094941
-0.052409407
0.1338603
0.15971811
0.011157618
0.025040593
0.051721904
-0.11535759
0.15612747
0.09663948
-0.100984365
-0.090893134
0.09096389
-0.28506655
0.13661559
0.10910516
-0.15293927
-0.048908543
0.12381368
0.2279611
-0.027137132
-0.065361165
0.19887845
0.123240806
-0.10532926
-0.10420062
-0.10717089
0.012044917
0.059346788
-0.047968328
0.05528488
0.23747918
0.06450077
-0.06946912
-0.1350471
0.051849153
0.17320706
-0.12604897
-0.013836512
0.09408576
0.17368989
-0.02629307
-0.07752376
0.15793616
0.12368518
-0.10539977
-0.026729498
0.011529215
-0.054030288
-0.0896219
0.007268195
0.109830596
-0.11817672
-0.054337375
-0.053831223
0.13192846
-0.0017034976
-0.014386739
-0.11095557
-0.082743965
-0.1708427
-0.026790181
-0.009022788
-0.10724256
-0.09465374
0.0954167
-0.20240612
0.114702575
0.08807321
0.013721926
0.051899083
0.15518723
0.054815125
-0.029248001
-0.22234204
0.018982204
-0.16265045
0.057020314
-0.022100989
-0.1489876
-0.13435015
-0.0020209677
-0.1877306
-0.011740832
-0.054843746
0.007445169
-0.35468856
-0.026768351
0.1575966
-0.20021391
-0.09847872
-0.11309512
-0.103507794
0.094306424
-0.06308366
-0.052836057
0.056457177
-0.027161926
-0.07965863
0.1467014
-0.04182911
0.10868853
0.030623797
-0.015155468
0.00070024346
0.05215284
-0.065423645
-0.057346277
0.1228755
0.013069826
-0.1289772
-0.19458611
-0.09348735
0.15679218
0.02635029
0.009178878
0.19314831
0.009535761
0.00146413
0.07377502
0.10354266
-0.093459025
0.0030337411
0.02130448
0.07224387
-0.11683617
0.06666626
0.19877432
0.11221676
0.00487981
-0.0021016975
0.14320037
-0.03271348
-0.04711867
0.19025773
-0.05438102
0.025468439
-0.068655215
-0.019126268
-0.12578273
0.0054044416
-0.07473422
-0.086344264
-0.0051236167
0.16666026
0.13454065
-0.037982985
0.18391111
0.034536883
-0.08459132
-0.10572691
-0.033882037
0.19558188
-0.0037370026
0.012220198
-0.029739315
-0.07746919
0.0016670923
-0.12414927
-0.1290747
-0.14313543
0.09253951
-0.16731644
0.06980039
-0.18488711
0.055894013
-0.12137974
-0.036072508
-0.113990456
0.071554005
-0.06147587
-0.08213916
-0.011074468
0.017172009
-0.14850251
0.10741023
-0.19087146
-0.03547688
-0.0006138772
-0.12158708
0.22914077
0.0019096873
-0.06598236
0.047694672
-0.051596086
-0.039036613
-0.083962455
0.13380101
-0.0013114975
-0.08319047
0.11544257
-0.043358523
-0.007883959
-0.15807717
0.063521914
-0.07687494
0.01754925
0.04655918
0.088692605
0.03856405
-0.070161395
-0.14494294
0.15330099
-0.23380959
0.11777493
-0.07398798
0.23632944
-0.062651716
0.16690141
-0.07411121
0.03315562
0.07098894
-0.02159464
-0.0022402247
0.015519102
0.16027075
-0.07766424
-0.002783975
0.11197247
-0.02433828
-0.032623522
-0.020687053
-0.058327816
-0.030491112
-0.027321147
0.024392847
0.014962409
-0.14619964
0.012572723
0.13170548
0.09136177
0.18690832
-0.09910793
0.050934743
0.059662066
0.058899112
0.15083812
0.049773846
-0.00029085577
-0.13510819
0.10572788
-0.20667483
-0.17194639
-0.058788747
-0.07779346
0.057264544
-0.016841514
-0.002453929
0.04418128
0.028481493
-0.040167373
-0.13557604
-0.03843495
-0.006083755
0.027842935
-0.156775
0.12601234
-0.05231316
0.068998314
-0.09442739
0.22960176
-0.1357371
-0.02748813
-0.08225721
0.061612256
-0.081451304
-0.15240668
-0.018409846
-0.07780851
-0.0011394117
0.11558115
0.112550095
0.021774847
0.018887177
0.12778933
0.04545995
-0.11177374
0.1208051
0.1555563
-0.008790902
0.14600468
-0.060676828
-0.008331952
0.18319447
0.06234153
-0.078262486
-0.37264597
-0.092198804
0.05807032
0.00051664264
0.14945795
0.11966941
-0.04831904
-0.0973287
-0.099866234
0.05200796
0.0034883092
0.009382231
0.14205135
-0.0960564
0.028464373
0.048608616
-0.17510377
-0.124633774
0.12116758
-0.3059836
0.18669848
0.024447985
-0.035457365
0.03401954
-0.27529022
-0.18918148
-0.05981606
-0.1008727
0.046493985
0.022366984
-0.056179043
0.029560085
0.09139968
-0.110565655
-0.087085955
0.102479085
-0.0887305
-0.16162817
-0.06042586
-0.048167102
-0.1438926
0.23942567
-0.06896747
0.056543317
0.12346741
-0.06752215
0.12749495
-0.05890619
-0.081069425
-0.009958755
-0.24645336
0.07920542
0.05708676
0.107651666
-0.18955863
0.09862715
0.13095567
0.11264299
-0.14229459
0.04088043
0.1758637
0.14112382
-0.08378524
-0.06719247
-0.040617343
0.07290211
0.0122366445
0.11341904
-0.0011321451
-0.20473735
-0.11150342
-0.16709925
0.19073321
0.10066136
0.08641826
0.09317741
0.11067114
0.054745182
0.013402728
0.04575522
-0.106560275
-0.03907133
0.09651663
0.013514145
0.03637333
-0.1772489
-0.057882246
-0.053943485
-0.109249845
-0.0022593748
0.10214582
0.16482568
-0.17977771
0.09978931
0.11771496
0.08004881
0.053936474
0.038340844
0.039935626
0.0017230504
-0.047950882
0.16741534
-0.22998714
-0.09434974
-0.08347045
0.07343445
-0.03420358
0.02331289
-0.031217575
0.16505642
-0.12040265
0.12016181
0.17858489
0.059606068
-0.04224595
-0.1450565
-0.230456
0.107931316
-0.11141146
-0.106478274
0.051811513
0.03314716
-0.20099664
-0.033363685
0.047399502
0.08544687
0.05917524
0.045179002
0.108719654
-0.07800402
0.018808912
-0.18704204
0.046481375
-0.1569186
-0.013023562
0.03222588
-0.22242314
0.12056412
-0.04160023
0.097336866
0.0044748415
0.059760932
-0.03390428
0.01698515
-0.0063660056
0.18650058
-0.08135164
0.05382625
0.05243563
0.07695078
0.12939347
-0.11566715
0.088948205
0.042985376
0.12225545
0.15410437
0.12001092
-0.0034808994
-0.068982564
0.105764754
-0.03867183
0.28525168
0.05422317
0.064447016
0.12387174
-0.1421045
0.028085181
-0.17106985
0.003660429
-0.03278594
0.024101134
0.027841344
0.08747115
0.09607631
0.030446453
-0.018017516
0.09819134
0.088691466
-0.12072119
0.0034823793
0.09727498
-0.09141255
-0.08141079
0.022739863
-0.12411781
-0.12856804
-0.00861526
-0.15914565
0.018928686
-0.19106159
0.090043955
-0.021207878
-0.1294894
-0.031110927
-0.20897405
0.19300875
0.1197374
-0.02892271
-0.11816285
0.08186577
-0.047375932
-0.0947289
0.064628996
-0.00038840188
-0.098453686
0.07383747
0.016935408
0.086328864
0.13294937
0.0090718325
-0.003410719
0.19166538
-0.0066080904
0.0018537182
-0.21779767
0.11452624
-0.07463737
0.07762161
0.15859596
0.2032145
-0.15565269
-0.09809148
-0.0031352127
-0.17548472
0.1729365
-0.10430225
-0.11520719
0.095851794
0.10931295
-0.22198091
0.062298633
-0.13976483
-0.024935389
0.12993726
0.06947048
0.007772546
0.19221537
-0.1907571
0.1690264
0.01018758
-0.15446958
-0.0058872737
-0.051131498
-0.16675356
-0.16782902
0.1610273
-0.085087724
0.053539924
-0.026101751
0.07922057
0.035627626
-0.079480134
-0.1232138
-0.15868825
-0.159267
-0.25974137
0.0845049
-0.124488644
-0.10071759
-0.041477725
0.20754132
-0.05215607
0.056539275
0.092975274
-0.23236443
0.0019084956
0.15747066
0.025111092
-0.06081581
0.002671673
0.03303031
-0.1423989
-0.08770564
-0.03803597
0.07699565
-0.1731523
0.066886276
-0.14883296
0.117892586
0.0452321
0.04231389
0.006634106
0.11103551
0.13498305
0.07486969
-0.16743729
-0.0039430154
0.047967445
-0.22841881
0.12645893
-0.06175816
0.17412996
0.15922832
-0.14984044
-0.022775382
-0.059630986
0.10804692
-0.21990827
-0.021392794
-0.04304725
0.16045186
0.058554217
-0.08780992
0.037970047
-0.0015264307
-0.03989565
0.06486325
-0.03950899
-0.11595085
0.15250044
0.09758605
0.0875213
0.17284484
-0.1124018
0.20906493
-0.0547748
-0.05544986
-0.014373782
0.035111755
-0.19094852
0.01970191
-0.1514394
-0.11044157
-0.19122848
-0.021028368
-0.13934706
-0.16783842
-0.047599863
-0.05342156
0.034959164
-0.017247487
0.11902869
-0.11162789
-0.09157882
0.0065406435
0.067288436
0.29228768
-0.114671245
-0.30383548
-0.20354277
0.11347106
0.0581718
0.09008635
0.14302902
-0.13097236
0.04312877
-0.10784795
-0.04643561
-0.11335014
0.0702239
0.04405362
0.021956645
0.04440724
0.27659032
-0.122953705
-0.085078694
0.15366527
0.08786617
0.11438762
-0.15048498
-0.082567185
-0.013942867
-0.09469193
-0.09246671
0.043995414
0.1453088
-0.14898883
0.1259712
0.09572713
-0.015309789
-0.15486649
0.17693774
-0.26846343
-0.07469598
0.17984077
-0.043482404
0.090984926
0.1650465
-0.102092065
0.064482085
-0.119740605
-0.13193895
-0.07845217
0.33256134
0.065965414
-0.11041765
0.08078192
-0.13181351
0.0121182855
-0.105483815
-0.03233269
-0.07332008
0.06295659
-0.13277131
0.14738414
0.010028182
0.03572692
0.024974454
-0.034065068
-0.18316796
-0.29420716
-0.146881
-0.08885604
-0.059179686
-0.06991254
0.10545853
-0.10593786
-0.034200698
0.075075135
-0.08903894
-0.1295575
-0.15709272
-0.08463437
-0.1812252
0.32638836
-0.085752085
-0.16385742
-0.076616846
0.049756583
0.042336497
0.046372633
0.11012507
-0.1449397
-0.025246281
-0.18362904
-0.14914407
-0.09807143
0.011900727
0.10680589
-0.031573515
0.032784835
-0.12948261
-0.10961194
-0.12049675
0.15208611
0.06333493
0.011645965
0.058129616
0.12077287
0.282223
0.008603615
-0.038660232
0.106094286
0.1726224
-0.11547573
0.14527994
-0.18342659
0.13912512
0.15091729
0.07671034
-0.16568314
0.07591094
0.10235679
0.19122133
0.02204165
-0.044267226
-0.038300034
0.06463978
-0.01625905
-0.022584138
-0.070030846
0.14798954
-0.022225697
0.059669994
0.14450797
-0.13319759
0.11947094
0.117141336
-0.10205692
0.06330445
0.23894316
-0.013677905
0.12750159
-0.0010974224
0.05276395
-0.16234401
-0.13967001
-0.04884526
-0.0017834716
0.076635845
0.074846886
-0.14394008
0.082492694
-0.07765557
-0.030114004
-0.073116235
-0.017406445
0.08008775
0.038464945
-0.098827235
0.12619092
-0.13083398
-0.11690918
-0.058947835
-0.17536871
-0.09357651
0.08065298
-0.019817697
0.14170532
0.022898886
0.061389253
-0.25197566
0.18479057
0.16759619
0.10769637
0.097112924
-0.04242549
0.04756827
0.07104435
-0.1023388
-0.11570712
-0.12546958
-0.18318182
-0.018353201
-0.12147135
-0.06492279
-0.009019629
-0.084698364
0.035787538
0.008489571
0.016631754
-0.049256146
-0.10881658
0.07226613
0.18491018
0.074702926
0.08134688
-0.063467175
-0.14597301
0.1062465
0.083968274
0.0051004803
0.19267018
-0.1698341
-0.011103361
0.09815246
0.09351503
-0.050763417
-0.014149533
0.23285711
0.17101659
-0.09414056
-0.043832373
0.05293175
0.11581036
0.015044852
-0.015104116
0.13096641
0.10595683
0.18735749
0.02608175
0.009135937
0.071262896
0.022659486
0.23367411
0.22734782
0.056520056
0.09037817
-0.18547311
-0.08513928
0.0021321182
0.13282144
0.06375646
0.21867864
-0.056607783
-0.0045661083
-0.21587953
-0.004448534
0.12834519
-0.20607656
0.13735965
-0.06765926
-0.15557994
0.034076475
-0.10690503
-0.13406362
0.0019090843
-0.044309054
0.018905573
-0.06122308
-0.09285962
-0.07827601
0.022448549
0.14015993
0.059973527
-0.1237916
0.13517895
-0.046200506
-0.01097617
-0.14744465
-0.0794893
0.106725946
0.21540105
0.13402003
-0.014760765
-0.029180253
0.08157621
-0.07282836
-0.15986271
-0.0057101427
0.065986045
0.062452167
0.21439292
-0.009693009
0.101380944
-0.1536319
0.0015012433
-0.120915905
-0.14663875
-0.07850064
0.08803385
-0.00032770625
-0.04072959
-0.115186706
0.06479682
-0.0042134873
-0.0055948594
-0.0049749375
0.16773526
0.036418118
0.05441752
0.12431094
-0.09354757
-0.19052364
-0.05061357
-0.2565276
0.1158155
-0.0007835288
0.14428031
0.006290906
-0.03215514
0.07526207
0.11821262
0.1707522
0.105003364
0.05362225
0.2407114
-0.14018539
0.22290091
0.15386292
0.18832202
0.024128355
-0.0376499
-0.19581537
-0.021095362
0.07850035
0.16970642
-0.011864614
-0.061497074
0.22443321
0.13261922
-0.051378466
0.05442762
-0.09983755
0.13366571
-0.006431456
-0.24782635
0.20517696
-0.063795425
0.13819434
0.104778275
0.05385007
0.058621835
-0.055579428
0.1368172
-0.05674202
-0.28282708
0.08682114
-0.16391417
-0.06447916
-0.0150759965
0.020760255
0.18682945
-0.12319352
0.16659608
-0.013612935
-0.07122015
0.08114273
-0.12944557
0.09280133
-0.0063003213
0.13228007
-0.16125643
-0.047759358
0.0137866335
-0.0673586
0.010619174
0.15389976
-0.002904419
-0.11453421
-0.029473513
0.0889944
-0.1754131
-0.17046955
0.18728673
-0.13396838
0.026187155
-0.05660058
0.13191813
-0.12836085
-0.0064010797
-0.06877086
0.07245096
0.038073413
0.17586423
0.045259237
0.11418126
-0.0969202
-0.018421238
-0.057662696
0.013154986
-0.050725397
-0.03421035
-0.03962126
-0.12609828
-0.0677303
0.1138496
-0.020746725
0.046746343
0.237979
-0.2809522
-0.24731714
0.011617722
0.059989337
-0.20601454
-0.1609218
-0.26380023
-0.19467485
-0.030115755
0.14408936
-0.12368361
0.066797405
-0.08084784
0.06914721
-0.064685635
-0.083576106
0.10666099
-0.123225056
-0.036658987
-0.46338192
0.12656169
0.09123455
0.36923897
0.067892194
0.093615524
-0.046774976
0.16108166
0.029428931
-0.08480921
0.06835503
0.17696042
0.12159753
-0.042901993
0.017464047
0.104879886
-0.11236719
0.08154787
0.1565282
0.3385285
-0.047127645
0.06977458
0.0010375603
-0.11396867
-0.037632894
-0.05709183
-0.15662573
-0.1424361
-0.13780232
-0.04815607
-0.08953976
0.22923535
0.27689958
-0.0054875347
-0.14560536
0.09389147
0.01216548
0.08350414
-0.048248287
-0.114238806
0.12831159
-0.12939
0.0722104
-0.07198562
0.056726594
0.03641518
0.055150043
0.12578738
0.036039304
0.18345575
-0.004242892
0.13868923
0.087243035
-0.033871915
0.04753422
0.130604
-0.11933247
-0.009979354
0.085528634
-0.17411993
-0.271801
0.09745663
0.025961844
-0.29147094
-0.030052762
-0.05888103
0.15580958
-0.05410274
0.1422455
0.05424789
0.19935964
-0.013915596
0.18482475
-0.21095297
-0.009987812
0.109231
0.108847424
-0.08263206
-0.030281972
-0.17021842
-0.049629163
0.0362479
0.03921295
-0.041039035
0.06645711
-0.11375695
-0.10506176
-0.11120085
-0.1379612
-0.11076504
0.1611641
-0.1730917
0.08475413
-0.06986404
-0.11038045
0.013091243
-0.05364735
-0.12235831
0.047088433
-0.08375695
-0.00906488
0.12547119
-0.07964109
-0.107758015
-0.06485118
-0.066893026
0.014384835
0.08537482
-0.19049308
-0.25622022
0.23895569
0.113161445
0.16618444
-0.028072521
-0.05512548
0.054197345
-0.09396205
-0.0870628
0.092307664
0.10952065
-0.04490872
0.012551913
-0.0050459458
0.083281234
0.09351427
-0.057585757
-0.05977475
-0.104926296
-0.13238661
-0.006022276
0.11279365
0.1491587
-0.13691497
-0.07845048
-0.057134476
-0.045256816
0.0777763
-0.122575626
0.1189958
-0.121077776
-0.08249877
0.09271075
-0.07367811
0.076481655
-0.08808355
0.01727671
-0.07857286
0.07938949
-0.0892403
0.06348078
-0.11886563
-0.12565205
0.15607677
-0.07023183
-0.18116614
0.05532436
-0.15219355
-0.038084697
-0.10342316
0.10823115
0.17156324
-0.005049443
-0.06545938
-0.21506262
0.18646728
0.13630483
-0.1626633
-0.07786774
-0.0708372
-0.124144234
0.017054828
0.08173274
-0.13256526
-0.02220136
0.06672147
0.12761492
-0.044901762
-0.05924037
0.004490387
0.018786894
-0.13941725
-0.055920977
-0.02098296
0.078706585
0.058353506
-0.12187888
0.14055116
0.014107728
0.064669415
-0.05267346
-0.15782626
-0.0061418884
-0.032435093
0.124192305
-0.048606113
-0.007870954
0.15541321
0.08979893
-0.049942553
0.19417495
-0.08411535
0.100807145
0.124514714
0.0009509128
0.11056107
-0.19339447
0.08728068
0.1645577
0.16847825
-0.027397238
-0.13308084
0.0003871275
-0.17362301
-0.124016106
0.08495551
-0.0701689
-0.053828944
-0.061926328
-0.04563854
0.20255257
-0.045263126
-0.12504393
-0.08175806
-0.10685539
-0.12959416
-0.1742977
-0.050352905
0.07351802
0.062298056
0.09768218
-0.021826144
0.058961943
-0.050151836
-0.21620676
-0.11935054
-0.12502131
0.07012488
0.022755299
-0.050337575
-0.24032699
-0.032917082
0.052383795
0.031906106
0.064632155
-0.14831185
0.006410829
0.19779521
0.07427125
0.075726524
-0.22483377
-0.040000733
0.11526264
-0.065356076
-0.13728106
-0.011997356
0.019255055
0.08542576
0.014021163
-0.11344659
-0.008569637
0.024712387
0.105114736
-0.0863534
0.06923424
-0.0893194
-0.29925779
0.18713121
0.07274098
0.015871083
-0.10025863
-0.13693117
-0.112907276
-0.22504444
-0.19813389
-0.05854641
0.06890218
-0.06804641
0.20266801
-0.083424896
-0.1329592
0.13013795
-0.12852712
0.14459567
-0.118861474
0.06443019
-0.07105118
-0.09864216
0.037124526
-0.155073
0.09787301
0.085747555
-0.021721702
-0.14242344
-0.18103734
0.25054148
0.103939764
-0.14473516
0.15924884
0.0027388574
-0.11391035
-0.110321455
-0.2304182
-0.029934486
0.29148552
-0.022888226
-0.117759034
-0.24033412
0.058076248
0.15633602
-0.16652457
-0.14388734
-0.027436145
0.08072701
0.034180228
0.08725418
0.15036754
-0.18764786
-0.033083722
-0.0019799422
-0.085285984
-0.049777243
0.03251041
-0.1215317
-0.23000596
-0.0042246114
-0.023441035
0.016962416
-0.22000402
-0.019571755
0.027901962
-0.052430797
-0.1666542
0.16968551
0.10309293
0.13442972
0.14213698
0.07203458
-0.050097145
0.22814947
0.1211286
0.10676206
-0.21972065
-0.051166166
0.06018283
0.1537985
-0.016864276
0.13998048
-0.04273777
-0.07339487
0.013372056
-0.03058006
-0.038091354
0.17517708
0.01797901
0.087672904
0.023993183
-0.03465877
0.011240324
0.052366905
0.047960743
-0.027095707
0.08730015
0.09829991
-0.21209934
0.16008706
-0.03839915
0.04088608
0.081361786
-0.14653493
-0.16674823
0.0016224746
-0.0031601384
-0.011236004
0.05287581
-0.040317886
-0.036207367
-0.09256727
0.057853196
0.08657773
0.0014001031
-0.056045823
-0.19575393
0.12626612
-0.071491785
0.04736612
0.22241446
0.035228148
-0.17840765
0.068157405
-0.15474376
-0.15483084
0.11270195
-0.086219646
-0.012891169
-0.06707737
0.07178612
-0.040985648
-0.2091554
-0.013763137
-0.081421144
0.15410958
0.06038532
-0.13052838
-0.056283325
-0.08892757
-0.13920367
0.21974008
-0.03304529
-0.042589128
0.18216705
0.13800472
0.07228771
-0.0063930997
-0.21330667
-0.05827426
-0.2589416
0.15194708
-0.07896218
0.16772358
0.02970171
-0.13982645
-0.12764871
-0.090482146
-0.03281679
0.29607034
-0.19208416
0.20090489
0.023773273
-0.050062206
-0.18162513
-0.037937567
-0.13066097
0.124922566
-0.070949
0.05166357
0.09168659
0.05019203
-0.059626166
0.10957662
0.089007065
0.019591618
0.19020079
0.11973981
0.17667606
-0.03257479
-0.10592295
0.0018805611
0.17931786
-0.0108268475
0.011469767
-0.029630363
-0.0012113798
-0.14722386
0.07847712
-0.088895075
0.14050676
-0.08990299
-0.03208017
0.022180242
-0.040468816
0.076299846
-0.1058496
0.12861851
-0.11329015
-0.07512358
-0.16608508
-0.17322956
-0.1775618
-0.15447834
-0.10755702
0.14296107
0.06414703
-0.04946865
-0.017534783
-0.037515998
-0.16066012
-0.10805777
0.023030814
-0.023418639
0.14362912
-0.022935854
0.11601831
-0.11526621
-0.090343386
0.042394917
0.074132405
0.077061534
0.035631675
0.07450167
0.10041637
0.056698427
-0.013009956
0.017892139
0.16535194
0.14606702
0.01905233
0.16199663
-0.21559034
-0.14990117
0.052170053
0.11356175
-0.041923188
-0.027916273
-0.07484275
-0.19861816
0.15911674
0.10293176
0.093222536
0.06570257
-0.07727786
-0.02187738
0.021751158
-0.08727091
-0.10751033
0.0394926
0.0077209794
-0.05355875
0.04779374
0.16690327
0.04826303
0.08558459
0.044741314
-0.041735914
-0.061646227
-0.12287038
-0.0809758
0.12878348
-0.021353763
-0.011924771
-0.10972748
-0.15994377
0.0033686855
-0.0968083
-0.22347699
-0.010407049
0.029295914
-0.19417627
-0.018253105
0.03552935
-0.19387455
0.13782714
0.31966856
-0.09158355
-0.16498701
-0.0137032475
0.20026068
-0.28844008
0.20726782
-0.06673279
0.10306085
0.084182955
0.06869407
0.041033644
0.2736928
-0.1754513
-0.01002486
-0.014929299
0.064334646
0.13137004
0.16136849
-0.019983113
-0.11012924
-0.04120266
0.048125397
0.040406283
0.13143201
-0.00053855183
0.07507191
-0.04413431
0.14023149
-0.07175431
0.0021410116
0.016711496
0.23916844
-0.14306931
-0.10564426
0.03205964
-0.007784522
-0.09319162
-0.1635824
0.17443682
-0.003133256
-0.07337935
-0.1533568
0.11858754
-0.014940316
0.1713524
-0.14518474
0.0014608442
0.105084516
-0.1457302
0.18991144
0.024300167
0.09895813
-0.054445107
0.19290052
0.0525707
0.29070857
0.24834281
0.26898277
0.08704898
-0.08713833
-0.017685201
0.1831304
-0.08400504
0.10025796
0.1806679
-0.15848218
0.12735303
-0.13347568
0.32096085
-0.13537051
-0.049823564
-0.059214424
-0.062310465
-0.052296173
0.32349148
-0.23289588
-0.04468101
-0.058132622
-0.17159893
-0.02364531
0.08030099
0.07367255
-0.03926784
-0.18237542
0.10437946
-0.021133548
-0.102384254
0.06659088
0.053252067
-0.15039249
0.030961974
-0.11161815
0.051164515
0.09729604
-0.04955961
-0.053019594
-0.1071083
-0.15884493
-0.27902782
-0.096581675
0.08630353
-0.083150566
0.05572194
0.050109018
0.10004831
-0.037678514
-0.12564136
0.19442517
0.09926074
0.06435869
0.024025638
-0.09243792
0.16095026
0.08051862
0.069210105
0.12888896
0.04132898
-0.14595458
-0.05067555
-0.014560153
0.0203268
0.04575683
-0.0064161606
-0.19040668
-0.16360532
-0.21507475
-0.11112033
0.15142761
0.18420398
-0.10925072
0.15815647
-0.17872764
0.08319897
0.0649642
0.14621751
0.14846873
0.015460046
-0.14901035
0.0479675
-0.25798517
-0.10291633
0.041931536
0.092204414
-0.12741187
-0.054132454
0.028738143
-0.00652401
0.11248744
0.12729345
-0.024592286
-0.13805151
0.08024722
0.07969012
0.15247132
-0.012775968
-0.19817203
-0.021405874
0.004178499
-0.17942752
0.0042424924
0.045185104
0.04001421
-0.07307936
0.10268734
-0.0064130872
-0.18272962
0.114298955
-0.16349491
0.0025683783
-0.020567939
-0.091245405
0.14190504
-0.08517787
0.18887742
0.047878914
-0.0709838
-0.056423686
0.03966454
0.08056761
-0.12411221
-0.04809624
-0.16497192
-0.14263049
0.0809686
0.21270311
-0.2675171
0.0030837278
0.18210112
-0.074493386
0.13741243
-0.18720277
-0.08518012
-0.15340105
0.02756672
-0.045355383
-0.013749859
0.16645083
-0.18155397
0.012082982
0.11829195
0.036911972
-0.22043557
0.023378344
0.045162786
0.040162563
0.021870911
-0.15450446
0.083462335
0.19303162
0.114081964
0.04963876
0.0013540557
-0.0039692284
0.22070248
0.06307298
0.106597625
0.11924588
0.12985866
-0.11318818
-0.014296226
0.17988165
-0.13349627
-0.078984395
-0.039186742
-0.15066299
-0.12872276
-0.055193756
0.009752464
0.097085916
0.059132796
0.08290375
0.17118979
0.122421816
-0.10280144
-0.035787903
-0.01569502
0.028462501
-0.047304653
0.09000542
0.24222727
-0.14969215
-0.17194231
0.03943059
-0.021944199
-0.12207048
-0.14033337
0.15340117
-0.021189045
0.048487414
0.031991202
0.08553711
-0.052529555
-0.045589153
0.12259259
0.07787506
0.08663233
-0.12771687
0.22175507
-0.12303359
0.020920856
0.1960592
-0.09799507
-0.106467284
0.043231096
-0.044763863
0.01941098
-0.07665196
0.14228323
-0.11263747
0.05052361
-0.028484676
0.01615447
0.14282706
0.2236322
-0.055250563
-0.05162795
-0.1868757
-0.04879917
-0.07788681
0.12965511
-0.016649175
0.058044247
0.07299599
0.014845687
0.1402008
-0.093233205
-0.01711491
-0.08275393
0.018392656
0.0342409
-0.0026022447
0.0385091
-0.14938833
-0.0041499464
-0.0304264
0.23110603
0.09755644
0.1202064
-0.13771228
0.086961605
0.023807282
-0.060653463
-0.03339826
0.08796339
0.14313272
0.029460993
0.19562219
-0.07730545
0.0395662
0.11621017
0.09274937
-0.08915725
0.07088704
-0.075345926
0.04887023
0.053488273
-0.023944726
0.041315097
0.07915239
-0.10879006
0.009523722
0.12730278
-0.058286
-0.22943407
0.12583336
0.10133049
0.18089479
-0.031800833
0.06814002
0.05142045
0.1537058
-0.124982536
0.113801405
0.11120172
-0.13869606
-0.113109685
-0.035608005
0.015256799
0.037953936
-0.02127733
-0.03483021
0.06990795
-0.0025658489
0.06694076
0.020967657
0.1544828
-0.14984801
-0.19086733
0.005238333
0.04322496
-0.074930236
0.010959483
-0.06158382
0.1302311
0.12606016
0.06473492
0.0966968
-0.09326796
0.052152574
0.15285693
0.14527494
-0.006564801
-0.1482302
-0.25017503
0.05169416
0.10319516
0.08838141
-0.092482366
0.20432542
0.1347494
-0.07537992
0.09286819
0.15691037
-0.016756427
-0.13388899
-0.0039790664
0.13819376
-0.070315905
0.21483073
0.17212401
0.22923149
-0.039239593
0.114569165
0.09766357
0.13555793
-0.10323174
0.15067823
-0.105775
0.12299223
-0.018574819
0.0996054
0.018060163
-0.17578302
-0.042678636
0.13735372
-0.091096155
-0.060551602
0.13969783
0.15135017
0.22058153
-0.12515312
0.04841443
-0.048798025
-0.040015146
-0.0424537
0.061261643
0.0601962
-0.061230537
-0.019303136
-0.14448671
-0.12497237
-0.1700271
-0.067403644
0.122770734
0.008779334
-0.10814842
-0.08824899
-0.057664793
0.03904108
-0.061653927
0.122339405
0.013786721
-0.13475968
-0.22230151
0.15530096
0.1255623
0.16486248
0.062441394
-0.009540505
-0.05871846
-0.021206401
-0.017999291
-0.037725575
-0.13081428
-0.20520452
-0.019364009
-0.24515578
-0.019956363
-0.020699602
-0.022878088
0.030278228
0.01330875
-0.20628591
0.12259651
0.11036282
-0.017223723
0.06654102
-0.07661394
0.1865793
-0.036264222
0.09381747
0.15474579
0.1483706
-0.061771672
0.115506545
-0.15834314
-0.15001135
-0.1456982
0.019933986
-0.07291027
-0.08064647
-0.197287
0.061763573
0.163271
-0.11312476
-0.12542483
-0.001995987
-0.121253654
0.08627722
-0.35070404
-0.027820319
-0.025987735
0.051007092
0.049841084
0.072163776
0.14286712
0.12937029
-0.040947203
0.09626723
0.069802135
-0.09573995
0.035115775
-0.042915393
-0.03025366
-0.037306536
0.020383114
0.05682955
-0.066402026
-0.02728612
-0.06959563
0.114245065
-0.09398184
0.22779475
0.10359559
0.0821786
0.0057029026
0.011477126
-0.07378512
-0.02301826
-0.030903112
0.01484502
-0.18052238
0.15296549
-0.06541024
-0.18799706
-0.032041863
-0.16323295
0.030159341
-0.01946165
-0.21087115
-0.04632597
0.30095413
-0.20581846
0.04894778
-0.2965669
0.101031035
-0.010254417
0.14257509
0.050717
-0.025653677
0.1297662
-0.096528046
0.1316176
0.05206768
0.016893491
-0.06732968
-0.09896719
-0.18918245
-0.05422576
0.024666594
0.013676075
-0.102682225
0.03844166
0.23614895
-0.23180097
-0.089096114
0.040130902
0.06942296
0.068290085
-0.17180279
0.10827653
-0.022301532
-0.08504569
0.16992402
-0.069798976
0.17017683
-0.07018419
-0.11289305
-0.16048674
-0.069983944
0.10258794
0.024745878
-0.1344937
-0.095353864
-0.10781427
-0.08191562
0.089811556
-0.040328816
-0.18786049
0.0041576317
-0.15884776
-0.0029197934
-0.11366184
-0.14801338
-0.06882324
0.14823523
-0.10891111
-0.109099016
-0.15229975
-0.007057502
-0.08711605
0.027210025
-0.09301713
0.22563097
-0.022654112
0.024818456
0.15006864
-0.005820321
0.109771855
0.15521969
-0.10625893
0.036286883
0.1513587
0.120506674
-0.13288802
-0.16037568
-0.042048942
0.022857817
-0.06531743
-0.02125112
0.115419626
0.08365937
0.11513885
-0.12579082
-0.13367574
-0.12028171
0.037371587
0.0044394815
0.1641264
0.081995904
-0.12785044
0.07823091
-0.14235193
0.1553565
-0.103380874
-0.106399186
0.051818382
0.04692046
0.07035613
0.07497818
0.11843396
-0.037346233
-0.039762896
0.13519982
-0.14580986
-0.06682841
-0.1473667
0.09942035
-0.017918749
0.14078474
-0.086567804
-0.060400717
0.09696032
-0.084762625
-0.098609775
0.066520676
-0.028274741
-0.062424105
0.1048429
-0.019686546
-0.03915113
0.037468832
0.0019092953
0.11513256
-0.085263886
0.29710263
0.066756815
-0.012126496
0.26852736
-0.02155756
-0.021916792
-0.028496306
0.22791728
-0.15005895
0.009371427
-0.0060607954
-0.057987165
0.064314805
0.087307185
-0.0055355234
-0.06388907
0.015177605
-0.0036012232
-0.19619864
-0.19612871
-0.23208153
-0.04789712
-0.035443965
0.17679802
-0.0048270905
-0.073797055
0.0011708112
-0.022066984
-0.0112539
-0.03009932
0.1258665
0.023719495
-0.13084528
0.043984957
-0.20848563
-0.08489722
0.04915861
-0.20832029
-0.14229213
-0.3427516
0.034061186
-0.12191581
0.00959084
0.0035793225
-0.048956554
0.018702006
-0.023311444
0.022394877
-0.21269423
0.086539336
-0.120919265
0.13954735
-0.050860465
-0.20617023
-0.047654852
-0.19124861
0.05151007
-0.09071253
-0.1359636
-0.1168694
-0.08136543
-0.14236736
0.091085784
-0.052583195
-0.21048915
-0.18780755
0.030505138
0.0064089694
0.041735172
0.09289526
0.04683899
0.04125685
-0.062772445
0.08357885
-0.024766156
0.07930996
-0.2760192
0.117835246
0.07092798
-0.09874622
-0.05851131
-0.15011829
0.061359935
0.09701857
0.13329346
0.025094625
0.2396914
-0.024942242
0.07938991
0.12729503
0.22283828
0.0015007169
-0.03409329
0.16583782
-0.050041158
-0.10197842
-0.09417718
-0.071548715
-0.06905084
0.09906002
0.4757649
-0.12884289
-0.015844444
-0.116578884
0.005225804
-0.15773194
-0.12697864
-0.012513962
0.013931463
0.059342302
0.12137559
-0.12507458
-0.20476307
-0.07980026
-0.15587173
-0.0327737
-0.1651714
0.12987001
0.23102033
-0.09718688
0.01912872
-0.13372888
0.1704834
0.074948065
-0.004857765
-0.056793034
-0.048210155
-0.09125827
-0.23470247
0.030746344
-0.014752262
0.21888164
0.100166775
0.04219086
0.02023886
-0.07330007
-0.09410333
-0.08246133
-0.13099991
-0.1065613
0.14798906
-0.082099296
-0.066951916
0.24108106
0.10817592
0.12395306
-0.117757306
-0.07089382
-0.14705236
0.015668312
-0.046286687
0.033428423
-0.07754643
-0.3044807
-0.1157537
-0.02046837
-0.07652457
0.08275258
0.112265915
0.02552785
-0.15755364
-0.14845878
-0.06243439
0.15008985
-0.019522322
0.016581621
0.119864956
-0.13799217
-0.048555676
-0.05166459
-0.08751774
-0.13505685
0.015581938
-0.11566455
-0.2631806
-0.07279049
0.18063518
0.01551429
0.07690898
0.11590141
-0.07904276
0.013233454
-0.054517947
0.10161045
-0.18322907
0.024963155
0.16174375
-0.04972955
-0.10122781
0.1166795
-0.11133595
0.16819185
-0.0071115503
0.072182424
0.16754138
-0.19867896
0.029814785
0.098858595
0.1687564
0.017315155
-0.017219279
0.06644227
-0.063731454
0.004423782
-0.111934766
0.008763698
0.19897571
0.06652312
0.16736242
0.1301252
-0.06382474
-0.008589623
-0.061067607
0.11566786
-0.13743946
-0.082632326
-0.042612992
0.17503387
-0.29514897
0.04655451
-0.026353857
0.061637107
-0.259983
0.15731753
-0.17125504
-0.3083021
-0.06424602
-0.12978046
-0.19700368
-0.017639896
-0.021637727
-0.2738611
-0.09148983
0.060085937
-0.18033466
-0.03395371
0.008829526
-0.28449926
0.17848834
-0.070141084
-0.034358338
0.066358484
-0.026958575
-0.0006422472
0.030456347
-0.124561556
-0.18240115
0.12245649
-0.071272515
-0.13668366
0.030903459
-0.16262764
0.012003088
-0.14246991
-0.06605331
-0.07691568
0.0032475938
0.030098101
-0.017860314
-0.02155444
0.040048208
0.08934476
-0.19847843
0.051845722
-0.18546744
0.04801454
0.09529482
0.058257762
-0.062385507
-0.192294
0.052967668
-0.008634248
-0.110725865
-0.097883366
-0.046649627
-0.11707791
-0.18696779
-0.101594284
-0.09386144
-0.102766424
-0.0072898283
0.11765244
-0.18663453
-0.19193321
-0.099352136
0.09982637
-0.10047032
-0.03895882
-0.110082574
-0.055926148
-0.032681014
0.15664606
0.011275316
-0.050822917
-0.10379824
0.1757955
-0.12643133
-0.10683509
-0.11804088
-0.0168995
-0.05023057
0.03716751
-0.006872682
-0.2227452
0.16578907
0.06197018
-0.010409844
0.2450608
0.101068966
-0.058113657
-0.15700051
-0.1208339
-0.04232078
-0.06198363
-0.07243462
-0.13003697
-0.09774148
-0.109859124
0.060683668
-0.07641322
0.021334676
-0.18840101
0.12834267
0.26106942
0.09385726
-0.02214688
0.03753861
-0.07996883
-0.06258791
0.15424636
-0.061897688
0.110044144
-0.0073596477
-0.12053115
-0.023062896
-0.07478896
0.008787414
-0.09170631
0.19972274
0.1626879
0.077060185
-0.13504048
0.14646564
0.085442476
0.043348216
-0.1642286
-0.22754097
-0.16422212
-0.09256978
0.06542279
-0.12201339
0.17614475
-0.03153902
0.064121865
0.15068749
0.113339975
-0.24016358
-0.033221997
-0.0013400823
0.012796988
-0.16328079
-0.18516117
-0.07476275
-0.0037121675
0.11498116
0.099758506
-0.16403572
0.037032865
0.15120953
0.08057256
0.04342922
-0.041617773
0.02155933
-0.08241454
0.13658772
0.007218038
-0.111277476
0.0039445283
0.09065737
0.044477094
0.13884887
0.024908712
-0.06461039
-0.046871375
0.14997268
0.03166018
-0.12557688
-0.07409339
0.01723513
0.035910066
-0.11687901
-0.10096001
-0.09975867
-0.1234741
-0.11899349
0.16009042
0.026971722
-0.16289434
0.32455474
-0.27204195
-0.0038298387
-0.003642474
0.110634424
0.10263853
0.09844803
-0.16926216
0.08395363
0.23220776
0.1557195
-0.080039024
0.014806467
0.17540984
-0.20146455
0.012758883
0.23213063
0.038745634
0.11804816
0.08971059
0.26185432
-0.276848
0.2783437
-0.107861996
0.146368
-0.15102914
0.0906361
-0.026723348
0.088924296
-0.007944281
0.113123275
0.12760594
0.08920285
0.09073073
-0.3142067
0.033736173
-0.044382438
-0.17403086
0.02845219
0.16288863
0.2604971
-0.095340975
0.13291328
0.07660416
0.17741866
0.13058949
-0.065979004
0.01886463
-0.12590963
-0.14255795
0.03978822
-0.031834878
0.09693895
0.20245402
0.1398209
0.11211897
0.008920913
-0.04389462
-0.14265457
0.07162365
-0.08762285
-0.072560064
0.09475876
0.06169672
0.102043875
0.176557
-0.006055218
0.035744578
0.17451634
-0.15924789
-0.032720525
-0.2181848
-0.08839988
-0.08511185
-0.0030375898
-0.1456938
0.1626032
0.18626617
0.04341469
0.20422141
-0.050320413
0.09019549
0.09112874
-0.00241894
0.08608319
0.1890816
-0.19380413
-0.14422832
0.08311454
0.1718571
0.023856215
0.068427816
0.062545866
-0.0063164392
0.191375
0.024250407
-0.06656991
0.045581553
0.019743947
0.058588058
0.2526908
-0.12189807
-0.28331786
-0.033973128
0.094820306
-0.11849151
0.14325158
0.022693088
-0.007999091
0.24796797
-0.14033206
-0.2233141
-0.1754878
-0.15297866
-0.017486319
-0.2881773
-0.01406068
0.14579494
-0.13491091
-0.21073583
0.13333654
0.079506196
0.019347003
-0.055667028
0.13898672
0.09627402
0.13956672
0.024602052
0.07127305
-0.058282096
0.018065669
0.123669505
-0.050013904
0.06565871
-0.10727889
-0.17489113
-0.2456907
-0.047460336
0.04900993
0.09158511
-0.068213195
-0.10326314
-0.07481185
-0.12963185
-0.061785735
0.081415676
0.082647175
-0.059337582
-0.19644988
-0.06544299
0.19153337
-0.11589546
-0.045295652
0.08712015
-0.010463122
0.0044407267
0.09735307
0.15698263
0.12932181
-0.22893392
0.0350572
-0.11162611
-0.065292455
0.042716883
0.007643543
0.14385958
-0.14760582
-0.1274609
0.020656908
0.015165982
0.025053421
0.037208885
0.21851699
-0.14136118
0.13355686
-0.13665684
0.09411722
0.04931449
-0.15016149
-0.11840723
-0.1758357
-0.0483837
0.14598155
0.17095959
-0.05154989
-0.12209224
0.1904629
-0.27511904
-0.032913733
0.008236095
0.165494
0.12694502
0.1654875
-0.115079805
-0.08085049
0.039256614
-0.06406782
-0.089010775
0.019539587
-0.102504455
0.07637536
0.1658403
-0.1901931
-0.030080052
0.05179547
0.17074794
-0.15076828
-0.0574665
0.06486055
-0.15917943
0.036498576
0.10173314
0.052131243
0.18671863
-0.057414185
0.05172027
-0.12073093
0.15433608
-0.11649987
-0.06226115
0.061379135
0.010482906
-0.0054437825
0.21952216
-0.017561099
-0.01482879
-0.1348337
-0.108424835
0.0824662
-0.19365616
-0.32630095
0.051236033
-0.00015733282
0.016943855
-0.051825736
0.05903621
-0.04549105
-0.11759826
-0.041866872
0.06183911
0.22471368
-0.06396325
0.12660782
0.16033244
0.022904264
0.12228599
0.018879272
-0.011916211
-0.09085918
0.096383095
-0.083743736
-0.105774604
-0.0076464047
0.10079209
0.028202208
0.06347848
0.12063799
0.061741527
-0.01571441
-0.1835354
0.15983602
0.07304526
-0.058062047
-0.10778314
0.025804847
0.03618236
-0.08302202
0.08799881
-0.03351988
0.041679785
-0.005946152
-0.090918355
-0.14335255
-0.038757708
-0.08784546
0.09482691
-0.15300643
-0.09873348
-0.20431653
0.027866993
0.27058762
-0.14805011
-0.08928496
-0.20108011
0.14525151
-0.09338181
0.05059008
-0.04804911
0.069353275
-0.11454023
0.123197705
0.044786587
0.09511222
0.14874576
-0.07634737
0.12349367
0.090448044
0.122671984
0.02727099
-0.014908698
-0.17876697
0.0017499438
-0.061031446
0.086310886
-0.23859712
-0.030100184
-0.036855355
0.039151706
-0.19240837
-0.185831
-0.12953147
-0.09331329
-0.02321439
-0.090383895
-0.009311712
-0.11078923
-0.05747605
-0.20290765
0.112943605
0.10765758
-0.10929654
-0.090899386
0.056098618
0.05229433
0.044356287
0.124067985
0.060264573
-0.13400817
-0.018152844
-0.029544668
0.036776703
-0.09673613
0.037027374
0.10200604
-0.05265155
-0.06980308
-0.03868281
0.09239222
0.10224234
-0.17903316
0.0054166215
0.15017588
0.05606861
-0.013493741
-0.25425267
0.05893321
-0.015789352
-0.07811586
-0.036902815
-0.08905163
-0.042916726
-0.06504197
0.16353314
-0.15370402
-0.13758978
-0.06642413
0.040822048
0.15347643
0.109697565
0.09893858
-0.037200354
-0.1769648
-0.18680081
0.087690115
0.002737106
0.056288768
-0.14376023
-0.008860046
-0.17501715
0.05536413
0.03921394
-0.007082945
-0.21437913
0.059083622
-0.12286025
0.025866186
0.16891345
0.1928276
-0.025109924
-0.09286206
0.01347637
0.028031519
-0.07265503
0.030926913
-0.051498543
0.02184244
-0.21401839
-0.17590322
-0.17470169
0.025407119
0.069310054
-0.03784281
0.12258311
-0.08306987
-0.08593964
-0.13081037
0.10970057
0.109389134
0.096496925
-0.0065698717
0.20184974
0.1694068
0.13242513
0.13399607
0.07790009
0.16580652
-0.027268117
0.13475324
-0.1747829
-0.22264926
-0.03858843
0.16839458
0.046891708
0.08761829
-0.11484172
0.15653503
-0.11523864
0.009171744
0.15547822
-0.07893178
0.10714846
0.038233355
-0.14237393
0.1563456
0.06845702
0.19178495
0.027906297
0.10366925
0.12126962
-0.11885716
0.048924055
0.13983992
-0.117731415
0.09308466
0.18127266
0.13310626
0.21696128
-0.17414452
-0.12362485
0.019326208
-0.12028856
-0.08743095
0.14927123
-0.075027265
0.019509397
-0.16012856
-0.10697771
-0.006398006
-0.129304
-0.064623766
-0.051918678
-0.07775249
-0.2990398
-0.11412362
-0.08875964
0.070397995
-0.17683811
0.05583287
-0.13880236
0.16861586
0.15723638
0.18395649
0.20939292
0.10287965
0.023347802
-0.09723589
-0.04061894
-0.08792052
-0.14843345
-0.03114531
-0.052285656
-0.18899913
-0.107948795
-0.0032195034
0.040060386
0.26361182
0.008142567
-0.13947278
0.09519432
-0.015848054
0.15879717
-0.051287327
-0.14703313
0.020931581
-0.13553548
0.0032099385
-0.23568693
-0.007143451
0.12282944
0.046749752
0.01436892
-0.07624097
0.10275784
-0.096600905
-0.13778079
0.015458198
-0.028428594
-0.21614327
0.006896034
-0.15411118
-0.011210936
-0.1226901
0.1296246
0.06097294
-0.11854066
0.15206769
0.022228839
-0.11388825
-0.07685038
0.06563485
-0.022863748
-0.059163395
0.1286489
-0.008900681
0.13793543
-0.051321037
0.08144794
0.14928395
0.025400244
0.03808921
-0.024512233
-0.15877369
0.19063424
0.081414536
-0.14895321
0.027057286
0.032022297
-0.084230915
0.15669149
0.048369016
-0.11607218
0.00908838
-0.14437553
0.0388703
0.079240106
0.053136915
-0.04296367
0.079594076
0.056112055
0.09625338
-0.052173708
0.049275544
0.18549897
0.08382054
0.008897815
-0.10141214
-0.069066584
-0.027590772
0.0705555
-0.12378638
0.11091752
0.19128162
-0.08213705
0.13425088
-0.28972757
0.006890325
-0.11525437
-0.1382647
-0.2569837
0.009580783
0.20360793
-0.062916055
0.016956389
-0.0010229999
-0.01886122
-0.17132291
-0.1832578
-0.058669373
-0.067086235
0.055605676
0.28654286
-0.20113692
-0.050115112
-0.08927555
0.18722296
0.022256566
0.007545329
-0.010292778
-0.01195913
0.10151367
0.020529138
0.10563959
0.11751787
0.23331675
-0.056810644
-0.047584232
-0.32183316
0.0067274133
0.15266123
-0.01869441
0.049543656
0.011710284
-0.035762142
0.040645655
-0.12144977
0.056725435
-0.05090128
0.13826828
0.016605427
-0.029721545
-0.0024923636
0.00822095
0.04095426
0.06428082
0.18644595
0.044317134
-0.24846643
-0.0049650804
0.067181736
0.05148295
-0.17391
0.044177447
0.085132495
0.03217907
0.27550903
-0.06655998
0.12839644
0.092909664
-0.07137423
-0.08983965
0.015272569
-0.019211117
0.0900043
-0.09564053
-0.12128053
0.0137124555
-0.06893115
0.030182578
0.103347704
0.016642405
0.20364635
-0.20864955
0.1169012
0.013912254
-0.13806462
-0.21211377
0.038085427
0.02642765
-0.067477204
-0.08502116
-0.04945096
-0.28866234
-0.06347713
0.19689564
0.13830751
0.08457294
0.11015245
0.027372627
-0.16039337
-0.15602253
-0.019914618
-0.12650871
-0.10206549
-0.10904514
0.028955055
-0.14147292
0.21252832
0.04783259
-0.024890376
-0.04280939
0.13303284
0.077491686
-0.15207787
-0.0998505
-0.043838628
-0.102834545
0.1003836
-0.0392632
0.09001304
0.010725032
-0.06574444
-0.03256161
0.052354086
0.083677754
-0.07694015
0.04148406
-0.054892078
0.021451548
0.19209905
-0.12591305
0.112783074
0.009682982
-0.013631325
-0.066269785
-0.04406168
-0.017727122
-0.14036004
0.1099629
0.011576184
-0.036571752
0.038551096
0.037522566
-0.120694235
-0.17732035
-0.15848282
0.1788477
-0.06871604
-0.13888867
-0.15749109
0.089357816
0.06653873
-0.22372141
-0.015733734
-0.045359258
-0.009375932
0.120556235
0.13886128
-0.025225507
0.19673745
-0.07117581
0.084972605
0.07645056
-0.12618934
-0.10756041
-0.15269457
0.04169458
0.069119014
-0.05536241
-0.16048315
-0.03870523
-0.29114404
-0.051474046
-0.089231245
0.13002269
-0.08910206
0.05155039
0.10820614
-0.019914743
0.09528425
-0.014838846
-0.24691877
0.098000556
0.063871525
-0.28509352
-0.11210106
-0.12324939
-0.15308845
-0.08980818
0.006401425
0.01155069
0.04984416
0.052914955
0.055341993
0.112888485
0.1483235
-0.005501747
0.28140008
-0.008632687
-0.022543607
0.105168894
-0.08852967
-0.028008658
-0.16158469
0.045696538
-0.07363125
-0.05946219
0.042883825
0.106728345
-0.05003449
0.008290116
-0.08883356
-0.08523823
-0.14087412
0.067493305
-0.031343237
0.011681346
0.30207673
0.06881918
-0.05102054
0.13250722
0.12532921
0.09937755
0.085506395
0.12898932
0.055621535
0.06635401
-0.12912504
0.08893026
0.14691947
-0.22410794
-0.13561845
0.055345956
0.033780083
-0.20807719
0.16426282
0.009362803
-0.20893879
-0.19422612
-0.2456705
-0.1310834
0.03623974
-0.10747354
-0.050028987
0.08574452
0.010222157
-0.05747356
-0.015604375
0.05010505
0.35393584
0.087979
-0.046657134
0.016796747
-0.023910236
-0.15228674
-0.046924666
-0.00037370762
-0.21347485
-0.098126344
0.24779353
-0.05727914
0.020987693
-0.07273187
0.018372366
0.15511295
0.09661291
-0.048761155
-0.19345693
0.1940479
0.10696051
-0.020214194
-0.005452931
0.009609836
-0.17072758
0.067900605
-0.11735586
-0.09482527
0.15201874
0.10691624
0.19131358
-0.034213554
-0.0967765
0.14592332
-0.07403354
-0.1390311
-0.0302339
-0.098929636
-0.12732883
0.0033161086
0.047215953
-0.006840692
0.08059575
0.20519854
0.07528701
0.20389569
-0.056582283
-0.10135343
0.087832406
0.07558221
0.15546419
0.0954766
-0.08920215
-0.05521014
-0.06705069
0.0058014905
0.120746545
-0.01660956
-0.061082445
-0.088666454
-0.11954862
0.11399406
0.055564974
0.051509645
0.15495895
0.044507425
-0.099965796
0.13416189
0.2294433
-0.03544822
-0.13704735
-0.13791433
0.04874245
0.08749195
0.045206767
-0.030572983
0.28466085
0.11559559
0.0753977
-0.025205415
-0.10077199
0.20850712
-0.12580289
-0.18047269
0.13871239
0.18141599
-0.007027246
-0.08991623
0.28536123
-0.12762983
0.0056249695
0.1366338
-0.059131622
0.03329194
-0.0020239386
0.028217193
0.011552702
-0.04670943
-0.13695593
0.12152072
-0.1343794
0.01362218
-0.16757204
0.10177964
0.08045493
0.07827192
-0.09714338
-0.03534933
0.09691439
-0.049133558
0.22343832
0.22734444
-0.048964553
-0.084778436
0.09624448
0.042449202
-0.05047286
-0.079586856
-0.092857026
0.026963739
-0.009248626
-0.11514234
0.012222239
0.04584107
0.11952814
-0.05192577
0.18952878
0.23699604
0.21591957
0.21070662
0.0050465195
0.14668964
-0.033977777
-0.18677276
-0.03415378
-0.03310074
0.087670565
0.18926185
-0.056399275
0.02020001
0.0076144473
0.17080486
-0.13677782
0.2743099
-0.009553347
0.097709216
0.032570723
-0.13364959
-0.043219883
0.16732925
0.12840104
0.0032639275
0.17841387
0.11907015
0.014345337
0.17163162
0.09726996
0.12941904
-0.005235412
-0.05752849
0.021752663
0.20603533
0.14259647
0.0045724385
0.012590631
-0.17870519
0.02234042
-0.26044825
-0.029688371
0.21778148
-0.08951615
0.07910449
0.1758079
-0.01930909
0.09112697
0.07652608
0.19685292
-0.023870068
-0.069890976
-0.012995325
0.10580123
0.013696237
0.033195693
0.012917163
0.18745647
-0.051062822
0.060399093
-0.08683245
-0.35703456
-0.077823676
-0.24660246
-0.01917416
-0.032608222
0.08010862
-0.01288837
-0.098032765
0.10628631
0.024309823
0.058060654
-0.07900348
-0.06539863
3.6472076e-05
0.10413188
0.1930859
-0.29885885
0.15515347
0.14793965
0.10723868
0.07160243
0.25857767
-0.030663468
0.035928108
0.19670285
-0.043191314
-0.059749763
-0.0055762543
0.0033000438
-0.1302356
0.11606477
-0.05693616
0.18951292
-0.0646181
0.08433031
-0.08656784
-0.14118443
0.26187313
0.06927778
-0.009992536
0.09659039
-0.016624251
0.16860853
0.055550903
-0.09813014
0.034603056
0.0784851
-0.04345171
0.15908438
0.067523755
0.0068670292
0.2626924
0.038643867
-0.078982204
-0.07154501
-0.19351928
-0.036067445
0.005074908
-0.10246086
0.047669027
-0.24196422
0.17352036
0.031531174
0.1897944
0.17884362
0.096800365
-0.063155234
0.023380082
-0.042346727
-0.074425735
0.19938345
0.0013326262
0.0968603
-0.20695649
-0.08228546
-0.0213703
0.11576355
0.06704992
0.17735235
-0.08803973
0.25607702
-0.0879085
0.15330328
-0.14019887
0.12093077
0.21873607
0.18037152
0.01651091
-0.06692673
-0.18806276
-0.2600052
-0.022035494
0.033022035
0.0035344204
-0.09372541
-0.10967018
0.0029169056
-0.062058028
-0.061894376
0.03803546
-0.17654064
0.070395574
0.064625986
-0.16146253
-0.04668926
-0.08502302
0.030780056
0.05863925
-0.23401299
-0.038091656
0.2624203
-0.07954104
-0.0039503323
-0.09469169
-0.21816264
-0.047696874
-0.1339663
-0.10449323
-0.13091697
-0.069726855
-0.24473105
-0.114509515
-0.10716055
-0.040556442
-0.048239343
0.07646782
-0.020979619
0.045423426
0.11568449
0.038259134
-0.16866432
0.13636309
0.03631946
-0.08377101
-0.00196405
0.023933621
-0.08519927
0.042505957
0.07402118
0.030386895
-0.047023907
-0.051620845
-0.028972117
0.024378877
0.14048027
-0.0480917
0.23735622
0.12502871
0.09153427
-0.21625927
0.0057252985
0.12348055
-0.047410317
-0.108835876
0.13629709
-0.03151404
-0.04557521
0.19890003
0.0483029
0.13391118
0.052734468
0.11495025
0.041875385
0.050030377
0.041951902
0.037110616
-0.11317513
-0.14755896
-0.15390797
0.09602812
0.06490542
0.16966674
0.036339767
-0.081911884
-0.08050231
0.109069645
0.08065587
-0.055220436
-0.16447908
0.1303148
0.08418906
-0.13245009
-0.026702492
0.0683098
-0.14053768
-0.04127944
-0.185309
-0.025474206
-0.07351446
-0.005091616
0.027902829
-0.15928933
0.17753765
-0.05318348
-0.19052535
-0.08720543
-0.15191391
-0.103120506
0.017846888
0.1535458
-0.001312908
-0.1921648
-0.0397552
-0.1913505
-0.059772562
0.09543368
0.020559346
0.010687386
0.07404316
0.11599218
0.03592343
-0.07397437
-0.07817838
0.10692274
0.28715113
0.12985937
0.23034522
0.10286195
-0.14490919
-0.09002716
-0.057070903
-0.07877084
0.11176118
0.179851
0.16182289
-0.13496135
0.105147384
0.018987456
-0.07650292
-0.16835171
-0.21369931
0.1552911
0.20463595
-0.06919436
-0.05625789
0.07293085
0.09207107
0.0107141435
0.0149473585
0.05615929
0.109923184
0.005560525
0.107763134
0.26218036
-0.0096468255
0.13590004
0.06678823
0.16127597
0.10496107
0.06697867
-0.16380197
0.0804711
-0.022293374
0.019797724
0.037551373
0.054582708
0.17618424
-0.09560737
0.08592336
-0.13902265
0.029116008
0.09687939
0.25170308
-0.03082774
-0.08478056
0.05691033
0.053712565
0.054629184
0.026946899
-0.08018256
-0.12953378
-0.15148847
0.048460077
0.0116232
0.0864898
0.14528142
0.077591375
-0.05528645
0.10739324
0.07791474
-0.16247113
0.014779697
0.12699938
-0.20583463
-0.15390785
-0.10303531
-0.061982773
-0.015124144
-0.21434568
0.078855574
-0.22935
-0.01214744
0.063890584
-0.017966988
-0.2623151
-0.039258957
-0.0038207276
-0.16891555
-0.034201648
0.0053560557
-0.29551044
-0.12906666
0.03840768
-0.20761704
-0.0660195
0.0831727
-0.028838443
0.12013004
-0.0010885962
0.072100826
0.14265832
-0.044650696
-0.15551643
-0.0040405947
-0.07319083
0.02647843
-0.116128474
-0.032287493
-0.22312504
-0.09176776
-0.005272731
0.03735833
-0.14068428
-0.02423119
0.100090556
0.16184828
0.06348514
0.15558983
0.13559963
-0.020863114
-0.0882341
0.2085603
0.0014844784
-0.099139504
-0.15366933
-0.109766036
-0.050109748
-0.047952607
-0.106665894
-0.19136977
-0.024502425
0.0138151385
-0.007704839
-0.12256911
-0.048473224
0.09594886
0.03724172
-0.059593532
0.12145364
-0.1983153
-0.08601007
-0.01811776
0.1364887
-0.024294205
-0.19153865
-0.034441743
-0.1213084
0.1937034
-0.23295358
0.047645617
-0.09346388
-0.15590623
0.099717095
0.10154092
-0.23919417
-0.050360736
-0.111363284
0.052770335
-0.11349067
-0.049310993
-0.00058740086
-0.019636
-0.048839644
0.2844048
0.17946573
-0.05076027
0.037873045
-0.010790546
0.03892421
0.002373741
0.14487995
-0.07676554
-0.10125625
0.0027375342
-0.031567287
0.06878662
0.006172681
0.19653066
0.22038117
0.1376304
0.10316906
0.09374746
0.0831217
0.113737226
0.008122894
0.2709151
-0.112743974
-0.07381295
0.07129323
-0.08852759
0.09965221
0.09194399
0.09809284
0.19742112
-0.13906801
-0.10004135
0.035569794
0.13567421
0.17996237
-0.08997126
0.15825306
0.19052054
-0.17373337
0.12840019
0.10058651
0.022700563
-0.023857577
-0.03337619
0.06815984
-0.073120214
-0.05176409
-0.21604897
-0.011441282
0.18893841
-0.16828999
-0.038359057
-0.050195515
0.006808677
-0.27860555
0.032680422
0.12579629
0.10686227
-0.19165316
0.082819045
-0.08924626
-0.14853527
0.10520643
-0.022356514
0.18942557
-0.064360216
-0.033219714
-0.21876526
0.0431461
0.16122268
0.08976537
-0.01628037
0.17087856
0.025716307
0.102123484
0.012182155
0.10416885
0.13694774
-0.11108486
-0.057978142
-0.11107126
-0.24192566
-0.21074376
0.11597454
0.07260706
0.11011808
-0.11176811
0.17428914
0.11377527
-0.051841557
-0.0829704
-0.12375401
-0.29596022
0.20169409
-0.06733494
-0.11657819
-0.26824877
-0.21009709
-0.09175731
-0.21309288
0.07485567
0.13847041
-0.11729061
-0.06200796
-0.21530566
0.06485109
0.10389879
-0.081424356
0.07796235
0.037241627
-0.026355162
-0.011615024
0.13833968
0.048190463
-0.0637522
-0.22295526
-0.022956776
-0.12676822
0.059214864
0.04299922
-0.047379892
-0.13360757
-0.16447033
-0.1803266
-0.07134541
-0.029060919
-0.27914262
0.16317108
-0.2810672
0.019350085
0.11742238
-0.0016520481
0.001622102
-0.16865222
-0.12930365
0.039860528
0.1486871
-0.09653157
0.074054286
0.034288093
-0.038553834
-0.054768197
0.08293384
-0.18296343
-0.1190121
0.16201928
0.12838255
-0.0069452417
-0.08841467
0.10536575
0.011251132
-0.045460932
-0.065934174
0.038169973
-0.009189524
0.026411148
0.094385125
0.117517486
0.1455138
0.08867636
0.018268742
-0.0229669
0.024920631
-0.029767094
0.020753734
-0.11582241
0.117615245
-0.18120396
0.03770794
0.11842144
-0.009701776
0.007909453
-0.02384477
0.14072618
0.07219425
0.14816315
-0.27935085
-0.021421421
-0.036545645
-0.014935092
-0.33732638
0.12256355
-0.101731025
0.13690008
0.09783505
0.12312096
0.056052815
0.17454971
-0.105700165
-0.10382039
-0.15290144
0.055086456
0.12480944
0.0748246
-0.08631672
0.04532707
-0.03746124
0.037109368
-0.06443391
-0.12518635
-0.017052608
0.0032156708
-0.002157924
0.0140991835
-0.037482236
0.09116124
0.15410572
0.072463565
-0.12322666
0.03664054
-0.066854745
0.2284515
-0.109721586
0.1686464
0.02799554
0.0016248666
-0.036629144
-0.10281035
0.14093862
-0.08282998
-0.25781542
-0.0139337955
-0.09749312
-0.021098178
0.104955964
0.11350846
0.17234264
0.19600965
0.009694726
-0.22340286
0.061380114
0.0551692
0.012291319
0.03203176
-0.019676927
0.04938342
0.049346875
-0.21997973
0.19914748
0.19974652
-0.042086318
-0.034195486
0.05400419
-0.0027038043
-0.15205668
0.008411885
0.07703302
-0.044080038
0.23883303
0.113326184
-0.048077837
0.121147715
0.046572875
-0.21498153
-0.032999367
-0.0718437
-0.07791733
0.21795158
0.1939981
-0.15317664
-0.04974279
0.23683241
-0.08875736
0.15508439
-0.0112669505
0.19175927
-0.014373522
0.11605472
-0.17895305
-0.05239271
0.19762634
-0.031405073
0.20643419
-0.0950636
0.029511133
-0.0005053798
0.16597432
-0.1082637
-0.27229106
0.098030314
0.1806487
0.22559458
0.16249377
0.038818747
0.11318836
-0.12011944
-0.106056474
0.20189045
0.18695104
-0.051486604
-0.14829202
-0.3284728
0.034411814
-0.07715507
-0.032599125
0.115838625
-0.012080635
0.06801651
-0.24722701
0.07970186
0.12224594
0.024001135
0.07794056
0.10651981
-0.025958825
0.0062812017
-0.120852605
-0.08202615
0.075324
0.08650798
-0.1270823
0.004093348
0.22598912
0.039025743
0.075873196
0.10128076
-0.2431296
-0.027759954
0.11234305
0.10500387
0.0011883016
0.07461321
0.06300795
-0.015659401
0.16479944
0.19104041
-0.017111707
0.14068992
-0.11729321
-0.24721612
0.10882806
-0.04015635
-0.07101217
-0.020094099
0.07468312
0.1863191
0.022783266
0.14722155
-0.1339712
-0.22812395
0.092801884
0.08223139
-0.082351096
-0.069750816
-0.05576157
-0.2057926
0.14181377
-0.0071857427
0.10114424
-0.044259343
-0.15371744
-0.1667109
-0.01780018
0.12884445
-0.16655348
-0.03689982
0.08731636
-0.12447599
-0.00539106
-0.22420044
0.08472107
-0.07306273
0.10573983
0.014125032
-0.0015702303
0.050870914
-0.022232728
-0.1006153
0.052478
0.02591646
0.06291479
0.17916344
-0.17919967
0.0038251588
-0.07005387
-0.19633222
-0.16672319
0.08455427
-0.0557932
-0.057764214
0.05886671
-0.006282326
0.09940393
0.016017646
-0.18883461
0.14343874
-0.00016740992
-0.12571076
0.1337012
0.03982404
0.088063784
-0.05628092
0.14330891
0.11972043
0.048526708
0.027320482
0.019334566
-0.009989111
-0.19572842
-0.32827464
0.04157218
-0.17770675
-0.16351967
-0.14659984
-0.22649948
-0.09405376
-0.083373025
-0.105762824
-0.06451132
0.037076894
-0.188431
0.07625533
0.19723085
-0.13725092
-0.20236473
0.024776844
0.14385843
0.12370446
0.07433619
0.033612695
0.34701392
0.0592307
-0.08923471
-0.15155953
-0.115193084
-0.044390325
-0.15184586
0.06791863
0.15607962
-0.17835206
-0.06971306
0.02931776
0.11612672
0.0979112
-0.09384246
0.14305815
0.14230856
0.014679507
0.092239656
0.09137024
0.14107516
-0.17032704
0.1879772
-0.000108298154
0.09530969
-0.17830706
0.032015536
0.001828889
0.054872405
-0.1252689
-0.04567814
0.13109684
-0.06923384
-0.026699688
0.019134533
0.026778119
-0.009253043
0.004742257
0.045242906
0.06448156
-0.038070608
0.19386807
-0.09491964
0.24357855
0.24065904
0.029160485
-0.111196294
0.0056929532
0.11142697
0.26644233
-0.21139564
0.15544705
0.13587454
0.059084192
0.19689362
0.21635714
0.05715221
0.0051868
0.26520893
0.21525882
0.025413806
-0.18582273
0.08893924
0.10103163
0.15983115
0.1298334
0.08551333
0.23539409
0.12700106
-0.015747063
0.079925686
0.14222474
-0.078077346
0.009547513
0.14891121
-0.060048785
0.070973285
-0.046492286
-0.1465129
-0.100741185
-0.009345237
0.1698791
-0.07512009
-0.120041
0.04283507
0.10008716
-0.17800187
-0.018458266
0.07369848
-0.051395614
-0.022287821
0.23451608
-0.1308438
-0.04549393
-0.2009725
-0.2241842
0.20095329
0.05381892
0.009268226
0.029803025
0.08469582
0.14363086
0.11390372
0.00091876753
-0.1292666
0.1436162
0.12251345
0.112867065
-0.015956713
0.065438524
-0.029326327
0.056083266
0.11057051
0.1035892
0.120812476
0.11949265
0.09648677
0.24301457
-0.04890922
0.14079799
-0.19078325
0.015101537
0.15976188
0.17034778
-0.011382369
-0.117755964
0.111167096
-0.021596
0.21466196
0.13022624
0.014104418
0.13375828
0.065566264
-0.038600802
0.16301087
-0.008661325
-0.17391796
0.09860028
-0.030345501
-0.1604848
-0.06101708
-0.0063146106
-0.041780613
0.018582897
-0.06864446
-0.011807419
-0.052884337
-0.014119051
-0.22166114
0.10553085
0.079569645
0.17562026
-0.09294079
0.034405142
-0.003364674
0.09049105
0.013663669
0.03679601
-0.18422227
0.048575792
-0.1054413
0.058476
-0.12186468
0.119205765
-0.12914543
0.020122332
-0.15020774
0.06107043
-0.036283065
0.13163689
-0.034058228
-0.076892614
-0.19316566
-0.12528223
0.028623106
-0.07988201
-0.04821059
0.035676897
-0.1267723
-0.080654874
-0.0691747
-0.07745757
0.00063191267
0.16729413
-0.06888252
0.02400183
0.20409395
-0.14070022
0.15191844
-0.06279099
0.1541972
-0.08484795
-0.19056942
0.14094321
0.18454039
0.10638988
-0.21859415
-0.107942425
0.08658748
-0.053617183
0.061482146
0.10987478
-0.1629511
0.20193128
-0.020857215
0.09707826
-0.19069555
-0.014482478
-0.062247343
-0.012694998
0.13134238
0.099074855
0.08919424
0.06994471
0.020502023
-0.0838745
0.030698588
-0.00018035343
0.145642
-0.08124691
0.07844943
0.090951875
0.1647505
0.070450045
-0.07255235
-0.114954
0.02560804
-0.17758673
-0.013335297
-0.019308178
0.15292273
0.03233425
-0.064257815
0.07909906
-0.09390285
0.06131991
-0.06518607
0.17635107
0.1280631
0.052945424
0.018579077
0.060381494
0.06072668
0.024905892
-0.01287043
0.037198264
0.021340834
-0.046707638
0.11864156
0.08658263
-0.17601362
-0.047877554
-0.09680361
-0.03899757
-0.08516332
-0.081439644
-0.059913885
-0.050419465
0.014509337
-0.041011922
0.17524168
0.0841893
-0.22128677
-0.052944805
-0.09914204
-0.0042921323
-0.12016891
-0.01310516
-0.04852936
0.092296086
0.076949775
-0.036832977
0.008810093
0.12710586
-0.07203939
0.08249254
0.07545707
-0.056711957
-0.23323114
0.18395829
-0.14204879
-0.14936726
-0.11738899
-0.04876686
-0.13041146
0.007982122
0.095494494
0.04502101
0.049066704
0.13367233
-0.17616312
-0.053184427
-0.05650972
-0.18325087
0.0076453686
0.025871517
0.008089553
-0.0018888114
0.118528746
-0.02654033
0.05500771
-0.012192471
-0.04841564
0.18151815
0.00012066483
-0.025117116
0.21064919
0.0019004052
0.071235746
-0.10834571
-0.13998902
-0.14578995
-0.13876827
-0.15145493
-0.1750507
0.036252055
0.0541548
-0.114347726
0.076965235
0.09870679
-0.046005636
0.04324532
-0.023470258
0.09287018
-0.046788257
-0.071190365
0.041670058
0.06329248
0.115678534
-0.04029105
0.049746756
0.056119304
0.11615774
-0.12036063
-0.04915472
0.10565956
-0.10992352
0.07741292
0.1063235
-0.051060937
0.03386609
0.08651112
-0.109811805
-0.0068940446
0.119489565
0.1602958
-0.018097512
0.2553226
-0.25922343
0.10860598
-0.075878836
-0.029745184
0.03370481
-0.14069515
-0.0058714794
0.17929222
0.018424297
-0.24904458
-0.03532199
-0.0070211184
0.07438332
-0.003124844
0.122064754
0.056097623
0.18239565
-0.009996343
-0.109643504
0.25823802
0.096564226
-0.013389059
-0.11484328
-0.0064471625
0.057245594
0.13664329
0.09595351
-0.11507743
-0.019345941
-0.06191022
0.06910871
0.030876953
-0.031874377
-0.088444434
0.12597251
0.041892994
0.080427594
0.18280087
-0.09976896
-0.016643938
0.06962624
-0.086586975
0.029859966
-0.02311365
-0.28629115
0.26728752
-0.0600293
-0.00899797
-0.06509972
-0.12001695
0.11434774
0.06707344
0.06565703
-0.06858853
-0.16638938
0.077708416
0.066843085
-0.097850375
0.20484728
0.1388888
0.0544522
-0.050719913
-0.042268828
0.0014935272
0.22202574
0.119587
-0.014624566
-0.10780776
-0.012411716
-0.08814789
-0.1743247
-0.06989314
-0.11808968
-0.06596101
-0.04419275
-0.10597216
-0.16739728
0.13463971
-0.017618332
-0.0964929
0.059370328
0.14621623
0.076615706
-0.018613504
-0.088526614
0.15594856
0.20471603
0.029274879
-0.13981992
-0.15731253
0.05141965
0.0027089363
-0.09769227
0.04177147
-0.0553196
-0.05732238
-0.0010472209
0.08158375
-0.14365512
0.24987803
-0.058829743
-0.10318145
-0.19452377
0.20111449
-0.036625855
0.08039911
0.12341977
0.17273891
0.048845552
0.025961712
-0.3238437
0.21078002
-0.13888015
0.27011147
0.047880925
0.124548696
0.032353356
0.08543808
0.041047275
-0.008845975
0.19661081
-0.064440824
0.2211206
0.047424123
-0.122767486
-0.17659113
-0.049047783
0.22402647
-0.048936628
0.04868657
-0.020812837
-0.1589338
0.21484719
-0.044017628
-0.15254869
0.21844068
-0.05530158
0.10542113
-0.014062815
0.08295259
-0.1514527
0.051882125
-0.0451968
-0.09099788
-0.11935932
0.07018637
-0.07771634
0.046443205
-0.17771523
0.024025178
0.056906223
-0.07324858
-0.16365296
0.0060748477
-0.07906031
0.008419853
0.2902041
-0.0044755316
-0.047936577
0.06662422
0.1497858
-0.12381968
-0.0014103003
0.19763577
0.20948438
-0.021453984
-0.12159293
0.085939474
0.15197386
0.059316956
0.0034109664
0.11568976
-0.035865493
0.07047271
0.05862803
-0.1066371
0.032339342
0.025256393
-0.1991008
-0.35142747
0.20442389
-0.24786577
-0.12289944
-0.07398738
0.055015337
0.04176243
0.2543642
0.1279907
0.11936652
0.17067125
-0.13277116
0.18818527
0.17275295
-0.19166218
-0.034617636
0.07988517
-0.17108835
0.08875163
-0.024164192
0.09933623
-0.10976512
-0.048429117
0.016814772
-0.03078281
0.092392385
0.013815258
0.03267492
-0.030138545
0.033989858
0.11994762
-0.089002274
-0.07225415
0.0015264639
0.13949636
-0.14758235
0.15834458
0.055293433
0.07172326
-0.06335752
-0.1378657
0.030310746
0.018744739
0.122015156
0.014141316
-0.1702816
0.0896117
-0.14419496
-0.17535983
-0.27733147
0.03092367
0.07179231
0.03395301
0.02775366
0.0027042837
0.1940676
0.14082737
-0.13067316
0.09284809
-0.13051206
-0.03800164
-0.12284051
0.04587887
-0.051744036
-0.09595636
-0.011009924
-0.15236814
-0.009180279
-0.07762307
-0.14245592
-0.063332334
0.0967399
0.001458126
-0.09724748
-0.25173795
-0.055599887
0.015074767
0.09663895
-0.14700407
-0.04258979
0.062171258
-0.08995157
-0.10631049
0.24816132
-0.01686865
0.04336949
0.015555359
0.08526642
-0.026590016
0.15048659
0.13396478
-0.09515438
-0.29325885
0.009299444
0.049664114
-0.033236284
-0.044987876
0.009867706
0.17606987
-0.24313377
0.12239085
0.15330622
0.04606125
-0.10206771
-0.04901965
-0.1782457
0.16740896
-0.023495328
0.16236365
0.1785767
0.21293123
0.007511651
-0.06289805
-0.16652162
0.21677501
-0.22285298
0.041231252
-0.12230952
0.08872511
-0.050047193
0.02787143
-0.12188156
-0.029337345
0.15729775
-0.12187229
-0.002970239
-0.24332228
-0.225461
0.074330285
-0.26753083
-0.30771333
-0.07707821
0.15877807
-0.0022834577
0.17996763
-0.05914461
-0.099804625
0.22336699
0.009689152
0.21150406
-0.2808048
0.03529987
-0.015615245
-0.16727626
-0.28921282
-0.051503792
-0.0043935715
-0.037500285
0.120633006
-0.05766561
-0.08762884
0.02317994
-0.07692731
-0.027136376
-0.025629163
-0.11470664
-0.0018158928
-0.11802576
-0.11754304
0.10077648
0.11239131
-0.02284804
-0.11851778
-0.01771155
-0.20525827
-0.026816417
-0.104056284
0.12101274
-0.03774217
0.016706219
0.05024413
0.10296533
-0.071354285
0.13416268
-0.032872785
-0.013530234
-0.055696566
-0.034657232
0.010697131
0.014434023
0.057069626
-0.014347355
0.16453077
0.011553308
0.05932918
-0.1586252
0.07748874
-0.1307488
0.02524898
-0.046200864
0.07567533
0.011679819
-0.010703273
-0.3440764
-0.19959672
0.048934184
-0.047440507
0.13506322
0.055343445
-0.08358647
-0.06940868
-0.09446001
-0.062436264
-0.18305442
-0.14662524
-0.06596647
0.07764299
-0.123143226
0.014185569
-0.1484428
-0.014059007
0.09615088
0.103691295
-0.16503853
-0.14265774
-0.022634419
-0.29461327
0.11341621
-0.0768402
0.1280537
-0.07302639
-0.04832798
0.042279907
-0.21657391
0.09211716
-0.020255841
0.06432076
0.073225304
-0.009236258
0.16543505
-0.067614995
0.08267909
-0.11283096
-0.13018563
-0.04027067
-0.055692304
0.14315777
0.14279146
0.17544155
-0.14000005
-0.15468964
0.18948479
0.17056794
-0.09781833
0.22888261
0.041731924
0.08783202
0.0021858846
-0.14647508
-0.10186378
-0.11588855
-0.14624378
0.12202565
-0.0877946
-0.005420845
-0.08454707
0.027401019
-0.15837412
-0.07340135
0.16253111
0.13835847
-0.16115768
-0.04555294
0.12153502
0.011182474
-0.0050929394
-0.11531517
0.1270227
0.14048167
0.038975935
-0.08027496
-0.057943545
0.15986761
-0.041805856
-0.110159665
0.21294218
0.11715269
-0.029049175
-0.107679844
-0.07173545
-0.15538193
0.049969018
0.0028554613
-0.14881565
0.077627726
0.14616401
-0.023643797
0.03151176
-0.0074473224
-0.12522884
0.25699574
0.119299285
-0.07365561
-0.030266933
-0.016937554
-0.06723733
0.054021895
0.11997883
0.071341686
