{
 "n_classes": 5,
 "n_features": 16,
 "n_trees": 25,
 "max_depth": 5,
 "init_predict": [
  0,
  0,
  0,
  0,
  0
 ],
 "norm": 1,
 "library": "xgboost",
 "splitting_convention": "<",
 "feature_map": {
  "f0": 0,
  "f1": 1,
  "f2": 2,
  "f3": 3,
  "f4": 4,
  "f5": 5,
  "f6": 6,
  "f7": 7,
  "f8": 8,
  "f9": 9,
  "f10": 10,
  "f11": 11,
  "f12": 12,
  "f13": 13,
  "f14": 14,
  "f15": 15
 },
 "trees": [
  [
   {
    "feature": [
     15,
     9,
     3,
     3,
     15,
     15,
     15,
     15,
     14,
     15,
     2,
     3,
     3,
     2,
     2,
     15,
     3,
     14,
     2,
     15,
     14,
     15,
     14,
     9,
     2,
     15,
     15,
     15,
     14,
     2,
     14,
     -2,
     -2,
     -2,
     -2,
     -2,
     -2,
     -2,
     -2,
     -2,
     -2,
     -2,
     -2,
     -2,
     -2,
     -2,
     -2,
     -2,
     -2,
     -2,
     -2,
     -2,
     -2,
     -2,
     -2,
     -2,
     -2,
     -2,
     -2,
     -2,
     -2,
     -2,
     -2
    ],
    "threshold": [
     0.327233225,
     0.967892349,
     -0.343565553,
     -0.412659496,
     -0.410804152,
     0.973015964,
     1.66492593,
     -0.410804152,
     0.419954985,
     -0.733695507,
     -0.679580212,
     -0.705119491,
     -0.59995693,
     1.25521004,
     1.50064707,
     -0.825950205,
     -0.705119491,
     -0.23354733,
     0.629845023,
     -0.918204844,
     -1.26304531,
     -0.0879127979,
     -0.148766726,
     1.04951608,
     -0.234359622,
     1.29590726,
     1.48041666,
     0.973015964,
     2.12718225,
     0.967059076,
     2.12718225,
     0.0,
     0.0,
     0.0,
     0.0,
     0.0,
     0.0,
     0.0,
     0.0,
     0.0,
     0.0,
     0.0,
     0.0,
     0.0,
     0.0,
     0.0,
     0.0,
     0.0,
     0.0,
     0.0,
     0.0,
     0.0,
     0.0,
     0.0,
     0.0,
     0.0,
     0.0,
     0.0,
     0.0,
     0.0,
     0.0,
     0.0,
     0.0
    ],
    "value": [
     43169.4688,
     11468.8477,
     33304.7578,
     3683.11523,
     8184.85498,
     1948.12891,
     10805.0049,
     4093.68359,
     583.880859,
     703.299927,
     1384.00098,
     2678.11133,
     295.171875,
     3221.97729,
     4709.59375,
     446.634766,
     591.995972,
     110.0,
     466.879639,
     72.2904053,
     97.8865204,
     982.572266,
     229.591232,
     390.714844,
     439.70874,
     62.7539062,
     276.404297,
     3063.49438,
     1083.48535,
     468.955078,
     1906.7804,
     -0.492783576,
     -0.23405464,
     0.451424688,
     0.00776416622,
     0.065654166,
     -0.59623009,
     0.0306939706,
     -0.455642641,
     -0.486167192,
     -0.274377704,
     -0.167863518,
     0.176560372,
     0.7742576,
     1.42870343,
     0.370427281,
     -0.518885911,
     1.4705658,
     1.94571841,
     1.04235756,
     0.388154626,
     2.04700589,
     2.26109529,
     1.47339439,
     2.0759666,
     -0.096242398,
     0.750167429,
     -0.469238579,
     0.607647955,
     1.8457619,
     1.26586699,
     0.0207044147,
     1.23276472
    ],
    "children_left": [
     1,
     3,
     5,
     7,
     9,
     11,
     13,
     15,
     17,
     19,
     21,
     23,
     25,
     27,
     29,
     31,
     33,
     35,
     37,
     39,
     41,
     43,
     45,
     47,
     49,
     51,
     53,
     55,
     57,
     59,
     61,
     -1,
     -1,
     -1,
     -1,
     -1,
     -1,
     -1,
     -1,
     -1,
     -1,
     -1,
     -1,
     -1,
     -1,
     -1,
     -1,
     -1,
     -1,
     -1,
     -1,
     -1,
     -1,
     -1,
     -1,
     -1,
     -1,
     -1,
     -1,
     -1,
     -1,
     -1,
     -1
    ],
    "children_right": [
     2,
     4,
     6,
     8,
     10,
     12,
     14,
     16,
     18,
     20,
     22,
     24,
     26,
     28,
     30,
     32,
     34,
     36,
     38,
     40,
     42,
     44,
     46,
     48,
     50,
     52,
     54,
     56,
     58,
     60,
     62,
     -1,
     -1,
     -1,
     -1,
     -1,
     -1,
     -1,
     -1,
     -1,
     -1,
     -1,
     -1,
     -1,
     -1,
     -1,
     -1,
     -1,
     -1,
     -1,
     -1,
     -1,
     -1,
     -1,
     -1,
     -1,
     -1,
     -1,
     -1,
     -1,
     -1,
     -1,
     -1
    ]
   },
   {
    "feature": [
     14,
     15,
     14,
     15,
     15,
     15,
     3,
     15,
     15,
     9,
     15,
     6,
     3,
     7,
     5,
     15,
     15,
     5,
     3,
     15,
     2,
     2,
     3,
     3,
     0,
     15,
     1,
     15,
     6,
     1,
     14,
     -2,
     -2,
     -2,
     -2,
     -2,
     -2,
     -2,
     -2,
     -2,
     -2,
     -2,
     -2,
     -2,
     -2,
     -2,
     -2,
     -2,
     -2,
     -2,
     -2,
     -2,
     -2,
     -2,
     -2,
     -2,
     -2,
     -2,
     -2,
     -2,
     -2,
     -2,
     -2
    ],
    "threshold": [
     -0.318706959,
     -0.364676803,
     -0.0325209349,
     -0.964332163,
     0.234978557,
     1.01914322,
     0.0432821624,
     -1.28722358,
     -0.641440809,
     1.12048888,
     0.696251929,
     0.526207387,
     -0.498567998,
     -0.263879776,
     0.999237716,
     -1.47173285,
     -1.1488415,
     -0.615833759,
     -0.834967554,
     0.00434187427,
     -0.951876163,
     -0.837918282,
     -0.669800401,
     -0.343565553,
     0.156496882,
     1.24977994,
     0.44222042,
     0.0965965465,
     1.89235008,
     0.203254417,
     1.2456429,
     0.0,
     0.0,
     0.0,
     0.0,
     0.0,
     0.0,
     0.0,
     0.0,
     0.0,
     0.0,
     0.0,
     0.0,
     0.0,
     0.0,
     0.0,
     0.0,
     0.0,
     0.0,
     0.0,
     0.0,
     0.0,
     0.0,
     0.0,
     0.0,
     0.0,
     0.0,
     0.0,
     0.0,
     0.0,
     0.0,
     0.0,
     0.0
    ],
    "value": [
     68070.8516,
     29954.3633,
     1718.63477,
     3627.32812,
     3241.89648,
     264.949615,
     1181.83398,
     366.832031,
     610.962891,
     484.233887,
     432.112976,
     165.509033,
     40.531189,
     268.689453,
     1291.52686,
     28.8847656,
     58.3476562,
     82.7109375,
     128.989746,
     196.394043,
     206.312286,
     243.402802,
     92.6263428,
     96.3870697,
     155.774261,
     2.77349854,
     19.8540802,
     85.8964844,
     71.7062988,
     486.192383,
     355.838379,
     1.89833248,
     1.76296091,
     1.62037241,
     1.47061038,
     1.13246548,
     1.30532873,
     0.766853929,
     1.00093067,
     0.610061765,
     0.316181123,
     0.0850002542,
     0.518094242,
     -0.196093813,
     0.140411064,
     -0.409820855,
     -0.186125204,
     0.0599429943,
     -0.244230404,
     0.0791098997,
     0.611807704,
     -0.409717172,
     -0.564475477,
     0.112359546,
     -0.277821928,
     -0.601757586,
     -0.483992338,
     -0.468433499,
     -0.268229604,
     0.132162914,
     -0.249538273,
     -0.24110505,
     -0.551573515
    ],
    "children_left": [
     1,
     3,
     5,
     7,
     9,
     11,
     13,
     15,
     17,
     19,
     21,
     23,
     25,
     27,
     29,
     31,
     33,
     35,
     37,
     39,
     41,
     43,
     45,
     47,
     49,
     51,
     53,
     55,
     57,
     59,
     61,
     -1,
     -1,
     -1,
     -1,
     -1,
     -1,
     -1,
     -1,
     -1,
     -1,
     -1,
     -1,
     -1,
     -1,
     -1,
     -1,
     -1,
     -1,
     -1,
     -1,
     -1,
     -1,
     -1,
     -1,
     -1,
     -1,
     -1,
     -1,
     -1,
     -1,
     -1,
     -1
    ],
    "children_right": [
     2,
     4,
     6,
     8,
     10,
     12,
     14,
     16,
     18,
     20,
     22,
     24,
     26,
     28,
     30,
     32,
     34,
     36,
     38,
     40,
     42,
     44,
     46,
     48,
     50,
     52,
     54,
     56,
     58,
     60,
     62,
     -1,
     -1,
     -1,
     -1,
     -1,
     -1,
     -1,
     -1,
     -1,
     -1,
     -1,
     -1,
     -1,
     -1,
     -1,
     -1,
     -1,
     -1,
     -1,
     -1,
     -1,
     -1,
     -1,
     -1,
     -1,
     -1,
     -1,
     -1,
     -1,
     -1,
     -1,
     -1
    ]
   },
   {
    "feature": [
     2,
     3,
     15,
     3,
     14,
     2,
     2,
     15,
     14,
     12,
     14,
     15,
     14,
     2,
     14,
     15,
     10,
     3,
     15,
     15,
     14,
     3,
     12,
     14,
     2,
     11,
     11,
     14,
     14,
     15,
     11,
     -2,
     -2,
     -2,
     -2,
     -2,
     -2,
     -2,
     -2,
     -2,
     -2,
     -2,
     -2,
     -2,
     -2,
     -2,
     -2,
     -2,
     -2,
     -2,
     -2,
     -2,
     -2,
     -2,
     -2,
     -2,
     -2,
     -2,
     -2,
     -2,
     -2,
     -2,
     -2
    ],
    "threshold": [
     0.54855758,
     0.0579616167,
     1.89556265,
     -0.657144666,
     0.266657978,
     1.37971056,
     1.57861257,
     -0.595313489,
     0.229030043,
     0.2400897,
     0.687599182,
     1.06527066,
     2.02801132,
     1.21549332,
     2.12718225,
     -1.05658686,
     0.771782219,
     -0.146388784,
     0.188851222,
     -1.24109626,
     0.0121410042,
     0.147420868,
     -0.875951648,
     1.88159752,
     0.967059076,
     -0.338065982,
     0.217226982,
     1.0086149,
     1.85811198,
     2.77198195,
     0.887658477,
     0.0,
     0.0,
     0.0,
     0.0,
     0.0,
     0.0,
     0.0,
     0.0,
     0.0,
     0.0,
     0.0,
     0.0,
     0.0,
     0.0,
     0.0,
     0.0,
     0.0,
     0.0,
     0.0,
     0.0,
     0.0,
     0.0,
     0.0,
     0.0,
     0.0,
     0.0,
     0.0,
     0.0,
     0.0,
     0.0,
     0.0,
     0.0
    ],
    "value": [
     153772.0,
     5478.71484,
     8229.13281,
     1475.44922,
     1335.01135,
     5348.50781,
     2251.42432,
     47.15625,
     1686.96191,
     196.807861,
     637.538025,
     1930.54883,
     2918.4375,
     196.023773,
     1509.5957,
     4.35644531,
     20.0556641,
     7320.73047,
     108.637695,
     29.1506348,
     34.415535,
     505.609619,
     82.9053421,
     549.492188,
     419.624756,
     971.4375,
     2117.17847,
     111.200897,
     193.547821,
     324.293945,
     620.116516,
     -0.611747622,
     -0.587483406,
     -0.516986907,
     -0.564561307,
     -0.405180395,
     0.690925956,
     -0.589388609,
     -0.441772252,
     -0.254237264,
     1.9058435,
     -0.265760183,
     0.889842987,
     0.130389079,
     0.917058408,
     0.236261979,
     -0.293852389,
     1.64492249,
     -0.0781085044,
     0.443017781,
     1.10503054,
     1.74353862,
     2.3702035,
     -0.193331122,
     1.95722151,
     0.12586461,
     -0.342900723,
     0.617797256,
     -0.375909448,
     1.80786037,
     0.990130484,
     -0.172171459,
     1.09102619
    ],
    "children_left": [
     1,
     3,
     5,
     7,
     9,
     11,
     13,
     15,
     17,
     19,
     21,
     23,
     25,
     27,
     29,
     31,
     33,
     35,
     37,
     39,
     41,
     43,
     45,
     47,
     49,
     51,
     53,
     55,
     57,
     59,
     61,
     -1,
     -1,
     -1,
     -1,
     -1,
     -1,
     -1,
     -1,
     -1,
     -1,
     -1,
     -1,
     -1,
     -1,
     -1,
     -1,
     -1,
     -1,
     -1,
     -1,
     -1,
     -1,
     -1,
     -1,
     -1,
     -1,
     -1,
     -1,
     -1,
     -1,
     -1,
     -1
    ],
    "children_right": [
     2,
     4,
     6,
     8,
     10,
     12,
     14,
     16,
     18,
     20,
     22,
     24,
     26,
     28,
     30,
     32,
     34,
     36,
     38,
     40,
     42,
     44,
     46,
     48,
     50,
     52,
     54,
     56,
     58,
     60,
     62,
     -1,
     -1,
     -1,
     -1,
     -1,
     -1,
     -1,
     -1,
     -1,
     -1,
     -1,
     -1,
     -1,
     -1,
     -1,
     -1,
     -1,
     -1,
     -1,
     -1,
     -1,
     -1,
     -1,
     -1,
     -1,
     -1,
     -1,
     -1,
     -1,
     -1,
     -1,
     -1
    ]
   },
   {
    "feature": [
     3,
     14,
     3,
     15,
     14,
     14,
     14,
     3,
     2,
     15,
     14,
     15,
     14,
     3,
     3,
     15,
     14,
     15,
     15,
     15,
     15,
     15,
     14,
     15,
     15,
     13,
     0,
     15,
     15,
     14,
     6,
     -2,
     -2,
     -2,
     -2,
     -2,
     -2,
     -2,
     -2,
     -2,
     -2,
     -2,
     -2,
     -2,
     -2,
     -2,
     -2,
     -2,
     -2,
     -2,
     -2,
     -2,
     -2,
     -2,
     -2,
     -2,
     -2,
     -2,
     -2,
     -2,
     -2,
     -2,
     -2
    ],
    "threshold": [
     -0.138493821,
     -0.0325209349,
     -0.114584193,
     0.373360574,
     0.183182552,
     0.203449383,
     0.193555087,
     -0.550461471,
     -0.234359622,
     0.603997231,
     0.235348761,
     -0.410804152,
     0.229030043,
     -0.0867709368,
     -0.0867709368,
     -0.0879127979,
     -0.0973564088,
     0.742379248,
     1.06527066,
     -0.134040132,
     1.06527066,
     0.00434187427,
     0.257741541,
     -1.01045954,
     0.0504692122,
     -0.812309682,
     0.559007645,
     -0.54918617,
     -0.226294801,
     0.254086673,
     0.181716129,
     0.0,
     0.0,
     0.0,
     0.0,
     0.0,
     0.0,
     0.0,
     0.0,
     0.0,
     0.0,
     0.0,
     0.0,
     0.0,
     0.0,
     0.0,
     0.0,
     0.0,
     0.0,
     0.0,
     0.0,
     0.0,
     0.0,
     0.0,
     0.0,
     0.0,
     0.0,
     0.0,
     0.0,
     0.0,
     0.0,
     0.0,
     0.0
    ],
    "value": [
     51274.1719,
     107485.375,
     289.787109,
     1475.0542,
     22999.4844,
     192.056244,
     44.6582031,
     1788.14233,
     205.82373,
     8492.76562,
     997.853088,
     199.855743,
     7.16375732,
     35.3508301,
     3.31835938,
     201.095703,
     395.252869,
     53.0566406,
     154.113724,
     1618.35938,
     789.959229,
     482.686981,
     54.918396,
     38.0500031,
     20.655529,
     9.29686356,
     2.35028076,
     21.8342438,
     5.71142578,
     4.00506592,
     1.33203125,
     -0.185395211,
     -0.333670288,
     0.232723996,
     0.860723615,
     -0.449354589,
     -0.56445086,
     -0.0468070842,
     -0.475195587,
     2.26227689,
     1.72732794,
     0.832134664,
     -0.243107155,
     0.91342473,
     -0.226399824,
     -0.192205638,
     -0.505502164,
     1.13272798,
     0.40882653,
     -0.0800278336,
     -0.424388915,
     -0.0971772298,
     -0.537848592,
     -0.585698426,
     -0.474381953,
     -0.0781120136,
     -0.426199943,
     -0.498454243,
     -0.591936767,
     -0.516420126,
     -0.607171416,
     -0.619847536,
     -0.609288156
    ],
    "children_left": [
     1,
     3,
     5,
     7,
     9,
     11,
     13,
     15,
     17,
     19,
     21,
     23,
     25,
     27,
     29,
     31,
     33,
     35,
     37,
     39,
     41,
     43,
     45,
     47,
     49,
     51,
     53,
     55,
     57,
     59,
     61,
     -1,
     -1,
     -1,
     -1,
     -1,
     -1,
     -1,
     -1,
     -1,
     -1,
     -1,
     -1,
     -1,
     -1,
     -1,
     -1,
     -1,
     -1,
     -1,
     -1,
     -1,
     -1,
     -1,
     -1,
     -1,
     -1,
     -1,
     -1,
     -1,
     -1,
     -1,
     -1
    ],
    "children_right": [
     2,
     4,
     6,
     8,
     10,
     12,
     14,
     16,
     18,
     20,
     22,
     24,
     26,
     28,
     30,
     32,
     34,
     36,
     38,
     40,
     42,
     44,
     46,
     48,
     50,
     52,
     54,
     56,
     58,
     60,
     62,
     -1,
     -1,
     -1,
     -1,
     -1,
     -1,
     -1,
     -1,
     -1,
     -1,
     -1,
     -1,
     -1,
     -1,
     -1,
     -1,
     -1,
     -1,
     -1,
     -1,
     -1,
     -1,
     -1,
     -1,
     -1,
     -1,
     -1,
     -1,
     -1,
     -1,
     -1,
     -1
    ]
   },
   {
    "feature": [
     14,
     14,
     3,
     15,
     14,
     15,
     3,
     9,
     3,
     15,
     3,
     14,
     14,
     15,
     3,
     15,
     15,
     15,
     15,
     3,
     14,
     15,
     3,
     3,
     14,
     15,
     14,
     15,
     15,
     15,
     3,
     -2,
     -2,
     -2,
     -2,
     -2,
     -2,
     -2,
     -2,
     -2,
     -2,
     -2,
     -2,
     -2,
     -2,
     -2,
     -2,
     -2,
     -2,
     -2,
     -2,
     -2,
     -2,
     -2,
     -2,
     -2,
     -2,
     -2,
     -2,
     -2,
     -2,
     -2,
     -2
    ],
    "threshold": [
     0.16341427,
     0.0121410042,
     0.0805492699,
     0.373360574,
     0.136024967,
     0.696251929,
     0.147420868,
     1.3060925,
     -0.550461471,
     -0.180167466,
     -0.164785385,
     0.213065743,
     0.335526258,
     -0.318549484,
     0.233273372,
     -1.28722358,
     -0.226294801,
     0.880761266,
     1.06527066,
     -0.153311521,
     0.116200693,
     -0.364676803,
     -0.0526328385,
     -0.153311521,
     0.485444009,
     1.24977994,
     0.396028489,
     -0.825950205,
     0.373360574,
     -0.364676803,
     0.431432337,
     0.0,
     0.0,
     0.0,
     0.0,
     0.0,
     0.0,
     0.0,
     0.0,
     0.0,
     0.0,
     0.0,
     0.0,
     0.0,
     0.0,
     0.0,
     0.0,
     0.0,
     0.0,
     0.0,
     0.0,
     0.0,
     0.0,
     0.0,
     0.0,
     0.0,
     0.0,
     0.0,
     0.0,
     0.0,
     0.0,
     0.0,
     0.0
    ],
    "value": [
     40299.793,
     1116.65918,
     136695.562,
     824.936523,
     311.299805,
     14099.6406,
     384.783203,
     146.927734,
     134.82666,
     78.5068359,
     194.885666,
     6572.04688,
     1253.89465,
     436.613342,
     26.0859375,
     110.227783,
     73.4658203,
     39.1074219,
     94.7888794,
     49.6147461,
     30.0026855,
     33.0369873,
     140.929672,
     1161.84521,
     2254.95312,
     852.728882,
     39.8412781,
     75.2783203,
     53.3241272,
     33.9241943,
     2.14648438,
     -0.341305166,
     -0.206549078,
     -0.279134572,
     -0.435716212,
     -0.47007212,
     -0.570252478,
     -0.218917742,
     -0.486835539,
     -0.57998395,
     -0.386827111,
     -0.4814547,
     -0.308273315,
     -0.507894933,
     -0.242404819,
     0.294243872,
     -0.434595048,
     0.103288777,
     1.30017352,
     2.30144548,
     -0.191283539,
     1.13213241,
     -0.0929661766,
     -0.217719972,
     -0.580756068,
     1.77704179,
     0.666803002,
     -0.0533734038,
     -0.508041859,
     -0.0457807444,
     -0.531983614,
     -0.587654948,
     -0.616771162
    ],
    "children_left": [
     1,
     3,
     5,
     7,
     9,
     11,
     13,
     15,
     17,
     19,
     21,
     23,
     25,
     27,
     29,
     31,
     33,
     35,
     37,
     39,
     41,
     43,
     45,
     47,
     49,
     51,
     53,
     55,
     57,
     59,
     61,
     -1,
     -1,
     -1,
     -1,
     -1,
     -1,
     -1,
     -1,
     -1,
     -1,
     -1,
     -1,
     -1,
     -1,
     -1,
     -1,
     -1,
     -1,
     -1,
     -1,
     -1,
     -1,
     -1,
     -1,
     -1,
     -1,
     -1,
     -1,
     -1,
     -1,
     -1,
     -1
    ],
    "children_right": [
     2,
     4,
     6,
     8,
     10,
     12,
     14,
     16,
     18,
     20,
     22,
     24,
     26,
     28,
     30,
     32,
     34,
     36,
     38,
     40,
     42,
     44,
     46,
     48,
     50,
     52,
     54,
     56,
     58,
     60,
     62,
     -1,
     -1,
     -1,
     -1,
     -1,
     -1,
     -1,
     -1,
     -1,
     -1,
     -1,
     -1,
     -1,
     -1,
     -1,
     -1,
     -1,
     -1,
     -1,
     -1,
     -1,
     -1,
     -1,
     -1,
     -1,
     -1,
     -1,
     -1,
     -1,
     -1,
     -1,
     -1
    ]
   }
  ],
  [
   {
    "feature": [
     15,
     3,
     15,
     15,
     14,
     5,
     2,
     14,
     14,
     3,
     12,
     14,
     2,
     15,
     15,
     3,
     15,
     3,
     3,
     14,
     14,
     14,
     3,
     6,
     2,
     11,
     14,
     11,
     2,
     11,
     10,
     -2,
     -2,
     -2,
     -2,
     -2,
     -2,
     -2,
     -2,
     -2,
     -2,
     -2,
     -2,
     -2,
     -2,
     -2,
     -2,
     -2,
     -2,
     -2,
     -2,
     -2,
     -2,
     -2,
     -2,
     -2,
     -2,
     -2,
     -2,
     -2,
     -2,
     -2,
     -2
    ],
    "threshold": [
     0.00434187427,
     -0.481075019,
     2.35683608,
     -0.779822826,
     0.450528622,
     1.79641962,
     2.51195097,
     -1.26074564,
     -1.27944231,
     -0.30258131,
     -1.78697276,
     1.88159752,
     1.04915917,
     3.09487343,
     3.60227418,
     -0.84686178,
     -1.01045954,
     -0.847783685,
     -0.836335003,
     -0.491304934,
     -0.176459625,
     1.40950704,
     -0.106752619,
     0.0879307762,
     1.99988234,
     -0.259579837,
     0.890804291,
     0.386496395,
     1.50064707,
     0.429149538,
     1.62000561,
     0.0,
     0.0,
     0.0,
     0.0,
     0.0,
     0.0,
     0.0,
     0.0,
     0.0,
     0.0,
     0.0,
     0.0,
     0.0,
     0.0,
     0.0,
     0.0,
     0.0,
     0.0,
     0.0,
     0.0,
     0.0,
     0.0,
     0.0,
     0.0,
     0.0,
     0.0,
     0.0,
     0.0,
     0.0,
     0.0,
     0.0,
     0.0
    ],
    "value": [
     3946.03687,
     1886.9541,
     730.995605,
     738.883423,
     501.278809,
     699.813721,
     140.691528,
     93.9731445,
     348.905212,
     77.4414062,
     232.960175,
     681.652222,
     295.652161,
     114.050781,
     61.2605171,
     57.6691895,
     54.2380981,
     28.9698181,
     376.805359,
     30.213089,
     60.2409668,
     382.984924,
     102.129082,
     775.093628,
     316.620239,
     36.1816483,
     156.365479,
     66.414978,
     50.7786865,
     43.3404503,
     4.55370331,
     -0.317433447,
     0.907917798,
     -0.236414403,
     -0.0398438461,
     -0.20351927,
     0.554107845,
     0.236145273,
     -0.016454313,
     0.868344367,
     -0.305237174,
     0.447312951,
     -0.484440804,
     0.140315905,
     2.33692908,
     1.19280946,
     -0.16671212,
     0.0216900036,
     0.239613026,
     1.06600344,
     0.277064174,
     0.538147867,
     0.167528003,
     0.97490263,
     -0.27371645,
     0.605822444,
     0.344938308,
     0.608503461,
     0.952414572,
     0.485161394,
     -0.154277116,
     0.64940238,
     0.332880437
    ],
    "children_left": [
     1,
     3,
     5,
     7,
     9,
     11,
     13,
     15,
     17,
     19,
     21,
     23,
     25,
     27,
     29,
     31,
     33,
     35,
     37,
     39,
     41,
     43,
     45,
     47,
     49,
     51,
     53,
     55,
     57,
     59,
     61,
     -1,
     -1,
     -1,
     -1,
     -1,
     -1,
     -1,
     -1,
     -1,
     -1,
     -1,
     -1,
     -1,
     -1,
     -1,
     -1,
     -1,
     -1,
     -1,
     -1,
     -1,
     -1,
     -1,
     -1,
     -1,
     -1,
     -1,
     -1,
     -1,
     -1,
     -1,
     -1
    ],
    "children_right": [
     2,
     4,
     6,
     8,
     10,
     12,
     14,
     16,
     18,
     20,
     22,
     24,
     26,
     28,
     30,
     32,
     34,
     36,
     38,
     40,
     42,
     44,
     46,
     48,
     50,
     52,
     54,
     56,
     58,
     60,
     62,
     -1,
     -1,
     -1,
     -1,
     -1,
     -1,
     -1,
     -1,
     -1,
     -1,
     -1,
     -1,
     -1,
     -1,
     -1,
     -1,
     -1,
     -1,
     -1,
     -1,
     -1,
     -1,
     -1,
     -1,
     -1,
     -1,
     -1,
     -1,
     -1,
     -1,
     -1,
     -1
    ]
   },
   {
    "feature": [
     14,
     0,
     5,
     12,
     15,
     14,
     11,
     10,
     2,
     1,
     14,
     14,
     4,
     3,
     14,
     5,
     5,
     0,
     11,
     0,
     12,
     1,
     4,
     12,
     15,
     0,
     15,
     6,
     1,
     3,
     3,
     -2,
     -2,
     -2,
     -2,
     -2,
     -2,
     -2,
     -2,
     -2,
     -2,
     -2,
     -2,
     -2,
     -2,
     -2,
     -2,
     -2,
     -2,
     -2,
     -2,
     -2,
     -2,
     -2,
     -2,
     -2,
     -2,
     -2,
     -2,
     -2,
     -2,
     -2,
     -2
    ],
    "threshold": [
     -0.148766726,
     1.00820231,
     -0.293978333,
     -0.452204436,
     -0.364676803,
     0.396028489,
     -0.0731710047,
     -0.590964973,
     -1.11638796,
     -1.0805788,
     -1.2532227,
     0.0220432598,
     -0.122830376,
     0.0261926316,
     1.48494399,
     -0.623687088,
     -0.474451751,
     0.352014959,
     -0.350595653,
     1.55482745,
     -0.85991925,
     -2.56154943,
     -0.767046988,
     -0.780448854,
     -0.410804152,
     1.83273709,
     0.465615243,
     1.38012004,
     0.422018498,
     0.0163536258,
     2.9060843,
     0.0,
     0.0,
     0.0,
     0.0,
     0.0,
     0.0,
     0.0,
     0.0,
     0.0,
     0.0,
     0.0,
     0.0,
     0.0,
     0.0,
     0.0,
     0.0,
     0.0,
     0.0,
     0.0,
     0.0,
     0.0,
     0.0,
     0.0,
     0.0,
     0.0,
     0.0,
     0.0,
     0.0,
     0.0,
     0.0,
     0.0,
     0.0
    ],
    "value": [
     3320.62378,
     166.02832,
     1187.06848,
     190.582764,
     59.7056885,
     165.56665,
     580.172852,
     51.9779587,
     226.977783,
     62.5906982,
     17.851593,
     197.448975,
     63.0232162,
     353.538788,
     314.27301,
     31.323494,
     9.18529224,
     111.443275,
     101.454346,
     112.755127,
     41.5172729,
     19.1799011,
     17.3311462,
     30.2955933,
     52.0947266,
     26.195919,
     36.3788452,
     140.677673,
     393.826843,
     228.612457,
     41.2249146,
     0.116000228,
     -0.292706281,
     0.0620432086,
     -0.175081059,
     -0.0575036518,
     0.0899689198,
     0.0560001656,
     0.192472219,
     0.0512799807,
     0.200258955,
     -0.19936429,
     0.262645692,
     0.313353002,
     0.58169198,
     0.121852614,
     0.391878426,
     -0.269826144,
     -0.0375733301,
     -0.495696455,
     -0.368445158,
     -0.233108103,
     0.75047332,
     0.400609016,
     -0.174920321,
     -0.214416742,
     0.0919429734,
     0.382658452,
     0.0139898062,
     -0.234927252,
     0.0714751855,
     -0.410570383,
     -0.162273064
    ],
    "children_left": [
     1,
     3,
     5,
     7,
     9,
     11,
     13,
     15,
     17,
     19,
     21,
     23,
     25,
     27,
     29,
     31,
     33,
     35,
     37,
     39,
     41,
     43,
     45,
     47,
     49,
     51,
     53,
     55,
     57,
     59,
     61,
     -1,
     -1,
     -1,
     -1,
     -1,
     -1,
     -1,
     -1,
     -1,
     -1,
     -1,
     -1,
     -1,
     -1,
     -1,
     -1,
     -1,
     -1,
     -1,
     -1,
     -1,
     -1,
     -1,
     -1,
     -1,
     -1,
     -1,
     -1,
     -1,
     -1,
     -1,
     -1
    ],
    "children_right": [
     2,
     4,
     6,
     8,
     10,
     12,
     14,
     16,
     18,
     20,
     22,
     24,
     26,
     28,
     30,
     32,
     34,
     36,
     38,
     40,
     42,
     44,
     46,
     48,
     50,
     52,
     54,
     56,
     58,
     60,
     62,
     -1,
     -1,
     -1,
     -1,
     -1,
     -1,
     -1,
     -1,
     -1,
     -1,
     -1,
     -1,
     -1,
     -1,
     -1,
     -1,
     -1,
     -1,
     -1,
     -1,
     -1,
     -1,
     -1,
     -1,
     -1,
     -1,
     -1,
     -1,
     -1,
     -1,
     -1,
     -1
    ]
   },
   {
    "feature": [
     3,
     3,
     2,
     15,
     14,
     14,
     5,
     2,
     15,
     3,
     15,
     14,
     3,
     14,
     15,
     15,
     11,
     10,
     14,
     3,
     14,
     3,
     12,
     3,
     3,
     15,
     14,
     14,
     11,
     14,
     15,
     -2,
     -2,
     -2,
     -2,
     -2,
     -2,
     -2,
     -2,
     -2,
     -2,
     -2,
     -2,
     -2,
     -2,
     -2,
     -2,
     -2,
     -2,
     -2,
     -2,
     -2,
     -2,
     -2,
     -2,
     -2,
     -2,
     -2,
     -2,
     -2,
     -2,
     -2,
     -2
    ],
    "threshold": [
     -0.183844656,
     -0.657144666,
     0.883014321,
     -0.318549484,
     0.0530226864,
     0.17275022,
     1.55419934,
     -0.741670728,
     0.327233225,
     -0.222923905,
     -0.687568188,
     0.0781254023,
     0.0261926316,
     1.91324782,
     3.09487343,
     -0.779822826,
     -0.350595653,
     0.41817975,
     -1.28722119,
     -0.481075019,
     0.0220432598,
     -0.234530762,
     -0.811727822,
     -0.138493821,
     -0.0929131061,
     -0.318549484,
     0.811599433,
     1.08885896,
     -0.476778448,
     0.769559264,
     3.60227418,
     0.0,
     0.0,
     0.0,
     0.0,
     0.0,
     0.0,
     0.0,
     0.0,
     0.0,
     0.0,
     0.0,
     0.0,
     0.0,
     0.0,
     0.0,
     0.0,
     0.0,
     0.0,
     0.0,
     0.0,
     0.0,
     0.0,
     0.0,
     0.0,
     0.0,
     0.0,
     0.0,
     0.0,
     0.0,
     0.0,
     0.0,
     0.0
    ],
    "value": [
     8175.36426,
     1216.56641,
     1516.72388,
     89.9443359,
     525.102234,
     2324.50391,
     579.943848,
     13.7080078,
     20.8999023,
     526.577942,
     49.7988281,
     394.821289,
     934.431152,
     837.031616,
     374.908691,
     3.52832031,
     5.66727448,
     14.3067627,
     19.5982056,
     249.146484,
     243.724579,
     3.97949219,
     64.4509583,
     522.985229,
     499.985657,
     158.287354,
     755.691101,
     238.199097,
     130.839081,
     130.200195,
     41.0215607,
     -0.494297206,
     -0.465846211,
     -0.245232373,
     -0.424866676,
     -0.33965975,
     -0.428357303,
     0.0133320028,
     -0.332235873,
     -0.203608349,
     0.087566264,
     1.6894294,
     0.366048485,
     -0.3545295,
     -0.428626239,
     -0.0776073411,
     -0.30671832,
     1.6562078,
     0.57172215,
     0.108856842,
     0.689444423,
     -0.432352841,
     -0.199602544,
     0.200142652,
     -0.292888612,
     0.433436185,
     0.192000598,
     -0.648161411,
     -0.139751077,
     -0.336661786,
     0.477888107,
     0.0452700183,
     -0.343185008
    ],
    "children_left": [
     1,
     3,
     5,
     7,
     9,
     11,
     13,
     15,
     17,
     19,
     21,
     23,
     25,
     27,
     29,
     31,
     33,
     35,
     37,
     39,
     41,
     43,
     45,
     47,
     49,
     51,
     53,
     55,
     57,
     59,
     61,
     -1,
     -1,
     -1,
     -1,
     -1,
     -1,
     -1,
     -1,
     -1,
     -1,
     -1,
     -1,
     -1,
     -1,
     -1,
     -1,
     -1,
     -1,
     -1,
     -1,
     -1,
     -1,
     -1,
     -1,
     -1,
     -1,
     -1,
     -1,
     -1,
     -1,
     -1,
     -1
    ],
    "children_right": [
     2,
     4,
     6,
     8,
     10,
     12,
     14,
     16,
     18,
     20,
     22,
     24,
     26,
     28,
     30,
     32,
     34,
     36,
     38,
     40,
     42,
     44,
     46,
     48,
     50,
     52,
     54,
     56,
     58,
     60,
     62,
     -1,
     -1,
     -1,
     -1,
     -1,
     -1,
     -1,
     -1,
     -1,
     -1,
     -1,
     -1,
     -1,
     -1,
     -1,
     -1,
     -1,
     -1,
     -1,
     -1,
     -1,
     -1,
     -1,
     -1,
     -1,
     -1,
     -1,
     -1,
     -1,
     -1,
     -1,
     -1
    ]
   },
   {
    "feature": [
     3,
     14,
     3,
     15,
     14,
     15,
     3,
     3,
     3,
     3,
     15,
     14,
     3,
     14,
     11,
     14,
     15,
     9,
     14,
     3,
     15,
     3,
     3,
     14,
     6,
     14,
     14,
     15,
     2,
     14,
     0,
     -2,
     -2,
     -2,
     -2,
     -2,
     -2,
     -2,
     -2,
     -2,
     -2,
     -2,
     -2,
     -2,
     -2,
     -2,
     -2,
     -2,
     -2,
     -2,
     -2,
     -2,
     -2,
     -2,
     -2,
     -2,
     -2,
     -2,
     -2,
     -2,
     -2,
     -2,
     -2
    ],
    "threshold": [
     -0.159403473,
     0.0373556614,
     -0.0867709368,
     -0.364676803,
     0.131161898,
     -0.779822826,
     -0.0567145795,
     -0.200439975,
     -0.220050827,
     -0.172888041,
     0.142723888,
     0.245719373,
     -0.138493821,
     0.14759922,
     -0.350595653,
     -0.176459625,
     -0.918204844,
     1.37275469,
     0.0304838121,
     -0.311518401,
     -0.410804152,
     -0.286757916,
     -0.253493845,
     0.0636572316,
     0.164397866,
     0.0800671056,
     0.229030043,
     -0.503058851,
     -0.275652379,
     0.126624525,
     -0.601828516,
     0.0,
     0.0,
     0.0,
     0.0,
     0.0,
     0.0,
     0.0,
     0.0,
     0.0,
     0.0,
     0.0,
     0.0,
     0.0,
     0.0,
     0.0,
     0.0,
     0.0,
     0.0,
     0.0,
     0.0,
     0.0,
     0.0,
     0.0,
     0.0,
     0.0,
     0.0,
     0.0,
     0.0,
     0.0,
     0.0,
     0.0,
     0.0
    ],
    "value": [
     8634.84473,
     3733.53003,
     349.022461,
     848.258545,
     537.151367,
     210.992401,
     9.58984375,
     63.559021,
     241.258301,
     148.944336,
     536.219421,
     51.6448364,
     71.7042847,
     6.80859375,
     2.19384766,
     69.5798035,
     18.4943581,
     192.186279,
     19.3189087,
     122.706055,
     82.9830856,
     152.925842,
     49.9334564,
     36.3647461,
     10.3554688,
     87.9129028,
     43.1885452,
     6.71969795,
     3.49331665,
     2.93847656,
     5.57836914,
     0.0842560455,
     0.243720636,
     -0.0385039337,
     -0.707453072,
     -0.0833718702,
     -0.279507577,
     -0.831012011,
     -0.301010281,
     0.261049002,
     0.487567544,
     0.324269712,
     -0.16865088,
     -0.167294368,
     0.365715653,
     -0.575544417,
     -0.2198966,
     -0.327259481,
     0.296854168,
     -0.36775431,
     0.285157561,
     -0.957168579,
     -0.382845104,
     -0.129017532,
     -0.420376211,
     -0.0620426163,
     -0.389077663,
     0.259111196,
     -0.470117658,
     -0.445757836,
     -0.526429057,
     -0.516486347,
     -0.466548145
    ],
    "children_left": [
     1,
     3,
     5,
     7,
     9,
     11,
     13,
     15,
     17,
     19,
     21,
     23,
     25,
     27,
     29,
     31,
     33,
     35,
     37,
     39,
     41,
     43,
     45,
     47,
     49,
     51,
     53,
     55,
     57,
     59,
     61,
     -1,
     -1,
     -1,
     -1,
     -1,
     -1,
     -1,
     -1,
     -1,
     -1,
     -1,
     -1,
     -1,
     -1,
     -1,
     -1,
     -1,
     -1,
     -1,
     -1,
     -1,
     -1,
     -1,
     -1,
     -1,
     -1,
     -1,
     -1,
     -1,
     -1,
     -1,
     -1
    ],
    "children_right": [
     2,
     4,
     6,
     8,
     10,
     12,
     14,
     16,
     18,
     20,
     22,
     24,
     26,
     28,
     30,
     32,
     34,
     36,
     38,
     40,
     42,
     44,
     46,
     48,
     50,
     52,
     54,
     56,
     58,
     60,
     62,
     -1,
     -1,
     -1,
     -1,
     -1,
     -1,
     -1,
     -1,
     -1,
     -1,
     -1,
     -1,
     -1,
     -1,
     -1,
     -1,
     -1,
     -1,
     -1,
     -1,
     -1,
     -1,
     -1,
     -1,
     -1,
     -1,
     -1,
     -1,
     -1,
     -1,
     -1,
     -1
    ]
   },
   {
    "feature": [
     14,
     14,
     15,
     1,
     3,
     3,
     3,
     15,
     14,
     15,
     3,
     14,
     9,
     14,
     14,
     14,
     3,
     14,
     3,
     14,
     2,
     15,
     15,
     3,
     3,
     -2,
     14,
     15,
     0,
     15,
     13,
     -2,
     -2,
     -2,
     -2,
     -2,
     -2,
     -2,
     -2,
     -2,
     -2,
     -2,
     -2,
     -2,
     -2,
     -2,
     -2,
     -2,
     -2,
     -2,
     -2,
     -2,
     -2,
     -2,
     -2,
     -2,
     -2,
     -2,
     -2,
     -2,
     -2
    ],
    "threshold": [
     0.419954985,
     0.193555087,
     -0.54918617,
     -0.100281253,
     -0.164785385,
     0.233273372,
     -0.0995576233,
     -0.0417854637,
     0.131161898,
     0.0965965465,
     0.0432821624,
     0.604485929,
     -1.11226809,
     0.485444009,
     0.564121127,
     0.0304838121,
     -0.74263072,
     0.043315094,
     -0.0414002351,
     0.260917902,
     0.0704506785,
     -0.0879127979,
     -0.180167466,
     -0.263127059,
     0.147420868,
     0.0,
     1.85811198,
     0.696251929,
     1.83273709,
     -0.0879127979,
     -0.46063447,
     0.0,
     0.0,
     0.0,
     0.0,
     0.0,
     0.0,
     0.0,
     0.0,
     0.0,
     0.0,
     0.0,
     0.0,
     0.0,
     0.0,
     0.0,
     0.0,
     0.0,
     0.0,
     0.0,
     0.0,
     0.0,
     0.0,
     0.0,
     0.0,
     0.0,
     0.0,
     0.0,
     0.0,
     0.0,
     0.0
    ],
    "value": [
     5115.93164,
     5289.32275,
     120.283691,
     579.610474,
     884.025391,
     139.494598,
     11.902832,
     123.784592,
     294.035889,
     189.298233,
     800.512207,
     44.8632889,
     1.23877716,
     13.7941895,
     19.3959961,
     134.336212,
     68.6798935,
     227.566528,
     216.345581,
     63.4966507,
     86.6101227,
     194.049316,
     321.527496,
     11.0089417,
     0.120584488,
     -0.546498954,
     2.02399826,
     28.1655197,
     0.710609436,
     35.0562744,
     3.50976562,
     0.0663417429,
     -0.168180466,
     -0.226950988,
     0.0617350489,
     -0.145511195,
     -0.332044244,
     0.206763089,
     -0.473929763,
     -0.093095988,
     0.234131053,
     -0.660266399,
     -0.115910634,
     0.540745556,
     0.359820008,
     0.282878995,
     -0.422122508,
     -0.641498208,
     0.524145961,
     -0.725277185,
     -0.440611035,
     -0.437401474,
     0.17398566,
     -1.40390611,
     -0.485095888,
     -0.554853737,
     0.147933021,
     -0.105493762,
     -0.473938227,
     -0.535600722,
     -0.502893686
    ],
    "children_left": [
     1,
     3,
     5,
     7,
     9,
     11,
     13,
     15,
     17,
     19,
     21,
     23,
     25,
     27,
     29,
     31,
     33,
     35,
     37,
     39,
     41,
     43,
     45,
     47,
     49,
     -1,
     51,
     53,
     55,
     57,
     59,
     -1,
     -1,
     -1,
     -1,
     -1,
     -1,
     -1,
     -1,
     -1,
     -1,
     -1,
     -1,
     -1,
     -1,
     -1,
     -1,
     -1,
     -1,
     -1,
     -1,
     -1,
     -1,
     -1,
     -1,
     -1,
     -1,
     -1,
     -1,
     -1,
     -1
    ],
    "children_right": [
     2,
     4,
     6,
     8,
     10,
     12,
     14,
     16,
     18,
     20,
     22,
     24,
     26,
     28,
     30,
     32,
     34,
     36,
     38,
     40,
     42,
     44,
     46,
     48,
     50,
     -1,
     52,
     54,
     56,
     58,
     60,
     -1,
     -1,
     -1,
     -1,
     -1,
     -1,
     -1,
     -1,
     -1,
     -1,
     -1,
     -1,
     -1,
     -1,
     -1,
     -1,
     -1,
     -1,
     -1,
     -1,
     -1,
     -1,
     -1,
     -1,
     -1,
     -1,
     -1,
     -1,
     -1,
     -1
    ]
   }
  ],
  [
   {
    "feature": [
     15,
     3,
     11,
     14,
     14,
     14,
     2,
     3,
     14,
     3,
     3,
     6,
     2,
     14,
     15,
     15,
     15,
     4,
     3,
     14,
     4,
     15,
     11,
     3,
     14,
     5,
     15,
     3,
     3,
     11,
     11,
     -2,
     -2,
     -2,
     -2,
     -2,
     -2,
     -2,
     -2,
     -2,
     -2,
     -2,
     -2,
     -2,
     -2,
     -2,
     -2,
     -2,
     -2,
     -2,
     -2,
     -2,
     -2,
     -2,
     -2,
     -2,
     -2,
     -2,
     -2,
     -2,
     -2,
     -2,
     -2
    ],
    "threshold": [
     0.557869911,
     -0.56770438,
     -0.193869591,
     -1.26304531,
     0.342697471,
     1.20634162,
     -0.127267897,
     -0.846624076,
     -0.406967044,
     -0.273361027,
     -0.0704621598,
     0.490290105,
     1.806692,
     -0.23354733,
     1.34203458,
     -0.687568188,
     -0.318549484,
     -0.676255763,
     -0.59995693,
     -0.0325209349,
     0.977561831,
     -0.687568188,
     -0.325635672,
     1.78436387,
     -0.176459625,
     0.830880225,
     1.75718069,
     -0.765596747,
     -0.463043451,
     0.259710789,
     0.67250818,
     0.0,
     0.0,
     0.0,
     0.0,
     0.0,
     0.0,
     0.0,
     0.0,
     0.0,
     0.0,
     0.0,
     0.0,
     0.0,
     0.0,
     0.0,
     0.0,
     0.0,
     0.0,
     0.0,
     0.0,
     0.0,
     0.0,
     0.0,
     0.0,
     0.0,
     0.0,
     0.0,
     0.0,
     0.0,
     0.0,
     0.0,
     0.0
    ],
    "value": [
     1295.68347,
     895.561462,
     371.962524,
     398.904541,
     479.191284,
     385.46814,
     201.61203,
     51.0652924,
     327.309875,
     211.912109,
     221.122955,
     168.617554,
     151.676147,
     88.3550415,
     283.305695,
     33.6186523,
     10.5427856,
     239.014679,
     44.1395874,
     76.9754333,
     163.784546,
     36.3291473,
     199.269318,
     115.239456,
     167.499756,
     53.8885498,
     43.724781,
     103.795807,
     18.8834534,
     102.802216,
     119.733917,
     -0.203034475,
     -0.0999846384,
     0.658735514,
     0.154717028,
     0.099585332,
     -0.0726690814,
     0.880558848,
     0.419208705,
     -0.225281239,
     0.0174840149,
     -0.404451609,
     0.472136855,
     -0.0674549416,
     0.891334891,
     0.0473963656,
     -0.308513135,
     0.0501825847,
     2.4708333,
     -0.0110275922,
     0.43288821,
     0.771625638,
     0.487816632,
     0.0830942839,
     0.49766618,
     0.249932632,
     0.0671588257,
     0.537232399,
     0.252272546,
     0.02628625,
     -0.204585806,
     0.213933736,
     0.0265795086
    ],
    "children_left": [
     1,
     3,
     5,
     7,
     9,
     11,
     13,
     15,
     17,
     19,
     21,
     23,
     25,
     27,
     29,
     31,
     33,
     35,
     37,
     39,
     41,
     43,
     45,
     47,
     49,
     51,
     53,
     55,
     57,
     59,
     61,
     -1,
     -1,
     -1,
     -1,
     -1,
     -1,
     -1,
     -1,
     -1,
     -1,
     -1,
     -1,
     -1,
     -1,
     -1,
     -1,
     -1,
     -1,
     -1,
     -1,
     -1,
     -1,
     -1,
     -1,
     -1,
     -1,
     -1,
     -1,
     -1,
     -1,
     -1,
     -1
    ],
    "children_right": [
     2,
     4,
     6,
     8,
     10,
     12,
     14,
     16,
     18,
     20,
     22,
     24,
     26,
     28,
     30,
     32,
     34,
     36,
     38,
     40,
     42,
     44,
     46,
     48,
     50,
     52,
     54,
     56,
     58,
     60,
     62,
     -1,
     -1,
     -1,
     -1,
     -1,
     -1,
     -1,
     -1,
     -1,
     -1,
     -1,
     -1,
     -1,
     -1,
     -1,
     -1,
     -1,
     -1,
     -1,
     -1,
     -1,
     -1,
     -1,
     -1,
     -1,
     -1,
     -1,
     -1,
     -1,
     -1,
     -1,
     -1
    ]
   },
   {
    "feature": [
     12,
     14,
     14,
     1,
     7,
     3,
     3,
     3,
     14,
     14,
     3,
     14,
     15,
     15,
     7,
     14,
     2,
     7,
     6,
     3,
     14,
     3,
     13,
     12,
     5,
     5,
     11,
     9,
     9,
     14,
     7,
     -2,
     -2,
     -2,
     -2,
     -2,
     -2,
     -2,
     -2,
     -2,
     -2,
     -2,
     -2,
     -2,
     -2,
     -2,
     -2,
     -2,
     -2,
     -2,
     -2,
     -2,
     -2,
     -2,
     -2,
     -2,
     -2,
     -2,
     -2,
     -2,
     -2,
     -2,
     -2
    ],
    "threshold": [
     -0.85991925,
     1.32870018,
     1.55157614,
     -0.777016222,
     -1.10187685,
     0.0579616167,
     2.52965736,
     0.147420868,
     0.362866044,
     2.4651587,
     1.15454745,
     0.043315094,
     1.1575253,
     0.742379248,
     -0.179816157,
     0.0304838121,
     0.757077992,
     -1.1403321,
     -0.822434962,
     1.27193356,
     2.82129788,
     0.538981438,
     -0.951112568,
     0.656964839,
     -0.0247534569,
     1.49173188,
     -0.363726348,
     -0.782952011,
     0.349659771,
     2.82129788,
     0.0875465423,
     0.0,
     0.0,
     0.0,
     0.0,
     0.0,
     0.0,
     0.0,
     0.0,
     0.0,
     0.0,
     0.0,
     0.0,
     0.0,
     0.0,
     0.0,
     0.0,
     0.0,
     0.0,
     0.0,
     0.0,
     0.0,
     0.0,
     0.0,
     0.0,
     0.0,
     0.0,
     0.0,
     0.0,
     0.0,
     0.0,
     0.0,
     0.0
    ],
    "value": [
     435.730804,
     349.557922,
     337.157227,
     282.834473,
     99.0302734,
     191.236145,
     88.1304779,
     62.6626205,
     139.312988,
     79.5005493,
     34.9959335,
     319.800415,
     193.319244,
     31.3565063,
     65.8700256,
     41.9211082,
     14.3812408,
     40.1544189,
     78.8379517,
     40.2196045,
     5.49839401,
     4.04517365,
     20.912262,
     54.3335876,
     148.850922,
     203.016724,
     30.9963531,
     20.8435516,
     28.0862045,
     32.8656921,
     9.81934929,
     -0.00210305443,
     -0.275188863,
     0.596791565,
     0.045736596,
     -0.457573891,
     -0.295111567,
     -0.204013914,
     0.137846544,
     0.0055171228,
     1.01446366,
     0.0975926742,
     -0.415612131,
     -0.578953147,
     -0.190372795,
     0.358046919,
     0.0381135754,
     0.0320836902,
     0.0805777088,
     -0.232426047,
     0.0307638403,
     0.370837241,
     -0.0836747214,
     -0.148644224,
     0.0579734147,
     0.106675677,
     -0.421483546,
     -0.102056101,
     -0.311685055,
     0.374231637,
     -0.239872292,
     -0.0286212284,
     -0.286685139
    ],
    "children_left": [
     1,
     3,
     5,
     7,
     9,
     11,
     13,
     15,
     17,
     19,
     21,
     23,
     25,
     27,
     29,
     31,
     33,
     35,
     37,
     39,
     41,
     43,
     45,
     47,
     49,
     51,
     53,
     55,
     57,
     59,
     61,
     -1,
     -1,
     -1,
     -1,
     -1,
     -1,
     -1,
     -1,
     -1,
     -1,
     -1,
     -1,
     -1,
     -1,
     -1,
     -1,
     -1,
     -1,
     -1,
     -1,
     -1,
     -1,
     -1,
     -1,
     -1,
     -1,
     -1,
     -1,
     -1,
     -1,
     -1,
     -1
    ],
    "children_right": [
     2,
     4,
     6,
     8,
     10,
     12,
     14,
     16,
     18,
     20,
     22,
     24,
     26,
     28,
     30,
     32,
     34,
     36,
     38,
     40,
     42,
     44,
     46,
     48,
     50,
     52,
     54,
     56,
     58,
     60,
     62,
     -1,
     -1,
     -1,
     -1,
     -1,
     -1,
     -1,
     -1,
     -1,
     -1,
     -1,
     -1,
     -1,
     -1,
     -1,
     -1,
     -1,
     -1,
     -1,
     -1,
     -1,
     -1,
     -1,
     -1,
     -1,
     -1,
     -1,
     -1,
     -1,
     -1,
     -1,
     -1
    ]
   },
   {
    "feature": [
     3,
     15,
     2,
     2,
     4,
     15,
     14,
     15,
     14,
     14,
     14,
     14,
     12,
     15,
     14,
     14,
     14,
     3,
     11,
     15,
     11,
     3,
     12,
     3,
     2,
     14,
     5,
     3,
     3,
     15,
     11,
     -2,
     -2,
     -2,
     -2,
     -2,
     -2,
     -2,
     -2,
     -2,
     -2,
     -2,
     -2,
     -2,
     -2,
     -2,
     -2,
     -2,
     -2,
     -2,
     -2,
     -2,
     -2,
     -2,
     -2,
     -2,
     -2,
     -2,
     -2,
     -2,
     -2,
     -2,
     -2
    ],
    "threshold": [
     -0.56770438,
     -0.410804152,
     1.806692,
     -0.741670728,
     -0.51170069,
     -0.779822826,
     1.20634162,
     -1.05658686,
     -0.574092865,
     -1.2715714,
     -0.574092865,
     0.183182552,
     -0.606304228,
     0.742379248,
     1.88159752,
     -0.546761811,
     -1.28523207,
     -0.629382074,
     -0.90046382,
     0.419487894,
     -0.803310812,
     -0.657144666,
     -0.257688284,
     -0.164785385,
     0.417839646,
     1.36981845,
     2.25895929,
     2.61541104,
     2.2290585,
     1.38816202,
     0.542347789,
     0.0,
     0.0,
     0.0,
     0.0,
     0.0,
     0.0,
     0.0,
     0.0,
     0.0,
     0.0,
     0.0,
     0.0,
     0.0,
     0.0,
     0.0,
     0.0,
     0.0,
     0.0,
     0.0,
     0.0,
     0.0,
     0.0,
     0.0,
     0.0,
     0.0,
     0.0,
     0.0,
     0.0,
     0.0,
     0.0,
     0.0,
     0.0
    ],
    "value": [
     2748.41797,
     152.394043,
     668.897217,
     24.1445312,
     55.423584,
     348.804474,
     278.578674,
     5.90515137,
     8.53173828,
     28.2182007,
     77.1651154,
     42.9206848,
     549.808899,
     49.9052429,
     209.320923,
     0.55090332,
     2.94177246,
     21.1456318,
     4.10386658,
     11.8510132,
     21.848877,
     102.609497,
     16.7767944,
     55.3965302,
     33.5017242,
     741.356812,
     231.293747,
     8.05571556,
     24.673996,
     90.6333008,
     121.588699,
     -0.460870713,
     0.101879388,
     -0.374651372,
     -0.421440512,
     -0.182587489,
     1.07284534,
     -0.219059259,
     -0.430991441,
     -0.203688771,
     0.0576319583,
     0.0699158758,
     -0.32923159,
     -0.102503501,
     0.560123742,
     0.0748833418,
     -0.311555535,
     -0.226015657,
     0.0492442995,
     -0.378447294,
     -0.0180651806,
     0.241193712,
     -0.384841383,
     -0.0502087362,
     0.211519897,
     0.0604024306,
     -0.725521564,
     -0.878705502,
     -1.79319167,
     0.469957381,
     0.240153417,
     -0.090301156,
     0.249801129
    ],
    "children_left": [
     1,
     3,
     5,
     7,
     9,
     11,
     13,
     15,
     17,
     19,
     21,
     23,
     25,
     27,
     29,
     31,
     33,
     35,
     37,
     39,
     41,
     43,
     45,
     47,
     49,
     51,
     53,
     55,
     57,
     59,
     61,
     -1,
     -1,
     -1,
     -1,
     -1,
     -1,
     -1,
     -1,
     -1,
     -1,
     -1,
     -1,
     -1,
     -1,
     -1,
     -1,
     -1,
     -1,
     -1,
     -1,
     -1,
     -1,
     -1,
     -1,
     -1,
     -1,
     -1,
     -1,
     -1,
     -1,
     -1,
     -1
    ],
    "children_right": [
     2,
     4,
     6,
     8,
     10,
     12,
     14,
     16,
     18,
     20,
     22,
     24,
     26,
     28,
     30,
     32,
     34,
     36,
     38,
     40,
     42,
     44,
     46,
     48,
     50,
     52,
     54,
     56,
     58,
     60,
     62,
     -1,
     -1,
     -1,
     -1,
     -1,
     -1,
     -1,
     -1,
     -1,
     -1,
     -1,
     -1,
     -1,
     -1,
     -1,
     -1,
     -1,
     -1,
     -1,
     -1,
     -1,
     -1,
     -1,
     -1,
     -1,
     -1,
     -1,
     -1,
     -1,
     -1,
     -1,
     -1
    ]
   },
   {
    "feature": [
     3,
     15,
     14,
     14,
     2,
     3,
     7,
     5,
     3,
     15,
     3,
     2,
     15,
     14,
     0,
     0,
     10,
     3,
     15,
     14,
     14,
     10,
     15,
     14,
     14,
     14,
     3,
     3,
     15,
     2,
     4,
     -2,
     -2,
     -2,
     -2,
     -2,
     -2,
     -2,
     -2,
     -2,
     -2,
     -2,
     -2,
     -2,
     -2,
     -2,
     -2,
     -2,
     -2,
     -2,
     -2,
     -2,
     -2,
     -2,
     -2,
     -2,
     -2,
     -2,
     -2,
     -2,
     -2,
     -2,
     -2
    ],
    "threshold": [
     -0.0995576233,
     -0.54918617,
     0.229030043,
     0.0304838121,
     -0.0499382466,
     -0.0567145795,
     -0.0247712694,
     -0.623051643,
     -0.164785385,
     0.511742592,
     -0.176029831,
     0.0860343054,
     -0.226294801,
     2.82129788,
     -0.601828516,
     1.13104415,
     -0.0273535997,
     -0.2451801,
     -1.3333509,
     -0.0973564088,
     -0.0325209349,
     0.137131572,
     0.0965965465,
     0.221537024,
     0.119042337,
     0.126624525,
     -0.0287644193,
     -0.0755242631,
     2.26458144,
     1.68635094,
     0.46053952,
     0.0,
     0.0,
     0.0,
     0.0,
     0.0,
     0.0,
     0.0,
     0.0,
     0.0,
     0.0,
     0.0,
     0.0,
     0.0,
     0.0,
     0.0,
     0.0,
     0.0,
     0.0,
     0.0,
     0.0,
     0.0,
     0.0,
     0.0,
     0.0,
     0.0,
     0.0,
     0.0,
     0.0,
     0.0,
     0.0,
     0.0,
     0.0
    ],
    "value": [
     3384.95898,
     670.487305,
     38.1098633,
     454.096252,
     307.280212,
     16.4437103,
     6.78442383,
     56.0158691,
     80.4569092,
     251.320801,
     263.223877,
     9.99616051,
     4.02128601,
     2.47753906,
     8.76000977,
     70.156311,
     28.1424751,
     32.7232666,
     21.6961002,
     67.578125,
     45.2490234,
     148.255432,
     32.390213,
     8.63413239,
     5.85446167,
     6.5518589,
     0.969345093,
     2.5333252,
     2.88335609,
     1.07171631,
     7.33007812,
     0.276631683,
     0.0941876844,
     0.105106197,
     0.0156238722,
     0.265312821,
     0.397640437,
     0.553908587,
     0.103905529,
     -0.00490346458,
     -0.136259153,
     -0.21614024,
     -0.457061112,
     0.0596044734,
     0.267186314,
     -0.0745584294,
     -0.275280744,
     -0.039476186,
     0.955526769,
     -0.136769965,
     -0.350846082,
     -0.146472484,
     -0.440534651,
     -0.3752895,
     -0.485705793,
     -0.386458129,
     -0.496650934,
     -0.221207157,
     -0.513102114,
     -0.458515346,
     -0.500655174,
     -0.038095247,
     -0.395512789
    ],
    "children_left": [
     1,
     3,
     5,
     7,
     9,
     11,
     13,
     15,
     17,
     19,
     21,
     23,
     25,
     27,
     29,
     31,
     33,
     35,
     37,
     39,
     41,
     43,
     45,
     47,
     49,
     51,
     53,
     55,
     57,
     59,
     61,
     -1,
     -1,
     -1,
     -1,
     -1,
     -1,
     -1,
     -1,
     -1,
     -1,
     -1,
     -1,
     -1,
     -1,
     -1,
     -1,
     -1,
     -1,
     -1,
     -1,
     -1,
     -1,
     -1,
     -1,
     -1,
     -1,
     -1,
     -1,
     -1,
     -1,
     -1,
     -1
    ],
    "children_right": [
     2,
     4,
     6,
     8,
     10,
     12,
     14,
     16,
     18,
     20,
     22,
     24,
     26,
     28,
     30,
     32,
     34,
     36,
     38,
     40,
     42,
     44,
     46,
     48,
     50,
     52,
     54,
     56,
     58,
     60,
     62,
     -1,
     -1,
     -1,
     -1,
     -1,
     -1,
     -1,
     -1,
     -1,
     -1,
     -1,
     -1,
     -1,
     -1,
     -1,
     -1,
     -1,
     -1,
     -1,
     -1,
     -1,
     -1,
     -1,
     -1,
     -1,
     -1,
     -1,
     -1,
     -1,
     -1,
     -1,
     -1
    ]
   },
   {
    "feature": [
     14,
     14,
     15,
     3,
     3,
     3,
     14,
     15,
     15,
     15,
     3,
     5,
     2,
     15,
     7,
     14,
     2,
     7,
     3,
     14,
     10,
     6,
     15,
     14,
     6,
     0,
     9,
     10,
     2,
     14,
     0,
     -2,
     -2,
     -2,
     -2,
     -2,
     -2,
     -2,
     -2,
     -2,
     -2,
     -2,
     -2,
     -2,
     -2,
     -2,
     -2,
     -2,
     -2,
     -2,
     -2,
     -2,
     -2,
     -2,
     -2,
     -2,
     -2,
     -2,
     -2,
     -2,
     -2,
     -2,
     -2
    ],
    "threshold": [
     0.396028489,
     0.254086673,
     -0.687568188,
     0.000465318648,
     -0.114584193,
     0.110950217,
     0.564121127,
     0.650124609,
     -0.687568188,
     0.281105906,
     0.0333044678,
     0.0469999537,
     0.160289198,
     0.142723888,
     -0.35057807,
     -1.25055718,
     0.115473703,
     -1.02779853,
     0.0805492699,
     0.335526258,
     -0.0909136981,
     1.38012004,
     -0.503058851,
     0.604485929,
     -0.333324581,
     1.55482745,
     0.441800952,
     -0.828858197,
     0.317572802,
     2.26521683,
     -0.519066632,
     0.0,
     0.0,
     0.0,
     0.0,
     0.0,
     0.0,
     0.0,
     0.0,
     0.0,
     0.0,
     0.0,
     0.0,
     0.0,
     0.0,
     0.0,
     0.0,
     0.0,
     0.0,
     0.0,
     0.0,
     0.0,
     0.0,
     0.0,
     0.0,
     0.0,
     0.0,
     0.0,
     0.0,
     0.0,
     0.0,
     0.0,
     0.0
    ],
    "value": [
     2196.59668,
     1126.38464,
     124.714844,
     246.619431,
     271.530884,
     58.3865662,
     31.6938477,
     182.210052,
     57.4129944,
     100.533867,
     249.998779,
     12.2958069,
     7.93326759,
     47.9289093,
     5.44812012,
     105.720238,
     142.998489,
     12.8126945,
     11.2919006,
     42.1608772,
     73.0699768,
     106.24353,
     112.678711,
     6.92959976,
     2.59500408,
     9.75068474,
     4.47898293,
     24.7625885,
     13.5916748,
     1.79083252,
     7.6796875,
     0.0874330476,
     -0.00580051728,
     -0.226582438,
     0.0950635895,
     0.274743378,
     -0.281696558,
     -0.628992558,
     -0.389744371,
     0.165652633,
     -0.353110403,
     -0.767387569,
     -0.0970006958,
     0.426701576,
     -0.00974967889,
     0.342239648,
     -0.155403987,
     0.518311381,
     -0.421816558,
     0.666668594,
     -0.582224667,
     0.477463543,
     -0.577738583,
     -0.455611974,
     0.958144069,
     -0.26017049,
     0.122568786,
     -0.598777652,
     -0.36425516,
     -0.508933783,
     -0.421260536,
     -0.472795069,
     -0.384554714
    ],
    "children_left": [
     1,
     3,
     5,
     7,
     9,
     11,
     13,
     15,
     17,
     19,
     21,
     23,
     25,
     27,
     29,
     31,
     33,
     35,
     37,
     39,
     41,
     43,
     45,
     47,
     49,
     51,
     53,
     55,
     57,
     59,
     61,
     -1,
     -1,
     -1,
     -1,
     -1,
     -1,
     -1,
     -1,
     -1,
     -1,
     -1,
     -1,
     -1,
     -1,
     -1,
     -1,
     -1,
     -1,
     -1,
     -1,
     -1,
     -1,
     -1,
     -1,
     -1,
     -1,
     -1,
     -1,
     -1,
     -1,
     -1,
     -1
    ],
    "children_right": [
     2,
     4,
     6,
     8,
     10,
     12,
     14,
     16,
     18,
     20,
     22,
     24,
     26,
     28,
     30,
     32,
     34,
     36,
     38,
     40,
     42,
     44,
     46,
     48,
     50,
     52,
     54,
     56,
     58,
     60,
     62,
     -1,
     -1,
     -1,
     -1,
     -1,
     -1,
     -1,
     -1,
     -1,
     -1,
     -1,
     -1,
     -1,
     -1,
     -1,
     -1,
     -1,
     -1,
     -1,
     -1,
     -1,
     -1,
     -1,
     -1,
     -1,
     -1,
     -1,
     -1,
     -1,
     -1,
     -1,
     -1
    ]
   }
  ],
  [
   {
    "feature": [
     15,
     3,
     15,
     15,
     14,
     4,
     2,
     3,
     11,
     5,
     3,
     14,
     14,
     2,
     14,
     14,
     14,
     0,
     0,
     14,
     14,
     14,
     12,
     15,
     5,
     2,
     2,
     1,
     2,
     1,
     4,
     -2,
     -2,
     -2,
     -2,
     -2,
     -2,
     -2,
     -2,
     -2,
     -2,
     -2,
     -2,
     -2,
     -2,
     -2,
     -2,
     -2,
     -2,
     -2,
     -2,
     -2,
     -2,
     -2,
     -2,
     -2,
     -2,
     -2,
     -2,
     -2,
     -2,
     -2,
     -2
    ],
    "threshold": [
     -0.226294801,
     -0.368318826,
     2.58747268,
     -1.01045954,
     0.604485929,
     -0.824869394,
     2.0222156,
     -0.803379953,
     1.40267015,
     -0.0503724515,
     0.381704152,
     -1.2715714,
     0.315092772,
     1.50064707,
     2.82129788,
     -0.919670284,
     -0.974084795,
     -0.0266337618,
     -0.349286377,
     -0.203953192,
     -0.0325209349,
     0.728262424,
     -0.748190463,
     0.327233225,
     -0.62157619,
     0.0490241051,
     0.310707659,
     0.84106195,
     1.7776823,
     0.84106195,
     3.0340631,
     0.0,
     0.0,
     0.0,
     0.0,
     0.0,
     0.0,
     0.0,
     0.0,
     0.0,
     0.0,
     0.0,
     0.0,
     0.0,
     0.0,
     0.0,
     0.0,
     0.0,
     0.0,
     0.0,
     0.0,
     0.0,
     0.0,
     0.0,
     0.0,
     0.0,
     0.0,
     0.0,
     0.0,
     0.0,
     0.0,
     0.0,
     0.0
    ],
    "value": [
     346.460327,
     290.570862,
     163.231339,
     79.7830429,
     190.519135,
     131.402573,
     47.5809479,
     12.0803452,
     48.966713,
     28.3612061,
     61.7912712,
     167.765366,
     218.463242,
     39.5086975,
     26.3380013,
     3.51341248,
     15.8117418,
     28.3915081,
     34.6843185,
     12.7284546,
     13.8364439,
     8.8393631,
     29.8596077,
     51.5205231,
     113.764984,
     289.922791,
     379.053162,
     13.5425873,
     13.492157,
     19.1779289,
     11.8545113,
     -0.166733146,
     0.545830369,
     1.525787,
     0.00770282838,
     -0.138552263,
     -0.0226945616,
     -0.237679005,
     0.085397929,
     0.111440264,
     -0.399132907,
     0.40468353,
     -0.189810827,
     0.40600279,
     0.881601691,
     0.0760736391,
     -0.330443472,
     -0.0183169022,
     -0.31235975,
     0.389508873,
     0.124192744,
     0.0103139048,
     -0.195734441,
     0.414146125,
     0.0382931493,
     0.108493216,
     0.294236809,
     0.62722528,
     0.36558789,
     -0.321627617,
     0.0619224906,
     0.447876513,
     0.0577934012
    ],
    "children_left": [
     1,
     3,
     5,
     7,
     9,
     11,
     13,
     15,
     17,
     19,
     21,
     23,
     25,
     27,
     29,
     31,
     33,
     35,
     37,
     39,
     41,
     43,
     45,
     47,
     49,
     51,
     53,
     55,
     57,
     59,
     61,
     -1,
     -1,
     -1,
     -1,
     -1,
     -1,
     -1,
     -1,
     -1,
     -1,
     -1,
     -1,
     -1,
     -1,
     -1,
     -1,
     -1,
     -1,
     -1,
     -1,
     -1,
     -1,
     -1,
     -1,
     -1,
     -1,
     -1,
     -1,
     -1,
     -1,
     -1,
     -1
    ],
    "children_right": [
     2,
     4,
     6,
     8,
     10,
     12,
     14,
     16,
     18,
     20,
     22,
     24,
     26,
     28,
     30,
     32,
     34,
     36,
     38,
     40,
     42,
     44,
     46,
     48,
     50,
     52,
     54,
     56,
     58,
     60,
     62,
     -1,
     -1,
     -1,
     -1,
     -1,
     -1,
     -1,
     -1,
     -1,
     -1,
     -1,
     -1,
     -1,
     -1,
     -1,
     -1,
     -1,
     -1,
     -1,
     -1,
     -1,
     -1,
     -1,
     -1,
     -1,
     -1,
     -1,
     -1,
     -1,
     -1,
     -1,
     -1
    ]
   },
   {
    "feature": [
     12,
     1,
     0,
     0,
     3,
     15,
     15,
     15,
     6,
     14,
     7,
     10,
     0,
     4,
     14,
     3,
     0,
     2,
     11,
     10,
     15,
     3,
     4,
     14,
     5,
     15,
     14,
     15,
     14,
     2,
     6,
     -2,
     -2,
     -2,
     -2,
     -2,
     -2,
     -2,
     -2,
     -2,
     -2,
     -2,
     -2,
     -2,
     -2,
     -2,
     -2,
     -2,
     -2,
     -2,
     -2,
     -2,
     -2,
     -2,
     -2,
     -2,
     -2,
     -2,
     -2,
     -2,
     -2,
     -2,
     -2
    ],
    "threshold": [
     -1.13808084,
     -0.550034523,
     0.188230872,
     2.86496806,
     0.0579616167,
     0.327233225,
     0.281105906,
     -0.779822826,
     -0.836709559,
     0.0220432598,
     -0.856674492,
     0.680600941,
     -0.499083549,
     0.33625257,
     -1.26954889,
     0.486162245,
     1.88077152,
     -0.612980127,
     -1.04776144,
     -0.865839422,
     -0.410804152,
     2.36940312,
     0.802919149,
     0.342697471,
     -0.618854284,
     2.77198195,
     -1.29104984,
     -0.364676803,
     1.08885896,
     -1.21242499,
     0.995931923,
     0.0,
     0.0,
     0.0,
     0.0,
     0.0,
     0.0,
     0.0,
     0.0,
     0.0,
     0.0,
     0.0,
     0.0,
     0.0,
     0.0,
     0.0,
     0.0,
     0.0,
     0.0,
     0.0,
     0.0,
     0.0,
     0.0,
     0.0,
     0.0,
     0.0,
     0.0,
     0.0,
     0.0,
     0.0,
     0.0,
     0.0,
     0.0
    ],
    "value": [
     132.899796,
     69.6554947,
     92.5348816,
     21.2838631,
     104.500702,
     60.8785172,
     248.925278,
     22.4751511,
     4.80351639,
     20.7017517,
     43.0304604,
     98.6353149,
     99.4418564,
     121.620338,
     62.1549988,
     18.5869827,
     7.48461151,
     7.28631783,
     3.04746199,
     5.95117474,
     12.2937317,
     30.3197956,
     7.79644012,
     62.687149,
     61.6029282,
     47.3054581,
     21.4893417,
     53.4852715,
     51.6480103,
     15.8295441,
     12.983429,
     -0.0947370604,
     0.443389148,
     0.0244781394,
     0.184166268,
     0.229205906,
     1.03742194,
     -0.00699327281,
     0.21566695,
     -0.190266028,
     0.256714612,
     -0.437932193,
     -0.229289368,
     -0.037477456,
     0.312082529,
     -0.323518485,
     0.362804681,
     -0.118617408,
     0.0509892888,
     -0.120125748,
     0.0537852533,
     0.00760762813,
     -0.227515548,
     0.727725387,
     0.137013137,
     0.0178077519,
     0.0982798189,
     0.324668974,
     -0.0696489811,
     0.803191721,
     1.5220809,
     0.269474655,
     0.455872208
    ],
    "children_left": [
     1,
     3,
     5,
     7,
     9,
     11,
     13,
     15,
     17,
     19,
     21,
     23,
     25,
     27,
     29,
     31,
     33,
     35,
     37,
     39,
     41,
     43,
     45,
     47,
     49,
     51,
     53,
     55,
     57,
     59,
     61,
     -1,
     -1,
     -1,
     -1,
     -1,
     -1,
     -1,
     -1,
     -1,
     -1,
     -1,
     -1,
     -1,
     -1,
     -1,
     -1,
     -1,
     -1,
     -1,
     -1,
     -1,
     -1,
     -1,
     -1,
     -1,
     -1,
     -1,
     -1,
     -1,
     -1,
     -1,
     -1
    ],
    "children_right": [
     2,
     4,
     6,
     8,
     10,
     12,
     14,
     16,
     18,
     20,
     22,
     24,
     26,
     28,
     30,
     32,
     34,
     36,
     38,
     40,
     42,
     44,
     46,
     48,
     50,
     52,
     54,
     56,
     58,
     60,
     62,
     -1,
     -1,
     -1,
     -1,
     -1,
     -1,
     -1,
     -1,
     -1,
     -1,
     -1,
     -1,
     -1,
     -1,
     -1,
     -1,
     -1,
     -1,
     -1,
     -1,
     -1,
     -1,
     -1,
     -1,
     -1,
     -1,
     -1,
     -1,
     -1,
     -1,
     -1,
     -1
    ]
   },
   {
    "feature": [
     3,
     15,
     6,
     15,
     14,
     15,
     5,
     15,
     10,
     3,
     3,
     14,
     1,
     14,
     12,
     14,
     14,
     15,
     1,
     15,
     11,
     9,
     14,
     11,
     3,
     14,
     3,
     15,
     3,
     7,
     14,
     -2,
     -2,
     -2,
     -2,
     -2,
     -2,
     -2,
     -2,
     -2,
     -2,
     -2,
     -2,
     -2,
     -2,
     -2,
     -2,
     -2,
     -2,
     -2,
     -2,
     -2,
     -2,
     -2,
     -2,
     -2,
     -2,
     -2,
     -2,
     -2,
     -2,
     -2,
     -2
    ],
    "threshold": [
     -0.705119491,
     -0.0879127979,
     0.861927092,
     -0.779822826,
     -0.751569331,
     -0.318549484,
     1.98108983,
     -1.10271418,
     1.62000561,
     -0.74263072,
     -0.715629637,
     0.0665810481,
     0.770169675,
     0.450528622,
     0.779047906,
     -1.29104984,
     -1.26519465,
     -0.410804152,
     -0.207947448,
     0.511742592,
     -0.245931342,
     -0.0751626566,
     -0.70318085,
     -0.86286664,
     0.0432821624,
     2.4651587,
     1.96369267,
     0.142723888,
     0.33025369,
     0.810725331,
     1.72821093,
     0.0,
     0.0,
     0.0,
     0.0,
     0.0,
     0.0,
     0.0,
     0.0,
     0.0,
     0.0,
     0.0,
     0.0,
     0.0,
     0.0,
     0.0,
     0.0,
     0.0,
     0.0,
     0.0,
     0.0,
     0.0,
     0.0,
     0.0,
     0.0,
     0.0,
     0.0,
     0.0,
     0.0,
     0.0,
     0.0,
     0.0,
     0.0
    ],
    "value": [
     1100.93542,
     98.6860352,
     291.476196,
     21.2613525,
     29.6258774,
     184.494827,
     116.312988,
     4.32543945,
     8.74032593,
     44.2876434,
     3.95140839,
     56.3601074,
     174.540039,
     79.2696533,
     79.9777527,
     0.589111328,
     1.6187439,
     4.86068726,
     3.42067719,
     26.4141083,
     29.5044231,
     1.97053528,
     4.98593283,
     32.6118126,
     62.2067184,
     83.2682495,
     91.707077,
     63.9409256,
     45.1938477,
     30.3386841,
     14.9209385,
     -0.395828694,
     -0.439166129,
     -0.329455346,
     -0.384566307,
     -0.305353582,
     -0.240509376,
     -0.15944773,
     -0.416232795,
     -0.200462997,
     -0.0167775694,
     1.33545065,
     0.198248744,
     -0.17797713,
     -0.425385684,
     0.159367383,
     -0.312841505,
     0.139285997,
     -0.0600990802,
     -0.137804747,
     0.0409804024,
     0.129410028,
     -0.348761708,
     -0.0578822009,
     0.109258205,
     -0.225877449,
     -0.0224985108,
     -0.50651896,
     -0.219850883,
     -0.305502832,
     0.311156362,
     -0.0515640527,
     -0.349182636
    ],
    "children_left": [
     1,
     3,
     5,
     7,
     9,
     11,
     13,
     15,
     17,
     19,
     21,
     23,
     25,
     27,
     29,
     31,
     33,
     35,
     37,
     39,
     41,
     43,
     45,
     47,
     49,
     51,
     53,
     55,
     57,
     59,
     61,
     -1,
     -1,
     -1,
     -1,
     -1,
     -1,
     -1,
     -1,
     -1,
     -1,
     -1,
     -1,
     -1,
     -1,
     -1,
     -1,
     -1,
     -1,
     -1,
     -1,
     -1,
     -1,
     -1,
     -1,
     -1,
     -1,
     -1,
     -1,
     -1,
     -1,
     -1,
     -1
    ],
    "children_right": [
     2,
     4,
     6,
     8,
     10,
     12,
     14,
     16,
     18,
     20,
     22,
     24,
     26,
     28,
     30,
     32,
     34,
     36,
     38,
     40,
     42,
     44,
     46,
     48,
     50,
     52,
     54,
     56,
     58,
     60,
     62,
     -1,
     -1,
     -1,
     -1,
     -1,
     -1,
     -1,
     -1,
     -1,
     -1,
     -1,
     -1,
     -1,
     -1,
     -1,
     -1,
     -1,
     -1,
     -1,
     -1,
     -1,
     -1,
     -1,
     -1,
     -1,
     -1,
     -1,
     -1,
     -1,
     -1,
     -1,
     -1
    ]
   },
   {
    "feature": [
     3,
     15,
     14,
     14,
     10,
     15,
     7,
     3,
     14,
     14,
     15,
     3,
     15,
     2,
     0,
     12,
     14,
     3,
     15,
     4,
     3,
     0,
     10,
     14,
     12,
     14,
     4,
     14,
     13,
     14,
     14,
     -2,
     -2,
     -2,
     -2,
     -2,
     -2,
     -2,
     -2,
     -2,
     -2,
     -2,
     -2,
     -2,
     -2,
     -2,
     -2,
     -2,
     -2,
     -2,
     -2,
     -2,
     -2,
     -2,
     -2,
     -2,
     -2,
     -2,
     -2,
     -2,
     -2,
     -2,
     -2
    ],
    "threshold": [
     -0.0755242631,
     0.0965965465,
     0.14759922,
     0.0563697144,
     -0.475216657,
     -0.918204844,
     -0.579423666,
     -0.253493845,
     0.119042337,
     -0.23354733,
     1.48041666,
     -0.0316825807,
     0.373360574,
     -0.260826439,
     -0.601828516,
     1.37266648,
     4.61285017e-05,
     -0.169196561,
     -0.410804152,
     -0.879814923,
     -0.146388784,
     -0.908201933,
     1.17222023,
     0.119042337,
     -1.68279386,
     0.0781254023,
     -0.427182823,
     0.295012385,
     -0.0437101312,
     2.26521683,
     2.12718225,
     0.0,
     0.0,
     0.0,
     0.0,
     0.0,
     0.0,
     0.0,
     0.0,
     0.0,
     0.0,
     0.0,
     0.0,
     0.0,
     0.0,
     0.0,
     0.0,
     0.0,
     0.0,
     0.0,
     0.0,
     0.0,
     0.0,
     0.0,
     0.0,
     0.0,
     0.0,
     0.0,
     0.0,
     0.0,
     0.0,
     0.0,
     0.0
    ],
    "value": [
     1450.89941,
     295.433807,
     16.8937988,
     206.934402,
     110.40062,
     11.537674,
     11.3170166,
     42.7152786,
     188.063385,
     65.333313,
     112.524689,
     4.54451323,
     6.47519684,
     2.9588623,
     14.0189209,
     46.4503479,
     39.4700089,
     74.0481567,
     73.0741196,
     9.95596027,
     25.1581726,
     121.190277,
     10.8753815,
     5.27191353,
     1.66355729,
     4.14672852,
     0.77126503,
     1.17182851,
     2.19061279,
     1.59753418,
     9.27360535,
     0.0428083688,
     -0.078259334,
     -0.34169063,
     -0.0341520868,
     0.279504687,
     0.0330693126,
     0.101253331,
     -0.123732612,
     -0.223284736,
     0.0880111977,
     -0.429037213,
     -0.0137074143,
     0.101688191,
     -0.0880466029,
     -0.443164051,
     -0.249710858,
     1.07089722,
     -0.221701309,
     0.334196299,
     -0.344497293,
     -0.330252081,
     -0.0762933493,
     0.240078941,
     -0.464834541,
     0.829652309,
     -0.255162448,
     -0.484616101,
     0.0792383924,
     -0.450262487,
     -0.353077412,
     -0.340144247,
     0.171218097
    ],
    "children_left": [
     1,
     3,
     5,
     7,
     9,
     11,
     13,
     15,
     17,
     19,
     21,
     23,
     25,
     27,
     29,
     31,
     33,
     35,
     37,
     39,
     41,
     43,
     45,
     47,
     49,
     51,
     53,
     55,
     57,
     59,
     61,
     -1,
     -1,
     -1,
     -1,
     -1,
     -1,
     -1,
     -1,
     -1,
     -1,
     -1,
     -1,
     -1,
     -1,
     -1,
     -1,
     -1,
     -1,
     -1,
     -1,
     -1,
     -1,
     -1,
     -1,
     -1,
     -1,
     -1,
     -1,
     -1,
     -1,
     -1,
     -1
    ],
    "children_right": [
     2,
     4,
     6,
     8,
     10,
     12,
     14,
     16,
     18,
     20,
     22,
     24,
     26,
     28,
     30,
     32,
     34,
     36,
     38,
     40,
     42,
     44,
     46,
     48,
     50,
     52,
     54,
     56,
     58,
     60,
     62,
     -1,
     -1,
     -1,
     -1,
     -1,
     -1,
     -1,
     -1,
     -1,
     -1,
     -1,
     -1,
     -1,
     -1,
     -1,
     -1,
     -1,
     -1,
     -1,
     -1,
     -1,
     -1,
     -1,
     -1,
     -1,
     -1,
     -1,
     -1,
     -1,
     -1,
     -1,
     -1
    ]
   },
   {
    "feature": [
     3,
     2,
     3,
     15,
     14,
     0,
     14,
     3,
     14,
     3,
     3,
     15,
     13,
     6,
     0,
     13,
     14,
     3,
     15,
     15,
     15,
     14,
     15,
     14,
     14,
     14,
     14,
     7,
     1,
     3,
     11,
     -2,
     -2,
     -2,
     -2,
     -2,
     -2,
     -2,
     -2,
     -2,
     -2,
     -2,
     -2,
     -2,
     -2,
     -2,
     -2,
     -2,
     -2,
     -2,
     -2,
     -2,
     -2,
     -2,
     -2,
     -2,
     -2,
     -2,
     -2,
     -2,
     -2,
     -2,
     -2
    ],
    "threshold": [
     0.189374089,
     0.24549073,
     0.33025369,
     -0.318549484,
     0.107843958,
     0.231121227,
     2.26521683,
     -0.122350186,
     0.31147179,
     -0.13043496,
     0.0163536258,
     0.419487894,
     -0.823857486,
     0.139762327,
     -0.834987044,
     -0.91690594,
     0.107843958,
     -0.584089935,
     0.142723888,
     0.188851222,
     -0.318549484,
     0.342697471,
     0.0965965465,
     0.319298714,
     1.65195632,
     0.335526258,
     0.450528622,
     -0.372579366,
     0.556715548,
     3.14166474,
     -0.0593032241,
     0.0,
     0.0,
     0.0,
     0.0,
     0.0,
     0.0,
     0.0,
     0.0,
     0.0,
     0.0,
     0.0,
     0.0,
     0.0,
     0.0,
     0.0,
     0.0,
     0.0,
     0.0,
     0.0,
     0.0,
     0.0,
     0.0,
     0.0,
     0.0,
     0.0,
     0.0,
     0.0,
     0.0,
     0.0,
     0.0,
     0.0,
     0.0
    ],
    "value": [
     1013.25873,
     222.7323,
     13.2911987,
     228.614639,
     144.486145,
     7.28848267,
     10.1171875,
     164.987625,
     159.623566,
     15.5273323,
     140.855011,
     2.80195618,
     6.66163206,
     7.16802979,
     8.25048828,
     62.5023994,
     55.3983002,
     89.4594574,
     46.117218,
     7.11685753,
     5.08800125,
     82.0949707,
     72.0584641,
     5.91798878,
     0.821704865,
     4.77764177,
     7.83553219,
     0.915588379,
     4.28424072,
     1.65024948,
     22.8095131,
     -0.0517427512,
     0.056548804,
     -0.328368217,
     0.269259602,
     -0.0951471105,
     0.0162854195,
     -0.165932924,
     -0.534376681,
     -0.299133271,
     0.010126506,
     -0.180066124,
     -0.446763515,
     0.302625775,
     -0.0937298015,
     0.139313012,
     -0.22433643,
     0.145218223,
     -0.317854494,
     -0.401109159,
     0.0851771906,
     0.19656378,
     -0.383027196,
     -0.228896722,
     0.549740911,
     -0.49322477,
     -0.452701509,
     -0.329243004,
     -0.43422091,
     -0.272941738,
     -0.435302109,
     -0.300875098,
     0.862550497
    ],
    "children_left": [
     1,
     3,
     5,
     7,
     9,
     11,
     13,
     15,
     17,
     19,
     21,
     23,
     25,
     27,
     29,
     31,
     33,
     35,
     37,
     39,
     41,
     43,
     45,
     47,
     49,
     51,
     53,
     55,
     57,
     59,
     61,
     -1,
     -1,
     -1,
     -1,
     -1,
     -1,
     -1,
     -1,
     -1,
     -1,
     -1,
     -1,
     -1,
     -1,
     -1,
     -1,
     -1,
     -1,
     -1,
     -1,
     -1,
     -1,
     -1,
     -1,
     -1,
     -1,
     -1,
     -1,
     -1,
     -1,
     -1,
     -1
    ],
    "children_right": [
     2,
     4,
     6,
     8,
     10,
     12,
     14,
     16,
     18,
     20,
     22,
     24,
     26,
     28,
     30,
     32,
     34,
     36,
     38,
     40,
     42,
     44,
     46,
     48,
     50,
     52,
     54,
     56,
     58,
     60,
     62,
     -1,
     -1,
     -1,
     -1,
     -1,
     -1,
     -1,
     -1,
     -1,
     -1,
     -1,
     -1,
     -1,
     -1,
     -1,
     -1,
     -1,
     -1,
     -1,
     -1,
     -1,
     -1,
     -1,
     -1,
     -1,
     -1,
     -1,
     -1,
     -1,
     -1,
     -1,
     -1
    ]
   }
  ],
  [
   {
    "feature": [
     14,
     3,
     2,
     2,
     6,
     15,
     15,
     14,
     14,
     11,
     7,
     3,
     1,
     4,
     2,
     3,
     3,
     15,
     15,
     4,
     14,
     14,
     2,
     6,
     14,
     2,
     13,
     14,
     2,
     14,
     14,
     -2,
     -2,
     -2,
     -2,
     -2,
     -2,
     -2,
     -2,
     -2,
     -2,
     -2,
     -2,
     -2,
     -2,
     -2,
     -2,
     -2,
     -2,
     -2,
     -2,
     -2,
     -2,
     -2,
     -2,
     -2,
     -2,
     -2,
     -2,
     -2,
     -2,
     -2,
     -2
    ],
    "threshold": [
     1.0086149,
     1.38884127,
     1.09213805,
     0.757077992,
     -0.578281641,
     0.973015964,
     0.926888585,
     0.604485929,
     0.240780994,
     -0.843688846,
     -0.0341828503,
     0.923640966,
     0.351864696,
     0.743752301,
     1.9542129,
     -0.253493845,
     0.431432337,
     0.973015964,
     1.66492593,
     0.47859025,
     0.450528622,
     0.890804291,
     1.29766345,
     0.810426176,
     1.40950704,
     0.757077992,
     -0.350438714,
     1.48494399,
     1.54073644,
     1.2456429,
     1.58040774,
     0.0,
     0.0,
     0.0,
     0.0,
     0.0,
     0.0,
     0.0,
     0.0,
     0.0,
     0.0,
     0.0,
     0.0,
     0.0,
     0.0,
     0.0,
     0.0,
     0.0,
     0.0,
     0.0,
     0.0,
     0.0,
     0.0,
     0.0,
     0.0,
     0.0,
     0.0,
     0.0,
     0.0,
     0.0,
     0.0,
     0.0,
     0.0
    ],
    "value": [
     182.650482,
     191.988907,
     362.918091,
     197.306564,
     23.6861725,
     104.432312,
     162.59613,
     150.054108,
     166.323456,
     4.66931725,
     18.7018127,
     116.245667,
     17.9760513,
     76.5679398,
     74.5313721,
     219.385529,
     234.545013,
     94.2268753,
     78.5295715,
     9.61415482,
     4.94378853,
     24.8763275,
     9.21070099,
     41.9871826,
     55.9314575,
     16.7439747,
     12.176178,
     75.4566498,
     31.5616913,
     86.9612732,
     107.71949,
     0.00751288282,
     -0.12714465,
     0.399925828,
     -0.120968901,
     2.51601958,
     0.394280881,
     -0.168485731,
     -0.472129434,
     0.0825676918,
     1.61557412,
     1.3806864,
     -0.163598955,
     2.12143517,
     0.630226552,
     0.227439269,
     1.00431144,
     0.951991618,
     0.481378734,
     0.0823992938,
     0.618367612,
     0.269690394,
     -0.269651175,
     0.368607581,
     0.194660962,
     -0.21226567,
     0.266174912,
     -0.0974143147,
     -0.335763693,
     -0.0811992362,
     0.227726951,
     0.750408173,
     -0.0493194535
    ],
    "children_left": [
     1,
     3,
     5,
     7,
     9,
     11,
     13,
     15,
     17,
     19,
     21,
     23,
     25,
     27,
     29,
     31,
     33,
     35,
     37,
     39,
     41,
     43,
     45,
     47,
     49,
     51,
     53,
     55,
     57,
     59,
     61,
     -1,
     -1,
     -1,
     -1,
     -1,
     -1,
     -1,
     -1,
     -1,
     -1,
     -1,
     -1,
     -1,
     -1,
     -1,
     -1,
     -1,
     -1,
     -1,
     -1,
     -1,
     -1,
     -1,
     -1,
     -1,
     -1,
     -1,
     -1,
     -1,
     -1,
     -1,
     -1
    ],
    "children_right": [
     2,
     4,
     6,
     8,
     10,
     12,
     14,
     16,
     18,
     20,
     22,
     24,
     26,
     28,
     30,
     32,
     34,
     36,
     38,
     40,
     42,
     44,
     46,
     48,
     50,
     52,
     54,
     56,
     58,
     60,
     62,
     -1,
     -1,
     -1,
     -1,
     -1,
     -1,
     -1,
     -1,
     -1,
     -1,
     -1,
     -1,
     -1,
     -1,
     -1,
     -1,
     -1,
     -1,
     -1,
     -1,
     -1,
     -1,
     -1,
     -1,
     -1,
     -1,
     -1,
     -1,
     -1,
     -1,
     -1,
     -1
    ]
   },
   {
    "feature": [
     12,
     0,
     0,
     14,
     15,
     5,
     1,
     3,
     7,
     2,
     -2,
     9,
     10,
     0,
     15,
     15,
     4,
     15,
     7,
     15,
     0,
     0,
     15,
     3,
     7,
     15,
     1,
     0,
     14,
     -2,
     -2,
     -2,
     -2,
     -2,
     -2,
     -2,
     -2,
     -2,
     -2,
     -2,
     -2,
     -2,
     -2,
     -2,
     -2,
     -2,
     -2,
     -2,
     -2,
     -2,
     -2,
     -2,
     -2,
     -2,
     -2,
     -2,
     -2
    ],
    "threshold": [
     -1.43488944,
     1.93319654,
     1.24476993,
     1.16683912,
     0.188851222,
     -0.621803641,
     -1.93640065,
     -0.849231303,
     -1.26393032,
     0.842060626,
     0.0,
     0.994080245,
     1.02828646,
     1.93319654,
     -0.687568188,
     0.142723888,
     -0.389886081,
     0.00434187427,
     -1.00242043,
     -1.42560554,
     2.2695744,
     0.626210332,
     -0.410804152,
     3.14166474,
     1.14328527,
     -0.964332163,
     -3.24376464,
     1.62490094,
     -0.0325209349,
     0.0,
     0.0,
     0.0,
     0.0,
     0.0,
     0.0,
     0.0,
     0.0,
     0.0,
     0.0,
     0.0,
     0.0,
     0.0,
     0.0,
     0.0,
     0.0,
     0.0,
     0.0,
     0.0,
     0.0,
     0.0,
     0.0,
     0.0,
     0.0,
     0.0,
     0.0,
     0.0,
     0.0
    ],
    "value": [
     55.5164871,
     33.3115997,
     51.0916557,
     31.8070068,
     7.65113592,
     98.751564,
     45.5684128,
     18.5261536,
     18.1968002,
     6.51661301,
     1.27333689,
     44.6265945,
     34.2959557,
     64.8058929,
     39.270134,
     8.18426895,
     17.718071,
     12.7443829,
     10.3060722,
     4.05442095,
     1.74113989,
     30.2247086,
     28.0030594,
     46.7831154,
     28.0514145,
     37.1357651,
     15.293354,
     14.4143105,
     9.55686951,
     -0.0809363872,
     0.461356163,
     -0.326862365,
     -0.134068951,
     0.526821434,
     -0.0529532917,
     0.014777544,
     -0.292177916,
     0.0770597085,
     -0.0209164284,
     0.28966862,
     1.00697792,
     -0.197532147,
     -0.0729333311,
     -0.0364372954,
     0.118431814,
     0.00592522789,
     0.354697347,
     0.0748580694,
     -0.00135906064,
     -0.193201452,
     -0.0106870756,
     0.0274271704,
     0.130342111,
     0.0510980599,
     0.129760832,
     0.213289991,
     0.421514422
    ],
    "children_left": [
     1,
     3,
     5,
     7,
     9,
     11,
     13,
     15,
     17,
     19,
     -1,
     21,
     23,
     25,
     27,
     29,
     31,
     33,
     35,
     37,
     39,
     41,
     43,
     45,
     47,
     49,
     51,
     53,
     55,
     -1,
     -1,
     -1,
     -1,
     -1,
     -1,
     -1,
     -1,
     -1,
     -1,
     -1,
     -1,
     -1,
     -1,
     -1,
     -1,
     -1,
     -1,
     -1,
     -1,
     -1,
     -1,
     -1,
     -1,
     -1,
     -1,
     -1,
     -1
    ],
    "children_right": [
     2,
     4,
     6,
     8,
     10,
     12,
     14,
     16,
     18,
     20,
     -1,
     22,
     24,
     26,
     28,
     30,
     32,
     34,
     36,
     38,
     40,
     42,
     44,
     46,
     48,
     50,
     52,
     54,
     56,
     -1,
     -1,
     -1,
     -1,
     -1,
     -1,
     -1,
     -1,
     -1,
     -1,
     -1,
     -1,
     -1,
     -1,
     -1,
     -1,
     -1,
     -1,
     -1,
     -1,
     -1,
     -1,
     -1,
     -1,
     -1,
     -1,
     -1,
     -1
    ]
   },
   {
    "feature": [
     3,
     15,
     14,
     4,
     14,
     3,
     6,
     15,
     1,
     3,
     11,
     3,
     3,
     5,
     7,
     14,
     0,
     14,
     14,
     11,
     2,
     1,
     14,
     14,
     11,
     12,
     6,
     14,
     15,
     14,
     12,
     -2,
     -2,
     -2,
     -2,
     -2,
     -2,
     -2,
     -2,
     -2,
     -2,
     -2,
     -2,
     -2,
     -2,
     -2,
     -2,
     -2,
     -2,
     -2,
     -2,
     -2,
     -2,
     -2,
     -2,
     -2,
     -2,
     -2,
     -2,
     -2,
     -2,
     -2,
     -2
    ],
    "threshold": [
     -0.412659496,
     -0.456931502,
     -0.176459625,
     -0.613528669,
     -0.318706959,
     -0.220050827,
     0.36968857,
     -1.10271418,
     0.195732757,
     -0.498567998,
     -0.872462094,
     -0.368318826,
     -0.00473769894,
     0.678367972,
     0.236162663,
     -1.29104984,
     0.00426759431,
     -0.23354733,
     -0.289648801,
     -0.676437199,
     -0.221358508,
     0.316539764,
     -0.261179388,
     -0.261179388,
     -0.27484414,
     -0.513309777,
     0.434365869,
     1.16683912,
     0.880761266,
     0.419954985,
     0.544049621,
     0.0,
     0.0,
     0.0,
     0.0,
     0.0,
     0.0,
     0.0,
     0.0,
     0.0,
     0.0,
     0.0,
     0.0,
     0.0,
     0.0,
     0.0,
     0.0,
     0.0,
     0.0,
     0.0,
     0.0,
     0.0,
     0.0,
     0.0,
     0.0,
     0.0,
     0.0,
     0.0,
     0.0,
     0.0,
     0.0,
     0.0,
     0.0
    ],
    "value": [
     453.124634,
     104.032166,
     114.93782,
     22.5780334,
     75.7261887,
     243.226654,
     93.3654327,
     10.7843933,
     16.3904915,
     214.885712,
     24.0766602,
     51.9758301,
     17.1046829,
     59.5055161,
     55.8109436,
     0.744552612,
     4.15362549,
     7.37120056,
     7.44821453,
     67.5924301,
     33.6369781,
     13.963006,
     5.68582153,
     91.3766022,
     30.7210999,
     12.1552486,
     4.87710953,
     213.193832,
     141.870361,
     56.2027283,
     112.692352,
     -0.337605715,
     -0.394164503,
     -0.411354691,
     -0.256036103,
     -0.160011664,
     -0.411941558,
     0.156340793,
     -0.155517176,
     0.196052864,
     -0.11252249,
     1.15153742,
     0.480489105,
     -0.188185662,
     0.211673796,
     -0.212885439,
     -0.328255177,
     1.1219101,
     0.109828584,
     1.16738439,
     0.569406033,
     0.303019673,
     -0.468962193,
     -1.23585129,
     -0.65373832,
     0.0575029887,
     -0.161430627,
     0.26566115,
     0.0324189141,
     -0.0463813245,
     -0.289642602,
     0.131959036,
     -0.0840761289
    ],
    "children_left": [
     1,
     3,
     5,
     7,
     9,
     11,
     13,
     15,
     17,
     19,
     21,
     23,
     25,
     27,
     29,
     31,
     33,
     35,
     37,
     39,
     41,
     43,
     45,
     47,
     49,
     51,
     53,
     55,
     57,
     59,
     61,
     -1,
     -1,
     -1,
     -1,
     -1,
     -1,
     -1,
     -1,
     -1,
     -1,
     -1,
     -1,
     -1,
     -1,
     -1,
     -1,
     -1,
     -1,
     -1,
     -1,
     -1,
     -1,
     -1,
     -1,
     -1,
     -1,
     -1,
     -1,
     -1,
     -1,
     -1,
     -1
    ],
    "children_right": [
     2,
     4,
     6,
     8,
     10,
     12,
     14,
     16,
     18,
     20,
     22,
     24,
     26,
     28,
     30,
     32,
     34,
     36,
     38,
     40,
     42,
     44,
     46,
     48,
     50,
     52,
     54,
     56,
     58,
     60,
     62,
     -1,
     -1,
     -1,
     -1,
     -1,
     -1,
     -1,
     -1,
     -1,
     -1,
     -1,
     -1,
     -1,
     -1,
     -1,
     -1,
     -1,
     -1,
     -1,
     -1,
     -1,
     -1,
     -1,
     -1,
     -1,
     -1,
     -1,
     -1,
     -1,
     -1,
     -1,
     -1
    ]
   },
   {
    "feature": [
     3,
     15,
     7,
     0,
     14,
     14,
     0,
     15,
     15,
     2,
     14,
     15,
     14,
     3,
     4,
     1,
     10,
     0,
     10,
     2,
     14,
     3,
     3,
     0,
     3,
     7,
     3,
     14,
     6,
     7,
     9,
     -2,
     -2,
     -2,
     -2,
     -2,
     -2,
     -2,
     -2,
     -2,
     -2,
     -2,
     -2,
     -2,
     -2,
     -2,
     -2,
     -2,
     -2,
     -2,
     -2,
     -2,
     -2,
     -2,
     -2,
     -2,
     -2,
     -2,
     -2,
     -2,
     -2,
     -2,
     -2
    ],
    "threshold": [
     -0.0567145795,
     0.742379248,
     0.107932173,
     -0.654566467,
     0.113230787,
     0.17275022,
     -0.766137242,
     0.188851222,
     -0.641440809,
     0.179084063,
     0.213065743,
     0.00434187427,
     2.12718225,
     1.67817593,
     0.515083551,
     0.635493636,
     -0.000627834524,
     1.34638488,
     -0.962126315,
     -0.469527543,
     -0.0147445602,
     -0.249212801,
     -0.445898652,
     -0.823277652,
     -0.0414002351,
     -0.69651854,
     2.52965736,
     1.16683912,
     -0.238523945,
     0.386534929,
     0.585514545,
     0.0,
     0.0,
     0.0,
     0.0,
     0.0,
     0.0,
     0.0,
     0.0,
     0.0,
     0.0,
     0.0,
     0.0,
     0.0,
     0.0,
     0.0,
     0.0,
     0.0,
     0.0,
     0.0,
     0.0,
     0.0,
     0.0,
     0.0,
     0.0,
     0.0,
     0.0,
     0.0,
     0.0,
     0.0,
     0.0,
     0.0,
     0.0
    ],
    "value": [
     650.464417,
     125.929176,
     10.4577637,
     94.7136078,
     59.9180908,
     13.967041,
     11.9942627,
     40.0811157,
     87.3520737,
     57.8327904,
     9.51863098,
     4.25336742,
     7.21020508,
     3.75671387,
     11.4521122,
     26.4673004,
     36.8961411,
     42.5236893,
     88.596817,
     32.2610092,
     33.3711891,
     10.5119286,
     1.08592987,
     3.40138745,
     1.42624092,
     3.69366455,
     4.84562206,
     4.25973511,
     0.825294495,
     7.38162088,
     7.61981201,
     0.611800909,
     0.214736685,
     -0.118057534,
     0.124161646,
     0.0802988857,
     0.00198870315,
     -0.14816834,
     -0.00276143965,
     -0.259317786,
     -0.0681746453,
     -0.382127553,
     0.292310983,
     -0.489416569,
     -0.170989066,
     -0.0793430209,
     -0.485915512,
     1.20136523,
     -0.0978959054,
     -0.0463755541,
     -0.410095066,
     -0.481951118,
     -0.405307204,
     -0.0256358162,
     -0.348576427,
     -0.397262603,
     -0.207973123,
     0.244916603,
     -0.482642382,
     0.0768995136,
     1.21329153,
     -0.292204708,
     -0.0425845757
    ],
    "children_left": [
     1,
     3,
     5,
     7,
     9,
     11,
     13,
     15,
     17,
     19,
     21,
     23,
     25,
     27,
     29,
     31,
     33,
     35,
     37,
     39,
     41,
     43,
     45,
     47,
     49,
     51,
     53,
     55,
     57,
     59,
     61,
     -1,
     -1,
     -1,
     -1,
     -1,
     -1,
     -1,
     -1,
     -1,
     -1,
     -1,
     -1,
     -1,
     -1,
     -1,
     -1,
     -1,
     -1,
     -1,
     -1,
     -1,
     -1,
     -1,
     -1,
     -1,
     -1,
     -1,
     -1,
     -1,
     -1,
     -1,
     -1
    ],
    "children_right": [
     2,
     4,
     6,
     8,
     10,
     12,
     14,
     16,
     18,
     20,
     22,
     24,
     26,
     28,
     30,
     32,
     34,
     36,
     38,
     40,
     42,
     44,
     46,
     48,
     50,
     52,
     54,
     56,
     58,
     60,
     62,
     -1,
     -1,
     -1,
     -1,
     -1,
     -1,
     -1,
     -1,
     -1,
     -1,
     -1,
     -1,
     -1,
     -1,
     -1,
     -1,
     -1,
     -1,
     -1,
     -1,
     -1,
     -1,
     -1,
     -1,
     -1,
     -1,
     -1,
     -1,
     -1,
     -1,
     -1,
     -1
    ]
   },
   {
    "feature": [
     3,
     15,
     7,
     14,
     11,
     14,
     0,
     3,
     7,
     14,
     15,
     14,
     14,
     14,
     14,
     5,
     10,
     14,
     12,
     3,
     3,
     3,
     15,
     5,
     5,
     6,
     3,
     15,
     5,
     3,
     15,
     -2,
     -2,
     -2,
     -2,
     -2,
     -2,
     -2,
     -2,
     -2,
     -2,
     -2,
     -2,
     -2,
     -2,
     -2,
     -2,
     -2,
     -2,
     -2,
     -2,
     -2,
     -2,
     -2,
     -2,
     -2,
     -2,
     -2,
     -2,
     -2,
     -2,
     -2,
     -2
    ],
    "threshold": [
     0.233273372,
     0.188851222,
     -0.372579366,
     0.266657978,
     -0.665264606,
     0.315092772,
     -0.519066632,
     -0.0177224092,
     -0.340014696,
     0.136024967,
     1.71105337,
     0.275833994,
     2.12718225,
     2.82129788,
     1.95792639,
     -0.145422518,
     -0.680222809,
     0.362866044,
     -0.201930717,
     -0.122350186,
     0.0805492699,
     -0.794536591,
     1.89556265,
     -0.445432752,
     -0.203472644,
     1.18017769,
     2.52965736,
     1.11139798,
     2.91643834,
     1.44676697,
     0.188851222,
     0.0,
     0.0,
     0.0,
     0.0,
     0.0,
     0.0,
     0.0,
     0.0,
     0.0,
     0.0,
     0.0,
     0.0,
     0.0,
     0.0,
     0.0,
     0.0,
     0.0,
     0.0,
     0.0,
     0.0,
     0.0,
     0.0,
     0.0,
     0.0,
     0.0,
     0.0,
     0.0,
     0.0,
     0.0,
     0.0,
     0.0,
     0.0
    ],
    "value": [
     468.94931,
     97.5413589,
     9.95123291,
     135.878326,
     127.149017,
     4.06106567,
     15.5098267,
     59.6614609,
     69.2812958,
     85.6928406,
     78.9459686,
     4.05147123,
     4.50785828,
     7.61968994,
     5.79067421,
     53.1569672,
     21.6658516,
     38.1174622,
     64.090538,
     21.8393764,
     37.1539917,
     48.8588867,
     6.96286011,
     0.745865345,
     6.31251049,
     0.703842163,
     3.89817429,
     3.05569458,
     8.75928497,
     10.3084564,
     6.6350193,
     0.0131944166,
     0.156841949,
     -0.34285304,
     -0.00301101618,
     0.27129519,
     0.0485884026,
     -0.33416602,
     0.130554244,
     0.0109491665,
     -0.480876446,
     -0.471934319,
     0.135703176,
     -0.131259158,
     0.0263733473,
     -0.169404015,
     -0.363266051,
     0.0880788118,
     -0.417237967,
     0.755512357,
     -0.456736207,
     -0.473083496,
     -0.0582768209,
     -0.0504349507,
     -0.39735499,
     -0.326951146,
     -0.4289231,
     0.574354708,
     -0.357322782,
     -0.123297259,
     -0.408320934,
     0.862714112,
     -0.0537323207
    ],
    "children_left": [
     1,
     3,
     5,
     7,
     9,
     11,
     13,
     15,
     17,
     19,
     21,
     23,
     25,
     27,
     29,
     31,
     33,
     35,
     37,
     39,
     41,
     43,
     45,
     47,
     49,
     51,
     53,
     55,
     57,
     59,
     61,
     -1,
     -1,
     -1,
     -1,
     -1,
     -1,
     -1,
     -1,
     -1,
     -1,
     -1,
     -1,
     -1,
     -1,
     -1,
     -1,
     -1,
     -1,
     -1,
     -1,
     -1,
     -1,
     -1,
     -1,
     -1,
     -1,
     -1,
     -1,
     -1,
     -1,
     -1,
     -1
    ],
    "children_right": [
     2,
     4,
     6,
     8,
     10,
     12,
     14,
     16,
     18,
     20,
     22,
     24,
     26,
     28,
     30,
     32,
     34,
     36,
     38,
     40,
     42,
     44,
     46,
     48,
     50,
     52,
     54,
     56,
     58,
     60,
     62,
     -1,
     -1,
     -1,
     -1,
     -1,
     -1,
     -1,
     -1,
     -1,
     -1,
     -1,
     -1,
     -1,
     -1,
     -1,
     -1,
     -1,
     -1,
     -1,
     -1,
     -1,
     -1,
     -1,
     -1,
     -1,
     -1,
     -1,
     -1,
     -1,
     -1,
     -1,
     -1
    ]
   }
  ],
  [
   {
    "feature": [
     1,
     4,
     6,
     14,
     0,
     14,
     5,
     9,
     3,
     6,
     14,
     2,
     4,
     6,
     12,
     4,
     14,
     12,
     14,
     14,
     14,
     1,
     7,
     14,
     15,
     7,
     3,
     2,
     14,
     14,
     14,
     -2,
     -2,
     -2,
     -2,
     -2,
     -2,
     -2,
     -2,
     -2,
     -2,
     -2,
     -2,
     -2,
     -2,
     -2,
     -2,
     -2,
     -2,
     -2,
     -2,
     -2,
     -2,
     -2,
     -2,
     -2,
     -2,
     -2,
     -2,
     -2,
     -2,
     -2,
     -2
    ],
    "threshold": [
     0.476206839,
     -0.604089677,
     1.28923488,
     -0.919670284,
     -0.519066632,
     2.82129788,
     2.04773188,
     1.58420038,
     -0.789691687,
     1.26028728,
     2.26521683,
     -1.01867437,
     3.0340631,
     2.17861032,
     0.882312536,
     -1.01334417,
     -1.23085248,
     -0.0614001155,
     -0.840438724,
     -0.122557074,
     -0.919670284,
     0.210576236,
     -0.128262594,
     -1.1022135,
     0.465615243,
     -0.0130837429,
     3.53586888,
     -0.872204185,
     -0.678240836,
     1.95792639,
     0.250132054,
     0.0,
     0.0,
     0.0,
     0.0,
     0.0,
     0.0,
     0.0,
     0.0,
     0.0,
     0.0,
     0.0,
     0.0,
     0.0,
     0.0,
     0.0,
     0.0,
     0.0,
     0.0,
     0.0,
     0.0,
     0.0,
     0.0,
     0.0,
     0.0,
     0.0,
     0.0,
     0.0,
     0.0,
     0.0,
     0.0,
     0.0,
     0.0
    ],
    "value": [
     113.868401,
     139.789368,
     133.766541,
     152.174332,
     38.4250793,
     58.029129,
     26.5607452,
     97.4043808,
     154.922485,
     21.7813263,
     40.0221863,
     44.9235497,
     28.5549507,
     26.130127,
     12.598732,
     70.0648499,
     76.2532959,
     28.0767212,
     83.1588211,
     17.0561066,
     13.0425644,
     35.1302185,
     9.46092033,
     33.1827126,
     56.2699165,
     10.8771591,
     11.4335976,
     12.174469,
     6.99956512,
     7.75219297,
     5.24995613,
     0.00311046513,
     -0.0931186229,
     -0.0644739419,
     0.185004294,
     1.26044047,
     0.591553807,
     -0.207707733,
     0.226511002,
     -0.401761115,
     -0.1942316,
     -0.729017913,
     0.00434441958,
     -0.121710606,
     -0.0366025008,
     0.245762542,
     0.778279483,
     0.107168183,
     0.496733904,
     -0.0556261279,
     0.0271696765,
     0.325495124,
     0.648083389,
     0.611519814,
     -0.165253282,
     0.372903198,
     0.153987721,
     0.10006272,
     0.37989217,
     -0.201922178,
     0.53729701,
     0.690348148,
     0.087186873
    ],
    "children_left": [
     1,
     3,
     5,
     7,
     9,
     11,
     13,
     15,
     17,
     19,
     21,
     23,
     25,
     27,
     29,
     31,
     33,
     35,
     37,
     39,
     41,
     43,
     45,
     47,
     49,
     51,
     53,
     55,
     57,
     59,
     61,
     -1,
     -1,
     -1,
     -1,
     -1,
     -1,
     -1,
     -1,
     -1,
     -1,
     -1,
     -1,
     -1,
     -1,
     -1,
     -1,
     -1,
     -1,
     -1,
     -1,
     -1,
     -1,
     -1,
     -1,
     -1,
     -1,
     -1,
     -1,
     -1,
     -1,
     -1,
     -1
    ],
    "children_right": [
     2,
     4,
     6,
     8,
     10,
     12,
     14,
     16,
     18,
     20,
     22,
     24,
     26,
     28,
     30,
     32,
     34,
     36,
     38,
     40,
     42,
     44,
     46,
     48,
     50,
     52,
     54,
     56,
     58,
     60,
     62,
     -1,
     -1,
     -1,
     -1,
     -1,
     -1,
     -1,
     -1,
     -1,
     -1,
     -1,
     -1,
     -1,
     -1,
     -1,
     -1,
     -1,
     -1,
     -1,
     -1,
     -1,
     -1,
     -1,
     -1,
     -1,
     -1,
     -1,
     -1,
     -1,
     -1,
     -1,
     -1
    ]
   },
   {
    "feature": [
     3,
     12,
     7,
     0,
     14,
     6,
     14,
     15,
     15,
     0,
     12,
     2,
     0,
     12,
     14,
     14,
     0,
     0,
     10,
     4,
     1,
     5,
     15,
     7,
     3,
     2,
     14,
     2,
     14,
     15,
     7,
     -2,
     -2,
     -2,
     -2,
     -2,
     -2,
     -2,
     -2,
     -2,
     -2,
     -2,
     -2,
     -2,
     -2,
     -2,
     -2,
     -2,
     -2,
     -2,
     -2,
     -2,
     -2,
     -2,
     -2,
     -2,
     -2,
     -2,
     -2,
     -2,
     -2,
     -2,
     -2
    ],
    "threshold": [
     0.147420868,
     -0.0889781564,
     -0.211701497,
     1.66186094,
     0.52427727,
