{"learner":{"attributes":{"scikit_learn":"{\"_estimator_type\": \"classifier\"}"},"feature_names":[],"feature_types":[],"gradient_booster":{"model":{"gbtree_model_param":{"num_parallel_tree":"1","num_trees":"125"},"iteration_indptr":[0,5,10,15,20,25,30,35,40,45,50,55,60,65,70,75,80,85,90,95,100,105,110,115,120,125],"tree_info":[0,1,2,3,4,0,1,2,3,4,0,1,2,3,4,0,1,2,3,4,0,1,2,3,4,0,1,2,3,4,0,1,2,3,4,0,1,2,3,4,0,1,2,3,4,0,1,2,3,4,0,1,2,3,4,0,1,2,3,4,0,1,2,3,4,0,1,2,3,4,0,1,2,3,4,0,1,2,3,4,0,1,2,3,4,0,1,2,3,4,0,1,2,3,4,0,1,2,3,4,0,1,2,3,4,0,1,2,3,4,0,1,2,3,4,0,1,2,3,4,0,1,2,3,4],"trees":[{"base_weights":[4.2874417E-3,-3.1020895E-1,6.502969E-1,-4.312811E-1,3.5263106E-1,1.6842899E0,1.8732463E-1,-1.9025086E-1,-5.5774087E-1,-2.2292556E-1,9.968928E-1,1.4274776E0,2.037368E0,-8.8778496E-2,1.0016469E0,-3.987459E-1,2.818991E-1,-5.937557E-1,-3.5311013E-1,-4.1496894E-1,9.1177024E-2,1.1267523E0,-2.6409948E-2,1.7856464E0,8.270421E-1,2.1676602E0,1.783985E0,1.9415121E-1,-4.06077E-1,1.6311831E0,3.867692E-1,-4.9278358E-1,-2.3405464E-1,4.514247E-1,7.764166E-3,6.5654166E-2,-5.962301E-1,3.069397E-2,-4.5564264E-1,-4.861672E-1,-2.743777E-1,-1.6786352E-1,1.7656037E-1,7.742576E-1,1.4287034E0,3.7042728E-1,-5.188859E-1,1.4705658E0,1.9457184E0,1.0423576E0,3.8815463E-1,2.047006E0,2.2610953E0,1.4733944E0,2.0759666E0,-9.62424E-2,7.501674E-1,-4.6923858E-1,6.0764796E-1,1.8457619E0,1.265867E0,2.0704415E-2,1.2327647E0],"categories":[],"categories_nodes":[],"categories_segments":[],"categories_sizes":[],"default_left":[0,0,0,0,0,0,0,0,0,0,0,0,0,0,0,0,0,0,0,0,0,0,0,0,0,0,0,0,0,0,0,0,0,0,0,0,0,0,0,0,0,0,0,0,0,0,0,0,0,0,0,0,0,0,0,0,0,0,0,0,0,0,0],"id":0,"left_children":[1,3,5,7,9,11,13,15,17,19,21,23,25,27,29,31,33,35,37,39,41,43,45,47,49,51,53,55,57,59,61,-1,-1,-1,-1,-1,-1,-1,-1,-1,-1,-1,-1,-1,-1,-1,-1,-1,-1,-1,-1,-1,-1,-1,-1,-1,-1,-1,-1,-1,-1,-1,-1],"loss_changes":[4.316947E4,1.1468848E4,3.3304758E4,3.6831152E3,8.184855E3,1.9481289E3,1.0805005E4,4.0936836E3,5.8388086E2,7.032999E2,1.384001E3,2.6781113E3,2.9517188E2,3.2219773E3,4.7095938E3,4.4663477E2,5.91996E2,1.1E2,4.6687964E2,7.2290405E1,9.788652E1,9.8257227E2,2.2959123E2,3.9071484E2,4.3970874E2,6.2753906E1,2.764043E2,3.0634944E3,1.0834854E3,4.6895508E2,1.9067804E3,0E0,0E0,0E0,0E0,0E0,0E0,0E0,0E0,0E0,0E0,0E0,0E0,0E0,0E0,0E0,0E0,0E0,0E0,0E0,0E0,0E0,0E0,0E0,0E0,0E0,0E0,0E0,0E0,0E0,0E0,0E0,0E0],"parents":[2147483647,0,0,1,1,2,2,3,3,4,4,5,5,6,6,7,7,8,8,9,9,10,10,11,11,12,12,13,13,14,14,15,15,16,16,17,17,18,18,19,19,20,20,21,21,22,22,23,23,24,24,25,25,26,26,27,27,28,28,29,29,30,30],"right_children":[2,4,6,8,10,12,14,16,18,20,22,24,26,28,30,32,34,36,38,40,42,44,46,48,50,52,54,56,58,60,62,-1,-1,-1,-1,-1,-1,-1,-1,-1,-1,-1,-1,-1,-1,-1,-1,-1,-1,-1,-1,-1,-1,-1,-1,-1,-1,-1,-1,-1,-1,-1,-1],"split_conditions":[3.2723323E-1,9.6789235E-1,-3.4356555E-1,-4.126595E-1,-4.1080415E-1,9.7301596E-1,1.6649259E0,-4.1080415E-1,4.19955E-1,-7.336955E-1,-6.795802E-1,-7.051195E-1,-5.999569E-1,1.25521E0,1.5006471E0,-8.259502E-1,-7.051195E-1,-2.3354733E-1,6.29845E-1,-9.1820484E-1,-1.2630453E0,-8.79128E-2,-1.4876673E-1,1.0495161E0,-2.3435962E-1,1.2959073E0,1.4804167E0,9.7301596E-1,2.1271822E0,9.670591E-1,2.1271822E0,-4.9278358E-1,-2.3405464E-1,4.514247E-1,7.764166E-3,6.5654166E-2,-5.962301E-1,3.069397E-2,-4.5564264E-1,-4.861672E-1,-2.743777E-1,-1.6786352E-1,1.7656037E-1,7.742576E-1,1.4287034E0,3.7042728E-1,-5.188859E-1,1.4705658E0,1.9457184E0,1.0423576E0,3.8815463E-1,2.047006E0,2.2610953E0,1.4733944E0,2.0759666E0,-9.62424E-2,7.501674E-1,-4.6923858E-1,6.0764796E-1,1.8457619E0,1.265867E0,2.0704415E-2,1.2327647E0],"split_indices":[15,9,3,3,15,15,15,15,14,15,2,3,3,2,2,15,3,14,2,15,14,15,14,9,2,15,15,15,14,2,14,0,0,0,0,0,0,0,0,0,0,0,0,0,0,0,0,0,0,0,0,0,0,0,0,0,0,0,0,0,0,0,0],"split_type":[0,0,0,0,0,0,0,0,0,0,0,0,0,0,0,0,0,0,0,0,0,0,0,0,0,0,0,0,0,0,0,0,0,0,0,0,0,0,0,0,0,0,0,0,0,0,0,0,0,0,0,0,0,0,0,0,0,0,0,0,0,0,0],"sum_hessian":[2.1248002E5,1.4290848E5,6.957152E4,1.20837125E5,2.2071361E4,2.1515842E4,4.8055684E4,4.1583043E4,7.9254086E4,1.1657601E4,1.0413761E4,1.2458881E4,9.056961E3,3.5888324E4,1.2167361E4,2.8845441E4,1.2737601E4,6.739137E4,1.1862721E4,7.2342407E3,4.4233604E3,9.240961E3,1.1728E3,7.8025605E3,4.6563203E3,5.9763203E3,3.0806401E3,1.8971842E4,1.691648E4,6.0112E3,6.1561606E3,1.8360002E4,1.048544E4,7.8700806E3,4.8675205E3,2.5184001E2,6.713952E4,2.50112E3,9.361601E3,4.80064E3,2.4336E3,1.0963201E3,3.3270403E3,4.2652803E3,4.97568E3,6.4960004E2,5.232E2,2.6320002E3,5.1705605E3,3.1228801E3,1.5334401E3,2.6182402E3,3.3580803E3,1.49568E3,1.5849601E3,1.2463361E4,6.5084805E3,1.5924801E4,9.9168005E2,3.7843203E3,2.2268801E3,4.2976E3,1.8585602E3],"tree_param":{"num_deleted":"0","num_feature":"16","num_nodes":"63","size_leaf_vector":"1"}},{"base_weights":[-1.8589897E-2,7.3043776E-1,-4.4629174E-1,1.3164777E0,6.860622E-2,-2.7138527E-2,-4.7660762E-1,1.6425214E0,1.0447379E0,3.823117E-1,-2.1630481E-1,6.665791E-2,-3.3672065E-1,-5.5574715E-1,-3.5818863E-1,1.8183167E0,1.5295905E0,1.1924453E0,8.5930336E-1,5.167081E-1,1.7356408E-1,-5.4088037E-2,-3.5644943E-1,-4.1319493E-2,2.855241E-1,-5.2969277E-1,-2.3741621E-1,-5.8761454E-1,-4.4411358E-1,-1.8123682E-1,-5.0264645E-1,1.8983325E0,1.7629609E0,1.6203724E0,1.4706104E0,1.1324655E0,1.3053287E0,7.668539E-1,1.0009307E0,6.1006176E-1,3.1618112E-1,8.5000254E-2,5.1809424E-1,-1.9609381E-1,1.4041106E-1,-4.0982085E-1,-1.861252E-1,5.9942994E-2,-2.442304E-1,7.91099E-2,6.118077E-1,-4.0971717E-1,-5.644755E-1,1.12359546E-1,-2.7782193E-1,-6.017576E-1,-4.8399234E-1,-4.684335E-1,-2.682296E-1,1.3216291E-1,-2.4953827E-1,-2.4110505E-1,-5.515735E-1],"categories":[],"categories_nodes":[],"categories_segments":[],"categories_sizes":[],"default_left":[0,0,0,0,0,0,0,0,0,0,0,0,0,0,0,0,0,0,0,0,0,0,0,0,0,0,0,0,0,0,0,0,0,0,0,0,0,0,0,0,0,0,0,0,0,0,0,0,0,0,0,0,0,0,0,0,0,0,0,0,0,0,0],"id":1,"left_children":[1,3,5,7,9,11,13,15,17,19,21,23,25,27,29,31,33,35,37,39,41,43,45,47,49,51,53,55,57,59,61,-1,-1,-1,-1,-1,-1,-1,-1,-1,-1,-1,-1,-1,-1,-1,-1,-1,-1,-1,-1,-1,-1,-1,-1,-1,-1,-1,-1,-1,-1,-1,-1],"loss_changes":[6.807085E4,2.9954363E4,1.7186348E3,3.6273281E3,3.2418965E3,2.6494962E2,1.181834E3,3.6683203E2,6.109629E2,4.842339E2,4.3211298E2,1.6550903E2,4.053119E1,2.6868945E2,1.2915269E3,2.8884766E1,5.8347656E1,8.271094E1,1.2898975E2,1.9639404E2,2.0631229E2,2.434028E2,9.262634E1,9.638707E1,1.5577426E2,2.7734985E0,1.985408E1,8.5896484E1,7.17063E1,4.8619238E2,3.5583838E2,0E0,0E0,0E0,0E0,0E0,0E0,0E0,0E0,0E0,0E0,0E0,0E0,0E0,0E0,0E0,0E0,0E0,0E0,0E0,0E0,0E0,0E0,0E0,0E0,0E0,0E0,0E0,0E0,0E0,0E0,0E0,0E0],"parents":[2147483647,0,0,1,1,2,2,3,3,4,4,5,5,6,6,7,7,8,8,9,9,10,10,11,11,12,12,13,13,14,14,15,15,16,16,17,17,18,18,19,19,20,20,21,21,22,22,23,23,24,24,25,25,26,26,27,27,28,28,29,29,30,30],"right_children":[2,4,6,8,10,12,14,16,18,20,22,24,26,28,30,32,34,36,38,40,42,44,46,48,50,52,54,56,58,60,62,-1,-1,-1,-1,-1,-1,-1,-1,-1,-1,-1,-1,-1,-1,-1,-1,-1,-1,-1,-1,-1,-1,-1,-1,-1,-1,-1,-1,-1,-1,-1,-1],"split_conditions":[-3.1870696E-1,-3.646768E-1,-3.2520935E-2,-9.6433216E-1,2.3497856E-1,1.0191432E0,4.3282162E-2,-1.2872236E0,-6.414408E-1,1.1204889E0,6.962519E-1,5.262074E-1,-4.98568E-1,-2.6387978E-1,9.992377E-1,-1.4717329E0,-1.1488415E0,-6.1583376E-1,-8.3496755E-1,4.3418743E-3,-9.5187616E-1,-8.379183E-1,-6.698004E-1,-3.4356555E-1,1.5649688E-1,1.2497799E0,4.4222042E-1,9.659655E-2,1.8923501E0,2.0325442E-1,1.2456429E0,1.8983325E0,1.7629609E0,1.6203724E0,1.4706104E0,1.1324655E0,1.3053287E0,7.668539E-1,1.0009307E0,6.1006176E-1,3.1618112E-1,8.5000254E-2,5.1809424E-1,-1.9609381E-1,1.4041106E-1,-4.0982085E-1,-1.861252E-1,5.9942994E-2,-2.442304E-1,7.91099E-2,6.118077E-1,-4.0971717E-1,-5.644755E-1,1.12359546E-1,-2.7782193E-1,-6.017576E-1,-4.8399234E-1,-4.684335E-1,-2.682296E-1,1.3216291E-1,-2.4953827E-1,-2.4110505E-1,-5.515735E-1],"split_indices":[14,15,14,15,15,15,3,15,15,9,15,6,3,7,5,15,15,5,3,15,2,2,3,3,0,15,1,15,6,1,14,0,0,0,0,0,0,0,0,0,0,0,0,0,0,0,0,0,0,0,0,0,0,0,0,0,0,0,0,0,0,0,0],"split_type":[0,0,0,0,0,0,0,0,0,0,0,0,0,0,0,0,0,0,0,0,0,0,0,0,0,0,0,0,0,0,0,0,0,0,0,0,0,0,0,0,0,0,0,0,0,0,0,0,0,0,0,0,0,0,0,0,0,0,0,0,0,0,0],"sum_hessian":[2.1248002E5,7.7229125E4,1.3525089E5,4.0959363E4,3.626976E4,9.122561E3,1.2612833E5,1.861696E4,2.2342402E4,1.72624E4,1.9007361E4,7.0019204E3,2.1206401E3,7.560065E4,5.0527684E4,7.2758403E3,1.1341121E4,1.2433281E4,9.909121E3,1.050048E4,6.7619204E3,8.810561E3,1.0196801E4,4.6892803E3,2.3126401E3,7.1904004E2,1.4016001E3,5.8808645E4,1.6792002E4,2.271072E4,2.7816963E4,2.9616E3,4.31424E3,4.4560005E3,6.8851206E3,8.1264004E3,4.3068804E3,5.9993604E3,3.9097603E3,7.1635205E3,3.3369602E3,5.38016E3,1.3817601E3,5.0924805E3,3.7180803E3,7.7628804E3,2.4339202E3,3.1286401E3,1.5606401E3,1.4172802E3,8.9536005E2,1.6448001E2,5.5456006E2,1.4496E2,1.2566401E3,5.174176E4,7.0668804E3,1.4750721E4,2.0412802E3,4.0636802E3,1.8647041E4,4.38464E3,2.3432322E4],"tree_param":{"num_deleted":"0","num_feature":"16","num_nodes":"63","size_leaf_vector":"1"}},{"base_weights":[7.4171335E-3,-4.2738447E-1,1.6718411E0,-4.6176216E-1,5.185393E-1,1.8696618E0,7.2647595E-1,-5.705275E-1,-3.7830335E-1,1.6579896E0,3.201659E-1,1.3858086E0,2.1735644E0,9.098813E-2,1.1916E0,-5.988651E-1,-5.467859E-1,-2.7813375E-1,-5.61403E-1,1.8869995E0,6.7051184E-1,5.751999E-1,-1.7637695E-1,1.613101E0,7.8057706E-1,2.281846E0,9.668454E-1,-9.836033E-2,4.124091E-1,1.6271516E0,4.0320724E-1,-6.117476E-1,-5.874834E-1,-5.169869E-1,-5.645613E-1,-4.051804E-1,6.9092596E-1,-5.893886E-1,-4.4177225E-1,-2.5423726E-1,1.9058435E0,-2.6576018E-1,8.89843E-1,1.3038908E-1,9.170584E-1,2.3626198E-1,-2.938524E-1,1.6449225E0,-7.8108504E-2,4.4301778E-1,1.1050305E0,1.7435386E0,2.3702035E0,-1.9333112E-1,1.9572215E0,1.2586461E-1,-3.4290072E-1,6.1779726E-1,-3.7590945E-1,1.8078604E0,9.901305E-1,-1.7217146E-1,1.0910262E0],"categories":[],"categories_nodes":[],"categories_segments":[],"categories_sizes":[],"default_left":[0,0,0,0,0,0,0,0,0,0,0,0,0,0,0,0,0,0,0,0,0,0,0,0,0,0,0,0,0,0,0,0,0,0,0,0,0,0,0,0,0,0,0,0,0,0,0,0,0,0,0,0,0,0,0,0,0,0,0,0,0,0,0],"id":2,"left_children":[1,3,5,7,9,11,13,15,17,19,21,23,25,27,29,31,33,35,37,39,41,43,45,47,49,51,53,55,57,59,61,-1,-1,-1,-1,-1,-1,-1,-1,-1,-1,-1,-1,-1,-1,-1,-1,-1,-1,-1,-1,-1,-1,-1,-1,-1,-1,-1,-1,-1,-1,-1,-1],"loss_changes":[1.53772E5,5.478715E3,8.229133E3,1.4754492E3,1.3350114E3,5.348508E3,2.2514243E3,4.715625E1,1.6869619E3,1.9680786E2,6.37538E2,1.9305488E3,2.9184375E3,1.9602377E2,1.5095957E3,4.3564453E0,2.0055664E1,7.3207305E3,1.08637695E2,2.9150635E1,3.4415535E1,5.0560962E2,8.290534E1,5.494922E2,4.1962476E2,9.714375E2,2.1171785E3,1.112009E2,1.9354782E2,3.2429395E2,6.201165E2,0E0,0E0,0E0,0E0,0E0,0E0,0E0,0E0,0E0,0E0,0E0,0E0,0E0,0E0,0E0,0E0,0E0,0E0,0E0,0E0,0E0,0E0,0E0,0E0,0E0,0E0,0E0,0E0,0E0,0E0,0E0,0E0],"parents":[2147483647,0,0,1,1,2,2,3,3,4,4,5,5,6,6,7,7,8,8,9,9,10,10,11,11,12,12,13,13,14,14,15,15,16,16,17,17,18,18,19,19,20,20,21,21,22,22,23,23,24,24,25,25,26,26,27,27,28,28,29,29,30,30],"right_children":[2,4,6,8,10,12,14,16,18,20,22,24,26,28,30,32,34,36,38,40,42,44,46,48,50,52,54,56,58,60,62,-1,-1,-1,-1,-1,-1,-1,-1,-1,-1,-1,-1,-1,-1,-1,-1,-1,-1,-1,-1,-1,-1,-1,-1,-1,-1,-1,-1,-1,-1,-1,-1],"split_conditions":[5.485576E-1,5.7961617E-2,1.8955626E0,-6.5714467E-1,2.6665798E-1,1.3797106E0,1.5786126E0,-5.953135E-1,2.2903004E-1,2.400897E-1,6.875992E-1,1.0652707E0,2.0280113E0,1.2154933E0,2.1271822E0,-1.0565869E0,7.717822E-1,-1.4638878E-1,1.8885122E-1,-1.2410963E0,1.2141004E-2,1.4742087E-1,-8.7595165E-1,1.8815975E0,9.670591E-1,-3.3806598E-1,2.1722698E-1,1.0086149E0,1.858112E0,2.771982E0,8.876585E-1,-6.117476E-1,-5.874834E-1,-5.169869E-1,-5.645613E-1,-4.051804E-1,6.9092596E-1,-5.893886E-1,-4.4177225E-1,-2.5423726E-1,1.9058435E0,-2.6576018E-1,8.89843E-1,1.3038908E-1,9.170584E-1,2.3626198E-1,-2.938524E-1,1.6449225E0,-7.8108504E-2,4.4301778E-1,1.1050305E0,1.7435386E0,2.3702035E0,-1.9333112E-1,1.9572215E0,1.2586461E-1,-3.4290072E-1,6.1779726E-1,-3.7590945E-1,1.8078604E0,9.901305E-1,-1.7217146E-1,1.0910262E0],"split_indices":[2,3,15,3,14,2,2,15,14,12,14,15,14,2,14,15,10,3,15,15,14,3,12,14,2,11,11,14,14,15,11,0,0,0,0,0,0,0,0,0,0,0,0,0,0,0,0,0,0,0,0,0,0,0,0,0,0,0,0,0,0,0,0],"split_type":[0,0,0,0,0,0,0,0,0,0,0,0,0,0,0,0,0,0,0,0,0,0,0,0,0,0,0,0,0,0,0,0,0,0,0,0,0,0,0,0,0,0,0,0,0,0,0,0,0,0,0,0,0,0,0,0,0,0,0,0,0,0,0],"sum_hessian":[2.1248002E5,1.6847073E5,4.400928E4,1.6256322E5,5.9075205E3,3.639296E4,7.6163203E3,7.057824E4,9.198497E4,8.7488007E2,5.03264E3,1.4041921E4,2.2351041E4,3.2192002E3,4.39712E3,3.2163842E4,3.8414402E4,5.9458883E4,3.2526082E4,7.0944006E2,1.6544002E2,3.3248003E3,1.7078401E3,1.0207041E4,3.8348804E3,2.0509762E4,1.8412802E3,2.0262401E3,1.1929601E3,2.8316802E3,1.5654401E3,1.5062401E4,1.7101441E4,1.4364161E4,2.4050242E4,5.2567684E4,6.8912007E3,2.6356482E4,6.1696006E3,6.0800004E0,7.0336005E2,3.1360003E1,1.3408002E2,1.4454401E3,1.8793601E3,3.7824002E2,1.3296001E3,1.0018561E4,1.8848001E2,1.8806401E3,1.9542401E3,2.8947202E3,1.7615041E4,8.4832007E2,9.929601E2,1.05728E3,9.689601E2,9.4656006E2,2.4640002E2,2.2044802E3,6.272001E2,8.5280005E2,7.126401E2],"tree_param":{"num_deleted":"0","num_feature":"16","num_nodes":"63","size_leaf_vector":"1"}},{"base_weights":[3.2379364E-3,4.0313372E-1,-6.001959E-1,-2.3601148E-1,1.7190858E0,-2.636827E-1,-6.1037E-1,-1.6363038E-1,-4.729422E-1,2.0086808E0,-1.8190111E-1,3.0312316E-2,-5.263238E-1,-5.07324E-1,-6.1567897E-1,-2.1295144E-1,3.8658214E-1,-5.183135E-1,-2.4742377E-1,2.1469357E0,3.1417668E-1,4.876112E-1,-4.5165515E-1,5.611829E-1,-2.899776E-1,-3.4613025E-1,-5.574028E-1,-3.4046492E-1,-5.6013477E-1,-5.7657224E-1,-6.1688095E-1,-1.8539521E-1,-3.336703E-1,2.32724E-1,8.607236E-1,-4.493546E-1,-5.6445086E-1,-4.6807084E-2,-4.751956E-1,2.262277E0,1.727328E0,8.3213466E-1,-2.4310715E-1,9.1342473E-1,-2.2639982E-1,-1.9220564E-1,-5.0550216E-1,1.132728E0,4.0882653E-1,-8.002783E-2,-4.2438892E-1,-9.717723E-2,-5.378486E-1,-5.856984E-1,-4.7438195E-1,-7.811201E-2,-4.2619994E-1,-4.9845424E-1,-5.9193677E-1,-5.164201E-1,-6.071714E-1,-6.1984754E-1,-6.0928816E-1],"categories":[],"categories_nodes":[],"categories_segments":[],"categories_sizes":[],"default_left":[0,0,0,0,0,0,0,0,0,0,0,0,0,0,0,0,0,0,0,0,0,0,0,0,0,0,0,0,0,0,0,0,0,0,0,0,0,0,0,0,0,0,0,0,0,0,0,0,0,0,0,0,0,0,0,0,0,0,0,0,0,0,0],"id":3,"left_children":[1,3,5,7,9,11,13,15,17,19,21,23,25,27,29,31,33,35,37,39,41,43,45,47,49,51,53,55,57,59,61,-1,-1,-1,-1,-1,-1,-1,-1,-1,-1,-1,-1,-1,-1,-1,-1,-1,-1,-1,-1,-1,-1,-1,-1,-1,-1,-1,-1,-1,-1,-1,-1],"loss_changes":[5.127417E4,1.07485375E5,2.897871E2,1.4750542E3,2.2999484E4,1.9205624E2,4.4658203E1,1.7881423E3,2.0582373E2,8.492766E3,9.978531E2,1.9985574E2,7.1637573E0,3.535083E1,3.3183594E0,2.010957E2,3.9525287E2,5.305664E1,1.5411372E2,1.6183594E3,7.899592E2,4.8268698E2,5.4918396E1,3.8050003E1,2.0655529E1,9.296864E0,2.3502808E0,2.1834244E1,5.711426E0,4.005066E0,1.3320312E0,0E0,0E0,0E0,0E0,0E0,0E0,0E0,0E0,0E0,0E0,0E0,0E0,0E0,0E0,0E0,0E0,0E0,0E0,0E0,0E0,0E0,0E0,0E0,0E0,0E0,0E0,0E0,0E0,0E0,0E0,0E0,0E0],"parents":[2147483647,0,0,1,1,2,2,3,3,4,4,5,5,6,6,7,7,8,8,9,9,10,10,11,11,12,12,13,13,14,14,15,15,16,16,17,17,18,18,19,19,20,20,21,21,22,22,23,23,24,24,25,25,26,26,27,27,28,28,29,29,30,30],"right_children":[2,4,6,8,10,12,14,16,18,20,22,24,26,28,30,32,34,36,38,40,42,44,46,48,50,52,54,56,58,60,62,-1,-1,-1,-1,-1,-1,-1,-1,-1,-1,-1,-1,-1,-1,-1,-1,-1,-1,-1,-1,-1,-1,-1,-1,-1,-1,-1,-1,-1,-1,-1,-1],"split_conditions":[-1.3849382E-1,-3.2520935E-2,-1.1458419E-1,3.7336057E-1,1.8318255E-1,2.0344938E-1,1.9355509E-1,-5.504615E-1,-2.3435962E-1,6.0399723E-1,2.3534876E-1,-4.1080415E-1,2.2903004E-1,-8.677094E-2,-8.677094E-2,-8.79128E-2,-9.735641E-2,7.4237925E-1,1.0652707E0,-1.3404013E-1,1.0652707E0,4.3418743E-3,2.5774154E-1,-1.0104595E0,5.0469212E-2,-8.123097E-1,5.5900764E-1,-5.4918617E-1,-2.262948E-1,2.5408667E-1,1.8171613E-1,-1.8539521E-1,-3.336703E-1,2.32724E-1,8.607236E-1,-4.493546E-1,-5.6445086E-1,-4.6807084E-2,-4.751956E-1,2.262277E0,1.727328E0,8.3213466E-1,-2.4310715E-1,9.1342473E-1,-2.2639982E-1,-1.9220564E-1,-5.0550216E-1,1.132728E0,4.0882653E-1,-8.002783E-2,-4.2438892E-1,-9.717723E-2,-5.378486E-1,-5.856984E-1,-4.7438195E-1,-7.811201E-2,-4.2619994E-1,-4.9845424E-1,-5.9193677E-1,-5.164201E-1,-6.071714E-1,-6.1984754E-1,-6.0928816E-1],"split_indices":[3,14,3,15,14,14,14,3,2,15,14,15,14,3,3,15,14,15,15,15,15,15,14,15,15,13,0,15,15,14,6,0,0,0,0,0,0,0,0,0,0,0,0,0,0,0,0,0,0,0,0,0,0,0,0,0,0,0,0,0,0,0,0],"split_type":[0,0,0,0,0,0,0,0,0,0,0,0,0,0,0,0,0,0,0,0,0,0,0,0,0,0,0,0,0,0,0,0,0,0,0,0,0,0,0,0,0,0,0,0,0,0,0,0,0,0,0,0,0,0,0,0,0,0,0,0,0,0,0],"sum_hessian":[2.1248002E5,1.2779233E5,8.468769E4,8.601601E4,4.1776324E4,2.48608E3,8.220161E4,6.588896E4,2.0127041E4,3.625344E4,5.5228804E3,1.1734401E3,1.3126401E3,4.0323203E3,7.816929E4,6.0469125E4,5.4198403E3,1.675488E4,3.3721602E3,3.3518402E4,2.7350403E3,1.5859202E3,3.9369602E3,4.4128003E2,7.3216003E2,1.9488002E2,1.1177601E3,9.712001E2,3.06112E3,2.3452803E3,7.582401E4,4.9233285E4,1.1235841E4,4.0931204E3,1.3267201E3,6.7206406E3,1.003424E4,1.7936001E3,1.57856E3,2.6288002E4,7.2304004E3,1.4172802E3,1.3177601E3,9.932801E2,5.9264E2,6.7744006E2,3.2595203E3,9.1520004E1,3.4976E2,2.8640002E2,4.4576004E2,8.544E1,1.0944001E2,8.2912006E2,2.8864E2,2.3968002E2,7.315201E2,1.04704E3,2.0140802E3,7.9680005E2,1.5484801E3,5.4463684E4,2.1360322E4],"tree_param":{"num_deleted":"0","num_feature":"16","num_nodes":"63","size_leaf_vector":"1"}},{"base_weights":[3.6473847E-3,-3.5964796E-1,5.257079E-1,-2.9919374E-1,-5.0709206E-1,1.9249684E0,-5.947307E-1,-2.4544482E-1,-4.7193593E-1,-5.3635037E-1,-2.1494098E-1,2.1308446E0,1.5849645E-1,-8.757194E-2,-6.104023E-1,-2.2343816E-1,-3.4400517E-1,-5.187585E-1,-3.3520383E-1,-5.681526E-1,-4.6155524E-1,-4.0955326E-1,8.6802885E-2,7.925323E-1,2.272305E0,6.314553E-1,-4.9626678E-1,1.0218824E0,-3.5827997E-1,-4.806959E-1,-6.147325E-1,-3.4130517E-1,-2.0654908E-1,-2.7913457E-1,-4.357162E-1,-4.7007212E-1,-5.702525E-1,-2.1891774E-1,-4.8683554E-1,-5.7998395E-1,-3.868271E-1,-4.814547E-1,-3.0827332E-1,-5.0789493E-1,-2.4240482E-1,2.9424387E-1,-4.3459505E-1,1.0328878E-1,1.3001735E0,2.3014455E0,-1.9128354E-1,1.1321324E0,-9.296618E-2,-2.1771997E-1,-5.8075607E-1,1.7770418E0,6.66803E-1,-5.3373404E-2,-5.0804186E-1,-4.5780744E-2,-5.319836E-1,-5.8765495E-1,-6.1677116E-1],"categories":[],"categories_nodes":[],"categories_segments":[],"categories_sizes":[],"default_left":[0,0,0,0,0,0,0,0,0,0,0,0,0,0,0,0,0,0,0,0,0,0,0,0,0,0,0,0,0,0,0,0,0,0,0,0,0,0,0,0,0,0,0,0,0,0,0,0,0,0,0,0,0,0,0,0,0,0,0,0,0,0,0],"id":4,"left_children":[1,3,5,7,9,11,13,15,17,19,21,23,25,27,29,31,33,35,37,39,41,43,45,47,49,51,53,55,57,59,61,-1,-1,-1,-1,-1,-1,-1,-1,-1,-1,-1,-1,-1,-1,-1,-1,-1,-1,-1,-1,-1,-1,-1,-1,-1,-1,-1,-1,-1,-1,-1,-1],"loss_changes":[4.0299793E4,1.1166592E3,1.3669556E5,8.249365E2,3.112998E2,1.4099641E4,3.847832E2,1.4692773E2,1.3482666E2,7.8506836E1,1.9488567E2,6.572047E3,1.2538947E3,4.3661334E2,2.6085938E1,1.1022778E2,7.346582E1,3.910742E1,9.478888E1,4.9614746E1,3.0002686E1,3.3036987E1,1.4092967E2,1.1618452E3,2.2549531E3,8.527289E2,3.9841278E1,7.527832E1,5.3324127E1,3.3924194E1,2.1464844E0,0E0,0E0,0E0,0E0,0E0,0E0,0E0,0E0,0E0,0E0,0E0,0E0,0E0,0E0,0E0,0E0,0E0,0E0,0E0,0E0,0E0,0E0,0E0,0E0,0E0,0E0,0E0,0E0,0E0,0E0,0E0,0E0],"parents":[2147483647,0,0,1,1,2,2,3,3,4,4,5,5,6,6,7,7,8,8,9,9,10,10,11,11,12,12,13,13,14,14,15,15,16,16,17,17,18,18,19,19,20,20,21,21,22,22,23,23,24,24,25,25,26,26,27,27,28,28,29,29,30,30],"right_children":[2,4,6,8,10,12,14,16,18,20,22,24,26,28,30,32,34,36,38,40,42,44,46,48,50,52,54,56,58,60,62,-1,-1,-1,-1,-1,-1,-1,-1,-1,-1,-1,-1,-1,-1,-1,-1,-1,-1,-1,-1,-1,-1,-1,-1,-1,-1,-1,-1,-1,-1,-1,-1],"split_conditions":[1.6341427E-1,1.2141004E-2,8.054927E-2,3.7336057E-1,1.3602497E-1,6.962519E-1,1.4742087E-1,1.3060925E0,-5.504615E-1,-1.8016747E-1,-1.6478539E-1,2.1306574E-1,3.3552626E-1,-3.1854948E-1,2.3327337E-1,-1.2872236E0,-2.262948E-1,8.8076127E-1,1.0652707E0,-1.5331152E-1,1.1620069E-1,-3.646768E-1,-5.263284E-2,-1.5331152E-1,4.85444E-1,1.2497799E0,3.960285E-1,-8.259502E-1,3.7336057E-1,-3.646768E-1,4.3143234E-1,-3.4130517E-1,-2.0654908E-1,-2.7913457E-1,-4.357162E-1,-4.7007212E-1,-5.702525E-1,-2.1891774E-1,-4.8683554E-1,-5.7998395E-1,-3.868271E-1,-4.814547E-1,-3.0827332E-1,-5.0789493E-1,-2.4240482E-1,2.9424387E-1,-4.3459505E-1,1.0328878E-1,1.3001735E0,2.3014455E0,-1.9128354E-1,1.1321324E0,-9.296618E-2,-2.1771997E-1,-5.8075607E-1,1.7770418E0,6.66803E-1,-5.3373404E-2,-5.0804186E-1,-4.5780744E-2,-5.319836E-1,-5.8765495E-1,-6.1677116E-1],"split_indices":[14,14,3,15,14,15,3,9,3,15,3,14,14,15,3,15,15,15,15,3,14,15,3,3,14,15,14,15,15,15,3,0,0,0,0,0,0,0,0,0,0,0,0,0,0,0,0,0,0,0,0,0,0,0,0,0,0,0,0,0,0,0,0],"split_type":[0,0,0,0,0,0,0,0,0,0,0,0,0,0,0,0,0,0,0,0,0,0,0,0,0,0,0,0,0,0,0,0,0,0,0,0,0,0,0,0,0,0,0,0,0,0,0,0,0,0,0,0,0,0,0,0,0,0,0,0,0,0,0],"sum_hessian":[2.1248002E5,1.2529153E5,8.7188484E4,8.8860484E4,3.6431043E4,3.876992E4,4.8418562E4,6.777473E4,2.1085762E4,3.311392E4,3.31712E3,3.4722883E4,4.0470403E3,1.4515201E3,4.6967043E4,5.5406723E4,1.2368001E4,1.5704961E4,5.3808003E3,2.3230082E4,9.883841E3,2.0163202E3,1.3008E3,3.3200002E3,3.1402883E4,2.3497603E3,1.6972802E3,2.8416003E2,1.1673601E3,1.5209601E3,4.5446082E4,6.9417603E3,4.8464965E4,7.2464004E3,5.1216006E3,8.0777607E3,7.6272007E3,3.0467202E3,2.33408E3,2.1805121E4,1.4249601E3,8.74624E3,1.1376001E3,1.26816E3,7.4816003E2,9.3088007E2,3.6992E2,1.4086401E3,1.9113601E3,3.1035842E4,3.6704004E2,1.3891201E3,9.606401E2,3.9584003E2,1.3014401E3,8.9600006E1,1.9456001E2,3.8496002E2,7.824001E2,1.6064001E2,1.3603201E3,3.2022402E3,4.2243844E4],"tree_param":{"num_deleted":"0","num_feature":"16","num_nodes":"63","size_leaf_vector":"1"}},{"base_weights":[2.4951918E-2,-1.6273008E-1,1.6737957E-1,-3.5068296E-2,-3.9480212E-1,1.3946578E-1,4.7943193E-1,-2.3481528E-1,5.4954845E-2,-4.5558113E-1,-2.9897476E-2,1.6957226E-1,-1.6224974E-1,5.3562427E-1,1.1592154E-1,-3.108495E-1,-1.3795362E-1,-1.9525044E-1,1.0418291E-1,-2.9540905E-1,-4.8058063E-1,6.3069594E-1,-1.3909547E-1,1.5228495E-1,7.325651E-1,3.086273E-1,-2.5204736E-1,4.440804E-1,7.449903E-1,-3.3701345E-2,5.589668E-1,-3.1743345E-1,9.079178E-1,-2.364144E-1,-3.9843846E-2,-2.0351927E-1,5.5410784E-1,2.3614527E-1,-1.6454313E-2,8.6834437E-1,-3.0523717E-1,4.4731295E-1,-4.844408E-1,1.403159E-1,2.336929E0,1.1928095E0,-1.6671212E-1,2.1690004E-2,2.3961303E-1,1.0660034E0,2.7706417E-1,5.3814787E-1,1.67528E-1,9.7490263E-1,-2.7371645E-1,6.0582244E-1,3.449383E-1,6.0850346E-1,9.524146E-1,4.851614E-1,-1.5427712E-1,6.494024E-1,3.3288044E-1],"categories":[],"categories_nodes":[],"categories_segments":[],"categories_sizes":[],"default_left":[0,0,0,0,0,0,0,0,0,0,0,0,0,0,0,0,0,0,0,0,0,0,0,0,0,0,0,0,0,0,0,0,0,0,0,0,0,0,0,0,0,0,0,0,0,0,0,0,0,0,0,0,0,0,0,0,0,0,0,0,0,0,0],"id":5,"left_children":[1,3,5,7,9,11,13,15,17,19,21,23,25,27,29,31,33,35,37,39,41,43,45,47,49,51,53,55,57,59,61,-1,-1,-1,-1,-1,-1,-1,-1,-1,-1,-1,-1,-1,-1,-1,-1,-1,-1,-1,-1,-1,-1,-1,-1,-1,-1,-1,-1,-1,-1,-1,-1],"loss_changes":[3.9460369E3,1.8869541E3,7.309956E2,7.388834E2,5.012788E2,6.998137E2,1.4069153E2,9.3973145E1,3.489052E2,7.744141E1,2.3296017E2,6.816522E2,2.9565216E2,1.1405078E2,6.1260517E1,5.766919E1,5.42381E1,2.8969818E1,3.7680536E2,3.0213089E1,6.0240967E1,3.8298492E2,1.0212908E2,7.750936E2,3.1662024E2,3.618165E1,1.5636548E2,6.641498E1,5.0778687E1,4.334045E1,4.5537033E0,0E0,0E0,0E0,0E0,0E0,0E0,0E0,0E0,0E0,0E0,0E0,0E0,0E0,0E0,0E0,0E0,0E0,0E0,0E0,0E0,0E0,0E0,0E0,0E0,0E0,0E0,0E0,0E0,0E0,0E0,0E0,0E0],"parents":[2147483647,0,0,1,1,2,2,3,3,4,4,5,5,6,6,7,7,8,8,9,9,10,10,11,11,12,12,13,13,14,14,15,15,16,16,17,17,18,18,19,19,20,20,21,21,22,22,23,23,24,24,25,25,26,26,27,27,28,28,29,29,30,30],"right_children":[2,4,6,8,10,12,14,16,18,20,22,24,26,28,30,32,34,36,38,40,42,44,46,48,50,52,54,56,58,60,62,-1,-1,-1,-1,-1,-1,-1,-1,-1,-1,-1,-1,-1,-1,-1,-1,-1,-1,-1,-1,-1,-1,-1,-1,-1,-1,-1,-1,-1,-1,-1,-1],"split_conditions":[4.3418743E-3,-4.8107502E-1,2.356836E0,-7.798228E-1,4.5052862E-1,1.7964196E0,2.511951E0,-1.2607456E0,-1.2794423E0,-3.025813E-1,-1.7869728E0,1.8815975E0,1.0491592E0,3.0948734E0,3.6022742E0,-8.468618E-1,-1.0104595E0,-8.477837E-1,-8.36335E-1,-4.9130493E-1,-1.7645963E-1,1.409507E0,-1.0675262E-1,8.7930776E-2,1.9998823E0,-2.5957984E-1,8.908043E-1,3.864964E-1,1.5006471E0,4.2914954E-1,1.6200056E0,-3.1743345E-1,9.079178E-1,-2.364144E-1,-3.9843846E-2,-2.0351927E-1,5.5410784E-1,2.3614527E-1,-1.6454313E-2,8.6834437E-1,-3.0523717E-1,4.4731295E-1,-4.844408E-1,1.403159E-1,2.336929E0,1.1928095E0,-1.6671212E-1,2.1690004E-2,2.3961303E-1,1.0660034E0,2.7706417E-1,5.3814787E-1,1.67528E-1,9.7490263E-1,-2.7371645E-1,6.0582244E-1,3.449383E-1,6.0850346E-1,9.524146E-1,4.851614E-1,-1.5427712E-1,6.494024E-1,3.3288044E-1],"split_indices":[15,3,15,15,14,5,2,14,14,3,12,14,2,15,15,3,15,3,3,14,14,14,3,6,2,11,14,11,2,11,10,0,0,0,0,0,0,0,0,0,0,0,0,0,0,0,0,0,0,0,0,0,0,0,0,0,0,0,0,0,0,0,0],"split_type":[0,0,0,0,0,0,0,0,0,0,0,0,0,0,0,0,0,0,0,0,0,0,0,0,0,0,0,0,0,0,0,0,0,0,0,0,0,0,0,0,0,0,0,0,0,0,0,0,0,0,0,0,0,0,0,0,0,0,0,0,0,0,0],"sum_hessian":[1.4761764E5,6.3690395E4,8.392725E4,4.108879E4,2.2601607E4,7.7037516E4,6.889732E3,1.2764591E4,2.8324197E4,1.9374342E4,3.2272654E3,7.004824E4,6.9892783E3,5.966883E3,9.22849E2,7.149885E3,5.614706E3,4.656126E3,2.3668072E4,2.617406E3,1.6756936E4,4.571231E2,2.7701423E3,6.796264E4,2.0855974E3,1.1190121E3,5.8702666E3,4.1537886E3,1.8130945E3,6.9056055E2,2.3228848E2,7.112203E3,3.7681644E1,2.8016362E3,2.8130698E3,4.606029E3,5.009706E1,1.1303008E4,1.2365064E4,2.1187838E1,2.596218E3,6.8946434E1,1.6687988E4,3.5591388E2,1.01209206E2,5.541424E1,2.714728E3,2.7235102E4,4.072754E4,1.2033638E3,8.8223346E2,4.2494968E2,6.9406244E2,1.01111725E2,5.769155E3,1.576595E3,2.5771934E3,1.0959103E3,7.171842E2,1.2964543E2,5.609151E2,1.645824E2,6.77061E1],"tree_param":{"num_deleted":"0","num_feature":"16","num_nodes":"63","size_leaf_vector":"1"}},{"base_weights":[2.502229E-2,1.3621297E-1,-1.7294215E-1,1.05091915E-1,1.9144692E-1,-3.801601E-1,-6.735738E-2,-1.3990133E-1,1.1768069E-1,1.8113801E-1,3.5799798E-1,-4.094153E-1,-7.108527E-2,4.760177E-2,-2.0776103E-1,-2.4548306E-1,2.3081215E-2,3.9534517E-2,1.6710462E-1,1.5433137E-1,2.524017E-1,4.4644502E-1,2.5783777E-1,-1.3685825E-1,-4.5272988E-1,-2.0791651E-1,2.1933326E-1,-1.266075E-1,1.5027937E-1,-9.556401E-2,-3.8088492E-1,1.1600023E-1,-2.9270628E-1,6.204321E-2,-1.7508106E-1,-5.750365E-2,8.996892E-2,5.6000166E-2,1.9247222E-1,5.127998E-2,2.0025896E-1,-1.9936429E-1,2.626457E-1,3.13353E-1,5.81692E-1,1.21852614E-1,3.9187843E-1,-2.6982614E-1,-3.757333E-2,-4.9569646E-1,-3.6844516E-1,-2.331081E-1,7.504733E-1,4.0060902E-1,-1.7492032E-1,-2.1441674E-1,9.194297E-2,3.8265845E-1,1.3989806E-2,-2.3492725E-1,7.1475185E-2,-4.1057038E-1,-1.6227306E-1],"categories":[],"categories_nodes":[],"categories_segments":[],"categories_sizes":[],"default_left":[0,0,0,0,0,0,0,0,0,0,0,0,0,0,0,0,0,0,0,0,0,0,0,0,0,0,0,0,0,0,0,0,0,0,0,0,0,0,0,0,0,0,0,0,0,0,0,0,0,0,0,0,0,0,0,0,0,0,0,0,0,0,0],"id":6,"left_children":[1,3,5,7,9,11,13,15,17,19,21,23,25,27,29,31,33,35,37,39,41,43,45,47,49,51,53,55,57,59,61,-1,-1,-1,-1,-1,-1,-1,-1,-1,-1,-1,-1,-1,-1,-1,-1,-1,-1,-1,-1,-1,-1,-1,-1,-1,-1,-1,-1,-1,-1,-1,-1],"loss_changes":[3.3206238E3,1.6602832E2,1.1870685E3,1.9058276E2,5.970569E1,1.6556665E2,5.8017285E2,5.197796E1,2.2697778E2,6.25907E1,1.7851593E1,1.9744897E2,6.3023216E1,3.535388E2,3.14273E2,3.1323494E1,9.185292E0,1.11443275E2,1.01454346E2,1.1275513E2,4.1517273E1,1.9179901E1,1.7331146E1,3.0295593E1,5.2094727E1,2.6195919E1,3.6378845E1,1.4067767E2,3.9382684E2,2.2861246E2,4.1224915E1,0E0,0E0,0E0,0E0,0E0,0E0,0E0,0E0,0E0,0E0,0E0,0E0,0E0,0E0,0E0,0E0,0E0,0E0,0E0,0E0,0E0,0E0,0E0,0E0,0E0,0E0,0E0,0E0,0E0,0E0,0E0,0E0],"parents":[2147483647,0,0,1,1,2,2,3,3,4,4,5,5,6,6,7,7,8,8,9,9,10,10,11,11,12,12,13,13,14,14,15,15,16,16,17,17,18,18,19,19,20,20,21,21,22,22,23,23,24,24,25,25,26,26,27,27,28,28,29,29,30,30],"right_children":[2,4,6,8,10,12,14,16,18,20,22,24,26,28,30,32,34,36,38,40,42,44,46,48,50,52,54,56,58,60,62,-1,-1,-1,-1,-1,-1,-1,-1,-1,-1,-1,-1,-1,-1,-1,-1,-1,-1,-1,-1,-1,-1,-1,-1,-1,-1,-1,-1,-1,-1,-1,-1],"split_conditions":[-1.4876673E-1,1.0082023E0,-2.9397833E-1,-4.5220444E-1,-3.646768E-1,3.960285E-1,-7.3171005E-2,-5.90965E-1,-1.116388E0,-1.0805788E0,-1.2532227E0,2.204326E-2,-1.22830376E-1,2.6192632E-2,1.484944E0,-6.236871E-1,-4.7445175E-1,3.5201496E-1,-3.5059565E-1,1.5548275E0,-8.5991925E-1,-2.5615494E0,-7.67047E-1,-7.8044885E-1,-4.1080415E-1,1.8327371E0,4.6561524E-1,1.38012E0,4.220185E-1,1.6353626E-2,2.9060843E0,1.1600023E-1,-2.9270628E-1,6.204321E-2,-1.7508106E-1,-5.750365E-2,8.996892E-2,5.6000166E-2,1.9247222E-1,5.127998E-2,2.0025896E-1,-1.9936429E-1,2.626457E-1,3.13353E-1,5.81692E-1,1.21852614E-1,3.9187843E-1,-2.6982614E-1,-3.757333E-2,-4.9569646E-1,-3.6844516E-1,-2.331081E-1,7.504733E-1,4.0060902E-1,-1.7492032E-1,-2.1441674E-1,9.194297E-2,3.8265845E-1,1.3989806E-2,-2.3492725E-1,7.1475185E-2,-4.1057038E-1,-1.6227306E-1],"split_indices":[14,0,5,12,15,14,11,10,2,1,14,14,4,3,14,5,5,0,11,0,12,1,4,12,15,0,15,6,1,3,3,0,0,0,0,0,0,0,0,0,0,0,0,0,0,0,0,0,0,0,0,0,0,0,0,0,0,0,0,0,0,0,0],"split_type":[0,0,0,0,0,0,0,0,0,0,0,0,0,0,0,0,0,0,0,0,0,0,0,0,0,0,0,0,0,0,0,0,0,0,0,0,0,0,0,0,0,0,0,0,0,0,0,0,0,0,0,0,0,0,0,0,0,0,0,0,0,0,0],"sum_hessian":[1.5085445E5,9.659837E4,5.4256094E4,6.17876E4,3.4810766E4,1.8312957E4,3.5943137E4,3.0192446E3,5.8768355E4,3.278366E4,2.0271022E3,1.6729148E4,1.5838076E3,1.9762629E4,1.6180507E4,1.8319698E3,1.1872748E3,2.276906E4,3.5999293E4,2.382485E4,8.958813E3,1.07466E3,9.524421E2,2.2945913E3,1.4434558E4,1.0767697E3,5.0703802E2,7.3284644E3,1.2434165E4,9.818771E3,6.3617354E3,2.1150319E2,1.6204666E3,9.9276715E2,1.945076E2,7.786783E3,1.4982278E4,6.6921924E3,2.9307102E4,7.345431E3,1.6479418E4,1.982309E2,8.760582E3,5.433169E2,5.3134314E2,4.7373938E2,4.787027E2,9.801723E2,1.314419E3,9.557476E3,4.877081E3,1.0499287E3,2.6840944E1,3.473241E2,1.5971393E2,5.227983E3,2.1004814E3,4.5959985E3,7.838166E3,5.352607E3,4.466165E3,5.6003774E3,7.6135767E2],"tree_param":{"num_deleted":"0","num_feature":"16","num_nodes":"63","size_leaf_vector":"1"}},{"base_weights":[-2.254618E-2,-3.1256986E-1,1.8895516E-1,-4.3357742E-1,-1.3368922E-1,3.6457095E-2,3.180009E-1,-4.7701067E-1,-3.7168664E-1,3.843604E-3,-3.020244E-1,4.8924306E-1,-1.0885909E-1,2.0182659E-1,4.3759868E-1,-4.8215896E-1,-3.4021452E-1,-4.0155578E-1,-3.2077947E-1,-4.094554E-2,9.455624E-1,-4.0280202E-1,-2.5347203E-1,8.2479537E-1,3.520606E-1,-3.206178E-1,5.61293E-2,2.6659304E-1,-4.083391E-1,4.696063E-1,-1.3175502E-1,-4.942972E-1,-4.658462E-1,-2.4523237E-1,-4.2486668E-1,-3.3965975E-1,-4.283573E-1,1.3332003E-2,-3.3223587E-1,-2.0360835E-1,8.7566264E-2,1.6894294E0,3.6604849E-1,-3.545295E-1,-4.2862624E-1,-7.760734E-2,-3.0671832E-1,1.6562078E0,5.7172215E-1,1.0885684E-1,6.894444E-1,-4.3235284E-1,-1.9960254E-1,2.0014265E-1,-2.928886E-1,4.334362E-1,1.920006E-1,-6.481614E-1,-1.3975108E-1,-3.366618E-1,4.778881E-1,4.527002E-2,-3.43185E-1],"categories":[],"categories_nodes":[],"categories_segments":[],"categories_sizes":[],"default_left":[0,0,0,0,0,0,0,0,0,0,0,0,0,0,0,0,0,0,0,0,0,0,0,0,0,0,0,0,0,0,0,0,0,0,0,0,0,0,0,0,0,0,0,0,0,0,0,0,0,0,0,0,0,0,0,0,0,0,0,0,0,0,0],"id":7,"left_children":[1,3,5,7,9,11,13,15,17,19,21,23,25,27,29,31,33,35,37,39,41,43,45,47,49,51,53,55,57,59,61,-1,-1,-1,-1,-1,-1,-1,-1,-1,-1,-1,-1,-1,-1,-1,-1,-1,-1,-1,-1,-1,-1,-1,-1,-1,-1,-1,-1,-1,-1,-1,-1],"loss_changes":[8.1753643E3,1.2165664E3,1.5167239E3,8.9944336E1,5.2510223E2,2.324504E3,5.7994385E2,1.3708008E1,2.0899902E1,5.2657794E2,4.979883E1,3.948213E2,9.3443115E2,8.370316E2,3.749087E2,3.5283203E0,5.6672745E0,1.4306763E1,1.9598206E1,2.4914648E2,2.4372458E2,3.9794922E0,6.445096E1,5.229852E2,4.9998566E2,1.5828735E2,7.556911E2,2.381991E2,1.3083908E2,1.302002E2,4.102156E1,0E0,0E0,0E0,0E0,0E0,0E0,0E0,0E0,0E0,0E0,0E0,0E0,0E0,0E0,0E0,0E0,0E0,0E0,0E0,0E0,0E0,0E0,0E0,0E0,0E0,0E0,0E0,0E0,0E0,0E0,0E0,0E0],"parents":[2147483647,0,0,1,1,2,2,3,3,4,4,5,5,6,6,7,7,8,8,9,9,10,10,11,11,12,12,13,13,14,14,15,15,16,16,17,17,18,18,19,19,20,20,21,21,22,22,23,23,24,24,25,25,26,26,27,27,28,28,29,29,30,30],"right_children":[2,4,6,8,10,12,14,16,18,20,22,24,26,28,30,32,34,36,38,40,42,44,46,48,50,52,54,56,58,60,62,-1,-1,-1,-1,-1,-1,-1,-1,-1,-1,-1,-1,-1,-1,-1,-1,-1,-1,-1,-1,-1,-1,-1,-1,-1,-1,-1,-1,-1,-1,-1,-1],"split_conditions":[-1.8384466E-1,-6.5714467E-1,8.830143E-1,-3.1854948E-1,5.3022686E-2,1.7275022E-1,1.5541993E0,-7.416707E-1,3.2723323E-1,-2.229239E-1,-6.875682E-1,7.81254E-2,2.6192632E-2,1.9132478E0,3.0948734E0,-7.798228E-1,-3.5059565E-1,4.1817975E-1,-1.2872212E0,-4.8107502E-1,2.204326E-2,-2.3453076E-1,-8.117278E-1,-1.3849382E-1,-9.2913106E-2,-3.1854948E-1,8.1159943E-1,1.088859E0,-4.7677845E-1,7.6955926E-1,3.6022742E0,-4.942972E-1,-4.658462E-1,-2.4523237E-1,-4.2486668E-1,-3.3965975E-1,-4.283573E-1,1.3332003E-2,-3.3223587E-1,-2.0360835E-1,8.7566264E-2,1.6894294E0,3.6604849E-1,-3.545295E-1,-4.2862624E-1,-7.760734E-2,-3.0671832E-1,1.6562078E0,5.7172215E-1,1.0885684E-1,6.894444E-1,-4.3235284E-1,-1.9960254E-1,2.0014265E-1,-2.928886E-1,4.334362E-1,1.920006E-1,-6.481614E-1,-1.3975108E-1,-3.366618E-1,4.778881E-1,4.527002E-2,-3.43185E-1],"split_indices":[3,3,2,15,14,14,5,2,15,3,15,14,3,14,15,15,11,10,14,3,14,3,12,3,3,15,14,14,11,14,15,0,0,0,0,0,0,0,0,0,0,0,0,0,0,0,0,0,0,0,0,0,0,0,0,0,0,0,0,0,0,0,0],"split_type":[0,0,0,0,0,0,0,0,0,0,0,0,0,0,0,0,0,0,0,0,0,0,0,0,0,0,0,0,0,0,0,0,0,0,0,0,0,0,0,0,0,0,0,0,0,0,0,0,0,0,0,0,0,0,0,0,0,0,0,0,0,0,0],"sum_hessian":[1.3327667E5,5.6204758E4,7.7071914E4,3.3524793E4,2.2679969E4,3.532654E4,4.1745375E4,1.9695982E4,1.3828809E4,1.2482512E4,1.0197456E4,8.582437E3,2.67441E4,2.1177123E4,2.056825E4,1.897918E4,7.168033E2,8.710907E3,5.117902E3,1.1916698E4,5.658143E2,3.3131758E3,6.8842803E3,2.4890745E3,6.0933623E3,1.1711598E4,1.5032502E4,1.9145477E4,2.0316466E3,1.9473664E4,1.0945857E3,1.0865161E4,8.114018E3,3.3962796E2,3.771753E2,2.6362837E3,6.0746235E3,1.696654E2,4.9482363E3,5.259254E3,6.657444E3,2.4693367E2,3.1888058E2,1.1598423E3,2.1533335E3,1.6005049E3,5.2837754E3,5.795513E2,1.9095232E3,3.5416672E3,2.551695E3,6.0879434E3,5.6236543E3,1.0641844E4,4.390659E3,5.913581E3,1.32318955E4,1.0725518E3,9.5909485E2,1.9759209E2,1.9276072E4,5.961936E2,4.983921E2],"tree_param":{"num_deleted":"0","num_feature":"16","num_nodes":"63","size_leaf_vector":"1"}},{"base_weights":[-2.2945674E-2,1.266689E-1,-4.647419E-1,-1.8938664E-2,3.8941905E-1,-2.2815922E-1,-5.09397E-1,9.612903E-2,-1.3633846E-1,4.484735E-1,1.2798974E-1,1.3372645E-1,-3.3920744E-1,-4.357145E-1,-5.141881E-1,9.9571764E-2,-4.8561063E-1,-1.239044E-1,-7.6085126E-1,4.65239E-1,1.3535124E-1,2.9685238E-1,-3.670539E-1,2.3214455E-1,-2.912146E-1,-4.948992E-1,-2.2437634E-1,-3.042452E-1,-4.6674353E-1,-5.234362E-1,-5.040052E-1,8.4256046E-2,2.4372064E-1,-3.8503934E-2,-7.074531E-1,-8.337187E-2,-2.7950758E-1,-8.31012E-1,-3.0101028E-1,2.61049E-1,4.8756754E-1,3.242697E-1,-1.6865088E-1,-1.6729437E-1,3.6571565E-1,-5.755444E-1,-2.198966E-1,-3.2725948E-1,2.9685417E-1,-3.677543E-1,2.8515756E-1,-9.571686E-1,-3.828451E-1,-1.2901753E-1,-4.203762E-1,-6.2042616E-2,-3.8907766E-1,2.591112E-1,-4.7011766E-1,-4.4575784E-1,-5.2642906E-1,-5.1648635E-1,-4.6654814E-1],"categories":[],"categories_nodes":[],"categories_segments":[],"categories_sizes":[],"default_left":[0,0,0,0,0,0,0,0,0,0,0,0,0,0,0,0,0,0,0,0,0,0,0,0,0,0,0,0,0,0,0,0,0,0,0,0,0,0,0,0,0,0,0,0,0,0,0,0,0,0,0,0,0,0,0,0,0,0,0,0,0,0,0],"id":8,"left_children":[1,3,5,7,9,11,13,15,17,19,21,23,25,27,29,31,33,35,37,39,41,43,45,47,49,51,53,55,57,59,61,-1,-1,-1,-1,-1,-1,-1,-1,-1,-1,-1,-1,-1,-1,-1,-1,-1,-1,-1,-1,-1,-1,-1,-1,-1,-1,-1,-1,-1,-1,-1,-1],"loss_changes":[8.634845E3,3.73353E3,3.4902246E2,8.4825854E2,5.3715137E2,2.109924E2,9.589844E0,6.355902E1,2.412583E2,1.4894434E2,5.362194E2,5.1644836E1,7.1704285E1,6.8085938E0,2.1938477E0,6.95798E1,1.8494358E1,1.9218628E2,1.9318909E1,1.22706055E2,8.2983086E1,1.5292584E2,4.9933456E1,3.6364746E1,1.0355469E1,8.79129E1,4.3188545E1,6.719698E0,3.4933167E0,2.9384766E0,5.578369E0,0E0,0E0,0E0,0E0,0E0,0E0,0E0,0E0,0E0,0E0,0E0,0E0,0E0,0E0,0E0,0E0,0E0,0E0,0E0,0E0,0E0,0E0,0E0,0E0,0E0,0E0,0E0,0E0,0E0,0E0,0E0,0E0],"parents":[2147483647,0,0,1,1,2,2,3,3,4,4,5,5,6,6,7,7,8,8,9,9,10,10,11,11,12,12,13,13,14,14,15,15,16,16,17,17,18,18,19,19,20,20,21,21,22,22,23,23,24,24,25,25,26,26,27,27,28,28,29,29,30,30],"right_children":[2,4,6,8,10,12,14,16,18,20,22,24,26,28,30,32,34,36,38,40,42,44,46,48,50,52,54,56,58,60,62,-1,-1,-1,-1,-1,-1,-1,-1,-1,-1,-1,-1,-1,-1,-1,-1,-1,-1,-1,-1,-1,-1,-1,-1,-1,-1,-1,-1,-1,-1,-1,-1],"split_conditions":[-1.5940347E-1,3.735566E-2,-8.677094E-2,-3.646768E-1,1.311619E-1,-7.798228E-1,-5.671458E-2,-2.0043997E-1,-2.2005083E-1,-1.7288804E-1,1.4272389E-1,2.4571937E-1,-1.3849382E-1,1.4759922E-1,-3.5059565E-1,-1.7645963E-1,-9.1820484E-1,1.3727547E0,3.0483812E-2,-3.115184E-1,-4.1080415E-1,-2.8675792E-1,-2.5349385E-1,6.365723E-2,1.6439787E-1,8.0067106E-2,2.2903004E-1,-5.0305885E-1,-2.7565238E-1,1.2662452E-1,-6.018285E-1,8.4256046E-2,2.4372064E-1,-3.8503934E-2,-7.074531E-1,-8.337187E-2,-2.7950758E-1,-8.31012E-1,-3.0101028E-1,2.61049E-1,4.8756754E-1,3.242697E-1,-1.6865088E-1,-1.6729437E-1,3.6571565E-1,-5.755444E-1,-2.198966E-1,-3.2725948E-1,2.9685417E-1,-3.677543E-1,2.8515756E-1,-9.571686E-1,-3.828451E-1,-1.2901753E-1,-4.203762E-1,-6.2042616E-2,-3.8907766E-1,2.591112E-1,-4.7011766E-1,-4.4575784E-1,-5.2642906E-1,-5.1648635E-1,-4.6654814E-1],"split_indices":[3,14,3,15,14,15,3,3,3,3,15,14,3,14,11,14,15,9,14,3,15,3,3,14,6,14,14,15,2,14,0,0,0,0,0,0,0,0,0,0,0,0,0,0,0,0,0,0,0,0,0,0,0,0,0,0,0,0,0,0,0,0,0],"split_type":[0,0,0,0,0,0,0,0,0,0,0,0,0,0,0,0,0,0,0,0,0,0,0,0,0,0,0,0,0,0,0,0,0,0,0,0,0,0,0,0,0,0,0,0,0,0,0,0,0,0,0,0,0,0,0,0,0,0,0,0,0,0,0],"sum_hessian":[1.3063285E5,9.7586E4,3.304685E4,6.279049E4,3.4795516E4,5.248168E3,2.7798682E4,3.171029E4,3.1080197E4,2.838328E4,6.412236E3,1.2322592E3,4.015909E3,1.702843E3,2.609584E4,3.1524557E4,1.8573369E2,3.0474645E4,6.055522E2,2.6940328E4,1.4429503E3,4.7816006E3,1.630635E3,1.00090015E3,2.3135895E2,1.7032615E3,2.3126475E3,3.272207E2,1.3756223E3,1.3649254E4,1.2446585E4,2.8498225E4,3.0263323E3,6.1983727E1,1.23749954E2,2.417811E4,6.2965356E3,5.246899E2,8.086234E1,2.6568335E3,2.4283494E4,8.89879E2,5.5307135E2,6.1758356E2,4.164017E3,6.735075E2,9.5712756E2,1.03355064E2,8.975451E2,2.0455666E2,2.6802282E1,3.3084546E2,1.372416E3,1.5568564E3,7.5579114E2,8.532971E1,2.4189098E2,6.0142927E0,1.369608E3,5.1193585E2,1.3137318E4,9.326191E3,3.1203936E3],"tree_param":{"num_deleted":"0","num_feature":"16","num_nodes":"63","size_leaf_vector":"1"}},{"base_weights":[-1.1513639E-2,7.278689E-2,-4.914938E-1,-8.2511365E-2,3.894745E-1,-9.041058E-2,-5.0737673E-1,1.9234551E-2,-1.6145372E-1,-8.3525024E-2,4.4228816E-1,3.6985034E-1,-5.103578E-1,-6.6820467E-1,-5.0318825E-1,4.323369E-2,-1.4435282E-1,-1.8844824E-1,1.0658672E-1,7.895058E-2,-4.1118762E-1,4.8952606E-1,-9.0043984E-2,4.9366993E-1,-6.742828E-1,-5.4649895E-1,-4.0334457E-1,-9.371972E-1,-5.5206877E-1,-3.9516997E-1,-5.134323E-1,6.634174E-2,-1.6818047E-1,-2.2695099E-1,6.173505E-2,-1.455112E-1,-3.3204424E-1,2.0676309E-1,-4.7392976E-1,-9.309599E-2,2.3413105E-1,-6.602664E-1,-1.15910634E-1,5.4074556E-1,3.5982E-1,2.82879E-1,-4.221225E-1,-6.414982E-1,5.2414596E-1,-7.252772E-1,-4.4061103E-1,-4.3740147E-1,1.7398566E-1,-1.4039061E0,-4.850959E-1,-5.5485374E-1,1.4793302E-1,-1.0549376E-1,-4.7393823E-1,-5.356007E-1,-5.028937E-1],"categories":[],"categories_nodes":[],"categories_segments":[],"categories_sizes":[],"default_left":[0,0,0,0,0,0,0,0,0,0,0,0,0,0,0,0,0,0,0,0,0,0,0,0,0,0,0,0,0,0,0,0,0,0,0,0,0,0,0,0,0,0,0,0,0,0,0,0,0,0,0,0,0,0,0,0,0,0,0,0,0],"id":9,"left_children":[1,3,5,7,9,11,13,15,17,19,21,23,25,27,29,31,33,35,37,39,41,43,45,47,49,-1,51,53,55,57,59,-1,-1,-1,-1,-1,-1,-1,-1,-1,-1,-1,-1,-1,-1,-1,-1,-1,-1,-1,-1,-1,-1,-1,-1,-1,-1,-1,-1,-1,-1],"loss_changes":[5.1159316E3,5.2893228E3,1.2028369E2,5.796105E2,8.840254E2,1.394946E2,1.1902832E1,1.2378459E2,2.940359E2,1.8929823E2,8.005122E2,4.486329E1,1.2387772E0,1.3794189E1,1.9395996E1,1.3433621E2,6.867989E1,2.2756653E2,2.1634558E2,6.349665E1,8.661012E1,1.9404932E2,3.215275E2,1.1008942E1,1.2058449E-1,0E0,2.0239983E0,2.816552E1,7.1060944E-1,3.5056274E1,3.5097656E0,0E0,0E0,0E0,0E0,0E0,0E0,0E0,0E0,0E0,0E0,0E0,0E0,0E0,0E0,0E0,0E0,0E0,0E0,0E0,0E0,0E0,0E0,0E0,0E0,0E0,0E0,0E0,0E0,0E0,0E0],"parents":[2147483647,0,0,1,1,2,2,3,3,4,4,5,5,6,6,7,7,8,8,9,9,10,10,11,11,12,12,13,13,14,14,15,15,16,16,17,17,18,18,19,19,20,20,21,21,22,22,23,23,24,24,26,26,27,27,28,28,29,29,30,30],"right_children":[2,4,6,8,10,12,14,16,18,20,22,24,26,28,30,32,34,36,38,40,42,44,46,48,50,-1,52,54,56,58,60,-1,-1,-1,-1,-1,-1,-1,-1,-1,-1,-1,-1,-1,-1,-1,-1,-1,-1,-1,-1,-1,-1,-1,-1,-1,-1,-1,-1,-1,-1],"split_conditions":[4.19955E-1,1.9355509E-1,-5.4918617E-1,-1.0028125E-1,-1.6478539E-1,2.3327337E-1,-9.955762E-2,-4.1785464E-2,1.311619E-1,9.659655E-2,4.3282162E-2,6.044859E-1,-1.1122681E0,4.85444E-1,5.641211E-1,3.0483812E-2,-7.426307E-1,4.3315094E-2,-4.1400235E-2,2.609179E-1,7.045068E-2,-8.79128E-2,-1.8016747E-1,-2.6312706E-1,1.4742087E-1,-5.4649895E-1,1.858112E0,6.962519E-1,1.8327371E0,-8.79128E-2,-4.6063447E-1,6.634174E-2,-1.6818047E-1,-2.2695099E-1,6.173505E-2,-1.455112E-1,-3.3204424E-1,2.0676309E-1,-4.7392976E-1,-9.309599E-2,2.3413105E-1,-6.602664E-1,-1.15910634E-1,5.4074556E-1,3.5982E-1,2.82879E-1,-4.221225E-1,-6.414982E-1,5.2414596E-1,-7.252772E-1,-4.4061103E-1,-4.3740147E-1,1.7398566E-1,-1.4039061E0,-4.850959E-1,-5.5485374E-1,1.4793302E-1,-1.0549376E-1,-4.7393823E-1,-5.356007E-1,-5.028937E-1],"split_indices":[14,14,15,1,3,3,3,15,14,15,3,14,9,14,14,14,3,14,3,14,2,15,15,3,3,0,14,15,0,15,13,0,0,0,0,0,0,0,0,0,0,0,0,0,0,0,0,0,0,0,0,0,0,0,0,0,0,0,0,0,0],"split_type":[0,0,0,0,0,0,0,0,0,0,0,0,0,0,0,0,0,0,0,0,0,0,0,0,0,0,0,0,0,0,0,0,0,0,0,0,0,0,0,0,0,0,0,0,0,0,0,0,0,0,0,0,0,0,0,0,0,0,0,0,0],"sum_hessian":[1.2643424E5,1.0754637E5,1.888788E4,7.216071E4,3.5385652E4,7.1972656E2,1.8168154E4,3.1527207E4,4.0633504E4,3.5541428E3,3.183151E4,3.434384E2,3.7628818E2,4.5712198E2,1.7711033E4,2.7494373E4,4.0328352E3,3.6915973E4,3.7175317E3,2.3764897E3,1.1776531E3,2.9237154E4,2.5943557E3,3.0750034E2,3.593804E1,2.7821945E2,9.806872E1,1.3571371E2,3.2140826E2,1.5375823E3,1.6173451E4,2.4785902E4,2.70847E3,2.8788977E3,1.1539374E3,2.8420033E4,8.495938E3,3.1709783E3,5.465535E2,1.1271895E3,1.2493002E3,6.3812836E2,5.395247E2,2.0957928E4,8.279226E3,1.2220953E3,1.3722604E3,7.5154757E0,2.9998486E2,2.7773233E1,8.164811E0,9.283474E1,5.233983E0,6.5742134E1,6.997158E1,3.2034116E2,1.0671263E0,3.2921362E2,1.2083687E3,5.195235E3,1.0978216E4],"tree_param":{"num_deleted":"0","num_feature":"16","num_nodes":"61","size_leaf_vector":"1"}},{"base_weights":[1.7093107E-2,-6.1669234E-2,1.4449695E-1,1.3619157E-2,-2.1074337E-1,2.8290427E-1,9.001266E-2,-1.3857742E-1,6.305378E-2,-3.013684E-1,-1.3263895E-2,1.7743608E-1,5.4528624E-1,1.8572354E-1,3.0500606E-2,-1.4573161E-1,4.0988907E-1,4.9741507E-2,6.7748564E-1,-1.6716504E-1,-3.8743058E-1,7.6657397E-1,-4.6920046E-2,5.8973253E-2,3.2065472E-1,6.6614807E-1,2.3078088E-1,1.613964E-1,4.5357546E-1,-1.1666921E-1,1.1869151E-1,-2.0303448E-1,-9.998464E-2,6.587355E-1,1.5471703E-1,9.958533E-2,-7.266908E-2,8.8055885E-1,4.192087E-1,-2.2528124E-1,1.7484015E-2,-4.044516E-1,4.7213686E-1,-6.745494E-2,8.913349E-1,4.7396366E-2,-3.0851313E-1,5.0182585E-2,2.4708333E0,-1.1027592E-2,4.328882E-1,7.7162564E-1,4.8781663E-1,8.3094284E-2,4.9766618E-1,2.4993263E-1,6.7158826E-2,5.372324E-1,2.5227255E-1,2.628625E-2,-2.045858E-1,2.1393374E-1,2.6579509E-2],"categories":[],"categories_nodes":[],"categories_segments":[],"categories_sizes":[],"default_left":[0,0,0,0,0,0,0,0,0,0,0,0,0,0,0,0,0,0,0,0,0,0,0,0,0,0,0,0,0,0,0,0,0,0,0,0,0,0,0,0,0,0,0,0,0,0,0,0,0,0,0,0,0,0,0,0,0,0,0,0,0,0,0],"id":10,"left_children":[1,3,5,7,9,11,13,15,17,19,21,23,25,27,29,31,33,35,37,39,41,43,45,47,49,51,53,55,57,59,61,-1,-1,-1,-1,-1,-1,-1,-1,-1,-1,-1,-1,-1,-1,-1,-1,-1,-1,-1,-1,-1,-1,-1,-1,-1,-1,-1,-1,-1,-1,-1,-1],"loss_changes":[1.2956835E3,8.9556146E2,3.7196252E2,3.9890454E2,4.7919128E2,3.8546814E2,2.0161203E2,5.1065292E1,3.2730988E2,2.1191211E2,2.2112296E2,1.6861755E2,1.5167615E2,8.835504E1,2.833057E2,3.3618652E1,1.0542786E1,2.3901468E2,4.4139587E1,7.697543E1,1.6378455E2,3.6329147E1,1.9926932E2,1.15239456E2,1.6749976E2,5.388855E1,4.372478E1,1.0379581E2,1.8883453E1,1.02802216E2,1.1973392E2,0E0,0E0,0E0,0E0,0E0,0E0,0E0,0E0,0E0,0E0,0E0,0E0,0E0,0E0,0E0,0E0,0E0,0E0,0E0,0E0,0E0,0E0,0E0,0E0,0E0,0E0,0E0,0E0,0E0,0E0,0E0,0E0],"parents":[2147483647,0,0,1,1,2,2,3,3,4,4,5,5,6,6,7,7,8,8,9,9,10,10,11,11,12,12,13,13,14,14,15,15,16,16,17,17,18,18,19,19,20,20,21,21,22,22,23,23,24,24,25,25,26,26,27,27,28,28,29,29,30,30],"right_children":[2,4,6,8,10,12,14,16,18,20,22,24,26,28,30,32,34,36,38,40,42,44,46,48,50,52,54,56,58,60,62,-1,-1,-1,-1,-1,-1,-1,-1,-1,-1,-1,-1,-1,-1,-1,-1,-1,-1,-1,-1,-1,-1,-1,-1,-1,-1,-1,-1,-1,-1,-1,-1],"split_conditions":[5.578699E-1,-5.677044E-1,-1.9386959E-1,-1.2630453E0,3.4269747E-1,1.2063416E0,-1.272679E-1,-8.466241E-1,-4.0696704E-1,-2.7336103E-1,-7.046216E-2,4.902901E-1,1.806692E0,-2.3354733E-1,1.3420346E0,-6.875682E-1,-3.1854948E-1,-6.7625576E-1,-5.999569E-1,-3.2520935E-2,9.7756183E-1,-6.875682E-1,-3.2563567E-1,1.7843639E0,-1.7645963E-1,8.308802E-1,1.7571807E0,-7.6559675E-1,-4.6304345E-1,2.597108E-1,6.725082E-1,-2.0303448E-1,-9.998464E-2,6.587355E-1,1.5471703E-1,9.958533E-2,-7.266908E-2,8.8055885E-1,4.192087E-1,-2.2528124E-1,1.7484015E-2,-4.044516E-1,4.7213686E-1,-6.745494E-2,8.913349E-1,4.7396366E-2,-3.0851313E-1,5.0182585E-2,2.4708333E0,-1.1027592E-2,4.328882E-1,7.7162564E-1,4.8781663E-1,8.3094284E-2,4.9766618E-1,2.4993263E-1,6.7158826E-2,5.372324E-1,2.5227255E-1,2.628625E-2,-2.045858E-1,2.1393374E-1,2.6579509E-2],"split_indices":[15,3,11,14,14,14,2,3,14,3,3,6,2,14,15,15,15,4,3,14,4,15,11,3,14,5,15,3,3,11,11,0,0,0,0,0,0,0,0,0,0,0,0,0,0,0,0,0,0,0,0,0,0,0,0,0,0,0,0,0,0,0,0],"split_type":[0,0,0,0,0,0,0,0,0,0,0,0,0,0,0,0,0,0,0,0,0,0,0,0,0,0,0,0,0,0,0,0,0,0,0,0,0,0,0,0,0,0,0,0,0,0,0,0,0,0,0,0,0,0,0,0,0,0,0,0,0,0,0],"sum_hessian":[1.29119375E5,7.97918E4,4.932758E4,5.3017004E4,2.6774795E4,1.3931916E4,3.5395664E4,1.299792E4,4.0019082E4,1.835226E4,8.422535E3,9.938622E3,3.9932944E3,1.3569788E4,2.1825875E4,1.2831284E4,1.6663667E2,3.9171477E4,8.476076E2,7.1717466E3,1.1180513E4,3.4755905E2,8.074976E3,5.4401943E3,4.4984272E3,2.8839124E3,1.1093821E3,1.2441422E4,1.1283666E3,8.1781494E3,1.3647725E4,5.6946724E3,7.1366113E3,8.356332E1,8.307335E1,2.7836883E4,1.1334592E4,4.7316602E2,3.744416E2,5.4547163E3,1.7170303E3,1.0963937E4,2.1657693E2,4.5285297E1,3.0227374E2,5.9357E3,2.1392756E3,5.421455E3,1.8739134E1,1.1375477E3,3.3608796E3,1.8100162E3,1.0738962E3,7.150213E2,3.9436078E2,6.4139043E3,6.0275176E3,7.9592804E2,3.3243848E2,3.114525E3,5.063625E3,6.7092026E3,6.938522E3],"tree_param":{"num_deleted":"0","num_feature":"16","num_nodes":"63","size_leaf_vector":"1"}},{"base_weights":[2.0068657E-2,-1.2478075E-1,4.217003E-2,-1.6672298E-1,3.3768937E-1,5.372005E-2,-2.05018E-1,-8.84819E-3,-2.7516407E-1,7.1400315E-1,1.6187721E-1,4.0456623E-2,1.8152642E-1,-2.7674428E-1,2.8038846E-2,-2.837884E-2,4.6791953E-1,-3.6573634E-1,-1.18060134E-1,9.005573E-1,-1.7780273E-1,-2.841617E-1,2.3844852E-1,5.813111E-2,-1.3656212E-1,2.8750706E-1,9.550924E-3,-3.9319336E-1,-2.0977058E-1,2.66302E-1,-1.9446453E-1,-2.1030544E-3,-2.7518886E-1,5.9679157E-1,4.5736596E-2,-4.575739E-1,-2.9511157E-1,-2.0401391E-1,1.3784654E-1,5.517123E-3,1.0144637E0,9.7592674E-2,-4.1561213E-1,-5.7895315E-1,-1.903728E-1,3.5804692E-1,3.8113575E-2,3.208369E-2,8.057771E-2,-2.3242605E-1,3.076384E-2,3.7083724E-1,-8.367472E-2,-1.4864422E-1,5.7973415E-2,1.0667568E-1,-4.2148355E-1,-1.020561E-1,-3.1168506E-1,3.7423164E-1,-2.3987229E-1,-2.8621228E-2,-2.8668514E-1],"categories":[],"categories_nodes":[],"categories_segments":[],"categories_sizes":[],"default_left":[0,0,0,0,0,0,0,0,0,0,0,0,0,0,0,0,0,0,0,0,0,0,0,0,0,0,0,0,0,0,0,0,0,0,0,0,0,0,0,0,0,0,0,0,0,0,0,0,0,0,0,0,0,0,0,0,0,0,0,0,0,0,0],"id":11,"left_children":[1,3,5,7,9,11,13,15,17,19,21,23,25,27,29,31,33,35,37,39,41,43,45,47,49,51,53,55,57,59,61,-1,-1,-1,-1,-1,-1,-1,-1,-1,-1,-1,-1,-1,-1,-1,-1,-1,-1,-1,-1,-1,-1,-1,-1,-1,-1,-1,-1,-1,-1,-1,-1],"loss_changes":[4.357308E2,3.4955792E2,3.3715723E2,2.8283447E2,9.903027E1,1.9123615E2,8.813048E1,6.266262E1,1.3931299E2,7.950055E1,3.4995934E1,3.198004E2,1.9331924E2,3.1356506E1,6.5870026E1,4.192111E1,1.4381241E1,4.015442E1,7.883795E1,4.0219604E1,5.498394E0,4.0451736E0,2.0912262E1,5.4333588E1,1.4885092E2,2.0301672E2,3.0996353E1,2.0843552E1,2.8086205E1,3.2865692E1,9.819349E0,0E0,0E0,0E0,0E0,0E0,0E0,0E0,0E0,0E0,0E0,0E0,0E0,0E0,0E0,0E0,0E0,0E0,0E0,0E0,0E0,0E0,0E0,0E0,0E0,0E0,0E0,0E0,0E0,0E0,0E0,0E0,0E0],"parents":[2147483647,0,0,1,1,2,2,3,3,4,4,5,5,6,6,7,7,8,8,9,9,10,10,11,11,12,12,13,13,14,14,15,15,16,16,17,17,18,18,19,19,20,20,21,21,22,22,23,23,24,24,25,25,26,26,27,27,28,28,29,29,30,30],"right_children":[2,4,6,8,10,12,14,16,18,20,22,24,26,28,30,32,34,36,38,40,42,44,46,48,50,52,54,56,58,60,62,-1,-1,-1,-1,-1,-1,-1,-1,-1,-1,-1,-1,-1,-1,-1,-1,-1,-1,-1,-1,-1,-1,-1,-1,-1,-1,-1,-1,-1,-1,-1,-1],"split_conditions":[-8.5991925E-1,1.3287002E0,1.5515761E0,-7.770162E-1,-1.1018769E0,5.7961617E-2,2.5296574E0,1.4742087E-1,3.6286604E-1,2.4651587E0,1.1545475E0,4.3315094E-2,1.1575253E0,7.4237925E-1,-1.7981616E-1,3.0483812E-2,7.57078E-1,-1.1403321E0,-8.2243496E-1,1.2719336E0,2.821298E0,5.3898144E-1,-9.5111257E-1,6.5696484E-1,-2.4753457E-2,1.4917319E0,-3.6372635E-1,-7.82952E-1,3.4965977E-1,2.821298E0,8.754654E-2,-2.1030544E-3,-2.7518886E-1,5.9679157E-1,4.5736596E-2,-4.575739E-1,-2.9511157E-1,-2.0401391E-1,1.3784654E-1,5.517123E-3,1.0144637E0,9.7592674E-2,-4.1561213E-1,-5.7895315E-1,-1.903728E-1,3.5804692E-1,3.8113575E-2,3.208369E-2,8.057771E-2,-2.3242605E-1,3.076384E-2,3.7083724E-1,-8.367472E-2,-1.4864422E-1,5.7973415E-2,1.0667568E-1,-4.2148355E-1,-1.020561E-1,-3.1168506E-1,3.7423164E-1,-2.3987229E-1,-2.8621228E-2,-2.8668514E-1],"split_indices":[12,14,14,1,7,3,3,3,14,14,3,14,15,15,7,14,2,7,6,3,14,3,13,12,5,5,11,9,9,14,7,0,0,0,0,0,0,0,0,0,0,0,0,0,0,0,0,0,0,0,0,0,0,0,0,0,0,0,0,0,0,0,0],"split_type":[0,0,0,0,0,0,0,0,0,0,0,0,0,0,0,0,0,0,0,0,0,0,0,0,0,0,0,0,0,0,0,0,0,0,0,0,0,0,0,0,0,0,0,0,0,0,0,0,0,0,0,0,0,0,0,0,0,0,0,0,0,0,0],"sum_hessian":[1.3610494E5,1.8017305E4,1.1808763E5,1.651974E4,1.4975651E3,1.1281697E5,5.270663E3,6.727108E3,9.792632E3,4.7589136E2,1.02167377E3,1.0221107E5,1.0605894E4,4.0301455E3,1.2405173E3,6.4632817E3,2.6382596E2,6.2107393E3,3.5818928E3,3.93555E2,8.2336365E1,1.4929541E2,8.723783E2,9.2932836E4,9.278233E3,6.561605E3,4.0442888E3,1.4697605E3,2.560385E3,5.989487E2,6.4156866E2,5.8423086E3,6.2097296E2,2.0180966E2,6.2016304E1,2.6975176E3,3.5132214E3,2.6814514E3,9.0044147E2,4.454931E1,3.4900568E2,3.842633E1,4.391003E1,3.4785816E1,1.145096E2,5.4577045E2,3.266079E2,4.3017277E4,4.991556E4,5.898495E3,3.3797388E3,5.3586016E3,1.2030032E3,9.4732623E2,3.0969626E3,7.8577446E1,1.3911831E3,1.2457452E3,1.3146399E3,4.9389746E2,1.0505125E2,2.2973648E2,4.1183218E2],"tree_param":{"num_deleted":"0","num_feature":"16","num_nodes":"63","size_leaf_vector":"1"}},{"base_weights":[-3.0537684E-2,-3.292566E-1,5.9630323E-2,-4.1271836E-1,-2.520276E-1,1.9754233E-2,2.7364415E-1,-4.2529303E-1,-2.4310826E-1,-2.9627314E-1,-1.5003E-1,-2.1529695E-1,4.221354E-2,-9.405612E-1,2.9226306E-1,-4.6060213E-1,-4.0898576E-1,-1.3894273E-1,-3.477647E-1,-1.6537882E-1,-3.214719E-1,5.318383E-4,-2.877798E-1,-1.490137E-1,-3.2779127E-1,1.7616433E-1,-2.5844188E-2,-1.8318397E-1,-1.2962058E0,3.9225712E-1,1.1958194E-1,-4.608707E-1,1.0187939E-1,-3.7465137E-1,-4.214405E-1,-1.8258749E-1,1.0728453E0,-2.1905926E-1,-4.3099144E-1,-2.0368877E-1,5.763196E-2,6.9915876E-2,-3.292316E-1,-1.025035E-1,5.6012374E-1,7.488334E-2,-3.1155553E-1,-2.2601566E-1,4.92443E-2,-3.784473E-1,-1.806518E-2,2.4119371E-1,-3.8484138E-1,-5.0208736E-2,2.115199E-1,6.040243E-2,-7.2552156E-1,-8.787055E-1,-1.7931917E0,4.6995738E-1,2.4015342E-1,-9.0301156E-2,2.4980113E-1],"categories":[],"categories_nodes":[],"categories_segments":[],"categories_sizes":[],"default_left":[0,0,0,0,0,0,0,0,0,0,0,0,0,0,0,0,0,0,0,0,0,0,0,0,0,0,0,0,0,0,0,0,0,0,0,0,0,0,0,0,0,0,0,0,0,0,0,0,0,0,0,0,0,0,0,0,0,0,0,0,0,0,0],"id":12,"left_children":[1,3,5,7,9,11,13,15,17,19,21,23,25,27,29,31,33,35,37,39,41,43,45,47,49,51,53,55,57,59,61,-1,-1,-1,-1,-1,-1,-1,-1,-1,-1,-1,-1,-1,-1,-1,-1,-1,-1,-1,-1,-1,-1,-1,-1,-1,-1,-1,-1,-1,-1,-1,-1],"loss_changes":[2.748418E3,1.5239404E2,6.688972E2,2.4144531E1,5.5423584E1,3.4880447E2,2.7857867E2,5.9051514E0,8.531738E0,2.82182E1,7.7165115E1,4.2920685E1,5.498089E2,4.9905243E1,2.0932092E2,5.509033E-1,2.9417725E0,2.1145632E1,4.1038666E0,1.1851013E1,2.1848877E1,1.026095E2,1.6776794E1,5.539653E1,3.3501724E1,7.413568E2,2.3129375E2,8.055716E0,2.4673996E1,9.06333E1,1.215887E2,0E0,0E0,0E0,0E0,0E0,0E0,0E0,0E0,0E0,0E0,0E0,0E0,0E0,0E0,0E0,0E0,0E0,0E0,0E0,0E0,0E0,0E0,0E0,0E0,0E0,0E0,0E0,0E0,0E0,0E0,0E0,0E0],"parents":[2147483647,0,0,1,1,2,2,3,3,4,4,5,5,6,6,7,7,8,8,9,9,10,10,11,11,12,12,13,13,14,14,15,15,16,16,17,17,18,18,19,19,20,20,21,21,22,22,23,23,24,24,25,25,26,26,27,27,28,28,29,29,30,30],"right_children":[2,4,6,8,10,12,14,16,18,20,22,24,26,28,30,32,34,36,38,40,42,44,46,48,50,52,54,56,58,60,62,-1,-1,-1,-1,-1,-1,-1,-1,-1,-1,-1,-1,-1,-1,-1,-1,-1,-1,-1,-1,-1,-1,-1,-1,-1,-1,-1,-1,-1,-1,-1,-1],"split_conditions":[-5.677044E-1,-4.1080415E-1,1.806692E0,-7.416707E-1,-5.117007E-1,-7.798228E-1,1.2063416E0,-1.0565869E0,-5.7409286E-1,-1.2715714E0,-5.7409286E-1,1.8318255E-1,-6.063042E-1,7.4237925E-1,1.8815975E0,-5.467618E-1,-1.2852321E0,-6.293821E-1,-9.004638E-1,4.194879E-1,-8.033108E-1,-6.5714467E-1,-2.5768828E-1,-1.6478539E-1,4.1783965E-1,1.3698184E0,2.2589593E0,2.615411E0,2.2290585E0,1.388162E0,5.423478E-1,-4.608707E-1,1.0187939E-1,-3.7465137E-1,-4.214405E-1,-1.8258749E-1,1.0728453E0,-2.1905926E-1,-4.3099144E-1,-2.0368877E-1,5.763196E-2,6.9915876E-2,-3.292316E-1,-1.025035E-1,5.6012374E-1,7.488334E-2,-3.1155553E-1,-2.2601566E-1,4.92443E-2,-3.784473E-1,-1.806518E-2,2.4119371E-1,-3.8484138E-1,-5.0208736E-2,2.115199E-1,6.040243E-2,-7.2552156E-1,-8.787055E-1,-1.7931917E0,4.6995738E-1,2.4015342E-1,-9.0301156E-2,2.4980113E-1],"split_indices":[3,15,2,2,4,15,14,15,14,14,14,14,12,15,14,14,14,3,11,15,11,3,12,3,2,14,5,3,3,15,11,0,0,0,0,0,0,0,0,0,0,0,0,0,0,0,0,0,0,0,0,0,0,0,0,0,0,0,0,0,0,0,0],"split_type":[0,0,0,0,0,0,0,0,0,0,0,0,0,0,0,0,0,0,0,0,0,0,0,0,0,0,0,0,0,0,0,0,0,0,0,0,0,0,0,0,0,0,0,0,0,0,0,0,0,0,0,0,0,0,0,0,0,0,0,0,0,0,0],"sum_hessian":[1.02037586E5,2.3657998E4,7.8379586E4,1.1368098E4,1.2289901E4,6.6070164E4,1.230942E4,1.0582051E4,7.860465E2,8.57029E3,3.7196113E3,5.7616963E3,6.030847E4,1.8515692E2,1.2124263E4,3.3345974E3,7.2474536E3,3.9511377E2,3.9093277E2,1.3847588E3,7.1855312E3,1.7776353E3,1.9419761E3,3.6269626E3,2.1347336E3,2.0317705E4,3.9990766E4,5.9647423E1,1.255095E2,7.6773096E3,4.446953E3,3.3331865E3,1.4109964E0,1.937464E3,5.3099897E3,3.8219754E2,1.2916218E1,1.549474E2,2.3598535E2,1.1818253E3,2.0293344E2,1.3953595E2,7.045995E3,1.5019114E3,2.757239E2,1.1934812E2,1.8226279E3,2.6122454E3,1.0147172E3,1.8344806E3,3.002531E2,1.8207715E4,2.1099902E3,3.6268703E4,3.7220603E3,4.1773727E1,1.7873695E1,6.971362E1,5.5795876E1,5.08011E3,2.5971995E3,1.7027776E3,2.7441755E3],"tree_param":{"num_deleted":"0","num_feature":"16","num_nodes":"63","size_leaf_vector":"1"}},{"base_weights":[-1.323496E-2,6.166999E-2,-4.5679206E-1,1.6379233E-1,-1.3655467E-2,-3.0673882E-1,-4.741127E-1,8.899778E-2,3.2789174E-1,-7.006036E-2,9.494299E-2,-1.9459866E-1,-4.0328535E-1,-4.9131218E-1,-4.4325766E-1,1.449669E-1,4.961611E-2,3.635094E-1,1.3276799E-1,-2.820479E-2,-2.5193167E-1,1.5546745E-1,-1.5864813E-1,1.20505635E-2,-2.6290536E-1,-3.1131864E-1,-4.5856237E-1,-4.9359414E-1,-3.5397503E-1,-4.7415856E-1,-3.8211897E-1,2.7663168E-1,9.4187684E-2,1.051062E-1,1.5623872E-2,2.6531282E-1,3.9764044E-1,5.539086E-1,1.0390553E-1,-4.9034646E-3,-1.3625915E-1,-2.1614024E-1,-4.570611E-1,5.9604473E-2,2.671863E-1,-7.455843E-2,-2.7528074E-1,-3.9476186E-2,9.5552677E-1,-1.3676997E-1,-3.5084608E-1,-1.4647248E-1,-4.4053465E-1,-3.752895E-1,-4.857058E-1,-3.8645813E-1,-4.9665093E-1,-2.2120716E-1,-5.131021E-1,-4.5851535E-1,-5.006552E-1,-3.8095247E-2,-3.955128E-1],"categories":[],"categories_nodes":[],"categories_segments":[],"categories_sizes":[],"default_left":[0,0,0,0,0,0,0,0,0,0,0,0,0,0,0,0,0,0,0,0,0,0,0,0,0,0,0,0,0,0,0,0,0,0,0,0,0,0,0,0,0,0,0,0,0,0,0,0,0,0,0,0,0,0,0,0,0,0,0,0,0,0,0],"id":13,"left_children":[1,3,5,7,9,11,13,15,17,19,21,23,25,27,29,31,33,35,37,39,41,43,45,47,49,51,53,55,57,59,61,-1,-1,-1,-1,-1,-1,-1,-1,-1,-1,-1,-1,-1,-1,-1,-1,-1,-1,-1,-1,-1,-1,-1,-1,-1,-1,-1,-1,-1,-1,-1,-1],"loss_changes":[3.384959E3,6.704873E2,3.8109863E1,4.5409625E2,3.072802E2,1.644371E1,6.784424E0,5.601587E1,8.045691E1,2.513208E2,2.6322388E2,9.9961605E0,4.021286E0,2.477539E0,8.76001E0,7.015631E1,2.8142475E1,3.2723267E1,2.16961E1,6.7578125E1,4.5249023E1,1.4825543E2,3.2390213E1,8.634132E0,5.8544617E0,6.551859E0,9.693451E-1,2.5333252E0,2.883356E0,1.0717163E0,7.330078E0,0E0,0E0,0E0,0E0,0E0,0E0,0E0,0E0,0E0,0E0,0E0,0E0,0E0,0E0,0E0,0E0,0E0,0E0,0E0,0E0,0E0,0E0,0E0,0E0,0E0,0E0,0E0,0E0,0E0,0E0,0E0,0E0],"parents":[2147483647,0,0,1,1,2,2,3,3,4,4,5,5,6,6,7,7,8,8,9,9,10,10,11,11,12,12,13,13,14,14,15,15,16,16,17,17,18,18,19,19,20,20,21,21,22,22,23,23,24,24,25,25,26,26,27,27,28,28,29,29,30,30],"right_children":[2,4,6,8,10,12,14,16,18,20,22,24,26,28,30,32,34,36,38,40,42,44,46,48,50,52,54,56,58,60,62,-1,-1,-1,-1,-1,-1,-1,-1,-1,-1,-1,-1,-1,-1,-1,-1,-1,-1,-1,-1,-1,-1,-1,-1,-1,-1,-1,-1,-1,-1,-1,-1],"split_conditions":[-9.955762E-2,-5.4918617E-1,2.2903004E-1,3.0483812E-2,-4.9938247E-2,-5.671458E-2,-2.477127E-2,-6.2305164E-1,-1.6478539E-1,5.117426E-1,-1.7602983E-1,8.6034305E-2,-2.262948E-1,2.821298E0,-6.018285E-1,1.1310441E0,-2.73536E-2,-2.451801E-1,-1.3333509E0,-9.735641E-2,-3.2520935E-2,1.3713157E-1,9.659655E-2,2.2153702E-1,1.1904234E-1,1.2662452E-1,-2.876442E-2,-7.552426E-2,2.2645814E0,1.686351E0,4.6053952E-1,2.7663168E-1,9.4187684E-2,1.051062E-1,1.5623872E-2,2.6531282E-1,3.9764044E-1,5.539086E-1,1.0390553E-1,-4.9034646E-3,-1.3625915E-1,-2.1614024E-1,-4.570611E-1,5.9604473E-2,2.671863E-1,-7.455843E-2,-2.7528074E-1,-3.9476186E-2,9.5552677E-1,-1.3676997E-1,-3.5084608E-1,-1.4647248E-1,-4.4053465E-1,-3.752895E-1,-4.857058E-1,-3.8645813E-1,-4.9665093E-1,-2.2120716E-1,-5.131021E-1,-4.5851535E-1,-5.006552E-1,-3.8095247E-2,-3.955128E-1],"split_indices":[3,15,14,14,2,3,7,5,3,15,3,2,15,14,0,0,10,3,15,14,14,10,15,14,14,14,3,3,15,2,4,0,0,0,0,0,0,0,0,0,0,0,0,0,0,0,0,0,0,0,0,0,0,0,0,0,0,0,0,0,0,0,0],"split_type":[0,0,0,0,0,0,0,0,0,0,0,0,0,0,0,0,0,0,0,0,0,0,0,0,0,0,0,0,0,0,0,0,0,0,0,0,0,0,0,0,0,0,0,0,0,0,0,0,0,0,0,0,0,0,0,0,0,0,0,0,0,0,0],"sum_hessian":[1.0187918E5,8.716089E4,1.4718287E4,3.6998746E4,5.016215E4,1.5250526E3,1.3193234E4,2.5415986E4,1.1582759E4,3.301491E4,1.7147238E4,7.069434E2,8.181092E2,8.46158E3,4.731655E3,1.0496174E4,1.4919813E4,9.794095E3,1.7886648E3,2.6839309E4,6.175599E3,1.3843585E4,3.3036545E3,1.75829E2,5.3111444E2,3.096175E2,5.084917E2,8.3207295E3,1.4084998E2,3.138586E3,1.5930686E3,2.9201384E3,7.5760356E3,5.6668926E3,9.252921E3,2.5284387E3,7.265656E3,1.13555305E2,1.6751095E3,2.2079115E4,4.760194E3,5.259895E3,9.157043E2,7.45133E3,6.3922544E3,1.920589E3,1.3830657E3,1.6763214E2,8.1968565E0,2.1922717E2,3.1188724E2,1.3698882E2,1.726287E2,1.2864618E2,3.7984552E2,2.3435393E2,8.0863755E3,7.808761E1,6.2762367E1,1.9849866E3,1.1535994E3,5.984255E1,1.533226E3],"tree_param":{"num_deleted":"0","num_feature":"16","num_nodes":"63","size_leaf_vector":"1"}},{"base_weights":[-4.9504586E-3,4.9636323E-2,-4.2510265E-1,-5.6519085E-3,2.8998688E-1,1.11593075E-1,-4.4619521E-1,2.140344E-3,-4.6491793E-1,-1.1803998E-2,3.467448E-1,4.2942935E-1,-3.2762474E-1,-3.2440332E-1,-4.7087187E-1,2.0261437E-2,-1.4624229E-1,6.415779E-2,-5.5924344E-1,1.1540546E-1,-3.265096E-1,4.0408468E-1,1.9964613E-2,4.8593855E-1,-4.51827E-1,9.110797E-2,-4.3489474E-1,-1.3523607E-1,-4.6625796E-1,-5.018782E-1,-4.5009848E-1,8.743305E-2,-5.8005173E-3,-2.2658244E-1,9.506359E-2,2.7474338E-1,-2.8169656E-1,-6.2899256E-1,-3.8974437E-1,1.6565263E-1,-3.531104E-1,-7.6738757E-1,-9.7000696E-2,4.2670158E-1,-9.749679E-3,3.4223965E-1,-1.5540399E-1,5.183114E-1,-4.2181656E-1,6.666686E-1,-5.8222467E-1,4.7746354E-1,-5.777386E-1,-4.5561197E-1,9.5814407E-1,-2.601705E-1,1.22568786E-1,-5.9877765E-1,-3.6425516E-1,-5.089338E-1,-4.2126054E-1,-4.7279507E-1,-3.845547E-1],"categories":[],"categories_nodes":[],"categories_segments":[],"categories_sizes":[],"default_left":[0,0,0,0,0,0,0,0,0,0,0,0,0,0,0,0,0,0,0,0,0,0,0,0,0,0,0,0,0,0,0,0,0,0,0,0,0,0,0,0,0,0,0,0,0,0,0,0,0,0,0,0,0,0,0,0,0,0,0,0,0,0,0],"id":14,"left_children":[1,3,5,7,9,11,13,15,17,19,21,23,25,27,29,31,33,35,37,39,41,43,45,47,49,51,53,55,57,59,61,-1,-1,-1,-1,-1,-1,-1,-1,-1,-1,-1,-1,-1,-1,-1,-1,-1,-1,-1,-1,-1,-1,-1,-1,-1,-1,-1,-1,-1,-1,-1,-1],"loss_changes":[2.1965967E3,1.1263846E3,1.2471484E2,2.4661943E2,2.7153088E2,5.8386566E1,3.1693848E1,1.8221005E2,5.7412994E1,1.0053387E2,2.4999878E2,1.2295807E1,7.9332676E0,4.792891E1,5.44812E0,1.0572024E2,1.4299849E2,1.2812695E1,1.1291901E1,4.2160877E1,7.306998E1,1.0624353E2,1.1267871E2,6.9296E0,2.595004E0,9.750685E0,4.478983E0,2.4762589E1,1.3591675E1,1.7908325E0,7.6796875E0,0E0,0E0,0E0,0E0,0E0,0E0,0E0,0E0,0E0,0E0,0E0,0E0,0E0,0E0,0E0,0E0,0E0,0E0,0E0,0E0,0E0,0E0,0E0,0E0,0E0,0E0,0E0,0E0,0E0,0E0,0E0,0E0],"parents":[2147483647,0,0,1,1,2,2,3,3,4,4,5,5,6,6,7,7,8,8,9,9,10,10,11,11,12,12,13,13,14,14,15,15,16,16,17,17,18,18,19,19,20,20,21,21,22,22,23,23,24,24,25,25,26,26,27,27,28,28,29,29,30,30],"right_children":[2,4,6,8,10,12,14,16,18,20,22,24,26,28,30,32,34,36,38,40,42,44,46,48,50,52,54,56,58,60,62,-1,-1,-1,-1,-1,-1,-1,-1,-1,-1,-1,-1,-1,-1,-1,-1,-1,-1,-1,-1,-1,-1,-1,-1,-1,-1,-1,-1,-1,-1,-1,-1],"split_conditions":[3.960285E-1,2.5408667E-1,-6.875682E-1,4.6531865E-4,-1.1458419E-1,1.1095022E-1,5.641211E-1,6.501246E-1,-6.875682E-1,2.811059E-1,3.3304468E-2,4.6999954E-2,1.602892E-1,1.4272389E-1,-3.5057807E-1,-1.2505572E0,1.154737E-1,-1.0277985E0,8.054927E-2,3.3552626E-1,-9.09137E-2,1.38012E0,-5.0305885E-1,6.044859E-1,-3.3332458E-1,1.5548275E0,4.4180095E-1,-8.288582E-1,3.175728E-1,2.2652168E0,-5.1906663E-1,8.743305E-2,-5.8005173E-3,-2.2658244E-1,9.506359E-2,2.7474338E-1,-2.8169656E-1,-6.2899256E-1,-3.8974437E-1,1.6565263E-1,-3.531104E-1,-7.6738757E-1,-9.7000696E-2,4.2670158E-1,-9.749679E-3,3.4223965E-1,-1.5540399E-1,5.183114E-1,-4.2181656E-1,6.666686E-1,-5.8222467E-1,4.7746354E-1,-5.777386E-1,-4.5561197E-1,9.5814407E-1,-2.601705E-1,1.22568786E-1,-5.9877765E-1,-3.6425516E-1,-5.089338E-1,-4.2126054E-1,-4.7279507E-1,-3.845547E-1],"split_indices":[14,14,15,3,3,3,14,15,15,15,3,5,2,15,7,14,2,7,3,14,10,6,15,14,6,0,9,10,2,14,0,0,0,0,0,0,0,0,0,0,0,0,0,0,0,0,0,0,0,0,0,0,0,0,0,0,0,0,0,0,0,0,0],"split_type":[0,0,0,0,0,0,0,0,0,0,0,0,0,0,0,0,0,0,0,0,0,0,0,0,0,0,0,0,0,0,0,0,0,0,0,0,0,0,0,0,0,0,0,0,0,0,0,0,0,0,0,0,0,0,0,0,0,0,0,0,0,0,0],"sum_hessian":[9.577396E4,8.476239E4,1.101157E4,6.891153E4,1.5850857E4,4.16236E2,1.0595335E4,6.776281E4,1.1487195E3,2.5093003E3,1.3341557E4,2.4149933E2,1.7473668E2,1.787459E3,8.807876E3,6.0388754E4,7.374058E3,1.7385872E2,9.748608E2,1.7874253E3,7.2187506E2,1.1349781E4,1.991775E3,2.2736827E2,1.4131061E1,3.5665535E1,1.3907114E2,7.6682684E2,1.0206322E3,3.5243206E3,5.283555E3,1.6880053E4,4.35087E4,5.532225E3,1.8418329E3,1.081894E2,6.566931E1,6.887346E2,2.8612613E2,1.6148799E3,1.7254546E2,2.4633368E2,4.7554138E2,1.0761606E4,5.881749E2,7.0156213E2,1.2902129E3,2.199532E2,7.415063E0,1.0460353E0,1.3085025E1,2.2788195E1,1.2877338E1,1.3769626E2,1.3748779E0,5.165117E2,2.5031511E2,4.417938E2,5.788384E2,3.2358125E3,2.8850793E2,3.9199395E3,1.3636157E3],"tree_param":{"num_deleted":"0","num_feature":"16","num_nodes":"63","size_leaf_vector":"1"}},{"base_weights":[6.005194E-3,-7.807102E-2,4.056258E-2,-3.622152E-2,-2.779669E-1,3.080679E-2,2.3855853E-1,-1.5307745E-1,-1.2451246E-2,-3.6758518E-1,7.5528994E-2,1.136174E-1,1.1105262E-2,3.1718916E-1,8.5983165E-2,-1.6567919E-1,4.4250846E-2,-3.8530566E-2,6.620655E-2,-3.9330858E-1,-1.373108E-1,6.4907557E-1,-1.298822E-2,-9.7936966E-2,1.6484392E-1,-3.576392E-2,8.27435E-2,2.35287E-1,5.0197303E-1,2.705062E-3,3.2009667E-1,-1.6673315E-1,5.4583037E-1,1.525787E0,7.7028284E-3,-1.3855226E-1,-2.2694562E-2,-2.37679E-1,8.539793E-2,1.1144026E-1,-3.991329E-1,4.0468353E-1,-1.8981083E-1,4.060028E-1,8.816017E-1,7.607364E-2,-3.3044347E-1,-1.8316902E-2,-3.1235975E-1,3.8950887E-1,1.24192744E-1,1.0313905E-2,-1.9573444E-1,4.1414613E-1,3.829315E-2,1.0849322E-1,2.942368E-1,6.272253E-1,3.655879E-1,-3.2162762E-1,6.192249E-2,4.478765E-1,5.77934E-2],"categories":[],"categories_nodes":[],"categories_segments":[],"categories_sizes":[],"default_left":[0,0,0,0,0,0,0,0,0,0,0,0,0,0,0,0,0,0,0,0,0,0,0,0,0,0,0,0,0,0,0,0,0,0,0,0,0,0,0,0,0,0,0,0,0,0,0,0,0,0,0,0,0,0,0,0,0,0,0,0,0,0,0],"id":15,"left_children":[1,3,5,7,9,11,13,15,17,19,21,23,25,27,29,31,33,35,37,39,41,43,45,47,49,51,53,55,57,59,61,-1,-1,-1,-1,-1,-1,-1,-1,-1,-1,-1,-1,-1,-1,-1,-1,-1,-1,-1,-1,-1,-1,-1,-1,-1,-1,-1,-1,-1,-1,-1,-1],"loss_changes":[3.4646033E2,2.9057086E2,1.6323134E2,7.978304E1,1.9051913E2,1.3140257E2,4.7580948E1,1.2080345E1,4.8966713E1,2.8361206E1,6.179127E1,1.6776537E2,2.1846324E2,3.9508698E1,2.6338001E1,3.5134125E0,1.5811742E1,2.8391508E1,3.468432E1,1.2728455E1,1.3836444E1,8.839363E0,2.9859608E1,5.1520523E1,1.13764984E2,2.899228E2,3.7905316E2,1.3542587E1,1.3492157E1,1.9177929E1,1.1854511E1,0E0,0E0,0E0,0E0,0E0,0E0,0E0,0E0,0E0,0E0,0E0,0E0,0E0,0E0,0E0,0E0,0E0,0E0,0E0,0E0,0E0,0E0,0E0,0E0,0E0,0E0,0E0,0E0,0E0,0E0,0E0,0E0],"parents":[2147483647,0,0,1,1,2,2,3,3,4,4,5,5,6,6,7,7,8,8,9,9,10,10,11,11,12,12,13,13,14,14,15,15,16,16,17,17,18,18,19,19,20,20,21,21,22,22,23,23,24,24,25,25,26,26,27,27,28,28,29,29,30,30],"right_children":[2,4,6,8,10,12,14,16,18,20,22,24,26,28,30,32,34,36,38,40,42,44,46,48,50,52,54,56,58,60,62,-1,-1,-1,-1,-1,-1,-1,-1,-1,-1,-1,-1,-1,-1,-1,-1,-1,-1,-1,-1,-1,-1,-1,-1,-1,-1,-1,-1,-1,-1,-1,-1],"split_conditions":[-2.262948E-1,-3.6831883E-1,2.5874727E0,-1.0104595E0,6.044859E-1,-8.248694E-1,2.0222156E0,-8.0337995E-1,1.4026701E0,-5.037245E-2,3.8170415E-1,-1.2715714E0,3.1509277E-1,1.5006471E0,2.821298E0,-9.196703E-1,-9.740848E-1,-2.6633762E-2,-3.4928638E-1,-2.0395319E-1,-3.2520935E-2,7.282624E-1,-7.4819046E-1,3.2723323E-1,-6.215762E-1,4.9024105E-2,3.1070766E-1,8.4106195E-1,1.7776823E0,8.4106195E-1,3.034063E0,-1.6673315E-1,5.4583037E-1,1.525787E0,7.7028284E-3,-1.3855226E-1,-2.2694562E-2,-2.37679E-1,8.539793E-2,1.1144026E-1,-3.991329E-1,4.0468353E-1,-1.8981083E-1,4.060028E-1,8.816017E-1,7.607364E-2,-3.3044347E-1,-1.8316902E-2,-3.1235975E-1,3.8950887E-1,1.24192744E-1,1.0313905E-2,-1.9573444E-1,4.1414613E-1,3.829315E-2,1.0849322E-1,2.942368E-1,6.272253E-1,3.655879E-1,-3.2162762E-1,6.192249E-2,4.478765E-1,5.77934E-2],"split_indices":[15,3,15,15,14,4,2,3,11,5,3,14,14,2,14,14,14,0,0,14,14,14,12,15,5,2,2,1,2,1,4,0,0,0,0,0,0,0,0,0,0,0,0,0,0,0,0,0,0,0,0,0,0,0,0,0,0,0,0,0,0,0,0],"split_type":[0,0,0,0,0,0,0,0,0,0,0,0,0,0,0,0,0,0,0,0,0,0,0,0,0,0,0,0,0,0,0,0,0,0,0,0,0,0,0,0,0,0,0,0,0,0,0,0,0,0,0,0,0,0,0,0,0,0,0,0,0,0,0],"sum_hessian":[1.1924272E5,3.4734453E4,8.4508266E4,2.872241E4,6.0120425E3,8.054095E4,3.9673127E3,4.854075E3,2.3868334E4,4.7960957E3,1.2159465E3,1.5478029E4,6.506292E4,2.617361E3,1.3499518E3,4.562844E3,2.91231E2,1.7925553E4,5.9427812E3,4.3135337E3,4.8256235E2,1.6172406E2,1.0542224E3,3.0171099E3,1.246092E4,3.9331117E4,2.5731807E4,1.8151163E3,8.022447E2,9.9649384E2,3.5345798E2,4.55686E3,5.984344E0,6.0304146E0,2.852006E2,2.449094E3,1.5476459E4,3.5233603E2,5.590445E3,4.899952E1,4.264534E3,4.202286E1,4.4053946E2,8.041145E1,8.13126E1,8.2385175E2,2.3037071E2,2.2009373E3,8.161727E2,1.9079208E3,1.0552999E4,3.0536371E4,8.794744E3,3.0421953E3,2.2689611E4,5.769685E2,1.2381478E3,4.163145E2,3.8593015E2,1.5316745E2,8.4332635E2,2.3719974E2,1.1625825E2],"tree_param":{"num_deleted":"0","num_feature":"16","num_nodes":"63","size_leaf_vector":"1"}},{"base_weights":[1.5077105E-2,-9.371401E-2,2.435189E-2,-1.0095141E-2,-1.7422485E-1,-4.320912E-3,5.094339E-2,-3.2808986E-2,1.7443927E-1,-3.4042516E-1,-5.4923475E-2,-3.5606086E-2,2.9000366E-2,4.044179E-2,4.274098E-1,-8.299676E-2,6.6220716E-2,2.621821E-1,7.566398E-2,-1.625041E-1,-3.9341584E-1,1.524935E-3,-3.0324143E-1,-9.040337E-2,2.4154527E-2,-1.8025025E-3,1.4315915E-1,3.140005E-2,2.6002902E-1,9.5579356E-1,3.581883E-1,-9.473706E-2,4.4338915E-1,2.447814E-2,1.8416627E-1,2.292059E-1,1.037422E0,-6.993273E-3,2.1566695E-1,-1.9026603E-1,2.567146E-1,-4.379322E-1,-2.2928937E-1,-3.7477456E-2,3.1208253E-1,-3.2351848E-1,3.6280468E-1,-1.1861741E-1,5.098929E-2,-1.2012575E-1,5.3785253E-2,7.607628E-3,-2.2751555E-1,7.277254E-1,1.3701314E-1,1.7807752E-2,9.827982E-2,3.2466897E-1,-6.964898E-2,8.031917E-1,1.5220809E0,2.6947466E-1,4.558722E-1],"categories":[],"categories_nodes":[],"categories_segments":[],"categories_sizes":[],"default_left":[0,0,0,0,0,0,0,0,0,0,0,0,0,0,0,0,0,0,0,0,0,0,0,0,0,0,0,0,0,0,0,0,0,0,0,0,0,0,0,0,0,0,0,0,0,0,0,0,0,0,0,0,0,0,0,0,0,0,0,0,0,0,0],"id":16,"left_children":[1,3,5,7,9,11,13,15,17,19,21,23,25,27,29,31,33,35,37,39,41,43,45,47,49,51,53,55,57,59,61,-1,-1,-1,-1,-1,-1,-1,-1,-1,-1,-1,-1,-1,-1,-1,-1,-1,-1,-1,-1,-1,-1,-1,-1,-1,-1,-1,-1,-1,-1,-1,-1],"loss_changes":[1.328998E2,6.9655495E1,9.253488E1,2.1283863E1,1.045007E2,6.0878517E1,2.4892528E2,2.2475151E1,4.8035164E0,2.0701752E1,4.303046E1,9.8635315E1,9.944186E1,1.2162034E2,6.2155E1,1.8586983E1,7.4846115E0,7.286318E0,3.047462E0,5.9511747E0,1.2293732E1,3.0319796E1,7.79644E0,6.268715E1,6.160293E1,4.7305458E1,2.1489342E1,5.348527E1,5.164801E1,1.5829544E1,1.2983429E1,0E0,0E0,0E0,0E0,0E0,0E0,0E0,0E0,0E0,0E0,0E0,0E0,0E0,0E0,0E0,0E0,0E0,0E0,0E0,0E0,0E0,0E0,0E0,0E0,0E0,0E0,0E0,0E0,0E0,0E0,0E0,0E0],"parents":[2147483647,0,0,1,1,2,2,3,3,4,4,5,5,6,6,7,7,8,8,9,9,10,10,11,11,12,12,13,13,14,14,15,15,16,16,17,17,18,18,19,19,20,20,21,21,22,22,23,23,24,24,25,25,26,26,27,27,28,28,29,29,30,30],"right_children":[2,4,6,8,10,12,14,16,18,20,22,24,26,28,30,32,34,36,38,40,42,44,46,48,50,52,54,56,58,60,62,-1,-1,-1,-1,-1,-1,-1,-1,-1,-1,-1,-1,-1,-1,-1,-1,-1,-1,-1,-1,-1,-1,-1,-1,-1,-1,-1,-1,-1,-1,-1,-1],"split_conditions":[-1.1380808E0,-5.500345E-1,1.8823087E-1,2.864968E0,5.7961617E-2,3.2723323E-1,2.811059E-1,-7.798228E-1,-8.3670956E-1,2.204326E-2,-8.566745E-1,6.8060094E-1,-4.9908355E-1,3.3625257E-1,-1.2695489E0,4.8616225E-1,1.8807715E0,-6.129801E-1,-1.0477614E0,-8.658394E-1,-4.1080415E-1,2.3694031E0,8.0291915E-1,3.4269747E-1,-6.188543E-1,2.771982E0,-1.2910498E0,-3.646768E-1,1.088859E0,-1.212425E0,9.959319E-1,-9.473706E-2,4.4338915E-1,2.447814E-2,1.8416627E-1,2.292059E-1,1.037422E0,-6.993273E-3,2.1566695E-1,-1.9026603E-1,2.567146E-1,-4.379322E-1,-2.2928937E-1,-3.7477456E-2,3.1208253E-1,-3.2351848E-1,3.6280468E-1,-1.1861741E-1,5.098929E-2,-1.2012575E-1,5.3785253E-2,7.607628E-3,-2.2751555E-1,7.277254E-1,1.3701314E-1,1.7807752E-2,9.827982E-2,3.2466897E-1,-6.964898E-2,8.031917E-1,1.5220809E0,2.6947466E-1,4.558722E-1],"split_indices":[12,1,0,0,3,15,15,15,6,14,7,10,0,4,14,3,0,2,11,10,15,3,4,14,5,15,14,15,14,2,6,0,0,0,0,0,0,0,0,0,0,0,0,0,0,0,0,0,0,0,0,0,0,0,0,0,0,0,0,0,0,0,0],"split_type":[0,0,0,0,0,0,0,0,0,0,0,0,0,0,0,0,0,0,0,0,0,0,0,0,0,0,0,0,0,0,0,0,0,0,0,0,0,0,0,0,0,0,0,0,0,0,0,0,0,0,0,0,0,0,0,0,0,0,0,0,0,0,0],"sum_hessian":[1.3170928E5,1.0345838E4,1.2136344E5,5.075514E3,5.270323E3,5.8396797E4,6.296664E4,4.519984E3,5.555305E2,2.2015132E3,3.06881E3,3.0118566E4,2.8278232E4,6.125892E4,1.7077217E3,2.9998408E3,1.520143E3,2.9331885E2,2.6221164E2,5.061465E2,1.6953666E3,2.501219E3,5.67591E2,1.5711473E4,1.4407093E4,2.2270172E4,6.00806E3,5.883737E4,2.421548E3,1.9632433E2,1.5113973E3,2.9351956E3,6.4645386E1,1.1236686E3,3.9647446E2,2.8259387E2,1.0724972E1,1.6546924E2,9.67424E1,4.7522202E2,3.0924482E1,1.3323282E3,3.630383E2,2.222925E3,2.7829398E2,5.513209E2,1.6270077E1,1.3098007E4,2.613466E3,2.4541414E3,1.1952952E4,2.13798E4,8.9037213E2,6.1288754E1,5.9467715E3,4.8900375E4,9.936995E3,2.0246001E3,3.969481E2,1.5655467E2,3.9769665E1,7.9403595E2,7.173614E2],"tree_param":{"num_deleted":"0","num_feature":"16","num_nodes":"63","size_leaf_vector":"1"}},{"base_weights":[-1.7608136E-2,-2.7607378E-1,3.1015374E-2,-3.3278176E-1,-1.5054671E-1,5.7314515E-2,-1.1929829E-1,-3.872193E-1,-2.9168266E-1,-1.18140124E-1,-3.6256585E-1,-4.8351288E-2,8.513765E-2,-1.743374E-1,7.31544E-2,-4.2437336E-1,-3.578762E-1,-2.7603102E-1,-3.9547E-1,-1.4127944E-1,3.9201024E-1,-4.0550846E-1,-1.9842805E-1,6.1419986E-2,-8.760003E-2,1.2432114E-1,-4.535914E-3,-1.1561541E-1,-3.3251816E-1,2.6505026E-1,-9.7431175E-2,-3.958287E-1,-4.3916613E-1,-3.2945535E-1,-3.845663E-1,-3.0535358E-1,-2.4050938E-1,-1.5944773E-1,-4.162328E-1,-2.00463E-1,-1.677757E-2,1.3354506E0,1.9824874E-1,-1.7797713E-1,-4.2538568E-1,1.5936738E-1,-3.128415E-1,1.39286E-1,-6.009908E-2,-1.3780475E-1,4.0980402E-2,1.2941003E-1,-3.487617E-1,-5.78822E-2,1.09258205E-1,-2.2587745E-1,-2.249851E-2,-5.0651896E-1,-2.1985088E-1,-3.0550283E-1,3.1115636E-1,-5.1564053E-2,-3.4918264E-1],"categories":[],"categories_nodes":[],"categories_segments":[],"categories_sizes":[],"default_left":[0,0,0,0,0,0,0,0,0,0,0,0,0,0,0,0,0,0,0,0,0,0,0,0,0,0,0,0,0,0,0,0,0,0,0,0,0,0,0,0,0,0,0,0,0,0,0,0,0,0,0,0,0,0,0,0,0,0,0,0,0,0,0],"id":17,"left_children":[1,3,5,7,9,11,13,15,17,19,21,23,25,27,29,31,33,35,37,39,41,43,45,47,49,51,53,55,57,59,61,-1,-1,-1,-1,-1,-1,-1,-1,-1,-1,-1,-1,-1,-1,-1,-1,-1,-1,-1,-1,-1,-1,-1,-1,-1,-1,-1,-1,-1,-1,-1,-1],"loss_changes":[1.1009354E3,9.8686035E1,2.914762E2,2.1261353E1,2.9625877E1,1.8449483E2,1.1631299E2,4.3254395E0,8.740326E0,4.4287643E1,3.9514084E0,5.6360107E1,1.7454004E2,7.926965E1,7.997775E1,5.891113E-1,1.6187439E0,4.8606873E0,3.4206772E0,2.6414108E1,2.9504423E1,1.9705353E0,4.985933E0,3.2611813E1,6.220672E1,8.326825E1,9.170708E1,6.3940926E1,4.5193848E1,3.0338684E1,1.49209385E1,0E0,0E0,0E0,0E0,0E0,0E0,0E0,0E0,0E0,0E0,0E0,0E0,0E0,0E0,0E0,0E0,0E0,0E0,0E0,0E0,0E0,0E0,0E0,0E0,0E0,0E0,0E0,0E0,0E0,0E0,0E0,0E0],"parents":[2147483647,0,0,1,1,2,2,3,3,4,4,5,5,6,6,7,7,8,8,9,9,10,10,11,11,12,12,13,13,14,14,15,15,16,16,17,17,18,18,19,19,20,20,21,21,22,22,23,23,24,24,25,25,26,26,27,27,28,28,29,29,30,30],"right_children":[2,4,6,8,10,12,14,16,18,20,22,24,26,28,30,32,34,36,38,40,42,44,46,48,50,52,54,56,58,60,62,-1,-1,-1,-1,-1,-1,-1,-1,-1,-1,-1,-1,-1,-1,-1,-1,-1,-1,-1,-1,-1,-1,-1,-1,-1,-1,-1,-1,-1,-1,-1,-1],"split_conditions":[-7.051195E-1,-8.79128E-2,8.619271E-1,-7.798228E-1,-7.5156933E-1,-3.1854948E-1,1.9810898E0,-1.1027142E0,1.6200056E0,-7.426307E-1,-7.1562964E-1,6.658105E-2,7.701697E-1,4.5052862E-1,7.790479E-1,-1.2910498E0,-1.2651947E0,-4.1080415E-1,-2.0794745E-1,5.117426E-1,-2.4593134E-1,-7.516266E-2,-7.0318085E-1,-8.6286664E-1,4.3282162E-2,2.4651587E0,1.9636927E0,1.4272389E-1,3.302537E-1,8.1072533E-1,1.7282109E0,-3.958287E-1,-4.3916613E-1,-3.2945535E-1,-3.845663E-1,-3.0535358E-1,-2.4050938E-1,-1.5944773E-1,-4.162328E-1,-2.00463E-1,-1.677757E-2,1.3354506E0,1.9824874E-1,-1.7797713E-1,-4.2538568E-1,1.5936738E-1,-3.128415E-1,1.39286E-1,-6.009908E-2,-1.3780475E-1,4.0980402E-2,1.2941003E-1,-3.487617E-1,-5.78822E-2,1.09258205E-1,-2.2587745E-1,-2.249851E-2,-5.0651896E-1,-2.1985088E-1,-3.0550283E-1,3.1115636E-1,-5.1564053E-2,-3.4918264E-1],"split_indices":[3,15,6,15,14,15,5,15,10,3,3,14,1,14,12,14,14,15,1,15,11,9,14,11,3,14,3,15,3,7,14,0,0,0,0,0,0,0,0,0,0,0,0,0,0,0,0,0,0,0,0,0,0,0,0,0,0,0,0,0,0,0,0],"split_type":[0,0,0,0,0,0,0,0,0,0,0,0,0,0,0,0,0,0,0,0,0,0,0,0,0,0,0,0,0,0,0,0,0,0,0,0,0,0,0,0,0,0,0,0,0,0,0,0,0,0,0,0,0,0,0,0,0,0,0,0,0,0,0],"sum_hessian":[8.760005E4,1.3869569E4,7.373048E4,9.552493E3,4.3170757E3,6.2751914E4,1.0978565E4,4.105784E3,5.4467095E3,3.7460576E3,5.7101807E2,1.3079243E4,4.9672668E4,8.537142E3,2.441424E3,1.8058131E3,2.299971E3,4.7361367E3,7.1057275E2,3.5842087E3,1.6184889E2,4.514395E2,1.1957854E2,3.4446494E3,9.634594E3,3.456769E4,1.510498E4,6.2271475E3,2.3099946E3,1.1486858E3,1.2927383E3,6.258702E2,1.1799429E3,1.1203323E3,1.1796385E3,2.5902935E3,2.1458435E3,5.8156353E1,6.5241644E2,2.4289612E3,1.1552476E3,2.6572584E1,1.352763E2,3.7069134E1,4.143704E2,2.887798E1,9.0700554E1,2.0993186E3,1.3453308E3,6.929049E3,2.705545E3,3.4200523E4,3.6716452E2,1.0284251E4,4.8207295E3,2.8504421E3,3.376705E3,9.0650806E2,1.4034865E3,8.546382E1,1.0632219E3,1.0945287E3,1.9820963E2],"tree_param":{"num_deleted":"0","num_feature":"16","num_nodes":"63","size_leaf_vector":"1"}},{"base_weights":[-1.1828613E-2,2.7068552E-2,-4.2106587E-1,6.0064055E-2,-8.0500096E-2,-2.2468151E-1,-4.320017E-1,2.6689824E-2,1.5740658E-1,-2.907532E-1,-5.3622644E-2,3.8937783E-1,-2.6907495E-1,-4.8223293E-1,-4.0141913E-1,3.3591386E-2,-1.03774086E-1,2.4392822E-1,2.374986E-2,9.946865E-3,-3.8886398E-1,-3.1852618E-2,-3.519852E-1,7.446669E-1,-5.2687757E-2,-1.801217E-1,-4.572713E-1,4.5671606E-1,-4.8326316E-1,-4.436552E-1,-3.295017E-1,4.280837E-2,-7.8259334E-2,-3.4169063E-1,-3.4152087E-2,2.795047E-1,3.3069313E-2,1.0125333E-1,-1.2373261E-1,-2.2328474E-1,8.80112E-2,-4.290372E-1,-1.3707414E-2,1.0168819E-1,-8.80466E-2,-4.4316405E-1,-2.4971086E-1,1.0708972E0,-2.2170131E-1,3.341963E-1,-3.444973E-1,-3.3025208E-1,-7.629335E-2,2.4007894E-1,-4.6483454E-1,8.296523E-1,-2.5516245E-1,-4.846161E-1,7.923839E-2,-4.502625E-1,-3.530774E-1,-3.4014425E-1,1.712181E-1],"categories":[],"categories_nodes":[],"categories_segments":[],"categories_sizes":[],"default_left":[0,0,0,0,0,0,0,0,0,0,0,0,0,0,0,0,0,0,0,0,0,0,0,0,0,0,0,0,0,0,0,0,0,0,0,0,0,0,0,0,0,0,0,0,0,0,0,0,0,0,0,0,0,0,0,0,0,0,0,0,0,0,0],"id":18,"left_children":[1,3,5,7,9,11,13,15,17,19,21,23,25,27,29,31,33,35,37,39,41,43,45,47,49,51,53,55,57,59,61,-1,-1,-1,-1,-1,-1,-1,-1,-1,-1,-1,-1,-1,-1,-1,-1,-1,-1,-1,-1,-1,-1,-1,-1,-1,-1,-1,-1,-1,-1,-1,-1],"loss_changes":[1.4508994E3,2.954338E2,1.6893799E1,2.069344E2,1.1040062E2,1.1537674E1,1.1317017E1,4.271528E1,1.8806339E2,6.533331E1,1.1252469E2,4.544513E0,6.475197E0,2.9588623E0,1.4018921E1,4.6450348E1,3.947001E1,7.404816E1,7.307412E1,9.95596E0,2.5158173E1,1.2119028E2,1.0875381E1,5.2719135E0,1.6635573E0,4.1467285E0,7.7126503E-1,1.1718285E0,2.1906128E0,1.5975342E0,9.273605E0,0E0,0E0,0E0,0E0,0E0,0E0,0E0,0E0,0E0,0E0,0E0,0E0,0E0,0E0,0E0,0E0,0E0,0E0,0E0,0E0,0E0,0E0,0E0,0E0,0E0,0E0,0E0,0E0,0E0,0E0,0E0,0E0],"parents":[2147483647,0,0,1,1,2,2,3,3,4,4,5,5,6,6,7,7,8,8,9,9,10,10,11,11,12,12,13,13,14,14,15,15,16,16,17,17,18,18,19,19,20,20,21,21,22,22,23,23,24,24,25,25,26,26,27,27,28,28,29,29,30,30],"right_children":[2,4,6,8,10,12,14,16,18,20,22,24,26,28,30,32,34,36,38,40,42,44,46,48,50,52,54,56,58,60,62,-1,-1,-1,-1,-1,-1,-1,-1,-1,-1,-1,-1,-1,-1,-1,-1,-1,-1,-1,-1,-1,-1,-1,-1,-1,-1,-1,-1,-1,-1,-1,-1],"split_conditions":[-7.552426E-2,9.659655E-2,1.4759922E-1,5.6369714E-2,-4.7521666E-1,-9.1820484E-1,-5.7942367E-1,-2.5349385E-1,1.1904234E-1,-2.3354733E-1,1.4804167E0,-3.168258E-2,3.7336057E-1,-2.6082644E-1,-6.018285E-1,1.3726665E0,4.61285E-5,-1.6919656E-1,-4.1080415E-1,-8.798149E-1,-1.4638878E-1,-9.0820193E-1,1.1722202E0,1.1904234E-1,-1.6827939E0,7.81254E-2,-4.2718282E-1,2.9501238E-1,-4.371013E-2,2.2652168E0,2.1271822E0,4.280837E-2,-7.8259334E-2,-3.4169063E-1,-3.4152087E-2,2.795047E-1,3.3069313E-2,1.0125333E-1,-1.2373261E-1,-2.2328474E-1,8.80112E-2,-4.290372E-1,-1.3707414E-2,1.0168819E-1,-8.80466E-2,-4.4316405E-1,-2.4971086E-1,1.0708972E0,-2.2170131E-1,3.341963E-1,-3.444973E-1,-3.3025208E-1,-7.629335E-2,2.4007894E-1,-4.6483454E-1,8.296523E-1,-2.5516245E-1,-4.846161E-1,7.923839E-2,-4.502625E-1,-3.530774E-1,-3.4014425E-1,1.712181E-1],"split_indices":[3,15,14,14,10,15,7,3,14,14,15,3,15,2,0,12,14,3,15,4,3,0,10,14,12,14,4,14,13,14,14,0,0,0,0,0,0,0,0,0,0,0,0,0,0,0,0,0,0,0,0,0,0,0,0,0,0,0,0,0,0,0,0],"split_type":[0,0,0,0,0,0,0,0,0,0,0,0,0,0,0,0,0,0,0,0,0,0,0,0,0,0,0,0,0,0,0,0,0,0,0,0,0,0,0,0,0,0,0,0,0,0,0,0,0,0,0,0,0,0,0,0,0,0,0,0,0,0,0],"sum_hessian":[9.114567E4,8.3235266E4,7.910408E3,6.3697266E4,1.9537996E4,4.1839914E2,7.492009E3,4.743521E4,1.6262057E4,2.2134126E3,1.7324584E4,2.768488E1,3.9071426E2,2.829631E3,4.662378E3,4.505266E4,2.3825508E3,9.871192E3,6.3908647E3,5.44739E2,1.6686736E3,1.6147489E4,1.177095E3,1.4969413E1,1.27154665E1,2.6664056E2,1.24073715E2,2.616519E0,2.8270146E3,2.9340706E3,1.7283073E3,4.1623332E4,3.429325E3,5.384882E2,1.8440625E3,8.445866E3,1.4253259E3,4.189536E3,2.2013284E3,1.3613884E2,4.086002E2,1.5071396E3,1.61534E2,4.7821816E3,1.1365308E4,6.205414E2,5.565536E2,1.1110516E1,3.8588974E0,5.4046593E0,7.310807E0,1.08121605E2,1.5851895E2,1.0013756E0,1.23072334E2,1.6084496E0,1.0080694E0,2.8203696E3,6.6451287E0,2.7308923E3,2.0317813E2,1.6926515E3,3.565574E1],"tree_param":{"num_deleted":"0","num_feature":"16","num_nodes":"63","size_leaf_vector":"1"}},{"base_weights":[-9.620479E-4,2.79323E-2,-4.1611728E-1,7.7086464E-3,1.6739237E-1,-2.7301076E-1,-4.3316513E-1,5.8613744E-2,-5.7403844E-2,-2.567088E-1,2.0144323E-1,-3.3164334E-1,-6.0936637E-2,-4.4584632E-1,-2.6874095E-1,3.5895575E-2,2.462355E-1,-4.1326493E-2,-3.8550603E-1,-9.4881445E-2,-3.8601506E-1,2.706433E-1,-1.8388838E-2,-2.3275246E-1,-3.9522707E-1,-2.460979E-1,2.167322E-1,-4.7661573E-1,-3.9338285E-1,-3.5493588E-1,1.5886291E-3,-5.174275E-2,5.6548804E-2,-3.2836822E-1,2.692596E-1,-9.514711E-2,1.628542E-2,-1.6593292E-1,-5.343767E-1,-2.9913327E-1,1.0126506E-2,-1.8006612E-1,-4.4676352E-1,3.0262578E-1,-9.37298E-2,1.3931301E-1,-2.2433643E-1,1.4521822E-1,-3.178545E-1,-4.0110916E-1,8.517719E-2,1.9656378E-1,-3.830272E-1,-2.2889672E-1,5.497409E-1,-4.9322477E-1,-4.527015E-1,-3.29243E-1,-4.342209E-1,-2.7294174E-1,-4.353021E-1,-3.008751E-1,8.625505E-1],"categories":[],"categories_nodes":[],"categories_segments":[],"categories_sizes":[],"default_left":[0,0,0,0,0,0,0,0,0,0,0,0,0,0,0,0,0,0,0,0,0,0,0,0,0,0,0,0,0,0,0,0,0,0,0,0,0,0,0,0,0,0,0,0,0,0,0,0,0,0,0,0,0,0,0,0,0,0,0,0,0,0,0],"id":19,"left_children":[1,3,5,7,9,11,13,15,17,19,21,23,25,27,29,31,33,35,37,39,41,43,45,47,49,51,53,55,57,59,61,-1,-1,-1,-1,-1,-1,-1,-1,-1,-1,-1,-1,-1,-1,-1,-1,-1,-1,-1,-1,-1,-1,-1,-1,-1,-1,-1,-1,-1,-1,-1,-1],"loss_changes":[1.0132587E3,2.227323E2,1.3291199E1,2.2861464E2,1.4448615E2,7.2884827E0,1.01171875E1,1.6498763E2,1.5962357E2,1.5527332E1,1.4085501E2,2.8019562E0,6.661632E0,7.16803E0,8.250488E0,6.25024E1,5.53983E1,8.945946E1,4.6117218E1,7.1168575E0,5.0880013E0,8.209497E1,7.2058464E1,5.917989E0,8.2170486E-1,4.777642E0,7.835532E0,9.155884E-1,4.2842407E0,1.6502495E0,2.2809513E1,0E0,0E0,0E0,0E0,0E0,0E0,0E0,0E0,0E0,0E0,0E0,0E0,0E0,0E0,0E0,0E0,0E0,0E0,0E0,0E0,0E0,0E0,0E0,0E0,0E0,0E0,0E0,0E0,0E0,0E0,0E0,0E0],"parents":[2147483647,0,0,1,1,2,2,3,3,4,4,5,5,6,6,7,7,8,8,9,9,10,10,11,11,12,12,13,13,14,14,15,15,16,16,17,17,18,18,19,19,20,20,21,21,22,22,23,23,24,24,25,25,26,26,27,27,28,28,29,29,30,30],"right_children":[2,4,6,8,10,12,14,16,18,20,22,24,26,28,30,32,34,36,38,40,42,44,46,48,50,52,54,56,58,60,62,-1,-1,-1,-1,-1,-1,-1,-1,-1,-1,-1,-1,-1,-1,-1,-1,-1,-1,-1,-1,-1,-1,-1,-1,-1,-1,-1,-1,-1,-1,-1,-1],"split_conditions":[1.8937409E-1,2.4549073E-1,3.302537E-1,-3.1854948E-1,1.0784396E-1,2.3112123E-1,2.2652168E0,-1.22350186E-1,3.114718E-1,-1.3043496E-1,1.6353626E-2,4.194879E-1,-8.238575E-1,1.3976233E-1,-8.3498704E-1,-9.1690594E-1,1.0784396E-1,-5.8408993E-1,1.4272389E-1,1.8885122E-1,-3.1854948E-1,3.4269747E-1,9.659655E-2,3.192987E-1,1.6519563E0,3.3552626E-1,4.5052862E-1,-3.7257937E-1,5.5671555E-1,3.1416647E0,-5.9303224E-2,-5.174275E-2,5.6548804E-2,-3.2836822E-1,2.692596E-1,-9.514711E-2,1.628542E-2,-1.6593292E-1,-5.343767E-1,-2.9913327E-1,1.0126506E-2,-1.8006612E-1,-4.4676352E-1,3.0262578E-1,-9.37298E-2,1.3931301E-1,-2.2433643E-1,1.4521822E-1,-3.178545E-1,-4.0110916E-1,8.517719E-2,1.9656378E-1,-3.830272E-1,-2.2889672E-1,5.497409E-1,-4.9322477E-1,-4.527015E-1,-3.29243E-1,-4.342209E-1,-2.7294174E-1,-4.353021E-1,-3.008751E-1,8.625505E-1],"split_indices":[3,2,3,15,14,0,14,3,14,3,3,15,13,6,0,13,14,3,15,15,15,14,15,14,14,14,14,7,1,3,11,0,0,0,0,0,0,0,0,0,0,0,0,0,0,0,0,0,0,0,0,0,0,0,0,0,0,0,0,0,0,0,0],"split_type":[0,0,0,0,0,0,0,0,0,0,0,0,0,0,0,0,0,0,0,0,0,0,0,0,0,0,0,0,0,0,0,0,0,0,0,0,0,0,0,0,0,0,0,0,0,0,0,0,0,0,0,0,0,0,0,0,0,0,0,0,0,0,0],"sum_hessian":[8.446696E4,7.897156E4,5.4954014E3,6.897088E4,1.0000684E4,5.867771E2,4.908624E3,3.8708547E4,3.0262332E4,7.427867E2,9.257896E3,4.5924484E2,1.27532234E2,4.5555654E3,3.5305844E2,3.452882E4,4.179728E3,2.884979E4,1.4125438E3,3.3067685E2,4.121098E2,7.041195E3,2.2167014E3,1.8154732E2,2.7769754E2,7.65795E1,5.0952736E1,2.8663748E3,1.6891909E3,2.6746417E2,8.5594284E1,6.5850054E3,2.7943814E4,1.6051648E2,4.0192117E3,1.4915339E4,1.3934449E4,5.715963E2,8.409475E2,1.1165232E2,2.1902452E2,9.4773506E1,3.173363E2,6.473187E3,5.680078E2,1.25558E3,9.6112146E2,3.3234367E1,1.4831294E2,2.745016E2,3.1959593E0,1.7989138E1,5.8590363E1,2.192524E1,2.9027496E1,1.679968E3,1.1864067E3,6.6064703E2,1.0285438E3,1.3456728E2,1.3289688E2,6.3823162E1,2.177112E1],"tree_param":{"num_deleted":"0","num_feature":"16","num_nodes":"63","size_leaf_vector":"1"}},{"base_weights":[3.177912E-3,-1.3690803E-2,9.8173246E-2,-1.5747463E-2,9.5065045E-1,3.7251106E-1,2.1206262E-2,-6.251733E-3,-2.3087113E-1,2.5958067E-1,1.1190641E0,5.540784E-1,2.19592E-1,-1.5325156E-1,9.063174E-2,-1.4370712E-2,1.9353399E-1,1.0486518E0,-2.62653E-1,6.465827E-1,-2.8814211E-2,1.6200151E0,8.7613696E-1,8.048097E-1,2.8414094E-1,-4.1240234E-2,2.5326088E-1,4.1419867E-2,-2.5615782E-1,1.6482577E-1,-1.3974152E-2,7.512883E-3,-1.2714465E-1,3.9992583E-1,-1.209689E-1,2.5160196E0,3.9428088E-1,-1.6848573E-1,-4.7212943E-1,8.256769E-2,1.6155741E0,1.3806864E0,-1.6359895E-1,2.1214352E0,6.3022655E-1,2.2743927E-1,1.0043114E0,9.519916E-1,4.8137873E-1,8.2399294E-2,6.183676E-1,2.696904E-1,-2.6965117E-1,3.6860758E-1,1.9466096E-1,-2.1226567E-1,2.661749E-1,-9.7414315E-2,-3.357637E-1,-8.1199236E-2,2.2772695E-1,7.504082E-1,-4.9319454E-2],"categories":[],"categories_nodes":[],"categories_segments":[],"categories_sizes":[],"default_left":[0,0,0,0,0,0,0,0,0,0,0,0,0,0,0,0,0,0,0,0,0,0,0,0,0,0,0,0,0,0,0,0,0,0,0,0,0,0,0,0,0,0,0,0,0,0,0,0,0,0,0,0,0,0,0,0,0,0,0,0,0,0,0],"id":20,"left_children":[1,3,5,7,9,11,13,15,17,19,21,23,25,27,29,31,33,35,37,39,41,43,45,47,49,51,53,55,57,59,61,-1,-1,-1,-1,-1,-1,-1,-1,-1,-1,-1,-1,-1,-1,-1,-1,-1,-1,-1,-1,-1,-1,-1,-1,-1,-1,-1,-1,-1,-1,-1,-1],"loss_changes":[1.8265048E2,1.919889E2,3.629181E2,1.9730656E2,2.3686172E1,1.0443231E2,1.6259613E2,1.5005411E2,1.6632346E2,4.6693172E0,1.8701813E1,1.1624567E2,1.7976051E1,7.656794E1,7.453137E1,2.1938553E2,2.3454501E2,9.4226875E1,7.852957E1,9.614155E0,4.9437885E0,2.4876328E1,9.210701E0,4.1987183E1,5.5931458E1,1.6743975E1,1.2176178E1,7.545665E1,3.1561691E1,8.696127E1,1.0771949E2,0E0,0E0,0E0,0E0,0E0,0E0,0E0,0E0,0E0,0E0,0E0,0E0,0E0,0E0,0E0,0E0,0E0,0E0,0E0,0E0,0E0,0E0,0E0,0E0,0E0,0E0,0E0,0E0,0E0,0E0,0E0,0E0],"parents":[2147483647,0,0,1,1,2,2,3,3,4,4,5,5,6,6,7,7,8,8,9,9,10,10,11,11,12,12,13,13,14,14,15,15,16,16,17,17,18,18,19,19,20,20,21,21,22,22,23,23,24,24,25,25,26,26,27,27,28,28,29,29,30,30],"right_children":[2,4,6,8,10,12,14,16,18,20,22,24,26,28,30,32,34,36,38,40,42,44,46,48,50,52,54,56,58,60,62,-1,-1,-1,-1,-1,-1,-1,-1,-1,-1,-1,-1,-1,-1,-1,-1,-1,-1,-1,-1,-1,-1,-1,-1,-1,-1,-1,-1,-1,-1,-1,-1],"split_conditions":[1.0086149E0,1.3888413E0,1.092138E0,7.57078E-1,-5.7828164E-1,9.7301596E-1,9.268886E-1,6.044859E-1,2.40781E-1,-8.4368885E-1,-3.418285E-2,9.2364097E-1,3.518647E-1,7.437523E-1,1.9542129E0,-2.5349385E-1,4.3143234E-1,9.7301596E-1,1.6649259E0,4.7859025E-1,4.5052862E-1,8.908043E-1,1.2976635E0,8.104262E-1,1.409507E0,7.57078E-1,-3.504387E-1,1.484944E0,1.5407364E0,1.2456429E0,1.5804077E0,7.512883E-3,-1.2714465E-1,3.9992583E-1,-1.209689E-1,2.5160196E0,3.9428088E-1,-1.6848573E-1,-4.7212943E-1,8.256769E-2,1.6155741E0,1.3806864E0,-1.6359895E-1,2.1214352E0,6.3022655E-1,2.2743927E-1,1.0043114E0,9.519916E-1,4.8137873E-1,8.2399294E-2,6.183676E-1,2.696904E-1,-2.6965117E-1,3.6860758E-1,1.9466096E-1,-2.1226567E-1,2.661749E-1,-9.7414315E-2,-3.357637E-1,-8.1199236E-2,2.2772695E-1,7.504082E-1,-4.9319454E-2],"split_indices":[14,3,2,2,6,15,15,14,14,11,7,3,1,4,2,3,3,15,15,4,14,14,2,6,14,2,13,14,2,14,14,0,0,0,0,0,0,0,0,0,0,0,0,0,0,0,0,0,0,0,0,0,0,0,0,0,0,0,0,0,0,0,0],"split_type":[0,0,0,0,0,0,0,0,0,0,0,0,0,0,0,0,0,0,0,0,0,0,0,0,0,0,0,0,0,0,0,0,0,0,0,0,0,0,0,0,0,0,0,0,0,0,0,0,0,0,0,0,0,0,0,0,0,0,0,0,0,0,0],"sum_hessian":[1.1398023E5,9.6793125E4,1.71871E4,9.658811E4,2.0501073E2,3.7646616E3,1.3422438E4,9.250586E4,4.0822534E3,4.0669304E1,1.6434143E2,1.7199125E3,2.0447491E3,3.8205789E3,9.60186E3,8.8894266E4,3.6115962E3,9.816538E1,3.9840881E3,1.683548E1,2.3833824E1,5.1817493E1,1.1252393E2,8.9065076E2,8.292617E2,2.337404E2,1.8110088E3,1.321413E3,2.499166E3,5.6171772E3,3.9846826E3,7.444858E4,1.4445689E4,2.1804253E3,1.4311709E3,2.9398026E1,6.876736E1,2.7497708E3,1.2343174E3,1.1327411E1,5.5080686E0,1.2734267E0,2.2560398E1,3.3634945E1,1.818255E1,1.902284E1,9.350109E1,6.107683E2,2.7988242E2,5.179E2,3.113617E2,9.891244E1,1.3482797E2,6.083184E2,1.2026903E3,6.2078076E2,7.006322E2,8.354346E2,1.6637314E3,1.1436675E3,4.47351E3,1.7521558E2,3.809467E3],"tree_param":{"num_deleted":"0","num_feature":"16","num_nodes":"63","size_leaf_vector":"1"}},{"base_weights":[1.2019912E-2,-8.475598E-2,1.6431669E-2,-1.4468145E-1,1.329008E-2,6.8586306E-3,5.934861E-2,-1.9785692E-1,2.528085E-2,1.0462933E-2,1.2733369E0,-6.436041E-2,2.0495355E-2,1.3092325E-2,1.0278566E-1,-5.8798656E-2,-2.47601E-1,3.222233E-1,-4.7659565E-2,5.717623E-3,6.502391E-1,-1.05553396E-1,1.937724E-3,8.110663E-3,5.2945193E-2,-6.900643E-2,8.4945746E-2,7.9609394E-2,2.4772494E-1,-8.093639E-2,4.6135616E-1,-3.2686237E-1,-1.3406895E-1,5.2682143E-1,-5.295329E-2,1.4777544E-2,-2.9217792E-1,7.705971E-2,-2.0916428E-2,2.8966862E-1,1.0069779E0,-1.9753215E-1,-7.293333E-2,-3.6437295E-2,1.18431814E-1,5.925228E-3,3.5469735E-1,7.485807E-2,-1.3590606E-3,-1.9320145E-1,-1.0687076E-2,2.742717E-2,1.3034211E-1,5.109806E-2,1.2976083E-1,2.1328999E-1,4.2151442E-1],"categories":[],"categories_nodes":[],"categories_segments":[],"categories_sizes":[],"default_left":[0,0,0,0,0,0,0,0,0,0,0,0,0,0,0,0,0,0,0,0,0,0,0,0,0,0,0,0,0,0,0,0,0,0,0,0,0,0,0,0,0,0,0,0,0,0,0,0,0,0,0,0,0,0,0,0,0],"id":21,"left_children":[1,3,5,7,9,11,13,15,17,19,-1,21,23,25,27,29,31,33,35,37,39,41,43,45,47,49,51,53,55,-1,-1,-1,-1,-1,-1,-1,-1,-1,-1,-1,-1,-1,-1,-1,-1,-1,-1,-1,-1,-1,-1,-1,-1,-1,-1,-1,-1],"loss_changes":[5.5516487E1,3.33116E1,5.1091656E1,3.1807007E1,7.651136E0,9.8751564E1,4.5568413E1,1.8526154E1,1.81968E1,6.516613E0,0E0,4.4626595E1,3.4295956E1,6.480589E1,3.9270134E1,8.184269E0,1.7718071E1,1.2744383E1,1.0306072E1,4.054421E0,1.7411399E0,3.0224709E1,2.800306E1,4.6783115E1,2.8051414E1,3.7135765E1,1.5293354E1,1.441431E1,9.5568695E0,0E0,0E0,0E0,0E0,0E0,0E0,0E0,0E0,0E0,0E0,0E0,0E0,0E0,0E0,0E0,0E0,0E0,0E0,0E0,0E0,0E0,0E0,0E0,0E0,0E0,0E0,0E0,0E0],"parents":[2147483647,0,0,1,1,2,2,3,3,4,4,5,5,6,6,7,7,8,8,9,9,11,11,12,12,13,13,14,14,15,15,16,16,17,17,18,18,19,19,20,20,21,21,22,22,23,23,24,24,25,25,26,26,27,27,28,28],"right_children":[2,4,6,8,10,12,14,16,18,20,-1,22,24,26,28,30,32,34,36,38,40,42,44,46,48,50,52,54,56,-1,-1,-1,-1,-1,-1,-1,-1,-1,-1,-1,-1,-1,-1,-1,-1,-1,-1,-1,-1,-1,-1,-1,-1,-1,-1,-1,-1],"split_conditions":[-1.4348894E0,1.9331965E0,1.2447699E0,1.1668391E0,1.8885122E-1,-6.2180364E-1,-1.9364007E0,-8.492313E-1,-1.2639303E0,8.420606E-1,1.2733369E0,9.9408025E-1,1.0282865E0,1.9331965E0,-6.875682E-1,1.4272389E-1,-3.8988608E-1,4.3418743E-3,-1.0024204E0,-1.4256055E0,2.2695744E0,6.2621033E-1,-4.1080415E-1,3.1416647E0,1.1432853E0,-9.6433216E-1,-3.2437646E0,1.6249009E0,-3.2520935E-2,-8.093639E-2,4.6135616E-1,-3.2686237E-1,-1.3406895E-1,5.2682143E-1,-5.295329E-2,1.4777544E-2,-2.9217792E-1,7.705971E-2,-2.0916428E-2,2.8966862E-1,1.0069779E0,-1.9753215E-1,-7.293333E-2,-3.6437295E-2,1.18431814E-1,5.925228E-3,3.5469735E-1,7.485807E-2,-1.3590606E-3,-1.9320145E-1,-1.0687076E-2,2.742717E-2,1.3034211E-1,5.109806E-2,1.2976083E-1,2.1328999E-1,4.2151442E-1],"split_indices":[12,0,0,14,15,5,1,3,7,2,0,9,10,0,15,15,4,15,7,15,0,0,15,3,7,15,1,0,14,0,0,0,0,0,0,0,0,0,0,0,0,0,0,0,0,0,0,0,0,0,0,0,0,0,0,0,0],"split_type":[0,0,0,0,0,0,0,0,0,0,0,0,0,0,0,0,0,0,0,0,0,0,0,0,0,0,0,0,0,0,0,0,0,0,0,0,0,0,0,0,0,0,0,0,0,0,0,0,0,0,0,0,0,0,0,0,0],"sum_hessian":[1.3002561E5,5.6682925E3,1.2435731E5,3.5177673E3,2.150525E3,1.0167817E5,2.267914E4,2.679331E3,8.384364E2,2.1467166E3,3.8082511E0,1.6339568E4,8.53386E4,1.0983776E4,1.1695365E4,7.06503E2,1.9728281E3,1.646646E2,6.737718E2,2.1319128E3,1.480376E1,1.0077517E4,6.262052E3,6.1766332E4,2.3572275E4,5.126428E3,5.857348E3,1.0084388E4,1.6109773E3,6.784717E2,2.8031277E1,1.1606511E3,8.1217694E2,1.0629415E2,5.8370453E1,5.3746985E2,1.3630193E2,5.7902924E2,1.5528835E3,8.263496E0,6.540263E0,2.6369783E3,7.4405386E3,4.7108945E3,1.551157E3,6.138031E4,3.8602228E2,1.6794836E4,6.7774385E3,1.6373234E3,3.4891047E3,2.5844167E3,3.2729312E3,6.430587E3,3.653801E3,1.3464221E3,2.6455515E2],"tree_param":{"num_deleted":"0","num_feature":"16","num_nodes":"57","size_leaf_vector":"1"}},{"base_weights":[-1.0450559E-2,-1.5192562E-1,2.950247E-2,-2.6413497E-1,-9.939467E-2,3.6022988E-1,2.3942655E-2,-2.9331112E-1,-1.2642403E-1,-5.8977097E-2,-2.552215E-1,6.225645E-1,-5.3570133E-1,4.5610365E-2,-4.614329E-2,-3.746168E-1,-2.64486E-1,-2.2005706E-1,5.1029E-2,-8.664625E-2,7.539573E-1,-1.3299264E-2,-2.9541454E-1,3.9245012E-1,9.06892E-1,-3.615066E-1,-9.62772E-1,2.4681468E-2,1.0615636E-1,-1.4843081E-1,-8.562171E-3,-3.376057E-1,-3.941645E-1,-4.113547E-1,-2.560361E-1,-1.6001166E-1,-4.1194156E-1,1.563408E-1,-1.5551718E-1,1.9605286E-1,-1.1252249E-1,1.1515374E0,4.804891E-1,-1.8818566E-1,2.116738E-1,-2.1288544E-1,-3.2825518E-1,1.1219101E0,1.09828584E-1,1.1673844E0,5.6940603E-1,3.0301967E-1,-4.689622E-1,-1.2358513E0,-6.537383E-1,5.750299E-2,-1.6143063E-1,2.6566115E-1,3.2418914E-2,-4.6381325E-2,-2.896426E-1,1.3195904E-1,-8.407613E-2],"categories":[],"categories_nodes":[],"categories_segments":[],"categories_sizes":[],"default_left":[0,0,0,0,0,0,0,0,0,0,0,0,0,0,0,0,0,0,0,0,0,0,0,0,0,0,0,0,0,0,0,0,0,0,0,0,0,0,0,0,0,0,0,0,0,0,0,0,0,0,0,0,0,0,0,0,0,0,0,0,0,0,0],"id":22,"left_children":[1,3,5,7,9,11,13,15,17,19,21,23,25,27,29,31,33,35,37,39,41,43,45,47,49,51,53,55,57,59,61,-1,-1,-1,-1,-1,-1,-1,-1,-1,-1,-1,-1,-1,-1,-1,-1,-1,-1,-1,-1,-1,-1,-1,-1,-1,-1,-1,-1,-1,-1,-1,-1],"loss_changes":[4.5312463E2,1.04032166E2,1.1493782E2,2.2578033E1,7.572619E1,2.4322665E2,9.336543E1,1.0784393E1,1.6390491E1,2.1488571E2,2.407666E1,5.197583E1,1.7104683E1,5.9505516E1,5.5810944E1,7.445526E-1,4.1536255E0,7.3712006E0,7.4482145E0,6.759243E1,3.363698E1,1.3963006E1,5.6858215E0,9.13766E1,3.07211E1,1.2155249E1,4.8771095E0,2.1319383E2,1.4187036E2,5.620273E1,1.1269235E2,0E0,0E0,0E0,0E0,0E0,0E0,0E0,0E0,0E0,0E0,0E0,0E0,0E0,0E0,0E0,0E0,0E0,0E0,0E0,0E0,0E0,0E0,0E0,0E0,0E0,0E0,0E0,0E0,0E0,0E0,0E0,0E0],"parents":[2147483647,0,0,1,1,2,2,3,3,4,4,5,5,6,6,7,7,8,8,9,9,10,10,11,11,12,12,13,13,14,14,15,15,16,16,17,17,18,18,19,19,20,20,21,21,22,22,23,23,24,24,25,25,26,26,27,27,28,28,29,29,30,30],"right_children":[2,4,6,8,10,12,14,16,18,20,22,24,26,28,30,32,34,36,38,40,42,44,46,48,50,52,54,56,58,60,62,-1,-1,-1,-1,-1,-1,-1,-1,-1,-1,-1,-1,-1,-1,-1,-1,-1,-1,-1,-1,-1,-1,-1,-1,-1,-1,-1,-1,-1,-1,-1,-1],"split_conditions":[-4.126595E-1,-4.569315E-1,-1.7645963E-1,-6.1352867E-1,-3.1870696E-1,-2.2005083E-1,3.6968857E-1,-1.1027142E0,1.9573276E-1,-4.98568E-1,-8.724621E-1,-3.6831883E-1,-4.737699E-3,6.78368E-1,2.3616266E-1,-1.2910498E0,4.2675943E-3,-2.3354733E-1,-2.896488E-1,-6.764372E-1,-2.2135851E-1,3.1653976E-1,-2.611794E-1,-2.611794E-1,-2.7484414E-1,-5.133098E-1,4.3436587E-1,1.1668391E0,8.8076127E-1,4.19955E-1,5.440496E-1,-3.376057E-1,-3.941645E-1,-4.113547E-1,-2.560361E-1,-1.6001166E-1,-4.1194156E-1,1.563408E-1,-1.5551718E-1,1.9605286E-1,-1.1252249E-1,1.1515374E0,4.804891E-1,-1.8818566E-1,2.116738E-1,-2.1288544E-1,-3.2825518E-1,1.1219101E0,1.09828584E-1,1.1673844E0,5.6940603E-1,3.0301967E-1,-4.689622E-1,-1.2358513E0,-6.537383E-1,5.750299E-2,-1.6143063E-1,2.6566115E-1,3.2418914E-2,-4.6381325E-2,-2.896426E-1,1.3195904E-1,-8.407613E-2],"split_indices":[3,15,14,4,14,3,6,15,1,3,11,3,3,5,7,14,0,14,14,11,2,1,14,14,11,12,6,14,15,14,12,0,0,0,0,0,0,0,0,0,0,0,0,0,0,0,0,0,0,0,0,0,0,0,0,0,0,0,0,0,0,0,0],"split_type":[0,0,0,0,0,0,0,0,0,0,0,0,0,0,0,0,0,0,0,0,0,0,0,0,0,0,0,0,0,0,0,0,0,0,0,0,0,0,0,0,0,0,0,0,0,0,0,0,0,0,0,0,0,0,0,0,0,0,0,0,0,0,0],"sum_hessian":[8.016381E4,1.7652586E4,6.2511223E4,5.6276187E3,1.2024968E4,1.0324393E3,6.1478785E4,4.642834E3,9.8478436E2,9.549456E3,2.4755112E3,7.9883905E2,2.3360028E2,4.696078E4,1.4518005E4,1.2120531E3,3.430781E3,6.4448303E2,3.4030133E2,9.235992E3,3.1346417E2,3.5287643E2,2.1226348E3,4.4282687E2,3.560122E2,1.6723465E2,6.636562E1,3.4898754E4,1.2062025E4,3.900031E3,1.0617975E4,4.2522162E2,7.868315E2,1.8405333E2,3.2467275E3,4.9227267E2,1.5221034E2,2.2554544E2,1.1475589E2,7.739523E2,8.46204E3,1.2643561E2,1.8702855E2,1.9863098E2,1.5424544E2,6.0634955E2,1.5162852E3,1.2282916E2,3.199977E2,1.9953772E2,1.564745E2,2.302481E1,1.4420984E2,3.3640205E1,3.2725418E1,2.966748E4,5.2312734E3,3.8124785E3,8.249547E3,2.264717E3,1.635314E3,3.7111958E3,6.9067783E3],"tree_param":{"num_deleted":"0","num_feature":"16","num_nodes":"63","size_leaf_vector":"1"}},{"base_weights":[-1.0158648E-2,1.0857542E-2,-3.7269992E-1,2.147991E-2,-1.3605309E-1,-4.059284E-1,-3.0462316E-1,1.3688329E-1,1.0573746E-2,-8.9077294E-2,-3.705952E-1,-1.7801599E-1,-4.2554846E-1,-3.853646E-1,-2.0741223E-1,2.4901798E-1,8.184539E-2,5.1367853E-2,-2.0568721E-2,-1.3348307E-1,1.97996E-1,-2.7284348E-1,-4.7935224E-1,-8.234688E-2,-3.566258E-1,-4.397977E-1,-2.4785952E-1,-3.356434E-1,-4.7925448E-1,4.348303E-1,-2.3265563E-1,6.118009E-1,2.1473669E-1,-1.18057534E-1,1.24161646E-1,8.0298886E-2,1.9887032E-3,-1.4816834E-1,-2.7614397E-3,-2.593178E-1,-6.8174645E-2,-3.8212755E-1,2.9231098E-1,-4.8941657E-1,-1.7098907E-1,-7.934302E-2,-4.859155E-1,1.2013652E0,-9.7895905E-2,-4.6375554E-2,-4.1009507E-1,-4.8195112E-1,-4.053072E-1,-2.5635816E-2,-3.4857643E-1,-3.972626E-1,-2.0797312E-1,2.449166E-1,-4.8264238E-1,7.689951E-2,1.2132915E0,-2.922047E-1,-4.2584576E-2],"categories":[],"categories_nodes":[],"categories_segments":[],"categories_sizes":[],"default_left":[0,0,0,0,0,0,0,0,0,0,0,0,0,0,0,0,0,0,0,0,0,0,0,0,0,0,0,0,0,0,0,0,0,0,0,0,0,0,0,0,0,0,0,0,0,0,0,0,0,0,0,0,0,0,0,0,0,0,0,0,0,0,0],"id":23,"left_children":[1,3,5,7,9,11,13,15,17,19,21,23,25,27,29,31,33,35,37,39,41,43,45,47,49,51,53,55,57,59,61,-1,-1,-1,-1,-1,-1,-1,-1,-1,-1,-1,-1,-1,-1,-1,-1,-1,-1,-1,-1,-1,-1,-1,-1,-1,-1,-1,-1,-1,-1,-1,-1],"loss_changes":[6.504644E2,1.2592918E2,1.0457764E1,9.471361E1,5.991809E1,1.3967041E1,1.1994263E1,4.0081116E1,8.735207E1,5.783279E1,9.518631E0,4.2533674E0,7.210205E0,3.7567139E0,1.1452112E1,2.64673E1,3.689614E1,4.252369E1,8.859682E1,3.226101E1,3.337119E1,1.0511929E1,1.0859299E0,3.4013875E0,1.4262409E0,3.6936646E0,4.845622E0,4.259735E0,8.252945E-1,7.381621E0,7.619812E0,0E0,0E0,0E0,0E0,0E0,0E0,0E0,0E0,0E0,0E0,0E0,0E0,0E0,0E0,0E0,0E0,0E0,0E0,0E0,0E0,0E0,0E0,0E0,0E0,0E0,0E0,0E0,0E0,0E0,0E0,0E0,0E0],"parents":[2147483647,0,0,1,1,2,2,3,3,4,4,5,5,6,6,7,7,8,8,9,9,10,10,11,11,12,12,13,13,14,14,15,15,16,16,17,17,18,18,19,19,20,20,21,21,22,22,23,23,24,24,25,25,26,26,27,27,28,28,29,29,30,30],"right_children":[2,4,6,8,10,12,14,16,18,20,22,24,26,28,30,32,34,36,38,40,42,44,46,48,50,52,54,56,58,60,62,-1,-1,-1,-1,-1,-1,-1,-1,-1,-1,-1,-1,-1,-1,-1,-1,-1,-1,-1,-1,-1,-1,-1,-1,-1,-1,-1,-1,-1,-1,-1,-1],"split_conditions":[-5.671458E-2,7.4237925E-1,1.0793217E-1,-6.5456647E-1,1.1323079E-1,1.7275022E-1,-7.6613724E-1,1.8885122E-1,-6.414408E-1,1.7908406E-1,2.1306574E-1,4.3418743E-3,2.1271822E0,1.6781759E0,5.1508355E-1,6.3549364E-1,-6.278345E-4,1.3463849E0,-9.621263E-1,-4.6952754E-1,-1.474456E-2,-2.492128E-1,-4.4589865E-1,-8.2327765E-1,-4.1400235E-2,-6.9651854E-1,2.5296574E0,1.1668391E0,-2.3852395E-1,3.8653493E-1,5.8551455E-1,6.118009E-1,2.1473669E-1,-1.18057534E-1,1.24161646E-1,8.0298886E-2,1.9887032E-3,-1.4816834E-1,-2.7614397E-3,-2.593178E-1,-6.8174645E-2,-3.8212755E-1,2.9231098E-1,-4.8941657E-1,-1.7098907E-1,-7.934302E-2,-4.859155E-1,1.2013652E0,-9.7895905E-2,-4.6375554E-2,-4.1009507E-1,-4.8195112E-1,-4.053072E-1,-2.5635816E-2,-3.4857643E-1,-3.972626E-1,-2.0797312E-1,2.449166E-1,-4.8264238E-1,7.689951E-2,1.2132915E0,-2.922047E-1,-4.2584576E-2],"split_indices":[3,15,7,0,14,14,0,15,15,2,14,15,14,3,4,1,10,0,10,2,14,3,3,0,3,7,3,14,6,7,9,0,0,0,0,0,0,0,0,0,0,0,0,0,0,0,0,0,0,0,0,0,0,0,0,0,0,0,0,0,0,0,0],"split_type":[0,0,0,0,0,0,0,0,0,0,0,0,0,0,0,0,0,0,0,0,0,0,0,0,0,0,0,0,0,0,0,0,0,0,0,0,0,0,0,0,0,0,0,0,0,0,0,0,0,0,0,0,0,0,0,0,0,0,0,0,0,0,0],"sum_hessian":[8.536981E4,8.069308E4,4.676735E3,7.525278E4,5.440297E3,3.1394136E3,1.5373212E3,6.4966846E3,6.87561E4,4.5336455E3,9.0665137E2,2.496364E2,2.8897773E3,8.381807E2,6.9914044E2,2.1377305E3,4.358954E3,2.9765309E4,3.899079E4,3.9267703E3,6.0687524E2,4.7933228E2,4.273191E2,1.6351407E2,8.612233E1,2.6738787E3,2.1589865E2,5.509758E2,2.8720486E2,2.582691E1,6.7331354E2,1.8311058E2,1.95462E3,7.6120685E2,3.5977473E3,1.8768373E4,1.0996936E4,4.7741177E3,3.421667E4,1.3406558E3,2.5861145E3,8.4440025E1,5.2243524E2,1.5210541E2,3.2722687E2,7.1094766E0,4.2020963E2,1.0441847E0,1.624699E2,1.2935083E1,7.318724E1,1.1974331E3,1.4764454E3,6.7724525E1,1.4817413E2,3.7019308E2,1.8078273E2,1.0054086E0,2.8619946E2,1.8444876E1,7.382035E0,5.1227954E2,1.6103403E2],"tree_param":{"num_deleted":"0","num_feature":"16","num_nodes":"63",