//Numpy array shape [360]
//Min -0.607118844986
//Max 0.428868710995
//Number of zeros 0

#ifndef B2_H_
#define B2_H_

#ifndef __SYNTHESIS__
gru_bias_t b2[360];
#else
gru_bias_t b2[360] = {-0.357274, 0.037369, 0.162826, -0.005198, 0.069615, 0.025235, -0.120804, 0.060839, -0.289576, 0.089658, -0.030285, -0.003587, -0.021229, 0.123865, 0.064651, -0.084134, -0.052599, 0.056215, -0.419041, -0.242974, 0.108526, 0.114884, -0.148915, 0.052063, -0.104593, -0.002540, -0.251430, 0.068529, 0.052401, -0.055111, -0.114820, 0.107608, -0.075523, 0.005024, -0.123072, 0.113583, 0.118646, 0.063738, -0.090713, -0.043309, -0.074381, -0.354451, 0.160608, -0.116732, 0.045875, -0.002573, -0.324102, -0.032481, 0.011660, -0.130696, -0.194693, -0.129824, 0.229286, -0.169477, -0.028484, -0.355048, -0.093571, -0.607119, -0.226402, 0.045004, -0.147431, -0.121347, -0.011360, 0.204325, -0.074051, 0.072215, -0.390449, -0.335822, 0.186239, -0.090578, -0.041549, -0.023528, -0.098472, 0.071738, 0.120013, 0.005074, 0.052285, 0.130306, -0.036719, -0.005397, 0.044958, 0.068836, -0.457300, -0.082670, -0.010309, 0.118538, -0.269774, 0.108863, 0.182827, 0.032862, 0.112002, -0.153981, 0.191349, 0.080584, -0.045968, 0.029444, -0.091549, -0.218054, 0.063879, -0.082226, -0.403530, -0.119172, -0.337230, -0.063198, 0.056520, -0.141855, -0.233024, 0.206251, -0.006923, -0.136352, 0.030636, -0.227364, 0.071406, 0.015316, 0.028372, 0.011321, -0.121990, -0.269286, 0.162018, 0.115610, 0.008038, 0.039565, -0.010944, 0.084074, 0.055111, 0.045798, 0.048671, 0.203166, 0.034414, 0.035159, 0.050346, 0.109873, -0.039932, 0.158529, 0.057390, 0.197239, 0.016788, 0.104973, -0.009237, -0.008408, 0.056878, 0.428869, 0.072806, -0.002440, 0.078177, 0.094114, 0.041384, 0.118262, 0.068497, -0.118999, -0.002515, 0.073898, 0.060804, 0.073031, 0.171859, 0.281571, -0.019858, -0.085042, -0.047733, -0.086370, -0.137073, 0.022603, 0.189508, 0.008527, -0.005226, 0.053112, 0.012148, 0.079282, 0.068901, 0.101145, 0.056500, 0.021011, 0.167166, -0.004883, 0.071173, 0.126648, 0.070828, 0.166557, -0.108669, 0.025723, 0.044914, 0.005179, 0.160357, 0.131958, 0.003962, 0.094023, 0.117788, 0.035382, 0.056596, 0.051366, 0.062318, 0.122370, 0.269351, 0.107116, -0.047357, 0.086660, 0.019068, 0.124869, -0.003060, 0.091518, 0.096664, 0.133618, 0.111202, 0.098068, 0.120067, 0.045707, 0.024819, 0.097552, 0.076189, 0.076214, 0.104871, 0.223397, 0.004124, 0.052142, -0.015932, 0.082366, 0.006464, -0.012618, 0.152543, 0.156167, 0.209730, 0.121534, 0.068610, -0.059536, -0.015717, -0.011793, 0.179966, -0.060883, 0.062875, -0.006840, 0.016635, -0.004718, -0.042337, -0.034026, 0.083190, 0.047796, 0.063800, -0.052692, 0.133484, -0.015536, 0.067621, -0.009621, -0.011559, 0.087275, 0.053800, 0.014542, -0.019585, 0.015542, -0.026888, -0.014341, -0.002815, 0.021077, 0.002598, 0.137795, -0.080458, -0.207328, -0.039457, 0.038114, -0.091842, 0.204887, -0.040443, 0.137585, -0.080249, -0.001365, -0.008294, 0.012401, 0.113511, -0.024402, 0.046720, -0.005765, 0.074028, -0.011172, -0.045755, 0.003767, -0.237676, 0.175881, 0.022752, -0.018193, 0.025981, 0.013504, -0.048219, -0.008176, -0.042435, 0.157213, -0.018117, -0.011027, -0.123619, -0.044127, -0.002315, -0.010643, -0.006254, 0.137801, 0.073411, -0.047533, 0.035628, 0.052280, 0.022768, 0.029875, 0.073911, 0.021303, -0.099714, 0.038639, -0.037851, 0.061648, -0.000764, -0.118534, -0.165328, 0.029981, -0.064766, -0.023410, 0.017786, 0.066085, -0.146189, -0.023884, -0.024225, -0.032678, 0.016873, -0.096288, 0.013703, 0.041180, -0.003804, 0.008358, 0.071940, -0.057050, -0.041515, -0.015163, 0.053689, 0.008642, 0.055327, -0.049472, -0.080440, -0.019606, -0.110247, -0.009365, 0.072259, -0.026814, 0.002480, 0.073045, 0.136065, 0.112310, 0.098960, -0.093416, -0.146364, -0.085135, -0.036201, -0.088927, 0.106192, -0.004699, -0.001675, -0.029781, 0.033197, 0.049147, 0.075969, -0.002222, 0.003082, 0.004699, 0.033656, 0.054156, 0.033188, 0.003724};

#endif

#endif
