//Numpy array shape [96]
//Min -0.940004348755
//Max 1.284704923630
//Number of zeros 0

#ifndef BR2_H_
#define BR2_H_

#ifndef __SYNTHESIS__
model_default_t br2[96];
#else
model_default_t br2[96] = {0.1583352238, 0.3148038983, 1.1988480091, 0.3308611214, 0.2578161359, 0.1280743778, 0.1182140931, 0.5241666436, 0.8273749948, 0.6691678762, 0.2392184287, 0.0401172452, 0.3834998608, 0.2377343178, 0.4218954444, 0.6381996870, 0.1864720583, -0.0673643425, 0.0115111945, -0.2586870193, 0.8887419105, 0.4615851343, 1.2847049236, 0.5717933774, 0.3378554583, 0.0582450069, 0.6153697968, 0.0023165585, 0.2278999090, 0.3761531711, 0.0491187721, 0.1599658430, -0.2369816750, -0.3168705404, 0.1416346878, 0.1520774364, -0.1914850622, 0.1344674677, -0.2524959445, 0.6204513907, -0.2739027441, -0.7664754987, -0.2223590761, -0.3379817009, -0.0493735150, 0.0024689368, 0.0362855680, -0.3975933194, -0.1948427856, -0.8118029833, -0.2681525648, -0.3812721968, -0.1827348173, -0.4299461544, -0.2577533424, -0.6708390713, -0.5463328362, -0.3039855063, 0.1664827913, 0.1001143903, 0.1678603441, -0.9400043488, -0.4702156186, -0.0769084245, 0.0692273155, -0.0066494998, -0.2173803151, -0.0180329531, 0.0626491979, 0.1177719533, 0.0351007208, -0.0406403393, 0.0027678283, -0.1414993852, 0.1953160465, -0.0188070070, 0.1423766762, -0.1039108932, 0.0158492718, 0.0948156416, -0.0073668030, 0.0392644890, -0.0412300415, -0.1011259481, 0.1788354367, -0.0123222619, 0.0820723772, -0.0956898481, -0.0801967308, -0.1067514569, 0.0249048918, 0.1535750329, 0.1736402512, 0.1148693785, 0.0973954797, -0.0283929911};

#endif

#endif
