//Numpy array shape [16, 5]
//Min -0.617332875729
//Max 0.342646002769
//Number of zeros 0

#ifndef W10_H_
#define W10_H_

#ifndef __SYNTHESIS__
model_default_t w10[80];
#else
model_default_t w10[80] = {0.0546600856, 0.1731659323, 0.1239867508, -0.0186853111, -0.0847543553, -0.0599665307, 0.0898827836, 0.0271610208, -0.0913326517, 0.0124319177, -0.0786836222, 0.1186474115, -0.0336761847, -0.0525896288, 0.0888495371, -0.1743876338, -0.0912067369, 0.2174682766, 0.1250781566, 0.1075212136, -0.1553160101, 0.2774484158, 0.2876039445, -0.1551979482, 0.0135841668, 0.2453777492, 0.0039988626, 0.1173746437, 0.0253543556, 0.1807476580, -0.1010806710, -0.1146116182, -0.1781802624, -0.1579030305, 0.1867345124, 0.0852370337, 0.2455363870, -0.0470369235, 0.2629131973, 0.2827036083, -0.1483801156, -0.0326920599, 0.0773534551, -0.1617442667, -0.1318862587, 0.2133301646, -0.0416276492, 0.1880770624, -0.0515462346, 0.0832679272, 0.3426460028, 0.0689014345, -0.3778325915, 0.0858183131, -0.3073225617, 0.3006400168, 0.2238219678, -0.6173328757, 0.2359072119, -0.3730034828, 0.0341684856, -0.0697728470, 0.1183622703, 0.2107966989, 0.0017319680, -0.5937865973, 0.2806349099, 0.3276362717, 0.2826768756, -0.5744224191, -0.0680828989, -0.4518167377, -0.0673796162, -0.0677405670, -0.4509018064, -0.0545902736, -0.0446684808, 0.1530561596, 0.0485241152, 0.0926355124};

#endif

#endif
