//Numpy array shape [10, 15]
//Min -0.875000000000
//Max 0.906250000000
//Number of zeros 3

#ifndef W15_H_
#define W15_H_

#ifndef __SYNTHESIS__
weight15_t w15[150];
#else
weight15_t w15[150] = {-0.21875, 0.06250, -0.37500, -0.25000, 0.90625, -0.06250, -0.28125, 0.18750, 0.18750, 0.12500, 0.46875, -0.15625, -0.68750, -0.18750, -0.56250, 0.12500, 0.21875, -0.68750, -0.87500, -0.43750, 0.06250, 0.25000, -0.56250, -0.03125, -0.46875, -0.31250, 0.06250, -0.15625, -0.37500, 0.90625, 0.31250, -0.81250, -0.50000, 0.34375, -0.84375, 0.31250, 0.09375, -0.68750, -0.65625, -0.78125, 0.00000, 0.03125, -0.34375, -0.75000, 0.40625, 0.28125, -0.81250, -0.75000, -0.37500, 0.62500, -0.18750, 0.09375, -0.62500, -0.03125, -0.15625, -0.65625, -0.12500, -0.71875, 0.21875, 0.21875, 0.21875, -0.03125, 0.06250, 0.34375, -0.37500, 0.53125, -0.09375, 0.50000, -0.43750, -0.34375, -0.12500, -0.50000, 0.21875, 0.53125, -0.12500, -0.50000, -0.31250, -0.37500, 0.15625, 0.31250, 0.71875, 0.25000, 0.31250, -0.43750, -0.06250, -0.53125, -0.12500, -0.25000, -0.03125, 0.18750, -0.68750, -0.40625, -0.09375, 0.15625, 0.09375, 0.12500, 0.62500, 0.46875, -0.68750, -0.03125, 0.09375, -0.25000, 0.78125, -0.03125, 0.18750, 0.50000, -0.31250, 0.21875, 0.28125, 0.59375, 0.00000, -0.46875, -0.43750, -0.03125, 0.03125, -0.18750, 0.59375, -0.28125, 0.43750, 0.43750, -0.53125, -0.87500, 0.03125, 0.46875, 0.34375, -0.68750, -0.31250, -0.06250, -0.46875, 0.18750, 0.21875, 0.59375, 0.31250, 0.34375, -0.31250, 0.31250, 0.62500, -0.15625, 0.00000, 0.34375, 0.31250, 0.59375, -0.84375, -0.12500, 0.50000, -0.21875, 0.18750, 0.06250, -0.12500, 0.31250};

#endif

#endif
