//Numpy array shape [10, 15]
//Min -0.968750000000
//Max 0.812500000000
//Number of zeros 3

#ifndef W15_H_
#define W15_H_

#ifndef __SYNTHESIS__
weight15_t w15[150];
#else
weight15_t w15[150] = {-0.37500, 0.28125, 0.25000, -0.15625, -0.15625, -0.37500, -0.78125, -0.68750, 0.37500, -0.37500, 0.25000, 0.28125, -0.06250, -0.78125, 0.78125, -0.31250, -0.21875, 0.06250, 0.46875, -0.68750, 0.09375, -0.09375, 0.59375, -0.15625, 0.34375, 0.00000, 0.46875, -0.78125, 0.03125, 0.09375, -0.65625, -0.06250, -0.28125, -0.37500, -0.15625, 0.28125, -0.62500, 0.21875, 0.12500, 0.31250, -0.59375, 0.15625, -0.28125, -0.15625, 0.00000, -0.15625, 0.06250, -0.43750, 0.40625, 0.21875, 0.09375, 0.03125, -0.43750, 0.53125, -0.09375, 0.65625, -0.18750, -0.56250, -0.53125, -0.18750, 0.00000, -0.50000, 0.25000, -0.06250, 0.03125, -0.18750, 0.21875, 0.09375, -0.12500, -0.31250, 0.28125, 0.09375, -0.59375, -0.12500, -0.56250, -0.12500, 0.12500, 0.81250, 0.03125, 0.28125, -0.40625, -0.50000, -0.12500, 0.21875, -0.18750, -0.09375, 0.71875, 0.06250, 0.71875, 0.12500, 0.18750, -0.40625, 0.03125, -0.31250, 0.37500, -0.43750, -0.25000, -0.34375, 0.75000, -0.43750, -0.37500, 0.56250, -0.78125, 0.56250, -0.28125, -0.96875, 0.21875, 0.78125, 0.62500, -0.18750, -0.12500, 0.18750, -0.40625, 0.56250, -0.09375, 0.09375, 0.09375, -0.78125, -0.46875, -0.87500, -0.21875, 0.31250, -0.09375, 0.15625, 0.37500, -0.28125, 0.53125, -0.59375, -0.65625, -0.50000, 0.18750, -0.90625, 0.43750, 0.18750, -0.28125, 0.62500, 0.43750, -0.53125, 0.12500, -0.40625, -0.09375, 0.15625, 0.65625, -0.31250, -0.53125, -0.25000, -0.37500, -0.28125, -0.15625, -0.06250};

#endif

#endif
