//Numpy array shape [20, 80]
//Min -0.644519269466
//Max 1.028668045998
//Number of zeros 0

#ifndef WR2_H_
#define WR2_H_

#ifndef __SYNTHESIS__
model_default_t wr2[1600];
#else
model_default_t wr2[1600] = {0.2921297550, 0.0430475697, 0.0301483683, -0.0862218961, 0.2870144844, -0.0133342491, 0.0551404767, -0.0613520890, -0.0930254832, 0.1452294886, -0.2784867585, 0.0226920452, 0.2460600436, -0.0521351136, 0.0542677678, -0.1227079332, -0.2889840305, -0.1781957746, 0.0893423259, 0.2462583780, 0.0859348327, 0.0278078001, 0.0358014517, -0.0373446532, 0.2523743510, -0.2014960498, 0.3303775787, 0.1050238982, -0.1451152414, -0.2076142281, -0.1788909733, 0.2304033935, 0.2102624178, -0.1366458535, 0.0629247054, -0.0582654774, -0.0142242499, -0.0785388127, 0.3504808545, 0.4238615334, 0.0574987084, -0.0294200014, -0.0541080832, 0.0872907713, -0.0898326039, 0.1486335099, 0.0240068324, -0.2137353420, -0.1187643558, 0.1233347580, 0.1427751333, -0.1524515748, -0.0781310499, -0.1136539131, 0.0080514001, 0.2397381216, 0.0738186464, -0.1572908163, -0.0348908268, 0.0252474248, 0.0017996245, 0.1424766779, 0.1187264472, -0.0336971246, 0.4353169501, -0.2691496909, 0.1977528483, 0.3968405426, 0.0344182439, 0.0583589710, -0.0279207565, 0.2317306399, 0.2074829489, 0.0778285414, -0.0949308574, -0.2334848195, 0.3000108600, 0.0954902023, 0.1633847803, 0.1399805397, -0.3048493266, -0.0188130774, -0.0326796174, -0.0562646762, -0.2317091674, -0.1113943458, -0.0813213438, 0.0104925847, 0.2234639078, -0.0109428782, 0.1349409670, -0.1221813262, -0.2763538659, 0.0140817817, -0.0018862032, 0.1228588745, 0.1479433924, -0.0733466893, -0.2811029553, -0.0557499863, -0.0299749505, 0.1266764700, -0.2339033633, -0.0275946315, 0.1064656600, 0.2380634397, 0.0303303357, -0.1179604605, -0.0517796576, -0.1381524205, 0.0617469661, -0.3861479163, -0.2546392083, -0.0813454986, -0.0209673364, -0.0073765074, -0.2077548504, -0.0603423119, -0.3591585755, 0.0038304534, -0.0210234057, 0.0513829328, 0.0020075836, 0.0643945411, 0.0919848755, -0.1517242938, 0.0981703177, -0.1103199273, 0.3281183839, 0.0286625326, -0.0315380432, 0.2291169763, -0.0799026638, 0.1524842232, 0.1011255160, -0.1755980104, -0.0893290192, 0.0530469678, -0.0042932564, 0.0278124195, -0.1801041514, 0.0790124238, 0.0257103462, -0.0260216892, -0.4118321836, 0.1157203615, 0.0794354305, 0.0107563902, 0.1787559688, 0.0863802657, -0.0562055893, -0.0221909825, -0.1992457956, 0.0001208552, -0.0880388096, 0.1365593076, -0.2357967347, -0.0186502486, -0.0984621048, -0.4862118661, 0.0310642496, -0.0531495847, -0.1240816936, 0.2365324646, 0.1581728905, 0.1027892530, 0.0045519173, 0.1361720115, -0.1127411500, -0.0119788069, 0.0033282323, -0.1232522279, -0.1356074363, -0.1757777780, -0.1093296409, -0.0202807430, -0.1246375293, -0.3223452270, -0.0347415768, -0.2195551395, 0.0041781846, -0.0272474997, -0.0556852669, -0.2816357911, 0.1195038334, 0.1313785315, 0.1148993522, 0.0523616411, -0.1026532352, -0.0435444228, -0.1668124199, -0.1948034018, -0.0356524587, -0.0295619257, -0.0980784148, -0.0745033249, 0.1280487180, -0.3008128703, -0.0421024598, 0.1536994129, 0.2145495713, -0.2069596946, -0.0126409363, 0.1395522505, -0.1921467334, 0.0101107471, -0.1788031459, -0.1296389252, -0.1770992130, 0.0715562031, -0.1391367614, 0.1547326893, -0.0734757632, 0.0163429584, -0.1267949492, -0.0181560367, -0.1143073663, -0.0720051825, -0.1425513029, -0.1695666611, -0.2122185528, -0.0912339240, -0.0158888511, -0.0622171313, -0.2322121114, 0.0804106295, 0.1504521668, -0.1208593100, -0.0323065855, 0.1038817987, -0.0226476677, 0.1172050983, 0.0162733421, -0.2110749334, 0.1294306666, -0.2009241283, -0.2320084274, -0.0826354772, -0.1282424033, -0.3234428465, 0.0184278321, 0.0717511252, 0.0218887143, -0.0684867427, -0.1306031644, -0.0320247933, 0.2035743743, 0.0138704190, -0.1556427479, -0.0302464273, 0.0213214587, 0.2374628931, -0.0131872687, -0.1249871254, -0.0381858088, -0.0335014425, 0.0181679502, -0.0832306817, 0.1571835130, -0.1816793084, -0.3286175430, 0.3628910780, 0.0784705281, -0.0362901874, -0.1109861210, 0.0501143895, 0.0332961828, 0.0455483869, -0.1774850935, -0.0198094007, -0.1905366480, -0.1347108036, 0.0022655213, 0.0128710801, 0.0168987941, 0.0207000785, 0.3138395250, 0.0015626256, 0.1133485362, -0.0849147290, -0.0640235245, 0.1529601812, 0.0241229422, -0.0312890597, 0.0611054376, 0.2115443796, -0.0086018210, -0.2831141055, -0.0723621771, -0.0128295394, -0.0132883657, 0.1662171930, -0.2024070770, 0.0247553382, 0.1221060008, 0.0629460141, -0.0292432085, -0.0214147829, -0.1659118086, -0.2950960100, -0.1099892482, 0.2721762955, -0.2684766650, 0.1018932611, -0.1432832927, -0.0511775762, -0.0535649061, 0.0964287892, 0.2186458707, 0.1859069467, 0.0211687926, 0.1220550016, 0.0529559962, -0.1708057374, -0.0515583009, 0.0061847405, -0.1559316516, -0.2062693536, 0.1972169876, -0.1214653328, 0.1941776276, -0.0111909173, 0.2158935219, 0.0881249756, -0.0547581799, 0.1197170019, 0.0347140282, -0.2033538967, 0.0102968980, -0.0086300978, 0.0738550127, 0.0184247475, -0.1624855250, 0.2675272524, 0.0835915804, -0.2556946874, -0.0478941239, 0.2560195327, 0.0895570964, 0.0459300093, 0.3549824357, -0.0336329378, -0.1129890978, 0.0115078148, -0.2568263710, 0.0128064323, -0.1538518816, -0.0428656116, 0.0868284032, 0.0896580517, -0.1157905385, -0.0800709128, -0.2013798952, 0.3411160111, -0.2597350776, -0.2154349685, -0.2511890233, 0.5106005073, -0.1497505009, -0.0828797594, -0.1413957477, -0.2981154621, -0.0078562871, 0.0869753510, 0.1238942668, 0.0336354710, -0.0928592011, -0.0515745729, -0.0106794173, -0.0489210598, -0.0967161655, 0.0003617297, -0.1231333911, 0.0311551932, -0.0167679451, -0.0089547541, 0.0292449258, -0.0753231794, -0.1562041491, 0.0439433046, 0.2234024256, -0.0593337156, 0.1080249995, 0.1023485437, -0.1586625427, -0.0777881145, -0.2097516656, 0.3000711799, 0.0947503075, -0.0735273436, 0.1894933879, 0.0115868263, -0.2240073979, 0.4358350337, -0.2601922154, -0.0798234493, -0.1257662326, 0.3441482782, -0.1355683655, 0.0040897788, -0.0516130105, -0.1028534621, -0.0201706048, -0.0348603390, -0.0311036967, -0.0927221328, -0.0896858126, 0.2574992776, -0.0162437223, -0.0723744258, 0.0625428259, -0.1801028848, -0.1518745869, -0.1720733196, 0.1111503541, 0.0535406470, -0.1485686749, -0.0887338445, 0.0933051035, -0.1804039478, -0.2094474733, 0.0564120933, -0.0014488095, -0.0646092743, -0.0641383529, -0.1460812539, -0.0293998085, -0.0859113634, 0.0438922979, 0.0126694338, 0.0846340507, -0.0714469329, -0.0909506455, -0.1870253533, 0.0567722842, 0.0511948913, -0.0756857395, -0.0253648665, 0.0505580828, -0.0588805079, 0.0211271178, -0.0153944287, 0.0118003432, -0.2459476292, 0.1879210025, 0.2015250176, 0.2173515856, -0.2880730927, 0.0927182138, -0.0230794810, -0.0099458685, 0.2296281457, -0.3046172857, 0.1043163314, -0.2789503336, 0.0237138662, 0.0517638922, -0.0824187696, -0.1696255505, 0.0368426964, -0.2381277382, 0.0649063513, -0.0985468775, -0.1724396199, -0.1815226227, 0.1664408743, -0.0233876277, 0.0723915920, -0.2031070441, 0.1344201416, -0.0652720481, 0.0728812292, -0.1283522099, -0.0845597237, 0.2060758621, 0.1525191367, 0.0732048675, -0.0251245536, -0.1472859383, -0.2497889251, -0.1666588783, 0.1691440791, -0.0583882630, 0.0318009667, -0.1967478842, -0.0567259490, -0.2427739352, 0.2321260571, 0.0915234312, -0.0841999054, -0.0262652747, -0.1198110506, -0.1936744004, 0.0003536728, 0.2313897014, -0.0393771566, -0.1201315448, 0.0664491802, -0.0256866291, -0.1989852190, 0.0132931527, -0.0734866336, -0.0235410314, 0.1816212833, -0.0720795915, -0.0431659408, 0.1910021901, 0.0855795071, 0.0615088604, 0.0121032158, 0.0914871544, -0.1641279012, -0.0610423312, -0.1714609712, -0.0757874250, 0.0110364370, -0.0287975855, -0.1324418783, -0.3010139763, 0.0024512399, 0.0367773622, 0.0458659641, 0.1042541191, 0.0425314903, 0.0913608223, -0.0295095313, 0.0232275017, -0.2051219940, -0.0815230757, 0.1162757501, 0.0065423958, 0.1838647723, 0.1090742052, 0.1436157376, -0.0107959593, 0.2133903205, -0.0700702220, 0.0358169340, -0.1677366942, -0.0188790448, -0.1098293439, -0.0495815799, -0.1078330800, 0.1364334524, -0.1334336996, 0.0310276225, 0.0015863979, 0.1970612258, 0.0861069858, 0.1016149819, 0.1617252380, -0.0561754182, -0.1305490583, -0.0057453318, 0.0100648208, -0.2257702202, -0.3739027977, -0.4343625307, -0.2316006422, -0.3150051534, 0.0105178971, -0.1745793670, -0.1926285326, 0.0995588452, -0.2810429335, 0.1771932542, -0.0485406034, -0.2217671573, -0.1947711706, 0.1509414762, -0.0841845721, -0.4066593945, -0.3795894980, 0.1181495339, 0.0361714996, 0.0264061280, 0.1154794022, 0.0354351960, -0.3204722404, -0.2117516845, -0.2120013982, 0.0825996622, -0.1647889614, 0.1241648793, -0.2035253644, 0.0509125330, 0.0729795471, 0.1345257312, -0.1709633321, 0.1773614138, 0.3349696696, -0.2686941922, 0.0037056790, -0.1115938053, -0.0823610127, 0.0083380155, -0.0229727011, -0.2002461404, -0.1852163970, -0.2645291090, 0.0626533926, 0.1105062664, -0.0852076933, -0.1454775482, -0.0027147112, -0.1358985454, 0.0313799866, -0.0370975919, 0.0062289764, -0.1549802274, 0.0419861488, 0.1696324050, 0.0140009094, 0.0164871607, -0.0181748532, -0.1479726285, -0.0038975754, -0.1123697460, 0.0467759520, -0.0034148695, -0.2730556726, 0.0468318537, -0.1774116606, 0.0042628427, -0.3806619942, 0.0760568231, -0.0402055196, 0.0897413641, 0.0204405952, 0.0222444553, 0.1888186485, -0.0922736228, -0.3681183457, -0.0030261357, -0.0643929094, 0.0132772978, -0.1975084245, 0.0624465011, -0.3523826301, -0.1935045719, 0.0254187677, -0.1291769892, -0.0968568549, -0.0204404071, 0.2751443684, 0.1310539693, 0.0633895099, -0.1745093614, -0.0552932136, -0.0981487632, 0.0348281600, -0.1377737075, -0.0521587096, 0.1375339627, -0.0143455304, -0.1751723737, 0.0753974468, 0.0104777925, -0.1764493883, 0.5444299579, 0.0581705011, -0.2010904849, 0.1757479012, 0.0102100130, 0.0268786754, 0.0684298873, -0.0472191125, -0.1013397351, 0.1003070772, -0.0467725098, -0.0633108169, 0.1182722226, 0.0502681546, 0.1483795196, 0.1573708206, -0.2666479945, -0.3828117847, 0.1684171706, -0.1347275972, 0.0703448430, 0.0362141095, 0.2085847408, -0.0895429850, 0.0743531883, -0.0087437015, -0.0141383605, 0.0318934247, 0.1434928775, -0.0884856433, -0.0790720209, -0.0250730366, 0.2071968764, 0.0919391289, -0.0132691478, -0.3785317242, -0.0565601885, 0.0255670138, 0.2120924145, 0.1144114658, 0.0975811109, 0.2899453938, 0.1663531363, 0.1423245966, 0.1238986328, -0.0227399264, 0.0105308248, -0.0440984666, -0.0895482376, 0.1147685573, 0.0440307669, 0.0125385858, 0.0403120555, 0.0015813799, 0.1591227949, 0.0198792424, 0.0444951691, -0.0560997985, -0.0844223425, -0.2595860958, 0.0530760735, -0.0407289825, 0.1281098276, -0.0464475714, -0.1895129383, 0.0171499085, -0.0251319222, 0.0066693262, 0.0413580723, 0.0862374604, 0.0695476905, -0.2593843043, 0.2115779966, 0.2806844413, -0.0553629436, 0.0982089415, -0.0458184443, 0.0018576046, 0.0818363056, 0.2096463442, 0.3364294767, 0.3555277288, -0.0836580843, -0.0128732910, 0.0893140510, 0.1621135473, 0.0552185476, -0.1203892082, -0.0431031696, 0.0486845113, 0.0502198488, -0.2052439451, 0.1993871480, 0.2660973966, 0.0275719836, 0.0700949356, -0.1751747429, 0.2960116267, 0.0428895913, 0.2131966203, 0.0914168581, -0.0814130083, 0.0562118143, 0.0158648379, -0.1302292645, -0.1197026521, 0.0258248020, -0.1888341159, 0.0817428678, 0.0214427952, -0.1000483036, 0.1933454275, -0.0922156721, -0.1481559128, -0.0922542065, -0.1905637383, -0.1196517050, 0.0544652864, -0.1619648486, 0.0510571487, -0.0993430391, -0.1917886287, -0.0727102086, -0.0958422720, -0.0086359093, 0.1757526696, -0.0453686640, 0.2740845084, -0.0707287192, 0.1509499401, -0.0896011516, -0.0562948585, 0.1531934142, 0.0338526331, -0.0119760344, 0.1148081869, -0.0489639975, 0.1456753612, 0.1509206742, 0.1244903803, 0.1546369940, -0.2883662581, 0.0438951291, 0.2602443993, -0.0260180961, 0.0877749920, -0.0765803307, -0.2227157205, -0.0626706481, -0.1962732226, -0.2119229436, 0.0494195186, -0.1316316277, -0.1491511464, -0.2827207446, 0.0237312168, -0.0291650705, 0.1711634994, -0.1856810004, 0.0645729750, 0.0452731997, -0.0661497191, -0.0496723168, -0.0605247580, -0.0442618318, 0.1226782799, 0.0168434959, 0.0638382956, 0.0877524391, 0.0247232076, -0.1822844148, 0.0139684016, 0.0906858221, -0.1281713396, -0.1827494502, 0.1504707187, 0.0811184049, -0.0573656671, 0.0443633310, 0.2390828729, 0.0197372716, 0.1107765883, -0.1008483544, 0.1563984305, -0.0693378747, -0.0892802775, 0.0872697979, 0.1396619976, -0.0037018820, 0.0550386608, -0.2430910617, -0.0471365079, 0.1283963770, 0.0214460026, -0.0294038486, 0.0713407993, 0.0558719113, 0.1780967712, -0.1514564604, 0.1497082710, -0.2267060876, -0.0747548193, -0.0834812596, -0.0657723770, 0.1983775347, 0.1019069552, 0.2117054611, -0.0343491882, -0.2399725914, 0.2571723759, -0.1745032072, 0.1757092327, 0.3564167917, 0.0106766783, -0.2258430123, 0.0899293572, 0.1911144704, -0.1350902319, -0.1059288085, 0.2813826501, -0.1236475855, -0.2481873482, -0.1112226099, -0.0080266055, -0.1247356385, -0.2605413795, 0.2090296447, 0.0128047522, 0.0735785812, -0.0768835023, 0.0625856817, 0.0675750226, -0.1700771749, -0.3789496422, -0.0705037639, 0.0534069389, -0.0377318673, -0.2238070220, 0.0012076503, -0.2134781927, -0.2462987900, -0.2412294149, 0.0529584698, -0.0366745889, -0.0008595645, 0.0456661247, -0.1619881243, -0.0866267234, 0.0050843786, -0.1124326438, -0.1474353522, 0.2413265705, -0.2336531132, -0.0657682642, -0.0102575356, -0.3828051686, 0.1597182900, -0.1274833232, -0.2012335509, -0.1760284603, -0.2269132584, -0.0545131266, 0.0853176489, -0.0146294506, 0.2153989971, 0.0471136905, 0.0718310848, -0.1019802839, -0.1717171073, -0.0364069119, 0.0106546655, -0.0346394666, 0.2761899531, -0.3570813537, 0.1725129485, 0.1021182165, -0.0472858883, 0.0286794677, 0.1645885110, 0.0025723015, 0.0307643022, 0.0144607462, -0.1543760002, -0.0430946611, -0.2666709423, -0.1286940873, -0.2131587565, -0.0839279592, -0.2176401764, 0.1091224849, -0.0734986067, 0.0610246696, -0.0789664462, -0.2914705873, -0.0026032163, -0.0482388288, -0.0282476731, -0.2159212232, -0.1860571057, -0.1143608317, -0.4935198128, -0.1672957689, -0.1026265323, 0.1124156862, -0.0287851263, 0.2869668007, 0.2209686488, -0.1006108671, -0.2012801170, -0.1178112999, 0.0081636449, -0.0536185168, -0.2806897163, -0.0806337073, -0.2154760063, 0.3013291359, -0.1304478943, 0.1056881100, -0.2399377972, -0.0907733515, 0.0805600882, 0.1570611596, 0.0098304590, -0.0984232724, -0.0168435667, 0.2151075751, -0.0075729792, -0.1112331972, -0.1462508738, 0.0617015101, -0.3215378821, -0.0380388871, 0.0149881756, -0.0772468448, 0.0205389187, 0.3572063148, -0.1826892793, -0.5052587986, -0.3655710518, -0.6151335239, 0.0973909944, -0.2058557272, 0.1433061510, 0.1672324985, -0.3203392029, -0.1539153010, -0.1897723526, 0.3287237585, 0.2283144444, 0.0564999543, -0.0678551868, -0.3205423653, 0.0969564691, 0.2109345943, 0.0371517166, 0.0272694863, -0.0919188410, -0.1391335130, 0.2103516012, 0.1166146994, -0.0098505747, -0.1204211414, 0.0044166148, -0.0956822932, 0.0563823953, 0.2010564655, 0.0327616520, -0.0681864098, -0.1972806454, -0.1180978566, -0.1519814879, -0.0940019265, 0.0886681676, -0.3548804522, -0.3387717009, 0.1302352846, -0.0275080111, -0.4066114128, -0.2710338533, -0.2672757804, -0.3537407517, 0.1649522930, -0.4970356524, -0.1828240603, -0.0132957092, -0.1262902468, 0.0741893724, -0.2750681341, 0.0371744521, 0.0164480768, -0.1197154373, 0.1658363044, -0.1924226582, -0.1977213919, 0.0743639469, 0.0429511592, 0.0303469244, -0.1606125981, 0.1185110882, -0.0372231677, -0.0456805080, -0.0781085268, -0.1978370249, -0.0169312637, 0.0073719281, -0.4711844027, 0.1232197955, -0.1106888279, 0.1382153779, 0.1497986317, 0.0271047652, 0.1664873958, -0.2411912829, -0.3622891307, 0.3126098514, -0.1608384252, 0.2725103796, -0.1994015425, 0.2785730958, -0.0958432034, -0.2365163863, -0.2769657969, 0.0287018865, -0.1886715293, -0.0449227840, 0.3574695289, 0.0158042721, 0.0947934091, 0.4289122224, 0.0889383256, -0.1552524120, -0.1244963109, 0.0292898137, -0.0639904737, 0.0072688907, 0.1312883794, 0.0644731745, -0.1118805557, 0.2476328760, -0.1064441353, 0.0779899284, -0.0510609187, -0.0701675043, 0.0796971694, 0.0954354033, -0.1949860007, 0.0964313895, 0.1818129718, -0.0695352629, 0.2418084741, -0.1404790133, 0.2058947682, -0.4765992463, -0.2880015075, 0.2363214344, -0.0532661714, 0.1407254040, -0.1918414980, 0.2669733167, 0.0362136438, -0.1757977903, 0.0605145507, -0.0511371568, -0.1161241531, -0.1646902263, -0.3183504343, -0.0205320865, -0.0383506119, 0.1227857322, 0.0305221863, -0.0597689301, -0.0231442787, -0.0480512604, -0.2024822235, -0.1333888769, 0.1652259827, -0.0425419733, -0.1056015715, 0.0488868356, -0.0140862660, -0.2367555946, -0.2295648754, -0.0550634488, -0.0845015422, -0.1180311665, 0.0758953169, -0.0127175087, -0.2383861989, -0.1351912767, 0.0932682231, -0.1510496587, -0.1136320159, -0.1209192500, -0.0010760656, -0.1643404961, 0.1044923961, 0.3128552735, -0.0637330413, -0.1727730334, -0.1517033279, 0.0873371363, -0.0961511508, 0.0161206238, -0.0565309078, 0.0240864940, 0.0162676573, -0.1473821402, 0.0608410090, 0.2195298076, -0.0933729783, 0.0031489104, 0.0390202738, 0.0464639850, -0.1113710999, 0.0239836350, 0.0604059324, -0.1072472706, -0.0907570422, -0.1717280298, 0.1051582173, -0.1483320892, 0.0397771113, 0.0413407683, 0.1332571507, 0.1347157508, -0.2014244199, -0.0170130897, -0.2424158603, 0.0239716265, 0.1338084340, 0.1187854707, 0.0542673133, -0.0755720884, -0.1352960020, -0.2172279507, 0.2295944393, -0.0074246130, -0.2486467659, 0.1134962812, -0.1361247450, -0.0620432459, -0.1657641977, 0.0705428123, 0.0302502289, -0.1126146615, 0.1273414195, -0.0407722928, 0.0206219498, 0.1125565171, 0.1018361598, 0.0570008121, 0.1684837043, -0.2311946750, -0.3229706287, 0.0019295756, -0.0189486630, -0.0631518364, -0.1961537600, 0.0734963045, -0.0444587767, -0.2784487903, -0.0766336918, -0.0299183819, 0.2896936238, -0.0052255620, 0.0106436396, 0.1359447986, -0.1028832123, -0.0112571670, -0.0002759357, -0.1523105204, 0.0546542965, -0.2891468406, 0.0592703298, -0.0970164463, -0.1110870466, -0.0790592358, 0.0597782321, -0.0287003778, 0.0632524043, -0.0086364364, 0.1023836732, 0.1640415341, -0.2695947587, -0.0480996929, 0.1328341514, -0.0221942831, 0.0623012669, 0.1164891645, -0.0330950990, -0.0199387148, -0.1677760929, 0.3580110967, 0.0469404571, -0.1468883604, 0.1080926284, 0.0954648852, -0.0458437167, -0.0401397422, -0.2138546556, 0.0636718720, -0.0440336652, 0.0289775860, 0.0057475595, 0.0289265178, -0.0265073590, 0.0003295183, -0.0685915351, 0.0340266861, -0.0954691693, 0.0580838025, 0.2989346087, -0.1857694089, -0.4590412676, -0.0469473675, -0.0659512207, 0.0630843937, -0.1670767814, 0.0230209194, 0.0140167866, -0.4501395822, 0.2693990767, 0.2064825147, 0.1848382056, -0.0562023036, 0.0496493913, 0.0082656378, -0.2790313661, 0.3215507865, 0.0155197037, 0.1097783372, 0.3008749783, 0.3604004681, 0.4133554399, 0.7277437449, 0.0902732015, 0.3199896216, 0.4674238861, 0.1801056117, 0.4076743424, -0.0808666795, 0.3344895542, 0.2404267341, 0.0681974217, 0.0006315907, -0.3085866272, -0.0410587341, -0.0227857251, 0.3115096092, -0.0727267116, 0.1333909780, -0.1769542694, 0.2907020450, 0.4404778183, 0.1199996024, -0.1493641734, 0.2235657573, 0.0532535948, -0.2795647681, 0.5397261977, -0.2273683846, 0.3992005587, -0.1570094079, 0.1057120562, 0.3423303366, 0.4863754809, 0.2188084871, 0.0831723660, -0.4039210081, -0.2478510439, 0.0502979755, 0.2239363790, -0.0305954088, -0.2630673945, -0.1566964835, 0.0298550408, -0.3228608370, 0.0241346862, -0.1143346876, 0.2905008495, -0.1770329773, 0.2816231251, 0.3434306681, 0.2461879253, -0.0197870061, 0.0658805445, 0.0112609277, 0.1506277770, 0.4798344672, -0.1951514482, 0.1889071912, 0.1623415351, 0.4910599291, 0.7649660110, 0.1102890968, -0.3169336915, 0.1190469712, 0.3256746531, -0.0295964759, 0.4464472532, 0.0414309949, -0.0113188876, -0.1025545970, 0.0370212346, -0.0032606157, -0.2579718530, 0.2357248813, 0.1100586951, -0.0172192734, 0.1080298945, 0.0166134648, 0.1278446019, 0.2168373615, -0.0653846934, 0.2774379253, -0.1732126176, -0.0252866931, 0.5450237393, -0.0813691467, 0.0599848963, 0.0076298993, 0.0661227405, -0.3222546279, 0.0518172011, 0.1108453497, -0.3536315858, 0.0644329116, -0.0537756830, -0.1108139455, 0.0712646097, 0.0788111463, 0.2138798833, -0.2198661715, -0.3128103018, 0.3858467340, -0.3311524093, 0.1588356495, 0.1714639962, 0.1775506437, -0.0000182555, -0.2901996374, -0.0390830450, 0.1362638623, 0.0663983151, -0.2665917277, -0.0617907643, -0.1670229882, 0.2620102465, 0.0583610497, 0.0211828593, 0.1767566800, 0.0830967799, -0.1832817495, 0.1104469895, 0.0342721939, -0.1353260279, -0.2624948025, -0.0497596823, 0.0425701588, 0.3435077965, -0.0546597205, 0.2894087136, 0.0071090925, 0.1534667611, 0.2834529281, -0.2407019734, 0.1176098436, 0.0017463311, -0.1569028795, 0.1195835546, -0.0171119124, -0.0699089170, -0.0805391222, -0.2250315249, 0.2309715152, -0.1429222822, 0.0685442388, 0.0829350054, 0.3008907735, -0.1650130153, -0.1381652206, 0.2202449441, -0.0451349616, 0.1237114593, 0.1402162910, -0.0132933166, 0.0043457635, 0.0628516153, 0.1047690511, 0.0430160649, -0.0959150866, 0.0315489061, 0.2170641422, 0.4554780126, 0.1831177920, 0.0071170270, 0.2486237884, 0.6376645565, -0.1556699723, -0.0573566183, 0.1426909268, -0.0374432541, -0.1891848296, -0.0221386589, 0.2441076189, -0.1563971043, -0.0280359704, 0.0026256093, -0.1664636582, -0.0236511398, -0.1563844383, -0.1582964510, 0.3417562842, 0.1230279431, 0.2606850266, 0.0296778921, -0.2039490491, 0.5315514803, -0.0974515602, -0.0248857196, -0.3819222152, -0.1399621665, -0.1073638052, -0.1519313753, -0.0509508476, -0.0461265892, -0.1848448813, 0.0877822340, 0.1141150370, 0.1037122458, -0.0001933732, 0.1279519647, -0.2982113957, -0.0950684771, -0.1348110884, -0.4023488462, -0.2334385812, 0.0049374881, 0.0076105888, 0.0498134270, -0.1479463875, 0.1800375581, -0.1364417821, 0.0360074267, 0.2488659620, 0.2367326766, -0.0408663601, 0.0670601949, 0.0394215398, -0.0594091155, 0.0093077067, 0.0148933753, 0.1043341532, 0.3717203438, 0.3514850140, -0.1000022590, -0.0563453250, 0.7400340438, 0.0408097394, 0.0932267085, 0.0072543351, 0.3760035932, -0.3482395411, 0.0396606512, 0.1201926544, -0.0715496540, 0.0629884824, -0.2410269827, -0.2372686267, 0.1807277799, -0.1681231260, 0.1878875196, -0.3221924603, -0.2429179251, 1.0286680460, -0.0677041709, 0.0888393596, -0.0344214849, 0.4785023928, -0.0891735107, -0.2254164219, 0.0645203739, -0.0957027748, 0.0910531804, 0.0977679640, -0.3064282238, 0.2849818766, -0.1159548238, -0.0969206467, 0.3634833395, 0.0144409789, 0.0257081017, -0.3943224251, -0.1243779510, 0.4164024889, -0.2230921090, 0.1315956563, -0.3380496502, 0.3089679778, -0.1818258166, -0.3487185538, -0.2938455045, 0.1543177515, 0.1049953923, 0.1026345566, 0.2870936394, -0.1120422333, 0.3620150685, 0.2316108942, 0.0365642086, -0.1158574224, -0.1236805171, 0.1482426077, -0.0654463843, 0.0918009132, -0.1593854427, -0.3590527475, 0.1661494076, -0.0159349833, 0.1873364598, 0.1297606081, 0.3226031661, -0.2805534303, 0.0092960233, 0.1062639207, -0.2370433807, 0.0388826579, -0.0931885242, 0.0632796437, 0.0611119680, -0.1810466498, 0.0114285545, -0.6445192695, -0.1382809579, 0.5753812790, -0.3218877912, 0.0774766356, -0.4113408923, 0.1748372316, -0.2194015086, -0.1863828897};

#endif

#endif
