-3.944950550794601440e-02
8.401776850223541260e-02
-7.145752012729644775e-02
4.643939137458801270e-01
-6.574691534042358398e-01
-6.354565620422363281e-01
4.780521690845489502e-01
-2.350418083369731903e-02
2.844593301415443420e-02
3.765663802623748779e-01
6.809762120246887207e-01
-1.679286919534206390e-02
1.080931350588798523e-01
8.315210789442062378e-02
2.106195688247680664e-01
-2.328748703002929688e-01
9.119814634323120117e-01
2.670482993125915527e-01
-1.764352768659591675e-01
3.660985231399536133e-01
1.130874082446098328e-01
1.600000709295272827e-01
-6.763221025466918945e-01
-5.863121896982192993e-02
7.211747765541076660e-01
-8.419630676507949829e-02
3.727996721863746643e-02
-2.087620645761489868e-01
-5.481281876564025879e-01
-4.355382546782493591e-02
4.580813348293304443e-01
6.611576676368713379e-02
-4.771087467670440674e-01
5.371050238609313965e-01
-2.110075950622558594e-01
1.160805001854896545e-01
-1.797040700912475586e-01
-2.942513823509216309e-01
3.108115792274475098e-01
-2.952157855033874512e-01
-5.876186862587928772e-02
3.748342692852020264e-01
-4.096325039863586426e-01
-3.516218066215515137e-01
1.607041209936141968e-01
-3.335397541522979736e-01
-6.378624439239501953e-01
6.568063497543334961e-01
3.396146297454833984e-01
3.174432218074798584e-01
-1.131493151187896729e-01
-4.835979342460632324e-01
-7.390044331550598145e-01
-7.699324488639831543e-01
6.382112503051757812e-01
3.475425541400909424e-01
3.192521631717681885e-01
-1.415366083383560181e-01
4.123086333274841309e-01
-3.467352390289306641e-01
-1.314507573843002319e-01
-4.058673381805419922e-01
1.664883345365524292e-01
4.418917298316955566e-01
-6.765909790992736816e-01
-7.306941151618957520e-01
5.347453355789184570e-01
1.626071752980351448e-03
2.840127795934677124e-03
5.789409875869750977e-01
9.734628796577453613e-01
9.282478131353855133e-03
3.943740129470825195e-01
2.038035243749618530e-01
3.346208035945892334e-01
-6.573591828346252441e-01
5.225220918655395508e-01
4.084856212139129639e-01
2.319909445941448212e-02
7.059461474418640137e-01
2.915988266468048096e-01
-1.582127332687377930e+00
6.485762000083923340e-01
-5.027237534523010254e-01
-1.899588406085968018e-01
-7.866044640541076660e-01
-3.651199340820312500e-01
-5.600770115852355957e-01
-2.022466510534286499e-01
9.034405946731567383e-01
1.441019624471664429e-01
2.873122133314609528e-02
-2.332732230424880981e-01
-2.451076805591583252e-01
-1.375050187110900879e+00
-1.506225705146789551e+00
1.366427242755889893e-01
-1.355931520462036133e+00
-2.304736059159040451e-03
5.398920178413391113e-01
7.536205649375915527e-02
-3.061352372169494629e-01
8.507638424634933472e-02
-2.444877661764621735e-02
3.532732725143432617e-01
7.828667014837265015e-02
3.498919904232025146e-01
1.254017055034637451e-01
-1.728233098983764648e-01
-5.693173408508300781e-01
3.349507972598075867e-02
3.780317008495330811e-01
3.315720260143280029e-01
-3.561562597751617432e-01
-4.043276309967041016e-01
-2.260454744100570679e-01
2.932564318180084229e-01
6.571248769760131836e-01
-2.143137753009796143e-01
6.214739084243774414e-01
