1.345689408481121063e-03
-3.216464829165488482e-04
-3.172447322867810726e-04
9.942116448655724525e-04
-1.333664171397686005e-03
-9.537926316261291504e-02
5.206811474636197090e-04
-6.920736632309854031e-04
-5.645842757076025009e-04
2.835018967743963003e-04
-1.508910441771149635e-03
-8.755534654483199120e-04
1.814239425584673882e-03
-1.658512774156406522e-04
1.158975996077060699e-03
1.423143316060304642e-03
-2.796149812638759613e-03
3.735077625606209040e-04
-2.022495493292808533e-03
-1.826304942369461060e-04
5.950707709416747093e-04
-7.932790555059909821e-03
-2.534612417221069336e-01
-2.999646216630935669e-02
-3.270115703344345093e-03
-5.488330498337745667e-02
-5.234631523489952087e-02
-2.842458779923617840e-04
1.017329399473965168e-03
3.024965524673461914e-01
-9.125915239565074444e-04
-3.901704621966928244e-04
-1.316796541213989258e-01
-2.630964387208223343e-03
-5.035161972045898438e-02
5.198648432269692421e-05
-6.625744700431823730e-02
2.665784908458590508e-03
1.572560635395348072e-03
-1.407915819436311722e-02
2.060849219560623169e-03
-1.066808402538299561e-01
-1.063789799809455872e-01
-3.345764998812228441e-04
5.799867678433656693e-03
-4.103229045867919922e-01
-9.961283951997756958e-02
4.673440707847476006e-05
4.246230795979499817e-02
5.653306841850280762e-02
-6.912232493050396442e-04
-5.487429443746805191e-03
-2.544418275356292725e-01
-3.476212173700332642e-02
-6.437194347381591797e-02
-5.082724243402481079e-02
-4.797703400254249573e-02
-1.551761175505816936e-03
-9.737239452078938484e-05
-1.027790755033493042e-01
1.402565394528210163e-03
-2.097487449645996094e-04
-3.164540976285934448e-04
9.964101482182741165e-04
-1.090913661755621433e-03
-8.607371151447296143e-02
6.832798244431614876e-04
-7.256467361003160477e-04
-5.561644211411476135e-04
8.391503244638442993e-03
-1.225631916895508766e-03
-3.778758691623806953e-04
2.259188098832964897e-03
2.448141167405992746e-04
1.155800768174231052e-03
1.142305438406765461e-03
-2.726793289184570312e-03
3.693577309604734182e-04
-2.137958072125911713e-03
-1.331859966740012169e-04
-1.621666131541132927e-03
1.833151839673519135e-02
7.531729643233120441e-04
-3.560841782018542290e-03
-1.679607201367616653e-03
-1.236759349703788757e-01
-3.313295310363173485e-04
-4.423548467457294464e-03
-1.296332688070833683e-03
3.864993632305413485e-04
-5.375759792514145374e-04
4.057720070704817772e-04
-1.816939562559127808e-02
-3.004687605425715446e-03
8.701485057827085257e-06
-8.739490061998367310e-03
-2.911583287641406059e-04
5.597146227955818176e-03
8.083212742349132895e-05
1.170187533716671169e-04
4.719755612313747406e-03
-3.279729932546615601e-02
-3.040902956854552031e-04
-2.804457955062389374e-02
-1.779626123607158661e-03
1.140276268124580383e-01
-1.076920777559280396e-01
4.374763928353786469e-03
4.204690456390380859e-03
5.087826848030090332e-01
-3.125320887193083763e-03
-2.225611824542284012e-03
-3.167232275009155273e-01
-1.870830543339252472e-02
-1.067333668470382690e-01
1.706416755914688110e-01
-4.598223417997360229e-02
-1.091520581394433975e-02
6.004573311656713486e-03
-1.231253519654273987e-01
-2.709546983242034912e-01
3.003801703453063965e-01
-1.947726309299468994e-01
2.008174955844879150e-01
-3.804843425750732422e-01
-3.490948677062988281e-01
1.611293554306030273e-01
-1.491007357835769653e-01
3.465469479560852051e-01
7.447390258312225342e-02
3.277570605278015137e-01
3.545779585838317871e-01
-1.271236985921859741e-01
3.322506546974182129e-01
-3.866460621356964111e-01
-3.289265558123588562e-02
-4.865068495273590088e-01
1.074237972497940063e-01
2.627792954444885254e-01
-1.394531875848770142e-01
-4.909271374344825745e-02
-1.081717729568481445e+00
-4.268997907638549805e-02
-2.162806391716003418e-01
1.354079693555831909e-01
-9.137984365224838257e-03
3.001356124877929688e-01
-4.698439240455627441e-01
-1.424089789390563965e+00
-6.083176136016845703e-01
5.160062909126281738e-01
-4.825615584850311279e-01
1.780323982238769531e-01
7.078151106834411621e-01
1.015636418014764786e-02
-6.722913980484008789e-01
4.154402315616607666e-01
-6.176824569702148438e-01
4.612769186496734619e-02
6.646811217069625854e-02
3.092403290793299675e-03
-4.833343625068664551e-02
1.296067535877227783e-01
-5.913166701793670654e-02
6.182515621185302734e-01
3.409874439239501953e-02
-3.217932283878326416e-01
9.399108588695526123e-02
-1.572057008743286133e-01
-4.947175830602645874e-02
-2.948416173458099365e-01
-1.418299376964569092e-01
2.345305308699607849e-02
3.669890165328979492e-01
1.394637674093246460e-01
-3.890418112277984619e-01
-1.682742685079574585e-02
-6.440413743257522583e-02
-4.976481199264526367e-01
-5.695317685604095459e-02
2.555472552776336670e-01
-5.296683311462402344e-01
-2.121041566133499146e-01
6.405222229659557343e-03
-8.114287853240966797e-01
-2.378427833318710327e-01
4.234493672847747803e-01
1.304365158081054688e+00
3.258769586682319641e-02
2.660548686981201172e-01
-7.571998834609985352e-01
-2.517457306385040283e-01
4.354544281959533691e-01
3.914458751678466797e-01
1.487204134464263916e-01
2.649871110916137695e-01
5.228399634361267090e-01
-4.370352625846862793e-01
3.337469696998596191e-01
6.478335261344909668e-01
1.565525680780410767e-01
-6.959128379821777344e-02
-4.573029279708862305e-02
4.169722795486450195e-01
-2.599030733108520508e-01
3.934438899159431458e-02
-1.425632685422897339e-01
-2.509953677654266357e-01
1.019461154937744141e-01
1.667615473270416260e-01
1.253191232681274414e-01
2.092129886150360107e-01
-4.743230640888214111e-01
2.553880773484706879e-02
1.481313444674015045e-02
2.613167762756347656e-01
-3.277281224727630615e-01
2.184693664312362671e-01
3.392828404903411865e-01
-3.677245974540710449e-02
-2.277013808488845825e-01
-1.575150489807128906e-01
-3.974787294864654541e-01
1.674844175577163696e-01
1.797077178955078125e+00
5.544087290763854980e-01
-3.685377836227416992e-01
-8.382334113121032715e-01
-5.008430480957031250e-01
-6.470785737037658691e-01
5.165314078330993652e-01
-2.996498942375183105e-01
2.088455855846405029e-01
3.617487251758575439e-01
-1.906081885099411011e-01
1.848727464675903320e-01
-2.362957596778869629e-01
6.912605762481689453e-01
-6.205640360713005066e-02
-1.874026507139205933e-01
-7.997887730598449707e-01
-8.274724483489990234e-01
-2.951473295688629150e-01
7.644391059875488281e-02
-4.901192784309387207e-01
-2.004583179950714111e-01
4.646419882774353027e-01
5.876516699790954590e-01
1.249984860420227051e+00
3.812132775783538818e-01
3.840597569942474365e-01
-9.621544927358627319e-02
3.117366135120391846e-01
2.514638006687164307e-01
-8.511551618576049805e-01
4.253730773925781250e-01
8.575077354907989502e-02
-2.584256529808044434e-01
3.875447437167167664e-02
-7.308018952608108521e-02
2.855977416038513184e-01
-7.871306687593460083e-02
-2.047108113765716553e-01
-3.833698928356170654e-01
-2.689210772514343262e-01
2.073458135128021240e-01
1.912265717983245850e-01
-1.122341901063919067e-01
-9.015207886695861816e-01
-5.575058236718177795e-02
2.456689774990081787e-01
-4.964391887187957764e-01
-4.382734000682830811e-01
-4.111050665378570557e-01
3.568565249443054199e-01
-1.406265497207641602e-01
5.169556736946105957e-01
-3.711136877536773682e-01
2.964852750301361084e-01
2.106765508651733398e-01
2.827140986919403076e-01
-3.515587747097015381e-02
1.740299351513385773e-02
-1.792019903659820557e-01
3.544336557388305664e-02
1.374664902687072754e-01
-1.179380714893341064e-01
-2.061808668076992035e-02
3.093946725130081177e-02
-1.388055831193923950e-01
-4.275429248809814453e-01
-4.789478778839111328e-01
4.138818979263305664e-01
4.119395017623901367e-01
5.165591239929199219e-01
-5.999463796615600586e-02
2.410958521068096161e-02
2.148267030715942383e-01
-4.766153395175933838e-01
-1.396944373846054077e-01
6.033174991607666016e-01
2.957693636417388916e-01
7.492713332176208496e-01
4.301302731037139893e-01
3.918246924877166748e-01
-1.558749824762344360e-01
3.763979077339172363e-01
1.117773771286010742e+00
6.790428757667541504e-01
8.355929851531982422e-01
7.389094233512878418e-01
6.226454377174377441e-01
6.437519192695617676e-01
1.889089345932006836e-01
4.178796708583831787e-01
5.454004406929016113e-01
-3.316866755485534668e-01
2.755366563796997070e-01
5.814511179924011230e-01
4.590088129043579102e-01
1.538754552602767944e-01
7.063101977109909058e-02
1.575456112623214722e-01
1.054826676845550537e-01
-6.250282526016235352e-01
-1.350427120923995972e-01
7.818419486284255981e-02
7.476077079772949219e-01
3.477094769477844238e-01
2.375131845474243164e-01
1.358536630868911743e-01
4.343748688697814941e-01
2.573142647743225098e-01
-8.912751078605651855e-02
2.742875814437866211e-01
8.455839753150939941e-02
-4.845834970474243164e-01
-2.351208031177520752e-01
1.191125735640525818e-01
6.519202888011932373e-02
-4.749942123889923096e-01
-4.552619755268096924e-01
2.180584073066711426e-01
3.333694636821746826e-01
-5.332860350608825684e-01
-3.732160478830337524e-02
-1.474113017320632935e-01
-6.763058304786682129e-01
1.507617682218551636e-01
-1.184425782412290573e-02
2.773601412773132324e-01
1.177184432744979858e-01
-2.234276682138442993e-01
7.631087899208068848e-01
-6.811362504959106445e-01
3.006008267402648926e-01
2.144710719585418701e-01
-3.312810659408569336e-01
2.765287458896636963e-01
1.109302714467048645e-01
-2.153058648109436035e-01
-2.629397809505462646e-01
4.456650316715240479e-01
8.470502495765686035e-01
1.027917742729187012e+00
3.074628114700317383e-01
-3.907027542591094971e-01
5.122005939483642578e-01
1.288950085639953613e+00
5.720173120498657227e-01
4.310665428638458252e-01
6.765730679035186768e-02
6.115353703498840332e-01
7.697252035140991211e-01
-2.994435131549835205e-01
1.012770056724548340e+00
-4.096076786518096924e-01
9.775642305612564087e-02
-5.023761391639709473e-01
5.798647180199623108e-02
-9.467856884002685547e-01
-5.440175533294677734e-01
1.314235031604766846e-01
-5.484423637390136719e-01
-7.770534753799438477e-01
-3.976397812366485596e-01
3.394799530506134033e-01
8.229112252593040466e-03
8.858901858329772949e-01
9.612892568111419678e-02
-5.212334394454956055e-01
-2.004482224583625793e-02
4.984469711780548096e-02
1.144996285438537598e-01
-2.567515075206756592e-01
2.122292518615722656e-01
-3.659067451953887939e-01
-1.222584545612335205e-01
1.895239949226379395e-01
3.482160717248916626e-02
2.310705184936523438e-01
-4.677037298679351807e-01
1.203155959956347942e-03
-1.924017965793609619e-01
4.345270395278930664e-01
2.609316408634185791e-01
1.101983860135078430e-01
7.939069867134094238e-01
-7.749775052070617676e-01
2.778506837785243988e-02
-6.331559736281633377e-03
-9.172860532999038696e-02
1.872800588607788086e-01
8.094913512468338013e-02
1.249747648835182190e-01
-6.383879482746124268e-02
2.400331497192382812e-01
-4.527014791965484619e-01
-2.038037478923797607e-01
-7.014737278223037720e-02
9.232729673385620117e-01
1.376973930746316910e-02
-4.461399316787719727e-01
1.000240564346313477e+00
-7.998046278953552246e-02
1.953989118337631226e-01
2.106052935123443604e-01
3.718480169773101807e-01
-7.999727725982666016e-01
2.364205420017242432e-01
4.303362369537353516e-01
1.095840692520141602e+00
-1.096808910369873047e-02
3.166318237781524658e-01
2.204782515764236450e-01
2.676814496517181396e-01
-2.202300727367401123e-02
-4.698408544063568115e-01
3.242099881172180176e-01
-1.052583307027816772e-01
-1.078988891094923019e-02
1.361599415540695190e-01
9.987952560186386108e-02
1.351097822189331055e-01
-6.032462716102600098e-01
-4.323824644088745117e-01
2.449155971407890320e-02
4.556022882461547852e-01
5.132021307945251465e-01
2.552606761455535889e-01
5.122676491737365723e-01
4.494567215442657471e-01
4.829189740121364594e-03
3.720309957861900330e-02
-1.381304115056991577e-01
1.926273703575134277e-01
-1.178865283727645874e-01
-4.491259157657623291e-01
1.859970092773437500e-01
5.999744683504104614e-02
4.140653312206268311e-01
-1.879425048828125000e-01
-1.568077206611633301e-01
-7.270784378051757812e-01
-1.017399072647094727e+00
1.858915090560913086e-01
7.557548880577087402e-01
5.555395483970642090e-01
-1.869769245386123657e-01
1.272196471691131592e-01
-1.670911014080047607e-01
-1.400565624237060547e+00
-3.656097352504730225e-01
2.791275382041931152e-01
7.882080972194671631e-02
7.904371619224548340e-01
8.210361599922180176e-01
-8.885104060173034668e-01
1.005010083317756653e-01
2.935630381107330322e-01
-2.818113267421722412e-01
2.020334303379058838e-01
-1.651074364781379700e-02
-2.029338032007217407e-01
1.425387114286422729e-01
-2.337622493505477905e-01
-1.083731129765510559e-01
-1.937503553926944733e-02
2.990955412387847900e-01
-4.126855358481407166e-02
3.393298685550689697e-01
1.113740280270576477e-01
-2.448134571313858032e-01
2.983170151710510254e-01
-2.963033020496368408e-01
2.801959514617919922e-01
-2.275732308626174927e-01
-1.650808751583099365e-02
4.418288767337799072e-01
8.820810168981552124e-02
-7.095583528280258179e-02
-1.712544560432434082e-01
9.134791791439056396e-02
9.610715508460998535e-02
-2.983221113681793213e-01
-1.224668547511100769e-01
-1.956393122673034668e-01
4.646094441413879395e-01
4.505077898502349854e-01
1.576295644044876099e-01
4.093919694423675537e-01
-6.772397458553314209e-02
-1.399017721414566040e-01
3.364865183830261230e-01
-4.516274333000183105e-01
1.659931987524032593e-01
-5.047220736742019653e-02
-5.276470184326171875e-01
1.729941964149475098e-01
-8.443737775087356567e-02
