3.858630952890962362e-04
-4.315729893278330564e-05
-8.737811585888266563e-04
-1.924593583680689335e-03
1.294645713642239571e-03
-7.831406779587268829e-03
-4.527041688561439514e-03
-3.656566608697175980e-03
-3.185343695804476738e-03
3.376084845513105392e-03
3.795016673393547535e-04
1.430900592822581530e-04
-2.918497193604707718e-04
8.802069351077079773e-04
1.119354180991649628e-02
-8.259734511375427246e-02
9.259679936803877354e-04
3.154611587524414062e-02
1.898624235764145851e-03
-9.263915708288550377e-04
4.232314880937337875e-03
2.553455065935850143e-03
-1.569051444530487061e-01
-2.832886297255754471e-03
4.525452479720115662e-02
-6.993059813976287842e-02
-2.526953443884849548e-02
2.996792551130056381e-03
-1.308106817305088043e-02
6.659450381994247437e-02
-2.343267668038606644e-03
5.573869124054908752e-02
-1.759578101336956024e-02
-1.020229011774063110e-01
-2.385994885116815567e-03
7.884318940341472626e-03
4.859391972422599792e-02
-4.446705803275108337e-03
5.880988389253616333e-02
4.620059579610824585e-02
2.316143130883574486e-03
2.708486746996641159e-03
6.179858744144439697e-02
-4.183023422956466675e-02
-3.629615157842636108e-02
-3.086607456207275391e-01
-1.260865777730941772e-01
1.888247281312942505e-01
-2.044119685888290405e-02
-2.216923534870147705e-01
8.669873699545860291e-03
5.334455147385597229e-02
-3.164169937372207642e-02
-6.005610153079032898e-02
1.021067798137664795e-01
4.841229319572448730e-01
3.225392699241638184e-01
2.351868450641632080e-01
1.445353925228118896e-01
1.523014809936285019e-02
1.989971497096121311e-04
2.817407948896288872e-05
-1.088023185729980469e-03
-2.206067321822047234e-03
1.459286781027913094e-03
-1.038222480565309525e-02
-4.790378268808126450e-03
-3.653573337942361832e-03
-3.126207971945405006e-03
3.252103924751281738e-03
3.222860104870051146e-04
-1.729211362544447184e-05
-1.009434199659153819e-04
7.342577446252107620e-04
1.063792221248149872e-02
-7.981768250465393066e-02
7.695753592997789383e-04
2.734267711639404297e-02
1.987719908356666565e-03
-7.443888462148606777e-04
-3.566711966414004564e-04
-5.519425030797719955e-04
-4.168049897998571396e-03
-1.018061186186969280e-03
4.442420322448015213e-04
-3.119056522846221924e-01
1.171591808088123798e-03
-2.612461335957050323e-02
5.058218166232109070e-02
-1.798726171255111694e-01
-2.023286651819944382e-04
-4.593753255903720856e-03
1.002359669655561447e-03
6.052000680938363075e-04
-8.328881813213229179e-04
-2.479494363069534302e-02
-1.173120439052581787e-01
-1.474792021326720715e-03
5.080068367533385754e-04
1.962867099791765213e-04
2.291487471666187048e-04
4.727703984826803207e-03
1.558500248938798904e-02
-6.397926248610019684e-03
-6.386831519193947315e-04
-5.485226865857839584e-03
-1.389010697603225708e-01
-1.017849296331405640e-01
5.125904455780982971e-02
1.533425897359848022e-01
1.280222926288843155e-02
7.436478883028030396e-02
-1.001886427402496338e-01
-1.212505921721458435e-01
-2.461752155795693398e-03
-3.710997104644775391e-02
1.402756869792938232e-01
-3.893288969993591309e-02
1.466653645038604736e-01
6.228288635611534119e-02
2.547661960124969482e-01
-1.595687270164489746e+00
5.381944775581359863e-01
-2.063293457031250000e-01
-1.247983500361442566e-01
7.064353227615356445e-01
-5.804322957992553711e-01
1.464784145355224609e+00
5.273510217666625977e-01
2.067015171051025391e-01
1.870650500059127808e-01
3.363313078880310059e-01
-1.612466424703598022e-01
1.820366829633712769e-01
-4.534873664379119873e-01
7.578859329223632812e-01
6.049206256866455078e-01
7.275006175041198730e-01
3.107161223888397217e-01
-1.073224306106567383e+00
-1.972357928752899170e-01
4.093893170356750488e-01
-1.017214208841323853e-01
1.897123694419860840e+00
2.717689037322998047e+00
-3.930056810379028320e+00
2.013743400573730469e+00
-1.051834672689437866e-01
2.867013931274414062e+00
-4.417724311351776123e-01
1.770405888557434082e+00
-8.067390918731689453e-01
6.324676275253295898e-01
-5.872954726219177246e-01
-2.298595905303955078e+00
-1.568901658058166504e+00
-1.546084761619567871e+00
-8.252554535865783691e-01
-4.804100394248962402e-01
8.234436810016632080e-02
1.131778955459594727e-01
5.642235279083251953e-01
-6.361113190650939941e-01
3.196996748447418213e-01
2.865122556686401367e-01
3.935734555125236511e-02
5.687997862696647644e-02
-3.688938617706298828e-01
-3.916796743869781494e-01
-1.658306866884231567e-01
1.321214139461517334e-01
4.547242224216461182e-01
5.278459563851356506e-02
7.137681841850280762e-01
9.173775911331176758e-01
4.824131354689598083e-02
1.752119213342666626e-01
4.586943984031677246e-01
-1.623280048370361328e-01
-1.736809611320495605e-01
3.699077367782592773e-01
1.890431046485900879e+00
-1.296841204166412354e-01
-1.300129890441894531e-01
5.802444815635681152e-01
-1.861756086349487305e+00
2.822920978069305420e-01
-1.865007281303405762e+00
-2.680974245071411133e+00
5.220094323158264160e-02
2.917587459087371826e-01
2.992513477802276611e-01
1.327976677566766739e-02
-1.815682053565979004e+00
1.498441815376281738e+00
-8.850228786468505859e-01
-1.514097094535827637e+00
-5.595893859863281250e-01
-6.026643514633178711e-01
-1.237654909491539001e-01
-1.597193069756031036e-02
-7.817230820655822754e-01
1.169027805328369141e+00
-4.274880290031433105e-01
-3.984558880329132080e-01
-5.614979267120361328e-01
1.303703486919403076e-01
1.334505558013916016e+00
7.925466299057006836e-01
-4.150358140468597412e-01
-1.503512710332870483e-01
1.331862658262252808e-01
7.878074795007705688e-02
-4.267612397670745850e-01
-8.095739483833312988e-01
1.983734518289566040e-01
-2.427512109279632568e-01
5.409782528877258301e-01
1.661163121461868286e-01
-4.775571823120117188e-02
3.668639063835144043e-01
1.023004174232482910e+00
1.532359123229980469e-01
9.709891676902770996e-02
1.149004399776458740e-01
-8.551509380340576172e-01
7.446345090866088867e-01
8.095179200172424316e-01
-4.284191429615020752e-01
-1.200533270835876465e+00
3.659382462501525879e-01
1.190679669380187988e-01
5.257078409194946289e-01
8.113676309585571289e-01
7.734467983245849609e-01
2.178410589694976807e-01
-1.430175423622131348e+00
1.220008850097656250e+00
-3.115288019180297852e-01
-6.638870388269424438e-02
2.555503845214843750e-01
-7.121208906173706055e-01
1.093642115592956543e+00
-8.583739399909973145e-01
-1.189487576484680176e+00
-2.565195560455322266e+00
5.036122798919677734e-01
-2.978520654141902924e-02
-1.164190769195556641e+00
-1.215742304921150208e-01
-1.239986047148704529e-01
9.138929843902587891e-01
-4.019097089767456055e-01
-1.305482268333435059e+00
1.164933919906616211e+00
-2.169147692620754242e-02
-7.194433808326721191e-01
2.502543330192565918e-01
4.581550657749176025e-01
-1.897979676723480225e-01
6.920697540044784546e-02
7.241467237472534180e-01
4.639497101306915283e-01
4.025694355368614197e-02
-4.457838535308837891e-01
-5.582301020622253418e-01
7.152249664068222046e-02
1.357270330190658569e-01
1.405081272125244141e+00
3.232028782367706299e-01
-8.919931650161743164e-01
-6.132835149765014648e-01
5.541077852249145508e-01
2.240053713321685791e-01
-2.799836993217468262e-01
-1.147982001304626465e+00
-1.188650131225585938e+00
3.822593390941619873e-02
-4.029342830181121826e-01
-1.723742187023162842e-01
-4.427548348903656006e-01
-2.711644172668457031e-01
-1.063289999961853027e+00
8.164791464805603027e-01
2.360351942479610443e-02
-4.941520094871520996e-01
1.549048721790313721e-01
-8.920335769653320312e-01
4.405550360679626465e-01
4.010214507579803467e-01
-1.900326274335384369e-02
-2.798534631729125977e-01
-2.180412784218788147e-02
4.886249005794525146e-01
4.479203224182128906e-01
-9.312242269515991211e-02
8.830994367599487305e-02
-2.093604803085327148e-01
2.212455123662948608e-01
-2.482217848300933838e-01
-1.142684463411569595e-02
-1.734946817159652710e-01
4.379234611988067627e-01
-3.364475071430206299e-01
-3.193333745002746582e-01
8.024801611900329590e-01
-1.345491647720336914e+00
-7.432644069194793701e-02
1.170308947563171387e+00
6.917842626571655273e-01
-5.975749492645263672e-01
1.119490981101989746e+00
-2.183266729116439819e-01
-2.719601988792419434e-01
-4.647016227245330811e-01
1.102762669324874878e-01
4.949211776256561279e-01
2.765955030918121338e-01
-3.996130824089050293e-02
2.115781605243682861e-01
2.960262633860111237e-02
-7.693917751312255859e-01
6.433038711547851562e-01
-7.365620136260986328e-01
-4.431525766849517822e-01
-8.898567408323287964e-02
-3.507038354873657227e-01
-7.916143536567687988e-02
3.147175312042236328e-01
-1.231140550225973129e-02
-1.793307214975357056e-01
5.682162046432495117e-01
-3.946601152420043945e-01
-1.435392737388610840e+00
-4.009825587272644043e-01
-3.341929018497467041e-01
-1.335291624069213867e+00
-2.007649280130863190e-02
1.681289374828338623e-01
-4.957683682441711426e-01
1.381120383739471436e-01
-1.635675787925720215e+00
5.632194280624389648e-01
-1.683589518070220947e-01
8.558834791183471680e-01
-3.193755149841308594e-01
-1.073582917451858521e-01
6.462074518203735352e-01
-5.602897405624389648e-01
4.855053126811981201e-01
-2.899627685546875000e-01
9.483779668807983398e-01
1.562319397926330566e-01
-9.482657909393310547e-01
1.529466211795806885e-01
1.541840076446533203e+00
7.275179773569107056e-02
1.002747893333435059e+00
1.378412485122680664e+00
-1.474045038223266602e+00
9.586460590362548828e-01
-7.561061978340148926e-01
4.745933711528778076e-01
-2.120821475982666016e+00
-6.547119021415710449e-01
-1.784626841545104980e+00
3.592360317707061768e-01
2.646165192127227783e-01
-9.413970112800598145e-01
-1.483170241117477417e-01
-1.250138998031616211e+00
1.867448210716247559e+00
-6.614929437637329102e-01
-3.721704706549644470e-02
1.748105645179748535e+00
2.139610201120376587e-01
-4.383228123188018799e-01
6.027969121932983398e-01
1.508957266807556152e+00
-3.359254300594329834e-01
-9.208970069885253906e-01
-5.780701041221618652e-01
1.301590323448181152e+00
1.012246131896972656e+00
-4.922784566879272461e-01
-1.758005380630493164e+00
2.107391953468322754e-01
-4.716899991035461426e-01
-1.959275245666503906e+00
-7.088568806648254395e-01
3.042177557945251465e-01
-3.341687023639678955e-01
-5.493934154510498047e-01
-1.113781332969665527e+00
-2.580347061157226562e-01
7.438551187515258789e-01
1.492031693458557129e+00
6.891981363296508789e-01
1.835420876741409302e-01
-2.561095170676708221e-02
-2.833694517612457275e-01
8.340131640434265137e-01
-1.673017621040344238e+00
1.837285876274108887e+00
1.210423946380615234e+00
-2.538944721221923828e+00
1.296138167381286621e+00
-1.416586995124816895e+00
3.171445608139038086e+00
7.369977235794067383e-02
-3.181849792599678040e-02
-2.869171798229217529e-01
1.383157372474670410e-01
-1.190691739320755005e-01
-1.167986989021301270e+00
-2.493521928787231445e+00
-1.034722566604614258e+00
-1.108865857124328613e+00
1.468525975942611694e-01
5.408992171287536621e-01
9.723381400108337402e-01
2.013293504714965820e+00
1.371608257293701172e+00
8.711603283882141113e-01
6.337053179740905762e-01
-1.255272984504699707e+00
4.609805941581726074e-01
1.961756944656372070e+00
3.843669891357421875e-01
-1.217745542526245117e+00
1.702535003423690796e-01
1.158759713172912598e+00
8.109799623489379883e-01
-8.109595775604248047e-01
2.984734773635864258e-01
-1.050080180168151855e+00
-1.385749816894531250e+00
1.356773495674133301e+00
-1.228947997093200684e+00
3.523544967174530029e-01
-4.432008042931556702e-02
-1.755442857742309570e+00
1.477839797735214233e-01
-7.225400805473327637e-01
-2.760579884052276611e-01
1.393637955188751221e-01
-9.664886444807052612e-02
-3.169687464833259583e-02
6.478664875030517578e-01
6.589014530181884766e-01
2.130878716707229614e-01
2.212844938039779663e-01
-2.742882072925567627e-01
-3.576682209968566895e-01
-7.132853865623474121e-01
-2.178509980440139771e-01
-1.800100058317184448e-01
-5.812311172485351562e-01
2.973960041999816895e-01
-3.057846128940582275e-01
4.002716839313507080e-01
-2.019734382629394531e+00
-4.204833135008811951e-02
1.451694846153259277e+00
1.055004075169563293e-01
-3.473415374755859375e+00
4.423378109931945801e-01
-1.286875009536743164e+00
8.440244197845458984e-01
6.982607245445251465e-01
2.730793356895446777e-01
-1.747807413339614868e-01
8.994222618639469147e-03
-3.339973390102386475e-01
4.491510391235351562e-01
-1.763623356819152832e+00
-3.148150920867919922e+00
-1.386793851852416992e-01
8.040143251419067383e-01
-1.692448019981384277e+00
-2.971720397472381592e-01
-1.285243391990661621e+00
1.011278629302978516e+00
-4.281814396381378174e-01
-2.729440331459045410e-01
-4.125800132751464844e-01
-3.667720034718513489e-02
1.045360207557678223e+00
6.803416013717651367e-01
-6.888356804847717285e-01
-1.314823329448699951e-01
-5.099559202790260315e-02
-2.622731328010559082e-01
-3.592198789119720459e-01
-6.181507110595703125e-01
1.474901437759399414e-01
4.627441242337226868e-02
3.308143317699432373e-01
-4.994225502014160156e-02
5.019160732626914978e-02
6.376359146088361740e-03
-1.112082600593566895e+00
2.884463965892791748e-01
-6.835950016975402832e-01
-1.039842605590820312e+00
-6.001029014587402344e-01
1.551241427659988403e-01
-1.035928651690483093e-01
7.132368683815002441e-01
2.123196870088577271e-01
-6.321405768394470215e-01
6.009688377380371094e-01
-9.644149541854858398e-01
-5.631415247917175293e-01
1.760160177946090698e-01
-7.135431747883558273e-03
1.829257607460021973e-01
2.151008546352386475e-01
7.547000646591186523e-01
1.404578983783721924e-01
