//Numpy array shape [384]
//Min -0.649692654610
//Max 1.468565344810
//Number of zeros 0

#ifndef BR2_H_
#define BR2_H_

#ifndef __SYNTHESIS__
gru_recurrent_bias_t br2[384];
#else
gru_recurrent_bias_t br2[384] = {-0.0360758826, 0.3930287659, 0.4808342159, 0.2653601766, 0.0320085250, 0.2074875534, 0.1762403697, 0.7768698335, 0.3862279952, 0.1719667315, 0.8063492775, -0.0666936487, 0.6184899211, 0.0525112934, 0.2966499627, 0.5946591496, 0.5922171474, 0.1151664704, 0.4536572695, 0.1146653593, 0.2064957619, -0.0475155599, 0.3480231464, 0.2549239695, 0.8638205528, 0.4156694710, 0.3623947799, 0.3777295649, 0.4914104342, 1.2531310320, 0.1882618517, -0.0228544418, 0.1487355232, 0.9672538042, 0.1338436306, 0.8032819033, 0.5435647368, 0.2088604718, 0.3863768578, 0.1826157570, 0.3513686657, 0.2301854789, 0.1068182290, 0.2552238703, 0.0537019558, 1.1943135262, 0.2352905124, 0.2537659407, 0.3315908015, 0.1209404022, 0.5611450672, 0.8838328123, 0.5411144495, 0.3214849532, 0.0786768422, 0.4341545403, 0.2114041895, 0.3268797398, 0.2377912998, 0.9805949330, 0.6429004669, 0.5667971969, 0.1535458863, 0.3411294520, 0.7790557146, 0.0016309191, 0.1850091815, 0.8685280681, 0.1446448267, 1.3798849583, -0.0936813354, 1.0460919142, 0.2594856918, 0.3603931069, 0.1967415512, 0.0221573040, 0.3914456964, 0.3760583997, 0.2769304514, -0.0511239097, 0.0590545125, 0.1819460839, 0.1594608426, 0.6665058732, 0.3805529773, 0.2761896849, 1.4685653448, 0.3869993985, 0.7912747264, 0.2942828238, 0.0892221704, 0.4640656412, 0.2415369004, 0.5803542137, 0.3650476635, 0.5392181873, 0.4563285112, 0.0221707523, 0.4500669837, 0.4851250350, 0.7675942183, 0.5726974010, 0.3993876874, 0.4500435591, 0.9787535071, 0.2761407495, 1.0828349590, -0.1734696031, 0.2229846716, 0.2031533569, 0.6637103558, 0.6712943912, -0.2636305690, 0.3396258354, 0.0180723537, 0.2689585984, 0.2933234572, 0.1582813114, 0.0447272658, 0.1521733850, 0.0978165641, 0.4696328342, -0.3453645706, 0.1376188844, 0.3463412225, 0.2546723485, 0.4310379028, 0.4141850173, -0.1876455843, -0.2206612378, -0.3379798234, -0.1300672740, -0.1980127990, -0.2079037428, 0.0164299291, -0.3810188770, 0.0167562570, -0.2737661898, -0.2644456923, -0.3001306057, -0.1641345173, -0.1832522005, -0.3821002841, -0.2150416821, -0.4702597260, -0.1034473404, -0.4380753636, -0.0666347146, -0.1475896537, -0.3543555439, -0.0718993917, -0.0717429221, -0.2227326930, -0.1670995802, -0.3262260854, -0.1069562882, -0.0167296454, 0.0840519667, 0.2039908767, -0.3275738060, -0.1187390313, -0.1493013054, -0.3687630892, -0.4375475645, -0.0941795185, -0.2988648415, -0.1978823990, -0.3138190210, -0.1264011264, -0.0854408517, -0.0409802496, -0.2235089689, -0.4451210201, -0.1433350146, -0.0513871163, -0.1239955127, -0.3434224725, -0.3967771530, -0.3907636106, -0.3558952808, -0.1316864491, -0.2197961807, -0.3302644789, -0.4142669737, -0.3769251406, -0.2915831506, -0.0949070007, -0.2976082861, -0.6496926546, -0.3965556622, -0.1351471543, 0.0040050345, -0.2991599739, -0.1212196276, -0.1528583020, -0.3565135896, -0.0811524242, -0.2210874856, -0.2070830762, -0.2029870600, -0.1197590008, -0.5160814524, -0.0824740157, -0.2748849392, -0.4467402697, -0.3048059046, -0.0296450723, -0.1570064723, -0.3594301641, -0.2303884774, -0.3199833930, -0.4054599404, -0.3488978148, -0.2135927081, -0.2160984874, -0.2507613003, -0.5976922512, -0.1385935098, -0.4804458320, -0.2398092598, -0.4082098007, -0.2280008495, -0.2722175419, -0.4479964972, -0.1012092233, -0.1887311935, -0.4583100677, -0.3314978778, -0.2878478765, -0.0922970101, -0.5207766294, -0.2312567532, -0.1542226076, -0.4763139784, -0.1406585574, -0.0851210654, -0.2713148892, -0.0737019256, -0.1755109131, -0.1968117952, 0.0429661721, -0.1678514034, -0.1391144097, 0.0102013601, -0.4201928675, -0.3517281115, -0.1635472924, -0.2835491598, -0.3642350137, -0.1009017974, -0.0268471166, -0.1942861676, -0.4761403203, -0.4385137856, -0.0072918632, -0.4128082693, -0.1080694273, -0.0023889996, 0.0014047340, 0.0485167839, -0.0368105657, 0.1822846979, 0.4859912992, -0.1164698675, -0.3590241969, 0.0188266356, 0.0145840794, -0.1851072907, -0.0154452669, -0.1211160049, -0.1459941417, -0.0494493991, -0.1293474585, 0.1129479855, 0.0085289981, -0.0500959158, -0.0922206491, -0.1873703748, 0.0734788328, 0.0085167233, -0.0121186627, 0.2022968531, 0.0769914016, -0.0460513420, -0.1658087820, 0.0019929155, -0.1510301232, 0.0375568159, 0.2043717206, -0.0732545778, 0.0286266245, 0.0930916145, -0.2079758495, -0.0379479975, -0.1000756696, -0.0271920599, -0.1520705074, 0.1490489990, 0.0521374978, -0.0711247325, -0.1058294252, 0.0611171648, -0.1917511374, 0.0477397293, 0.0046170689, -0.1494292170, 0.1242260486, -0.0150951883, 0.0128453001, -0.0989714041, 0.1256464720, -0.1967453659, 0.0289209485, -0.1583817154, -0.0271626152, -0.1810433418, -0.0809494630, -0.1279376745, -0.1195545569, -0.2611044049, -0.1564600617, 0.2124121934, 0.0261038523, 0.1856758147, 0.0620356463, -0.0497930236, -0.1118995920, 0.2237953842, -0.2275384218, 0.0988646820, 0.1844924837, -0.1514087617, -0.1388025135, -0.0243601538, 0.3320779204, -0.2023707330, -0.0208810586, -0.0275043026, 0.1858180463, 0.1713443249, 0.1103296652, -0.0048847250, 0.1021206155, 0.3272377253, -0.0430629589, 0.0463537872, -0.1806673110, -0.1393962950, 0.0123869926, -0.1986702532, -0.0125712007, -0.0983194113, 0.4343977273, -0.0012646387, -0.1258504987, 0.2680237293, 0.0732630715, -0.0683711916, 0.0273481775, 0.0796194524, -0.0543128625, -0.0903186724, 0.0525257923, 0.1460476816, 0.0037243811, 0.0738818944, -0.0794586837, -0.1173359230, -0.1182838082, 0.0040656682, -0.0231223814, 0.0069820555, 0.0872013643, -0.0709775835, -0.1555395275, 0.0913915038, -0.1042423099, -0.0097595360, 0.2881142497, 0.2413512617, -0.1299044043, 0.1416406929, 0.0463947617, -0.0295350831};

#endif

#endif
