//Numpy array shape [128, 384]
//Min -1.255034327507
//Max 1.353396773338
//Number of zeros 0

#ifndef WR2_H_
#define WR2_H_

#ifndef __SYNTHESIS__
gru_recurrent_weight_t wr2[49152];
#else
gru_recurrent_weight_t wr2[49152] = {-0.1194133237, -0.1025540829, -0.0448603518, 0.2681334317, 0.1937143058, 0.1070117354, -0.1372724324, -0.2051930130, 0.2346246839, -0.6255268455, 0.0911228880, 0.5325078964, -0.0478119999, 0.1643627584, -0.4850860536, 0.0915858299, -0.1023456156, 0.0286269896, -0.0915209353, -0.7035574913, -0.0587605126, 0.0901924297, 0.2924188972, -0.2476770878, -0.1625206321, 0.1844468564, -0.0212260149, 0.5160139799, -0.5085190535, 0.1809641123, 0.0079639340, -0.0049711964, 0.0986165553, 0.1645301729, -0.5626114607, 0.0901135057, 0.4079955518, 0.2130437791, -0.4453968406, -0.3336544633, 0.1287659109, -0.0775586814, -0.0093640164, 0.0564918146, 0.2163113952, 0.0669180676, 0.6509825587, 0.0986325517, 0.1821437031, -0.1441681683, 0.1080117524, 0.4678990543, 0.1715095043, 0.1718923002, 0.0022370040, -0.2929079533, -0.3753708601, 0.3988765776, 0.1321215928, -0.2262052298, 0.1462793648, -0.0118838688, -0.4330407679, -0.0619286336, -0.0033139568, 0.2188842148, 0.2470775396, -0.2877843380, 0.2320514917, -0.1988211423, -0.4451465309, -0.2796513438, -0.1487764716, -0.2670329511, -0.0461740680, -0.1939517856, 0.3198374808, -0.0839442313, -0.0683597028, 0.1216808781, -0.3391124606, 0.1496874988, -0.2050003111, -0.3584086001, 0.4470332563, -0.2759587467, 0.3410996199, -0.0790620446, 0.0077713793, 0.0998935774, 0.0235777516, -0.2212805003, 0.2930951416, -0.6122115850, 0.7000575662, 0.0347774774, -0.4640139043, 0.3342679143, -0.2107457072, 0.1265325844, -0.0142888110, -0.2285712957, -0.4170276821, -0.6475687623, -0.2405002564, 0.3603155315, 0.3163637817, -0.0810500830, 0.1549420506, 0.2213066965, 0.3387382925, 0.2406434566, 0.5532979965, 0.2814639211, 0.0336119495, 0.2417211533, 0.0398752987, 0.1879178584, 0.1016751453, 0.0537989065, 0.2237945199, -0.0079979580, -0.5869253874, -0.0833093822, 0.5091670752, 0.3255288005, -0.5044456124, -0.0842401534, -0.3808980882, 0.3331963122, 0.0589957684, 0.3657776117, 0.2548730969, 0.3382767737, 0.2393159717, 0.4432682097, -0.0194768216, 0.2901925445, -0.2009285837, 0.1507784724, 0.1166394353, 0.2186383754, -0.0383211188, -0.4147296548, 0.1957956702, 0.1737306416, -0.1655009985, -0.0624378808, 0.0457540005, 0.0163011476, -0.0411106087, -0.0590557456, 0.2798741758, -0.1978259236, -0.3153856099, 0.0326474346, 0.2847594321, 0.7956646681, -0.4208267033, -0.0169047564, 0.0280481465, -0.1385069191, 0.0362873226, 0.4016489685, 0.0429064967, 0.2081217319, -0.2821948826, -0.0993594825, -0.3624910414, 0.2698874772, 0.0767951682, -0.2855620682, -0.0642431602, -0.0949385017, -0.0988833085, -0.3569031656, 0.1355485469, -0.1007124037, -0.2184688002, 0.2975374162, 0.3419496715, -0.1889802665, -0.4047497213, 0.3314763010, 0.0748996884, -0.0444740504, -0.1291925013, -0.0753840283, 0.0523540713, 0.4251353443, -0.5055721402, 0.5754347444, 0.1077936888, 0.2494142801, 0.1823819876, -0.4606886506, 0.2560946941, -0.2407187968, -0.2328960150, -0.9070965052, -0.3924314976, -0.1331231892, 0.2530429661, 0.2615571320, -0.4024283290, -0.0109083382, -0.2954058945, -0.2432578206, -0.1113537028, 0.1142435372, 0.1525276303, 0.0768466517, 0.1821286678, 0.1141537651, 0.0856668875, 0.0648793057, -0.1348325610, 0.0021596367, -0.0802013204, 0.0218166411, 0.0492500104, 0.0816306248, -0.1384827346, 0.5142360330, 0.8330237865, 0.1848788559, -0.4985711575, 0.2962844670, 0.8315712214, 0.4542896450, -0.0860287547, -0.1570856273, -0.1055616885, -0.1930947900, 0.0348909125, -0.1462065578, -0.0444237813, 0.2084925324, -0.0011884746, -0.2011884898, -0.0867152736, 0.1801863015, -0.0708097592, -0.1132162660, -0.1792168468, -0.1386406720, -0.2020712495, -0.0222692564, 0.0284795593, 0.2966668308, -0.1690998673, -0.0296483133, -0.0235811267, -0.2981099188, 0.4137090445, 0.0273849629, 0.2308548689, -0.4364492297, -0.4011138678, 0.2928370535, -0.3762968779, -0.0046337033, 0.2275999933, 0.2100715488, -0.4216538370, 0.2939037085, 0.0889438614, -0.3053616285, 0.0392227769, 0.0335086361, -0.1863771975, 0.0438887700, -0.4024493396, -0.1945464611, -0.0066086291, -0.2780328691, 0.1641033441, -0.5714555979, 0.3915607035, 0.2998636067, 0.1286972016, 0.0157929324, -0.2948853970, -0.1911759675, 0.0354048535, 0.1282272488, -0.3546881676, 0.1037148535, 0.1949765235, 0.1070098802, -0.3677426577, -0.1270106137, -0.1129537523, -0.2083113939, -0.1469214112, -0.0755365267, -0.0938997120, 0.0668652132, -0.0745600834, -0.0236262586, -0.0029338354, -0.0110357767, -0.1472662687, 0.2522079349, -0.1607428640, -0.0897388309, 0.2127582282, 0.0557170659, 0.0519571602, -0.0806913450, 0.0224876013, -0.2348775864, 0.0906308666, 0.1680969149, -0.2769332230, 0.1772596538, -0.0655600205, -0.3443639576, -0.1297797114, -0.3189158142, -0.0422373563, -0.0053227856, 0.2177655548, -0.2080849558, -0.3036488891, 0.1208166406, -0.2973918617, 0.0175175145, -0.1693316251, 0.1812648773, 0.8525363207, -0.3194079101, 0.0464365780, 0.0684306398, -0.1309095472, 0.1424759477, 0.1341996342, 0.3897157013, 0.2405492514, -0.2657389641, 0.2322646379, -0.0985454470, 0.2176943719, 0.5931613445, 0.1945886016, -0.2946763039, 0.0594915636, 0.1408853084, 0.0476517044, -0.1677632481, -0.4206322134, 0.1401597112, 0.3610846698, 0.0557920672, -0.3791404366, 0.0626312047, -0.0551223569, 0.2098686397, -0.1240893230, 0.1671787500, 0.4071358442, -0.1990576237, 0.3436987400, -0.1591504067, -0.3732406795, 0.2790360451, -0.0462485850, -0.0191173144, -0.0202832371, -0.0741380081, 0.0319939479, -0.0951467454, 0.2602704763, 0.0397374928, -0.2484878004, -0.3514617682, -0.0045511024, 0.2488155961, 0.0498129465, -0.1273875833, 0.3502447605, -0.0597056113, 0.2549302578, -0.2216549069, -0.3594468534, -0.1346859336, -0.0386483856, -0.1814794391, 0.3111301661, 0.0271318499, 0.3341896534, 0.0067673353, -0.0206624959, -0.1571850032, -0.3593397737, 0.5916326642, -0.3029703200, 0.1494715661, 0.0299196243, -0.6449575424, 0.2481600344, 0.0678097382, -0.3598625660, -0.0826735497, -0.0307616927, 0.0096311551, -0.6014581323, 0.0212529860, 0.1118069440, 0.0881538168, 0.2916797698, -0.4429727495, -0.1171880960, -0.0744863525, -0.2504772246, 0.1419416666, -0.4791704714, -0.4807693064, 0.2132502049, -0.0547804870, 0.0718470588, -0.0994927064, 0.1287349612, 0.2588679492, 0.0842482671, -0.3450969458, 0.1531674713, -0.4367677569, -0.3734858334, -0.0901629701, 0.0328272544, 0.4876973033, -0.3171704113, -0.0590169504, 0.2793992460, -0.5129200816, -0.1611976027, 0.0922323018, -0.2222900689, 0.1873874068, 0.0526365452, -0.0983564928, -0.2027028799, -0.3150149882, -0.0134837246, 0.0359023027, 0.1401348114, -0.1428278983, 0.5107883215, 0.0691361651, -0.3536394536, 0.1278603375, -0.0122189177, 0.2127171755, 0.1262182444, 0.1604438573, -0.1600099206, 0.2851127684, -0.0509316511, -0.0119553199, -0.0776820257, -0.6775413156, 0.0857844204, -0.2250689864, 0.0201000199, -0.1982174665, 0.1328924000, 0.3359891772, -0.3994043767, -0.0871297717, -0.0187257100, -0.2602477968, 0.2444662452, 0.0534993336, -0.1163174808, 0.0087578697, -0.0527476333, -0.1149967536, 0.2872150540, -0.0481154881, -0.1132586375, -0.4206918478, -0.2171321511, -0.0618682168, 0.4332701862, 0.3227039576, -0.0735521987, 0.1189298034, 0.0099561559, 0.0909383893, -0.0308112986, 0.3837829232, -0.0353949331, 0.1682734638, -0.0931745321, -0.4745208621, -0.0685053766, 0.4365105331, 0.1239010245, -0.3949833512, -0.1952936798, 0.0598437041, 0.0694370940, 0.0688747019, -0.0837229863, 0.1455029398, -0.0536895767, 0.3968214691, -0.4013078809, -0.4574436545, -0.0693115890, -0.5932756662, -0.6166215539, 0.2381027192, 0.0457142740, -0.0758711994, 0.4096211493, 0.2827343047, 0.3204810023, 0.4299720526, 0.0353433117, -0.3775593340, -0.2037189007, -0.2337907851, -0.3715543747, -0.2057306617, 0.0829015970, -0.3747670352, 0.3736334145, 0.3649349809, 0.0359080099, -0.3405309916, -0.1866542548, 0.7002189159, -0.2006714940, 0.3868590295, -0.3616943359, -0.1872026026, -0.2191402018, 0.2522729933, -0.0915931836, -0.5955780149, 0.3621029854, 0.1177503020, -0.3046669960, -0.1954883337, 0.1505322009, 0.3206034899, -0.1372915506, 0.3932297230, 0.1258571297, 0.1309015602, 0.0622157231, 0.3344643116, 0.1835834235, -0.4521557093, -0.3095721900, 0.3812348545, -0.4854845703, -0.0704635158, -0.2072212994, 0.1722742319, -0.0804559737, 0.6119864583, 0.2468095422, 0.0914092064, -0.4241307974, 0.0769583881, -0.1105494574, -0.0828158855, -0.3694867194, 0.5151978135, 0.1137771755, 0.0209268294, 0.0782501027, 0.1239170656, 0.5424416661, -0.1437547952, -0.1019879058, 0.5473884344, -0.2139534503, -0.4900965691, 0.4518741965, -0.3777828813, 0.0074556735, 0.2643243670, -0.2113306373, 0.2915686369, -0.0743482038, 0.0451208837, 0.3594777584, 0.1616020501, -0.4202065468, 0.3041164577, -0.2840330601, -0.1387346536, -0.0751055554, -0.1771632582, -0.2752636075, -0.1612522453, 0.2253699601, -0.2451271862, 0.1489259005, -0.4216575623, 0.2404998988, -0.2349502444, -0.0027459082, 0.2036497593, -0.0790530667, -0.3169346452, -0.1638618112, 0.2575328350, 0.0415911190, 0.3814299405, -0.1577154994, -0.0590279922, -0.3873389959, -0.0547896326, -0.6331834197, 0.3129769564, -0.1137901545, 0.1899076998, 0.1581387967, 0.0789708570, 0.1901107728, -0.0184985250, -0.0996781215, -0.2084922045, -0.1013847589, -0.1532596499, -0.4523496926, -0.6206373572, 0.0989583805, 0.1792768091, -0.0953781381, 0.3836192489, 0.1072455794, -0.3905310631, 0.3765974939, 0.0553118922, -0.1114539430, -0.1847868115, 0.4876315594, -0.0064567407, 0.0160637889, 0.2061152607, 0.0590590201, 0.0045940471, -0.1764288098, 0.1734655499, 0.1707600951, 0.0230032820, 0.0528775901, 0.3134114742, -0.0059810835, 0.1002027169, -0.3892315626, -0.5037198067, 0.2752859890, 0.1427218020, 0.2537484169, 0.1323858202, -0.2297900021, 0.2440268397, 0.2975689173, -0.3129940927, -0.3495349884, 0.2115863115, -0.0276041105, 0.4181784987, -0.1371546835, -0.0599806160, -0.1489346921, 0.0479354411, -0.1672495008, 0.2163255215, 0.0435026959, 0.2509752810, -0.1872451901, 0.3815446496, 0.0560449548, 0.4316402674, -0.1919334531, -0.2243642956, -0.0844593644, -0.1257974952, 0.6025576591, -0.1078297198, -0.0652197897, -0.1340376288, -0.1195828766, 0.5336298347, 0.4897773862, 0.3169625998, -0.0605372153, -0.3554469645, -0.2826342285, 0.0034995514, 0.2387835532, 0.1059500724, 0.0905111581, 0.0965721831, 0.0206984505, 0.0943341628, 0.1130381301, 0.0226294119, -0.1177877560, -0.0519693233, -0.0746081099, -0.1743352562, -0.3424805403, -0.0262198076, 0.3147947192, -0.5422990322, 0.1766816974, -0.0015233448, 0.4546726644, -0.3508250117, 0.2875862122, -0.1651674062, 0.4677962363, 0.0572384484, -0.1438364238, -0.0561022013, -0.3476239443, 0.0171880350, -0.0204709787, 0.0691356212, -0.1447940171, -0.1500474364, -0.3585731089, -0.1212864295, 0.2567436695, 0.2679556906, 0.0668878034, -0.4351408184, -0.2501249015, -0.0815283135, 0.2771781087, 0.0262947325, -0.0840837806, -0.4874694943, 0.5224680901, 0.2994914055, -0.0442677140, -0.0919790640, -0.1040579975, -0.5978989005, 0.8945808411, -0.2865194678, 0.0074471366, 0.2742210329, -0.4606437385, 0.0452573076, 0.3277174532, 0.4835285544, -0.2598016560, 0.1484711319, 0.1331958324, -0.0792810693, 0.3911211789, 0.0387653671, 0.2545767426, -0.1141520962, 0.4142712951, 0.2507367432, -0.1786599010, 1.0043671131, 0.0914770663, 0.2592790425, -0.1890352666, -0.0371089056, -0.2156547755, -0.1748175770, 0.3118534684, 0.2732709050, 0.0056512062, 0.0365705937, 0.2532200515, -0.6294666529, 0.5096723437, 0.0492136292, 0.1928651035, -0.2227506042, -0.0930006355, 0.2762398124, -0.0084305434, -0.0904926136, -0.3204925358, -0.1299571544, 0.1638561934, -0.4784790277, -0.1631168574, -0.1656932831, 0.0021133109, -0.0514168814, 0.0073643038, -0.1286841184, -0.4229331017, 0.4409811199, 0.3968501687, 0.0830401257, -0.2282022089, 0.0971944854, -0.2401385158, -0.1166905910, 0.2814753056, -0.0286988188, 0.1455863416, 0.3924991190, 0.0689552575, 0.1637307554, -0.1624747962, 0.0752260610, 0.1391279846, -0.0897461101, -0.1712151021, 0.1590455920, -0.0179110840, -0.4390811324, 0.1303951740, 0.3461620510, -0.0924554840, -0.0286578983, 0.1707487553, 0.2115187198, -0.1026883945, 0.3383376598, 0.0786310211, -0.1739075035, -0.3264321089, -0.0780937821, 0.1185919568, 0.2093837261, -0.3346384764, 0.0954717621, -0.0158850215, -0.2594109178, 0.2048491389, 0.4297165573, 0.3525876403, -0.3271917701, 0.1948940903, -0.5436024666, 0.3858968019, -0.0291550905, -0.0662019029, -0.0476143546, 0.3903864920, -0.0916463286, -0.2852618098, 0.0027973091, 0.6152168512, 0.5385583043, -0.2244192213, 0.1355596334, -0.5434449911, 0.1787947267, -0.1661481112, 0.0009092754, -0.3282889426, -0.2829079628, 0.1701806635, -0.3551954031, 0.3503094912, -0.2293980569, 0.1308289319, -0.3640213907, 0.2718908191, 0.1861979067, 0.3014554679, -0.1767251343, 0.1555905491, 0.3901242912, -0.3497258723, -0.3009242117, 0.2186251432, -0.0875298083, 0.1550504118, -0.0949422196, -0.2234459370, 0.1482614130, -0.1296685040, 0.2177558392, -0.0873039663, 0.0795595497, -0.3063805997, -0.3327134252, 0.4645603895, -0.4260334671, 0.2969988585, -0.0026127142, 0.1062243730, -0.3744552732, -0.3020284474, 0.0238014609, -0.1038124338, -0.3559988141, -0.2324034870, 0.2376471311, 0.0922692642, 0.0800092965, 0.3142473698, 0.4405018985, -0.1997576505, 0.2451443076, -0.0075153331, 0.4584873617, -0.1169600785, 0.1617289484, 0.2920605838, 0.0699966103, -0.0623064749, -0.0843399093, -0.1778877825, 0.4293275476, -0.0092878453, 0.1655605733, 0.0679453462, -0.0909280181, 0.5999252796, -0.3340004981, 0.1203051805, 0.5598325729, -0.1474712044, -0.1372944266, 0.0656063780, 0.0526447445, 0.2379388660, -0.2565460801, 0.1618178934, 0.0504109971, 0.2686991394, 0.0131604429, -0.3871116936, 0.1325223893, -0.3726869524, -0.2072579116, 0.1389289051, 0.1181368455, 0.1874701083, 0.2045891732, -0.1213681102, 0.2017446905, -0.1173607856, -0.2814930975, 0.0080932761, -0.4131719172, 0.1599849015, 0.1215324178, 0.4953548014, 0.2574147284, -0.4068939388, 0.1748019010, 0.1281436682, 0.3552616537, -0.0397114530, -0.0551091731, 0.3193993866, -0.4807436764, 0.1655105501, 0.0601203032, 0.1468154937, -0.3774414957, 0.1644507945, -0.2259473950, 0.1268202662, 0.0010835500, 0.1505806297, -0.0839191377, 0.0036270705, 0.2039237171, -0.1186624840, 0.3601302505, -0.2332592160, -0.0166222937, 0.3820205033, -0.2926946878, -0.6307902336, -0.0015482773, 0.2458050400, -0.0315521806, -0.0195965711, -0.3717232645, 0.1696294844, -0.0881714076, -0.2736122906, -0.0543886721, 0.0400117412, -0.3724005520, 0.1613168120, 0.2475014329, 0.0525310300, 0.2374751568, -0.1500740200, 0.2427804619, -0.0099652950, 0.2634900212, 0.2823802233, 0.2570002675, 0.0101016527, -0.3660452068, 0.4234709740, 0.0241337214, 0.0141614256, -0.3335361481, 0.2670954466, 0.1274377704, 0.2765616477, -0.2807031572, -0.3373008370, 0.0473266467, -0.3907427490, -0.1514772922, -0.2187114358, 0.3323145807, 0.1876592189, -0.4832554460, 0.0941306427, -0.2123498023, 0.1461601406, 0.0907962620, 0.2874275744, -0.3210333884, 0.0282893088, -0.0843034014, -0.1271485835, 0.2640617490, -0.1466213316, -0.1625660360, 0.3483316004, -0.3971032202, 0.1726941168, -0.0646182448, 0.0432326160, -0.2607122958, 0.1042778939, 0.0485599004, -0.2543018460, -0.2183313817, 0.1448321790, -0.1449995339, -0.0019877753, -0.3254831433, 0.0224589929, -0.1298723370, -0.1254784167, 0.1087543070, 0.0413485393, 0.0998364612, -0.0915540606, 0.0281608012, -0.2072812021, 0.1019301713, 0.1414852440, 0.0448190235, -0.0004863610, -0.1724431664, -0.0409143493, -0.0351508558, 0.6658443809, -0.0278155208, -0.3017926812, -0.0695276856, 0.2181901485, -0.0318546183, 0.0000619858, 0.0157282725, 0.2817027569, -0.0624911487, -0.2263895571, -0.3567828834, -0.0203940347, -0.0769137517, 0.1074590012, 0.0868284479, 0.0607164204, 0.1730670333, 0.1617248654, 0.0072372141, -0.0954625085, -0.0082970215, 0.1802102178, 0.1558878124, 0.0019201231, 0.3850247264, -0.1021965370, -0.0806317627, 0.1744436175, 0.1104837805, 0.0968191549, -0.1322988421, 0.1029403359, 0.2351614982, 0.1960123777, -0.6860437393, -0.2345669419, -0.1985581964, 0.2417108119, -0.2167737633, 0.0539221168, -0.2142989933, -0.1352387667, 0.0736320987, 0.1078361422, 0.0762751848, 0.0245178696, -0.1515631676, 0.0021608958, -0.1620610654, 0.1717399657, 0.1956162453, -0.1990083158, -0.1270723492, 0.0691928044, -0.0332964510, -0.2277538925, 0.0419560708, -0.0083013140, -0.2809043527, -0.1492234468, 0.1085671112, -0.1651378870, 0.1673159003, 0.3241778314, -0.1803095937, 0.0652038604, -0.0439746119, -0.1147164479, -0.1872530878, -0.1680663675, -0.0764347464, 0.0102373138, -0.2092197239, -0.2797190249, 0.0054681348, 0.3937457502, -0.1945623159, 0.0687195435, 0.0654802099, -0.0134197520, -0.2171550989, -0.2758465707, -0.0481117219, -0.0273759328, -0.0171895735, 0.1501990408, 0.0229246076, 0.0287010968, 0.1172368005, 0.2943898141, 0.0810108781, 0.3563968539, 0.2204165906, -0.1349671185, 0.2041552663, -0.1135910824, -0.1384779662, -0.1219373420, 0.2598814666, -0.5506688952, 0.1833217591, -0.0099199871, -0.2138679922, 0.0090863397, -0.1805516779, 0.2391506732, -0.3947609663, 0.3150431216, 0.0222010221, -0.1489039510, -0.1415695697, -0.1703156680, 0.0810930207, 0.1215362176, -0.2264526188, -0.1815309078, -0.0833933577, 0.5003762841, -0.0260349419, 0.4153302014, -0.3627571464, -0.6156268120, 0.1822268367, 0.0408188999, -0.0167209096, 0.2105016112, -0.1237959489, 0.5118519068, -0.0139295040, 0.4067726731, -0.1183147207, -0.3528512716, -0.0953175724, 0.0830158368, 0.2491232902, -0.0994548872, -0.0776742026, -0.2440048307, 0.1419226229, -0.0440888144, -0.1320234537, 0.2907012701, -0.1573689282, 0.2807069719, 0.3331299722, 0.2946111560, -0.0067713726, 0.4172380865, -0.1389108151, 0.0905319899, -0.1942390800, -0.0160902012, 0.1875953525, 0.0209975634, 0.1693760902, -0.4765832424, 0.3090969920, -0.1481844634, 0.0616021045, 0.4371717274, -0.2651594281, 0.2047957778, -0.1010730118, -0.2867200971, 0.1247730330, 0.0706230551, -0.2647378147, -0.1913273782, -0.0554126352, 0.0345859118, 0.4177966714, 0.1078039855, 0.5653437376, 0.0300968792, -0.3511631489, -0.1608184576, 0.3207756579, 0.2534975708, -0.6910125017, -0.1895825863, -0.0168248676, 0.0274871588, 0.1909372956, 0.3234750926, 0.2633019984, -0.1216818988, -0.2391303629, -0.0651296973, -0.2855629623, 0.2926400602, 0.0363862477, -0.2240312845, 0.1755635589, 0.1718809754, -0.2928925753, -0.3188893795, -0.2089520991, -0.2113465518, 0.1527692974, 0.0559922978, 0.0603414066, -0.3379455805, -0.1886698008, -0.2712027729, -0.0761180893, -0.3215537369, 0.2723098397, 0.3589871526, -0.5080270767, -0.1639548391, -0.0282933507, -0.4087835550, -0.3121446073, 0.2437815517, 0.1282509863, -0.2767427564, -0.3703314662, 0.2945154905, -0.0109346705, 0.0523479320, 0.1239304692, -0.3566124141, 0.3500946462, -0.2571508288, 0.1680766791, 0.0067887520, 0.3793516159, -0.3487481773, 0.2096050680, -0.4087707400, 0.1665195078, 0.2522765696, -0.0559330508, 0.3975621164, -0.1480234265, -0.0280150957, 0.0367437452, -0.4169746637, 0.0131489737, 0.4048464298, 0.1176805645, -0.2719962299, -0.0735526532, 0.1784103513, -0.0830805451, -0.1980629712, -0.5593782067, 0.2523191571, 0.3552007973, 0.1127875522, 0.0122689027, 0.0486432612, -0.3135317564, 0.1050911620, -0.0900971442, 0.1758467257, -0.0254965741, -0.0899880528, -0.2958656549, -0.1093858704, 0.2249343693, -0.0146553237, -0.0436220989, 0.0052591562, -0.1905255467, -0.4066771269, 0.0523746870, -0.1305748522, -0.0892193764, 0.4715174437, -0.1409487426, 0.0771616176, 0.0222418066, -0.2659671307, 0.2400211990, -0.1819345355, -0.1453402042, -0.3250409067, 0.0972858742, 0.5469214916, -0.1563868076, -0.2940195203, -0.0827332214, 0.0878032297, 0.1755433232, -0.2413808852, -0.4086274207, 0.1782662719, -0.0329854637, -0.0761876255, 0.1439666748, 0.0054698782, 0.1227956638, 0.3258131444, -0.3011941612, -0.3290646970, 0.3241228461, 0.3704646230, 0.1854092479, 0.3413566351, 0.2554527223, 0.2889195383, 0.2126626521, -0.1149929985, -0.0163402427, 0.3949587345, 0.2327288091, 0.3230435848, 0.0397421569, -0.3319002092, 0.2496304214, 0.0110110585, 0.0037039260, -0.1029306427, 0.2988047302, 0.3085096776, -0.3450591266, -0.0045685349, -0.1198154688, -0.0560974218, 0.2625927925, -0.3762666881, 0.0584364012, -0.2109038532, 0.1289922148, 0.2237090021, -0.1806972772, -0.0309970882, 0.2401445806, -0.0120035857, -0.0832538232, -0.5277980566, 0.0634540543, 0.1211637184, -0.1194151714, 0.3141923845, 0.0630443320, -0.2162952125, -0.0261589736, -0.4333127141, -0.0798655525, 0.3933739066, 0.4946219027, -0.1596876532, -0.2158779651, 0.1252388954, -0.3972497582, 0.2878703475, -0.2620532215, 0.0673706755, -0.2269471586, -0.0545333326, -0.0244200416, 0.2339513302, 0.1295868903, 0.0051075257, 0.0929807127, 0.6753850579, -0.0660626218, 0.1408529580, 0.4180037677, 0.1358611882, -0.2368590981, 0.1070034876, -0.1099602655, 0.2900912762, 0.1239934489, -0.1571594924, 0.0682443902, 0.1973358840, 0.0291276742, 0.6672611237, -0.1751803756, -0.0816458762, 0.0643552020, -0.3106503785, 0.4761224389, -0.0285680816, 0.2853338122, -0.0671005100, -0.0937091112, -0.3046074212, 0.1537474990, 0.4997763336, -0.0607966408, 0.1765709519, 0.2867900133, 0.0039920099, 0.2643416822, 0.3104744852, -0.1732395142, -0.4779217243, -0.5256568789, 0.1121703312, 0.0821794420, 0.2398523539, -0.1288925707, -0.1186215505, 0.2379308790, -0.0375415906, 0.0769333467, 0.2586560547, -0.0610529706, -0.3256351054, 0.1750397086, -0.1761777997, -0.1561290026, 0.1736070663, 0.1005992815, -0.0890662223, -0.3432260454, 0.0942301080, -0.1140328720, -0.0590260848, -0.2805543542, 0.2393693030, 0.4874882400, 0.1093713194, -0.2686153650, -0.2629559338, -0.3194076121, -0.0328652151, 0.0356935784, -0.2099498510, 0.2183039039, -0.2358056605, -0.2429387569, 0.2369945198, 0.1746674925, 0.2752099335, 0.1277612001, 0.2952018976, 0.4057690501, 0.4853207767, 0.1698484719, -0.1323437393, 0.0846454725, -0.0145739829, -0.4802287817, 0.2385955900, -0.3564811051, -0.0017007550, -0.2289687693, -0.2293940634, -0.0863491967, -0.1899188310, 0.3112143576, 0.0656709000, -0.0271827523, -0.0247436408, 0.1565030217, -0.1438358724, -0.3562272489, -0.0098013179, 0.2719969749, 0.1528350711, 0.0492681935, 0.0995433927, 0.1650650799, -0.1827178746, 0.4329478145, 0.1418707669, -0.1637999415, -0.1242044047, -0.0517638810, 0.4149953723, 0.2781956792, 0.2330975085, 0.6149931550, 0.2272627503, -0.1695060879, -0.0690072998, 0.1009424031, 0.0061141034, -0.1309097260, 0.3864385486, 0.1735123545, -0.0259390529, 0.2674066126, 0.3438016176, -0.1965243518, 0.1275041848, 0.1112270728, -0.1902544498, 0.2645709813, 0.2062794268, 0.4039880931, 0.1404711604, -0.2694182098, 0.1243449524, -0.0383333229, 0.0378689915, -0.1495428234, 0.1885970682, -0.0789968520, -0.4747219980, 0.3183346391, 0.1843468994, -0.2792993784, 0.1882878244, 0.0350652374, 0.0135966474, -0.4173304737, 0.0044791014, 0.6114133000, 0.1849969774, 0.1215174645, 0.0940915123, -0.4019457698, 0.0776381791, 0.2023512125, 0.4554672837, 0.0650668293, 0.2077849656, 0.1080227122, -0.2236320972, 0.0724901259, -0.1734085530, 0.3760982156, -0.1605680883, -0.1658304781, -0.4596283138, -0.1398800164, 0.4744966924, 0.3419792950, -0.2141824961, -0.4231364131, 0.4297257364, 0.1708832234, -0.1711481214, 0.1633365303, -0.1604766399, 0.1897168308, -0.5073185563, 0.3230939507, 0.2914497554, 0.2614863217, -0.0634369403, -0.2725564539, 0.1990930438, 0.5172168612, 0.2551052868, 0.5500162244, -0.1982102245, -0.0739064962, -0.1188795492, -0.5320742130, -0.2039436698, 0.2012038380, -0.0818595886, -0.3851921558, -0.1768405139, 0.1836004406, -0.0806347132, -0.0357673056, 0.1956443191, 0.0029011220, 0.5058819652, 0.0193893202, 0.0606916510, 0.1472944021, 0.2066210359, -0.0848988369, -0.5122728944, -0.2429939210, 0.2159332931, -0.1262467504, -0.1709219962, 0.1488394141, -0.1474960446, -0.4686122835, 0.5595104098, -0.0214816667, 0.0960270390, -0.1910919100, -0.2442159206, 0.4780535400, 0.4225598574, 0.0189107768, -0.3774522245, -0.1919969469, 0.0790850222, 0.1701363176, -0.2214210778, 0.2864405513, 0.0080894288, -0.2823970914, -0.4339102209, 0.3734090924, -0.1326892376, 0.0762262493, -0.2238019705, 0.3304169178, -0.1544046253, 0.2906237245, 0.1336799562, 0.0853358880, 0.3807371855, -0.0445166416, -0.0249762982, -0.6344574690, -0.1729991436, -0.0351183079, 0.2852506340, -0.0964185596, 0.2359066457, 0.0325983725, 0.0533522926, -0.1478330046, 0.0165632553, -0.0213511363, -0.2824842334, -0.0870104730, 0.3051804900, -0.5834347010, 0.3338997364, -0.2341366857, -0.0690701976, -0.2970484197, -0.0009659277, -0.4611396790, -0.1314135045, -0.1482837200, 0.0491746552, -0.0490113422, -0.1592897773, 0.0156990923, 0.1058414131, -0.1077021435, 0.1714159250, -0.3078752756, 0.1051847115, 0.3825834394, -0.3337726891, -0.1411442757, -0.1093871444, 0.1501158327, -0.0982226133, -0.0654401556, -0.0542048849, 0.5099016428, -0.1218934581, 0.0278956983, -0.2738769352, 0.0703444704, 0.2502744794, 0.1479525119, -0.0913790911, 0.5191212296, 0.2927680612, 0.2855525911, 0.0938009396, 0.1315890104, -0.1228075251, 0.1776250154, -0.2417309284, 0.0522171147, 0.6303061247, 0.0516241938, -0.0074330335, -0.2068542838, -0.1995661855, 0.0863904953, -0.0066031329, -0.1802025437, -0.3595961332, -0.2063378096, -0.2252747267, -0.3154374063, 0.4681214392, 0.1853598803, -0.1096897498, 0.2689759433, -0.1819882691, -0.3873199522, 0.0350696556, -0.7695597410, -0.0628564805, -0.3359746933, -0.0965715349, -0.0078925760, 0.4494818747, -0.7341557145, 0.0513804443, 0.0245115645, -0.6158431172, 0.0768651962, -0.2390405536, 0.2285766006, -0.1794681549, -0.0923885852, -0.1712177545, 0.0623318553, 0.2569790184, 0.0399057791, -0.1393414140, 0.1489581317, 0.1865929961, 0.1903429478, -0.0550825372, 0.4124813080, -0.8268176913, 0.2570164800, -0.1260468215, -0.4417395890, -0.3059188128, -0.2619334757, -0.0965967178, -0.2398532480, 0.1909508556, 0.0964323953, -0.1889560521, 0.4114496410, -0.1756500900, 0.1302818656, 0.0213321764, -0.3153981566, 0.4141086042, 0.2067431211, 0.1482248604, 0.0247164331, 0.1329936981, 0.0890263915, 0.6736331582, 0.0582656823, -0.1803031266, -0.2076384574, 0.4286964834, 0.0127378898, 0.2670641840, 0.2199961990, 0.0563509166, -0.2712952793, 0.1371452510, -0.1354002357, -0.0437204726, 0.1160298437, -0.3457235694, -0.2696852982, -0.2535754740, -0.0176352058, -0.3446192145, -0.3229287565, 0.2043624371, 0.2304000556, 0.1646960527, 0.5561518669, -0.5298340321, -0.4850962460, 0.0421861969, 0.3366276026, 0.0759329125, 0.1343173683, 0.2650267780, -0.1107198372, 0.7373052835, -0.3039747179, -0.6091215014, -0.2761881649, 0.1273093224, -0.0750557780, 0.5556505322, 0.1286135614, -0.2564767897, -0.5755819082, -0.0331739709, 0.3054516017, 0.5629721880, 0.3244929910, 0.2521621883, 0.1496578008, -0.0309001040, 0.0600373223, 0.0460929871, -0.1260630339, 0.0713674799, 0.1084943339, -0.1022253335, -0.1705715209, 0.6554284096, -0.0427578948, 0.5842482448, 0.0707524493, -0.0682082623, 0.1150538400, 0.7055131197, 0.0550757870, 0.4743878245, 0.0899019018, 0.1199079528, 0.0335976891, 0.3097231984, -0.6984759569, 0.0380803756, -0.6116243005, 0.5500572324, -0.0375619903, -0.0928631872, 0.0781159103, 0.2010697573, -0.6531393528, 0.1048252583, -0.2419375479, 0.2985276580, -0.0510400273, -0.5600581169, -0.0598224513, -0.5507462025, -0.1592112333, 0.4264722764, 0.2878593206, -0.0065687243, -0.4455891550, -0.2808062136, 0.2218935937, -0.3886419833, -0.1675313264, -0.0936441869, 0.1825498492, 0.1215569898, -0.0109660747, 0.0260524862, -0.5554708838, -0.2013429552, 0.1611218303, -0.2745331228, -0.7286822796, 0.1644426286, 0.2566291690, 0.4066747129, -1.0393564701, -0.5775094628, -0.1858380288, -0.4335600138, 0.2943463624, -0.0706349835, 0.2478295863, 0.4409655035, 0.2837998569, -0.0213735346, 0.1785552204, 0.3144150972, 0.7280080914, -0.0515664071, -0.1476984769, -0.0860738829, -0.1414888948, 0.0524269566, 0.2823689580, -0.1142863780, -0.0511173271, -0.4977768064, -0.1209764108, 0.3323416412, -0.3984020650, 0.3681299090, -0.0672592372, -0.1598166078, 0.1542674750, 0.1427053809, -0.1296631843, 0.0227449760, 0.0448979028, 0.4512230456, 0.4930604994, 0.3072754741, 0.0576702319, -0.4826817513, -0.1842030138, -0.1022238508, -0.1370764822, 0.3739615083, -0.1077942923, 0.1153543517, -0.5148615837, -0.0146949803, -0.2805118859, -0.1750217229, -0.1983448416, -0.1872382313, -0.3265206814, 0.1125242040, -0.2630495429, 0.0875781998, 0.0116666183, 0.2586851716, 0.3064593077, 0.0354059301, 0.2433582097, -0.3493016958, -0.2983804941, 0.2865050733, -0.1793794781, -0.0091874180, 0.2670813799, 0.4958824515, -0.0727735087, -0.0538892373, 0.2057492733, 0.0405012853, -0.3396634459, -0.0090418663, -0.0906150416, -0.1489357948, -0.6490215063, -0.1405190527, -0.2023725063, 0.1168120727, -0.0274978466, -0.3036330044, -0.1324061900, -0.3091228306, 0.0519256406, -0.0642426163, 0.0940940976, -0.3120284081, -0.2913856804, -0.1681006104, 0.4850857258, -0.2616535127, 0.3412103355, 0.0028123562, -0.3447727859, 0.2651804984, -0.0438300408, 0.0116627682, -0.8047574759, 0.4227804840, -0.1406582147, -0.1030164883, -0.4408110380, -0.2009520531, -0.5415548086, 0.2345753163, 0.0304460041, 0.1136244759, 0.1735472232, 0.3013187051, -0.0483544841, -0.0354175828, -0.2211500555, 0.3506581783, -0.6241558194, -0.0090757776, -0.0986081436, 0.2616220117, 0.2789749205, -0.1001318097, -0.1616043150, 0.5121214390, 0.2247733623, 0.0316850170, 0.1528017223, 0.2391832173, -0.1421601623, 0.0947837010, 0.0415446609, 0.0902360082, 0.0069355974, 0.0518891215, 0.1859742850, -0.2592860460, -0.0226482321, 0.1275023073, -0.0275601167, 0.0209955480, -0.0223355200, -0.0740140080, 0.2184646726, 0.0837669820, -0.3193621635, -0.1928171664, -0.0540263020, -0.0891010612, 0.1059192196, 0.5556804538, -0.3480836451, -0.1503844410, -0.2463896871, 0.2696085274, 0.0546950959, 0.1205835044, 0.2597211301, -0.0271963049, 0.0838114619, 0.0646808594, 0.1986666471, 0.1873047650, -0.1931295991, -0.1312070340, -0.2628302574, -0.2227617651, 0.4450663626, 0.3030895591, -0.1951656938, -0.2129459679, -0.1489851624, -0.0385354012, -0.0901966244, -0.0678052679, 0.0857482255, 0.2892893851, 0.0295624919, 0.7938963175, -0.2148061097, -0.2723357081, 0.0802850053, -0.0652814358, -0.0759448484, 0.0532194376, -0.0457410179, 0.3395579159, -0.0081453715, 0.1889491826, -0.2322903574, -0.0912734419, 0.6313933134, -0.5340924859, 0.1480634958, -0.0523254648, -0.2459983379, -0.4591769278, -0.1016289294, 0.4491663575, 0.2364829332, 0.0003452878, 0.2280388772, -0.1092729196, -0.1836127937, -0.0459758565, -0.0818959028, 0.0952779949, -0.1309960932, -0.0503065102, 0.1728910208, 0.2623178661, 0.0485516302, -0.2543978989, -0.1304687262, -0.0254570078, -0.1121556163, 0.1559432894, 0.0767568424, -0.0360039175, 0.0422260389, -0.0992146134, -0.0694946051, 0.1291666329, 0.3244051337, 0.0839580372, 0.1326299459, 0.0051818499, 0.1254026592, -0.1604789495, -0.4311156273, 0.0048575555, -0.0790816620, -0.2076686174, -0.7858572006, -0.1646604836, 0.2266865373, 0.1133417338, -0.2620543242, -0.1431312412, -0.1727782339, -0.1801213324, -0.4468147755, 0.2804941833, 0.1522510499, 0.2710082531, 0.0870954245, 0.2002609223, 0.0197308231, 0.2591485679, 0.0235742778, -0.0541434027, -0.3142797053, -0.0802236274, 0.0765150711, 0.2683143616, -0.1761875898, 0.1004713699, 0.1193950325, -0.1040859669, 0.2021233290, -0.1462153196, -0.0391243920, 0.0691534653, -0.1943973005, -0.0592983924, 0.1393167526, 0.1062911898, -0.2303411514, -0.1129671633, 0.0516629629, 0.0641949475, -0.0668733865, 0.3193503320, -0.0267741028, 0.0256343577, 0.2443630099, -0.2813642919, -0.2276126593, -0.3338001966, 0.1160693392, -0.2443406880, -0.0831702575, 0.1170292646, -0.0726850852, 0.0383321680, 0.3486861289, 0.6880061626, 0.2972084880, -0.3402522802, 0.2733023465, 0.0600064285, 0.1249931976, -0.1428634226, 0.0426609404, -0.3583700657, 0.3825137019, 0.5950378180, 0.2130386829, 0.1666618437, -0.1439772993, 0.4296161532, 0.3400472701, -0.0533528067, -0.3164700270, 0.0075549362, -0.4214125276, 0.0593190454, -0.2881521285, 0.5054292083, 0.0334065557, -0.2480546683, -0.0282130148, -0.4343380034, 0.2875712216, 0.0390828960, -0.1703012884, -0.1140889749, -0.0060782311, -0.4337468147, 0.9934763312, -0.1617004424, -0.2895229757, -0.2751107216, -0.0727927089, -0.1016574800, 0.0630089864, 0.1068301201, 0.1826085597, -0.3299300671, -0.2297236770, 0.0370141901, 0.3037301302, -0.0305836182, 0.1121257395, -0.0363745056, -0.1827323586, -0.3602717817, -0.0687355697, 0.2380310148, -0.0136129167, 0.1354665607, -0.3192309737, 0.3984923363, 0.1557618380, 0.2778707147, 0.4159602225, -0.0739383474, -0.1630146503, -0.2988901436, 0.1035329103, -0.1894636899, -0.0762273818, -0.3369821906, 0.0473598205, -0.4977020323, -0.1326642931, 0.0150013315, -0.0662930459, 0.0877785534, 0.2325885743, 0.0577064194, -0.8729928732, -0.5577901006, 0.0833714306, 0.4444292486, -0.2191902101, -0.2112032473, -0.4160885811, 0.1022816747, -0.2298827618, -0.0553067587, 0.0392810255, 0.1619465500, 0.1704262346, 0.1373735517, 0.5326755643, 0.4900856018, 0.2909113765, 0.2811286151, -0.0348153748, -0.6842122674, -0.0929266214, 0.2596876025, -0.1694930792, 0.0957381949, -0.0066902917, 0.6322476864, 0.0108967666, 0.2259394079, 0.0027443215, 0.2739475071, -0.0447600931, -0.1650885940, 0.2426806241, 0.1173098907, -0.4142518938, 0.0232684668, 0.1309897006, -0.4846663773, 0.3265244365, 0.4133366942, 0.0373615064, 0.0613981374, 0.0030301462, 0.1942094117, -0.0894651487, 0.3760776222, -0.0717228353, -0.1585573405, 0.2204234600, 0.2618755400, 0.1536886990, 0.4066331983, -0.0928681418, 0.3415452540, 0.4769166708, 0.5862237215, -0.5091273785, -0.1326493919, -0.1312432438, 0.0328271091, -0.1143495068, 0.3514876366, -0.3299548924, 0.2232954204, -0.0094957724, 0.1740928590, -0.1006949320, 0.1337533444, -0.2760453522, -0.0731999353, -0.2959606051, -0.4402973950, -0.3148369789, -0.1414522231, 0.2184781879, 0.0428182334, -0.0494603552, -0.4805500507, 0.0228972081, 0.1787564307, 0.4558824003, 0.0184266660, -0.0743418634, 0.0409273654, 0.2099460959, -0.3350558281, 0.0692344382, 0.6118742228, -0.0711071417, 0.0960212126, 0.1900829226, 0.0359745622, 0.1409858763, -0.1460441947, 0.3560580909, 0.1376915425, -0.2281688005, -0.1894595325, 0.2919384539, -0.3408552110, 0.0282950718, 0.3502877653, 0.2889300883, 0.3518612087, 0.0807451978, -0.4112412930, -0.0988963619, -0.2775136232, -0.0924047455, -0.1758896410, 0.1357810497, -0.5619787574, 0.0415419340, -0.3640380800, -0.1836857200, 0.1802256554, -0.1333800405, -0.1341289580, 0.1987775564, -0.1930334419, -0.0884161666, -0.4071703553, -0.1000858769, -0.3836445808, 0.1549565643, 0.3192619085, -0.7225492597, -0.2236636579, -0.1600071788, 0.0425932780, -0.3317672312, -0.1352314651, -0.0061330143, 0.4651654959, 0.1058437005, -0.0020053892, -0.0345514230, -0.1044701114, -0.0588459969, -0.1882278472, -0.4223177731, 0.2556615472, 0.4602425694, 0.1334436238, 0.0673556924, -0.0392063372, -0.1626846939, -0.0224631093, -0.0872885436, 0.0583297275, -0.4748057127, -0.0970598981, -0.2892705500, 0.1986982673, 0.5084464550, 0.0201363545, 0.1074636355, -0.0710230172, -0.0649929047, -0.0938023999, 0.5869374275, -0.1970523894, -0.4112087488, -0.3457876146, -0.2693601549, 0.3063933551, -0.2383626103, 0.5384103060, 0.0631181896, 0.2237198651, -0.3773505092, -0.1103131846, 0.3121853173, 0.0535832122, 0.1930813044, -0.1682038307, -0.3028553426, 0.3384420276, 0.1708127558, 0.0798765048, -0.6468008757, 0.3994118869, -0.8301823139, 0.1976240426, -0.1178645343, -0.3908922374, -0.0656680465, 0.1854376346, 0.1312321126, -0.1702095866, 0.1945075691, -0.0685857460, -0.0126210181, 0.3817557096, 0.0933454931, 0.0815357864, 0.3603331149, 0.1181687117, 0.1600356251, 0.0484519079, -0.1729514450, -0.1339769512, -0.1945862770, 0.2340159267, 0.2010072321, -0.2562621534, 0.0500342622, -0.1426113546, -0.2586454451, -0.0927434191, -0.2179730088, -0.0370963626, -0.0141996518, 0.2007740438, 0.7004439831, 0.0098668430, 0.0722564310, -0.5383260250, -0.0162217151, 0.0056889565, 0.5418493152, 0.2580186129, -0.1245185286, 0.0122635756, -0.1848853528, 0.1839644611, -0.1149783134, 0.0831198692, 0.1362305284, 0.0771779269, -0.4070743322, -0.2282073200, -0.1107204035, -0.4923226535, -0.2693301141, 0.0656345785, -0.5141212940, -0.0017861328, -0.1289659142, 0.2806559205, 0.2147158384, -0.0444563515, -0.0479616523, -0.1534203589, -0.0984482989, -0.1513509303, 0.1294140369, -0.0696021393, 0.1854249984, 0.1941338181, -0.0665604845, -0.2638795674, -0.1046699062, -0.0514713638, 0.0868996531, 0.3107999861, -0.2548267841, -0.1410539746, 0.1415291578, 0.1417956203, 0.0163800307, -0.1577247977, -0.0092058545, -0.4113796651, 0.1407997757, 0.1312907189, 0.1655063480, 0.2139574289, -0.0931390598, 0.2107561231, -0.0518728383, 0.4533331394, 0.0778385624, -0.0014056017, -0.0285845213, -0.0905401558, -0.0868002623, -0.0255730674, 0.2498256415, 0.0140383495, -0.3338298798, 0.0209758691, 0.0970234945, 0.1789641380, -0.1147935465, 0.4101279378, -0.1284434199, -0.1370975077, -0.0303353835, 0.2178246081, 0.0949670523, 0.0995876342, 0.1775819212, -0.2442165613, -0.2216869742, 0.2895441651, 0.4431005716, -0.0204343386, -0.0556887835, -0.1567256302, 0.0180226676, 0.1304214597, -0.3184168339, 0.3737630546, -0.2384211570, -0.1137239113, 0.2280094773, -0.1323262006, 0.1307112724, -0.2308284491, 0.0923481062, 0.0323104188, -0.3021823168, -0.1868663281, -0.1360446513, -0.1240634769, 0.2519043684, -0.2462035418, -0.0653330907, -0.1788479090, -0.0976948068, -0.5074407458, 0.2797739208, -0.1064738855, -0.1497095823, 0.1445387751, -0.1979254484, 0.0340548865, 0.2161736339, -0.2540666163, -0.1474790126, 0.4293374419, 0.2841920555, -0.1511072814, -0.1183099821, 0.8474775553, 0.0379445218, 0.7266136408, -0.1910639405, 0.4226062894, 0.0522017106, -0.4661999047, -0.0014355931, -0.2177384794, 0.3225097358, 0.4039791822, 0.3238138855, 0.1393904537, -0.3237816095, 0.2919119596, 0.4101291895, 0.3654798567, 0.3477589190, 0.3923286796, -0.1237127855, 0.1058289111, 0.1753202081, -0.2240212411, -0.4411961138, -0.1086304039, -0.0896500051, 0.2136591524, -0.4675115645, 0.2786866724, -0.1833660603, -0.5786393881, 0.0604822636, 0.1944814473, -0.1120398864, 0.2198563218, -0.1338021904, 0.4758355021, 0.4203383327, 0.3527832925, -0.1024970636, -0.0116899824, -0.1436377466, 0.4877539277, -0.0021862059, 0.3407703936, -0.0608284026, -0.0366382636, 0.5940030813, -0.1528341621, 0.0478575006, 0.0339224823, 0.2663046420, -0.2893258929, 0.0199290421, -0.3414307535, -0.2114360929, -0.2485973686, 0.0438771099, 0.2013161331, 0.0968519449, 0.2828226686, 0.2528460026, 0.2404722571, 0.3546731770, -0.1105107889, -0.2855829000, -0.4997834563, 0.1500260979, 0.0733225048, -0.0757994875, 0.3050837219, 0.2001357079, 0.1309331656, -0.3034828603, 0.2729944885, -0.4676601887, 0.1339780241, 0.1794304699, -0.1416298151, -0.6070487499, -0.4811261892, 0.0286427382, -0.1156723648, 0.1899272949, -0.3009808660, 0.1380638629, 0.2051685899, -0.3803027570, -0.1419801116, 0.0824137703, 0.0139967222, 0.4384772480, -0.3881793916, 0.3662904799, -0.0575073250, 0.1083339602, -0.2736719847, -0.0341161415, -0.0675560459, 0.0631166622, -0.2305292189, -0.2405324131, 0.1625719965, -0.3181795776, -0.0683908537, 0.3010390699, 0.3144185543, -0.4040510654, 0.3508414328, 0.6240519881, 0.3474978507, 0.2551443279, -0.3661285639, -0.0126974201, -0.1053107306, 0.2477131337, 0.0320299640, 0.4205177724, -0.1709444374, -0.6318936348, 0.3286499083, -0.2338027656, 0.1133107692, -0.2140710056, 0.1393272430, -0.5178091526, 0.3857984543, -0.0159887318, 0.1783581823, -0.2642655671, 0.2254852355, -0.0711570159, -0.0546833649, 0.2107356191, -0.0714726523, -0.2408603132, -0.0196306389, -0.3245961070, -0.3075203300, 0.3109231889, -0.4276889861, -0.1527451426, 0.2052273303, -0.2185536772, -0.4057499468, -0.0741350204, -0.1413332522, 0.1414168924, -0.2689922154, 0.6428938508, 0.3248615265, 0.1897921115, 0.4818536341, 0.0770621374, -0.0749768764, 0.0757585019, 0.1023344100, 0.1267070025, 0.3127491772, 0.3286027908, -0.1398913562, 0.2672440708, 0.0709275529, 0.1617318392, 0.2538162470, 0.3312360346, 0.1663041413, 0.4201126099, 0.1082004160, -0.7391281128, -0.0333777107, -0.0514583401, 0.0432555042, 0.2513814270, 0.2434044927, -0.8447532058, -0.1380198300, -0.1455336064, -0.1532590985, 0.1127199605, -0.2338417768, 0.2047773302, -0.0522340946, -0.0958743766, -0.1265640259, 0.1075077578, 0.1236613765, 0.4189896584, -0.2892179191, -0.2039723396, -0.2763625681, 0.0680713803, -0.7429972887, -0.1750592440, -0.0504478067, -0.0265117139, -0.0619759820, -0.1677529663, 0.3111641109, 0.3569374979, 0.2813824713, 0.4513493776, -0.2644958794, 0.0721629560, -0.3562023342, 0.2082982212, -0.0813517794, 0.4572083354, 0.1739408970, 0.1962235123, 0.2126863152, 0.1531021893, -0.1114558876, 0.1028155386, -0.0453171209, -0.5486544967, -0.5277626514, 0.0986636207, -0.5443835855, -0.3047823012, 0.5119338632, -0.0221279450, -0.3837925196, 0.0968085304, -0.0867527127, -0.0076062824, 0.1268840283, -0.1607006192, 0.1345318109, 0.2536062002, -0.2192642242, 0.4584431350, 0.2517772019, -0.4767098725, 0.1272166669, -0.0618189387, -0.1192664057, 0.2781262398, 0.0018912279, -0.0317628160, 0.1644582599, 0.2498051673, 0.0482981540, 0.1121876761, -0.2447374165, -0.2044936270, -0.0077057839, 0.0510170199, -0.0216255076, -0.0529527366, 0.3585983217, -0.3049330115, 0.1080827266, -0.0398734100, -0.0172364917, -0.3951087296, -0.2089155316, -0.3257507980, 0.1977948248, -0.0379872583, 0.2427810878, 0.1661212891, -0.0338207372, 0.0447914004, -0.2493399531, 0.0034748509, 0.0581663474, -0.2332087755, 0.0414930955, 0.3504557014, 0.3477107882, 0.0566193424, -0.0535212085, -0.1577921212, -0.0659677982, -0.0718397200, 0.1298702061, -0.3550951183, -0.2359724492, -0.1474287808, -0.0469992980, 0.1523250490, 0.1306440681, -0.0190089829, -0.1336459816, 0.1450718492, -0.1346212178, -0.0434443802, 0.2717486024, 0.1437130421, -0.3795460463, -0.0228699408, 0.1075584218, 0.1785465926, 0.1181237847, 0.1524346620, -0.0407255776, -0.0372528322, 0.0405322351, -0.0477461331, 0.1122318134, 0.0828762129, 0.1782746315, -0.0414818972, -0.0030917125, -0.4440923035, 0.1645790040, 0.2921017110, 0.2221942097, -0.2727059126, -0.2775870264, 0.1542387605, 0.1602309942, 0.2141210735, 0.1211447269, 0.3277750015, -0.1261505187, 0.0462193452, 0.0790116563, 0.0244313125, -0.1417792737, 0.0150451837, -0.0617100485, -0.1769429594, 0.0330451280, -0.3932300210, -0.1857368797, 0.0938419774, 0.2089826018, -0.1477587372, -0.0663268268, -0.1694250405, 0.3263434172, -0.3318584859, -0.0288835093, 0.4310403168, 0.1464018673, 0.2025126666, 0.3457032442, -0.2141144723, -0.4029163122, -0.1216497049, 0.0489454046, 0.1882149279, 0.1250182688, -0.2376401126, -0.2517307997, -0.2249002755, 0.1871062815, -0.0959698781, 0.0059351311, 0.2289160639, -0.3729011416, 0.1386943758, 0.3890006244, 0.1829382479, -0.0283360463, 0.3839916587, -0.1932616234, 0.0085904440, -0.3471640646, -0.0606595576, -0.0466742814, -0.0309750307, -0.0931978673, 0.1855319887, 0.2032815516, 0.1226207167, 0.0756606162, 0.2142343819, -0.3012506664, 0.2071030587, 0.1225385964, 0.0163037665, 0.1169240773, -0.3385152519, -0.0460902639, -0.4104098082, 0.3410642743, -0.6098702550, 0.1232968494, 0.2483057231, 0.1277650595, 0.0649787784, -0.2886890173, -0.4197434485, 0.1225465015, 0.4705270529, 0.2861393988, 0.1556362212, 0.1101035997, 0.6319702268, -0.3796422780, -0.3104655445, 0.0466395654, -0.1343767792, -0.5591431260, 0.1610200554, 0.2548429370, -0.0509848408, -0.1586190015, -0.1157570630, 0.0397631265, 0.1580957472, -0.1551690549, -0.2187350243, -0.1559430659, -0.2131704986, 0.0303148851, 0.3988211453, 0.1753393412, 0.1688081920, -0.2253223509, -0.2026032060, 0.1049377546, -0.0600681230, -0.0783454999, 0.0199761204, 0.1516873389, 0.0478986427, -0.0925745741, -0.0655374900, -0.1795537472, -0.0139414808, -0.0542500354, -0.1142862812, -0.2599142492, -0.1918144822, 0.0902127549, 0.0078469431, 0.3121317327, -0.3772124946, -0.1431053877, -0.5822717547, -0.3194645941, -0.0082857497, -0.0359313227, 0.1970278919, -0.3221058547, 0.0589485765, -0.2321225852, 0.1872306466, 0.1463078111, -0.3830124140, 0.2909772694, -0.0311213061, 0.2982053757, -0.1807045192, 0.1870900095, 0.0462130904, 0.0196110401, -0.1376973987, -0.1391031742, -0.0002362236, -0.0577050708, 0.0916483551, 0.2521043718, 0.3138526678, 0.3458367586, -0.0191549566, 0.1759884208, -0.2321780920, -0.0806518123, -0.0134185115, -0.1994999498, 0.3642044663, -0.0567198917, 0.1811181307, 0.0884925127, -0.1634418070, -0.2157251984, 0.1069980860, -0.0469317324, -0.1354934871, 0.1512743831, 0.4676468670, -0.1799021512, -0.1569099724, 0.2672677338, -0.3148221076, 0.0063626748, 0.0763591677, 0.0706001818, -0.2004334033, 0.3006374836, -0.2055303454, -0.0889107659, 0.2617854476, 0.4009400010, -0.3144989014, 0.1314002424, 0.0079343840, 0.3530673385, 0.3526248038, 0.2961775362, -0.1075281873, 0.2690194845, -0.0906298608, 0.3464921415, -0.3125349283, 0.1351156235, -0.0386995301, 0.0397700295, -0.1063694507, -0.1384591758, 0.5306708813, 0.1443682760, -0.2555878460, -0.0625051111, -0.0617450066, -0.2017031014, -0.1343549341, 0.3234688640, -0.1746089906, 0.4199446440, -0.1462647468, -0.1619563848, 0.1294908971, -0.0760914534, 0.4991914034, -0.2468591779, 0.1345591247, -0.3068859279, -0.3070963025, 0.2897211313, -0.0940073356, -0.3555092812, -0.0163970180, 0.3820379674, -0.1221817881, -0.0385429561, 0.0303430408, 0.0328504108, 0.0667256042, -0.0252604857, -0.0477018170, -0.3521440029, -0.2523702681, 0.3011139929, -0.0975997150, -0.1497160047, 0.2135952711, 0.4261588454, 0.0276962928, -0.1749001145, 0.3586726487, -0.0175500996, -0.3419114351, -0.1997409314, -0.3873926699, -0.0869667232, 0.2001463473, -0.5733219385, 0.0779126883, -0.0724835247, -0.2272732258, -0.3307264447, -0.5781682134, 0.1562989950, 0.1573332250, 0.2628761232, -0.7067958117, -0.3496938944, -0.1825346500, 0.2527037263, -0.2194910944, -0.4735451639, -0.2399935275, -0.1633489430, -0.2917928994, -0.0370211154, 0.1898240000, -0.0211755335, 0.1196125522, 0.0353016816, 0.3126081228, 0.3062335253, 0.0124236047, 0.2253116071, -0.2065223455, -0.2284130901, 0.0527796745, 0.1238370687, 0.1128796414, 0.0791689381, -0.2511695325, 0.4178015888, 0.2532942891, 0.0751572475, -0.1680579633, -0.1326430142, 0.3793008626, -0.0637444258, 0.1872278601, 0.0709685087, -0.2749792039, -0.2925913930, -0.2446737140, -0.0620126612, 0.1732818633, 0.1404518932, -0.1931406558, 0.1619547904, -0.1510101110, 0.3553889394, -0.1083033383, -0.0449089371, 0.0803295895, -0.1604121327, -0.0383916721, -0.2396157235, 0.0910458565, -0.0178382918, 0.0457207337, 0.1728510857, 0.1497332603, 0.1434978843, -0.3620813489, -0.2404233664, 0.2448869944, -0.0570406653, 0.4575419724, -0.1298258603, 0.2621064186, 0.1184442565, 0.1496646702, -0.2235601842, -0.2591648698, 0.3293203413, 0.2187520564, -0.5363360643, 0.2958371639, 0.0789071321, -0.3920401037, 0.4581891596, -0.5220573545, 0.3306585848, 0.0841525272, 0.0334183127, 0.0267440155, -0.2159477025, -0.0767910182, -0.1553529352, -0.1301448047, 0.2045060694, -0.1575060338, -0.0916065723, 0.3622834086, -0.2812218666, 0.2247670889, 0.3597842455, -0.2795129716, -0.0319372192, -0.7297371626, 0.2342935205, 0.0959622562, 0.0964899510, -0.0460938103, -0.1662975848, 0.2694301307, -0.1139730290, 0.1217927933, 0.2892577648, -0.5554400682, -0.4382877648, 0.0380915888, 0.1510574222, 0.1540044695, -0.4407224655, 0.0211459678, 0.2070667446, -0.3295639455, 0.1523752660, 0.5021282434, 0.0459741987, 0.0209733415, 0.1711564213, -0.1231496483, -0.0413163528, 0.4159505069, 0.0046133348, 0.4934659302, 0.5017825365, 0.1542849094, -0.0026584317, -0.1251831055, 0.2573937178, 0.2130845338, -0.3515997231, -0.3797825575, 0.1399810016, 0.1963568777, -0.3577960134, 0.3268873096, -0.2182134241, 0.2286764234, -0.0848308280, 0.4808536172, 0.2255231887, 0.0307791177, 0.2374718785, -0.0005918479, 0.3628231883, -0.2967589498, 0.5647700429, -0.2016441822, 0.1762294173, -0.0990846679, -0.2081286311, -0.1072907671, -0.0440691076, 0.1969513148, 0.2628576756, -0.0893430561, 0.0222899020, 0.0473668873, 0.0277858637, 0.3053117394, 0.8230669498, -0.3224985003, -0.0129675828, -0.0286313910, 0.5074406266, 0.0770516023, -0.0136173004, 0.2774301767, -0.1854870319, 0.0603945665, -0.1402092874, -0.0264241528, 0.0855758265, 0.0331297405, -0.0372066498, 0.2436006814, 0.6070030928, 0.2754231989, -0.1973346770, -0.0365023948, 0.0879437849, -0.2450979799, -0.1036402211, -0.4354683757, -0.4283029735, -0.1509629935, -0.2241501957, 0.3232076764, 0.3963000774, -0.2038387805, -0.3026761711, 0.1414673626, -0.0912283882, -0.0513643473, -0.0160947703, 0.1836599112, -0.4971808195, 0.2052121013, 0.3650687933, -0.0862817764, -0.2108765543, -0.1709777713, 0.1277431548, -0.2293612659, 0.5516945720, -0.2074949741, -0.2742906809, 0.1225023717, -0.5684219003, -0.2000503540, 0.1915250719, -0.2168618441, -0.1371648461, 0.0686777979, 0.0119452067, -0.2589864433, -0.0121048549, 0.5018565059, -0.4558334947, 0.1738042086, -0.5583338141, -0.3629736602, -0.2579146922, -0.0510161854, 0.2217891812, 0.3069927394, 0.2042706311, -0.1800256521, -0.4757156372, -0.1992113143, 0.0459037721, 0.1946300417, -0.4476130903, 0.0122471405, -0.1370310336, 0.1264626831, 0.2656599581, 0.4586815834, 0.0033164537, -0.1861545742, 0.0113334311, -0.1175359413, -0.2711394429, 0.0110972580, 0.0744696558, -0.0183339622, -0.5994877815, -0.6076992154, -0.0143507812, 0.2235732377, -0.4703720808, 0.2537800074, -0.3105314672, -0.4923528731, -0.4944253266, -0.6264531612, 0.7209565043, -0.0093844384, -0.4272525907, -0.5054156184, -0.6239089966, -0.2129184306, -0.2629285455, -0.3146647811, 0.1238997802, -0.0287156459, 0.0931663513, 0.1757766306, 0.2393642217, 0.3012162447, 0.3601164520, 0.1396219283, -0.1797534972, -0.0997679010, 0.8828367591, -0.1221901104, 0.3483912647, -0.4325745702, 0.3385529816, 0.0361917391, 0.4699143469, -0.0870476291, -0.0739750490, -0.0685295016, 0.0386234894, 0.3873347044, 0.1593228728, 0.0033368727, 0.0168911833, 0.2198382914, 0.5153921843, -0.4165449739, 0.4599366486, -0.2422303706, -0.2194104046, -0.0399619974, -0.1625167727, 0.2033435553, 0.0525695607, -0.2543763816, 0.1078189984, 0.5595287681, 0.0038475846, 0.5036008358, 0.2395491898, 0.3841572404, 0.1627603024, 0.4778652489, -0.1682152450, 0.2359102517, 0.0312692858, 0.5112285614, -0.3397105932, 0.0506038554, 0.0663629100, -0.2394666970, -0.3928226829, -0.2742578387, 0.0303666070, 0.0887857005, 0.2051800042, 0.2150962353, 0.4629458785, 0.4361256659, -0.0341589376, -0.5030372143, 0.1179444864, 0.0739406496, 0.0914286524, 0.1222463921, -0.1004164070, -0.4820961952, 0.2987974584, 0.1309622973, 0.1175771207, 0.0626811311, -0.0713177621, 0.0639941692, -0.3880725503, 0.0467651598, 0.3953767419, -0.0611762069, 0.0878856182, 0.6299008727, 0.5190308094, 0.6220427155, -0.0810271725, 0.1124051139, 0.0126003595, -0.4072175026, 0.2496879846, -0.6220870018, -0.2409851402, -0.2073465586, 0.1255288422, -0.0316459052, -0.0653582588, 0.0280428994, 0.1030635908, 0.1208876893, -0.1301337779, -0.3211649358, -0.0839286968, -0.0210375972, 0.0086441077, -0.0128015792, 0.0415188931, -0.6502809525, 0.2783141732, 0.5384788513, 0.1434088051, 0.2988590300, -0.2899573445, 0.0620472357, -0.1134736538, 0.0210644454, 0.2023805380, 0.1351636201, 0.0683165863, 0.0682979748, 0.3475998640, 0.0562281460, -0.0235202499, 0.1170978099, -0.1519966722, 0.3299053609, 0.3742343783, -0.1972582936, -0.2814268172, -0.1764508039, -0.1078525707, -0.0656435713, -0.1093980744, 0.2241049558, 0.1848688275, 0.0672021434, -0.4317747653, 0.3210254908, 0.0817904621, -0.1632043272, 0.4011153579, -0.3509504497, 0.3198573589, -0.0465970561, 0.0682578310, -0.0948139131, -0.0555666313, -0.1453241557, 0.4150222540, -0.1983568221, 0.1063925773, -0.0313701555, 0.3833093047, -0.0415694565, -0.0068351976, 0.2484691292, 0.3703788519, 0.5132246614, 0.1844058931, 0.5059553385, 0.5922260880, -0.1064042524, -0.2933512628, 0.0344884358, -0.2738009691, 0.1237882823, -0.1134488881, -0.5055620670, -0.1601556838, -0.0834701210, 0.0856487677, 0.1329550147, -0.6584832668, 0.2217740566, -0.0554650277, 0.1750529855, 0.1532069594, -0.2776309252, -0.0658353865, -0.1999570727, -0.2259732932, -0.2294047922, 0.0669599921, -0.3131505549, -0.1337735653, 0.0358244851, 0.1603592932, 0.1213753149, 0.0196727626, 0.0855504200, 0.4330747128, 0.1465671211, -0.2917208076, 0.1341245770, -0.5682917833, 0.3362184763, 0.1223235652, -0.0565583669, -0.2511631548, 0.0873810351, 0.4032392502, 0.2832566202, -0.1539766043, 0.2253917307, 0.2769673467, -0.0454973541, 0.1794675142, 0.0595714338, 0.2945071459, 0.2032964975, 0.0348438025, 0.2227421552, 0.3486317098, -0.2398128062, -0.6807848811, -0.3678186238, 0.0371407568, -0.3677298427, -0.1012945697, -0.0143489931, 0.0706416816, 0.5450874567, -0.0541282110, -0.1026346162, -0.0155333253, 0.1787147075, -0.0967382044, 0.4604783356, 0.0696183294, 0.5427917838, -0.2565967739, 0.2894816995, -0.0488517508, -0.1073271111, -0.1451328397, 0.3048528731, -0.0823545232, 0.2788752317, -0.0591681488, 0.0837192237, -0.2059463561, -0.2341800183, -0.0333942287, -0.3954024911, -0.1723167300, 0.1703331321, 0.1181528792, -0.1363706291, -0.3965102136, 0.4464078844, 0.2970484793, 0.1054749489, -0.0248514619, -0.4985875487, -0.0122661116, -0.2402942479, -0.3082396686, -0.0455542952, 0.2048809081, -0.0778206140, 0.7539294958, 0.3772145212, 0.2761483192, -0.2000875920, 0.3223977089, 0.0694610402, 0.5289933681, 0.3671106398, 0.1750621945, 0.1710778922, 0.2256374210, 0.2845968902, -0.0272486284, -0.3491668701, 0.0693243369, 0.1795189679, 0.1364012659, -0.5598584414, 0.1356577724, 0.5826063752, 0.1992711425, -0.4067060351, 0.5083324313, -0.2310725898, -0.1769862771, 0.1939618438, 0.3135485649, 0.5019108057, -0.2436268479, 0.3228141665, -0.1997425556, -0.4788724184, 0.2820827067, 0.1425750256, 0.1247490570, 0.0546816029, -0.1015424281, 0.1040531844, 0.0950855166, -0.2136107236, 0.3995398581, -0.1578821987, -0.4290062189, 0.0988959298, -0.0082143256, -0.0714965388, -0.1602027863, -0.0697963387, 0.0727920532, 0.2228661329, 0.1029624790, 0.1667029113, 0.0886834860, 0.1223292500, -0.2237818390, 0.0403336734, 0.2225053459, 0.0914215297, 0.0402484685, 0.0801907331, -0.3273111880, -0.1926332265, 0.2387862951, -0.0932588652, 0.0097792232, -0.1229674071, 0.0970724598, 0.1091475412, -0.4218468666, -0.1597622633, 0.0755764470, 0.1989850849, -0.0783974454, 0.0262802150, -0.0347557738, -0.2634544373, 0.1240681931, -0.0311163329, -0.0413786955, 0.0684673488, 0.0160648804, 0.3679052293, -0.1373287588, -0.0067758327, -0.0011455013, -0.1048753783, 0.1616815925, -0.0980042070, 0.4268878996, 0.1181571931, -0.0677222386, -0.0735704824, -0.1301032305, -0.1456734836, 0.1136676297, 0.1742544323, 0.1039096564, -0.0216036011, 0.1004370376, -0.4259853661, -0.0461779013, -0.0270179659, 0.0828292221, 0.2453249246, 0.1562686712, 0.0370431319, 0.2787141502, 0.0004991074, -0.1229680777, 0.0026025625, -0.1594994068, 0.0146412915, -0.1986980438, 0.1938645691, -0.0319134034, -0.0023213220, -0.2893110812, -0.3502615988, -0.0446334109, -0.2678258717, 0.1858070493, 0.0397315845, 0.2253111154, -0.4866194427, 0.3057972789, 0.1218089759, 0.2585790753, -0.3951793611, -0.1665256768, -0.1310271174, 0.1579899043, -0.2386059612, 0.1512612849, -0.1209604889, -0.0431963913, 0.0594161116, 0.2322822064, 0.2714133859, 0.2474054098, 0.4388720989, -0.0070909401, 0.1416405439, 0.0534258969, -0.1697416306, -0.0283332132, -0.0843667015, -0.0095140859, -0.1979493648, 0.0003752213, 0.0827340931, 0.2077604979, -0.0774060339, -0.1408821195, -0.0121614318, -0.0939480513, 0.3697266877, 0.1595248580, 0.0400872789, 0.0954071656, -0.2712756395, -0.3500820100, 0.1342856884, 0.1639615148, -0.0851320624, -0.2758888006, 0.0053625288, 0.0956020057, 0.0670236349, 0.3131086528, -0.3136028349, -0.0316438228, 0.0460929610, -0.1546808332, 0.1132114083, -0.0990262926, 0.1987092495, 0.2226336747, 0.0166450087, -0.0576843694, -0.3613713086, -0.0302600935, -0.2124753743, -0.1682056934, -0.1344440728, -0.0506388098, 0.6171850562, 0.3907386959, -0.1151480824, -0.3465380967, 0.2113423198, 0.1916256547, 0.1579977721, 0.3274827302, 0.1258628666, 0.2565090060, -0.0329522267, 0.1662121862, -0.1457323432, 0.0151208136, 0.1252534539, 0.0640761778, 0.1714500487, 0.1989559233, 0.0523651913, -0.1085054651, 0.0174673367, 0.0778146759, 0.0149698583, 0.1064358503, 0.6209941506, -0.0817049146, -0.2123936564, 0.1504319608, 0.3648797870, 0.0662796944, 0.0224414486, 0.8124328852, -0.2854062915, 0.1667273790, 0.0961385593, -0.1201920807, -0.2318488657, 0.3078671396, 0.0943304449, 0.1922104061, -0.1995119005, -0.1043037623, -0.1118758246, -0.0763767511, -0.2501143813, -0.0423222408, 0.2618120313, 0.0803833082, 0.0285690073, -0.1905349642, -0.2969414890, -0.0846636221, -0.0061100214, 0.0841474906, 0.0200564954, 0.2089896798, -0.3843034208, -0.0034705277, 0.1127320156, 0.0460061803, 0.0097383652, 0.0123580322, -0.3235722780, -0.0963725150, 0.6077263951, -0.0845957622, -0.8050692081, -0.2262116969, 0.0048947125, 0.3502136767, -0.1470362842, -0.2504239678, -0.2215086371, -0.0516829081, -0.2018956393, 0.0603279732, 0.2902566195, -0.1308966279, 0.2315652519, -0.4955277145, -0.0529651828, 0.8481241465, 0.2814167738, 0.3656266034, -0.1158914044, -0.1442507654, 0.0138246305, 0.3270150423, 0.0066778776, -0.1914634556, 0.0789880827, 0.4207430184, -0.0368868001, 0.2005632520, -0.1874498576, 0.0463793501, 0.2229496241, -0.2405529618, 0.1516106725, -0.3162682354, -0.0318020508, -0.1105868220, -0.3048554063, -0.0249295421, 0.2593128085, 0.3534096181, -0.3208419383, -0.1324023157, 0.1811367571, 0.2410688996, -0.5985131860, -0.2175891101, -0.0278041027, 0.1810838282, 0.0191125162, -0.1734800786, 0.1541694552, -0.1563911736, -0.0759042278, -0.0929473713, 0.3201787472, 0.1848968416, -0.2128419876, -0.1075435430, -0.1451361477, 0.1574170589, -0.3488744497, -0.1971872449, -0.3790982962, -0.0975519493, -0.0037822516, 0.1529690474, -0.2060819864, 0.0193198323, -0.2141547352, 0.1464125812, 0.0666321963, 0.3992292285, 0.2048972100, -0.3391675055, -0.1568511277, -0.9285408854, 0.3208982646, 0.0925610811, 0.1449678093, 0.6526828408, 0.1667158306, -0.1508718580, 0.0484740473, -0.1291199028, -0.3186258674, -0.1469836086, -0.0590306222, 0.0285422131, 0.2687703669, 0.1424260139, 0.2453273237, -0.1580187380, 0.2424715310, 0.0561452135, -0.5529060960, -0.0645501167, 0.4074612856, -0.1326435357, -0.2482125163, 0.2508666217, 0.0289203282, -0.5448150039, 0.1096516103, 0.2356300652, -0.3832220137, 0.6170847416, 0.0256451499, 0.2803493440, -0.0244742502, -0.5558653474, -0.7251154780, -0.1827879101, 0.0902248845, 0.3447337747, -0.0554822609, 0.2250770479, 0.1684769243, 0.6592590213, -0.4497324526, -0.4465356469, -0.0681867003, 0.2066029608, 0.1525395066, 0.1305043697, 0.3410780430, 0.1239419430, 0.3979102373, 0.0186881218, 0.0219822433, -0.2152734548, -0.0910490900, -0.1338450611, -0.3502141535, -0.0614173822, 0.0892597809, -0.1040167585, -0.0223254804, -0.3775670528, -0.2577330172, 0.1981855482, 0.0409402177, 0.1222537905, 0.0383334868, -0.0901229233, 0.0274222232, -0.2969468534, -0.1826040149, -0.2847656608, -0.1141726226, -0.2008857280, 0.1286642700, -0.4662069082, -0.3288564682, 0.2129216939, -0.0307993963, 0.0224173088, -0.0220298767, 0.0389991254, 0.0502866767, 0.2384200394, -0.6681493521, -0.2205547541, -0.3858611286, 0.2099886686, -0.4247724116, -0.0909500569, 0.4020523429, -0.3169464469, 0.2956262827, -0.0496319942, 0.1128902584, 0.4872685969, 0.0476729870, -0.1487643272, 0.1494171023, -0.1697262079, -0.0060418653, 0.1749681681, -0.2931722999, -0.6003035903, -0.1536927074, 0.2809131444, 0.5141301155, -0.0179848447, 0.0710288212, 0.5064337850, -0.1478629708, 0.1006839648, -0.4248577058, 0.0128340162, 0.0735075027, -0.1480718404, 0.1268592924, -0.6700353026, -0.0534138083, -0.4545390308, 0.3417474926, -0.1416996568, -0.0694923997, -0.4329173863, 0.0596770421, -0.1373318583, -0.1033912301, -0.0857964382, -0.0766556039, 0.0861598551, 0.2696630359, -0.1662577838, 0.0500794984, -0.4841070771, 0.2777417302, 0.1861306131, 0.3586952388, -0.4179319739, 0.1710817069, -0.2799086273, -0.1128217280, 0.0181607194, -0.3467351496, 0.5145000815, -0.3614808619, 0.3167698085, -0.0067962953, 0.0523435287, -0.1202724129, -0.0937679633, -0.1556512564, 0.1880007088, -0.2842989862, -0.1703557819, 0.2222797871, 0.1114943624, -0.0873218551, -0.1147543117, 0.0187747907, 0.3052373827, 0.3422791362, -0.2109158039, -0.0555956624, -0.0961195752, -0.0161286835, -0.1101707891, 0.0473138578, -0.3451968133, -0.4685623050, -0.0529650971, 0.1428126842, 0.1827882826, -0.1518634409, -0.1043239981, -0.0968355760, -0.4586887062, 0.6465370059, 0.0520485044, -0.4002036750, 0.1477314234, 0.1063375995, 0.0528063178, 0.1680665314, 0.0089380657, -0.1303697377, 0.2228551358, -0.0111527471, 0.3741240799, -0.3654965460, 0.2488170862, 0.3573219478, 0.0706316233, 0.1777471155, 0.1147044003, 0.3191597462, 0.4869667888, 0.1685285568, 0.0948682576, -0.1152485907, -0.1527641267, 0.0285633355, -0.3023510575, 0.3525415957, -0.0140859410, -0.2556657493, -0.0732443258, 0.0557570793, 0.1424985081, -0.5685088634, -0.4317161441, 0.0130840382, -0.0420648009, 0.3516182303, -0.2977751195, -0.0111978753, -0.3406995237, -0.3509512842, -0.1531194448, 0.2924735844, 0.0768426806, -0.1892536581, 0.0853816941, -0.0730118901, 0.1165958866, 0.0522170961, 0.1636313349, -0.3134053648, -0.3134619594, -0.3595269620, 0.0558573119, 0.2053349167, -0.3097404838, 0.2488149554, -0.1009630263, -0.0013052527, 0.1284575760, -0.0284249261, 0.5178824663, -0.2245883644, -0.5232972503, 0.1354531348, 0.2824186385, -0.0612922013, -0.0313210301, -0.2285384983, -0.3226480484, -0.0758401603, -0.0292341672, -0.0082198838, 0.2840196788, -0.0890394449, -0.2446620315, 0.1730333567, -0.6967608333, -0.3984317780, -0.2487542182, -0.0021031669, 0.1146939844, -0.1600220054, 0.4247463942, -0.0970872417, 0.0964576527, -0.0041303574, -0.3279734850, 0.2415800840, 0.1578948796, 0.3337805271, -0.2258730978, 0.0080316896, 0.1146780625, 0.1051528901, -0.0520470180, 0.3736577034, 0.4380107224, -0.3588829041, 0.1667075306, -0.1627814323, 0.0257029720, -0.2138104290, -0.2681407630, 0.5131118298, -0.1120327562, -0.4912170172, -0.0985251069, -0.3666583598, -0.0628974736, -0.2276135981, 0.2804985940, 0.5428194404, -0.0955344290, 0.1829494089, 0.0777605325, 0.3046832383, 0.2034873813, -0.0710891411, -0.0782877952, -0.1338861436, 0.2350656837, -0.0321427807, -0.1403167397, -0.0697073713, 0.3110368848, 0.2387644202, 0.1446682513, 0.0043396163, 0.0049143522, -0.0355982818, 0.1441402882, -0.0529713556, 0.2840551436, 0.0780550465, 0.1090756953, -0.1683515161, 0.0626855418, -0.1934636533, -0.2453586161, 0.3514438272, 0.1403512359, 0.1696962416, 0.1659614146, -0.2034740299, -0.4111677706, 0.3681547046, -0.0096086701, 0.2854197025, 0.1142873615, -0.0605079681, -0.4619720280, -0.1040770486, 0.0164576396, 0.2999637127, 0.2968560457, -0.8371498585, 0.0792754814, 0.1496341825, -0.1028245464, -0.3721989393, -0.3356948495, 0.0493999720, 0.2740977705, 0.2065340579, -0.3967749178, 0.0190912373, 0.0105081117, 0.1898809373, 0.0253063217, 0.4791890979, 0.2515957952, 0.5930783153, -0.1566384137, 0.4908704758, 0.1261749864, -0.0916442573, 0.2670060694, -0.0725759566, -0.0784685165, 0.1754250079, -0.3504493535, 0.2538179159, -0.1088684201, -0.4722836614, 0.5573589802, 0.0403991975, -0.1806004345, -0.2897839546, -0.1497383416, -0.0834723711, -0.0779118463, 0.1942992806, -0.2838265002, -0.4519920349, 0.1824406832, -0.0467556231, -0.1464379877, -0.6435281038, -0.1505485922, 0.1656769514, -0.2835353017, -0.4935683012, -0.0252297502, 0.1403163075, 0.1958480030, 0.0754071176, -0.5392631292, -0.3733997643, -0.0204001293, 0.0620874576, 0.3339124620, 0.1494948864, 0.3603731990, 0.6080569029, 0.3583140373, -0.1734817624, -0.2026576847, -0.3304938376, -0.6410157084, 0.3116798699, 0.1041705236, -0.5006874204, 0.2264688760, 0.0247486420, 0.0396693125, 0.3235429823, -0.3521472812, -0.2511082292, -0.1276164055, -0.1340926290, -0.1495338976, 0.2246785015, -0.2658483088, 0.0904327929, 0.1017450318, -0.2838785648, 0.2354277372, -0.2311831862, -0.3779169917, 0.1798363775, -0.3941829503, 0.2714189887, -0.2538741529, 0.0590720773, -0.2886176705, 0.1776476055, 0.5220509171, 0.1661540419, 0.3461299241, -0.2196734697, 0.0296463910, -0.1000481173, 0.1128088310, 0.4538085461, -0.0003263800, 0.1984218806, -0.1875157207, 0.1836531311, 0.3250632882, -0.0753811523, 0.2751413584, 0.4664759338, -0.3434959054, -0.4476267397, -0.3415220678, -0.2176074982, -0.0246532764, -0.0767765120, 0.1191910282, 0.4589476883, 0.3982399702, -0.1225119606, -0.2135702819, 0.1546220779, -0.0221282896, -0.2298917323, -0.4090777338, 0.1989722401, 0.1073273048, -0.1231469959, 0.0732944757, -0.3186576366, 0.2571553290, -0.3448709249, 0.1187682226, -0.4436782300, -0.1124448329, 0.2932321727, 0.2224980444, 0.4554724991, -0.3544886112, 0.0155632729, 0.0193070807, 0.1297980249, 0.2025660574, 0.0815513209, 0.2417290509, -0.0142673003, 0.0114563266, -0.1769427508, 0.3689293563, 0.0616682805, -0.2556439638, 0.3643487394, -0.6741811037, -0.0586453080, -0.5621224642, -0.0965159833, 0.6500931978, -0.4282008708, -0.6132586002, 0.3403851986, 0.1470191628, -0.0042935908, 0.4782064855, 0.1971309781, 0.0706601962, -0.4189761579, -0.0206713025, -0.1368519366, -0.0910146609, -0.5003847480, -0.0429844745, -0.1936459839, -0.1977883130, -0.5268259048, -0.1150745749, -0.1517621875, 0.1892217845, -0.2157217562, -0.2036456615, 0.0370052196, 0.0110803945, 0.0002190601, -0.0682476535, -0.1136227250, 0.1510997713, -0.0268741269, -0.2923431993, -0.4218725860, 0.3805070519, 0.1457326561, 0.2455671430, 0.0305792838, 0.1764009297, 0.5703372955, -0.5274686217, 0.0435201637, 0.3276569247, -0.1544700414, 0.2672263682, -0.4076289833, 0.2419904023, -0.4081673920, 0.2223626822, 0.0270091016, -0.0422156006, 0.1161895171, 0.1340013146, -0.0574356727, 0.0146440994, -0.2600758672, -0.2506023943, -0.3350194097, 0.3147193491, -0.1224321127, -0.2362805903, 0.2284736186, 0.3547984362, -0.2076338530, -0.1981963366, 0.2842435837, 0.0150752421, -0.0759287775, -0.1389832050, -0.1990514398, -0.2879336774, -0.0879770443, 0.2062023431, -0.2257283181, -0.1879253536, -0.3567243814, -0.1003541350, -0.0519577414, -0.0899607912, 0.8135902286, -0.3940487802, -0.6514688730, -0.1856708527, 0.1356511861, 0.4020813406, -0.0218603909, 0.0164090432, -0.1564576328, 0.0817482099, 0.1119337827, -0.1478124559, 0.5862296224, -0.2614253163, -0.1495309919, 0.0590660684, 0.4023371041, 0.2316503525, 0.2865159810, 0.0803655982, 0.2865254581, -0.3303754032, 0.3495173454, 0.1328904331, -0.3254429698, 0.0734646991, 0.0874703303, -0.0276964083, 0.0416196436, 0.1129126176, -0.1712346077, 0.0702176988, 0.0046733343, -0.1478247792, 0.5261722803, 0.0004712846, 0.0177834723, -0.0059050615, 0.0185280908, 0.0888865814, 0.5636914372, -0.0346376337, -0.1770690978, 0.2034572065, -0.1960507035, -0.0626329631, -0.3116916120, 0.0945790857, -0.0840458125, -0.2660952806, 0.0211190395, -0.2678254843, 0.0481739789, -0.1551180482, 0.3431932330, 0.3386316299, -0.3215327263, 0.2966530025, -0.0890409276, -0.1462833583, -0.0112413000, -0.2505404949, 0.1740252078, -0.2071992904, 0.5720325708, 0.2185022235, 0.2647317052, -0.1182736754, -0.2320381999, -0.1184312776, 0.1167766079, 0.2288548201, -0.3206549883, -0.1133906022, 0.1280218959, 0.1367581040, -0.3741531372, -0.0604647435, 0.1790179312, -0.1590177864, 0.4399503171, -0.7676013112, 0.0895912945, -0.4914135933, -0.0902208313, -0.1929524839, -0.0317962989, -0.0622940138, 0.4390706718, 0.1307708621, 0.3656778336, -0.3753519356, 0.0727114603, -0.0197544228, 0.3727276623, 0.4040604830, -0.0278924666, -0.1445376724, -0.2801269293, -0.3692307472, 0.1486363411, 0.1871322840, 0.1694841534, 0.0416450314, -0.3732962608, -0.3347269893, -0.3152399361, 0.0076177940, 0.0667918101, -0.2299043536, 0.4141794145, 0.3401940763, -0.1307744533, -0.0926624611, 0.0643290952, -0.1926170141, -0.5132576823, -0.1826165766, -0.1329974681, -0.2048297375, 0.0960894749, -0.3940628767, 0.0037567751, -0.0128584765, 0.1850480735, 0.0543936677, -0.5082346797, 0.3128374219, 0.0470703840, 0.0446657166, -0.3063615561, 0.0399661623, -0.0420215242, -0.1060989723, 0.0721457675, -0.1545230597, 0.0959621519, 0.0382197089, 0.0157824550, 0.1686240733, 0.1736735702, 0.0466022119, 0.4164858758, -0.0726876259, 0.2516420782, 0.5529926419, -0.2263136953, -0.1238277480, -0.4947899282, 0.2258842587, -0.1636100709, 0.1595757157, 0.0049918629, 0.0826852247, -0.2777085900, 0.1920181364, -0.1166954339, -0.1382492483, -0.0940416455, -0.0086421277, 0.1778465658, 0.0546654053, 0.0774310678, -0.1761323959, 0.0028980719, -0.3990603089, -0.0824284852, -0.1444112062, 0.1512948275, 0.1753830165, -0.3008561134, -0.1173511073, 0.2781338692, 0.3908261955, -0.1388772130, -0.0268845726, 0.1716171503, -0.0226849746, -0.2757970989, -0.0606664382, 0.2503332496, 0.1998424977, -0.0812008604, -0.5177559257, 0.0547083467, 0.0332005769, 0.0064005153, -0.0935730711, -0.2674256563, 0.0508300737, 0.1694530100, 0.1293465495, -0.0036956698, -0.2081595063, 0.1408610940, -0.5080304146, 0.2876720428, -0.3153869212, 0.0561113246, -0.1276923865, -0.3905524313, -0.1337760389, -0.0293242019, 0.0235154908, -0.1290992051, -0.4196575582, 0.1917270720, 0.4260224104, -0.1622169316, -0.1741286665, -0.2025242746, -0.2467530668, 0.0665223300, 0.2842389345, 0.1381439418, -0.2936154306, -0.1910464615, -0.2513239086, 0.3569782078, -0.0428291112, 0.2733680010, -0.2244708687, -0.4199113548, -0.0635460243, 0.2646950185, -0.1108089387, -0.3666620255, -0.0867781341, -0.1409149468, -0.1033838317, 0.4650399387, 0.2337692231, 0.4487305582, -0.0866788179, 0.4729909897, 0.2769505084, -0.3472516537, 0.2183300704, -0.2651658058, -0.1747775674, 0.0669249669, 0.0373949930, -0.0104919588, 0.3000459075, -0.2061796039, 0.1383836567, 0.2686067224, 0.1115211472, -0.4273313880, -0.3814837039, 0.1975442469, -0.0512740202, 0.0772234276, -0.3740957677, -0.3208117783, -0.0239406303, -0.5723480582, 0.1601012647, -0.3720016181, -0.2818794250, 0.3915617168, -0.1375446171, -0.0110447602, 0.2435912192, -0.1967619359, -0.6185073256, -0.0765723214, 0.3406184018, -0.3501853049, 0.1715921611, 0.5589010119, 0.0648610964, -0.0053693661, 0.0081071146, -0.1746259332, 0.2752672732, -0.2631170452, -0.0087972237, 0.1418554038, 0.3876859248, 0.0326089226, -0.1669661403, -0.3059799969, 0.6217483878, 0.1855903119, 0.3842922747, -0.2801432014, -0.2951626480, 0.0170556325, -0.2605013251, 0.3209156394, -0.3629200459, 0.3502300978, 0.1507902741, -0.0177631229, -0.0202321000, -0.0562872924, -0.4346795380, -0.3793729246, -0.1461843103, -0.5184829235, -0.3090168834, 0.2202264220, 0.2429676652, -0.2078882903, -0.1697625667, 0.0866900161, 0.0919787586, -0.2802783549, 0.0442428030, -0.2734504342, 0.1951778829, -0.1920831501, -0.1001980156, -0.1945769042, 0.2400012314, -0.3664416671, 0.0894318074, 0.0602372587, -0.0343934037, -0.0826992393, 0.0301699452, -0.1781573296, -0.1322613508, 0.1247889921, -0.1396125853, -0.6884735227, 0.1694559604, -0.4751272202, 0.2570200861, 0.0328798331, 0.0861571580, -0.3138379455, 0.1776771545, 0.1710856259, 0.1350085735, -0.0885719359, 0.0286670793, -0.0594082028, -0.2392338663, -0.2748819292, 0.2699211538, -0.1225522757, 0.3381969631, 0.0751154497, -0.2457633168, -0.0369194411, -0.2633967698, 0.4549594522, 0.2673460841, 0.0491751581, 0.2317035198, 0.1031150073, 0.0715998113, 0.1021687537, 0.1343645006, -0.0777710825, -0.3305266798, -0.0385577306, 0.0978272036, -0.1262911260, -0.0572171770, -0.4610797763, 0.4604746699, 0.0373525806, -0.0611301139, -0.3964564502, -0.1883845925, -0.0665044338, -0.0051507475, 0.0187205113, 0.1929550916, 0.0645869449, 0.3595467806, -0.1668268740, 0.0701093897, -0.4090798497, 0.1378528625, 0.1158093587, 0.1492175609, -0.2721163630, -0.2152303457, -0.3615469337, -0.1152941883, 0.1011939645, 0.1417748630, -0.2696873844, 0.3306658864, -0.0397115909, 0.5238845348, 0.2460294366, -0.1973627508, 0.0799455494, -0.3530737758, -0.1238247678, -0.1983720511, 0.4565756023, -0.0222715735, -0.1672572196, -0.1108578071, -0.2182243764, 0.2545726299, 0.4914053380, -0.0280258115, 0.0595838130, 0.6977597475, -0.1309369504, -0.4378544390, -0.3075346649, 0.0315609649, -0.2943883538, 0.4016709030, -0.0362873226, 0.5579358339, -0.4520443678, 0.0982850417, -0.1791409850, -0.1129714847, 0.2833375931, 0.1966193318, -0.5618039370, -0.0636348575, 0.4205182791, 0.0683567747, -0.1568274498, 0.1190776005, -0.6970583200, -0.0667659193, -0.0753462166, -0.0611527301, -0.1011992395, 0.5768077374, 0.0164420120, -0.2323175818, 0.1319459677, 0.5509750843, 0.3854670227, -0.4224644899, -0.1169416532, 0.0250628628, -0.5813059211, -0.1943904907, 0.2969415784, -0.3546150327, 0.0449066721, -0.2721966207, -0.0546803102, -0.5095043182, -0.0767027512, -0.4890831113, 0.3238796294, -0.2829805911, 0.3529795706, -0.0406961441, 0.1316061616, 0.1424172819, -0.0209367592, -0.2856729627, 0.0529632457, -0.0532583296, -0.3086040020, -0.4598964155, -0.1437528729, 0.7418739200, -0.1290028095, 0.1970692128, 0.2476796955, 0.5662213564, 0.1214982718, -0.0284721442, 0.0038554543, -0.2091684341, -0.3086142242, -0.1508294642, 0.5262634158, -0.1164633110, -0.0895478353, -0.1816638708, 0.2355265617, 0.1142356396, 0.1104336232, 0.1334105134, -0.3083950579, -0.1791413277, -0.2702485621, -0.4759372175, 0.1446965933, -0.1637889743, 0.5048349500, -0.0974599421, 0.1153296605, -0.0511265919, -0.0001293715, -0.5382394195, 0.3688549101, 0.5555649996, 0.5695216060, -0.1187214702, -0.0145431003, 0.1677206159, 0.2302038372, -0.1749258637, 0.5041065216, 0.2290430069, 0.4224840403, -0.1702291220, 0.0158923790, -0.2319791466, 0.3558971584, 0.4423315823, -0.1069813371, -0.2535577416, 0.4079037011, 0.0816225708, -0.4224435091, 0.0452914052, 0.1180678979, -0.1282602847, 0.2395611256, -0.1743108034, -0.2655393779, 0.1600567698, 0.1335441619, 0.0002944710, -0.1390771568, -0.1142161116, 0.4060268700, -0.1274190545, 0.5009034276, -0.6008827090, -0.1248448715, 0.0544791445, -0.2601302266, 0.0911248475, 0.2949072421, -0.0985952318, -0.0866967887, 0.0724066421, 0.0599948652, 0.1429606825, -0.3337341547, -0.2967894673, 0.1926650852, -0.1045559272, 0.4914283752, 0.4466923177, -0.1537528336, 0.0357139707, -0.1397401839, -0.1795599163, -0.2606128752, 0.2818413079, 0.1104641706, -0.0607156157, 0.1786694080, -0.2891870141, 0.1610599160, 0.1854036301, -0.3110546470, 0.4137283266, -0.2040906250, -0.3902411163, 0.0046937857, -0.0932473540, 0.1274287552, 0.3551334143, -0.0247204937, 0.3235562146, 0.1009337679, -0.1248528063, 0.2448470742, 0.2567524612, 0.3028702140, 0.2279389352, 0.2301318496, 0.0958147720, 0.0415567048, 0.1339290887, -0.3778584898, -0.3799380362, 0.0950954407, -0.1402139664, -0.1988512874, 0.2662404776, 0.1044347361, 0.0140431458, -0.0448794514, -0.8812190890, 0.6551508307, -0.1612407267, -0.0684357211, 0.3586671948, 0.0320607200, 0.1204304397, 0.0176598839, 0.5032280087, -0.0097175092, -0.0679325238, -0.0018918263, 0.0520218052, -0.1900181770, -0.1308027208, -0.0982006565, 0.1756395549, 0.4393162131, 0.0217017028, -0.0369802900, 0.2874027789, -0.4294891655, 0.0258083772, 0.3148579597, 0.1642935127, 0.5826907754, 0.1178392842, 0.2305193245, 0.0811583102, 0.5569798350, 0.2484020442, -0.4553534687, -0.0833487287, -0.1088634655, -0.1351193786, -0.0320542827, -0.2009057254, 0.1321313977, -0.1508259773, -0.2590633631, -0.3543501198, -0.1325472444, 0.0927737653, -0.7673906088, 0.0054308102, -0.0147073204, 0.2118565589, -0.4533853531, -0.2368700951, -0.0121315559, -0.1271750480, -0.0116695398, -0.5400331020, -0.0501292683, 0.4953574836, -0.0325317010, -0.4518154263, -0.0576512218, -0.0032697713, -0.3114234507, -0.0332475752, 0.0677407235, 0.0570457578, -0.0191246942, 0.0904720202, -0.3298941851, 0.2266543955, 0.2014106363, 0.0916367769, -0.1818571836, -0.4095099568, 0.1394411922, 0.3226634860, -0.0692700520, -0.0761153996, -0.0174655784, 0.0447678454, -0.1862249821, 0.1213843152, -0.2734633088, -0.0657980368, -0.3443864584, -0.0213818345, 0.2973300219, -0.0235799085, 0.1139610261, 0.0953026935, -0.0562113598, 0.2304649800, -0.1614525616, 0.1285684407, 0.0899931863, 0.1248978004, 0.1611731946, 0.3638310432, -0.2878881097, 0.0099308584, 0.2537126839, 0.3220092654, 0.0634822324, -0.0368113257, -0.3541391194, 0.0852978155, 0.6218196750, 0.3769304156, 0.2617363632, -0.0989028588, -0.2733494043, 0.3873203099, 0.0673830733, 0.1144401804, -0.4343849123, 0.0844568610, 0.0688451901, 0.1735710353, -0.3440893888, 0.0394057147, -0.7314897776, -0.3690758348, -0.0639976636, -0.5625107288, -0.3242983222, 0.3554657400, -0.1876899451, 0.3541372418, -0.7303524613, -0.3737741113, -0.0706399083, -0.1677848399, -0.4518797398, -0.1558099538, 0.2010471076, 0.1761478484, -0.4295485020, 0.0406307690, -0.0532246456, -0.1527276486, 0.2562018633, -0.1892908216, -0.4136525393, -0.0142551744, 0.3239743412, -0.0130242854, -0.2353044152, 0.1137826368, -0.0527167432, 0.1991721094, 0.3817367852, 0.0901583359, 0.1306744367, 0.1222757399, -0.0025294877, 0.0434863642, -0.1992413104, -0.1362554580, 0.3280206621, 0.0754453167, -0.5303504467, -0.1521363258, -0.2437517345, -0.1605584025, 0.2821388245, 0.1111002341, 0.4809499383, -0.1166379228, -0.4364411235, 0.3646390438, -0.0000561561, -0.2312124670, 0.0211200770, -0.0524312407, 0.1620701104, 0.1600356400, -0.0528680645, -0.2085789293, 0.0031787718, -0.5979222655, 0.0446502566, -0.2230226994, 0.4429765642, 0.2243906260, 0.2825158536, -0.2920688391, -0.2370811552, 0.4434234500, 0.3097911775, -0.2504709661, -0.0065910229, -0.1515426785, -0.0170877408, -0.0770943761, 0.3169245422, 0.4041007161, 0.0561817586, -0.0117122745, 0.1937145442, 0.3332574666, 0.0284643788, 0.3667100370, -0.2710559368, 0.0033443617, -0.1808709204, -0.2360581160, 0.3325101733, -0.4990386069, 0.6158576012, 0.0386846028, -0.1989725232, 0.1259161532, 0.2418285906, 0.0716590658, -0.0940915421, 0.1395756453, -0.0267471634, -0.0204208735, 0.3348397017, 0.6801065207, 0.9009404778, -0.7604526877, -0.3156384826, 0.1076188758, 0.2843170464, -0.1875525862, 0.3565176725, -0.1618873328, 0.2550904751, 0.0346736573, 0.2449525744, -0.0080337003, 0.0176291186, 0.0478065237, -0.0250122920, -0.5440009832, 0.3503575623, -0.0793261603, -0.1870097816, 0.1971583664, -0.2807996571, 0.6105955243, 0.0405686349, 0.7117913365, -0.5568759441, 0.3208687901, -0.0626486018, -0.0764200166, 0.0120806061, 0.2593173683, -0.3264326751, -0.4557534456, 0.1151573882, 0.1358671784, -0.3176116943, -0.1798716038, -0.4650503397, -0.1223204285, 0.0776344240, 0.0165377110, -0.3585099876, -0.0153815094, 0.2024683207, 0.3079357147, 0.1934885681, 0.3164558411, -0.3606579006, 0.1995369196, -0.2911213040, 0.2206157893, 0.2416246384, -0.2615223825, 0.0634287298, -0.3403016925, 0.0228560343, 0.1422862560, -0.2767490745, 0.0910643488, -0.1124376431, -0.1459348351, -0.0729379058, 0.2131725997, -0.1187365279, -0.1043929383, 0.1182803363, 0.0307949204, 0.0964164212, 0.4360777438, 0.0851890221, -0.3981331885, -0.2477983087, -0.1197148189, -0.7376057506, -0.2263938040, -0.0154824946, -0.2815348506, -0.0265056305, -0.5267770290, -0.3538066447, -0.3518080413, -0.1292231232, 0.3925602138, 0.1318257153, 0.4700799584, 0.0831073150, -0.1177577302, -0.3395855725, 0.3308743834, 0.2876521945, 0.1980664283, 0.3972225487, -0.3889438808, 0.3813954592, -0.1286141276, -0.1626962870, -0.4514518082, 0.0475066043, 0.1762403995, -0.0137801506, 0.2932002842, -0.1608448327, -0.5494616032, 0.4479332566, -0.2230789661, 0.2454748750, 0.1936495453, 0.1765520126, 0.0504159890, -0.0472869724, -0.2140185535, 0.4166589379, 0.0763336793, 0.0376588181, 0.0576693788, 0.0368061289, 0.2994289398, -0.3272268176, 0.2287917733, -0.4519803524, 0.5288308263, -0.0827779770, 0.2072412968, 0.2270879894, 0.1343253851, 0.0563906133, 0.3374122381, 0.1018916890, -0.4136966169, -0.0686735213, 0.0484471731, 0.2152427584, -0.0107041979, 0.1430738121, -0.2154121250, -0.1898601949, -0.0694988519, -0.0307701994, -0.2836540639, -0.3377752602, 0.4948766530, -0.0134413429, 0.0826143771, -0.2865400910, 0.1733864546, 0.1170600653, -0.7788072824, 0.3834543824, 0.2365835011, 0.3097574711, -0.0050587477, -0.0545418672, 0.4760370553, -0.3746708035, 0.0663356557, -0.1277562827, 0.0703966841, -0.1044696346, -0.1182029247, -0.0659548566, -0.0284680799, -0.1189562902, 0.0028099387, -0.3151115775, -0.2338362336, 0.2453448921, -0.1621469706, -0.0524782315, 0.1720057130, -0.0409655944, -0.3082211018, -0.2100534290, 0.1525785178, -0.2604463995, -0.0093043623, 0.0135085527, 0.1201912910, 0.3306755424, -0.0600635670, -0.0667652488, -0.1863199025, -0.1526623070, -0.0987206250, -0.2678489089, 0.0247228853, 0.3808142543, -0.1968981177, 0.1821918488, 0.3920397460, -0.2875082493, 0.2766040564, 0.0826505125, 0.0670901537, -0.0569917969, 0.0931724161, -0.1690378636, -0.1167781353, 0.2238107324, 0.1993306726, -0.2154119611, -0.3318788111, -0.3151943386, -0.0229890253, -0.1924542338, -0.1399477273, -0.1073113978, 0.0057504638, -0.1677159369, -0.1090568751, 0.0421063304, 0.1095977500, 0.2144474536, -0.1523132324, 0.1958581209, -0.2670192420, -0.0697745979, 0.1180849746, -0.7557303309, 0.2410464585, 0.2569719255, -0.0141526032, 0.1776138693, -0.2170829028, -0.3093675673, -0.0029578325, 0.2256366313, 0.1233234406, -0.1896424741, 0.2063639462, 0.2319311649, -0.3398976326, -0.1247195080, -0.2001728714, 0.3048143983, -0.0404756479, 0.2060916573, -0.3261001110, 0.0880193859, -0.3019967973, 0.2068446130, 0.2390354276, -0.1660534889, -0.1926525384, 0.0221098438, 0.0002823680, -0.2547183037, 0.4065298140, 0.0902897865, 0.0350793563, 0.1086897627, -0.1725944132, -0.1441726387, -0.1568396240, 0.1641141176, -0.1211444810, -0.0874746293, 0.0912447497, -0.0496684201, 0.1582399309, 0.0567919388, -0.2267436385, 0.4988811910, 0.0043895049, 0.2144967914, 0.4060943127, 0.2163857818, 0.1854277700, -0.0805934444, -0.1178810149, -0.0135789271, -0.1534084827, 0.1376708895, 0.0208361391, -0.4638918936, -0.2233040929, -0.3700958490, 0.1509670615, 0.2499084920, -0.1768295467, 0.0371400677, 0.6253999472, -0.2704446018, 0.1469407976, -0.0672240630, 0.1060043797, 0.3100727201, 0.0983624980, -0.5676205158, -0.2518368959, 0.0142220808, -0.3635019064, -0.2042944878, 0.1706772894, 0.1776247025, -0.3513517082, -0.0529973619, -0.0638525411, -0.0770287812, -0.3404989243, -0.3233148754, 0.0995935276, -0.2026376426, -0.3551755548, 0.1521962881, -0.1417021751, 0.1112848669, -0.2477254122, -0.1323505640, 0.2868791521, 0.1317925304, 0.1188509837, -0.1805050224, -0.1398770511, 0.5015098453, -0.2126727551, 0.0054139723, -0.1258662194, 0.0208273958, -0.0748100877, 0.5272563100, -0.4978517592, 0.1006545871, 0.2012492120, -0.0485137813, 0.1039174199, 0.1053098142, -0.0371842645, -0.2109303176, -0.1239441186, 0.0206219256, -0.3229947984, 0.3566547036, 0.1292003542, -0.4184360206, -0.4439676404, -0.4022201598, -0.4625218809, 0.1982460469, 0.3532446325, 0.3111924231, 0.3251071572, 0.3350011408, -0.3336925209, -0.4528000653, 0.0640859157, 0.2860490680, 0.5308178663, 0.3136731088, 0.3100439608, 0.4141112566, 0.1941158623, -0.2126940638, -0.0304079410, -0.1325224787, 0.4085547328, -0.1737771481, 0.2605087459, 0.0220225602, -0.2252100110, -0.5672016144, -0.2589035332, -0.3298619092, 0.4231103659, -0.0510931835, -0.2545452416, -0.3587374091, 0.0438278243, 0.3529272079, 0.4892087579, -0.1183840111, 0.4462550282, -0.3608256280, -0.0935689509, -0.1802424639, 0.0089103403, -0.2066865414, -0.3314203322, 0.1873857826, -0.1264556348, -0.2184480727, 0.0254068542, -0.3072477877, -0.0986759737, -0.4018606246, -0.0772401690, 0.1800328195, 0.0225924663, -0.1755952388, -0.2304638475, 0.6953569651, -0.2552893758, -0.2812950909, 0.1885637939, -0.0590768531, 0.2457038611, -0.7157162428, -0.1062628701, 0.1642563343, -0.3544727564, -0.5698277950, 0.0734075382, -0.1041578129, -0.0910384580, 0.0174491685, 0.4378325045, -0.0525995791, -0.2319002301, -0.0309701338, -0.3011229336, 0.0659095943, 0.2530675232, 0.1115453392, 0.0486543365, -0.0244184397, 0.3011961281, 0.2604424655, -0.5955110788, 0.0944163129, -0.2782969177, 0.1667809486, -0.0618362725, -0.0195466317, 0.0574916303, 0.0663739294, 0.1816459149, -0.1743440181, 0.1275733262, 0.2954291701, 0.2365584075, 0.5791444182, 0.0603600219, 0.0802125931, -0.1825984716, -0.1184034497, 0.1609512568, 0.0066162762, 0.4178006947, 0.6679773927, -0.3028777838, 0.1243984699, -0.0597572364, -0.2647654414, -0.1811486632, -0.1603263915, 0.5076733232, 0.2309419364, -0.1004724056, 0.1256196648, 0.0666825995, 0.2652366757, -0.2918472886, -0.0801773593, -0.0938465148, -0.8085159659, -0.3577806950, 0.1729297638, 0.4054029882, 0.0479415171, -0.2747172415, 0.1325408667, -0.0486705638, -0.1049319431, 0.1011894494, 0.1996142566, 0.0970351025, 0.1058461294, -0.1440880597, -0.0037075230, 0.0064284676, 0.0100807380, 0.2101379335, 0.1416820437, 0.2327933162, 0.2332092375, -0.1468973011, -0.0703734830, -0.1270462573, 0.2609809339, 0.2672174275, 0.0904442817, 0.0170069914, 0.0793412179, 0.0301688481, 0.0581440739, 0.0854019821, -0.0593128502, 0.3221865594, -0.1126600355, 0.1184473857, 0.0423573516, 0.1823698282, 0.0727412701, 0.1659468561, 0.1639684141, 0.2154366374, -0.1162997931, 0.2652130127, -0.2139954120, 0.2946294844, 0.0113786338, -0.2543452382, 0.4217466712, 0.0124655021, 0.2762266695, 0.3277864158, -0.2470056862, -0.2192703933, -0.0096957171, -0.0259548370, -0.2358504087, 0.0446692817, 0.1963056475, 0.0036900037, -0.1203023046, -0.4457377791, 0.1555224359, -0.0677434281, 0.0371114463, -0.2420770526, -0.0512817912, -0.1981462687, 0.4963916540, 0.1354140788, 0.1281246096, 0.0639891103, 0.0884874240, -0.1939105242, -0.1947740912, -0.0756821409, 0.1256871670, 0.3769026995, 0.1760242283, -0.0437013209, 0.2413455695, -0.1089898944, -0.2200274169, -0.4388953745, 0.1567544788, -0.2755586505, -0.0510931946, 0.4445645511, 0.1177100018, -0.4259695709, 0.1229001731, -0.2050997615, 0.3868330419, 0.2414798737, 0.0605022758, -0.3600000441, -0.2223367691, -0.3623083234, -0.0424697138, -0.0967455059, -0.1974736899, 0.0338178091, 0.2885037959, -0.2912301123, 0.0774308294, 0.1944800168, 0.1652337015, -0.3834907413, -0.3970872164, -0.2315575033, 0.0450256616, 0.1456964761, 0.0859691203, -0.0941896513, -0.3791187108, 0.2178993374, 0.0127448961, -0.1586893797, -0.4138384759, 0.2970639169, 0.2084632069, -0.0402562506, -0.2191851884, -0.0421094820, -0.3681945503, 0.0084431302, -0.3407540023, -0.6491848230, -0.2251980454, -0.1256546229, -0.0273304656, -0.1185030118, 0.2562103271, -0.0613275506, -0.1660678536, -0.2721376419, -0.3034738302, 0.0905767009, 0.1337228417, 0.1472641975, -0.2473288924, 0.2832490802, 0.5121371150, -0.5070548654, 0.1090015620, 0.6188193560, 0.3414919674, 0.0228840820, -0.0372741893, -0.2777016759, -0.2222730815, -0.3055097163, 0.0365655608, 0.2079575211, -0.1598521471, -0.2226843983, 0.0284385048, 0.2524868548, 0.2817042768, -0.1026494950, -0.1010288820, -0.2106962353, -0.0907974616, -0.3701510429, -0.1679954082, 0.1199872345, -0.3568854928, 0.3765414059, 0.1225929186, 0.1205991358, -0.1193490252, 0.1895424724, -0.2024093419, 0.3209196627, 0.0138410693, 0.0535074770, -0.3222778738, 0.0151768615, 0.0427394472, -0.1070179939, -0.2394214123, 0.2507717311, 0.1130607650, 0.2029292881, -0.4960734546, 0.2566447556, -0.2136413157, -0.1064781174, 0.2625394464, -0.1432372034, -0.0408242717, 0.0432123616, 0.4939233661, -0.0842265487, -0.0195988361, 0.1092613712, -0.6894222498, -0.0135555314, 0.0355901718, -0.0812254176, -0.3482214808, -0.1668960601, -0.1568557173, -0.4494786859, -0.2328258157, -0.2748537064, -0.1750161797, 0.3899269402, -0.4695351422, 0.1994881630, 0.2590249181, -0.1624711305, -0.0725093335, -0.1192160025, 0.1502479613, 0.2319802046, 0.2752121091, 0.4718890488, 0.4441410303, -0.0877332240, 0.3032417595, -0.5825931430, -0.1690998077, 0.2174411118, -0.0358367898, -0.3245260119, -0.1600775421, -0.1804419458, 0.5429996252, 0.0639583841, 0.1595832556, 0.1164223403, -0.1770128012, -0.1009578779, -0.0613780506, 0.1287442744, 0.0828887001, -0.3206391931, 0.0852053016, -0.1462598294, 0.2802200615, -0.5540923476, 0.5833560228, 0.1850395203, -0.0681156218, 0.5692363977, 0.7277240157, 0.2503131926, -0.3790618777, -0.0290791914, 0.1884261817, -0.0380592532, -0.1475600302, -0.0964882970, 0.3584038615, -0.3193423748, -0.1122932062, -0.2577580512, 0.0071755429, 0.3812517524, 0.0428686664, 0.0077041751, 0.4584828913, 0.2242118269, 0.0473788828, -0.1518281698, 0.1214190498, 0.3474664390, 0.0124534899, -0.1497497410, -0.0881719291, 0.1727897674, -0.0079820678, 0.1353723407, -0.1282911003, 0.1113514826, 0.1972980052, -0.3836343884, 0.0372671038, 0.1550776213, -0.0891062468, 0.0339651741, -0.2479291111, -0.0746715516, 0.1617259383, 0.2380892932, 0.0204418693, 0.0828512684, 0.3989022374, -0.0468868613, 0.0505555943, -0.2110971510, 0.7310339212, 0.3990175128, -0.2350589633, -0.1947319955, -0.0017778196, 0.5101085305, 0.2872929275, -0.2416139394, -0.0600614585, 0.2044565827, -0.0220136270, -0.1988675892, -0.5501933098, -0.0429846160, -0.1989016384, 0.0204296485, -0.1915192753, -0.1527546048, -0.0390314832, 0.1893969327, -0.2503541410, 0.0704868957, -0.0610554107, -0.0269309990, -0.0469446704, -0.3892177045, 0.0673879907, 0.2901761234, 0.1807367951, 0.1305918992, -0.1202438027, 0.0496741682, -0.2074839473, 0.4300155342, -0.0547689833, -0.4058992267, 0.0186071265, 0.0117937783, 0.3841549754, 0.4091698527, 0.3004035056, -0.1506768018, 0.5829685330, 0.3236639500, -0.1897422373, 0.2826509476, -0.0382513180, 0.3250647783, 0.0872155055, -0.1068862975, 0.1242763996, -0.1626727581, 0.5634617209, 0.1774923056, 0.3568433523, 0.0169657059, 0.0115862191, -0.1291704178, -0.6059314609, 0.0957138091, 0.0459436364, -0.1964723468, -0.3786266446, 0.5304539204, -0.2276574969, 0.2648190558, -0.1423405111, -0.0360444002, 0.0746823400, -0.1662142426, 0.3231549859, -0.1039162427, 0.2089471966, -0.0114852097, -0.0487351492, -0.3487811983, 0.8439190388, -0.6335365772, -0.2363755256, 0.1915351897, -0.1437826455, 0.1038601324, 0.1463903785, 0.1771101356, -0.1630568206, -0.1244918033, 0.0952960402, -0.5001146793, -0.0688463822, -0.1114989221, 0.1485611647, -0.1368166953, -0.1655036807, -0.4189733565, 0.0322928168, -0.0282841306, -0.1109268069, -0.2115641236, -0.0097379852, 0.2846150994, -0.0104253758, -0.1381710619, 0.3810550869, 0.0987057760, 0.2394364923, 0.0051437956, -0.6588962674, -0.1293715984, -0.0052473769, -0.0148042412, -0.0716259778, -0.2665936053, -0.2648886144, 0.0503011458, -0.9739947915, 0.0944886953, 0.0640604123, -0.2106388658, -0.6154946685, -0.0198164787, -0.0744441301, 0.0514263213, -0.0531917848, -0.0333524495, -0.2063899189, 0.1714105904, 0.4090264738, -0.0451089293, 0.2277126461, 0.0485708155, -0.4677272141, 0.0019221874, 0.1511608809, 0.5652787685, -0.1092966422, 0.1886985451, -0.1222607940, 0.0519778952, -0.1087824553, -0.0003775483, 0.2132618576, -0.0950190574, -0.1726752222, 0.0216703396, -0.1230437011, -0.1573026180, 0.0816932321, 0.4980914891, 0.0206847247, 0.4307991564, 0.0938119143, -0.0505898036, -0.2268213481, -0.0348491818, 0.2240488380, -0.4506495297, 0.4345753193, -0.4403089881, -0.1890202463, 0.1797084212, -0.0876002759, 0.1539715976, -0.0427255444, 0.1476035267, -0.1499874294, -0.1327190399, 0.1916733533, -0.1732582599, 0.0218312629, -0.1110172868, -0.0753045529, -0.1324152052, 0.1679325849, 0.1437750757, 0.0459394678, 0.4454795718, 0.1533636898, -0.1841655970, 0.2078287005, 0.5177064538, 0.1035947353, 0.1712904721, 0.3035152555, 0.0832947046, 0.2954508662, 0.4265426397, 0.1619246304, -0.2793932557, 0.0337527320, 0.4978248477, 0.0836734101, 0.7936081886, -0.0567284860, -0.2451766729, 0.1028787792, -0.0096810162, 0.1147967428, 0.0657898337, -0.2553713024, 0.0523343794, 0.0398484990, 0.4223841429, -0.0512681939, -0.0247990321, 0.3857841790, -0.0846997574, 0.1012372598, 0.2172917128, 0.1231943890, -0.1340925097, 0.2583755851, 0.4255055487, -0.0467563421, -0.2038086206, -0.0997824520, 0.2793714702, 0.2498675436, 0.0816989392, -0.0875056311, -0.0797617286, -0.6457790732, 0.2267134339, -0.0473622866, 0.0845561102, -0.0566265471, -0.0508985333, -0.0332554840, 0.0508153848, 0.1464011669, -0.0325163826, 0.0852070823, -0.0968719348, 0.0032904190, -0.1154754683, -0.1682966202, 0.0568634197, 0.3253185749, 0.4059110284, 0.6599628925, 0.2124459594, 0.0602560341, 0.3654332161, -0.1498749554, 0.3065755367, -0.0937716290, 0.2216472328, -0.0081773512, -0.0326472223, -0.3393848240, 0.1301185638, 0.3478046358, 0.1412604004, -0.3036626279, 0.4660870731, -0.1179961488, 0.5164701343, 0.1565134078, -0.3528172076, 0.2905331850, -0.0272281952, -0.2062874883, 0.3505505621, -0.0002162023, -0.3192276359, -0.1792665571, 0.0323086381, 0.0161674377, 0.2612292767, 0.1979158223, 0.0662692040, -0.3105467558, -0.1331526935, 0.3698436916, -0.0085995365, 0.1296970993, 0.1936312318, -0.3554545045, -0.0108281821, -0.0697245896, -0.1443301737, 0.0586729757, 0.3629782498, -0.0531399101, -0.2211034745, -0.0839894414, -0.1135107949, 0.0476344712, 0.1827598959, 0.0294699892, -0.0854237601, 0.1045347750, 0.0334832296, 0.3745011687, -0.0311306827, 0.5475095510, 0.4232572019, -0.1678054780, 0.1472266316, 0.1542656422, 0.2799341381, -0.5493097305, -0.2124571502, 0.5689767003, 0.2292461693, -0.1467352659, -0.3799562156, 0.1170376167, -0.1008517966, -0.3622522652, -0.0644694716, -0.0978735387, -0.3450601399, 0.2636339962, 0.0817859098, -0.1588022113, -0.3451708555, -0.4237269759, 0.2439954281, -0.3316738605, 0.1661314070, -0.2169523239, -0.2286625355, 0.3381576538, 0.1651339233, -0.0146717178, -0.0095083062, 0.2682546973, 0.0948094204, 0.1440712959, -0.1950353980, 0.0309164468, -0.0294146389, -0.0234941281, -0.2432502806, 0.2322791964, 0.0173006430, -0.2416234165, 0.2124707550, -0.4372868240, 0.8710159659, -0.0728261247, 0.0400658809, -0.0603550412, -0.3909671605, 0.4487482607, -0.0817379281, 0.2878825366, 0.1146659553, -0.0927251503, -0.0803669617, 0.2239247561, 0.1684863865, -0.2708812058, 0.4677553177, 0.2035718858, 0.3080902696, -0.1752786040, 0.2140930295, -0.3038272858, 0.1887639016, -0.3152864873, 0.0141771305, 0.0635994002, -0.0645592362, 0.3827033341, -0.2252278179, 0.1305778176, 0.1426589340, -0.1547149718, 0.0630612522, -0.4541273713, 0.3527326882, 0.2661460340, -0.0720475391, -0.4562747180, 0.0617487356, 0.0121824555, 0.0438648313, -0.2597478926, -0.0019884338, 0.2119959742, 0.2037622929, 0.1776113212, -0.1502984464, -0.0688777640, -0.0958071724, 0.3692581058, -0.2970188856, 0.0057976963, 0.2805607021, -0.1882896125, 0.1453177631, -0.3719906509, -0.0044237631, 0.0810876936, 0.2136079818, -0.1957588941, 0.2673381269, 0.0511810370, 0.2382340431, 0.3437147737, -0.1665947586, -0.0182630103, -0.3339111507, -0.0514218546, -0.6075639129, 0.1397674531, 0.0453415215, -0.1936498880, 0.0774159804, 0.0706066638, -0.1490807831, 0.2513847947, -0.0060961824, -0.0204354469, -0.1343535632, -0.0635096282, 0.0393266939, 0.0350653566, 0.2028434426, 0.0939169526, -0.1491983980, 0.0375578925, 0.1976759732, 0.0801238939, 0.0032179097, 0.0181975439, -0.0398560800, -0.3416510522, -0.1113906801, 0.0780859739, -0.1232600436, 0.0012839035, -0.0463876128, 0.1067472249, 0.1417196393, 0.2819578946, 0.1906610876, 0.3861948550, -0.0447567776, -0.0928552374, 0.1065719500, 0.1123808846, 0.2117063850, -0.1731469482, -0.0382647328, -0.3700469136, 0.1486064345, 0.0142704742, -0.1965312213, -0.2161983550, -0.0349197127, 0.0059079323, -0.0171618070, 0.1315714717, 0.2254842818, -0.0194241777, 0.0475177020, 0.1915165484, -0.1717899144, 0.3570984602, -0.3195116222, 0.1632265747, -0.0310122725, -0.1008386463, -0.2468712628, -0.3376668096, 0.3249470890, 0.2120220065, -0.0291216392, -0.0224802569, -0.3553785086, -0.1624111235, -0.0539244711, -0.0973900408, -0.1761522442, 0.1459828317, -0.1933718473, 0.0271292832, -0.0644349307, 0.0411451831, -0.1571881622, 0.3240292966, 0.2454856187, -0.0038868408, 0.0917100087, 0.3894527853, -0.1036208272, 0.1273928583, -0.2630475760, -0.1651109308, -0.1738683134, 0.4162327945, 0.0224065855, -0.2277724296, -0.3501106799, 0.2152737230, 0.3351430595, 0.2649917603, 0.1317122430, -0.1246040761, -0.0998549238, -0.5464529395, 0.0069566518, -0.1628779471, -0.2560921609, -0.2122183293, -0.3041742444, -0.1019062176, 0.3878177106, -0.0297231767, 0.2525301576, 0.4309036136, -0.0777498037, -0.4551976621, 0.0289436653, 0.2305197269, 0.2822822332, -0.2037124783, -0.1961514205, 0.0687735006, -0.0204189569, 0.1643278003, 0.3437334001, 0.1373387426, -0.0487754941, -0.0980642140, 0.1241405532, 0.0311583858, -0.0061719203, 0.4576431215, 0.1675187051, 0.4939684868, 0.0965447500, 0.1073219031, 0.2118113190, -0.6113303900, -0.5546237230, -0.2421405315, 0.0771698654, 0.0290249977, -0.2926223576, -0.4025036991, -0.1553350091, 0.4032785296, 0.1335638613, -0.1104543880, 0.0069373129, -0.0932371542, -0.2617824972, -0.0931346491, -0.1022499651, 0.0373811834, 0.3216604292, 0.0954418033, -0.3051651120, -0.1645140499, 0.2376839668, -0.1176784188, -0.1361020356, 0.0211218130, 0.0076647815, -0.0096603623, -0.2391739041, -0.0683731958, -0.4348051250, 0.0716968626, 0.2326502353, -0.1264149845, -0.1716303676, 0.1921775341, -0.2436866909, 0.3801809549, -0.1962468922, -0.3303017318, 0.2946267724, 0.3010927737, 0.4697106481, -0.2209566236, -0.3053238094, -0.4291641414, -0.4995182157, 0.2960486412, 0.2530268729, 0.1942783743, -0.0531985573, -0.0762403831, -0.5426899791, -0.2270271629, -0.1607587337, -0.2091180086, -0.0733655170, -0.5990914702, 0.0087529719, -0.0372549556, 0.1580259353, 0.2258707881, -0.1999388188, 0.0346812122, -0.1307713985, -0.2420269251, -0.0353630222, -0.3132619560, -0.4112253785, -0.0552118756, -0.0281883217, 0.0956343412, -0.1826262474, -0.0282771327, -0.2801113427, 0.3119678497, 0.5502920151, 0.3532437384, 0.0228077304, -0.0951097831, -0.3398624957, 0.1347604245, 0.2576378286, 0.2749840617, -0.0736413673, 0.5092089176, 0.0358504541, 0.2969511449, 0.0478513278, -0.0596187301, 0.0057421611, 0.0895623565, 0.0572767220, -0.2642281055, 0.0529305078, -0.5010204911, -0.4676755369, -0.0095129907, -0.2467139661, 0.0548558682, 0.4778600037, -0.0527322665, -0.0156750623, -0.0368167311, 0.1611389369, 0.1966029853, -0.0663730055, -0.2501354814, -0.1029890776, 0.1606709659, -0.0353797041, -0.1873388588, -0.0608772002, -0.1984935701, -0.5006374717, 0.2897934318, 0.0049975617, -0.0195874199, 0.0289001763, -0.0860962942, -0.1906301528, -0.2165973485, -0.3732497394, 0.2763718665, 0.3392460942, 0.1103873551, 0.2783686817, -0.3268730938, -0.0379738621, -0.1686835587, -0.3945198655, -0.2564289272, -0.1897405088, -0.3199436665, -0.2107676715, -0.0853605121, -0.1733746231, -0.0060833418, -0.0890547633, 0.2840811908, 0.0707226694, -0.0004343095, -0.1338193268, 0.0311520547, -0.0680124015, -0.3198587000, -0.0503242314, 0.1916828305, 0.0909778327, 0.2792210877, -0.1659368277, -0.1477284878, -0.1484138966, 0.0009099118, -0.0839249715, 0.1365270913, -0.1699996293, -0.2274664789, 0.5008164644, 0.0366192497, -0.1840722263, -0.4027627110, -0.1107531860, 0.0430273972, -0.3260748088, 0.6248853803, -0.5482923388, -0.0176015999, 0.0113545125, -0.7588701844, 0.2033589333, 0.0044979150, -0.4852073193, -0.2434727401, -0.0062971860, -0.2472043186, -0.3985908926, -0.3465747237, 0.2774530053, 0.3795019984, -0.2735803723, 0.1406972408, 0.0703196153, -0.2966419458, 0.2776685059, 0.2265406847, -0.0152230514, -0.0686377510, 0.0933356062, -0.2024384737, -0.3746763766, -0.2224723995, -0.1724781692, 0.1560521871, 0.2670998871, 0.2444743067, 0.0627638623, 0.0057421443, -0.3558240235, 0.1343278140, 0.2514496148, -0.0806162357, -0.1127572209, 0.0007691889, -0.0753130093, -0.4410495460, -0.0614323057, 0.3717595041, -0.1350524873, 0.0297166016, 0.1993776858, -0.3848524988, -0.4921524823, 0.1735139489, -0.1661232859, 0.1218186468, 0.0727744922, -0.4651282728, 0.1508035362, -0.1137960777, 0.3599332571, -0.3851192594, -0.7704138756, -0.6132965684, -0.0044853147, -0.0881342217, 0.2849246562, 0.2367659062, -0.0997859389, 0.3704499304, 0.0666019544, 0.1875232458, -0.0252212211, 0.5770966411, -0.1461187750, 0.1493783891, 0.4104520380, 0.2468771040, 0.4355735779, -0.0909244120, 0.3020680547, 0.0237346385, 0.2121932805, -0.5636168718, 0.3269658089, -0.6575338244, -0.3079155982, 0.0473688394, 0.1499414146, 