-1.080694273114204407e-01
-2.388999564573168755e-03
1.404733979143202305e-03
4.851678386330604553e-02
-3.681056573987007141e-02
1.822846978902816772e-01
4.859912991523742676e-01
-1.164698675274848938e-01
-3.590241968631744385e-01
1.882663555443286896e-02
1.458407938480377197e-02
-1.851072907447814941e-01
-1.544526685029268265e-02
-1.211160048842430115e-01
-1.459941416978836060e-01
-4.944939911365509033e-02
-1.293474584817886353e-01
1.129479855298995972e-01
8.528998121619224548e-03
-5.009591579437255859e-02
-9.222064912319183350e-02
-1.873703747987747192e-01
7.347883284091949463e-02
8.516723290085792542e-03
-1.211866270750761032e-02
2.022968530654907227e-01
7.699140161275863647e-02
-4.605134204030036926e-02
-1.658087819814682007e-01
1.992915524169802666e-03
-1.510301232337951660e-01
3.755681589245796204e-02
2.043717205524444580e-01
-7.325457781553268433e-02
2.862662449479103088e-02
9.309161454439163208e-02
-2.079758495092391968e-01
-3.794799745082855225e-02
-1.000756695866584778e-01
-2.719205990433692932e-02
-1.520705074071884155e-01
1.490489989519119263e-01
5.213749781250953674e-02
-7.112473249435424805e-02
-1.058294251561164856e-01
6.111716479063034058e-02
-1.917511373758316040e-01
4.773972928524017334e-02
4.617068916559219360e-03
-1.494292169809341431e-01
1.242260485887527466e-01
-1.509518828243017197e-02
1.284530013799667358e-02
-9.897140413522720337e-02
1.256464719772338867e-01
-1.967453658580780029e-01
2.892094850540161133e-02
-1.583817154169082642e-01
-2.716261520981788635e-02
-1.810433417558670044e-01
-8.094946295022964478e-02
-1.279376745223999023e-01
-1.195545569062232971e-01
-2.611044049263000488e-01
-1.564600616693496704e-01
2.124121934175491333e-01
2.610385231673717499e-02
1.856758147478103638e-01
6.203564628958702087e-02
-4.979302361607551575e-02
-1.118995919823646545e-01
2.237953841686248779e-01
-2.275384217500686646e-01
9.886468201875686646e-02
1.844924837350845337e-01
-1.514087617397308350e-01
-1.388025134801864624e-01
-2.436015382409095764e-02
3.320779204368591309e-01
-2.023707330226898193e-01
-2.088105864822864532e-02
-2.750430256128311157e-02
1.858180463314056396e-01
1.713443249464035034e-01
1.103296652436256409e-01
-4.884724970906972885e-03
1.021206155419349670e-01
3.272377252578735352e-01
-4.306295886635780334e-02
4.635378718376159668e-02
-1.806673109531402588e-01
-1.393962949514389038e-01
1.238699257373809814e-02
-1.986702531576156616e-01
-1.257120072841644287e-02
-9.831941127777099609e-02
4.343977272510528564e-01
-1.264638733118772507e-03
-1.258504986763000488e-01
2.680237293243408203e-01
7.326307147741317749e-02
-6.837119162082672119e-02
2.734817750751972198e-02
7.961945235729217529e-02
-5.431286245584487915e-02
-9.031867235898971558e-02
5.252579227089881897e-02
1.460476815700531006e-01
3.724381094798445702e-03
7.388189435005187988e-02
-7.945868372917175293e-02
-1.173359230160713196e-01
-1.182838082313537598e-01
4.065668210387229919e-03
-2.312238141894340515e-02
6.982055492699146271e-03
8.720136433839797974e-02
-7.097758352756500244e-02
-1.555395275354385376e-01
9.139150381088256836e-02
-1.042423099279403687e-01
-9.759536013007164001e-03
2.881142497062683105e-01
2.413512617349624634e-01
-1.299044042825698853e-01
1.416406929492950439e-01
4.639476165175437927e-02
-2.953508310019969940e-02
