-3.862585127353668213e-02
-2.021873835474252701e-03
-1.418426781892776489e-01
-2.784661389887332916e-02
-6.986043602228164673e-02
1.467436272650957108e-02
5.657869949936866760e-02
-2.102639153599739075e-02
1.919888891279697418e-02
7.200439460575580597e-03
-2.599906874820590019e-03
2.065852656960487366e-02
4.814596474170684814e-02
6.050141900777816772e-02
-8.310514502227306366e-03
-2.391802147030830383e-03
-1.361707318574190140e-02
2.201355062425136566e-02
4.877309314906597137e-03
5.159416235983371735e-03
8.130463212728500366e-02
7.988411933183670044e-02
-9.417644701898097992e-03
1.444545090198516846e-01
-1.239683106541633606e-02
-1.345079243183135986e-01
-2.307057753205299377e-02
5.239946395158767700e-02
1.859856024384498596e-02
1.558214076794683933e-03
4.368101805448532104e-02
-2.451331354677677155e-02
4.918688163161277771e-02
4.701187461614608765e-02
7.716887444257736206e-02
2.053234493359923363e-04
-3.295073052868247032e-03
8.865255862474441528e-03
2.928681857883930206e-02
3.222750872373580933e-02
6.564765423536300659e-02
-2.045198110863566399e-03
-1.636780500411987305e-01
-1.306855976581573486e-01
-4.844794422388076782e-02
8.646247442811727524e-04
1.225124858319759369e-02
-5.822544917464256287e-02
1.954466663300991058e-02
3.345610946416854858e-02
-2.640516031533479691e-03
6.480994634330272675e-03
2.021031454205513000e-03
1.570398733019828796e-02
-3.491212055087089539e-02
1.238284399732947350e-03
7.024390622973442078e-03
-1.430284697562456131e-02
-1.038118079304695129e-01
2.601022832095623016e-02
-1.075213961303234100e-02
-8.996148593723773956e-03
-4.446067661046981812e-02
-8.360006660223007202e-02
5.198834696784615517e-04
8.117895573377609253e-02
1.423744112253189087e-01
1.481940597295761108e-02
-6.733907014131546021e-02
-1.113195088692009449e-03
8.834104239940643311e-02
5.716543644666671753e-03
-1.207066606730222702e-02
-1.413998659700155258e-02
5.782097205519676208e-02
-9.194203466176986694e-02
-1.096731517463922501e-02
-3.164999559521675110e-02
-5.939392745494842529e-02
-8.204276859760284424e-02
-7.230675220489501953e-02
-1.900606602430343628e-02
-1.949640922248363495e-02
-2.105796895921230316e-02
-2.511883527040481567e-02
-5.902508273720741272e-02
5.484044086188077927e-03
3.440267965197563171e-02
4.139027441851794720e-04
-3.529191613197326660e-01
-2.137786522507667542e-02
-3.968114405870437622e-02
-1.067456901073455811e-01
1.298263552598655224e-03
-2.539262920618057251e-02
-4.342670552432537079e-03
-3.762875497341156006e-02
-2.680166959762573242e-01
2.667214907705783844e-02
7.290179375559091568e-03
5.455788690596818924e-03
4.164116829633712769e-02
-1.042864751070737839e-02
-3.511001169681549072e-02
1.084102783352136612e-03
-1.139492075890302658e-02
-1.130748423747718334e-03
3.072332032024860382e-02
1.392771955579519272e-02
1.267771720886230469e-01
1.190536003559827805e-02
4.454071447253227234e-02
1.212562173604965210e-01
-9.299846366047859192e-03
8.311458677053451538e-02
-1.588751003146171570e-02
-1.783537864685058594e-02
-3.980381786823272705e-02
-6.756632775068283081e-02
2.988656051456928253e-03
1.331438310444355011e-02
4.428871721029281616e-02
-1.695180237293243408e-01
-4.408211912959814072e-03
4.921807558275759220e-04
3.810732439160346985e-02
2.070169523358345032e-02
-9.026518091559410095e-03
6.846266333013772964e-03
-3.677984699606895447e-02
-3.919947147369384766e-02
-5.312859639525413513e-02
-1.474828179925680161e-02
-3.511239308863878250e-03
-1.368297170847654343e-02
-3.208246454596519470e-02
-8.310291171073913574e-02
7.266610115766525269e-02
-1.157471444457769394e-03
-8.689839392900466919e-02
-6.217758636921644211e-03
-4.532979801297187805e-02
1.418016757816076279e-02
2.595357038080692291e-02
-8.568717166781425476e-03
3.165534872096031904e-04
-2.619746141135692596e-02
7.727193087339401245e-02
-1.082636695355176926e-02
5.141249671578407288e-02
7.003135234117507935e-02
-3.270181268453598022e-02
1.789591275155544281e-02
-1.205083429813385010e-01
-8.863231167197227478e-03
-2.354739047586917877e-02
4.031981155276298523e-02
5.298066418617963791e-03
1.716550067067146301e-02
5.420359596610069275e-02
3.281218409538269043e-01
5.660249292850494385e-02
5.974993575364351273e-03
1.165668573230504990e-02
6.673876196146011353e-02
-1.597175747156143188e-02
7.917699962854385376e-02
7.786053232848644257e-03
1.353572905063629150e-01
9.178622066974639893e-02
3.724402934312820435e-02
-1.070126593112945557e-01
-1.969308126717805862e-03
-1.032535335980355740e-03
1.646926067769527435e-02
-3.690480813384056091e-02
2.075840160250663757e-02
-2.408248782157897949e-01
1.472404599189758301e-02
-1.419756910763680935e-03
-4.249972477555274963e-02
-2.273402176797389984e-02
1.047169417142868042e-02
-4.505285620689392090e-02
3.334302827715873718e-02
2.924323827028274536e-02
4.019657615572214127e-03
-1.285042706876993179e-02
2.922457829117774963e-02
-3.872159868478775024e-02
-3.199653699994087219e-02
-4.765348974615335464e-03
8.961054496467113495e-03
-9.812495112419128418e-02
1.242384165525436401e-01
-3.639250935520976782e-04
-5.245812237262725830e-02
2.287180162966251373e-02
5.246009211987257004e-03
4.735334962606430054e-02
8.129736781120300293e-02
-5.729799158871173859e-03
-3.061413764953613281e-02
-5.304884165525436401e-03
2.978961681947112083e-03
-1.842690631747245789e-02
1.727573722600936890e-01
-6.161380093544721603e-03
3.107911050319671631e-01
-5.998900532722473145e-02
-1.449762731790542603e-01
9.789310395717620850e-03
-1.645719446241855621e-02
-4.566008225083351135e-02
-2.144095022231340408e-03
3.568942472338676453e-02
1.274533569812774658e-02
1.872766464948654175e-01
2.681085094809532166e-02
-5.935931578278541565e-02
-2.954175882041454315e-02
7.658957503736019135e-03
-3.252399340271949768e-02
-5.337178008630871773e-04
2.935320138931274414e-02
2.363555133342742920e-02
-3.531682305037975311e-04
-3.451805561780929565e-02
-6.890996545553207397e-02
-3.602095693349838257e-02
-1.586268655955791473e-02
-5.531727522611618042e-02
-9.807413443922996521e-03
1.761683635413646698e-02
5.628329515457153320e-02
2.874897047877311707e-02
5.673455819487571716e-02
-6.588962674140930176e-02
9.975790977478027344e-03
1.917324215173721313e-02
2.078456990420818329e-02
1.412334740161895752e-01
-3.347487002611160278e-02
-4.162745550274848938e-02
1.082872226834297180e-02
2.032754477113485336e-03
3.997871652245521545e-02
3.877015411853790283e-02
1.016326434910297394e-02
2.960235439240932465e-02
8.765201270580291748e-02
-3.900904953479766846e-02
1.241414062678813934e-02
-3.905683383345603943e-02
2.423291094601154327e-02
2.453112602233886719e-02
2.536669492721557617e+00
2.177188694477081299e-01
-4.820024967193603516e-01
5.535348653793334961e-01
-8.059863448143005371e-01
1.262296289205551147e-01
5.654102563858032227e-01
8.471094965934753418e-01
1.054387688636779785e-01
3.023983240127563477e-01
7.586145401000976562e-01
7.111213207244873047e-01
-1.067359372973442078e-01
-1.614511370658874512e+00
1.716074109077453613e+00
-3.218818008899688721e-01
7.702699303627014160e-02
-1.509267240762710571e-01
2.486265450716018677e-01
1.442057341337203979e-01
3.298337161540985107e-01
3.751263022422790527e-01
1.320467740297317505e-01
3.190029561519622803e-01
-2.589600086212158203e-01
1.302860956639051437e-02
-1.331033557653427124e-01
6.290435325354337692e-03
8.036372810602188110e-02
2.584116458892822266e-01
2.159972488880157471e-01
-1.340320825576782227e+00
4.012940227985382080e-01
-8.652068376541137695e-01
-4.597871899604797363e-01
9.166903048753738403e-02
-6.372544169425964355e-01
-1.227571725845336914e+00
-7.262561917304992676e-01
9.087305665016174316e-01
-9.625163078308105469e-01
-5.509759187698364258e-01
-1.352863907814025879e-01
1.816134810447692871e+00
-6.115428805351257324e-01
2.158941235393285751e-03
-1.560517072677612305e+00
-3.202808499336242676e-01
1.323144137859344482e-01
6.331752538681030273e-01
1.315034627914428711e+00
4.541562870144844055e-02
7.711011171340942383e-01
-1.592944562435150146e-01
2.362152636051177979e-01
-2.239703200757503510e-03
4.926429390907287598e-01
5.506288409233093262e-01
7.381771802902221680e-01
-2.373835742473602295e-01
-2.126386314630508423e-01
-1.562599837779998779e-01
2.518761157989501953e-01
-1.510051488876342773e-01
-4.522956311702728271e-01
-8.585535883903503418e-01
-2.788388133049011230e-01
-1.148917600512504578e-01
2.059309631586074829e-01
-9.378483146429061890e-02
-3.485576510429382324e-01
3.028855025768280029e-01
-7.452242970466613770e-01
4.491589590907096863e-02
-1.943898946046829224e-01
4.024842083454132080e-01
-2.393209934234619141e+00
8.605735301971435547e-01
2.017889171838760376e-01
-2.012357711791992188e-01
7.256959080696105957e-01
3.282916173338890076e-02
6.906324625015258789e-01
-6.974733620882034302e-02
-2.569702625274658203e+00
1.179400920867919922e+00
-2.034813761711120605e-01
2.796607464551925659e-02
-5.134202241897583008e-01
-8.254767060279846191e-01
2.109857201576232910e-01
4.189395606517791748e-01
-6.325311064720153809e-01
8.337112665176391602e-01
2.622458338737487793e-01
-5.515427589416503906e-01
-2.725759446620941162e-01
-7.934965491294860840e-01
1.220046430826187134e-01
4.138194322586059570e-01
1.179255917668342590e-01
1.857465207576751709e-01
7.018541097640991211e-01
5.893250107765197754e-01
-7.679624557495117188e-01
-1.954860687255859375e+00
8.333478868007659912e-02
1.120993018150329590e+00
-2.910981178283691406e-01
5.167884826660156250e-01
-7.056169509887695312e-01
2.590358853340148926e-01
-1.613884449005126953e+00
7.604762315750122070e-01
-2.108113318681716919e-01
-3.778373897075653076e-01
-1.693991720676422119e-01
8.044118434190750122e-02
7.310551404953002930e-01
1.125237584114074707e+00
-1.810512542724609375e+00
-1.776789501309394836e-02
4.674875438213348389e-01
2.598597407341003418e-01
-1.568466663360595703e+00
-4.146249592304229736e-01
3.135479986667633057e-01
-2.192409753799438477e+00
