-1.363929808139801025e-01
-2.689524181187152863e-02
1.781204044818878174e-01
-1.457563936710357666e-01
-1.200352609157562256e-01
-4.532179329544305801e-03
1.041242033243179321e-01
-1.113615632057189941e-01
-2.768510580062866211e-01
2.730210253503173590e-04
-5.704606324434280396e-02
-1.870731711387634277e-01
-1.135596111416816711e-01
1.855892827734351158e-03
-9.840048104524612427e-02
4.075627774000167847e-02
-1.280044615268707275e-01
1.202277690172195435e-01
-4.053495824337005615e-02
-2.211451828479766846e-01
-7.884720712900161743e-02
-8.494377881288528442e-02
1.134460791945457458e-01
1.916630268096923828e-01
-3.419055603444576263e-03
2.952192723751068115e-02
-2.074012905359268188e-02
-3.965082764625549316e-02
3.770112991333007812e-02
7.811693847179412842e-02
-1.431865543127059937e-01
3.740497231483459473e-01
5.543508380651473999e-02
1.755925267934799194e-02
-3.638398274779319763e-02
-4.135549068450927734e-02
-1.403767168521881104e-01
5.266850069165229797e-02
1.984518319368362427e-01
5.289382115006446838e-02
-2.348335385322570801e-01
2.698816917836666107e-02
1.108141243457794189e-01
-5.834638327360153198e-02
3.725782409310340881e-02
2.521779835224151611e-01
3.380938246846199036e-02
5.073427408933639526e-02
-8.168391883373260498e-02
-1.610424518585205078e-01
-1.465832907706499100e-02
-5.812288820743560791e-02
-1.727933883666992188e-01
-1.148757338523864746e-02
1.843033134937286377e-01
-1.356748398393392563e-02
-2.041924446821212769e-01
1.260314434766769409e-01
1.338924020528793335e-01
-1.027874872088432312e-01
1.210031807422637939e-01
-1.473791524767875671e-02
1.122552808374166489e-02
-1.416068375110626221e-01
-1.037550643086433411e-01
-6.257234513759613037e-02
4.209581762552261353e-02
7.150092720985412598e-02
2.767533436417579651e-02
-1.713701039552688599e-01
-2.031949348747730255e-02
2.210489064455032349e-01
-1.103580445051193237e-01
2.550342865288257599e-02
2.469339072704315186e-01
-1.863079667091369629e-01
8.999411761760711670e-02
4.736855998635292053e-02
2.796687781810760498e-01
-2.120382785797119141e-01
-7.726051658391952515e-02
7.916324585676193237e-02
1.529834978282451630e-02
-3.288703784346580505e-02
9.473553299903869629e-02
8.524367958307266235e-02
2.667299211025238037e-01
3.824815503321588039e-04
8.678165078163146973e-02
5.707786232233047485e-02
6.104421988129615784e-02
1.227597445249557495e-01
-4.466711357235908508e-02
-4.094634205102920532e-02
8.397298306226730347e-02
6.915621459484100342e-02
8.706264942884445190e-02
-2.941016480326652527e-02
-7.282140851020812988e-02
3.346216306090354919e-02
-5.337315378710627556e-04
1.252291798591613770e-01
-2.303938195109367371e-02
-1.333698034286499023e-01
1.001511700451374054e-02
5.610032007098197937e-03
7.338900119066238403e-02
-1.204434037208557129e-01
7.058896869421005249e-02
-6.598267704248428345e-02
-1.062573194503784180e-01
2.982811443507671356e-02
7.943874225020408630e-03
-4.600333422422409058e-02
1.117413267493247986e-01
-2.845627442002296448e-02
-1.001965347677469254e-02
-1.196458116173744202e-01
-3.547458350658416748e-01
-6.598086562007665634e-03
-4.644485563039779663e-02
2.548800781369209290e-02
2.733783097937703133e-03
2.122228592634201050e-01
1.868175566196441650e-01
3.017197176814079285e-02
-1.045276150107383728e-01
-8.810051530599594116e-02
