8.217851072549819946e-02
-2.264585904777050018e-02
-1.147641707211732864e-02
-5.385319888591766357e-02
-3.825150430202484131e-02
4.292501211166381836e-01
2.535043098032474518e-02
-2.378779090940952301e-02
2.271040901541709900e-02
-1.568605422973632812e+00
2.411919273436069489e-02
3.724313899874687195e-02
-3.308910503983497620e-02
-1.605350971221923828e+00
1.250814832746982574e-02
-6.423745770007371902e-03
-1.615604609251022339e-01
-2.158197388052940369e-02
1.190762221813201904e-01
5.234315991401672363e-02
-5.280656367540359497e-02
3.349367156624794006e-02
9.164410829544067383e-02
-2.321701310575008392e-02
-1.126736328005790710e-01
-4.926598817110061646e-02
-3.503738641738891602e-01
-1.052230969071388245e-01
1.500603836029767990e-02
-6.210815906524658203e-01
-7.368811964988708496e-02
-3.573656678199768066e-01
-2.888994812965393066e-01
-1.667267084121704102e-01
-1.933774650096893311e-01
2.119808085262775421e-02
-8.297234773635864258e-02
-1.248723734170198441e-02
-3.403021395206451416e-02
1.445602625608444214e-01
-1.087185144424438477e-01
-1.431659329682588577e-02
-8.439593762159347534e-02
6.200053915381431580e-02
-1.051030993461608887e+00
2.769422950223088264e-03
1.798828989267349243e-01
7.681882381439208984e-02
-2.679218649864196777e-01
2.272891104221343994e-01
6.251169741153717041e-02
-1.991825737059116364e-02
1.564534008502960205e-02
-5.317451432347297668e-02
-7.701009511947631836e-02
-9.412218630313873291e-02
6.113350763916969299e-02
-6.591165065765380859e-02
5.838504433631896973e-02
1.053586322814226151e-02
-1.636064797639846802e-01
1.625938527286052704e-02
-6.541627049446105957e-01
-2.878602966666221619e-02
8.007454872131347656e-02
-5.341893807053565979e-02
6.431977450847625732e-02
-3.416709601879119873e-01
-8.697885274887084961e-02
9.859555214643478394e-02
-2.442022711038589478e-01
-5.108118057250976562e-02
5.289389565587043762e-02
1.831228584051132202e-01
-7.591084577143192291e-03
9.403925389051437378e-02
7.208725810050964355e-02
-1.750296592712402344e+00
1.418773457407951355e-02
-6.704302132129669189e-02
-6.146097555756568909e-02
-3.689457103610038757e-02
5.713991820812225342e-02
-5.535927042365074158e-02
-7.691240310668945312e-02
4.041497036814689636e-02
9.588629752397537231e-02
2.612803131341934204e-02
3.021401911973953247e-02
1.425277590751647949e-01
-1.526307128369808197e-02
5.640225019305944443e-03
3.752280399203300476e-02
-7.725936174392700195e-01
-4.084147512912750244e-03
-3.635794669389724731e-02
4.888522997498512268e-02
-7.494127005338668823e-02
-2.164072357118129730e-02
-1.619602441787719727e-01
-7.329426705837249756e-02
-3.692894876003265381e-01
-1.156504675745964050e-01
-5.124757438898086548e-02
4.549094941467046738e-03
-9.818720817565917969e-02
3.982193768024444580e-01
-3.317155838012695312e-01
-1.370260678231716156e-02
-5.741043090820312500e-01
3.826092183589935303e-02
-2.332213521003723145e-02
-2.893370017409324646e-02
4.035459831357002258e-03
1.265191845595836639e-02
-5.419306457042694092e-02
-3.173835948109626770e-02
5.039829015731811523e-02
1.029430180788040161e-01
1.050730887800455093e-02
-3.067228011786937714e-02
1.370546668767929077e-01
5.414176732301712036e-03
1.975164283066987991e-03
1.111289020627737045e-02
-1.999720573425292969e+00
-7.810306269675493240e-03
-2.445301413536071777e-02
1.870911866426467896e-01
-2.136191725730895996e-01
-7.726942002773284912e-02
-5.855562910437583923e-02
-3.386615514755249023e-01
3.043255209922790527e-02
-3.486082330346107483e-02
-1.261384934186935425e-01
1.034474000334739685e-01
4.623247683048248291e-02
-1.157002523541450500e-01
-4.766186177730560303e-01
-4.906081855297088623e-01
1.918200589716434479e-02
8.255444467067718506e-03
2.854424417018890381e-01
1.406172215938568115e-01
7.855648547410964966e-02
-9.179259836673736572e-02
-1.604540199041366577e-01
1.209215596318244934e-01
1.318500936031341553e-02
-1.695060580968856812e-01
-2.342101335525512695e-01
-1.199310347437858582e-01
6.381513178348541260e-02
2.253591269254684448e-02
9.512528777122497559e-02
-2.262488156557083130e-01
-2.217337861657142639e-02
-1.036552861332893372e-01
-3.125111460685729980e-01
-7.057647109031677246e-01
-6.066945567727088928e-02
4.442385584115982056e-02
-1.036811899393796921e-02
-1.358930021524429321e-01
-1.740926876664161682e-02
9.576247632503509521e-02
1.301307082176208496e-01
-2.094038426876068115e-01
-9.364212863147258759e-03
-2.241334877908229828e-02
2.439258061349391937e-02
1.477884650230407715e-01
-1.111686695367097855e-02
9.889273205772042274e-04
2.964851260185241699e-01
6.584802269935607910e-02
-5.867490172386169434e-02
5.168940871953964233e-03
-1.377575248479843140e-01
-6.078885495662689209e-02
7.375665754079818726e-02
-1.818154454231262207e-01
-5.880188196897506714e-02
-3.360428661108016968e-02
1.223376840353012085e-01
-1.337172389030456543e-01
9.517427533864974976e-02
-1.495503354817628860e-02
-2.409349381923675537e-01
4.560080543160438538e-02
-5.130906775593757629e-02
-8.343877196311950684e-01
-8.621533960103988647e-02
-4.942359402775764465e-02
6.365472823381423950e-02
-1.489824205636978149e-01
3.399877622723579407e-02
1.012144759297370911e-01
1.722736656665802002e-01
-2.941763401031494141e-01
5.077669862657785416e-03
-3.554643690586090088e-02
-4.492170177400112152e-03
1.142386794090270996e-01
-1.252355054020881653e-02
2.320404723286628723e-02
-3.902247548103332520e-01
1.132222451269626617e-02
-1.310023292899131775e-02
-2.022835984826087952e-02
4.584686458110809326e-02
4.552605748176574707e-02
4.475832358002662659e-02
7.373119890689849854e-02
-2.056811191141605377e-02
6.814361363649368286e-02
-9.262516349554061890e-02
-1.150989010930061340e-01
-6.524456143379211426e-01
-1.166589483618736267e-01
-2.360283955931663513e-02
9.309097193181514740e-03
2.584155499935150146e-01
-4.863741695880889893e-01
-4.500049650669097900e-01
-1.026212796568870544e-01
-1.740199886262416840e-02
-2.763197422027587891e-01
4.230848327279090881e-02
-6.678573321551084518e-03
9.879887849092483521e-02
-1.728427261114120483e-01
3.559666126966476440e-02
6.916394829750061035e-02
-1.047734986059367657e-03
1.200596913695335388e-01
6.460876669734716415e-03
5.731587484478950500e-02
6.844083219766616821e-02
-1.611633151769638062e-01
-7.073957324028015137e-01
-9.098990261554718018e-02
-2.466556243598461151e-02
-6.030284166336059570e-01
4.271453991532325745e-02
-5.978890880942344666e-02
9.039018303155899048e-02
-1.820314824581146240e-01
2.400923706591129303e-02
5.230928584933280945e-02
1.458647288382053375e-02
8.766996860504150391e-02
-1.204265374690294266e-02
8.549538254737854004e-02
3.181307390332221985e-02
9.197442233562469482e-02
2.217930257320404053e-01
-7.228095531463623047e-01
-7.661856710910797119e-03
-3.468902409076690674e-01
-2.511263452470302582e-02
1.300602108240127563e-01
1.454233974218368530e-01
2.287836372852325439e-01
-4.750639945268630981e-02
-2.055638656020164490e-02
1.942324638366699219e-02
-1.852338016033172607e-01
3.496770281344652176e-03
-4.588461518287658691e-01
-3.551924228668212891e-02
6.036983057856559753e-02
-1.341876238584518433e-01
1.089082881808280945e-01
-1.916713081300258636e-02
4.474471881985664368e-02
-2.048716321587562561e-02
7.286629825830459595e-02
5.363425239920616150e-02
4.974167048931121826e-02
-4.540084674954414368e-02
-3.108087554574012756e-02
1.726007275283336639e-02
-8.779171854257583618e-02
-2.322058007121086121e-02
-9.223485589027404785e-01
-2.945543639361858368e-02
4.073866456747055054e-02
-8.396215736865997314e-02
3.468202427029609680e-02
-2.632117271423339844e-02
1.828062348067760468e-02
-3.337498903274536133e-01
-1.594973206520080566e-01
2.796211838722229004e-01
7.476215064525604248e-02
-2.634146511554718018e-01
-5.869415123015642166e-03
3.447506204247474670e-02
-1.884516514837741852e-02
3.688825294375419617e-02
-6.296200305223464966e-02
-1.102512981742620468e-02
-8.741232752799987793e-02
1.117824837565422058e-01
5.099255591630935669e-03
1.166228130459785461e-01
-3.041058182716369629e-01
-8.746693283319473267e-02
6.349241733551025391e-02
9.028531610965728760e-03
1.478515565395355225e-01
2.590018808841705322e-01
-1.358586549758911133e-01
-7.373898625373840332e-01
-2.105756849050521851e-01
4.645793698728084564e-03
1.504441164433956146e-02
-1.278910040855407715e+00
1.049889437854290009e-02
1.369735412299633026e-02
-3.370187804102897644e-02
5.239012092351913452e-02
4.460267350077629089e-02
4.855339974164962769e-02
5.591774359345436096e-02
-7.065701298415660858e-03
7.214649766683578491e-02
-7.829502224922180176e-02
-3.540234267711639404e-01
-5.704791545867919922e-01
-1.291860193014144897e-01
-3.338615223765373230e-02
4.919729195535182953e-03
3.206730186939239502e-01
-7.278084009885787964e-02
9.673517942428588867e-02
-3.285059630870819092e-01
1.367896981537342072e-02
1.854354143142700195e-02
4.507915303111076355e-02
-9.368176758289337158e-02
-2.054077684879302979e-01
7.004971057176589966e-02
-1.077526211738586426e-01
-1.599616557359695435e-01
-7.968282699584960938e-01
-2.238833159208297729e-01
1.271634944714605808e-03
6.757700443267822266e-02
2.251714169979095459e-01
1.844530403614044189e-01
-7.172531634569168091e-02
5.034265294671058655e-02
-1.464220788329839706e-02
1.464080065488815308e-01
-3.500678762793540955e-02
-6.724619865417480469e-02
-5.762845277786254883e-02
6.845572590827941895e-02
-3.786820173263549805e-02
1.926290802657604218e-02
-4.829642921686172485e-02
-2.021863758563995361e-01
2.670770511031150818e-02
-4.028763622045516968e-02
2.406888082623481750e-02
9.056618064641952515e-02
9.256844967603683472e-02
2.200838178396224976e-01
-8.622315945103764534e-04
-3.711105287075042725e-01
-1.025924831628799438e-02
4.700236395001411438e-02
-5.428458005189895630e-02
-2.294087558984756470e-01
-4.833763837814331055e-02
-4.586718976497650146e-02
1.711031794548034668e-02
-3.397074341773986816e-02
1.079384144395589828e-02
-4.164663851261138916e-01
-2.848098054528236389e-02
-4.476065561175346375e-02
5.790882557630538940e-02
-7.035020738840103149e-02
1.034763902425765991e-01
7.660568691790103912e-03
-4.153191670775413513e-02
-1.011922881007194519e-01
-1.152684167027473450e-01
-3.931080996990203857e-01
2.393641620874404907e-01
-1.306714564561843872e-01
-1.090705871582031250e+00
-2.753956615924835205e-01
5.342626571655273438e-02
-8.721501380205154419e-02
8.502168953418731689e-02
-1.357730925083160400e-01
2.254621591418981552e-03
8.501787483692169189e-02
5.890691652894020081e-03
-7.420288026332855225e-02
-1.278142444789409637e-02
7.316125184297561646e-02
1.171616185456514359e-02
-9.759281575679779053e-02
-9.844635426998138428e-02
-1.483441442251205444e-01
-9.684181958436965942e-02
2.192643657326698303e-02
-4.917045235633850098e-01
-9.133954346179962158e-02
1.244241371750831604e-01
-9.827633947134017944e-02
3.951279446482658386e-02
-2.210543304681777954e-01
5.467644706368446350e-02
1.142014190554618835e-02
-8.742182701826095581e-02
-8.933982998132705688e-02
-2.823385782539844513e-02
7.613590359687805176e-02
-1.391976326704025269e-01
-4.007722809910774231e-02
-3.833112865686416626e-02
3.339370787143707275e-01
2.133124042302370071e-03
2.097777836024761200e-02
1.882654130458831787e-01
-1.789202988147735596e-01
5.398320779204368591e-02
-4.291445910930633545e-01
3.659242391586303711e-02
-8.393603563308715820e-02
3.696954576298594475e-03
1.077035814523696899e-01
4.005172476172447205e-02
-7.112112641334533691e-02
-1.560797095298767090e-01
-3.503838479518890381e-01
-1.142014637589454651e-01
-9.622307494282722473e-03
-5.905216932296752930e-01
-7.374501973390579224e-02
-5.826390385627746582e-01
-1.517499238252639771e-01
3.199669122695922852e-01
-8.850614726543426514e-02
1.596621572971343994e-01
6.969691067934036255e-02
4.524162411689758301e-01
-1.877769112586975098e+00
3.306266963481903076e-01
-7.982626557350158691e-02
-7.335563749074935913e-02
-1.873735636472702026e-01
-1.461945772171020508e-01
-1.288696974515914917e-01
-1.830345839262008667e-01
-8.379360288381576538e-02
-1.195462793111801147e-01
2.639943920075893402e-02
-1.888362923637032509e-03
4.828090965747833252e-02
-2.242140024900436401e-01
-4.996379464864730835e-02
5.922691151499748230e-02
-2.368894964456558228e-01
-4.637747257947921753e-02
4.592033103108406067e-02
1.112942546606063843e-01
-1.054269634187221527e-02
6.612703949213027954e-02
4.673060402274131775e-02
-1.121829152107238770e+00
-1.764357089996337891e-02
-6.714849919080734253e-02
-7.682596147060394287e-02
-2.170937880873680115e-02
3.050151839852333069e-02
-4.014345258474349976e-02
-9.577202051877975464e-02
5.332212895154953003e-02
8.102300018072128296e-02
2.748205885291099548e-02
-5.240478739142417908e-02
1.821763068437576294e-01
-4.781581927090883255e-03
2.610458759590983391e-03
7.394060026854276657e-03
-1.715205192565917969e+00
-4.900834523141384125e-03
-3.803090006113052368e-02
2.848708927631378174e-01
1.099467948079109192e-01
-1.722101867198944092e-02
2.169601768255233765e-01
-1.814362108707427979e-01
2.949824035167694092e-01
-1.962880045175552368e-02
-8.789280056953430176e-02
-7.850673794746398926e-01
-4.579165577888488770e-01
-7.592687010765075684e-02
-7.933763265609741211e-01
-3.904148042201995850e-01
5.830054637044668198e-03
4.042273759841918945e-02
-1.107277870178222656e+00
