4.136044681072235107e-01
-8.806072175502777100e-02
3.140498697757720947e-01
1.502341628074645996e-01
3.510215878486633301e-01
2.276404052972793579e-01
4.293568432331085205e-01
2.841432094573974609e-01
3.124575018882751465e-01
4.105365276336669922e-01
1.510650664567947388e-01
3.648223876953125000e-01
6.323122978210449219e-02
-2.043277621269226074e-01
2.319731712341308594e-01
3.528144955635070801e-01
2.216842323541641235e-01
-2.799549885094165802e-02
1.265961956232786179e-02
-1.214725822210311890e-01
-1.968280225992202759e-01
8.887808024883270264e-02
1.196888014674186707e-01
1.625951528549194336e-01
2.240999042987823486e-01
-2.636891007423400879e-01
9.280036389827728271e-02
-1.970238238573074341e-01
-1.665125787258148193e-01
1.565986424684524536e-01
1.326568275690078735e-01
1.607332080602645874e-01
-1.724181026220321655e-01
-8.884793147444725037e-03
-2.192550152540206909e-01
-2.164183706045150757e-01
-2.204866707324981689e-01
-1.205712929368019104e-01
-5.783411674201488495e-03
-1.910709291696548462e-01
1.912089623510837555e-02
-2.716087996959686279e-01
-2.616183459758758545e-01
-2.438502013683319092e-01
-3.022699952125549316e-01
2.371632009744644165e-01
-4.368632435798645020e-01
-5.343254208564758301e-01
-2.180583178997039795e-01
-2.374961525201797485e-01
-2.944788634777069092e-01
9.552063792943954468e-02
5.679389089345932007e-02
8.057222701609134674e-03
2.649629116058349609e-02
-1.272103935480117798e-01
9.739734977483749390e-02
-7.811980322003364563e-03
-1.338161807507276535e-02
9.471198171377182007e-02
-1.247216295450925827e-02
-5.749664455652236938e-02
3.817014803644269705e-04
-5.719572305679321289e-03
-8.616374731063842773e-01
7.687453180551528931e-02
5.792742967605590820e-02
-5.595730543136596680e-01
-6.431733965873718262e-01
-3.430980443954467773e-01
-4.301231205463409424e-01
-3.069393038749694824e-01
1.872701644897460938e-01
-6.285331249237060547e-01
-2.213352825492620468e-03
-2.981401979923248291e-01
-1.215875707566738129e-02
-3.617637231945991516e-02
9.776174277067184448e-02
1.279337257146835327e-01
-4.417018592357635498e-01
-4.393007606267929077e-02
-5.562307238578796387e-01
3.304845886304974556e-03
-2.035510689020156860e-01
9.249722212553024292e-02
-2.256587594747543335e-01
-5.462431311607360840e-01
1.691717505455017090e-01
-5.050660297274589539e-02
5.041705369949340820e-01
-1.920726746320724487e-01
-3.030797839164733887e-02
-6.224911212921142578e-01
-2.262580543756484985e-01
-1.181196421384811401e-01
8.796659708023071289e-01
-2.206033021211624146e-01
7.246989011764526367e-02
2.442048043012619019e-01
6.647216081619262695e-01
3.458355367183685303e-01
7.967208623886108398e-01
6.019592881202697754e-01
2.147364318370819092e-01
-1.538335811346769333e-02
-5.161725357174873352e-02
5.385413169860839844e-01
4.016794636845588684e-02
-5.552926659584045410e-02
1.647284328937530518e-01
4.260410964488983154e-01
1.323772668838500977e-01
1.237425357103347778e-01
3.916852176189422607e-02
1.539519429206848145e-01
2.250302582979202271e-01
2.238278537988662720e-01
1.969427615404129028e-01
1.900881826877593994e-01
1.867550164461135864e-01
-1.916498094797134399e-01
-2.111046016216278076e-01
-1.546245068311691284e-01
-9.828712791204452515e-02
4.549672603607177734e-01
1.451125144958496094e-01
4.399016797542572021e-01
7.145342826843261719e-01
-6.083220615983009338e-02
-1.565856635570526123e-01
1.997373253107070923e-01
4.719027876853942871e-01
4.924804568290710449e-01
6.138364672660827637e-01
6.057652831077575684e-01
1.818250492215156555e-02
7.067458033561706543e-01
-1.878512650728225708e-01
4.764448404312133789e-01
-1.291413754224777222e-01
2.247030474245548248e-02
-6.232811510562896729e-02
-7.293911650776863098e-03
3.223393857479095459e-01
2.816508114337921143e-01
3.442429900169372559e-01
3.256250871345400810e-03
3.164349496364593506e-02
-1.052882894873619080e-01
2.464975714683532715e-01
3.909027278423309326e-01
-4.085333272814750671e-02
2.532504796981811523e-01
-1.031234115362167358e-01
1.136693656444549561e-01
2.803165838122367859e-02
6.465493440628051758e-01
3.304038345813751221e-01
5.599955841898918152e-02
-2.393616288900375366e-01
-3.470483049750328064e-02
4.764638543128967285e-01
-1.818709522485733032e-01
-1.202866360545158386e-01
-5.525406599044799805e-01
-1.798054426908493042e-01
-2.988090515136718750e-01
-3.694385290145874023e-02
-3.556977212429046631e-01
3.155841231346130371e-01
-1.490051206201314926e-02
1.040058135986328125e-01
-2.709961831569671631e-01
2.143403589725494385e-01
2.556454837322235107e-01
-3.085110485553741455e-01
-3.913331925868988037e-01
-4.235399514436721802e-02
-2.669059038162231445e-01
-3.589570820331573486e-01
1.211678534746170044e-01
-2.879661917686462402e-01
-1.995922327041625977e-01
-4.930938407778739929e-02
-1.583967506885528564e-01
3.779392540454864502e-01
-2.161252945661544800e-01
-1.662293672561645508e-01
-1.320545375347137451e-01
-2.565680444240570068e-01
-1.881111264228820801e-01
-4.337573647499084473e-01
-1.464749872684478760e-01
1.844307035207748413e-01
1.803491860628128052e-01
-1.557679474353790283e-01
-2.417150139808654785e-01
-2.891483008861541748e-01
-2.155964821577072144e-01
1.350653618574142456e-01
3.118080198764801025e-01
1.137332543730735779e-01
-4.217026010155677795e-02
1.182839795947074890e-01
1.847044378519058228e-01
-1.204333007335662842e-01
-3.099541366100311279e-01
2.151692956686019897e-01
-1.461169570684432983e-01
6.600169539451599121e-01
-1.025688946247100830e-01
-5.572574958205223083e-02
1.894847452640533447e-01
2.127560675144195557e-01
2.630016505718231201e-01
1.565467268228530884e-01
7.194755226373672485e-02
1.379319131374359131e-01
1.723574995994567871e-01
-1.600719839334487915e-01
1.538343578577041626e-01
-4.791666269302368164e-01
1.101307645440101624e-01
-2.114882878959178925e-02
1.157772392034530640e-01
-2.850077450275421143e-01
-2.240232937037944794e-02
4.013064876198768616e-02
-7.339666038751602173e-02
1.221548169851303101e-01
-1.963194161653518677e-01
3.825216591358184814e-01
-5.120718479156494141e-02
-1.168680712580680847e-01
-2.529563941061496735e-02
-8.832634240388870239e-02
3.037638068199157715e-01
-2.496944218873977661e-01
-2.249602526426315308e-01
-8.223354816436767578e-02
-6.780112534761428833e-02
8.593497425317764282e-02
3.634342849254608154e-01
3.301720023155212402e-01
-1.094052791595458984e-01
2.815164327621459961e-01
-2.035466879606246948e-01
1.813580393791198730e-01
9.903518855571746826e-02
3.093336708843708038e-02
-1.755522564053535461e-02
-4.226969555020332336e-02
1.195941716432571411e-01
-5.958497896790504456e-02
5.186669826507568359e-01
1.465839594602584839e-01
-5.935585498809814453e-02
-2.146797329187393188e-01
2.583037018775939941e-01
7.148032635450363159e-02
5.047542452812194824e-01
-6.442092359066009521e-02
4.280191063880920410e-01
-3.647937178611755371e-01
1.898447573184967041e-01
-4.981681108474731445e-01
1.604176163673400879e-01
-6.543813347816467285e-01
-5.274325376376509666e-04
-4.386177361011505127e-01
-4.671211242675781250e-01
4.940214157104492188e-01
3.322878479957580566e-01
-3.663420975208282471e-01
-8.172980695962905884e-02
-7.007056474685668945e-02
-1.003816276788711548e-01
-1.438536345958709717e-01
3.103350996971130371e-01
-4.030983522534370422e-02
-1.413616538047790527e-01
-1.826681643724441528e-01
1.746301800012588501e-01
2.169515341520309448e-01
5.381242930889129639e-02
3.161709308624267578e-01
-4.544687569141387939e-01
-2.646723575890064240e-02
1.390309333801269531e-01
-1.592558175325393677e-01
-4.096006155014038086e-01
4.292189180850982666e-01
3.760458230972290039e-01
2.682296037673950195e-01
4.418742656707763672e-01
1.841000318527221680e-01
-1.914991289377212524e-01
-9.356065839529037476e-02
6.123819947242736816e-01
-4.613159894943237305e-01
-2.564851343631744385e-01
-3.724373877048492432e-02
4.004544019699096680e-01
-3.029448688030242920e-01
-8.629287779331207275e-02
-5.456469058990478516e-01
-2.003738135099411011e-01
-2.905884981155395508e-01
2.344942539930343628e-01
-2.263828068971633911e-01
-3.629800677299499512e-01
3.084760010242462158e-01
1.568317711353302002e-01
2.576553225517272949e-01
-7.489471882581710815e-02
1.484031379222869873e-01
-6.588823744095861912e-04
1.860762089490890503e-01
-2.586177289485931396e-01
8.129727244377136230e-01
3.509092926979064941e-01
-1.189008653163909912e-01
-6.511631608009338379e-02
5.743266940116882324e-01
9.081804752349853516e-01
7.920304536819458008e-01
7.871315479278564453e-01
8.135105017572641373e-04
6.448274850845336914e-01
5.342107638716697693e-02
6.705599427223205566e-01
4.545752331614494324e-02
1.020536124706268311e-01
5.862678214907646179e-02
5.431063845753669739e-02
2.580089494585990906e-02
3.177974522113800049e-01
1.862083226442337036e-01
-1.898937299847602844e-02
1.422878205776214600e-01
-1.005993187427520752e-01
-6.199978291988372803e-02
8.814959973096847534e-02
-7.617027312517166138e-02
4.925774335861206055e-01
-5.279465913772583008e-01
5.680636167526245117e-01
3.081353008747100830e-01
8.737903237342834473e-01
7.076590657234191895e-01
-2.665309794247150421e-02
-5.567808747291564941e-01
-1.069364100694656372e-01
5.333359837532043457e-01
8.744971454143524170e-02
-4.069611132144927979e-01
-5.585339069366455078e-01
-4.053103625774383545e-01
-2.447306364774703979e-01
-1.167140379548072815e-01
-1.678935289382934570e-01
3.310191333293914795e-01
-4.905244708061218262e-01
3.507356345653533936e-01
-1.121535077691078186e-01
3.086524903774261475e-01
1.992782801389694214e-01
3.170928731560707092e-02
3.802068531513214111e-02
3.023833930492401123e-01
8.310187608003616333e-02
1.270871758460998535e-01
-1.123760417103767395e-01
-1.568449474871158600e-02
-2.187574841082096100e-02
-1.520437300205230713e-01
-2.779304683208465576e-01
5.889403223991394043e-01
-2.878271043300628662e-01
-1.610540747642517090e-01
-3.408830165863037109e-01
-4.631102085113525391e-01
8.000258356332778931e-03
3.073072433471679688e-01
-3.315755352377891541e-02
9.459758549928665161e-02
7.757705450057983398e-02
2.905299365520477295e-01
1.765137463808059692e-01
2.756670713424682617e-01
1.648358404636383057e-01
-7.611577957868576050e-02
1.280380636453628540e-01
1.763087064027786255e-01
2.919177412986755371e-01
-1.046825647354125977e-01
-9.476634860038757324e-02
1.759164221584796906e-02
1.457006931304931641e-01
1.128311082720756531e-01
3.355658426880836487e-02
-1.427951157093048096e-01
-7.415440678596496582e-02
-6.706266105175018311e-02
1.797530502080917358e-01
-9.588463604450225830e-02
1.884046345949172974e-01
2.531193383038043976e-02
-1.268844008445739746e-01
-1.971956044435501099e-01
4.640195891261100769e-02
-4.640783742070198059e-02
1.651986092329025269e-01
1.415953040122985840e-01
6.765294820070266724e-03
-5.781793594360351562e-02
-1.445996314287185669e-01
-2.126906663179397583e-01
1.005207970738410950e-01
6.788235902786254883e-02
3.167876275256276131e-05
-1.643680222332477570e-02
-6.776465306757017970e-05
4.131108894944190979e-02
3.619397431612014771e-02
-2.001661509275436401e-01
1.727617830038070679e-01
-2.231745421886444092e-01
-1.344802081584930420e-01
1.222699955105781555e-01
3.081920742988586426e-01
-2.232063328847289085e-03
-2.460536919534206390e-02
-2.815640866756439209e-01
2.863444946706295013e-02
-7.423967123031616211e-02
4.276357293128967285e-01
-1.651168018579483032e-01
1.517027020454406738e-01
2.316876947879791260e-01
-1.805715411901473999e-01
3.234488889575004578e-02
-1.055839238688349724e-03
-3.379522264003753662e-01
-3.656666493043303490e-03
-1.555431783199310303e-01
1.627205759286880493e-01
-2.285953611135482788e-01
-1.507259458303451538e-01
2.763930857181549072e-01
1.088404506444931030e-01
-1.666665226221084595e-01
-5.364266633987426758e-01
-2.368164807558059692e-01
-3.143654465675354004e-01
-9.630531072616577148e-02
6.009623035788536072e-02
3.259778618812561035e-01
-4.101071357727050781e-01
1.288388520479202271e-01
-4.782854765653610229e-02
-3.940646070986986160e-03
-2.004666719585657120e-03
-7.233996689319610596e-02
-2.479037791490554810e-01
3.837153911590576172e-01
-1.328804492950439453e-01
-1.020546704530715942e-01
-5.864881351590156555e-02
1.705661118030548096e-01
8.901035785675048828e-02
-8.853299915790557861e-02
-5.808165762573480606e-03
2.410578876733779907e-01
-1.075628399848937988e-01
-9.522335231304168701e-02
-5.010862369090318680e-04
-3.861455917358398438e-01
-1.807868778705596924e-01
3.682124912738800049e-01
6.225016117095947266e-01
-2.127470672130584717e-01
-1.137619912624359131e-01
2.324951626360416412e-02
5.228425860404968262e-01
2.637189328670501709e-01
4.475332498550415039e-01
-2.020659148693084717e-01
1.393488496541976929e-01
4.067412018775939941e-01
1.534220129251480103e-01
3.601953983306884766e-01
2.159588634967803955e-01
-6.674218177795410156e-02
-1.331692188978195190e-01
1.546761835925281048e-03
4.910180270671844482e-01
1.641397178173065186e-01
-3.308140486478805542e-02
2.087761461734771729e-01
-3.566135764122009277e-01
-4.767326265573501587e-02
1.599465310573577881e-01
-2.914399802684783936e-01
5.999671220779418945e-01
-3.643860518932342529e-01
6.026626229286193848e-01
7.851199507713317871e-01
3.981344401836395264e-01
5.307360291481018066e-01
-1.915713250637054443e-01
-1.156559735536575317e-01
-6.637419015169143677e-02
4.496913552284240723e-01
1.726800799369812012e-01
-2.159969359636306763e-01
-1.354402452707290649e-01
-1.811772882938385010e-01
1.150084752589464188e-02
-4.012312293052673340e-01
4.420647621154785156e-01
4.253919720649719238e-01
-1.833815574645996094e-01
4.451149404048919678e-01
-3.280355930328369141e-01
3.295630514621734619e-01
2.705273032188415527e-01
1.897095590829849243e-01
1.419026255607604980e-01
4.033290445804595947e-01
-5.974342823028564453e-01
-3.663812875747680664e-01
-4.816155433654785156e-01
-2.080951444804668427e-02
3.540155589580535889e-01
-3.753123283386230469e-01
-7.070680707693099976e-02
-3.486382961273193359e-02
3.103952296078205109e-02
-7.697296887636184692e-02
-6.244949996471405029e-02
-2.355603724718093872e-01
-6.137795448303222656e-01
1.831431090831756592e-01
2.116463333368301392e-01
6.829957664012908936e-02
2.289709635078907013e-02
1.268503218889236450e-01
3.472732007503509521e-01
2.388624995946884155e-01
1.773927807807922363e-01
-8.770108968019485474e-02
9.881097078323364258e-02
1.468417048454284668e-01
3.041470050811767578e-01
2.191922664642333984e-01
-8.420517295598983765e-02
3.310593664646148682e-01
2.650876939296722412e-01
1.256032735109329224e-01
2.802764475345611572e-01
1.650678813457489014e-01
-7.708566635847091675e-02
-5.485168844461441040e-02
-2.674541473388671875e-01
-1.453329771757125854e-01
2.216315269470214844e-01
-2.620946764945983887e-01
1.939727365970611572e-01
-3.927156329154968262e-01
2.848037779331207275e-01
2.088803946971893311e-01
2.138231135904788971e-02
3.135936260223388672e-01
-2.049671709537506104e-01
-3.390173017978668213e-01
-3.686735406517982483e-02
4.891554638743400574e-02
6.234152242541313171e-02
-2.234510928392410278e-01
-5.098546743392944336e-01
-2.511808574199676514e-01
-2.690371870994567871e-01
1.605514436960220337e-01
-1.109546571969985962e-01
1.205499246716499329e-01
-3.008654713630676270e-01
9.068056195974349976e-02
2.035689204931259155e-01
-1.914619468152523041e-02
-6.371740996837615967e-02
-5.397812277078628540e-02
-6.265325099229812622e-02
5.020977556705474854e-02
3.240181803703308105e-01
3.629860579967498779e-01
7.608117908239364624e-02
2.571375370025634766e-01
-8.972003310918807983e-02
1.922548711299896240e-01
-1.329116523265838623e-01
3.872191607952117920e-01
-1.670419275760650635e-01
1.062830686569213867e-01
-2.023290656507015228e-02
-4.551354646682739258e-01
2.328171581029891968e-01
2.839631140232086182e-01
-1.861482560634613037e-01
-3.830622434616088867e-01
1.484656780958175659e-01
2.337068468332290649e-01
8.099471032619476318e-02
1.072025857865810394e-02
3.201132407411932945e-03
4.702771827578544617e-02
1.977391242980957031e-01
-5.007692575454711914e-01
2.445502281188964844e-01
-3.776847422122955322e-01
-9.644784778356552124e-02
-2.485381215810775757e-01
-3.184444010257720947e-01
-1.847151070833206177e-01
-2.314144074916839600e-01
2.678143382072448730e-01
-2.116654217243194580e-01
-2.413632422685623169e-01
1.658088713884353638e-01
2.512188553810119629e-01
-1.092633828520774841e-01
-5.554516613483428955e-02
2.678988128900527954e-02
-3.355936110019683838e-01
-6.116636469960212708e-02
-2.932397425174713135e-01
3.224111497402191162e-01
-2.168501960113644600e-03
-1.739674061536788940e-01
3.295249864459037781e-02
-3.209086358547210693e-01
-1.810082048177719116e-01
4.733547940850257874e-02
-1.919350773096084595e-01
-2.375153452157974243e-01
-1.740261763334274292e-01
-2.982337176799774170e-01
-1.457562446594238281e-01
-2.407502010464668274e-02
-3.846986293792724609e-01
-3.077680468559265137e-01
-3.187255859375000000e-01
-6.955100595951080322e-02
-3.330510556697845459e-01
-3.897612094879150391e-01
-2.698745429515838623e-01
-4.382603764533996582e-01
-1.455185115337371826e-01
-1.236151605844497681e-01
-2.384801357984542847e-01
-4.200007393956184387e-02
-1.062111034989356995e-01
-2.633004784584045410e-01
-3.154130885377526283e-03
-3.883203268051147461e-01
-3.269794583320617676e-01
-3.914884626865386963e-01
-5.095228552818298340e-01
-1.027461662888526917e-01
-2.919138669967651367e-01
-3.580076992511749268e-01
-5.199824571609497070e-01
7.214187830686569214e-02
-1.029473617672920227e-01
-3.817126154899597168e-01
-3.268108069896697998e-01
-9.664570540189743042e-02
-2.518786787986755371e-01
-9.389636665582656860e-02
9.960265457630157471e-02
-1.315840780735015869e-01
-1.071312353014945984e-01
-1.397146657109260559e-02
-1.169337034225463867e-01
5.127139016985893250e-02
-1.236046850681304932e-01
-5.120835453271865845e-02
-2.105999290943145752e-01
-3.703061863780021667e-02
-2.233272492885589600e-01
-3.973232209682464600e-02
-2.097060531377792358e-01
-1.167749539017677307e-01
-8.764199167490005493e-02
-3.209929466247558594e-01
1.292439550161361694e-01
4.137446731328964233e-02
4.091834425926208496e-01
-6.204261258244514465e-02
-5.592263489961624146e-02
-1.502733975648880005e-01
-1.859002709388732910e-01
-1.005442216992378235e-01
4.949064850807189941e-01
3.657251596450805664e-01
2.139711985364556313e-03
1.044947057962417603e-01
4.625234603881835938e-01
8.830761313438415527e-01
3.618602752685546875e-01
6.036570072174072266e-01
1.119717434048652649e-01
4.993743598461151123e-01
2.708649039268493652e-01
6.347199082374572754e-01
3.399290442466735840e-01
6.713230907917022705e-02
5.219971537590026855e-01
5.466302633285522461e-01
4.291832745075225830e-01
4.477223455905914307e-01
2.003398388624191284e-01
4.479385316371917725e-01
3.564982712268829346e-01
1.727809011936187744e-01
1.820587515830993652e-01
3.987273275852203369e-01
1.260557621717453003e-01
4.010264575481414795e-01
-2.867102026939392090e-01
5.029233098030090332e-01
5.843560099601745605e-01
3.937219679355621338e-01
6.027843356132507324e-01
4.893196821212768555e-01
4.616281688213348389e-01
-1.518108844757080078e-01
-2.261593043804168701e-01
5.608759075403213501e-02
3.855039179325103760e-01
2.814860939979553223e-01
4.803644716739654541e-01
3.758483529090881348e-01
-2.777203544974327087e-02
3.119376897811889648e-01
-2.261592149734497070e-01
3.384395241737365723e-01
-1.366206109523773193e-01
1.367139220237731934e-01
-5.099361017346382141e-02
1.038419231772422791e-01
-6.437767297029495239e-02
8.359802514314651489e-02
-2.857955396175384521e-01
-1.294008642435073853e-01
4.135327413678169250e-02
-6.459852308034896851e-02
5.353498086333274841e-02
-4.649183154106140137e-02
4.468927532434463501e-02
4.627119004726409912e-02
-1.659035533666610718e-01
-1.944534778594970703e-01
1.233088597655296326e-01
5.325217843055725098e-01
9.762977063655853271e-02
9.003711864352226257e-03
-7.367519289255142212e-02
1.023089736700057983e-01
-3.424077332019805908e-01
-3.226082026958465576e-01
-2.906282544136047363e-01
-3.399464115500450134e-02
-1.429608315229415894e-01
-1.450969725847244263e-01
-4.813350439071655273e-01
-2.713029086589813232e-01
6.093775853514671326e-02
-1.958809643983840942e-01
2.729270458221435547e-01
2.272252291440963745e-01
-6.913098692893981934e-02
-1.941196769475936890e-01
-4.061414003372192383e-01
4.951744806021451950e-03
-6.117582321166992188e-03
-1.920416578650474548e-02
1.795240938663482666e-01
-6.150950193405151367e-01
-2.303934544324874878e-01
-2.415585070848464966e-01
-4.704425632953643799e-01
2.435291111469268799e-01
-3.778913915157318115e-01
1.448856443166732788e-01
2.428677380084991455e-01
-9.573787450790405273e-02
2.932790219783782959e-01
-3.205833137035369873e-01
-2.012606710195541382e-03
-3.266305923461914062e-01
2.561295330524444580e-01
1.603131531737744808e-03
5.356184765696525574e-02
-1.959094256162643433e-01
1.454655230045318604e-01
5.751340091228485107e-02
-6.578380707651376724e-03
1.925749937072396278e-03
-1.821323633193969727e-01
1.131038740277290344e-01
-9.662971645593643188e-02
-1.337884217500686646e-01
7.622727751731872559e-02
1.396854370832443237e-01
-1.417726576328277588e-01
-1.065934225916862488e-01
-2.795286662876605988e-02
-1.767672449350357056e-01
-1.210917383432388306e-01
1.334192901849746704e-01
-2.770003338810056448e-04
-5.093776807188987732e-02
1.258819252252578735e-01
-2.357789278030395508e-01
2.436060905456542969e-01
-3.343489170074462891e-01
-3.660200834274291992e-01
3.138422593474388123e-02
-2.092188596725463867e-01
8.677953854203224182e-03
-1.224856451153755188e-01
9.447548538446426392e-02
-6.501806378364562988e-01
-1.954878866672515869e-01
4.687508568167686462e-03
-3.288237452507019043e-01
-5.382570624351501465e-02
5.259150266647338867e-02
6.243519484996795654e-02
-4.021102786064147949e-01
-3.181309700012207031e-01
-1.691623777151107788e-02
-5.391257405281066895e-01
-1.757810711860656738e-01
-2.113449871540069580e-01
4.451649636030197144e-02
-4.290329813957214355e-01
-1.896359771490097046e-02
-8.291521668434143066e-01
-1.326746046543121338e-01
-2.830072641372680664e-01
-5.595090240240097046e-02
-3.992649018764495850e-01
-3.363274037837982178e-01
1.389715820550918579e-02
-6.697703152894973755e-02
-3.532412275671958923e-02
-2.851724326610565186e-01
4.103845357894897461e-02
-2.343473285436630249e-01
2.477109432220458984e-02
-1.369413882493972778e-01
-4.651676416397094727e-01
1.678789407014846802e-01
9.609900116920471191e-01
-3.050554990768432617e-01
-5.537952184677124023e-01
-4.784933030605316162e-01
-3.741116523742675781e-01
-3.180480003356933594e-01
-4.473244249820709229e-01
-2.204044610261917114e-01
8.287183642387390137e-01
-2.334289550781250000e-01
7.851126194000244141e-01
-2.756531238555908203e-01
7.046148777008056641e-01
6.163882017135620117e-01
-1.552611887454986572e-01
-5.038500577211380005e-02
2.675627470016479492e-01
-7.110334634780883789e-01
-4.558509588241577148e-01
-6.773794293403625488e-01
-3.744154572486877441e-01
-5.929231643676757812e-02
-6.353479623794555664e-01
5.322245135903358459e-02
4.159122705459594727e-01
4.845215007662773132e-02
2.301599644124507904e-02
-2.624234259128570557e-01
-2.288554459810256958e-01
-7.365013957023620605e-01
-4.395246878266334534e-02
-3.706295788288116455e-01
-3.714831173419952393e-01
2.312301695346832275e-01
3.201151639223098755e-02
-1.021857783198356628e-01
-1.435682326555252075e-01
-1.134662330150604248e-01
5.243661999702453613e-02
-4.882894083857536316e-02
-4.798308908939361572e-01
-3.186114877462387085e-02
-3.846265971660614014e-01
-1.755218021571636200e-03
-2.455782890319824219e-01
-2.455834448337554932e-01
6.439385563135147095e-02
-1.020601987838745117e-01
-1.384402811527252197e-01
2.639462351799011230e-01
1.037423908710479736e-01
2.180240005254745483e-01
1.091749668121337891e-01
-4.380213096737861633e-02
2.317336499691009521e-01
-3.524979054927825928e-01
1.029667556285858154e-01
-3.632310032844543457e-01
-2.583606541156768799e-01
-2.535151243209838867e-01
-1.128577291965484619e-01
3.178004026412963867e-01
-2.928917407989501953e-01
-2.370898723602294922e-01
-6.164851188659667969e-01
4.043003320693969727e-01
-2.575896680355072021e-01
-6.142278313636779785e-01
-4.665384590625762939e-01
-6.597558259963989258e-01
-1.621944010257720947e-01
-1.081258207559585571e-01
-5.091395378112792969e-01
-4.145224988460540771e-01
-5.753133296966552734e-01
2.576365508139133453e-02
-5.549895763397216797e-01
-7.069094181060791016e-01
2.500303089618682861e-01
8.562715724110603333e-03
2.952035367488861084e-01
-1.694790124893188477e-01
-1.422678977251052856e-01
1.529937423765659332e-02
3.116678595542907715e-01
1.967033594846725464e-01
-9.516160190105438232e-02
-2.299288101494312286e-02
-2.178871363867074251e-04
-1.960668265819549561e-01
-1.405494213104248047e-01
-1.224477589130401611e-01
-4.215853214263916016e-01
-2.624016106128692627e-01
1.212610900402069092e-01
2.457454353570938110e-01
-4.052739143371582031e-01
3.109310008585453033e-02
3.897265717387199402e-02
2.893370687961578369e-01
1.185477003455162048e-01
1.132664307951927185e-01
2.057720422744750977e-01
1.407926529645919800e-01
-3.980670496821403503e-02
1.744972467422485352e-01
-1.599640995264053345e-01
2.260980755090713501e-01
-2.734853327274322510e-01
-2.698031663894653320e-01
6.103790551424026489e-02
2.273245602846145630e-01
-1.466653347015380859e-01
1.941243857145309448e-01
1.820296347141265869e-01
-1.071913838386535645e-01
1.996960341930389404e-01
9.364505112171173096e-02
1.191968992352485657e-01
1.871984452009201050e-01
-1.073311492800712585e-01
1.287999004125595093e-01
1.700567305088043213e-01
5.729280412197113037e-02
1.778459697961807251e-01
2.541383504867553711e-01
-5.897998809814453125e-01
3.037737309932708740e-01
-3.960698246955871582e-01
-6.441571563482284546e-02
-6.471067667007446289e-01
-2.610617876052856445e-01
-5.640341043472290039e-01
-2.682986855506896973e-01
1.137301474809646606e-01
-3.808325827121734619e-01
-1.617253422737121582e-01
-3.160901665687561035e-01
-8.169173449277877808e-02
6.914294324815273285e-03
-2.465821504592895508e-01
-2.682456970214843750e-01
1.352333575487136841e-01
5.974134802818298340e-02
-4.467346370220184326e-01
1.740996539592742920e-01
1.049901619553565979e-01
-6.375294178724288940e-02
-1.941120326519012451e-01
-1.087562963366508484e-01
1.765213906764984131e-02
4.759860038757324219e-02
8.528221398591995239e-02
8.902685344219207764e-02
2.250979393720626831e-01
-5.803205966949462891e-01
1.426512561738491058e-02
-1.113620493561029434e-02
-4.727773834019899368e-03
-6.077662110328674316e-02
7.927849888801574707e-02
1.187759116291999817e-01
1.556655578315258026e-02
-2.228533662855625153e-02
4.705514013767242432e-02
9.890864044427871704e-02
4.859732463955879211e-02
1.164267733693122864e-01
-2.532983012497425079e-02
9.768189862370491028e-03
8.648961037397384644e-02
-1.835158169269561768e-01
-9.334870427846908569e-02
2.833589166402816772e-02
1.755942404270172119e-01
7.899796217679977417e-02
2.231870964169502258e-02
1.008423324674367905e-02
-6.865692138671875000e-02
2.327252030372619629e-01
9.713128209114074707e-02
2.222148030996322632e-01
2.200910449028015137e-01
5.240042693912982941e-03
-7.657467387616634369e-03
-5.909046158194541931e-03
-5.556083843111991882e-02
-8.224731427617371082e-04
2.941054664552211761e-02
1.231350451707839966e-01
4.796303436160087585e-02
-2.131472527980804443e-01
-2.597457170486450195e-01
-2.688562572002410889e-01
1.339184492826461792e-01
1.442415416240692139e-01
9.291929751634597778e-02
3.125413507223129272e-02
3.592498600482940674e-02
-2.948570847511291504e-01
-1.815803945064544678e-01
-6.638205796480178833e-02
-5.031132698059082031e-02
1.255807429552078247e-01
-2.766760885715484619e-01
-1.563966870307922363e-01
-4.026118516921997070e-01
-3.110094964504241943e-01
-1.249247789382934570e-01
7.413857430219650269e-02
1.693084686994552612e-01
-2.649419568479061127e-02
-3.124022297561168671e-02
-3.157573342323303223e-01
4.540131613612174988e-02
-2.413444034755229950e-02
-1.588435024023056030e-01
-1.074348613619804382e-01
-2.279369533061981201e-01
1.235999818891286850e-02
2.449851110577583313e-02
-3.156384453177452087e-02
-3.303855955600738525e-01
-1.241706460714340210e-01
-4.799622893333435059e-01
5.886214226484298706e-02
-1.997213065624237061e-01
-4.917794764041900635e-01
-6.704162061214447021e-02
-4.606022536754608154e-01
1.187861412763595581e-01
-1.030022725462913513e-01
-3.352850079536437988e-01
-2.734208405017852783e-01
-4.881378114223480225e-01
2.221859991550445557e-01
-4.368257522583007812e-01
-1.849657595157623291e-01
1.046360954642295837e-01
-9.818886220455169678e-02
-3.114195764064788818e-01
7.749584317207336426e-02
-1.378869451582431793e-02
-9.860899299383163452e-03
2.916795611381530762e-01
5.923866108059883118e-02
2.342164516448974609e-01
-1.864259690046310425e-01
1.584090441465377808e-01
-3.489575982093811035e-01
-3.014696240425109863e-01
-6.095803156495094299e-02
-2.998075187206268311e-01
1.475330144166946411e-01
2.746472693979740143e-02
1.754958066157996655e-03
3.920448124408721924e-01
1.540754735469818115e-01
-1.391072422266006470e-01
-2.023223787546157837e-02
3.945094048976898193e-01
3.062418699264526367e-01
2.366543859243392944e-01
3.264923393726348877e-01
1.461497545242309570e-01
3.913995251059532166e-02
9.089893847703933716e-02
2.329374104738235474e-02
1.900991201400756836e-01
3.262051641941070557e-01
4.818353950977325439e-01
3.251557946205139160e-01
3.920492529869079590e-02
5.307751521468162537e-02
-5.536631494760513306e-02
2.106473147869110107e-01
4.662922769784927368e-02
4.264191091060638428e-01
1.911080777645111084e-01
1.111803725361824036e-01
7.407187670469284058e-02
1.372421234846115112e-01
4.193138331174850464e-03
2.306435108184814453e-01
-2.379226265475153923e-03
1.182360127568244934e-01
4.805204868316650391e-01
2.589107453823089600e-01
-3.246489465236663818e-01
3.753032982349395752e-01
3.011899888515472412e-01
4.336985945701599121e-01
1.831017136573791504e-01
7.225143909454345703e-01
-1.738964170217514038e-01
5.845767259597778320e-01
-3.468651771545410156e-01
4.362849593162536621e-01
-2.647221386432647705e-01
1.841960102319717407e-01
-2.258642464876174927e-01
-1.438960582017898560e-01
4.535355567932128906e-01
5.287430882453918457e-01
1.211102232336997986e-01
8.288569748401641846e-02
9.448816627264022827e-02
-8.324911445379257202e-02
-7.120034843683242798e-02
3.891999125480651855e-01
-1.265085786581039429e-01
3.777583837509155273e-01
-2.582894861698150635e-01
4.645455777645111084e-01
4.372305572032928467e-01
3.193520903587341309e-01
1.507094502449035645e-01
-4.069074243307113647e-02
-2.248973101377487183e-01
-2.021809667348861694e-02
4.568718671798706055e-01
-1.293099522590637207e-01
-3.854286298155784607e-02
-2.837800979614257812e-01
-1.710589081048965454e-01
-6.952573359012603760e-02
-2.044105678796768188e-01
-2.394382953643798828e-01
2.740280926227569580e-01
-1.602855771780014038e-01
1.124747395515441895e-01
-4.745409265160560608e-02
1.662838459014892578e-01
2.814109921455383301e-01
-2.362459003925323486e-01
-2.749759554862976074e-01
1.963335871696472168e-01
-2.399234771728515625e-01
-6.954506784677505493e-02
-8.652039617300033569e-02
-3.363152444362640381e-01
-5.929394811391830444e-02
4.604789137374609709e-04
-1.749538183212280273e-01
2.897582352161407471e-01
-1.743996441364288330e-01
-2.719527184963226318e-01
-1.309779584407806396e-01
-1.124815568327903748e-01
-2.039941102266311646e-01
-1.251101642847061157e-01
6.266134232282638550e-02
-1.250050961971282959e-03
-4.209515079855918884e-02
8.690078556537628174e-02
1.762565523386001587e-01
1.376851648092269897e-02
-1.299580931663513184e-01
2.547784745693206787e-01
-6.884238217025995255e-03
4.972411319613456726e-03
2.108838856220245361e-01
-7.115505635738372803e-02
2.799512073397636414e-02
8.044322952628135681e-03
-9.422904998064041138e-02
2.565808361396193504e-03
1.118076383136212826e-03
2.846145033836364746e-01
6.428965926170349121e-02
1.529512275010347366e-02
1.246926337480545044e-01
-9.280454367399215698e-02
3.631087392568588257e-02
4.481970332562923431e-03
-4.460894316434860229e-02
-1.451900787651538849e-02
8.213399350643157959e-02
4.218029323965311050e-03
-3.314312547445297241e-02
-1.343112438917160034e-01
1.080437190830707550e-02
7.644646614789962769e-02
4.305014014244079590e-02
5.055010691285133362e-02
-5.561394244432449341e-02
-1.353276073932647705e-01
-1.545259207487106323e-01
1.030153483152389526e-01
-1.013632938265800476e-01
6.980326026678085327e-02
-8.938940614461898804e-02
8.219151943922042847e-02
-1.514124870300292969e-01
-2.042662538588047028e-02
1.916576325893402100e-01
-7.705637812614440918e-02
-7.428284734487533569e-02
-1.335316002368927002e-01
-1.549865603446960449e-01
-6.978884339332580566e-02
1.912142932415008545e-01
1.170267164707183838e-01
-8.439664542675018311e-02
-6.152790039777755737e-02
-1.806243658065795898e-01
-9.242460131645202637e-03
-3.217763453722000122e-02
-3.635356202721595764e-02
-3.805602435022592545e-03
-8.974595367908477783e-02
2.585387043654918671e-02
-1.613743901252746582e-01
5.324681103229522705e-02
-2.365235388278961182e-01
-1.724216192960739136e-01
-1.616101413965225220e-01
3.631234765052795410e-01
-2.112064510583877563e-01
-6.800254434347152710e-02
-4.003053009510040283e-01
1.209184378385543823e-01
6.438172422349452972e-03
-1.242676470428705215e-02
-5.589745640754699707e-01
-1.516731977462768555e-01
-4.671761393547058105e-01
1.172120682895183563e-03
-9.473619610071182251e-02
-4.528817906975746155e-02
3.261742293834686279e-01
2.875895500183105469e-01
-2.674283385276794434e-01
1.330339610576629639e-01
1.169390305876731873e-01
3.505749702453613281e-01
3.509847819805145264e-01
2.349396198987960815e-01
1.944906115531921387e-01
-2.604201436042785645e-01
2.559185922145843506e-01
-1.244610175490379333e-01
-2.515985630452632904e-02
-2.476395666599273682e-01
5.533618107438087463e-02
1.614237278699874878e-01
-4.541638493537902832e-01
7.954186946153640747e-02
3.323834389448165894e-02
8.030421286821365356e-02
-1.529459804296493530e-01
-2.826163172721862793e-01
-1.947669684886932373e-01
2.994357980787754059e-02
8.460596948862075806e-02
1.313471049070358276e-01
-1.397225819528102875e-02
-9.896288812160491943e-02
-2.170575112104415894e-01
-2.245819196105003357e-02
-5.693586170673370361e-02
4.696670547127723694e-02
1.100690737366676331e-01
5.570604279637336731e-02
-1.547910273075103760e-01
-1.860489137470722198e-02
1.864064112305641174e-02
1.211714893579483032e-01
2.034782022237777710e-01
5.182112753391265869e-02
2.230811119079589844e-01
9.862411767244338989e-02
4.301719963550567627e-01
1.150916237384080887e-02
1.333763301372528076e-01
1.418833062052726746e-02
-5.191572010517120361e-02
7.606121897697448730e-02
3.870562016963958740e-01
1.186805292963981628e-01
-7.596717774868011475e-02
4.344834387302398682e-01
2.282339334487915039e-01
1.416132450103759766e-01
3.103104531764984131e-01
3.864546716213226318e-01
-1.532116085290908813e-01
3.733611106872558594e-01
-4.378472641110420227e-02
3.815220892429351807e-01
-8.941499143838882446e-02
2.679017744958400726e-02
2.108168229460716248e-02
2.504068240523338318e-02
2.316492348909378052e-01
3.576132059097290039e-01
4.552269279956817627e-01
-1.957308501005172729e-02
1.414279453456401825e-02
-1.068064421415328979e-01
-1.497310996055603027e-01
3.633849322795867920e-01
-1.246475502848625183e-01
1.726633310317993164e-01
-1.707827113568782806e-02
1.482842713594436646e-01
8.665123581886291504e-02
5.354353189468383789e-01
6.575260311365127563e-02
-7.248971611261367798e-02
-6.298957467079162598e-01
-1.315546035766601562e-01
4.055060744285583496e-01
-3.994953632354736328e-02
-5.196866393089294434e-01
-4.993377327919006348e-01
-2.628844976425170898e-01
-3.699365258216857910e-01
-3.203222751617431641e-01
-6.777305155992507935e-02
3.849761486053466797e-01
-3.352103531360626221e-01
1.875375658273696899e-01
-2.025183290243148804e-01
2.927725911140441895e-01
1.302081495523452759e-01
1.498316079378128052e-01
-1.063060835003852844e-01
1.165877655148506165e-01
-2.630168497562408447e-01
-1.486986130475997925e-01
-4.508668184280395508e-01
-8.597114682197570801e-02
1.156828328967094421e-01
-3.793306350708007812e-01
-2.319303303956985474e-01
2.912961840629577637e-01
-1.120743602514266968e-01
-1.212799251079559326e-01
-1.796497851610183716e-01
-3.400223553180694580e-01
-3.058526217937469482e-01
1.204309016466140747e-01
3.099761009216308594e-01
-2.417432516813278198e-02
2.413789033889770508e-01
1.011982709169387817e-01
4.092711508274078369e-01
3.127604722976684570e-02
5.009472966194152832e-01
-2.032327204942703247e-01
2.032061368227005005e-01
2.609691955149173737e-02
3.093519508838653564e-01
-8.115480840206146240e-02
-1.174111142754554749e-01
-3.443563356995582581e-02
-5.186984315514564514e-02
3.211097419261932373e-01
2.899121344089508057e-01
-7.519729435443878174e-02
-1.016183421015739441e-01
9.048891067504882812e-02
1.737858802080154419e-01
1.811289042234420776e-02
3.041739761829376221e-01
-9.644476324319839478e-02
2.183004021644592285e-01
-4.742003381252288818e-01
3.926731348037719727e-01
1.648005843162536621e-01
1.706239953637123108e-02
4.855074286460876465e-01
-3.355173394083976746e-02
-1.794887334108352661e-01
-1.642402708530426025e-01
-9.880288504064083099e-03
-1.823966503143310547e-01
4.580846801400184631e-02
-8.121829479932785034e-03
-2.296415157616138458e-02
-2.995353639125823975e-01
1.201447919011116028e-01
-1.105673462152481079e-01
-4.179110005497932434e-02
-2.116155624389648438e-02
-2.878764830529689789e-02
-1.136238873004913330e-01
1.358269751071929932e-01
2.021255791187286377e-01
-1.195441111922264099e-01
-2.385703623294830322e-01
-2.433097809553146362e-01
-2.206474691629409790e-01
-1.516285538673400879e-01
-8.169340435415506363e-04
9.098549932241439819e-02
-2.055313885211944580e-01
4.776917397975921631e-03
-3.625907748937606812e-02
-9.868985414505004883e-02
-1.385563313961029053e-01
-1.954708546400070190e-01
6.113967299461364746e-02
-4.088947549462318420e-02
-9.432697296142578125e-02
-3.428988456726074219e-01
-1.800307035446166992e-01
4.437018334865570068e-01
-1.729820221662521362e-01
-2.501699626445770264e-01
-3.254466354846954346e-01
-2.787171900272369385e-01
-3.270656764507293701e-01
-8.719518035650253296e-02
-3.289342820644378662e-01
3.473541736602783203e-01
-2.286977767944335938e-01
1.976282596588134766e-01
-1.920511573553085327e-01
1.819808334112167358e-01
1.650375574827194214e-01
-1.766777783632278442e-01
-1.587754189968109131e-01
3.328233957290649414e-01
-2.732041180133819580e-01
-2.102987766265869141e-01
-1.642778515815734863e-01
-1.553893536329269409e-01
8.187622576951980591e-02
-1.938813626766204834e-01
-3.460275828838348389e-01
1.667212545871734619e-01
-1.552703678607940674e-01
-1.547016948461532593e-01
-1.696443259716033936e-01
-1.951037943363189697e-01
-1.368706822395324707e-01
-2.372723259031772614e-02
4.924210011959075928e-01
3.785170018672943115e-01
-3.034740686416625977e-01
-1.875866353511810303e-01
9.106082469224929810e-02
-2.328486591577529907e-01
2.748134136199951172e-01
-6.323081254959106445e-02
-4.170307219028472900e-01
6.182463169097900391e-01
4.252612963318824768e-02
6.528578996658325195e-01
2.933494150638580322e-01
7.724846154451370239e-02
-4.256967455148696899e-02
-3.643622100353240967e-01
1.044571176171302795e-01
-3.097605109214782715e-01
2.068002372980117798e-01
3.270954787731170654e-01
-7.245092093944549561e-02
-1.929252892732620239e-01
-4.196430742740631104e-01
-1.145092025399208069e-01
5.882458686828613281e-01
3.702033758163452148e-01
4.509116411209106445e-01
7.782673239707946777e-01
-7.299259305000305176e-02
2.581859230995178223e-01
-8.544330485165119171e-03
-1.353132128715515137e-01
-9.494380652904510498e-02
4.383993744850158691e-01
-9.400399774312973022e-02
-3.849804401397705078e-01
9.012719243764877319e-02
-2.468757927417755127e-01
4.072774946689605713e-02
-5.064216256141662598e-01
2.029299288988113403e-01
4.127237796783447266e-01
3.651007264852523804e-02
3.561279475688934326e-01
-4.236534237861633301e-01
2.500729560852050781e-01
1.553723216056823730e-01
7.554871588945388794e-02
1.385890245437622070e-01
2.305919378995895386e-01
-6.246852278709411621e-01
-4.219018220901489258e-01
-5.446629524230957031e-01
-3.954860270023345947e-01
2.078366875648498535e-01
-6.340903639793395996e-01
-1.531576961278915405e-01
1.951477825641632080e-01
1.377771198749542236e-01
-1.452643871307373047e-01
-1.172510311007499695e-01
-5.861526355147361755e-02
-5.962263941764831543e-01
-1.688839942216873169e-01
8.300250768661499023e-02
1.739512830972671509e-01
2.530084848403930664e-01
-1.422495841979980469e-01
-2.663813233375549316e-01
-1.540191918611526489e-01
1.218368709087371826e-01
-2.903842926025390625e-01
8.247856795787811279e-02
1.885705143213272095e-01
-2.800228297710418701e-01
9.419255703687667847e-02
-9.889465756714344025e-03
-6.568427383899688721e-02
-1.048470064997673035e-01
4.126597642898559570e-01
2.481650859117507935e-01
1.744257211685180664e-01
-1.496348828077316284e-01
-5.000902712345123291e-02
-2.772378325462341309e-01
-1.150226779282093048e-02
2.727684974670410156e-01
-6.772323697805404663e-02
1.785314530134201050e-01
1.497603356838226318e-01
1.057959273457527161e-01
2.129427492618560791e-01
3.280062228441238403e-03
1.022537797689437866e-01
-2.757319509983062744e-01
-2.209365665912628174e-01
-5.514430627226829529e-02
5.758787319064140320e-02
-2.559117078781127930e-01
-2.145317494869232178e-01
-4.351562261581420898e-01
-1.119487583637237549e-01
-1.611833125352859497e-01
6.369201838970184326e-02
-8.756566792726516724e-02
9.451913833618164062e-02
-2.677239477634429932e-01
-5.651202425360679626e-02
2.236867994070053101e-01
-5.885934457182884216e-02
-1.098468452692031860e-01
-1.358883380889892578e-01
-2.659949064254760742e-01
-2.243415564298629761e-01
1.582287251949310303e-01
1.616023033857345581e-01
3.107944875955581665e-02
-5.179140344262123108e-02
-2.348721176385879517e-01
-4.415309429168701172e-02
-2.626576721668243408e-01
2.856641113758087158e-01
-5.264592915773391724e-02
-4.244818910956382751e-02
1.454659998416900635e-01
-2.441109418869018555e-01
6.178208068013191223e-02
1.305841207504272461e-01
-1.086749508976936340e-01
-2.694576382637023926e-01
-7.118691504001617432e-02
1.136243566870689392e-01
-4.998908191919326782e-02
1.348940581083297729e-01
-3.229700624942779541e-01
5.291573330760002136e-02
-9.709246456623077393e-02
-8.136767894029617310e-02
1.965869069099426270e-01
-1.164526045322418213e-01
1.407704502344131470e-01
-1.546519696712493896e-01
-3.357596993446350098e-01
-4.777965843677520752e-01
-3.498150110244750977e-01
9.890179336071014404e-02
-1.172484457492828369e-01
-1.354249119758605957e-01
6.429075449705123901e-02
-1.994388997554779053e-01
-3.025993704795837402e-01
-2.445239946246147156e-02
-2.146021574735641479e-01
2.081362158060073853e-02
1.406077668070793152e-02
-8.347394317388534546e-02
1.041285842657089233e-01
-2.347351312637329102e-01
1.858470961451530457e-02
-1.748190075159072876e-01
5.632103234529495239e-02
-3.224220573902130127e-01
-8.196108043193817139e-02
-2.042905092239379883e-01
6.117712706327438354e-02
1.198784913867712021e-02
-1.378597170114517212e-01
1.068202499300241470e-02
-5.745276063680648804e-02
-1.227489560842514038e-01
-3.453385531902313232e-01
-1.559865660965442657e-02
1.581605970859527588e-01
-4.197639226913452148e-01
-3.413907885551452637e-01
-1.338830590248107910e-01
7.045647501945495605e-02
-6.659932434558868408e-02
-9.072128683328628540e-02
-4.160810634493827820e-02
-1.223625689744949341e-01
-9.708389639854431152e-02
-2.840048074722290039e-02
-8.057126402854919434e-02
-6.766759604215621948e-02
-3.414902985095977783e-01
9.927444159984588623e-02
9.445510804653167725e-02
-8.703428320586681366e-03
4.383528232574462891e-02
-2.052261680364608765e-01
-3.614297136664390564e-02
-6.476834416389465332e-02
-2.221000194549560547e-01
-7.029967010021209717e-02
9.611422568559646606e-02
-1.649055331945419312e-01
7.761335372924804688e-02
-2.095915973186492920e-01
-2.132915891706943512e-02
-6.265717558562755585e-03
-8.161249756813049316e-02
1.405640095472335815e-01
-1.882347911596298218e-01
-3.924220800399780273e-02
-1.400381922721862793e-01
2.017626166343688965e-02
-1.582141220569610596e-01
-3.245848417282104492e-02
-1.747378259897232056e-01
-1.853460669517517090e-01
-2.027870118618011475e-01
-1.884409487247467041e-01
-3.738536313176155090e-02
-1.003425046801567078e-01
2.181569347158074379e-03
-8.297891914844512939e-02
1.203064545989036560e-01
-2.286428958177566528e-01
-2.714043259620666504e-01
1.265744268894195557e-01
-1.798253059387207031e-01
-1.958374232053756714e-01
4.370225369930267334e-01
4.542997777462005615e-01
4.754917696118354797e-02
1.112828180193901062e-01
4.711940586566925049e-01
7.039276361465454102e-01
2.276289165019989014e-01
4.652952551841735840e-01
-1.335366219282150269e-01
3.772175312042236328e-01
4.542262256145477295e-01
5.727459788322448730e-01
3.615660667419433594e-01
-1.797280833125114441e-02
4.610587954521179199e-01
4.021408259868621826e-01
2.926400005817413330e-01
5.440453886985778809e-01
3.000573515892028809e-01
1.280224621295928955e-01
3.076334297657012939e-01
-1.453941464424133301e-01
5.994240194559097290e-02
2.307960689067840576e-01
2.008363790810108185e-02
6.312782168388366699e-01
-3.636479973793029785e-01
6.897679567337036133e-01
5.165293216705322266e-01
3.011755943298339844e-01
4.959145486354827881e-01
4.900468140840530396e-02
1.471926569938659668e-01
8.352073282003402710e-02
-2.938664257526397705e-01
1.591201573610305786e-01
-1.818059682846069336e-01
1.163798347115516663e-01
-3.558526933193206787e-02
7.285622358322143555e-01
7.799860835075378418e-02
5.259496569633483887e-01
-9.186352044343948364e-02
-2.915049344301223755e-02
-1.070791482925415039e-01
1.418761163949966431e-01
-4.385261833667755127e-01
-4.490581452846527100e-01
4.999744892120361328e-01
3.555199503898620605e-01
-2.289981245994567871e-01
2.834053933620452881e-01
7.796549052000045776e-02
5.588343739509582520e-02
1.500402987003326416e-01
4.226174652576446533e-01
6.773535907268524170e-02
3.325064182281494141e-01
-5.570083111524581909e-02
1.771311014890670776e-01
4.412893950939178467e-01
3.558562994003295898e-01
1.893505305051803589e-01
1.639735847711563110e-01
-1.441995650529861450e-01
1.527190506458282471e-01
1.523455232381820679e-01
-2.506642341613769531e-01
-3.831198513507843018e-01
4.743354395031929016e-02
-4.117916151881217957e-02
-1.219740137457847595e-01
1.289720386266708374e-01
-1.553162038326263428e-01
1.410891711711883545e-01
1.496633440256118774e-01
3.237040713429450989e-02
1.699005663394927979e-01
8.285724371671676636e-02
-1.499483734369277954e-01
-3.016996979713439941e-01
-2.317633181810379028e-01
-3.592285811901092529e-01
1.549941115081310272e-02
2.460965700447559357e-02
-2.048714458942413330e-01
-1.164696812629699707e-01
-3.634728789329528809e-01
-6.946469098329544067e-02
-9.671051800251007080e-02
3.733733892440795898e-01
6.660256534814834595e-02
8.020690083503723145e-02
-1.188018992543220520e-01
-1.322740614414215088e-01
-2.842075005173683167e-02
-1.079823356121778488e-02
-2.287750691175460815e-01
5.094725638628005981e-02
8.784016966819763184e-02
6.912325322628021240e-02
2.829328365623950958e-02
1.879111677408218384e-01
1.278660595417022705e-01
2.233573347330093384e-01
6.200445443391799927e-02
-3.471239805221557617e-01
1.196617707610130310e-01
-1.462643146514892578e-01
9.146378189325332642e-02
-9.004857391119003296e-02
-1.082861497998237610e-01
1.700111925601959229e-01
2.013949491083621979e-02
-7.408805936574935913e-02
1.426480263471603394e-01
-4.001892730593681335e-02
4.508042931556701660e-01
2.534606456756591797e-01
1.410059034824371338e-01
4.084604382514953613e-01
-2.164164483547210693e-01
1.106651723384857178e-01
-1.573966145515441895e-01
-7.617083936929702759e-02
1.671008318662643433e-01
-1.858525425195693970e-01
3.641584515571594238e-01
2.015908360481262207e-01
-1.428920626640319824e-01
-1.134643435478210449e+00
4.928751587867736816e-01
3.568719625473022461e-01
-4.037628322839736938e-02
3.039924800395965576e-01
-3.562971949577331543e-02
1.714726835489273071e-01
6.255939602851867676e-01
-6.978499889373779297e-01
2.170033156871795654e-01
-1.351017713546752930e+00
2.126765251159667969e-01
-7.996784448623657227e-01
-3.846292793750762939e-01
6.102768778800964355e-01
4.768956452608108521e-02
-3.714562058448791504e-01
-6.352041964419186115e-04
-1.200957149267196655e-01
2.030548304319381714e-01
3.585373461246490479e-01
5.335329771041870117e-01
4.041682481765747070e-01
-2.271649092435836792e-01
-2.831496596336364746e-01
-2.542316615581512451e-01
-2.725390493869781494e-01
4.125421643257141113e-01
5.917030200362205505e-02
3.008933365345001221e-01
-3.728102147579193115e-01
-1.470099091529846191e-01
6.589688658714294434e-01
6.289502978324890137e-02
-2.823178172111511230e-01
-2.581017911434173584e-01
-2.600845098495483398e-01
-2.751416862010955811e-01
-2.758519053459167480e-01
-2.834149897098541260e-01
5.183921456336975098e-01
-1.741972267627716064e-01
2.552056014537811279e-01
-4.118660688400268555e-01
1.711745113134384155e-01
3.984251916408538818e-01
1.773664802312850952e-01
-1.316264271736145020e-01
3.146642446517944336e-01
-6.847057342529296875e-01
-5.439058542251586914e-01
-3.690572381019592285e-01
-5.169584155082702637e-01
1.564138382673263550e-01
-4.176279902458190918e-01
-1.190056353807449341e-01
3.981881737709045410e-01
-3.135846257209777832e-01
-3.679924905300140381e-01
-1.694327779114246368e-02
-1.616161763668060303e-01
-6.709501147270202637e-01
4.183646291494369507e-02
-3.127667605876922607e-01
-2.990023195743560791e-01
4.739628173410892487e-03
9.438577294349670410e-02
-1.185519322752952576e-01
-1.775228418409824371e-02
-1.804008483886718750e-01
5.003017187118530273e-02
6.828776746988296509e-02
-3.082010149955749512e-01
5.853975191712379456e-02
-2.262873649597167969e-01
-6.481459736824035645e-02
5.162690952420234680e-02
5.792419984936714172e-02
-4.421405866742134094e-02
-3.772278130054473877e-02
-1.353889554738998413e-01
1.625572144985198975e-01
1.164472997188568115e-01
1.186104342341423035e-01
2.866945862770080566e-01
-1.508138328790664673e-01
1.853855401277542114e-01
-2.858918309211730957e-01
-2.419010847806930542e-01
-1.897652745246887207e-01
-1.336586028337478638e-01
-4.943867027759552002e-02
-4.215317219495773315e-02
2.745535969734191895e-01
-2.730632722377777100e-01
-2.750857174396514893e-01
-2.012369930744171143e-01
1.486551463603973389e-01
-1.520686745643615723e-01
-2.531228661537170410e-01
-2.604077458381652832e-01
-4.872991442680358887e-01
-1.771089136600494385e-01
-1.650389283895492554e-01
-1.547856926918029785e-01
-1.445963233709335327e-01
-3.836392164230346680e-01
-7.656323909759521484e-02
-2.238457053899765015e-01
-3.256717920303344727e-01
-2.628168836236000061e-02
-1.282364577054977417e-01
-1.431593149900436401e-01
-3.796521946787834167e-02
-7.517130672931671143e-02
-1.213431209325790405e-01
1.391572505235671997e-01
-2.285973168909549713e-03
-2.875325679779052734e-01
-2.354849129915237427e-01
-1.522734854370355606e-02
-4.115003347396850586e-01
-2.152119874954223633e-01
-2.917504012584686279e-01
-1.521390676498413086e-01
-2.594326809048652649e-02
-4.766154289245605469e-02
-1.412670612335205078e-01
-2.725135087966918945e-01
2.228372246026992798e-01
-1.081203371286392212e-01
-2.459271848201751709e-01
-2.316058874130249023e-01
-9.299509227275848389e-02
-2.689633704721927643e-02
1.202267259359359741e-01
-1.037242785096168518e-01
-3.109187781810760498e-01
-2.521428465843200684e-01
1.937412470579147339e-01
-2.703330516815185547e-01
-3.035360872745513916e-01
2.058574706315994263e-01
-2.815390471369028091e-03
-2.784919366240501404e-02
1.771281957626342773e-01
2.100586742162704468e-01
-3.827981278300285339e-02
2.949410378932952881e-01
1.268284022808074951e-01
1.835530996322631836e-01
-7.857669144868850708e-02
3.542936965823173523e-02
-2.043577730655670166e-01
-1.952219381928443909e-02
-5.351258441805839539e-03
-1.145979389548301697e-01
2.011661678552627563e-01
-2.371544986963272095e-01
-4.668851941823959351e-02
-2.261637747287750244e-01
-2.606023848056793213e-02
-2.666474282741546631e-01
-2.615426480770111084e-01
-3.019551038742065430e-01
-2.537069618701934814e-01
-2.321338653564453125e-02
-2.817590236663818359e-01
-1.295896023511886597e-01
-2.198893427848815918e-01
-1.510260403156280518e-01
1.110108476132154465e-02
-2.650924623012542725e-01
-2.126672863960266113e-01
-6.123890168964862823e-03
-1.188286319375038147e-01
-1.270845383405685425e-01
-2.805906720459461212e-02
7.145497947931289673e-03
-8.082689344882965088e-02
5.546410009264945984e-02
-6.769557297229766846e-02
-1.102611273527145386e-01
-2.031262665987014771e-01
7.786544412374496460e-02
-1.246729716658592224e-01
-1.251475960016250610e-01
-2.174489498138427734e-01
-1.888207346200942993e-01
-8.645927160978317261e-02
1.901630312204360962e-01
9.419485181570053101e-02
-1.879526078701019287e-01
-7.524082902818918228e-03
1.054866313934326172e-01
1.526802778244018555e-01
1.747193485498428345e-01
2.164108902215957642e-01
1.498655974864959717e-01
-9.265907853841781616e-02
-1.770050972700119019e-01
5.383461248129606247e-03
-1.669223606586456299e-01
3.741111233830451965e-02
-2.313211113214492798e-01
-4.736041650176048279e-02
-4.372465610504150391e-02
-7.746131718158721924e-02
3.709918260574340820e-02
8.496221899986267090e-02
5.911848321557044983e-02
2.219409644603729248e-01
-1.457326952368021011e-02
4.605401773005723953e-03
1.899847388267517090e-01
1.481765955686569214e-01
1.725998893380165100e-02
9.836623072624206543e-02
3.322806209325790405e-03
1.362920999526977539e-01
8.232687413692474365e-02
1.381467282772064209e-01
1.982430964708328247e-01
-3.044656515121459961e-01
-3.765097856521606445e-01
6.398163735866546631e-03
2.449336498975753784e-01
1.917549073696136475e-01
1.351631283760070801e-01
3.046271204948425293e-02
2.412061206996440887e-02
-2.644207328557968140e-02
-8.813140541315078735e-02
1.071622446179389954e-01
-3.099939227104187012e-01
-3.612201660871505737e-02
-2.625193893909454346e-01
-2.113330364227294922e-01
-1.435294300317764282e-01
-2.557400166988372803e-01
1.373229473829269409e-01
1.039538979530334473e-01
-4.483527317643165588e-02
-3.137869387865066528e-02
1.829179972410202026e-01
-9.203621000051498413e-02
-2.485684351995587349e-03
-1.524138152599334717e-01
-2.183468639850616455e-01
-1.625031679868698120e-01
-2.197099626064300537e-01
2.724098414182662964e-02
-1.631715334951877594e-02
-3.612204268574714661e-02
-2.756347358226776123e-01
-2.703482508659362793e-01
1.722846925258636475e-02
-1.414519995450973511e-01
-3.610848486423492432e-01
-5.296648144721984863e-01
-2.355148941278457642e-01
-4.683270156383514404e-01
4.212668538093566895e-01
-2.145976573228836060e-01
-1.755944937467575073e-01
-2.328471839427947998e-01
-2.409231215715408325e-01
3.609843924641609192e-02
-2.233403772115707397e-01
-4.351938143372535706e-02
-1.976862102746963501e-01
-4.076324105262756348e-01
-3.999667763710021973e-01
1.608698964118957520e-01
3.512190422043204308e-03
1.995726227760314941e-01
2.680110037326812744e-01
-2.079336345195770264e-01
2.756552696228027344e-01
-3.093130290508270264e-01
4.130638539791107178e-01
-4.571975767612457275e-01
-5.387804508209228516e-01
-1.337178498506546021e-01
-3.817498683929443359e-01
2.728556990623474121e-01
-1.613788157701492310e-01
-4.780434072017669678e-02
5.375699400901794434e-01
6.528449803590774536e-02
1.112041324377059937e-01
-2.428714334964752197e-01
1.613351404666900635e-01
1.887210761196911335e-03
2.325623333454132080e-01
8.740115165710449219e-02
3.132520020008087158e-01
-1.298828274011611938e-01
1.486610770225524902e-01
1.776638813316822052e-02
2.581386566162109375e-01
3.133695423603057861e-01
1.501476913690567017e-01
-2.066601999104022980e-02
2.468143105506896973e-01
-1.796114444732666016e-01
-2.600027024745941162e-01
1.906403005123138428e-01
4.038472473621368408e-02
1.621971279382705688e-01
2.167641371488571167e-01
-1.164508834481239319e-01
4.901959896087646484e-01
1.698047295212745667e-02
-2.039518505334854126e-01
2.995661795139312744e-01
-1.029025241732597351e-01
-5.685151554644107819e-03
1.111189648509025574e-01
3.455748856067657471e-01
-5.475633591413497925e-02
1.623958200216293335e-01
8.455864340066909790e-02
1.651825755834579468e-01
1.307842088863253593e-03
2.363251745700836182e-01
7.017463445663452148e-02
1.551156640052795410e-01
9.617360681295394897e-02
-1.045245379209518433e-01
5.347156524658203125e-02
1.214575171470642090e-01
5.741636455059051514e-02
-1.449375003576278687e-01
2.600261270999908447e-01
2.360471040010452271e-01
-6.856421381235122681e-02
-6.684546917676925659e-02
5.422223359346389771e-02
-1.812933012843132019e-02
6.573831290006637573e-02
1.730447560548782349e-01
-1.718731969594955444e-02
3.101104795932769775e-01
-5.406790599226951599e-02
4.479983448982238770e-01
4.095489382743835449e-01
1.715919524431228638e-01
-3.568625834304839373e-05
-9.110519289970397949e-02
-8.938176184892654419e-02
-9.094233810901641846e-02
2.173519730567932129e-01
-1.307278964668512344e-02
5.108320340514183044e-02
-7.940231263637542725e-02
-1.034072190523147583e-01
-1.150040701031684875e-01
-1.936648637056350708e-01
-1.659739762544631958e-01
3.626846075057983398e-01
-1.135811656713485718e-01
1.621555387973785400e-01
-8.589795976877212524e-02
2.006206959486007690e-01
6.447486579418182373e-02
1.196316480636596680e-01
-3.179540112614631653e-02
3.626883327960968018e-01
-2.710443139076232910e-01
-2.314490377902984619e-01
1.214895281009376049e-03
-1.599620729684829712e-01
1.864657849073410034e-01
-1.404654681682586670e-01
-8.569198101758956909e-02
1.049331650137901306e-01
-4.824496805667877197e-02
-5.916653200984001160e-02
-1.473835706710815430e-01
-9.526981413364410400e-02
-1.055664941668510437e-01
-2.988071553409099579e-02
-9.531915187835693359e-02
-1.478267908096313477e-01
1.639762520790100098e-01
2.546142339706420898e-01
1.469516158103942871e-01
2.502827048301696777e-01
-7.296036928892135620e-02
1.579384952783584595e-01
4.408438876271247864e-02
-1.236339062452316284e-01
4.339303970336914062e-01
-1.596113592386245728e-01
1.867756247520446777e-02
-1.102447956800460815e-01
-5.146236345171928406e-02
1.690908372402191162e-01
1.271474361419677734e-01
-7.913254946470260620e-02
-1.090430021286010742e-01
-1.201038211584091187e-01
-1.727805472910404205e-02
5.872280895709991455e-02
1.303296685218811035e-01
-5.114078521728515625e-02
-1.001298502087593079e-01
-1.741470247507095337e-01
-8.485354483127593994e-02
-7.913499325513839722e-02
6.675331294536590576e-02
-1.227840557694435120e-01
-1.571523696184158325e-01
-1.801251322031021118e-01
1.368036866188049316e-01
7.144805043935775757e-02
-1.530134528875350952e-01
-2.444963306188583374e-01
-2.268309295177459717e-01
-9.942591935396194458e-02
-2.012807577848434448e-01
3.026446700096130371e-02
-3.540697321295738220e-02
2.611190378665924072e-01
-5.296318978071212769e-02
1.540496647357940674e-01
-4.079552739858627319e-02
1.092184633016586304e-01
1.780836656689643860e-02
-2.293311804533004761e-01
-1.110537126660346985e-01
-2.905314564704895020e-01
2.848654286935925484e-03
1.048292368650436401e-01
-1.583510190248489380e-01
7.771966606378555298e-02
-2.088231891393661499e-01
1.204456463456153870e-01
-3.109711594879627228e-02
-1.103076618164777756e-02
1.784456968307495117e-01
-1.036106026731431484e-03
-3.605201095342636108e-02
-9.297326207160949707e-02
8.230395615100860596e-03
-9.695128351449966431e-02
-1.263033449649810791e-01
-5.532589275389909744e-03
1.302868127822875977e-01
-1.416527330875396729e-01
-1.468347012996673584e-02
-3.715585470199584961e-01
1.997262984514236450e-01
1.107780337333679199e-01
-1.248174160718917847e-01
-4.319482147693634033e-01
-1.984522342681884766e-01
-3.522833585739135742e-01
2.447755448520183563e-02
3.175156190991401672e-02
-9.504480659961700439e-02
1.951930820941925049e-01
1.057149916887283325e-01
-2.244187444448471069e-01
2.035687267780303955e-01
1.326816231012344360e-01
2.974176406860351562e-01
3.588463962078094482e-01
1.698116511106491089e-01
1.486526280641555786e-01
-1.706331819295883179e-01
2.427852600812911987e-01
-1.216614469885826111e-01
4.786601662635803223e-02
-1.356224715709686279e-01
8.698798716068267822e-02
1.395420432090759277e-01
-3.869259059429168701e-01
1.370265632867813110e-01
6.314915418624877930e-02
1.105738803744316101e-01
-2.883858680725097656e-01
-2.558689117431640625e-01
-2.156815826892852783e-01
1.343987584114074707e-01
-8.618144690990447998e-02
7.741262670606374741e-03
-5.007652938365936279e-02
-4.381119906902313232e-01
-2.715949714183807373e-02
9.359240531921386719e-02
-1.152187585830688477e-01
-5.185276642441749573e-02
1.468883454799652100e-01
7.026485353708267212e-02
-2.134982049465179443e-01
-1.122531481087207794e-02
2.079464793205261230e-01
1.356546282768249512e-01
6.852435320615768433e-02
5.053678900003433228e-02
1.770627796649932861e-01
8.920032531023025513e-02
3.812921047210693359e-01
3.913234174251556396e-02
2.004190683364868164e-01
5.832703784108161926e-03
7.165502756834030151e-02
2.455276809632778168e-02
2.984362542629241943e-01
9.444891661405563354e-02
-2.667143940925598145e-01
2.565610110759735107e-01
1.690743267536163330e-01
2.590159177780151367e-01
3.881144225597381592e-01
1.060289517045021057e-01
-4.674690589308738708e-02
-6.202071532607078552e-02
-1.048892438411712646e-01
6.810487061738967896e-02
-7.918088138103485107e-02
-2.160444855690002441e-01
5.651970277540385723e-04
-8.470734208822250366e-02
1.891057044267654419e-01
3.120796382427215576e-01
2.306336164474487305e-01
-3.534378409385681152e-01
-2.301361262798309326e-01
-1.139043346047401428e-01
-1.596246063709259033e-01
3.778199255466461182e-01
-2.339748591184616089e-01
2.473384886980056763e-01
-3.744008839130401611e-01
1.546398103237152100e-01
1.779441535472869873e-01
4.342896044254302979e-01
3.062963187694549561e-01
-2.073255032300949097e-01
-5.696483254432678223e-01
8.555649966001510620e-02
5.002635717391967773e-02
1.129791364073753357e-01
-4.884770810604095459e-01
-4.176978170871734619e-01
-3.704105317592620850e-01
-3.279991149902343750e-01
-3.373844921588897705e-01
2.152042835950851440e-02
2.671926021575927734e-01
-5.086619257926940918e-01
2.401090413331985474e-01
-8.977168798446655273e-02
-7.640157639980316162e-02
2.197879925370216370e-02
8.424045890569686890e-02
9.281900525093078613e-02
4.431431889533996582e-01
-1.893510073423385620e-01
-6.263446807861328125e-02
-2.566381990909576416e-01
5.616821348667144775e-02
2.103577405214309692e-01
-4.261650517582893372e-02
4.118423908948898315e-02
8.158188313245773315e-02
3.762327879667282104e-02
4.207683354616165161e-02
-1.179387941956520081e-01
-2.133891731500625610e-01
-1.738672107458114624e-01
5.760707855224609375e-01
4.140697419643402100e-01
-1.250673532485961914e-01
1.941813156008720398e-02
2.979075312614440918e-01
5.944660305976867676e-01
2.754217088222503662e-01
3.698098659515380859e-01
-3.578929007053375244e-01
1.037519648671150208e-01
2.462489157915115356e-01
3.308090269565582275e-01
-9.492297470569610596e-02
2.175771743059158325e-01
-7.428921759128570557e-02
5.022625997662544250e-02
2.115954309701919556e-01
1.382443159818649292e-01
2.626557946205139160e-01
3.105827569961547852e-01
2.096825689077377319e-01
8.233128488063812256e-02
-8.332815021276473999e-03
1.458522379398345947e-01
9.086719900369644165e-02
2.476574629545211792e-01
-3.570343554019927979e-01
3.199834525585174561e-01
3.561236262321472168e-01
1.130652129650115967e-01
3.362860977649688721e-01
7.784985005855560303e-02
-6.784992665052413940e-02
-2.575945556163787842e-01
2.009064704179763794e-02
-1.793564409017562866e-01
-2.666539698839187622e-02
9.569564461708068848e-02
-7.940595597028732300e-02
-2.184198945760726929e-01
-5.680045112967491150e-02
-9.296060353517532349e-02
-1.803809553384780884e-01
-1.292625814676284790e-02
-1.777283698320388794e-01
-8.949969708919525146e-02
3.147607296705245972e-02
1.226707026362419128e-01
4.769464582204818726e-02
-6.776759028434753418e-02
-4.427021369338035583e-02
-2.779008261859416962e-02
-1.291473507881164551e-01
2.012118697166442871e-02
-2.597872018814086914e-01
6.517616659402847290e-02
-7.656192034482955933e-02
-2.082579135894775391e-01
-1.195978745818138123e-01
-3.958778977394104004e-01
-2.114959359169006348e-01
-2.592389583587646484e-01
-1.130117401480674744e-01
-8.973582088947296143e-02
-2.097187638282775879e-01
-2.110250294208526611e-01
6.319539248943328857e-02
1.002606600522994995e-01
-7.663384079933166504e-02
-6.862108409404754639e-02
-6.375143676996231079e-02
-3.267492353916168213e-01
-2.013732939958572388e-01
-1.324309855699539185e-01
2.630676701664924622e-02
-1.200326085090637207e-01
6.756929360562935472e-05
-1.490719467401504517e-01
9.922414273023605347e-02
2.908479049801826477e-02
1.469739675521850586e-01
5.292111262679100037e-02
4.318250715732574463e-01
-3.163840472698211670e-01
-3.055181205272674561e-01
-2.762264013290405273e-01
8.752710372209548950e-02
1.565240919589996338e-01
-3.051635622978210449e-01
-1.598948836326599121e-01
-1.770809739828109741e-01
-1.835643798112869263e-01
-1.773796230554580688e-01
-6.415955722332000732e-02
-1.652962565422058105e-01
-3.176440000534057617e-01
-5.564553663134574890e-02
3.189080953598022461e-01
2.416021823883056641e-01
-3.119526505470275879e-01
-2.321549206972122192e-01
-6.762003153562545776e-02
-2.382181882858276367e-01
4.384450614452362061e-02
9.946180135011672974e-02
-3.539882004261016846e-01
6.385043859481811523e-01
-1.695905178785324097e-01
6.576132178306579590e-01
4.185194075107574463e-01
2.099948823451995850e-01
4.364640265703201294e-02
-3.845645785331726074e-01
8.135534822940826416e-03
-2.037229835987091064e-01
3.100673258304595947e-01
3.122985959053039551e-01
2.842844650149345398e-02
-6.796967983245849609e-02
-3.787573575973510742e-01
1.032290831208229065e-01
4.525938630104064941e-01
3.080482780933380127e-01
3.065034747123718262e-01
3.777677118778228760e-01
-9.204817563295364380e-02
2.112840712070465088e-01
1.174054071307182312e-01
-3.913416564464569092e-01
-1.135033145546913147e-01
5.294111371040344238e-01
-2.353646904230117798e-01
-6.054624915122985840e-01
-9.734538197517395020e-02
-4.278725981712341309e-01
-8.834236860275268555e-02
-1.553021669387817383e-01
-1.934878528118133545e-01
2.189695388078689575e-01
-2.274183183908462524e-01
4.367802143096923828e-01
-6.620572507381439209e-02
2.563589513301849365e-01
2.042124867439270020e-01
-7.215429097414016724e-02
-3.909577056765556335e-02
-8.050492964684963226e-03
-2.454946488142013550e-01
-1.965162456035614014e-01
-2.836681604385375977e-01
-1.507584452629089355e-01
-5.423289537429809570e-02
-2.908482253551483154e-01
-5.988058634102344513e-03
3.535845875740051270e-01
2.266611717641353607e-02
-6.676118820905685425e-02
-3.453260958194732666e-01
-1.405307352542877197e-01
-1.014366373419761658e-01
2.593596279621124268e-01
-5.135134235024452209e-02
-2.566147744655609131e-01
4.232214093208312988e-01
1.946532577276229858e-01
7.067079097032546997e-02
9.800732880830764771e-02
1.321194916963577271e-01
1.226855814456939697e-01
3.288760781288146973e-01
-1.591349840164184570e-01
-8.001514524221420288e-02
-2.052481919527053833e-01
1.345993727445602417e-01
-3.076574504375457764e-01
-3.314606547355651855e-01
3.872867524623870850e-01
1.464700549840927124e-01
1.338060498237609863e-01
7.691631466150283813e-02
-3.837406635284423828e-02
7.139075547456741333e-02
3.079568147659301758e-01
2.818317413330078125e-01
1.427986752241849899e-02
-7.747355382889509201e-03
-6.832092255353927612e-02
2.021902007982134819e-03
1.065186858177185059e-01
1.533332318067550659e-01
2.347042113542556763e-01
5.143881309777498245e-03
-3.666746318340301514e-01
-1.227311789989471436e-01
2.025774270296096802e-01
7.284151017665863037e-02
-2.547898590564727783e-01
-4.110006392002105713e-01
-1.922314912080764771e-01
-2.407237738370895386e-01
-4.501664265990257263e-02
-2.163210511207580566e-02
1.549544781446456909e-01
-2.237524092197418213e-01
1.028213053941726685e-01
8.942365646362304688e-02
1.453954726457595825e-01
1.654165983200073242e-02
-5.804101005196571350e-02
-1.132572665810585022e-01
7.788127404637634754e-04
4.720195755362510681e-02
-2.369407098740339279e-03
2.474532835185527802e-02
1.183677185326814651e-02
-7.007535547018051147e-02
-6.232062727212905884e-02
-1.913396567106246948e-01
4.767713844776153564e-01
-1.206097155809402466e-01
-2.956485152244567871e-01
1.076312065124511719e-01
-4.012152254581451416e-01
-6.696532666683197021e-02
-4.122584462165832520e-01
-4.485458135604858398e-01
2.733796462416648865e-02
1.578824222087860107e-01
-2.905020713806152344e-01
-4.397738277912139893e-01
-1.239656731486320496e-01
-4.955350756645202637e-01
1.250694394111633301e-01
-3.049582242965698242e-01
-3.827674663625657558e-04
-3.407839313149452209e-02
-4.687827453017234802e-02
-4.818809032440185547e-02
9.595207870006561279e-02
3.360324772074818611e-04
-1.039838120341300964e-01
-3.240892887115478516e-01
-2.570954859256744385e-01
-2.547206580638885498e-01
-1.684347987174987793e-01
5.173737555742263794e-02
-1.251654922962188721e-01
-2.234004735946655273e-01
-3.776917979121208191e-02
-1.823322772979736328e-01
1.552371978759765625e-01
-3.851000964641571045e-01
-2.904855310916900635e-01
-1.152449399232864380e-01
-5.214515924453735352e-01
-5.100738629698753357e-02
-1.651557683944702148e-01
1.038286369293928146e-02
-1.958931088447570801e-01
-3.015544265508651733e-02
-1.712860018014907837e-01
2.758040726184844971e-01
4.810848832130432129e-02
2.749311551451683044e-02
3.003927133977413177e-02
-1.232725381851196289e-01
9.041413664817810059e-02
-2.370811253786087036e-01
-7.447091490030288696e-02
1.595326066017150879e-01
-6.344439983367919922e-01
-4.364091455936431885e-01
2.527951821684837341e-02
2.200680673122406006e-01
-1.621360927820205688e-01
1.126832738518714905e-01
1.081330403685569763e-01
-8.541494607925415039e-03
-2.085797488689422607e-01
-1.126368939876556396e-01
-1.865154355764389038e-01
1.590535640716552734e-01
-7.984218746423721313e-02
1.906720697879791260e-01
1.572376638650894165e-01
-1.095257513225078583e-02
2.142531126737594604e-01
2.587183006107807159e-02
-1.934049427509307861e-01
-2.373118102550506592e-01
-7.392155379056930542e-02
-3.149008750915527344e-01
-2.069725394248962402e-01
-7.821308448910713196e-03
-5.210826545953750610e-02
-2.523806989192962646e-01
1.125736683607101440e-01
-1.204335317015647888e-01
-1.053799837827682495e-01
1.839145869016647339e-01
1.374433655291795731e-02
-2.976225921884179115e-03
3.667104756459593773e-03
1.655435711145401001e-01
-2.046793550252914429e-01
-1.791070848703384399e-01
-3.106918334960937500e-01
3.609522804617881775e-02
-7.387946546077728271e-02
1.870942860841751099e-01
8.058689534664154053e-02
-1.182952821254730225e-01
1.895476430654525757e-01
-1.895824372768402100e-01
-1.949049532413482666e-02
-1.457904577255249023e-01
-2.025247216224670410e-01
-1.394360810518264771e-01
-2.287422269582748413e-01
1.771730780601501465e-01
2.672918140888214111e-01
2.468598037958145142e-01
9.288348257541656494e-02
-1.359812766313552856e-01
2.223718911409378052e-01
4.624083042144775391e-01
1.753524690866470337e-01
2.990535199642181396e-01
-6.639735400676727295e-02
1.734466403722763062e-01
3.458764255046844482e-01
2.405278831720352173e-01
2.976138889789581299e-01
6.145405024290084839e-02
3.377140164375305176e-01
3.866292834281921387e-01
1.143596973270177841e-02
4.189613834023475647e-02
1.232023239135742188e-01
-9.544283151626586914e-03
1.005802005529403687e-01
-8.286201953887939453e-02
1.747194528579711914e-01
1.124645695090293884e-01
1.797176450490951538e-01
2.730073034763336182e-01
-5.259967446327209473e-01
6.209134459495544434e-01
1.962489187717437744e-01
3.322666585445404053e-01
1.231644898653030396e-01
1.779263466596603394e-01
1.721250861883163452e-01
3.356222808361053467e-01
-4.321026504039764404e-01
6.760934591293334961e-01
-1.835797578096389771e-01
-1.459463238716125488e-01
-1.541904266923666000e-02
8.875176310539245605e-01
5.785694345831871033e-02
7.389220595359802246e-01
-2.689223289489746094e-01
-1.859218776226043701e-01
-5.654281973838806152e-01
4.999490827322006226e-02
-6.924127340316772461e-01
-6.322824358940124512e-01
8.004097938537597656e-01
5.049400329589843750e-01
-2.095603346824645996e-01
2.632519900798797607e-01
2.232731431722640991e-01
-1.247402280569076538e-01
2.295952737331390381e-01
6.826407313346862793e-01
-5.421872064471244812e-02
3.742717206478118896e-01
1.186875700950622559e-01
7.662639766931533813e-02
3.911563158035278320e-01
5.148284435272216797e-01
3.677910864353179932e-01
-1.477370411157608032e-02
-7.384636402130126953e-01
2.212398648262023926e-01
4.722029864788055420e-01
-2.107670605182647705e-01
-3.414498865604400635e-01
-3.887351155281066895e-01
-2.043850570917129517e-01
-6.036831140518188477e-01
1.616075187921524048e-01
-3.746355175971984863e-01
5.582557320594787598e-01
3.073918633162975311e-02
4.489962160587310791e-01
3.156104683876037598e-02
1.191195100545883179e-01
1.628914773464202881e-01
-3.573946654796600342e-01
-1.893873065710067749e-01
-1.796613819897174835e-02
6.727632880210876465e-02
1.195752713829278946e-02
8.864374831318855286e-03
3.288921713829040527e-02
-3.065778315067291260e-01
1.146581098437309265e-01
-5.121729150414466858e-02
3.172922730445861816e-01
3.088386543095111847e-02
6.317891180515289307e-02
-3.877852261066436768e-01
-3.928070664405822754e-01
1.395776569843292236e-01
2.463504523038864136e-01
5.045552179217338562e-02
2.402984909713268280e-02
1.677164435386657715e-01
3.217758536338806152e-01
4.481643438339233398e-02
2.450547963380813599e-01
3.258751332759857178e-01
-3.972443193197250366e-02
1.785907745361328125e-01
-2.720049023628234863e-01
2.279029637575149536e-01
-4.055831581354141235e-02
5.889155343174934387e-02
-1.097298935055732727e-01
-1.341281831264495850e-01
3.458377718925476074e-02
5.317113175988197327e-02
1.628052741289138794e-01
1.329093277454376221e-01
1.075829565525054932e-01
2.271380573511123657e-01
1.570954322814941406e-01
1.571528911590576172e-01
1.962908953428268433e-01
8.605632930994033813e-02
-3.085100278258323669e-02
-1.610524021089076996e-02
-2.494623186066746712e-03
3.380866050720214844e-01
1.737205982208251953e-01
2.010966986417770386e-01
2.663804404437541962e-02
-1.422321796417236328e-01
-4.454374313354492188e-01
1.940990686416625977e-01
-4.736197181046009064e-03
-3.915963321924209595e-02
-1.795920729637145996e-02
-1.461434960365295410e-01
4.963179826736450195e-01
-3.063883259892463684e-02
-4.540231525897979736e-01
-7.470762729644775391e-02
-5.682403445243835449e-01
1.624619811773300171e-01
-3.849360048770904541e-01
-2.237916141748428345e-01
1.791584938764572144e-01
-3.664661571383476257e-02
2.504812926054000854e-02
3.371218144893646240e-01
8.221942931413650513e-02
5.031374096870422363e-01
3.192055225372314453e-01
1.958835273981094360e-01
5.255746841430664062e-01
-1.611011624336242676e-01
-8.617832511663436890e-02
-2.213440239429473877e-01
-2.757294476032257080e-01
-1.731986366212368011e-02
9.940924122929573059e-03
5.753505825996398926e-01
-5.758589506149291992e-01
-2.357942461967468262e-01
3.300653994083404541e-01
2.686204202473163605e-02
-5.476380586624145508e-01
-6.653864383697509766e-01
-5.087677836418151855e-01
-6.664221882820129395e-01
-4.107455909252166748e-02
-7.768683880567550659e-02
5.354342460632324219e-01
-4.830246567726135254e-01
3.071320056915283203e-01
-3.718272745609283447e-01
2.792708575725555420e-01
2.254800200462341309e-01
3.283337950706481934e-01
4.342344030737876892e-02
4.785716831684112549e-01
-4.437392950057983398e-01
-4.047434329986572266e-01
-1.701546907424926758e-01
1.337671130895614624e-01
4.327458143234252930e-01
-2.653951644897460938e-01
-2.822051644325256348e-01
1.245575100183486938e-01
-2.858192324638366699e-01
-3.518742322921752930e-01
-2.780367434024810791e-01
-7.759341001510620117e-01
-3.648696243762969971e-01
1.019845381379127502e-01
-1.202963218092918396e-01
-1.034207269549369812e-01
-1.871718317270278931e-01
1.321106106042861938e-01
2.150869183242321014e-02
8.092064410448074341e-02
8.118982613086700439e-02
6.974939256906509399e-02
8.117494732141494751e-02
-2.008411586284637451e-01
1.237872913479804993e-01
-8.779471367597579956e-02
1.178660467267036438e-01
-9.976033121347427368e-02
1.099456660449504852e-02
-2.554347217082977295e-01
-1.237848922610282898e-01
-1.992514431476593018e-01
2.684876918792724609e-01
1.852274239063262939e-01
1.325447559356689453e-01
1.044069230556488037e-01
-3.057787418365478516e-01
1.715483069419860840e-01
-1.172908619046211243e-01
7.853521965444087982e-03
-1.146505996584892273e-01
-1.262455582618713379e-01
8.035588264465332031e-02
4.817704483866691589e-02
3.255313634872436523e-01
-2.786121070384979248e-01
-1.426303237676620483e-01
7.003201544284820557e-02
-1.081853453069925308e-02
-3.286777436733245850e-02
-1.484594959765672684e-02
-1.535235196352005005e-01
-2.675041556358337402e-01
-4.749011695384979248e-01
-5.868276581168174744e-02
1.917450278997421265e-01
1.967020332813262939e-01
1.609069295227527618e-02
-3.496445715427398682e-01
1.859083026647567749e-01
2.824699319899082184e-02
-1.590230762958526611e-01
-1.675404310226440430e-01
-4.937906563282012939e-02
-3.243065476417541504e-01
-4.176943004131317139e-02
-2.629679441452026367e-01
-1.569901704788208008e-01
-1.734460741281509399e-01
-3.445834517478942871e-01
-1.400831900537014008e-02
-1.224253550171852112e-01
-2.593989372253417969e-01
1.462911441922187805e-02
-3.393261730670928955e-01
-9.471700340509414673e-02
-3.539220988750457764e-01
-1.737549006938934326e-01
-2.051778286695480347e-01
-1.628043800592422485e-01
1.744626276195049286e-02
-2.988125383853912354e-01
-2.499160617589950562e-01
-2.529620528221130371e-01
-1.463587880134582520e-01
-1.443510502576828003e-02
2.848071604967117310e-02
-1.320797055959701538e-01
-5.262625217437744141e-01
-1.859589666128158569e-01
1.079482883214950562e-01
-9.126308560371398926e-02
-2.022147327661514282e-01
1.713372468948364258e-01
-1.816156804561614990e-01
-1.979023218154907227e-02
2.022960036993026733e-01
1.405486166477203369e-01
7.350559532642364502e-02
3.428051769733428955e-01
1.133487895131111145e-01
1.550378501415252686e-01
-2.510565221309661865e-01
2.434634789824485779e-02
-2.000396251678466797e-01
-2.182073891162872314e-01
-1.091684103012084961e-01
-6.747496873140335083e-02
1.782449036836624146e-01
-1.888062953948974609e-01
-2.260926216840744019e-01
-2.644310593605041504e-01
-3.659217804670333862e-02
-2.972921133041381836e-01
-3.672577440738677979e-02
-2.194125354290008545e-01
-2.015092372894287109e-01
8.199770748615264893e-02
-1.350085735321044922e-01
-2.063687741756439209e-01
-7.911662757396697998e-02
-4.514650627970695496e-02
-1.666387617588043213e-01
-6.992031633853912354e-02
-1.492886245250701904e-01
-1.544390153139829636e-02
-7.298237830400466919e-02
-1.524645686149597168e-01
-8.633788675069808960e-02
-7.285112142562866211e-02
1.240108162164688110e-01
1.044966839253902435e-02
1.015662308782339096e-02
-6.443568319082260132e-02
-2.773122787475585938e-01
-1.043798867613077164e-02
-1.944470256567001343e-01
-2.175029367208480835e-01
-3.601622879505157471e-01
-1.538644134998321533e-01
8.581817895174026489e-02
-3.800510615110397339e-02
1.061787828803062439e-02
7.945934683084487915e-02
1.526621431112289429e-01
5.971974134445190430e-02
-1.530145555734634399e-01
9.443039447069168091e-02
5.315904505550861359e-03
1.088477894663810730e-01
8.177713304758071899e-02
1.602062396705150604e-02
-4.769791290163993835e-02
-4.461433365941047668e-02
-4.447109252214431763e-02
-1.623443961143493652e-01
-9.974864078685641289e-04
1.519012302160263062e-01
1.095262616872787476e-01
-8.590142428874969482e-02
1.757272928953170776e-01
8.634075522422790527e-02
2.065383940935134888e-01
-9.358780831098556519e-02
7.002244144678115845e-02
3.122926056385040283e-01
9.469989687204360962e-02
1.543190181255340576e-01
-5.097774416208267212e-02
-1.331840157508850098e-01
2.240218818187713623e-01
-1.649668961763381958e-01
2.490515559911727905e-01
2.955133318901062012e-01
-4.059219360351562500e-01
-3.636005520820617676e-01
4.854496195912361145e-02
2.191665470600128174e-01
3.871223703026771545e-02
2.199351489543914795e-01
6.668519228696823120e-02
4.239927232265472412e-02
9.551436454057693481e-02
-8.886123448610305786e-02
1.599100381135940552e-01
-2.894967496395111084e-01
-1.385657936334609985e-01
-3.898158073425292969e-01
-3.355804979801177979e-01
-2.808436155319213867e-01
-4.438512325286865234e-01
-5.090797320008277893e-02
2.852701954543590546e-02
-9.794455021619796753e-02
-1.834212057292461395e-02
2.210753411054611206e-01
-2.516432106494903564e-01
-1.780897676944732666e-01
-2.384205013513565063e-01
-3.971333056688308716e-02
-3.529188036918640137e-01
-4.130831360816955566e-01
1.806722283363342285e-01
9.976616501808166504e-02
-4.561248421669006348e-02
-3.098606467247009277e-01
-2.864518165588378906e-01
9.868197143077850342e-02
-1.957038342952728271e-01
-2.530778050422668457e-01
-3.835277557373046875e-01
-2.406034171581268311e-01
-3.281719386577606201e-01
3.476723134517669678e-01
-3.113386034965515137e-01
-4.837551619857549667e-03
-2.773341238498687744e-01
-1.327919214963912964e-01
-9.752336889505386353e-03
-2.862028181552886963e-01
-7.045924663543701172e-02
-3.392813503742218018e-01
-4.325808286666870117e-01
-2.524341642856597900e-01
7.760202139616012573e-02
4.360031709074974060e-02
2.650460600852966309e-01
1.871811896562576294e-01
-3.060704469680786133e-01
2.718277573585510254e-01
-2.831830084323883057e-01
3.928382396697998047e-01
-2.588375210762023926e-01
-4.501076042652130127e-01
-1.979412734508514404e-01
-2.639952898025512695e-01
2.067821621894836426e-01
-1.152563560754060745e-02
-1.593860387802124023e-01
4.132564663887023926e-01
8.384113316424190998e-04
2.027067393064498901e-01
-3.510480821132659912e-01
1.079177930951118469e-01
-9.971433877944946289e-02
2.019962370395660400e-01
-2.875005826354026794e-02
7.341371476650238037e-02
-2.694364450871944427e-02
3.876889124512672424e-02
-1.243182867765426636e-01
3.385474979877471924e-01
2.725526094436645508e-01
-1.528799086809158325e-01
-2.435287684202194214e-01
3.097673654556274414e-01
-1.267749965190887451e-01
-3.994653224945068359e-01
1.600752919912338257e-01
-1.222106069326400757e-01
-3.544111549854278564e-02
2.216575592756271362e-01
-2.263703346252441406e-01
4.294225275516510010e-01
-1.983157992362976074e-01
-3.480737805366516113e-01
2.559565603733062744e-01
-1.149716302752494812e-01
2.246632799506187439e-02
9.374424070119857788e-02
4.887943267822265625e-01
1.973453015089035034e-01
-4.300856292247772217e-01
6.139157922007143497e-04
1.560075879096984863e-01
7.713200151920318604e-02
2.788748741149902344e-01
-2.282352894544601440e-01
3.886963799595832825e-02
3.141642212867736816e-01
-1.633401215076446533e-01
3.730464875698089600e-01
-2.067445218563079834e-02
5.362665653228759766e-01
2.669832110404968262e-01
-1.755626946687698364e-01
1.172795593738555908e-01
-4.694466479122638702e-03
4.467213526368141174e-02
4.861656576395034790e-02
-5.832172930240631104e-02
-2.138426154851913452e-01
-2.201623916625976562e-01
9.753701835870742798e-02
1.472506970167160034e-01
5.149321630597114563e-02
4.919002950191497803e-01
5.392670631408691406e-01
1.826212108135223389e-01
1.493478119373321533e-01
4.124217480421066284e-02
-1.450935751199722290e-01
1.269608363509178162e-02
2.715965807437896729e-01
-6.732683628797531128e-02
-2.251736819744110107e-02
-2.872985973954200745e-02
-3.564460203051567078e-02
3.997819498181343079e-02
-1.177446246147155762e-01
-1.164124906063079834e-01
2.309565693140029907e-01
-6.564568728208541870e-02
2.848088368773460388e-02
-7.475796341896057129e-02
2.114579975605010986e-01
1.004202514886856079e-01
8.914797008037567139e-02
6.920722872018814087e-02
-6.406397372484207153e-02
-1.971478909254074097e-01
-1.399660259485244751e-01
-2.954341471195220947e-01
-2.745908200740814209e-01
-1.549118198454380035e-02
-3.455029129981994629e-01
3.862027823925018311e-02
1.835577040910720825e-01
7.810014486312866211e-02
7.683166861534118652e-02
-1.642951518297195435e-01
-1.220169141888618469e-01
-2.784678339958190918e-01
2.524140179157257080e-01
-1.289555430412292480e-01
-3.031842112541198730e-01
7.747144252061843872e-02
4.955072402954101562e-01
3.557866811752319336e-01
4.073489904403686523e-01
5.298930034041404724e-02
3.524265885353088379e-01
3.219155594706535339e-02
-3.091622591018676758e-01
4.372688829898834229e-01
-2.642608284950256348e-01
7.543132454156875610e-02
-5.634607002139091492e-02
-1.014077663421630859e-01
1.556684379465878010e-03
6.621081847697496414e-03
-1.078467667102813721e-01
-3.585218265652656555e-02
-1.410108804702758789e-01
-3.334106877446174622e-02
3.391652926802635193e-02
-3.674730658531188965e-02
5.735475942492485046e-02
-1.580317914485931396e-01
-1.111427620053291321e-01
-1.885783970355987549e-01
-2.309762239456176758e-01
9.161838889122009277e-02
1.942746937274932861e-01
3.244979679584503174e-02
-2.868226766586303711e-01
1.120936721563339233e-01
9.381665289402008057e-02
-3.180260360240936279e-01
-2.955899834632873535e-01
-1.157714501023292542e-01
-1.461613327264785767e-01
-1.407562047243118286e-01
-1.200632657855749130e-02
-1.521972268819808960e-01
1.612936332821846008e-02
-1.871779263019561768e-01
-7.545243203639984131e-02
-1.810016334056854248e-01
3.150663077831268311e-01
7.229293137788772583e-02
-3.623981773853302002e-01
-1.817790120840072632e-01
-1.293240636587142944e-01
-1.367026418447494507e-01
-3.978973254561424255e-02
8.531587198376655579e-03
-2.395415753126144409e-01
-3.667503297328948975e-01
2.441133558750152588e-01
-5.395826883614063263e-03
7.087145466357469559e-03
1.265465915203094482e-01
-9.454324841499328613e-02
-6.079230830073356628e-02
-1.153258159756660461e-01
-4.540458694100379944e-02
7.642256561666727066e-03
9.436550736427307129e-02
-1.163915470242500305e-01
5.221363157033920288e-02
-3.739564120769500732e-02
7.695905119180679321e-02
-2.064993381500244141e-01
2.544574737548828125e-01
7.420781999826431274e-03
-7.130508124828338623e-02
-1.943517327308654785e-01
9.089096635580062866e-02
-2.493787184357643127e-02
1.590808331966400146e-01
-6.654311716556549072e-02
-8.361054211854934692e-02
2.004900127649307251e-01
8.134932816028594971e-02
-5.085522532463073730e-01
2.289520949125289917e-01
2.665836811065673828e-01
9.626448154449462891e-02
1.980911940336227417e-01
1.040252577513456345e-02
-4.411179572343826294e-03
-2.711168862879276276e-02
3.605862706899642944e-02
5.909445881843566895e-02
2.031738162040710449e-01
3.284338163211941719e-03
1.872294247150421143e-01
2.182389497756958008e-01
4.933128878474235535e-02
2.627348303794860840e-01
-9.715545922517776489e-02
1.509877890348434448e-01
-4.921408742666244507e-02
3.948293253779411316e-02
3.017254732549190521e-02
2.841406762599945068e-01
1.695822179317474365e-01
8.670658618211746216e-02
-5.000637378543615341e-03
-1.369661279022693634e-02
-1.390603631734848022e-01
2.465403974056243896e-01
-2.044291198253631592e-01
-1.744344085454940796e-01
1.511689126491546631e-01
1.757106930017471313e-01
-1.833798736333847046e-02
1.897506117820739746e-01
2.198077291250228882e-01
2.039944678544998169e-01
-7.501832209527492523e-03
4.934462904930114746e-02
2.837492823600769043e-01
2.511395215988159180e-01
6.539704650640487671e-02
3.177438974380493164e-01
2.954820990562438965e-01
2.858509719371795654e-01
2.601761519908905029e-01
3.053928613662719727e-01
1.430817693471908569e-01
2.439066469669342041e-01
-1.701762676239013672e-01
1.733102798461914062e-01
1.847013235092163086e-01
4.489528834819793701e-01
4.089104533195495605e-01
-3.697199979797005653e-03
-1.848616003990173340e-01
-4.351604357361793518e-02
-1.422185897827148438e-01
9.024655818939208984e-02
-1.062111649662256241e-02
-2.195033244788646698e-02
3.302060961723327637e-01
2.315520495176315308e-01
4.775279201567173004e-03
2.124078124761581421e-01
6.665018945932388306e-02
-1.773277670145034790e-01
-1.366264224052429199e-01
-1.115686520934104919e-01
-5.377801135182380676e-02
1.977863162755966187e-01
-5.789058282971382141e-02
8.099772781133651733e-02
-2.460443824529647827e-01
2.159632742404937744e-01
2.178645879030227661e-01
3.903440535068511963e-01
5.488536953926086426e-01
8.387503772974014282e-02
-5.045440793037414551e-01
8.703383803367614746e-02
3.080487251281738281e-02
2.415585964918136597e-01
-6.662202477455139160e-01
-4.149474203586578369e-01
-6.241540908813476562e-01
-4.006886482238769531e-01
-3.494543731212615967e-01
-4.078222438693046570e-02
3.230950236320495605e-02
-4.623738527297973633e-01
6.090995296835899353e-02
-1.765668392181396484e-01
-6.282584369182586670e-02
-2.526774406433105469e-01
4.005732536315917969e-01
2.323231697082519531e-01
3.060639500617980957e-01
-7.571184635162353516e-02
3.025515936315059662e-02
2.186915278434753418e-02
-1.483245044946670532e-01
3.929217159748077393e-01
1.131497416645288467e-02
1.086124032735824585e-01
-3.066363632678985596e-01
1.005744859576225281e-01
1.086295396089553833e-01
-3.435241281986236572e-01
-3.066445291042327881e-01
-1.021352037787437439e-01
5.982896313071250916e-02
3.021271526813507080e-01
1.613574773073196411e-01
6.869486719369888306e-02
-4.471936449408531189e-02
-1.215711608529090881e-02
-6.524626165628433228e-02
5.896064639091491699e-02
-1.829729676246643066e-01
4.034935683012008667e-02
4.120024144649505615e-01
1.702954620122909546e-01
3.010158240795135498e-01
1.886324882507324219e-01
2.605693787336349487e-02
1.022189334034919739e-01
8.417843282222747803e-02
-4.170495271682739258e-02
-1.853748559951782227e-01
2.424423396587371826e-01
1.102755367755889893e-01
2.213987559080123901e-01
4.600193351507186890e-02
1.745094507932662964e-01
-1.270302850753068924e-02
-1.388224773108959198e-02
2.037557810544967651e-01
5.073567479848861694e-02
1.560019254684448242e-01
-4.434912279248237610e-02
-7.994097471237182617e-02
3.400304615497589111e-01
5.450354889035224915e-02
-2.322576642036437988e-01
7.398744672536849976e-02
-8.953238278627395630e-02
1.258784085512161255e-01
-1.049025505781173706e-01
1.122258789837360382e-02
-1.068514306098222733e-02
-1.473334282636642456e-01
-1.128186807036399841e-01
-8.856633305549621582e-02
-1.679845005273818970e-01
-3.591864928603172302e-02
1.584318652749061584e-02
4.220931604504585266e-02
1.163982376456260681e-01
-5.303280428051948547e-02
-1.215761229395866394e-01
-2.171408981084823608e-01
-1.281019896268844604e-01
-1.634443849325180054e-01
-1.926709711551666260e-01
-2.329886704683303833e-02
6.140392506495118141e-04
-2.135437279939651489e-01
-1.855318546295166016e-01
1.349653601646423340e-01
-3.248058557510375977e-01
-2.060744613409042358e-01
-1.250099670141935349e-02
2.154644113034009933e-03
-3.115961849689483643e-01
-1.017306223511695862e-01
-3.421230912208557129e-01
2.444236874580383301e-01
-5.968107655644416809e-02
-9.443735331296920776e-02
-9.621974825859069824e-02
7.993319071829319000e-03
-4.139811694622039795e-01
-7.442496716976165771e-02
-1.452760398387908936e-01
1.307059973478317261e-01
1.714004278182983398e-01
9.061131626367568970e-02
-2.161281555891036987e-01
2.834872305393218994e-01
2.386538684368133545e-01
8.886353671550750732e-02
-4.181587696075439453e-02
2.424154281616210938e-01
-1.233527138829231262e-01
-3.736222088336944580e-01
-2.018612623214721680e-01
4.838270321488380432e-02
3.319584950804710388e-02
-1.196912303566932678e-01
-3.636904954910278320e-01
6.229001656174659729e-02
-3.183033764362335205e-01
-3.357634842395782471e-01
-1.344936192035675049e-01
-3.279584348201751709e-01
-1.363538354635238647e-01
1.231610625982284546e-01
4.059871137142181396e-01
9.952481836080551147e-02
-2.277141436934471130e-02
-1.393803656101226807e-01
1.956371217966079712e-01
-5.933744087815284729e-02
3.041729927062988281e-01
-5.368902161717414856e-02
-7.076898962259292603e-02
3.118827044963836670e-01
-1.080770343542098999e-01
1.643550992012023926e-01
3.088642954826354980e-01
3.081016056239604950e-02
-1.426438894122838974e-02
6.977120786905288696e-02
3.502528667449951172e-01
2.707210369408130646e-03
2.429419457912445068e-01
2.823200821876525879e-01
1.133389845490455627e-01
3.319909051060676575e-02
-2.881258726119995117e-02
1.154035478830337524e-01
3.781420588493347168e-01
1.203574147075414658e-02
3.321672379970550537e-01
3.628856837749481201e-01
-4.796051234006881714e-02
3.076908886432647705e-01
2.594633214175701141e-02
-3.044127523899078369e-01
-1.125272922217845917e-02
2.470436692237854004e-01
-2.148829996585845947e-01
-4.366246461868286133e-01
-1.775243878364562988e-01
-4.237281084060668945e-01
-2.369405627250671387e-01
1.646846905350685120e-02
-2.892674505710601807e-01
1.756890118122100830e-01
-2.456035763025283813e-01
1.923430413007736206e-01
-6.197248771786689758e-02
1.458065956830978394e-01
1.193826645612716675e-01
-3.040738962590694427e-02
1.882538050413131714e-01
1.011472120881080627e-01
-5.844376236200332642e-02
-9.437920898199081421e-02
-4.539022967219352722e-02
-1.775430440902709961e-01
-7.237207144498825073e-02
8.100864477455615997e-03
-1.329715084284543991e-02
2.210959643125534058e-01
5.371675267815589905e-02
-7.630943506956100464e-02
-2.637131512165069580e-01
-1.683220714330673218e-01
-7.077755033969879150e-02
2.006558030843734741e-01
2.369576990604400635e-01
-5.879364013671875000e-01
5.721873044967651367e-01
1.577986627817153931e-01
1.261964142322540283e-01
1.435604840517044067e-01
3.659286499023437500e-01
4.792849719524383545e-02
4.426606595516204834e-01
-3.646624386310577393e-01
8.292283862829208374e-02
-4.658086299896240234e-01
3.472226858139038086e-01
-4.081276655197143555e-01
-5.136737227439880371e-01
5.262731313705444336e-01
3.078102767467498779e-01
5.804308131337165833e-02
4.286618828773498535e-01
3.251898586750030518e-01
1.013083830475807190e-01
4.973241090774536133e-01
3.636987507343292236e-01
1.278122663497924805e-01
1.520563811063766479e-01
-7.249259948730468750e-02
1.260128170251846313e-01
2.804577946662902832e-01
1.393538266420364380e-01
3.398384153842926025e-01
3.285056054592132568e-01
-3.669393658638000488e-01
9.202498942613601685e-02
1.095301434397697449e-01
6.313160061836242676e-03
-3.109295964241027832e-01
-3.488432466983795166e-01
-3.394739627838134766e-01
-1.319273412227630615e-01
1.857252568006515503e-01
-1.613460853695869446e-02
1.184235513210296631e-01
-3.147893249988555908e-01
-2.802487462759017944e-02
2.108459323644638062e-01
1.222402555868029594e-03
-1.161063611507415771e-01
1.441197246313095093e-01
2.577421069145202637e-02
2.002824246883392334e-01
7.687008380889892578e-02
2.531099319458007812e-01
1.342374384403228760e-01
6.419319659471511841e-02
-3.451387584209442139e-02
1.058595404028892517e-01
1.939492672681808472e-02
1.551182121038436890e-01
9.948097169399261475e-02
-5.078151449561119080e-02
-1.887906491756439209e-01
-1.579921245574951172e-01
4.496671631932258606e-02
-2.897081077098846436e-01
-3.406215310096740723e-01
5.938445404171943665e-02
1.216067895293235779e-01
-2.147109992802143097e-02
-1.489862948656082153e-01
-7.794285565614700317e-02
-3.728139698505401611e-01
3.759418725967407227e-01
5.040257424116134644e-02
1.349424868822097778e-01
1.127572208642959595e-01
-1.475305557250976562e-01
-3.751234710216522217e-02
1.304425448179244995e-01
7.952324301004409790e-02
2.770855091512203217e-02
-1.528452634811401367e-01
1.637935824692249298e-02
-1.154705882072448730e-01
-9.473479539155960083e-02
2.462684363126754761e-01
-1.674000620841979980e-01
-5.813482683151960373e-03
1.443486809730529785e-01
-3.428220748901367188e-01
2.251646667718887329e-01
-3.623473346233367920e-01
-3.739621341228485107e-01
8.309703320264816284e-03
-2.316529601812362671e-01
1.103770062327384949e-01
-7.820332050323486328e-02
-7.573460787534713745e-02
-3.180952072143554688e-01
1.100492328405380249e-01
-1.380008757114410400e-01
3.933047130703926086e-02
8.345272392034530640e-02
-2.510632760822772980e-02
-9.585867822170257568e-02
9.104986488819122314e-02
1.647395044565200806e-01
-3.180555999279022217e-01
8.810447156429290771e-02
5.298816785216331482e-02
-5.402445197105407715e-01
-4.682885706424713135e-01
5.850031599402427673e-02
2.417484670877456665e-01
-1.153634190559387207e-01
-9.850414842367172241e-02
-1.270883250981569290e-02
-3.573724627494812012e-01
-1.228329166769981384e-01
6.565608829259872437e-02
-2.953822016716003418e-01
1.273944377899169922e-01
-1.398928463459014893e-01
-1.972472108900547028e-02
3.513493016362190247e-02
4.403376951813697815e-02
6.834165751934051514e-02
-1.237779185175895691e-01
-2.597934752702713013e-02
-1.713833361864089966e-01
-1.009400188922882080e-01
-3.694804906845092773e-01
-2.123430520296096802e-01
1.489894241094589233e-01
-1.910350322723388672e-01
-3.046001791954040527e-01
5.008083954453468323e-02
-4.125097990036010742e-01
2.391133643686771393e-02
3.184888139367103577e-02
-5.232199281454086304e-02
-2.255364954471588135e-01
6.901772320270538330e-02
1.296937614679336548e-01
-3.355307579040527344e-01
-1.736998856067657471e-01
-1.115764155983924866e-01
-6.888800859451293945e-02
-9.548585116863250732e-02
2.981313765048980713e-01
-1.073635146021842957e-01
-2.466338872909545898e-01
1.909912973642349243e-01
-2.250728160142898560e-01
1.657322235405445099e-02
-6.712635606527328491e-02
-1.911661028861999512e-01
-1.346277147531509399e-01
-1.381530985236167908e-02
9.517946839332580566e-02
1.510024517774581909e-01
7.718459516763687134e-02
7.000348567962646484e-01
-3.635905683040618896e-01
1.141388267278671265e-01
2.242719754576683044e-03
2.230784446001052856e-01
3.127993941307067871e-01
-1.695771515369415283e-01
-2.369499951601028442e-01
3.950501680374145508e-01
-1.192076280713081360e-01
4.727665185928344727e-01
-6.536372005939483643e-02
6.256517767906188965e-01
4.863173067569732666e-01
-4.017167091369628906e-01
-2.507001459598541260e-01
-1.396302226930856705e-02
-4.789816960692405701e-02
1.033331304788589478e-01
-1.214480958878993988e-02
-3.226051926612854004e-01
-3.063126504421234131e-01
2.705202102661132812e-01
1.577408425509929657e-02
6.378939002752304077e-02
3.090555369853973389e-01
-1.137962937355041504e-01
3.758670985698699951e-01
8.292273432016372681e-02
-1.282431092113256454e-02
2.474558800458908081e-01
2.605917751789093018e-01
-7.031407356262207031e-01
6.801660060882568359e-01
-1.667933911085128784e-01
-3.076149150729179382e-02
1.103146746754646301e-01
7.321555018424987793e-01
1.399299800395965576e-01
9.636833071708679199e-01
-2.491383701562881470e-01
-2.697796523571014404e-01
-4.297176003456115723e-01
2.408979237079620361e-01
-7.248129248619079590e-01
-7.500286102294921875e-01
7.432041168212890625e-01
4.377483427524566650e-01
-1.244060769677162170e-01
1.786886900663375854e-01
2.632798850536346436e-01
-1.567026078701019287e-01
3.390927314758300781e-01
8.001496195793151855e-01
5.377633497118949890e-02
4.823521971702575684e-01
-4.011756479740142822e-01
1.424171328544616699e-01
5.277331471443176270e-01
5.673348903656005859e-01
3.029557764530181885e-01
1.972547620534896851e-01
-4.448364377021789551e-01
-9.660331159830093384e-02
4.480275809764862061e-01
-2.952005863189697266e-01
-2.340927869081497192e-01
-3.968357741832733154e-01
-4.114514887332916260e-01
-3.851044476032257080e-01
5.723066627979278564e-03
-4.462093412876129150e-01
2.752933800220489502e-01
-1.081458181142807007e-01
3.617400825023651123e-01
1.063812822103500366e-01
2.346636652946472168e-01
1.215577870607376099e-01
-3.989132344722747803e-01
-4.141442179679870605e-01
2.249339371919631958e-01
-8.774767071008682251e-02
-1.344424635171890259e-01
-1.460223644971847534e-01
4.289325326681137085e-02
-2.464209347963333130e-01
-1.097006946802139282e-01
-8.928537368774414062e-02
2.455425858497619629e-01
-1.338026225566864014e-01
-1.871124058961868286e-01
-5.004311800003051758e-01
-4.062307178974151611e-01
6.613372266292572021e-02
4.315559267997741699e-01
4.725563526153564453e-02
-4.397148732095956802e-03
2.861240506172180176e-01
3.775802552700042725e-01
1.346868574619293213e-01
3.888514637947082520e-01
3.225373327732086182e-01
-2.521551847457885742e-01
2.643767297267913818e-01
-1.356250941753387451e-01
2.148959636688232422e-01
8.739683777093887329e-02
1.817009993828833103e-03
-1.447116136550903320e-01
-2.430422455072402954e-01
1.511519253253936768e-01
3.759614005684852600e-02
4.000191390514373779e-02
-2.561190128326416016e-01
-1.219011992216110229e-01
-2.387910634279251099e-01
-6.120378151535987854e-02
2.348568439483642578e-01
-1.734088063240051270e-01
1.195869818329811096e-01
-3.815526366233825684e-01
-4.467662796378135681e-02
1.509424392133951187e-02
4.752044081687927246e-01
1.548417657613754272e-01
-2.713074684143066406e-01
5.535945761948823929e-03
2.023921534419059753e-02
-5.725751519203186035e-01
7.707496732473373413e-02
7.202494889497756958e-03
9.746921062469482422e-02
-1.853384822607040405e-01
8.281362801790237427e-02
1.403773128986358643e-01
-1.664253622293472290e-01
-1.526022404432296753e-01
1.015903279185295105e-01
-3.830200433731079102e-01
-8.890994824469089508e-03
