5.466008558869361877e-02
1.731659322977066040e-01
1.239867508411407471e-01
-1.868531107902526855e-02
-8.475435525178909302e-02
-5.996653065085411072e-02
8.988278359174728394e-02
2.716102078557014465e-02
-9.133265167474746704e-02
1.243191771209239960e-02
-7.868362218141555786e-02
1.186474114656448364e-01
-3.367618471384048462e-02
-5.258962884545326233e-02
8.884953707456588745e-02
-1.743876338005065918e-01
-9.120673686265945435e-02
2.174682766199111938e-01
1.250781565904617310e-01
1.075212135910987854e-01
-1.553160101175308228e-01
2.774484157562255859e-01
2.876039445400238037e-01
-1.551979482173919678e-01
1.358416676521301270e-02
2.453777492046356201e-01
3.998862579464912415e-03
1.173746436834335327e-01
2.535435557365417480e-02
1.807476580142974854e-01
-1.010806709527969360e-01
-1.146116182208061218e-01
-1.781802624464035034e-01
-1.579030305147171021e-01
1.867345124483108521e-01
8.523703366518020630e-02
2.455363869667053223e-01
-4.703692346811294556e-02
2.629131972789764404e-01
2.827036082744598389e-01
-1.483801156282424927e-01
-3.269205987453460693e-02
7.735345512628555298e-02
-1.617442667484283447e-01
-1.318862587213516235e-01
2.133301645517349243e-01
-4.162764921784400940e-02
1.880770623683929443e-01
-5.154623463749885559e-02
8.326792716979980469e-02
3.426460027694702148e-01
6.890143454074859619e-02
-3.778325915336608887e-01
8.581831306219100952e-02
-3.073225617408752441e-01
3.006400167942047119e-01
2.238219678401947021e-01
-6.173328757286071777e-01
2.359072118997573853e-01
-3.730034828186035156e-01
3.416848555207252502e-02
-6.977284699678421021e-02
1.183622702956199646e-01
2.107966989278793335e-01
1.731968019157648087e-03
-5.937865972518920898e-01
2.806349098682403564e-01
3.276362717151641846e-01
2.826768755912780762e-01
-5.744224190711975098e-01
-6.808289885520935059e-02
-4.518167376518249512e-01
-6.737961620092391968e-02
-6.774056702852249146e-02
-4.509018063545227051e-01
-5.459027364850044250e-02
-4.466848075389862061e-02
1.530561596155166626e-01
4.852411523461341858e-02
9.263551235198974609e-02
