-1.771548241376876831e-01
2.733539789915084839e-02
-7.004785351455211639e-03
4.293520003557205200e-02
2.217302285134792328e-02
-1.385778635740280151e-01
1.208204962313175201e-02
8.215598762035369873e-02
-9.467017836868762970e-03
1.206500977277755737e-01
9.434435516595840454e-02
-1.873922720551490784e-02
-1.015061512589454651e-01
-4.732520133256912231e-02
2.586074359714984894e-02
2.875654585659503937e-02
1.913623884320259094e-03
1.247396841645240784e-01
1.981483213603496552e-02
-5.494988709688186646e-02
4.051302745938301086e-02
-3.206077963113784790e-02
-7.576956599950790405e-02
4.547695443034172058e-02
1.602333225309848785e-02
3.133449330925941467e-02
-1.434521633200347424e-03
-2.615594863891601562e-01
-7.878242759034037590e-04
-1.039301007986068726e-01
-5.217609182000160217e-02
4.003373906016349792e-02
1.513558924198150635e-01
-5.428778752684593201e-02
-4.803771898150444031e-02
4.982579499483108521e-02
-1.579606980085372925e-01
1.339375078678131104e-01
3.797590034082531929e-03
-2.090675011277198792e-02
2.094048634171485901e-02
-1.662130504846572876e-01
1.777160912752151489e-01
-3.887040317058563232e-01
3.457848727703094482e-02
-9.322919696569442749e-02
-8.827482350170612335e-03
-6.467460095882415771e-02
-2.639267966151237488e-02
3.705640882253646851e-02
4.160815849900245667e-02
3.667304292321205139e-02
-7.031019777059555054e-03
1.641643047332763672e-02
7.359225302934646606e-03
-8.579993247985839844e-02
-1.771434396505355835e-01
1.328490376472473145e-01
-1.546803105156868696e-04
-7.905542105436325073e-02
-8.848045021295547485e-03
1.005331892520189285e-02
4.768059775233268738e-02
-4.546720162034034729e-02
-1.381885290145874023e+00
1.390711545944213867e+00
-4.691444933414459229e-01
-4.045314788818359375e+00
-9.032110869884490967e-02
-5.769788622856140137e-01
3.119622766971588135e-01
-1.221356987953186035e+00
-2.868181467056274414e-01
1.279361724853515625e+00
-2.087621241807937622e-01
2.303632497787475586e-01
-3.799490690231323242e+00
2.792407274246215820e-01
-2.881456613540649414e-01
8.214648962020874023e-01
4.903791844844818115e-01
3.977147042751312256e-01
-1.444811224937438965e+00
-7.822531461715698242e-01
8.380959033966064453e-01
-2.590483287349343300e-03
1.095393449068069458e-01
4.982821643352508545e-02
1.574734449386596680e+00
1.356163501739501953e+00
-1.770829200744628906e+00
-4.355666041374206543e-01
-7.472429871559143066e-01
1.083193659782409668e+00
-6.086462736129760742e-01
-7.435908317565917969e-01
2.046574950218200684e-01
8.657913713250309229e-05
1.394595652818679810e-01
1.211750864982604980e+00
6.155295297503471375e-02
2.576081752777099609e-01
-8.030232191085815430e-01
-1.879535466432571411e-01
3.505168557167053223e-01
-1.968443840742111206e-01
-1.078180298209190369e-01
-5.140834450721740723e-01
-2.666523754596710205e-01
1.126775741577148438e+00
-9.538438916206359863e-01
-1.587541699409484863e-01
-1.323410868644714355e-01
1.573505103588104248e-01
-5.019177198410034180e-01
-7.003184407949447632e-02
-5.619912743568420410e-01
5.710087418556213379e-01
1.497307419776916504e-01
5.836506485939025879e-01
-7.111022472381591797e-01
-3.903692364692687988e-01
-2.480451390147209167e-02
-2.173718214035034180e-01
7.272115945816040039e-01
2.045558542013168335e-01
1.311898231506347656e-01
-2.252945750951766968e-01
-9.155435115098953247e-02
-1.731884181499481201e-01
-1.594335675239562988e+00
3.594874441623687744e-01
-2.402458935976028442e-01
-4.921182394027709961e-01
5.641350746154785156e-01
6.776522397994995117e-01
-6.267791390419006348e-01
3.956727981567382812e-01
3.106733560562133789e-01
4.541749358177185059e-01
-2.390368431806564331e-01
8.491595834493637085e-02
8.689995408058166504e-01
4.131501317024230957e-01
-8.324236422777175903e-02
6.036525964736938477e-01
-6.758701801300048828e-02
1.765692681074142456e-01
7.257143259048461914e-01
-3.214343637228012085e-02
-7.738433480262756348e-01
3.689689934253692627e-01
-4.357846081256866455e-01
3.165501952171325684e-01
8.917458653450012207e-01
-2.606895267963409424e-01
-6.736207008361816406e-01
6.064979434013366699e-01
2.732436358928680420e-01
-1.544955521821975708e-01
-1.574716567993164062e-01
7.623041868209838867e-01
-5.887805819511413574e-01
-2.396348118782043457e-01
5.114657804369926453e-02
3.894117176532745361e-01
-6.257171630859375000e-01
-1.292486667633056641e+00
-6.040484309196472168e-01
3.436182737350463867e-01
-8.530981093645095825e-02
-4.657135009765625000e-01
4.207306206226348877e-01
2.382041215896606445e-01
-2.099621593952178955e-01
-1.050378561019897461e+00
-6.553614735603332520e-01
-3.036223053932189941e-01
-5.454525947570800781e-01
-3.114901483058929443e-01
4.484234750270843506e-01
-2.001262009143829346e-01
2.091471701860427856e-01
6.390732526779174805e-01
9.568057060241699219e-01
-4.339622855186462402e-01
-9.592037796974182129e-01
3.812017142772674561e-01
-1.339200790971517563e-02
1.702073216438293457e-01
-3.302679657936096191e-01
7.385104298591613770e-01
5.277873277664184570e-01
-1.541383862495422363e-01
-1.809223890304565430e-01
-1.140714809298515320e-01
-1.184893369674682617e+00
2.592891268432140350e-02
6.524163484573364258e-01
-3.212144374847412109e-01
3.984165489673614502e-01
1.768788248300552368e-01
2.882380187511444092e-01
-8.088968396186828613e-01
1.636754423379898071e-01
6.388205289840698242e-02
2.287065535783767700e-01
1.018849492073059082e+00
-1.159048557281494141e+00
-2.726685404777526855e-01
1.281893849372863770e-01
-2.483587414026260376e-01
-2.060818672180175781e-01
-4.209929704666137695e-01
3.342903554439544678e-01
-3.266866505146026611e-01
-6.113247871398925781e-01
3.408303111791610718e-02
-5.425974130630493164e-01
3.191819190979003906e-01
-1.680916100740432739e-01
-7.905118465423583984e-01
7.111548781394958496e-01
2.704271115362644196e-02
3.113621771335601807e-01
3.950878977775573730e-01
1.663386523723602295e-01
2.045149207115173340e-01
8.913434147834777832e-01
-2.614685595035552979e-01
1.376035064458847046e-01
3.278623148798942566e-02
1.016441658139228821e-01
2.732862830162048340e-01
3.528100550174713135e-01
9.506574273109436035e-01
-4.686788022518157959e-01
9.882563352584838867e-02
-1.040096759796142578e+00
1.110969707369804382e-01
1.129556261003017426e-02
-3.973372578620910645e-01
2.645044028759002686e-01
-3.868457078933715820e-01
-9.969424456357955933e-02
2.255348488688468933e-02
2.784238457679748535e-01
-6.909871846437454224e-02
3.854379653930664062e-01
-1.201298952102661133e+00
-6.871595233678817749e-02
6.650259494781494141e-01
-1.010270476341247559e+00
-5.059973895549774170e-02
-2.258556485176086426e-01
4.673403799533843994e-01
2.778671681880950928e-01
-2.780389189720153809e-01
-3.663432598114013672e-01
-1.798153370618820190e-01
-3.695679083466529846e-02
-2.914027273654937744e-01
3.770326077938079834e-01
-5.573799610137939453e-01
-1.699355989694595337e-01
4.316078424453735352e-01
3.764887154102325439e-01
6.577557325363159180e-01
-2.663567662239074707e-01
-1.000293374061584473e+00
1.604910641908645630e-01
-1.164097189903259277e+00
1.222382426261901855e+00
-2.798680914565920830e-03
-4.321222603321075439e-01
-1.616996675729751587e-01
-4.125536680221557617e-01
1.219181492924690247e-01
-1.834323070943355560e-02
3.777502179145812988e-01
9.351091831922531128e-02
6.849000453948974609e-01
-8.224548697471618652e-01
-9.384856224060058594e-01
-1.020489558577537537e-01
2.054576426744461060e-01
3.801243901252746582e-01
3.309793025255203247e-02
-7.950162515044212341e-03
3.505020141601562500e-01
-4.880582541227340698e-02
1.792471557855606079e-01
2.978253662586212158e-01
2.156989276409149170e-01
-3.163205683231353760e-01
-7.078103721141815186e-02
-4.365765750408172607e-01
3.006542026996612549e-01
-1.906688511371612549e-01
1.553106456995010376e-01
-7.779312729835510254e-01
4.187038838863372803e-01
-1.934130638837814331e-01
7.892403006553649902e-01
3.193439543247222900e-01
-4.754345118999481201e-02
6.299807429313659668e-01
4.102898836135864258e-01
1.299934267997741699e+00
-4.514457285404205322e-01
-9.643291682004928589e-02
-1.869536936283111572e-01
1.539868116378784180e-01
-2.915243208408355713e-01
-6.583307385444641113e-01
-1.117952391505241394e-01
-6.556928753852844238e-01
-6.754597425460815430e-01
-5.476422905921936035e-01
2.488804906606674194e-01
5.261228084564208984e-01
6.239343285560607910e-01
3.889175355434417725e-01
-6.533808708190917969e-01
-1.490151584148406982e-01
3.434389233589172363e-01
1.728356927633285522e-01
-1.361113488674163818e-01
4.480383098125457764e-01
3.411356806755065918e-01
2.952189147472381592e-01
9.742565453052520752e-02
-1.566054672002792358e-01
-7.497153878211975098e-01
-1.099082589149475098e+00
-2.322552353143692017e-01
9.605318903923034668e-01
5.079969167709350586e-01
-4.761293828487396240e-01
3.393097519874572754e-01
-2.551335990428924561e-01
-4.286160767078399658e-01
4.664504528045654297e-01
6.059629097580909729e-02
-1.875342875719070435e-01
9.269890785217285156e-01
-6.897394657135009766e-01
-1.043466925621032715e-01
2.675461769104003906e-01
1.481690168380737305e+00
-4.663255438208580017e-02
2.754122614860534668e-01
1.625783741474151611e-01
-5.611362308263778687e-02
3.387819826602935791e-01
1.446139574050903320e+00
5.985227227210998535e-01
-2.872007489204406738e-01
-1.543032765388488770e+00
-6.702414900064468384e-02
-5.099079608917236328e-01
-4.193827211856842041e-01
3.730276226997375488e-01
1.206831097602844238e+00
-2.998452782630920410e-01
-1.357698798179626465e+00
6.574720144271850586e-01
-9.054782390594482422e-01
-5.112276673316955566e-01
2.652463614940643311e-01
7.528354525566101074e-01
-9.075144529342651367e-01
2.849728465080261230e-01
-4.038207828998565674e-01
3.186829984188079834e-01
-9.431220293045043945e-01
-1.994400769472122192e-01
-9.964018315076828003e-02
3.818801343441009521e-01
-7.021184563636779785e-01
-4.644930064678192139e-01
-3.111304938793182373e-01
-3.132452070713043213e-01
4.317488521337509155e-02
2.616510391235351562e-01
1.912634968757629395e-01
9.782002568244934082e-01
-5.324890613555908203e-01
-3.086666204035282135e-02
-4.095339477062225342e-01
-3.837768137454986572e-01
-7.043957244604825974e-03
6.711029410362243652e-01
6.152293831110000610e-02
-5.873102545738220215e-01
-3.318559229373931885e-01
-7.777387499809265137e-01
7.636426091194152832e-01
-3.721047341823577881e-01
-1.113429546356201172e+00
-9.599645137786865234e-01
-4.749859869480133057e-01
-2.909197807312011719e-01
2.309525460004806519e-01
-3.897341489791870117e-01
3.032560646533966064e-01
-8.372283726930618286e-02
-6.195999979972839355e-01
1.348252594470977783e-01
-1.353392899036407471e-01
4.604074954986572266e-01
-1.764250993728637695e-01
2.476517409086227417e-01
8.050644993782043457e-01
5.161876678466796875e-01
-5.483422875404357910e-01
-8.335888981819152832e-01
4.104199111461639404e-01
4.242441952228546143e-01
4.652232229709625244e-01
1.652316004037857056e-02
5.446030497550964355e-01
-1.210241317749023438e+00
9.343601465225219727e-01
-5.852167606353759766e-01
7.011933326721191406e-01
-4.291479289531707764e-01
1.829080134630203247e-01
1.384988427162170410e+00
-6.016426682472229004e-01
-7.513135075569152832e-01
7.612023949623107910e-01
-5.419389158487319946e-02
1.775562912225723267e-01
5.403534173965454102e-01
6.064409390091896057e-02
-5.411770567297935486e-02
-6.224700808525085449e-02
8.166025280952453613e-01
5.736430734395980835e-02
-1.024216972291469574e-02
7.251410484313964844e-01
7.879342436790466309e-01
5.171611905097961426e-01
-9.345809221267700195e-01
6.352299451828002930e-01
2.663174271583557129e-01
1.091119050979614258e+00
4.036415815353393555e-01
-3.440680801868438721e-01
-4.868050813674926758e-01
-3.841197192668914795e-01
6.997659206390380859e-01
6.789075732231140137e-01
-2.639707028865814209e-01
-6.595702171325683594e-01
-2.817447483539581299e-01
-3.705853223800659180e-01
1.751996725797653198e-01
3.807247281074523926e-01
1.163135170936584473e+00
5.933082699775695801e-01
1.049833372235298157e-01
-3.888769447803497314e-02
5.601026415824890137e-01
-2.278633862733840942e-01
8.306993246078491211e-01
3.380624949932098389e-02
-3.477654457092285156e-01
2.493251860141754150e-01
4.765414074063301086e-02
1.213773369789123535e+00
8.800777792930603027e-01
-7.871453166007995605e-01
-7.437084317207336426e-01
2.103779613971710205e-01
1.436891198158264160e+00
1.134744644165039062e+00
2.999853789806365967e-01
-1.205188870429992676e+00
5.024878308176994324e-02
-7.112025022506713867e-01
6.749085187911987305e-01
-7.782395929098129272e-02
-1.093263268470764160e+00
4.531854391098022461e-01
6.775495409965515137e-01
-8.366229385137557983e-02
-9.925363063812255859e-01
7.925570011138916016e-02
3.381367325782775879e-01
8.014013767242431641e-01
7.852388173341751099e-02
-5.329357981681823730e-01
1.431252002716064453e+00
4.242187142372131348e-01
-5.171290040016174316e-01
7.938046455383300781e-01
5.523720979690551758e-01
4.740411937236785889e-01
5.931311845779418945e-01
3.494186401367187500e-01
4.718595147132873535e-01
-1.177049055695533752e-01
-3.895448446273803711e-01
5.099704861640930176e-01
1.066182553768157959e-01
-3.480507135391235352e-01
-2.828444540500640869e-01
-2.770102024078369141e-01
-9.060811400413513184e-01
-4.257556796073913574e-01
-3.214273750782012939e-01
6.499833464622497559e-01
6.173597574234008789e-01
4.612443447113037109e-01
-2.060091346502304077e-01
1.661167852580547333e-02
1.122765690088272095e-01
-6.413872838020324707e-01
3.429972827434539795e-01
3.928290009498596191e-01
4.891723766922950745e-02
-1.364753544330596924e-01
1.342576622962951660e+00
-7.508008182048797607e-02
-1.273930072784423828e-01
4.863224327564239502e-01
-7.313475012779235840e-02
4.660509526729583740e-01
6.391602754592895508e-01
7.353282719850540161e-02
-2.309700846672058105e-02
-2.896232157945632935e-02
-3.145927786827087402e-01
-1.211156472563743591e-01
4.351873099803924561e-01
-2.227571606636047363e-01
-4.796652793884277344e-01
1.784092336893081665e-01
-2.289178967475891113e-02
4.555605947971343994e-01
9.007719159126281738e-02
3.274286910891532898e-02
3.860215842723846436e-01
-2.759333550930023193e-01
3.719874620437622070e-01
2.764651775360107422e-01
2.989882528781890869e-01
-8.629916906356811523e-01
-4.467437863349914551e-01
-6.756609678268432617e-01
6.577161550521850586e-01
1.836958378553390503e-01
-2.681563794612884521e-01
-3.441709280014038086e-02
5.394288301467895508e-01
-4.308206737041473389e-01
5.097447037696838379e-01
4.914696812629699707e-01
1.604908853769302368e-01
1.552095711231231689e-01
5.510305985808372498e-02
7.341798543930053711e-01
3.622778952121734619e-01
-2.674347162246704102e-01
-1.464106738567352295e-01
1.420905888080596924e-01
4.037882983684539795e-01
1.493175774812698364e-01
8.494375646114349365e-02
6.658209562301635742e-01
-1.108601331710815430e+00
-6.938463449478149414e-01
6.898954510688781738e-01
1.887172937393188477e+00
-1.955624669790267944e-01
-3.937475681304931641e-01
1.776476055383682251e-01
8.561830222606658936e-02
3.709901273250579834e-01
-8.871762156486511230e-01
3.413863778114318848e-01
-3.345336914062500000e-01
-5.013911724090576172e-01
-4.298292100429534912e-01
4.398078024387359619e-01
-3.135434389114379883e-01
1.288539022207260132e-01
-6.115027666091918945e-01
-6.246853470802307129e-01
9.446061402559280396e-02
-8.609828352928161621e-01
2.649737708270549774e-02
4.784033894538879395e-01
-5.766014456748962402e-01
6.815949827432632446e-02
3.063006699085235596e-01
6.962266564369201660e-01
9.433559179306030273e-01
9.397380948066711426e-01
9.742034226655960083e-02
5.863273739814758301e-01
3.350845277309417725e-01
6.395547986030578613e-01
2.246497422456741333e-01
-5.293572545051574707e-01
7.148231267929077148e-01
-1.036736965179443359e+00
-1.209700822830200195e+00
4.092994034290313721e-01
-1.150898337364196777e+00
2.004414647817611694e-01
-3.182701766490936279e-02
4.722223877906799316e-01
-1.042232513427734375e-01
-5.881239175796508789e-01
1.229375243186950684e+00
-6.515309214591979980e-02
-1.083515733480453491e-01
-3.889848589897155762e-01
2.632549107074737549e-01
-2.810677289962768555e-01
-1.446217179298400879e+00
5.390558838844299316e-01
6.960178017616271973e-01
4.265909790992736816e-01
3.586767986416816711e-02
3.050817409530282021e-03
4.660981148481369019e-02
-5.601553916931152344e-01
-6.591028571128845215e-01
-8.163673430681228638e-02
-5.423172116279602051e-01
-1.173206120729446411e-01
2.744429111480712891e-01
-1.028677463531494141e+00
-7.446742057800292969e-01
1.432473218301311135e-04
-1.932494640350341797e-01
-1.239985227584838867e-01
8.960879445075988770e-01
-8.905318975448608398e-01
1.328415155410766602e+00
1.055050730705261230e+00
-1.111126989126205444e-01
-1.292985439300537109e+00
5.942639112472534180e-01
-1.491525888442993164e+00
7.660887837409973145e-01
5.504530072212219238e-01
1.883791804313659668e+00
-1.118579506874084473e+00
4.520660340785980225e-01
1.605872511863708496e-01
-4.082780480384826660e-01
2.534198760986328125e-01
1.027827039361000061e-01
3.534516990184783936e-01
4.386530816555023193e-01
1.273994743824005127e-01
5.522692203521728516e-01
9.276062250137329102e-02
-3.164530396461486816e-01
5.376537144184112549e-02
-5.029009580612182617e-01
3.947409987449645996e-01
1.197927370667457581e-01
-4.300778508186340332e-01
-5.081821680068969727e-01
-6.291392445564270020e-02
4.984668791294097900e-01
4.434871673583984375e-01
7.570564150810241699e-01
-3.147367537021636963e-01
-3.709626793861389160e-01
4.076251089572906494e-01
2.288151681423187256e-01
1.744530320167541504e+00
-1.027732014656066895e+00
1.678407430648803711e+00
-2.707545459270477295e-01
-1.026035621762275696e-01
-1.927782446146011353e-01
3.685360848903656006e-01
6.222379207611083984e-01
1.003729224205017090e+00
-3.712865412235260010e-01
-4.506390392780303955e-01
1.416356712579727173e-01
-5.789110660552978516e-01
6.302829980850219727e-01
-2.484938949346542358e-01
6.012715697288513184e-01
-3.707251846790313721e-01
-9.950997680425643921e-02
-7.532594203948974609e-01
-4.071376025676727295e-01
-3.308903574943542480e-01
1.165349125862121582e+00
-7.287242263555526733e-02
-2.113962322473526001e-01
2.692296504974365234e-01
-4.050785005092620850e-01
2.666416168212890625e-01
1.853484362363815308e-01
1.250902712345123291e-01
-1.822624206542968750e+00
-6.167805790901184082e-01
8.087580800056457520e-01
2.614068388938903809e-01
6.973931789398193359e-01
1.021659255027770996e+00
-8.737016916275024414e-01
-2.055923938751220703e+00
-1.077700853347778320e+00
9.488337635993957520e-01
3.708139657974243164e-01
-8.054953217506408691e-01
-1.399414688348770142e-01
9.038645625114440918e-01
3.178718686103820801e-01
1.390375137329101562e+00
4.155083000659942627e-01
6.828429102897644043e-01
-9.967923164367675781e-03
-5.472933053970336914e-01
-5.557310767471790314e-03
7.153077721595764160e-01
9.572706222534179688e-01
-5.920609235763549805e-01
1.244707226753234863e+00
-2.939791083335876465e-01
-1.708466857671737671e-01
1.910236179828643799e-01
-3.646629452705383301e-01
-1.678771227598190308e-01
6.497699618339538574e-01
-3.652919456362724304e-02
1.345340728759765625e+00
4.317735731601715088e-01
-2.503438591957092285e-01
7.494279146194458008e-01
-1.766215413808822632e-01
1.231074213981628418e+00
7.364374995231628418e-01
8.678259253501892090e-01
1.532665733247995377e-02
-3.524096608161926270e-01
-7.965877652168273926e-01
1.224503278732299805e+00
6.994216144084930420e-02
-4.939115345478057861e-01
4.081081449985504150e-01
6.729569435119628906e-01
3.824141025543212891e-01
-4.342472553253173828e-01
6.971392631530761719e-01
-4.839312434196472168e-01
4.651880264282226562e-01
-9.632140398025512695e-01
1.010901927947998047e+00
-7.853405475616455078e-01
2.660872340202331543e-01
-8.667388558387756348e-02
1.966848224401473999e-01
7.622518111020326614e-03
6.953226327896118164e-01
4.969696700572967529e-01
1.033278107643127441e+00
1.152497380971908569e-01
-5.011848211288452148e-01
-2.953231930732727051e-01
-9.939878433942794800e-02
4.869065880775451660e-01
5.933821797370910645e-01
-5.358133316040039062e-01
-3.446909189224243164e-01
-6.264877319335937500e-01
-6.645333766937255859e-01
9.981979131698608398e-01
-2.267410978674888611e-02
-1.783797860145568848e+00
5.448462963104248047e-01
6.852039098739624023e-01
-3.360959887504577637e-01
1.274029910564422607e-01
-2.839708626270294189e-01
7.161865234375000000e-01
-3.169872462749481201e-01
5.142785310745239258e-01
1.388491988182067871e-01
6.467168927192687988e-01
2.009693682193756104e-01
3.164635300636291504e-01
9.095749855041503906e-01
-3.365070745348930359e-02
8.517096042633056641e-01
-9.482495486736297607e-02
-6.718666553497314453e-01
1.826664507389068604e-01
5.395433902740478516e-01
8.683104515075683594e-01
3.215400874614715576e-01
5.215659737586975098e-01
2.354694604873657227e-01
-4.155203700065612793e-01
4.877075552940368652e-01
1.983633279800415039e+00
-6.454097032546997070e-01
5.543824434280395508e-01
-3.609200119972229004e-01
-2.341466844081878662e-01
3.222051262855529785e-02
9.173300266265869141e-01
-5.756782293319702148e-01
-4.310396611690521240e-01
-3.858674466609954834e-01
1.376502752304077148e+00
-1.106847543269395828e-03
-4.556244015693664551e-01
1.021893024444580078e+00
6.503701210021972656e-01
-3.428497314453125000e-01
-2.076902985572814941e-01
1.239297151565551758e+00
4.407732486724853516e-01
6.524822115898132324e-01
1.133560657501220703e+00
1.515920460224151611e-01
1.849767416715621948e-01
5.293471813201904297e-01
7.350242733955383301e-01
-7.511020302772521973e-01
9.007383584976196289e-01
4.706954360008239746e-01
-1.540039777755737305e-01
-1.281549930572509766e+00
3.657370507717132568e-01
2.742747962474822998e-01
-7.289018630981445312e-01
7.002528905868530273e-01
-9.739669561386108398e-01
8.443267941474914551e-01
3.143233433365821838e-02
-9.525970369577407837e-02
4.127676412463188171e-02
-1.521925568580627441e+00
4.857802763581275940e-02
-1.377993226051330566e-01
-2.564435303211212158e-01
1.389219462871551514e-01
6.242834776639938354e-02
-9.749230742454528809e-01
5.075153708457946777e-01
2.520030140876770020e-01
-8.185963332653045654e-02
1.199974298477172852e+00
1.607834994792938232e-01
-3.393564224243164062e-01
5.786449909210205078e-01
-3.280343487858772278e-02
4.131482169032096863e-02
-9.794467091560363770e-01
-4.719106256961822510e-01
1.228552088141441345e-01
1.048446819186210632e-01
6.043210029602050781e-01
3.209927305579185486e-02
-5.915648341178894043e-01
-2.448848336935043335e-01
4.159344732761383057e-01
8.747176080942153931e-02
3.822418451309204102e-01
8.016089200973510742e-01
-5.072215944528579712e-02
-6.969149708747863770e-01
-1.365865111351013184e+00
1.125239133834838867e+00
-6.780923604965209961e-01
5.600687265396118164e-01
2.747898399829864502e-01
-3.140517771244049072e-01
-4.920186102390289307e-01
-3.368999660015106201e-01
-3.636908531188964844e-01
-1.091428175568580627e-01
-6.177002787590026855e-01
-9.163532853126525879e-01
1.323426246643066406e+00
-1.626417338848114014e-01
-8.274548649787902832e-01
1.123425439000129700e-01
4.039336144924163818e-01
-6.473371982574462891e-01
-8.424491286277770996e-01
1.639881432056427002e-01
6.109265610575675964e-02
-7.487305998802185059e-01
-4.173799157142639160e-01
7.773128747940063477e-01
3.607948124408721924e-01
5.601044297218322754e-01
-1.188803985714912415e-01
8.598589897155761719e-01
-1.161571964621543884e-01
-1.972978003323078156e-02
-3.925057053565979004e-01
-6.646217703819274902e-01
-3.509413003921508789e-01
1.477883290499448776e-02
3.661318123340606689e-01
3.292170464992523193e-01
-4.202022254467010498e-01
-2.765201330184936523e-01
1.284107565879821777e-01
-3.158933520317077637e-01
2.273135632276535034e-01
-3.404729962348937988e-01
-8.382649421691894531e-01
1.434959620237350464e-01
-3.869552314281463623e-01
-3.912485837936401367e-01
3.509643971920013428e-01
2.865589596331119537e-02
-5.726939439773559570e-02
-1.495392471551895142e-01
-9.796378016471862793e-02
-4.455795586109161377e-01
1.031051635742187500e+00
-1.864524930715560913e-01
-1.077560707926750183e-02
-4.482649266719818115e-01
5.192829966545104980e-01
-1.080620884895324707e-01
-9.928073734045028687e-03
-1.082114726305007935e-01
9.809630513191223145e-01
-6.968883424997329712e-02
-1.813189238309860229e-01
7.348864674568176270e-01
6.342935562133789062e-02
-2.267015427350997925e-01
-5.671445727348327637e-01
-1.183675765991210938e+00
4.347048997879028320e-01
2.022339217364788055e-02
5.726543664932250977e-01
1.970342397689819336e-01
1.113564848899841309e+00
2.579591795802116394e-02
5.069077610969543457e-01
-3.190202713012695312e-01
-1.646663844585418701e-01
2.917942702770233154e-01
-4.373072385787963867e-01
1.668752729892730713e-01
4.047893285751342773e-01
8.038387298583984375e-01
-6.139425635337829590e-01
1.385451853275299072e-01
2.154683470726013184e-01
2.579475939273834229e-01
4.441051930189132690e-02
-2.172425091266632080e-01
-1.593802273273468018e-01
-2.947027981281280518e-01
1.353825628757476807e-01
-6.052998900413513184e-01
7.284831404685974121e-01
1.068842530250549316e+00
-3.647506609559059143e-02
1.083856344223022461e+00
-7.383258342742919922e-01
-3.550038440153002739e-03
-7.753720134496688843e-02
-6.863349676132202148e-01
3.554709553718566895e-01
3.368539810180664062e-01
-9.379903972148895264e-02
-2.249736040830612183e-01
1.260625123977661133e-01
-3.689014613628387451e-01
-6.362932175397872925e-02
1.219832748174667358e-01
-3.003995120525360107e-02
1.246702075004577637e-01
2.106675878167152405e-02
-7.396242618560791016e-01
-4.437045454978942871e-01
-1.210316345095634460e-01
3.580614924430847168e-01
-3.513923585414886475e-01
4.955503344535827637e-02
6.798604130744934082e-01
-5.671406984329223633e-01
2.826102674007415771e-01
2.177536673843860626e-02
5.188019275665283203e-01
3.309744298458099365e-01
7.996132969856262207e-01
1.721294075250625610e-01
1.903105378150939941e-01
4.350509494543075562e-02
-8.232644945383071899e-02
-1.763800978660583496e-01
2.600665092468261719e-01
-8.603656888008117676e-01
4.586448147892951965e-02
1.739118844270706177e-01
-3.129264414310455322e-01
3.211556077003479004e-01
-6.242481470108032227e-01
3.662176430225372314e-01
1.776624768972396851e-01
-1.256638407707214355e+00
5.028647780418395996e-01
-3.550005331635475159e-02
-1.554770469665527344e-01
1.802484244108200073e-01
-7.090700417757034302e-02
3.693917095661163330e-01
-2.711048722267150879e-01
-3.116963431239128113e-02
2.566829323768615723e-01
-4.521334767341613770e-01
-1.510340809822082520e+00
-4.186635613441467285e-01
3.174391686916351318e-01
-8.745516538619995117e-01
5.317092537879943848e-01
-4.402942359447479248e-01
1.600189134478569031e-03
1.017297152429819107e-03
-1.439668983221054077e-01
-1.846308559179306030e-01
-1.441052258014678955e-01
7.370154857635498047e-01
1.613538414239883423e-01
1.501470357179641724e-01
1.004569768905639648e+00
5.980241298675537109e-01
-8.197991847991943359e-01
4.798072278499603271e-01
3.054313063621520996e-01
-2.533786296844482422e-01
2.898985706269741058e-02
-1.519510746002197266e-01
1.796186715364456177e-02
2.801913917064666748e-01
-2.139092832803726196e-01
4.811275750398635864e-02
-1.174409627914428711e+00
2.347581833600997925e-01
-4.623951911926269531e-01
3.631498515605926514e-01
7.319865822792053223e-01
7.734557390213012695e-01
-3.222754299640655518e-01
-2.172774523496627808e-01
-2.323892712593078613e-01
6.379873156547546387e-01
1.748915553092956543e+00
-5.028659105300903320e-01
-2.447540313005447388e-01
-8.266193866729736328e-01
1.788197606801986694e-01
1.598120927810668945e-01
8.101680278778076172e-01
4.422282576560974121e-01
4.806013777852058411e-03
2.752972543239593506e-01
3.678089380264282227e-01
-1.686266213655471802e-01
-6.013822555541992188e-01
-1.808530837297439575e-01
6.185335516929626465e-01
-3.868431746959686279e-01
-6.583967804908752441e-01
-1.317543506622314453e+00
-2.377197891473770142e-01
-6.187352538108825684e-01
-1.355673670768737793e+00
1.812013238668441772e-01
-3.306439518928527832e-01
1.021609544754028320e+00
7.338795810937881470e-02
1.361393928527832031e-01
7.730621695518493652e-01
-2.142929732799530029e-01
-5.699343085289001465e-01
-9.518160820007324219e-01
-8.132374286651611328e-01
-1.142317131161689758e-01
4.085146188735961914e-01
2.785359919071197510e-01
-8.111774921417236328e-01
-9.861781001091003418e-01
-1.550798118114471436e-01
6.791002582758665085e-03
1.380662441253662109e+00
-8.587598800659179688e-01
-3.832847476005554199e-01
6.091194599866867065e-02
1.516540169715881348e+00
-3.755246102809906006e-01
-3.141305968165397644e-02
2.177549600601196289e-01
2.431397289037704468e-01
-2.445691227912902832e-01
-1.016278266906738281e-01
5.322450399398803711e-01
-4.135939180850982666e-01
5.451746582984924316e-01
-3.982360064983367920e-01
1.127235218882560730e-01
-1.021981760859489441e-01
8.758788555860519409e-02
-5.337188243865966797e-01
-7.308796793222427368e-02
