2.024436235427856445e+00
-1.274977028369903564e-01
8.358511328697204590e-02
-1.917907893657684326e-01
1.038143709301948547e-01
-4.374629259109497070e-01
-1.062050223350524902e+00
-7.744236383587121964e-03
2.917751669883728027e-01
1.333894580602645874e-02
1.031957566738128662e-01
-9.621117264032363892e-02
3.194880783557891846e-01
3.860138356685638428e-01
7.022055983543395996e-01
-1.588976740837097168e+00
7.437661886215209961e-01
-1.959857493638992310e-01
1.631590247154235840e+00
2.502588272094726562e+00
1.780290603637695312e-01
9.299025870859622955e-03
-8.938736319541931152e-01
1.074701100587844849e-01
-1.298325955867767334e-01
-8.942638337612152100e-02
-1.088101029396057129e+00
1.014110967516899109e-01
7.222422361373901367e-01
4.330022931098937988e-01
1.619058728218078613e+00
-4.585159718990325928e-01
1.762298345565795898e-01
2.917568571865558624e-02
-3.911722302436828613e-01
3.241829276084899902e-01
-2.533466219902038574e-01
8.267398476600646973e-01
-1.510953068733215332e+00
1.571889400482177734e+00
5.721231922507286072e-02
-4.676740765571594238e-01
-1.231935024261474609e-01
8.784727752208709717e-02
-1.395706236362457275e-01
-3.186278343200683594e-01
-8.686084151268005371e-01
-3.624308407306671143e-01
-6.576398760080337524e-02
1.524514198303222656e+00
2.754723429679870605e-01
4.810113906860351562e-01
-7.489639520645141602e-02
7.863403558731079102e-01
1.363885253667831421e-01
1.438393831253051758e+00
-1.311095476150512695e+00
5.251292586326599121e-01
6.425885856151580811e-02
-5.254168510437011719e-01
2.726178169250488281e-01
9.499067813158035278e-02
-2.582740485668182373e-01
-6.348912119865417480e-01
-1.923267602920532227e+00
-5.033661127090454102e-01
-1.203327059745788574e+00
2.556987285614013672e+00
4.501740336418151855e-01
-1.272656917572021484e+00
-6.822182536125183105e-01
-2.964379191398620605e-01
1.068363487720489502e-01
-7.539127767086029053e-02
-3.658464252948760986e-01
1.555993407964706421e-01
4.739335477352142334e-01
-1.193272709846496582e+00
-1.964562982320785522e-01
-1.049075946211814880e-01
9.475050866603851318e-02
6.500906497240066528e-02
-8.248552680015563965e-01
-3.937320709228515625e-01
1.572284698486328125e-01
-3.870905041694641113e-01
2.153377294540405273e+00
-4.057342112064361572e-01
-2.941747754812240601e-02
-2.018927633762359619e-01
3.372584879398345947e-01
-3.824312984943389893e-01
-4.684855043888092041e-01
2.269615381956100464e-01
-4.150669574737548828e-01
-2.365038394927978516e-01
-2.608528435230255127e-01
1.196319703012704849e-02
-5.410100817680358887e-01
4.589777886867523193e-01
5.365170910954475403e-02
-3.730823099613189697e-02
4.797809123992919922e-01
-1.684305787086486816e+00
5.216147303581237793e-01
-1.822500228881835938e+00
5.010960698127746582e-01
-8.891890197992324829e-02
-1.991260610520839691e-02
-2.659581601619720459e-01
-8.248157054185867310e-02
3.316687047481536865e-01
-2.409979403018951416e-01
6.232553720474243164e-01
3.709821999073028564e-01
3.050024807453155518e-01
4.817443788051605225e-01
-3.549348711967468262e-01
-1.069201622158288956e-02
1.097638998180627823e-02
5.692371129989624023e-01
-8.172403573989868164e-01
-1.085084900259971619e-01
9.162828326225280762e-02
5.279931426048278809e-01
-3.769335150718688965e-02
-1.747296601533889771e-01
-1.571551337838172913e-02
4.757774174213409424e-01
1.193257868289947510e-01
1.051884293556213379e-01
5.957730412483215332e-01
-1.985016912221908569e-01
-5.177638530731201172e-01
-3.236248195171356201e-01
-1.190356910228729248e-01
-1.353626251220703125e-01
2.297042459249496460e-01
3.326696872711181641e+00
3.800757825374603271e-01
1.815089434385299683e-01
-8.201567828655242920e-02
-8.480908870697021484e-01
-1.955668032169342041e-01
-2.041711807250976562e-01
5.273366570472717285e-01
2.563361644744873047e+00
-2.527782022953033447e-01
-2.283685505390167236e-01
-7.376809604465961456e-03
-4.903195798397064209e-01
3.218144476413726807e-01
1.263322494924068451e-02
3.026856482028961182e-01
-1.437222599983215332e+00
5.819962173700332642e-02
3.675727546215057373e-02
5.911866426467895508e-01
-3.057465851306915283e-01
1.775171011686325073e-01
-1.930776387453079224e-01
-3.866715133190155029e-01
1.961588710546493530e-01
1.315296769142150879e+00
-8.653510808944702148e-01
3.969970047473907471e-01
-2.344774007797241211e+00
1.604590773582458496e+00
2.377245575189590454e-01
2.029569298028945923e-01
4.030863940715789795e-01
4.373400807380676270e-01
-1.759362816810607910e-01
-4.297365546226501465e-01
-1.853720843791961670e-01
3.699687421321868896e-01
1.816526502370834351e-01
-1.742764711380004883e+00
7.409503459930419922e-01
1.926579475402832031e-01
-1.693753719329833984e+00
1.203007221221923828e+00
1.895245015621185303e-01
5.188118219375610352e-01
-5.509906411170959473e-01
2.498473674058914185e-01
3.938521444797515869e-01
-1.033090710639953613e+00
5.273841619491577148e-01
3.788259625434875488e-01
1.943572163581848145e-01
3.888363838195800781e-01
7.926631569862365723e-01
8.818219602108001709e-02
-3.125502169132232666e-01
1.269087910652160645e+00
3.543619811534881592e-01
1.140895485877990723e+00
1.315489560365676880e-01
-2.386155575513839722e-01
2.536993920803070068e-01
-1.662098765373229980e-01
4.652777612209320068e-01
6.138131022453308105e-01
-2.353160828351974487e-01
-4.584340751171112061e-01
3.054924011230468750e-01
-1.192367449402809143e-01
-2.713889479637145996e-01
1.968302018940448761e-02
6.646943688392639160e-01
1.185921952128410339e-01
5.112378597259521484e-01
-2.132355868816375732e-01
-6.372100710868835449e-01
-5.226203203201293945e-01
-8.319198489189147949e-01
4.586279094219207764e-01
-4.793651103973388672e-01
-1.229222938418388367e-01
-1.969060748815536499e-01
-1.988860815763473511e-01
4.127311706542968750e+00
2.109033584594726562e+00
-1.800799518823623657e-01
1.639078408479690552e-01
3.904970586299896240e-01
-2.369367927312850952e-01
-5.981019139289855957e-01
-5.433897376060485840e-01
-2.225616574287414551e-01
1.166234761476516724e-01
3.685394525527954102e-01
1.417468786239624023e-01
1.091737970709800720e-01
3.782196342945098877e-01
7.169114351272583008e-01
1.875985741615295410e+00
-6.137396395206451416e-02
4.574914574623107910e-01
2.373995445668697357e-02
2.137093544006347656e-01
-2.490110136568546295e-02
3.016070723533630371e-01
-6.878430396318435669e-02
1.417501717805862427e-01
1.116446107625961304e-01
-1.453927066177129745e-02
-1.523105263710021973e+00
-2.028701156377792358e-01
-2.422538846731185913e-01
5.955711603164672852e-01
-5.166186094284057617e-01
2.248721197247505188e-02
1.256277561187744141e-01
-6.822284460067749023e-01
-3.243645131587982178e-01
1.984046250581741333e-01
-4.192080721259117126e-02
2.292059212923049927e-01
-1.937123090028762817e-01
-1.075246185064315796e-01
-4.457965493202209473e-01
-4.302920699119567871e-01
2.800603583455085754e-02
-1.605957895517349243e-01
1.785845905542373657e-01
3.321712315082550049e-01
-3.740351796150207520e-01
-1.854225434362888336e-02
2.329672425985336304e-01
1.734019517898559570e-01
-2.793503999710083008e-01
7.733977586030960083e-02
2.945709228515625000e-01
-4.921724796295166016e-01
5.448690149933099747e-03
1.793189197778701782e-01
4.525250196456909180e-01
4.876650571823120117e-01
2.435125559568405151e-01
1.776616930961608887e+00
-6.498292833566665649e-02
3.993465006351470947e-01
4.098248854279518127e-02
-1.435388624668121338e-01
-3.099551796913146973e-01
1.845480352640151978e-01
-9.070823788642883301e-01
-3.029257953166961670e-01
-8.087218999862670898e-01
-2.052060067653656006e-01
7.435287535190582275e-02
8.869015574455261230e-01
-8.068689703941345215e-01
1.242120504379272461e+00
4.243348836898803711e-01
7.947058081626892090e-01
1.314551711082458496e+00
1.562316417694091797e-01
-4.222621321678161621e-01
-1.156852364540100098e+00
-1.428484767675399780e-01
-1.461254060268402100e-01
2.885508537292480469e-02
-8.731648325920104980e-01
-1.361295133829116821e-01
6.468635201454162598e-01
-1.888542473316192627e-01
3.070136606693267822e-01
-1.625698506832122803e-01
7.479342818260192871e-01
2.049748748540878296e-01
1.185894906520843506e-01
-3.777337074279785156e-01
3.451286256313323975e-02
5.637518763542175293e-01
-8.289160728454589844e-01
2.518896162509918213e-01
3.226927518844604492e-01
-7.508230209350585938e-02
-1.965991780161857605e-02
1.267360329627990723e+00
-3.452088534832000732e-01
-2.693501114845275879e-01
-4.373394548892974854e-01
-2.927033007144927979e-01
9.012509882450103760e-02
4.751338064670562744e-02
-8.558792993426322937e-03
-4.033223390579223633e-01
-5.533071756362915039e-01
-2.922653034329414368e-02
5.756584405899047852e-01
6.411566734313964844e-01
4.537957534193992615e-02
7.213674783706665039e-01
1.144200921058654785e+00
-1.404269039630889893e-01
1.647777855396270752e-01
1.516012430191040039e+00
-3.498676419258117676e-01
1.349773854017257690e-01
5.732262041419744492e-03
7.475484013557434082e-01
-5.955118313431739807e-02
4.659808278083801270e-01
-2.117656618356704712e-01
-6.759671866893768311e-02
3.004192113876342773e-01
1.422933675348758698e-02
2.016893386840820312e+00
2.596820145845413208e-02
1.189109563827514648e+00
1.032737255096435547e+00
-1.579312235116958618e-01
1.952385783195495605e+00
2.650781273841857910e-01
3.691338002681732178e-02
-6.044266745448112488e-02
-3.308960795402526855e-01
-8.752055764198303223e-01
1.042907163500785828e-01
-2.706153988838195801e-01
7.287408709526062012e-01
-1.117910146713256836e-01
1.163366213440895081e-01
2.567125856876373291e-02
1.172779351472854614e-01
-3.077852725982666016e-01
5.988403558731079102e-01
4.065190851688385010e-01
-2.144313305616378784e-01
6.856935024261474609e-01
2.739208042621612549e-01
-4.386689960956573486e-01
8.686140179634094238e-01
-5.951641201972961426e-01
2.869805812835693359e+00
-3.147433400154113770e-01
-3.657876700162887573e-02
6.000427901744842529e-02
5.979664251208305359e-02
1.829719990491867065e-01
-1.285586059093475342e-01
-5.340700745582580566e-01
3.650914907455444336e+00
2.957385182380676270e-01
5.516558289527893066e-01
-5.027810111641883850e-03
4.109038710594177246e-01
-3.549024835228919983e-02
-2.825406566262245178e-02
-1.513181179761886597e-01
-1.318907618522644043e+00
4.686125516891479492e-01
6.560041308403015137e-01
9.181354045867919922e-01
4.226787090301513672e-01
-2.251250445842742920e-01
1.602025479078292847e-01
1.580932550132274628e-02
2.691095173358917236e-01
1.434557318687438965e+00
-1.881468147039413452e-01
-1.691172569990158081e-01
-4.868963241577148438e+00
5.104116201400756836e-01
-1.073954775929450989e-01
-1.310693919658660889e-01
-1.948806345462799072e-01
1.140264421701431274e-01
1.335825771093368530e-01
6.718481183052062988e-01
-1.026254892349243164e-02
-2.451537251472473145e-01
-4.856324195861816406e-01
-2.629962921142578125e+00
5.245266482234001160e-02
-2.457828223705291748e-01
-2.107195615768432617e+00
3.590888381004333496e-01
2.928576469421386719e-01
-5.850396677851676941e-02
-7.786581516265869141e-01
-3.543261587619781494e-01
6.557574868202209473e-01
-6.435786485671997070e-01
-1.118745468556880951e-02
-4.126065075397491455e-01
-9.442760944366455078e-01
-6.976509839296340942e-02
-4.275129735469818115e-02
-3.527202606201171875e-01
-3.415439724922180176e-01
5.097949504852294922e-01
3.421775698661804199e-01
1.426384687423706055e+00
-2.489184290170669556e-01
-8.950303792953491211e-01
-1.165856793522834778e-01
1.568452082574367523e-02
-4.190483987331390381e-01
-9.585544466972351074e-02
6.209856271743774414e-01
1.010926142334938049e-01
-2.340990453958511353e-01
4.428692758083343506e-01
6.228585243225097656e-01
-4.377900809049606323e-02
-2.317197024822235107e-01
1.945567578077316284e-01
-2.431496232748031616e-01
2.557587325572967529e-01
-7.149332165718078613e-01
1.730800718069076538e-01
-2.849310934543609619e-01
-2.048925608396530151e-01
4.671860337257385254e-01
1.350632458925247192e-01
-8.318525552749633789e-02
-1.191131353378295898e+00
4.822878360748291016e+00
3.338562011718750000e+00
-2.796039916574954987e-02
-2.126807123422622681e-01
1.870618015527725220e-01
2.347392886877059937e-01
1.734997332096099854e-01
2.197387218475341797e-01
4.514359235763549805e-01
-1.614145487546920776e-01
5.043626576662063599e-02
-2.467615455389022827e-01
-3.675356209278106689e-01
4.215492308139801025e-01
6.124769449234008789e-01
3.054989576339721680e+00
4.396380186080932617e-01
-1.461141556501388550e-01
-2.130846492946147919e-02
2.782653570175170898e-01
2.924695611000061035e-01
-7.835706472396850586e-01
1.834974437952041626e-02
2.271302342414855957e-01
-8.145702481269836426e-01
1.051629111170768738e-01
-1.137544289231300354e-01
5.092725753784179688e-01
2.234609425067901611e-01
-8.355028927326202393e-02
-3.324128985404968262e-01
-5.697399377822875977e-01
7.490105032920837402e-01
1.662647426128387451e-01
-8.004295229911804199e-01
-1.568266153335571289e-01
-1.864114850759506226e-01
-9.436973929405212402e-02
1.185807436704635620e-01
-9.676805138587951660e-02
-3.510706126689910889e-01
1.160340569913387299e-02
4.463511705398559570e-01
-1.568131893873214722e-01
2.958337068557739258e-01
5.004870519042015076e-02
2.792782187461853027e-01
-1.466823518276214600e-01
5.431867390871047974e-02
-1.422528624534606934e-01
2.325547337532043457e-01
-1.234228163957595825e-01
-5.886216759681701660e-01
-2.955923974514007568e-01
-2.832556366920471191e-01
-5.590192079544067383e-01
9.646346420049667358e-02
-2.414083927869796753e-01
-4.123317077755928040e-03
2.296135760843753815e-02
-1.023196429014205933e-02
5.404167175292968750e-01
-1.897877305746078491e-01
1.976936459541320801e-01
-2.794957160949707031e-02
3.299610316753387451e-01
1.249174326658248901e-01
2.732545137405395508e-01
-8.952311426401138306e-02
4.761167466640472412e-01
-6.470396369695663452e-02
1.218090653419494629e-01
-2.051906734704971313e-01
3.806854188442230225e-01
-5.193152427673339844e-01
3.767614811658859253e-02
-1.938357204198837280e-01
6.363675463944673538e-03
5.170533061027526855e-01
6.418620795011520386e-02
-8.285226672887802124e-02
5.198985338211059570e-01
1.194025725126266479e-01
-1.615666225552558899e-02
-2.019887417554855347e-01
-3.764377906918525696e-02
-3.657511174678802490e-01
-1.285451054573059082e-01
-1.399292517453432083e-02
2.175828218460083008e-01
-2.122539430856704712e-01
6.140635013580322266e-01
-6.929539442062377930e-01
-1.027943864464759827e-01
4.099300131201744080e-02
-2.386590838432312012e-01
9.733883142471313477e-01
3.492798805236816406e-01
-5.757665038108825684e-01
1.207284927368164062e-01
1.947352886199951172e-01
-8.426432013511657715e-01
1.600843816995620728e-01
-2.739905714988708496e-01
3.182541131973266602e-01
6.136133074760437012e-01
-4.459489136934280396e-03
1.368607133626937866e-01
4.927009046077728271e-01
-1.568613052368164062e-01
-3.046787679195404053e-01
3.045749068260192871e-01
-2.699916064739227295e-01
-1.867966949939727783e-01
1.265954375267028809e-01
2.255248427391052246e-01
-4.008453786373138428e-01
-1.890760958194732666e-01
-4.200625419616699219e-02
-7.294889092445373535e-01
-1.743632405996322632e-01
8.742216229438781738e-02
-2.696744501590728760e-01
2.026537507772445679e-01
-1.315279453992843628e-01
-2.215727120637893677e-01
-6.022901087999343872e-02
3.091414272785186768e-01
-1.302229315042495728e-01
-1.469965428113937378e-01
3.621999621391296387e-01
4.719618856906890869e-01
5.539300441741943359e-01
7.462788224220275879e-01
-1.156706213951110840e-01
-1.316465139389038086e-01
7.486610412597656250e-01
-6.348434090614318848e-01
-3.606144785881042480e-01
2.434603571891784668e-01
-1.710751354694366455e-01
2.135275006294250488e-01
7.805840969085693359e-01
-6.895024776458740234e-01
6.236325576901435852e-02
3.682021051645278931e-02
-1.276577860116958618e-01
3.830305635929107666e-01
-1.377518773078918457e-01
5.008651614189147949e-01
-2.585640549659729004e-01
-8.554802089929580688e-02
2.111379057168960571e-01
2.660055160522460938e-01
-3.241527974605560303e-01
1.471915245056152344e-01
-8.452712744474411011e-02
2.730908244848251343e-02
-2.994398772716522217e-01
-4.407639426062814891e-05
7.807548642158508301e-01
1.346713155508041382e-01
4.027184471487998962e-02
4.246550425887107849e-02
3.018543124198913574e-01
4.474811851978302002e-01
6.857792139053344727e-01
1.233749017119407654e-01
-8.862922340631484985e-02
4.679524898529052734e-01
-7.004868239164352417e-02
-7.745726406574249268e-02
3.330436050891876221e-01
1.262827068567276001e-01
1.973293870687484741e-01
6.132507696747779846e-02
-3.371968632563948631e-03
-6.232354044914245605e-02
-5.450609326362609863e-02
7.392076402902603149e-02
-2.856492400169372559e-01
-7.241128087043762207e-01
-1.143616437911987305e+00
-2.235534638166427612e-01
1.799042373895645142e-01
6.195477023720741272e-02
1.542666703462600708e-01
4.063262045383453369e-01
9.038037806749343872e-02
3.253020346164703369e-01
1.673764288425445557e-01
1.899049133062362671e-01
3.196476697921752930e-01
-2.007639408111572266e-01
-2.205279767513275146e-01
2.046272158622741699e-01
3.229922652244567871e-01
-3.953368961811065674e-01
-3.487264364957809448e-02
2.392134219408035278e-01
1.276297718286514282e-01
-1.575700379908084869e-02
-4.052544012665748596e-03
-2.120272666215896606e-01
-1.773764044046401978e-01
-1.710975766181945801e-01
-4.602304697036743164e-01
3.760918676853179932e-01
6.185761690139770508e-01
1.002086877822875977e+00
3.297486901283264160e-02
6.114470958709716797e-01
-4.965431243181228638e-02
3.221323490142822266e-01
2.975541949272155762e-01
-1.854582428932189941e-01
1.249522268772125244e-01
-7.928071022033691406e-01
-4.549447596073150635e-01
1.700771003961563110e-01
-9.572634845972061157e-02
4.828161299228668213e-01
1.357853859663009644e-01
-7.990699410438537598e-01
-1.301287859678268433e-01
8.326195180416107178e-02
3.548481464385986328e-01
-4.100394546985626221e-01
-2.302814871072769165e-01
-2.135922908782958984e-01
-3.785723149776458740e-01
-4.578543603420257568e-01
-7.143560051918029785e-01
-1.079201698303222656e-01
-6.121252477169036865e-02
2.424039542675018311e-01
-5.473070740699768066e-01
7.420570850372314453e-01
1.436356734484434128e-02
-4.854443669319152832e-01
1.925505548715591431e-01
2.486690878868103027e-01
-6.915900707244873047e-01
-2.078202813863754272e-01
-3.509766757488250732e-01
6.113649010658264160e-01
-1.408196389675140381e-01
-9.726861491799354553e-03
6.195872426033020020e-01
-2.240612916648387909e-02
-1.077995300292968750e+00
1.521287709474563599e-01
1.301363259553909302e-01
-2.599577307701110840e-01
-2.130703926086425781e-01
4.211549833416938782e-02
-4.562608525156974792e-02
4.761302173137664795e-01
