2.024436235427856445e+00
-1.274977028369903564e-01
8.358511328697204590e-02
-1.917907893657684326e-01
1.038143709301948547e-01
-4.374629259109497070e-01
-1.062050223350524902e+00
-7.744236383587121964e-03
2.917751669883728027e-01
1.333894580602645874e-02
1.031957566738128662e-01
-9.621117264032363892e-02
3.194880783557891846e-01
3.860138356685638428e-01
7.022055983543395996e-01
-1.588976740837097168e+00
7.437661886215209961e-01
-1.959857493638992310e-01
1.631590247154235840e+00
2.502588272094726562e+00
1.780290603637695312e-01
9.299025870859622955e-03
-8.938736319541931152e-01
1.074701100587844849e-01
-1.298325955867767334e-01
-8.942638337612152100e-02
-1.088101029396057129e+00
1.014110967516899109e-01
7.222422361373901367e-01
4.330022931098937988e-01
1.619058728218078613e+00
-4.585159718990325928e-01
1.762298345565795898e-01
2.917568571865558624e-02
-3.911722302436828613e-01
3.241829276084899902e-01
-2.533466219902038574e-01
8.267398476600646973e-01
-1.510953068733215332e+00
1.571889400482177734e+00
5.721231922507286072e-02
-4.676740765571594238e-01
-1.231935024261474609e-01
8.784727752208709717e-02
-1.395706236362457275e-01
-3.186278343200683594e-01
-8.686084151268005371e-01
-3.624308407306671143e-01
-6.576398760080337524e-02
1.524514198303222656e+00
2.754723429679870605e-01
4.810113906860351562e-01
-7.489639520645141602e-02
7.863403558731079102e-01
1.363885253667831421e-01
1.438393831253051758e+00
-1.311095476150512695e+00
5.251292586326599121e-01
6.425885856151580811e-02
-5.254168510437011719e-01
2.726178169250488281e-01
9.499067813158035278e-02
-2.582740485668182373e-01
-6.348912119865417480e-01
-1.923267602920532227e+00
-5.033661127090454102e-01
-1.203327059745788574e+00
2.556987285614013672e+00
4.501740336418151855e-01
-1.272656917572021484e+00
-6.822182536125183105e-01
-2.964379191398620605e-01
1.068363487720489502e-01
-7.539127767086029053e-02
-3.658464252948760986e-01
1.555993407964706421e-01
4.739335477352142334e-01
-1.193272709846496582e+00
-1.964562982320785522e-01
-1.049075946211814880e-01
9.475050866603851318e-02
6.500906497240066528e-02
-8.248552680015563965e-01
-3.937320709228515625e-01
1.572284698486328125e-01
-3.870905041694641113e-01
2.153377294540405273e+00
-4.057342112064361572e-01
-2.941747754812240601e-02
-2.018927633762359619e-01
3.372584879398345947e-01
-3.824312984943389893e-01
-4.684855043888092041e-01
2.269615381956100464e-01
-4.150669574737548828e-01
-2.365038394927978516e-01
-2.608528435230255127e-01
1.196319703012704849e-02
-5.410100817680358887e-01
4.589777886867523193e-01
5.365170910954475403e-02
-3.730823099613189697e-02
4.797809123992919922e-01
-1.684305787086486816e+00
5.216147303581237793e-01
-1.822500228881835938e+00
5.010960698127746582e-01
-8.891890197992324829e-02
-1.991260610520839691e-02
-2.659581601619720459e-01
-8.248157054185867310e-02
3.316687047481536865e-01
-2.409979403018951416e-01
6.232553720474243164e-01
3.709821999073028564e-01
3.050024807453155518e-01
4.817443788051605225e-01
-3.549348711967468262e-01
-1.069201622158288956e-02
1.097638998180627823e-02
5.692371129989624023e-01
-8.172403573989868164e-01
-1.085084900259971619e-01
9.162828326225280762e-02
5.279931426048278809e-01
-3.769335150718688965e-02
-1.747296601533889771e-01
-1.571551337838172913e-02
4.757774174213409424e-01
1.193257868289947510e-01
1.051884293556213379e-01
5.957730412483215332e-01
-1.985016912221908569e-01
-5.177638530731201172e-01
-3.236248195171356201e-01
-1.190356910228729248e-01
-1.353626251220703125e-01
2.297042459249496460e-01
3.326696872711181641e+00
3.800757825374603271e-01
1.815089434385299683e-01
-8.201567828655242920e-02
-8.480908870697021484e-01
-1.955668032169342041e-01
-2.041711807250976562e-01
5.273366570472717285e-01
2.563361644744873047e+00
-2.527782022953033447e-01
-2.283685505390167236e-01
-7.376809604465961456e-03
-4.903195798397064209e-01
3.218144476413726807e-01
1.263322494924068451e-02
3.026856482028961182e-01
-1.437222599983215332e+00
5.819962173700332642e-02
3.675727546215057373e-02
5.911866426467895508e-01
-3.057465851306915283e-01
1.775171011686325073e-01
-1.930776387453079224e-01
-3.866715133190155029e-01
1.961588710546493530e-01
1.315296769142150879e+00
-8.653510808944702148e-01
3.969970047473907471e-01
-2.344774007797241211e+00
1.604590773582458496e+00
2.377245575189590454e-01
2.029569298028945923e-01
4.030863940715789795e-01
4.373400807380676270e-01
-1.759362816810607910e-01
-4.297365546226501465e-01
-1.853720843791961670e-01
3.699687421321868896e-01
1.816526502370834351e-01
-1.742764711380004883e+00
7.409503459930419922e-01
1.926579475402832031e-01
-1.693753719329833984e+00
1.203007221221923828e+00
1.895245015621185303e-01
5.188118219375610352e-01
-5.509906411170959473e-01
2.498473674058914185e-01
3.938521444797515869e-01
-1.033090710639953613e+00
5.273841619491577148e-01
3.788259625434875488e-01
1.943572163581848145e-01
3.888363838195800781e-01
7.926631569862365723e-01
8.818219602108001709e-02
-3.125502169132232666e-01
1.269087910652160645e+00
3.543619811534881592e-01
1.140895485877990723e+00
1.315489560365676880e-01
-2.386155575513839722e-01
2.536993920803070068e-01
-1.662098765373229980e-01
4.652777612209320068e-01
6.138131022453308105e-01
-2.353160828351974487e-01
-4.584340751171112061e-01
3.054924011230468750e-01
-1.192367449402809143e-01
-2.713889479637145996e-01
1.968302018940448761e-02
6.646943688392639160e-01
1.185921952128410339e-01
5.112378597259521484e-01
-2.132355868816375732e-01
-6.372100710868835449e-01
-5.226203203201293945e-01
-8.319198489189147949e-01
4.586279094219207764e-01
-4.793651103973388672e-01
-1.229222938418388367e-01
-1.969060748815536499e-01
-1.988860815763473511e-01
4.127311706542968750e+00
2.109033584594726562e+00
-1.800799518823623657e-01
1.639078408479690552e-01
3.904970586299896240e-01
-2.369367927312850952e-01
-5.981019139289855957e-01
-5.433897376060485840e-01
-2.225616574287414551e-01
1.166234761476516724e-01
3.685394525527954102e-01
1.417468786239624023e-01
1.091737970709800720e-01
3.782196342945098877e-01
7.169114351272583008e-01
1.875985741615295410e+00
-6.137396395206451416e-02
4.574914574623107910e-01
2.373995445668697357e-02
2.137093544006347656e-01
-2.490110136568546295e-02
3.016070723533630371e-01
-6.878430396318435669e-02
1.417501717805862427e-01
1.116446107625961304e-01
-1.453927066177129745e-02
-1.523105263710021973e+00
-2.028701156377792358e-01
-2.422538846731185913e-01
5.955711603164672852e-01
-5.166186094284057617e-01
2.248721197247505188e-02
1.256277561187744141e-01
-6.822284460067749023e-01
-3.243645131587982178e-01
1.984046250581741333e-01
-4.192080721259117126e-02
2.292059212923049927e-01
-1.937123090028762817e-01
-1.075246185064315796e-01
-4.457965493202209473e-01
-4.302920699119567871e-01
2.800603583455085754e-02
-1.605957895517349243e-01
1.785845905542373657e-01
3.321712315082550049e-01
-3.740351796150207520e-01
-1.854225434362888336e-02
2.329672425985336304e-01
1.734019517898559570e-01
-2.793503999710083008e-01
7.733977586030960083e-02
2.945709228515625000e-01
-4.921724796295166016e-01
5.448690149933099747e-03
1.793189197778701782e-01
4.525250196456909180e-01
4.876650571823120117e-01
2.435125559568405151e-01
1.776616930961608887e+00
-6.498292833566665649e-02
3.993465006351470947e-01
4.098248854279518127e-02
-1.435388624668121338e-01
-3.099551796913146973e-01
1.845480352640151978e-01
-9.070823788642883301e-01
-3.029257953166961670e-01
-8.087218999862670898e-01
-2.052060067653656006e-01
7.435287535190582275e-02
8.869015574455261230e-01
-8.068689703941345215e-01
1.242120504379272461e+00
4.243348836898803711e-01
7.947058081626892090e-01
1.314551711082458496e+00
1.562316417694091797e-01
-4.222621321678161621e-01
-1.156852364540100098e+00
-1.428484767675399780e-01
-1.461254060268402100e-01
2.885508537292480469e-02
-8.731648325920104980e-01
-1.361295133829116821e-01
6.468635201454162598e-01
-1.888542473316192627e-01
3.070136606693267822e-01
-1.625698506832122803e-01
7.479342818260192871e-01
2.049748748540878296e-01
1.185894906520843506e-01
-3.777337074279785156e-01
3.451286256313323975e-02
5.637518763542175293e-01
-8.289160728454589844e-01
2.518896162509918213e-01
3.226927518844604492e-01
-7.508230209350585938e-02
-1.965991780161857605e-02
1.267360329627990723e+00
-3.452088534832000732e-01
-2.693501114845275879e-01
-4.373394548892974854e-01
-2.927033007144927979e-01
9.012509882450103760e-02
4.751338064670562744e-02
-8.558792993426322937e-03
-4.033223390579223633e-01
-5.533071756362915039e-01
-2.922653034329414368e-02
5.756584405899047852e-01
6.411566734313964844e-01
4.537957534193992615e-02
7.213674783706665039e-01
1.144200921058654785e+00
-1.404269039630889893e-01
1.647777855396270752e-01
1.516012430191040039e+00
-3.498676419258117676e-01
1.349773854017257690e-01
5.732262041419744492e-03
7.475484013557434082e-01
-5.955118313431739807e-02
4.659808278083801270e-01
-2.117656618356704712e-01
-6.759671866893768311e-02
3.004192113876342773e-01
1.422933675348758698e-02
2.016893386840820312e+00
2.596820145845413208e-02
1.189109563827514648e+00
1.032737255096435547e+00
-1.579312235116958618e-01
1.952385783195495605e+00
2.650781273841857910e-01
3.691338002681732178e-02
-6.044266745448112488e-02
-3.308960795402526855e-01
-8.752055764198303223e-01
1.042907163500785828e-01
-2.706153988838195801e-01
7.287408709526062012e-01
-1.117910146713256836e-01
1.163366213440895081e-01
2.567125856876373291e-02
1.172779351472854614e-01
-3.077852725982666016e-01
5.988403558731079102e-01
4.065190851688385010e-01
-2.144313305616378784e-01
6.856935024261474609e-01
2.739208042621612549e-01
-4.386689960956573486e-01
8.686140179634094238e-01
-5.951641201972961426e-01
2.869805812835693359e+00
-3.147433400154113770e-01
-3.657876700162887573e-02
6.000427901744842529e-02
5.979664251208305359e-02
1.829719990491867065e-01
-1.285586059093475342e-01
-5.340700745582580566e-01
3.650914907455444336e+00
2.957385182380676270e-01
5.516558289527893066e-01
-5.027810111641883850e-03
4.109038710594177246e-01
-3.549024835228919983e-02
-2.825406566262245178e-02
-1.513181179761886597e-01
-1.318907618522644043e+00
4.686125516891479492e-01
6.560041308403015137e-01
9.181354045867919922e-01
4.226787090301513672e-01
-2.251250445842742920e-01
1.602025479078292847e-01
1.580932550132274628e-02
2.691095173358917236e-01
1.434557318687438965e+00
-1.881468147039413452e-01
-1.691172569990158081e-01
-4.868963241577148438e+00
5.104116201400756836e-01
-1.073954775929450989e-01
-1.310693919658660889e-01
-1.948806345462799072e-01
1.140264421701431274e-01
1.335825771093368530e-01
6.718481183052062988e-01
-1.026254892349243164e-02
-2.451537251472473145e-01
-4.856324195861816406e-01
-2.629962921142578125e+00
5.245266482234001160e-02
-2.457828223705291748e-01
-2.107195615768432617e+00
3.590888381004333496e-01
2.928576469421386719e-01
-5.850396677851676941e-02
-7.786581516265869141e-01
-3.543261587619781494e-01
6.557574868202209473e-01
-6.435786485671997070e-01
-1.118745468556880951e-02
-4.126065075397491455e-01
-9.442760944366455078e-01
-6.976509839296340942e-02
-4.275129735469818115e-02
-3.527202606201171875e-01
-3.415439724922180176e-01
5.097949504852294922e-01
3.421775698661804199e-01
1.426384687423706055e+00
-2.489184290170669556e-01
-8.950303792953491211e-01
-1.165856793522834778e-01
1.568452082574367523e-02
-4.190483987331390381e-01
-9.585544466972351074e-02
6.209856271743774414e-01
1.010926142334938049e-01
-2.340990453958511353e-01
4.428692758083343506e-01
6.228585243225097656e-01
-4.377900809049606323e-02
-2.317197024822235107e-01
1.945567578077316284e-01
-2.431496232748031616e-01
2.557587325572967529e-01
-7.149332165718078613e-01
1.730800718069076538e-01
-2.849310934543609619e-01
-2.048925608396530151e-01
4.671860337257385254e-01
1.350632458925247192e-01
-8.318525552749633789e-02
-1.191131353378295898e+00
4.822878360748291016e+00
3.338562011718750000e+00
-2.796039916574954987e-02
-2.126807123422622681e-01
1.870618015527725220e-01
2.347392886877059937e-01
1.734997332096099854e-01
2.197387218475341797e-01
4.514359235763549805e-01
-1.614145487546920776e-01
5.043626576662063599e-02
-2.467615455389022827e-01
-3.675356209278106689e-01
4.215492308139801025e-01
6.124769449234008789e-01
3.054989576339721680e+00
4.396380186080932617e-01
-1.461141556501388550e-01
-2.130846492946147919e-02
2.782653570175170898e-01
2.924695611000061035e-01
-7.835706472396850586e-01
1.834974437952041626e-02
2.271302342414855957e-01
-8.145702481269836426e-01
1.051629111170768738e-01
-1.137544289231300354e-01
5.092725753784179688e-01
2.234609425067901611e-01
-8.355028927326202393e-02
-3.324128985404968262e-01
-5.697399377822875977e-01
7.490105032920837402e-01
1.662647426128387451e-01
-8.004295229911804199e-01
-1.568266153335571289e-01
-1.864114850759506226e-01
-9.436973929405212402e-02
1.185807436704635620e-01
-9.676805138587951660e-02
-3.510706126689910889e-01
1.160340569913387299e-02
4.463511705398559570e-01
-1.568131893873214722e-01
2.958337068557739258e-01
5.004870519042015076e-02
2.792782187461853027e-01
-1.466823518276214600e-01
5.431867390871047974e-02
-1.422528624534606934e-01
2.325547337532043457e-01
-1.234228163957595825e-01
-5.886216759681701660e-01
-2.955923974514007568e-01
-2.832556366920471191e-01
-5.590192079544067383e-01
9.646346420049667358e-02
-2.414083927869796753e-01
-4.123317077755928040e-03
2.296135760843753815e-02
-1.023196429014205933e-02
5.404167175292968750e-01
-1.897877305746078491e-01
1.976936459541320801e-01
-2.794957160949707031e-02
3.299610316753387451e-01
1.249174326658248901e-01
2.732545137405395508e-01
-8.952311426401138306e-02
4.761167466640472412e-01
-6.470396369695663452e-02
1.218090653419494629e-01
-2.051906734704971313e-01
3.806854188442230225e-01
-5.193152427673339844e-01
3.767614811658859253e-02
-1.938357204198837280e-01
6.363675463944673538e-03
5.170533061027526855e-01
6.418620795011520386e-02
-8.285226672887802124e-02
5.198985338211059570e-01
1.194025725126266479e-01
-1.615666225552558899e-02
-2.019887417554855347e-01
-3.764377906918525696e-02
-3.657511174678802490e-01
-1.285451054573059082e-01
-1.399292517453432083e-02
2.175828218460083008e-01
-2.122539430856704712e-01
6.140635013580322266e-01
-6.929539442062377930e-01
-1.027943864464759827e-01
4.099300131201744080e-02
-2.386590838432312012e-01
9.733883142471313477e-01
3.492798805236816406e-01
-5.757665038108825684e-01
1.207284927368164062e-01
1.947352886199951172e-01
-8.426432013511657715e-01
1.600843816995620728e-01
-2.739905714988708496e-01
3.182541131973266602e-01
6.136133074760437012e-01
-4.459489136934280396e-03
1.368607133626937866e-01
4.927009046077728271e-01
-1.568613052368164062e-01
-3.046787679195404053e-01
3.045749068260192871e-01
-2.699916064739227295e-01
-1.867966949939727783e-01
1.265954375267028809e-01
2.255248427391052246e-01
-4.008453786373138428e-01
-1.890760958194732666e-01
-4.200625419616699219e-02
-7.294889092445373535e-01
-1.743632405996322632e-01
8.742216229438781738e-02
-2.696744501590728760e-01
2.026537507772445679e-01
-1.315279453992843628e-01
-2.215727120637893677e-01
-6.022901087999343872e-02
3.091414272785186768e-01
-1.302229315042495728e-01
-1.469965428113937378e-01
3.621999621391296387e-01
4.719618856906890869e-01
5.539300441741943359e-01
7.462788224220275879e-01
-1.156706213951110840e-01
-1.316465139389038086e-01
7.486610412597656250e-01
-6.348434090614318848e-01
-3.606144785881042480e-01
2.434603571891784668e-01
-1.710751354694366455e-01
2.135275006294250488e-01
7.805840969085693359e-01
-6.895024776458740234e-01
6.236325576901435852e-02
3.682021051645278931e-02
-1.276577860116958618e-01
3.830305635929107666e-01
-1.377518773078918457e-01
5.008651614189147949e-01
-2.585640549659729004e-01
-8.554802089929580688e-02
2.111379057168960571e-01
2.660055160522460938e-01
-3.241527974605560303e-01
1.471915245056152344e-01
-8.452712744474411011e-02
2.730908244848251343e-02
-2.994398772716522217e-01
-4.407639426062814891e-05
7.807548642158508301e-01
1.346713155508041382e-01
4.027184471487998962e-02
4.246550425887107849e-02
3.018543124198913574e-01
4.474811851978302002e-01
6.857792139053344727e-01
1.233749017119407654e-01
-8.862922340631484985e-02
4.679524898529052734e-01
-7.004868239164352417e-02
-7.745726406574249268e-02
3.330436050891876221e-01
1.262827068567276001e-01
1.973293870687484741e-01
6.132507696747779846e-02
-3.371968632563948631e-03
-6.232354044914245605e-02
-5.450609326362609863e-02
7.392076402902603149e-02
-2.856492400169372559e-01
-7.241128087043762207e-01
-1.143616437911987305e+00
-2.235534638166427612e-01
1.799042373895645142e-01
6.195477023720741272e-02
1.542666703462600708e-01
4.063262045383453369e-01
9.038037806749343872e-02
3.253020346164703369e-01
1.673764288425445557e-01
1.899049133062362671e-01
3.196476697921752930e-01
-2.007639408111572266e-01
-2.205279767513275146e-01
2.046272158622741699e-01
3.229922652244567871e-01
-3.953368961811065674e-01
-3.487264364957809448e-02
2.392134219408035278e-01
1.276297718286514282e-01
-1.575700379908084869e-02
-4.052544012665748596e-03
-2.120272666215896606e-01
-1.773764044046401978e-01
-1.710975766181945801e-01
-4.602304697036743164e-01
3.760918676853179932e-01
6.185761690139770508e-01
1.002086877822875977e+00
3.297486901283264160e-02
6.114470958709716797e-01
-4.965431243181228638e-02
3.221323490142822266e-01
2.975541949272155762e-01
-1.854582428932189941e-01
1.249522268772125244e-01
-7.928071022033691406e-01
-4.549447596073150635e-01
1.700771003961563110e-01
-9.572634845972061157e-02
4.828161299228668213e-01
1.357853859663009644e-01
-7.990699410438537598e-01
-1.301287859678268433e-01
8.326195180416107178e-02
3.548481464385986328e-01
-4.100394546985626221e-01
-2.302814871072769165e-01
-2.135922908782958984e-01
-3.785723149776458740e-01
-4.578543603420257568e-01
-7.143560051918029785e-01
-1.079201698303222656e-01
-6.121252477169036865e-02
2.424039542675018311e-01
-5.473070740699768066e-01
7.420570850372314453e-01
1.436356734484434128e-02
-4.854443669319152832e-01
1.925505548715591431e-01
2.486690878868103027e-01
-6.915900707244873047e-01
-2.078202813863754272e-01
-3.509766757488250732e-01
6.113649010658264160e-01
-1.408196389675140381e-01
-9.726861491799354553e-03
6.195872426033020020e-01
-2.240612916648387909e-02
-1.077995300292968750e+00
1.521287709474563599e-01
1.301363259553909302e-01
-2.599577307701110840e-01
-2.130703926086425781e-01
4.211549833416938782e-02
-4.562608525156974792e-02
4.761302173137664795e-01
1.731490530073642731e-02
-5.440824106335639954e-02
1.153892204165458679e-01
9.660657495260238647e-02
-1.014022603631019592e-01
-1.191504299640655518e-01
-9.608071297407150269e-02
1.682067811489105225e-01
2.030820995569229126e-01
-2.334696203470230103e-01
4.427774995565414429e-02
-9.705010056495666504e-02
-3.847790136933326721e-02
7.600103504955768585e-03
1.801268756389617920e-02
1.867182180285453796e-02
-1.355216354131698608e-01
1.311409920454025269e-01
-9.453742764890193939e-03
-1.725723594427108765e-01
1.342070847749710083e-01
7.824350595474243164e-01
1.844821125268936157e-01
-1.238165423274040222e-01
6.007556989789009094e-02
3.991761058568954468e-02
-4.257974028587341309e-02
-2.781244218349456787e-01
9.636543691158294678e-02
-9.120333939790725708e-03
1.292661577463150024e-01
1.659504137933254242e-02
3.053814768791198730e-01
-1.796889007091522217e-01
-1.197474310174584389e-03
2.906267344951629639e-02
2.827422693371772766e-02
1.582831889390945435e-01
1.192696392536163330e-01
-4.310384020209312439e-02
-1.221789047122001648e-01
1.265979260206222534e-01
4.639403149485588074e-02
-1.705288887023925781e-01
1.144160181283950806e-01
3.210368379950523376e-02
-9.652791172266006470e-02
-1.262616664171218872e-01
4.857731983065605164e-02
1.790798157453536987e-01
-1.177093833684921265e-01
-4.091896861791610718e-02
2.582264691591262817e-02
1.195738017559051514e-01
-9.895046800374984741e-02
-4.508775845170021057e-02
-3.791816532611846924e-02
5.766464024782180786e-02
-6.604007631540298462e-02
1.132027730345726013e-01
-7.128600776195526123e-02
-1.476877629756927490e-01
2.229207307100296021e-01
1.209407895803451538e-01
-3.584030270576477051e-02
-2.656034426763653755e-03
8.979877829551696777e-02
-2.182004600763320923e-01
-6.624174863100051880e-02
7.331863045692443848e-02
3.162555396556854248e-01
-2.376533485949039459e-02
-8.381523936986923218e-02
-1.181593015789985657e-01
1.361419074237346649e-02
8.196830004453659058e-02
-9.040088206529617310e-02
1.119493991136550903e-01
9.857720136642456055e-02
-1.625251322984695435e-01
-1.650148481130599976e-01
3.116277977824211121e-02
-3.883819580078125000e-01
6.253510247915983200e-03
-1.244536191225051880e-01
-1.050257012248039246e-01
1.419094651937484741e-01
1.130038723349571228e-01
5.252544581890106201e-02
-1.519489288330078125e-01
-1.278391778469085693e-01
-1.937752217054367065e-01
6.247816979885101318e-02
1.100727319717407227e-01
2.548317611217498779e-01
2.514447271823883057e-02
3.954921662807464600e-02
-5.224768817424774170e-02
1.606174744665622711e-02
-6.792079657316207886e-02
2.482219040393829346e-01
3.256206512451171875e-01
-2.144759744405746460e-01
4.712495207786560059e-02
-5.189572647213935852e-02
-3.688773885369300842e-02
-1.492952406406402588e-01
-9.320180118083953857e-02
6.982392072677612305e-02
-6.738941371440887451e-02
-4.227148741483688354e-02
-1.649052649736404419e-01
1.092670634388923645e-01
7.458835374563932419e-03
1.931482851505279541e-01
-1.080986857414245605e-01
3.047735989093780518e-01
1.550590544939041138e-01
2.662209048867225647e-02
1.011008489876985550e-02
4.812946915626525879e-02
1.978822052478790283e-01
-5.296602100133895874e-02
1.848823130130767822e-01
5.345496535301208496e-02
-2.798730432987213135e-01
1.060205046087503433e-02
5.059147998690605164e-02
-2.732890844345092773e-02
-2.836354076862335205e-01
-1.440444588661193848e-01
-3.342613950371742249e-02
-4.445772618055343628e-03
1.947382837533950806e-01
-1.256035268306732178e-01
-6.469033658504486084e-02
-7.035928219556808472e-02
1.076916903257369995e-01
7.793848961591720581e-02
5.058005824685096741e-02
-5.341463163495063782e-02
-1.126003935933113098e-01
2.208416014909744263e-01
-1.047612652182579041e-01
-2.575827538967132568e-01
-2.907566167414188385e-02
3.737474232912063599e-02
8.599717915058135986e-02
3.413360193371772766e-02
-6.078200787305831909e-02
2.228583954274654388e-02
1.503449678421020508e-01
7.200086861848831177e-02
-4.363681003451347351e-02
1.271181255578994751e-01
-7.238896936178207397e-02
-1.133500039577484131e-01
1.766828000545501709e-01
-9.987676888704299927e-02
7.626120001077651978e-02
1.648408919572830200e-01
-2.534655854105949402e-02
9.112154692411422729e-02
-2.157832980155944824e-01
-1.652095764875411987e-01
-1.265734154731035233e-02
1.240099295973777771e-01
-5.013423785567283630e-02
-4.755667224526405334e-02
-3.518214225769042969e-01
7.819806039333343506e-02
5.045958980917930603e-02
2.155108451843261719e-01
6.667724251747131348e-02
-1.048769056797027588e-01
-3.127833306789398193e-01
-1.687214523553848267e-01
1.965277455747127533e-02
6.151493638753890991e-02
-2.631000578403472900e-01
3.984457999467849731e-02
-6.256514787673950195e-02
-9.195692837238311768e-02
-1.184908598661422729e-01
2.167332731187343597e-02
-4.426501691341400146e-03
1.396060734987258911e-01
-8.055887371301651001e-02
-4.052290692925453186e-02
-9.536904096603393555e-02
1.377027481794357300e-01
8.642160147428512573e-02
2.361021786928176880e-01
-1.264170557260513306e-01
8.457991480827331543e-02
1.009077429771423340e-01
3.181378915905952454e-02
1.220571324229240417e-01
-3.871711716055870056e-02
-6.282269209623336792e-02
2.187669873237609863e-01
5.968876183032989502e-02
5.053261667490005493e-02
1.749794632196426392e-01
2.999585270881652832e-01
-2.299043163657188416e-02
-8.034764975309371948e-02
-9.415812790393829346e-02
1.061758473515510559e-01
3.236896544694900513e-02
-1.142414100468158722e-02
9.224723279476165771e-02
-7.931190729141235352e-02
-2.483768574893474579e-02
-4.470461979508399963e-02
-1.321929246187210083e-01
-7.338114082813262939e-02
4.935801774263381958e-02
1.508126258850097656e-01
-7.995498180389404297e-02
1.634304821491241455e-01
-2.748891711235046387e-01
4.507235810160636902e-02
-4.231246560811996460e-02
2.776284813880920410e-01
1.618842482566833496e-01
-1.592198163270950317e-01
3.857362642884254456e-02
1.914128288626670837e-02
9.255527704954147339e-02
3.653898462653160095e-02
-1.752952933311462402e-01
-1.875006705522537231e-01
-1.008103694766759872e-02
1.077452301979064941e-01
1.538183093070983887e-01
8.536420017480850220e-02
5.025351420044898987e-02
-7.129831612110137939e-02
-1.351962983608245850e-01
9.542506933212280273e-02
-7.286049425601959229e-02
2.389499545097351074e-01
3.437392413616180420e-03
-3.094173595309257507e-02
8.142419159412384033e-02
3.056336008012294769e-02
-1.679506599903106689e-01
5.215278267860412598e-02
7.266285270452499390e-02
1.604532003402709961e-01
3.488078713417053223e-02
-5.963994562625885010e-02
2.415411174297332764e-01
-8.054360747337341309e-02
5.462831631302833557e-02
5.322967842221260071e-02
-1.650332808494567871e-01
-3.386528464034199715e-03
-1.018900200724601746e-01
8.457801491022109985e-02
5.900050699710845947e-02
2.732288651168346405e-02
9.924707561731338501e-02
8.485569059848785400e-02
4.137795418500900269e-02
1.243244186043739319e-01
-5.133268237113952637e-02
-6.098587065935134888e-02
-5.902146548032760620e-02
1.178285256028175354e-01
-1.287530660629272461e-01
-2.073002606630325317e-02
-1.724953800439834595e-01
-8.093383163213729858e-02
7.192535698413848877e-02
-1.333579421043395996e-01
-1.046372503042221069e-01
-1.071401759982109070e-01
-9.482413530349731445e-02
-4.194746538996696472e-02
-9.109137579798698425e-03
-8.587998896837234497e-02
7.882273942232131958e-02
7.393755763769149780e-02
-9.534057229757308960e-02
-5.346619337797164917e-02
-5.473803263157606125e-03
-4.871067404747009277e-02
-2.602997422218322754e-02
3.436696529388427734e-02
-3.566690981388092041e-01
-2.288313806056976318e-01
-2.962804632261395454e-03
-1.295287720859050751e-02
1.201074346899986267e-01
1.242661476135253906e-01
4.474181681871414185e-02
-4.836449027061462402e-02
-1.696991734206676483e-03
2.055594883859157562e-02
-1.259359866380691528e-01
-1.295851767063140869e-01
1.447896212339401245e-01
1.348007470369338989e-01
-1.478803008794784546e-01
-1.099193617701530457e-01
-7.066091056913137436e-04
8.298597484827041626e-02
1.402637213468551636e-01
-1.053188741207122803e-01
-5.245961621403694153e-02
-6.113714352250099182e-02
1.072008311748504639e-01
2.818852849304676056e-02
1.235245838761329651e-01
1.954399198293685913e-01
2.038094550371170044e-01
-5.114722251892089844e-02
-1.421403698623180389e-02
1.570769250392913818e-01
-1.603747457265853882e-01
-7.075569033622741699e-02
8.047831803560256958e-02
7.102572172880172729e-02
-3.914963454008102417e-03
2.088255137205123901e-01
4.086551442742347717e-02
2.426660433411598206e-02
-3.754986077547073364e-02
-7.005278021097183228e-02
-2.562673389911651611e-01
8.010918647050857544e-02
1.031163483858108521e-01
8.172874338924884796e-03
1.407034844160079956e-01
1.022536233067512512e-01
-1.675985753536224365e-01
-2.941167913377285004e-02
-2.508285641670227051e-01
-1.318443417549133301e-01
-1.315769925713539124e-02
1.239818856120109558e-01
-6.071305647492408752e-02
4.781982675194740295e-02
-1.694229990243911743e-01
2.721481956541538239e-03
-1.838667690753936768e-02
-2.865829691290855408e-02
-7.909940555691719055e-03
-1.523682326078414917e-01
-1.040382683277130127e-01
-2.874335460364818573e-02
2.847778052091598511e-02
-1.151336729526519775e-01
-6.905600428581237793e-02
3.416465222835540771e-02
1.871445029973983765e-02
-2.792874164879322052e-02
-4.179814830422401428e-02
1.553231179714202881e-01
-5.794479977339506149e-03
6.330768764019012451e-02
2.511488199234008789e-01
-8.459936827421188354e-02
9.466374665498733521e-02
2.810218743979930878e-02
1.156854331493377686e-01
5.545406416058540344e-02
-2.369898837059736252e-03
-4.074252769351005554e-02
6.444382946938276291e-03
7.975994795560836792e-02
1.123271510004997253e-01
9.129029698669910431e-03
-1.891056820750236511e-02
-3.854700550436973572e-02
-1.334349513053894043e-01
6.432628631591796875e-02
6.680779159069061279e-02
-2.837167493999004364e-02
1.740335226058959961e-01
-6.103954091668128967e-02
1.065196990966796875e-01
1.416920870542526245e-01
-2.237900197505950928e-01
1.234900429844856262e-01
-1.141154989600181580e-01
-5.159745737910270691e-02
-1.356995254755020142e-01
1.736592948436737061e-01
-8.614291250705718994e-02
-1.204148977994918823e-01
-1.031736284494400024e-01
3.594724088907241821e-02
-6.940557062625885010e-02
-2.244959771633148193e-02
-8.122587949037551880e-02
7.351194974035024643e-03
-1.277440637350082397e-01
1.904778778553009033e-01
2.325897105038166046e-02
8.758107200264930725e-03
-6.801903992891311646e-02
-5.815378576517105103e-02
7.831402122974395752e-02
7.041037827730178833e-02
1.556620150804519653e-01
-8.229123800992965698e-02
-7.727792859077453613e-02
-4.682828485965728760e-02
1.676062121987342834e-02
-3.727712854743003845e-02
-1.201432012021541595e-02
-5.506039038300514221e-02
1.438545435667037964e-01
1.943059824407100677e-02
-7.669975608587265015e-02
9.481468796730041504e-02
9.209448471665382385e-03
8.870685100555419922e-02
-1.777881756424903870e-02
5.800312384963035583e-02
7.733350247144699097e-02
-4.792330041527748108e-02
9.565186686813831329e-03
-1.684174537658691406e-01
8.191350102424621582e-02
3.422444313764572144e-02
-4.198627546429634094e-03
-1.108298916369676590e-02
1.318348646163940430e-01
5.953966453671455383e-02
1.077443808317184448e-01
-2.341661900281906128e-01
-4.659483581781387329e-02
4.977251216769218445e-02
1.062098369002342224e-01
2.600544318556785583e-02
-1.162860542535781860e-02
-3.333466872572898865e-02
7.853816449642181396e-02
3.017770648002624512e-01
-1.047018170356750488e-01
-8.170633763074874878e-02
4.986542277038097382e-03
2.231235951185226440e-01
4.948025103658437729e-03
1.564653217792510986e-01
-7.278913259506225586e-02
-3.135466948151588440e-02
3.980696201324462891e-02
-1.665693707764148712e-02
5.865753442049026489e-02
-2.153054066002368927e-02
6.427612155675888062e-02
3.942852839827537537e-02
-5.326952412724494934e-02
1.971532702445983887e-01
4.646369069814682007e-02
6.598922610282897949e-02
1.756259202957153320e-01
-2.084558829665184021e-02
4.257465153932571411e-02
1.388681232929229736e-01
1.928690075874328613e-02
-1.043498516082763672e-02
-2.251642756164073944e-02
-5.558445584028959274e-03
1.249072551727294922e-01
3.941115364432334900e-02
-3.565756231546401978e-02
8.039627969264984131e-02
3.957366570830345154e-02
1.529587805271148682e-01
-7.478733360767364502e-02
-2.411363869905471802e-01
1.857830137014389038e-01
1.599042862653732300e-01
1.452423632144927979e-03
-1.395769417285919189e-01
6.604664027690887451e-02
-1.494507044553756714e-01
-2.499416172504425049e-01
1.301476657390594482e-01
5.230358242988586426e-02
-5.460776761174201965e-02
-8.382425457239151001e-02
-2.525178156793117523e-02
1.222076192498207092e-01
3.236521780490875244e-02
3.020241111516952515e-02
-3.409685567021369934e-02
5.240182951092720032e-02
-7.994418591260910034e-02
2.843219041824340820e-02
1.970490999519824982e-02
4.595455247908830643e-03
-8.588597178459167480e-02
-8.917753584682941437e-03
-1.045312732458114624e-01
-9.197271615266799927e-02
9.074877947568893433e-02
-2.175063360482454300e-03
2.700452879071235657e-02
5.589628592133522034e-02
-1.139986068010330200e-01
-1.498067378997802734e-01
6.257584691047668457e-02
-1.183702647686004639e-01
3.677085787057876587e-02
-1.013311296701431274e-01
-1.771577633917331696e-02
9.479646105319261551e-04
-7.421163469552993774e-02
6.279963254928588867e-02
2.910859696567058563e-02
-5.489596165716648102e-03
-3.147425875067710876e-02
-5.426057428121566772e-02
-1.439566612243652344e-01
-8.308371901512145996e-02
-3.675015568733215332e-01
-1.168954744935035706e-01
-1.024188026785850525e-01
-2.742636017501354218e-02
-9.662327915430068970e-02
-3.050195425748825073e-02
-1.360884606838226318e-01
2.437834143638610840e-01
-9.971587359905242920e-02
1.559192389249801636e-01
7.811471819877624512e-02
-1.421470046043395996e-01
4.362576082348823547e-02
2.795298211276531219e-02
9.484156221151351929e-02
2.159822918474674225e-02
5.249883979558944702e-02
9.930738061666488647e-02
-7.405944168567657471e-02
-6.469625514000654221e-03
-1.798619031906127930e-01
8.113224059343338013e-02
4.616292566061019897e-02
-1.062922850251197815e-01
-1.183393150568008423e-01
-2.060413360595703125e-02
2.368165925145149231e-02
-4.521204624325037003e-03
1.164148151874542236e-01
-1.443813443183898926e-01
-1.461141556501388550e-01
-7.041309773921966553e-02
6.279644370079040527e-02
-3.377962857484817505e-02
-2.160482406616210938e-01
2.512160502374172211e-02
-1.214670389890670776e-02
-1.629916951060295105e-02
-2.711577899754047394e-02
-9.898234903812408447e-02
-4.841763153672218323e-02
4.243131354451179504e-02
-6.817626208066940308e-02
3.969720005989074707e-02
-2.326776534318923950e-01
1.287707220762968063e-02
1.263328641653060913e-01
-3.606885299086570740e-02
-7.384933531284332275e-02
1.144680008292198181e-01
-9.825124591588973999e-02
-5.875538662075996399e-02
-2.852250263094902039e-02
-1.130983307957649231e-01
1.782667785882949829e-01
1.115594208240509033e-01
-1.077152118086814880e-01
6.673121452331542969e-02
1.915166340768337250e-02
-1.619133353233337402e-01
-6.367205083370208740e-02
8.988820016384124756e-02
-8.051585406064987183e-02
2.353615313768386841e-02
-5.306133627891540527e-02
5.275681242346763611e-02
-5.505136772990226746e-02
1.066852584481239319e-01
1.039082743227481842e-02
2.524260245263576508e-02
4.808769375085830688e-02
2.721191942691802979e-02
-2.201909758150577545e-02
6.666731834411621094e-02
3.024698793888092041e-02
4.904774948954582214e-02
-5.831279605627059937e-02
2.161531895399093628e-02
-5.655544251203536987e-02
-8.515982329845428467e-02
6.307403743267059326e-02
2.577086910605430603e-02
6.545564532279968262e-02
1.390856653451919556e-01
-1.199759393930435181e-01
-1.174327209591865540e-01
1.671531982719898224e-02
9.452556073665618896e-02
7.339925318956375122e-02
-6.394349783658981323e-02
2.910275571048259735e-02
-7.052817940711975098e-02
1.445622444152832031e-01
9.103401750326156616e-02
6.233199313282966614e-02
1.657254844903945923e-01
3.647639229893684387e-02
-3.402007743716239929e-02
1.085865031927824020e-02
8.226052671670913696e-02
6.223700940608978271e-02
9.503560513257980347e-02
-1.233126670122146606e-01
1.275636702775955200e-01
-6.519491970539093018e-02
-3.230337053537368774e-02
5.545248463749885559e-02
-1.619641855359077454e-02
-1.631429940462112427e-01
-3.748202323913574219e-02
-2.254588529467582703e-02
-9.039174765348434448e-02
3.794406354427337646e-02
4.861563909798860550e-03
-5.716413725167512894e-03
-8.729247003793716431e-02
-5.424007028341293335e-02
-1.291812360286712646e-01
3.999377787113189697e-02
6.984805315732955933e-02
1.167353764176368713e-01
3.530176356434822083e-02
-8.022499084472656250e-02
-5.372231826186180115e-03
1.370441075414419174e-02
-9.936567395925521851e-02
1.538555622100830078e-01
1.902437210083007812e-02
-4.344400949776172638e-03
1.513298749923706055e-01
2.097366005182266235e-01
3.336992813274264336e-03
-1.183084491640329361e-02
8.767073042690753937e-03
2.082980573177337646e-01
-4.634992405772209167e-02
4.128142073750495911e-02
8.171033114194869995e-02
9.928654134273529053e-02
-1.038244888186454773e-01
-8.498744666576385498e-02
-3.981169313192367554e-02
-6.326083093881607056e-02
-1.672771573066711426e-02
5.752738937735557556e-02
-6.779602915048599243e-02
2.089370638132095337e-01
-5.995216593146324158e-02
-2.618993073701858521e-02
7.982718199491500854e-02
6.646572053432464600e-02
9.994439035654067993e-02
-1.859510093927383423e-01
2.667407318949699402e-02
5.949835851788520813e-02
-2.285813540220260620e-02
-1.145920976996421814e-01
-4.431094974279403687e-02
2.336703054606914520e-02
-4.685373231768608093e-02
4.473990295082330704e-03
2.011662907898426056e-02
-5.425694584846496582e-02
6.900782138109207153e-02
-8.369439840316772461e-02
1.119468882679939270e-01
9.699365124106407166e-03
7.330449670553207397e-02
-5.929869413375854492e-02
1.210462525486946106e-01
-4.713049530982971191e-02
1.398447155952453613e-02
9.884671866893768311e-02
5.318237096071243286e-02
1.399111095815896988e-02
-6.391149759292602539e-02
1.416479349136352539e-01
3.330108821392059326e-01
1.339581701904535294e-02
8.668518811464309692e-02
-1.042582914233207703e-01
-6.785479933023452759e-02
1.690683811902999878e-01
-1.999552249908447266e-01
-8.631321042776107788e-02
1.534623280167579651e-02
-7.793103158473968506e-02
-6.075274571776390076e-02
1.079888343811035156e-01
6.833089143037796021e-02
-5.172269046306610107e-02
1.833427995443344116e-01
-1.009770333766937256e-01
-1.763731837272644043e-01
9.215620160102844238e-02
1.738128066062927246e-02
-5.345457792282104492e-02
-7.393081486225128174e-02
-1.254784408956766129e-02
1.478831470012664795e-02
4.529908299446105957e-02
3.224020600318908691e-01
-5.529947229661047459e-04
-5.475251004099845886e-02
3.029629774391651154e-02
-6.609558314085006714e-02
4.382879287004470825e-02
-7.117307931184768677e-02
8.826325088739395142e-02
-5.360100045800209045e-02
-6.591025739908218384e-02
6.938658189028501511e-03
-2.174816466867923737e-02
1.550427824258804321e-01
-1.998548395931720734e-02
2.113293856382369995e-02
8.542700111865997314e-02
-7.864563725888729095e-03
-1.477723661810159683e-02
-6.206493079662322998e-02
-6.047134101390838623e-02
6.537824403494596481e-03
9.381070733070373535e-02
-6.981810182332992554e-02
-2.788498438894748688e-02
-1.682710200548171997e-01
2.934367395937442780e-02
-5.477968975901603699e-02
-3.858058771584182978e-04
8.169512450695037842e-02
3.205336257815361023e-02
5.820982530713081360e-02
-9.501569718122482300e-02
7.408659160137176514e-02
-2.034885436296463013e-02
-4.124522383790463209e-04
4.133423417806625366e-02
-1.239884942770004272e-01
1.121828425675630569e-02
9.623736888170242310e-02
-1.512429267168045044e-01
1.224220022559165955e-01
-1.109171956777572632e-01
-9.489641338586807251e-02
1.121100485324859619e-01
1.725300401449203491e-01
4.560926556587219238e-02
8.300417661666870117e-02
-3.823797404766082764e-02
-1.673784665763378143e-02
8.876337856054306030e-02
-1.268419027328491211e-01
8.039742708206176758e-02
3.846374899148941040e-02
1.035677455365657806e-02
3.323827311396598816e-02
1.547008454799652100e-01
-1.616853624582290649e-01
-3.143830597400665283e-02
2.157919481396675110e-02
-1.845591323217377067e-04
1.188647653907537460e-02
1.416209060698747635e-02
-1.296391338109970093e-02
-1.278766691684722900e-01
-3.865122562274336815e-03
-1.295248270034790039e-01
3.701499104499816895e-02
-9.479080885648727417e-02
1.627812832593917847e-01
-1.065751910209655762e-01
2.757156640291213989e-02
-9.337442368268966675e-02
-7.003918290138244629e-02
1.393782794475555420e-01
-6.276800483465194702e-02
7.897189259529113770e-02
4.819422587752342224e-02
-4.676252976059913635e-02
-2.933589555323123932e-02
-6.902621686458587646e-02
-1.833861917257308960e-01
-1.079456135630607605e-01
-8.415830880403518677e-02
1.361873000860214233e-01
-1.627113297581672668e-02
2.115642279386520386e-02
-1.740604452788829803e-02
-6.168654561042785645e-02
-1.051077991724014282e-01
-6.441478431224822998e-02
1.538679897785186768e-01
-7.024806737899780273e-02
-1.364712975919246674e-02
2.975859679281711578e-02
1.358347386121749878e-01
1.822979748249053955e-01
-1.876097172498703003e-03
-2.894997224211692810e-02
1.285728961229324341e-01
1.282856916077435017e-03
8.735445328056812286e-03
-1.201295107603073120e-01
-5.963631719350814819e-02
1.551673561334609985e-01
7.244519889354705811e-03
1.031658146530389786e-02
1.199605390429496765e-01
8.450816385447978973e-03
8.840422332286834717e-02
2.130839675664901733e-01
-1.282263547182083130e-01
-1.453921943902969360e-01
-2.013497054576873779e-01
1.179345417767763138e-02
-1.215733811259269714e-01
1.537516154348850250e-02
-1.164057478308677673e-02
3.810662031173706055e-02
1.300657242536544800e-01
8.353469893336296082e-03
-9.036518633365631104e-02
-1.948663778603076935e-02
-1.057227924466133118e-01
-1.128657460212707520e-01
4.285444021224975586e-01
7.279108464717864990e-02
-4.227198287844657898e-02
-1.897067725658416748e-01
-1.722386479377746582e-01
-1.475728005170822144e-01
1.137324497103691101e-01
7.444103807210922241e-02
5.554027855396270752e-02
-7.168105244636535645e-02
1.515112519264221191e-01
-2.846745960414409637e-02
-4.957181513309478760e-01
-1.508675217628479004e-01
-2.380255907773971558e-01
4.289282020181417465e-03
-2.878209389746189117e-02
-2.877792902290821075e-02
1.661533713340759277e-01
-1.101277023553848267e-02
1.973131746053695679e-01
2.093270123004913330e-01
8.179983496665954590e-02
-3.824626654386520386e-02
2.872711122035980225e-01
1.140151470899581909e-01
4.080317914485931396e-02
-1.691621392965316772e-01
2.178360223770141602e-01
1.736172884702682495e-01
2.038599550724029541e-01
1.607701778411865234e-01
2.047806084156036377e-01
-1.182949766516685486e-01
-1.889164932072162628e-02
4.634549468755722046e-02
-1.250079870223999023e-01
7.133185118436813354e-02
2.018082886934280396e-01
-1.111698672175407410e-01
1.434951573610305786e-01
-1.437580436468124390e-01
2.597064375877380371e-01
-1.676406860351562500e-01
-1.438255012035369873e-01
-1.026038900017738342e-01
1.555146276950836182e-01
-8.480217307806015015e-02
-2.919983118772506714e-02
-6.321694701910018921e-02
-6.991529464721679688e-02
2.326379716396331787e-02
2.604236640036106110e-02
1.423755777068436146e-03
8.025726675987243652e-02
1.217533200979232788e-01
-8.987499773502349854e-02
-1.793770939111709595e-01
4.965192452073097229e-02
1.404739767313003540e-01
-4.554941877722740173e-02
-4.241649210453033447e-01
-1.741273254156112671e-01
-2.378346771001815796e-02
3.168006660416722298e-03
-3.751736879348754883e-02
-2.345397472381591797e-01
2.003488838672637939e-01
-1.448464021086692810e-02
-1.048863083124160767e-01
-3.300109878182411194e-02
1.590498685836791992e-01
-1.755368337035179138e-02
-1.100414525717496872e-02
4.306826367974281311e-02
-8.178202807903289795e-02
1.594923883676528931e-01
2.107204794883728027e-01
1.491733193397521973e-01
5.603237822651863098e-02
-8.299934118986129761e-02
-8.838584274053573608e-02
1.529340595006942749e-01
1.426296960562467575e-02
-1.959246397018432617e-01
2.928380668163299561e-01
-1.833143979310989380e-01
1.430354714393615723e-01
-7.686718553304672241e-02
3.036342002451419830e-02
-1.242256462574005127e-01
-4.651379771530628204e-03
-7.488626986742019653e-02
8.208281546831130981e-02
-1.659579426050186157e-01
-2.021783962845802307e-02
1.078116223216056824e-01
2.396914549171924591e-02
2.267107553780078888e-02
-4.161555469036102295e-01
3.653879463672637939e-02
2.348619848489761353e-01
-9.350323677062988281e-02
-9.148096293210983276e-02
-9.369235485792160034e-02
-1.620143353939056396e-01
2.999963611364364624e-02
1.655152142047882080e-01
1.079099923372268677e-01
5.718170851469039917e-02
-1.502287238836288452e-01
-4.548132717609405518e-01
-1.284846961498260498e-01
3.956212312914431095e-04
-8.520273491740226746e-03
-6.933895405381917953e-03
-3.164931237697601318e-01
1.588767915964126587e-01
-3.575638635084033012e-03
1.284436881542205811e-01
1.243306472897529602e-01
1.205141935497522354e-02
2.682090550661087036e-02
-3.380092605948448181e-02
6.365782022476196289e-02
5.808567628264427185e-02
1.713072061538696289e-01
9.788462519645690918e-02
-9.972684085369110107e-02
-1.176139861345291138e-01
8.738665282726287842e-02
-9.048387408256530762e-02
-1.163345295935869217e-02
-1.502034664154052734e-01
-3.351394832134246826e-02
3.064089082181453705e-02
-1.374025791883468628e-01
-1.111119538545608521e-01
-1.290132999420166016e-01
1.532241981476545334e-02
2.028377652168273926e-01
-3.793816268444061279e-02
4.901970177888870239e-02
-5.960858240723609924e-02
9.328755736351013184e-02
3.757285326719284058e-02
-1.303970068693161011e-01
1.591381132602691650e-01
4.964817315340042114e-02
-1.386407464742660522e-01
9.934559464454650879e-02
-2.870052307844161987e-02
4.537652432918548584e-02
-6.917044520378112793e-01
-4.234513267874717712e-02
-8.218815922737121582e-02
1.656052321195602417e-01
4.966598749160766602e-02
7.286696881055831909e-02
-3.910895437002182007e-02
-4.819140583276748657e-02
-1.391190141439437866e-01
-1.045103557407855988e-02
-1.024741530418395996e-01
-4.181594401597976685e-02
-1.153751239180564880e-01
1.307367626577615738e-02
-1.389539241790771484e-01
1.555703114718198776e-02
-3.134024515748023987e-02
2.904793024063110352e-01
3.375652059912681580e-02
1.453259885311126709e-01
-8.635614067316055298e-02
-1.497554220259189606e-02
-2.275854200124740601e-01
-1.962628066539764404e-01
-4.486740101128816605e-03
-1.174457892775535583e-01
-3.564747166819870472e-04
-1.230657100677490234e-01
7.978514581918716431e-02
3.850201517343521118e-02
-9.249529242515563965e-02
5.563546717166900635e-02
-4.866660758852958679e-02
-6.767417490482330322e-02
2.095476537942886353e-01
3.443775326013565063e-02
2.091028541326522827e-01
-1.052167043089866638e-01
3.189098462462425232e-02
1.313211675733327866e-02
-1.184902489185333252e-01
1.269785165786743164e-01
-5.580563843250274658e-02
1.191986054182052612e-01
1.489108651876449585e-01
-3.488254919648170471e-02
6.886555999517440796e-02
1.462586671113967896e-01
-2.395755946636199951e-01
8.532734215259552002e-02
2.057302147150039673e-01
-8.317059278488159180e-02
2.250734269618988037e-01
6.271637976169586182e-02
1.434166729450225830e-01
2.790913917124271393e-02
-3.338301181793212891e-02
-1.174307763576507568e-01
-7.923233509063720703e-02
-3.579617738723754883e-01
2.874091267585754395e-01
-3.267288208007812500e-01
1.293639931827783585e-02
-9.431844577193260193e-03
1.324967015534639359e-02
9.563426673412322998e-02
9.006125479936599731e-02
6.546913087368011475e-02
-8.552163839340209961e-03
5.207541957497596741e-02
2.911499515175819397e-02
-3.357590362429618835e-02
2.766500227153301239e-02
6.797594577074050903e-02
4.703705310821533203e-01
-1.109672011807560921e-03
2.292575538158416748e-01
-4.993770644068717957e-02
-9.128703922033309937e-02
-1.196159422397613525e-01
6.882965099066495895e-03
-1.813266426324844360e-01
2.367276139557361603e-02
-3.359416872262954712e-02
-7.415191829204559326e-02
1.133640408515930176e-01
-1.756321340799331665e-01
-3.943557664752006531e-02
3.900320734828710556e-03
2.719825506210327148e-01
5.252729728817939758e-02
1.543108969926834106e-01
3.147708624601364136e-02
-1.311982236802577972e-02
1.222454011440277100e-01
2.989275753498077393e-02
1.682134121656417847e-01
-6.800813227891921997e-02
-6.706889718770980835e-02
2.522568404674530029e-01
6.480885297060012817e-02
1.033666133880615234e-01
-5.989509448409080505e-02
6.338836997747421265e-02
-6.156970188021659851e-02
6.937532871961593628e-02
-5.306295119225978851e-03
4.911025613546371460e-02
-8.075580000877380371e-02
-2.159081958234310150e-02
5.327612906694412231e-02
-5.600366741418838501e-02
-1.907663643360137939e-01
-8.178152889013290405e-02
5.669608339667320251e-02
-1.017689146101474762e-02
-1.120082810521125793e-01
-2.948643453419208527e-02
-8.610842376947402954e-02
-5.979424715042114258e-02
-2.071232795715332031e-01
4.492256045341491699e-02
-5.469939857721328735e-02
2.183116599917411804e-02
-6.451502442359924316e-02
-1.449896246194839478e-01
3.775204345583915710e-02
7.333987951278686523e-02
4.990578070282936096e-02
-1.756620109081268311e-01
8.530456572771072388e-02
5.250976234674453735e-02
-1.511260122060775757e-02
-2.592654898762702942e-02
-3.493951261043548584e-02
-9.298852086067199707e-02
6.946567445993423462e-02
9.523638337850570679e-02
5.050610378384590149e-02
6.234955042600631714e-02
4.858436435461044312e-02
-7.183913886547088623e-02
-9.204015135765075684e-02
-1.227072551846504211e-01
-3.275927156209945679e-02
-7.560867350548505783e-03
4.038063064217567444e-02
2.860709838569164276e-02
3.417204916477203369e-01
3.460444137454032898e-02
-9.287671744823455811e-02
1.928984075784683228e-01
2.001764476299285889e-01
1.354110836982727051e-01
8.446199446916580200e-02
6.306799501180648804e-02
1.888262927532196045e-01
2.678709328174591064e-01
-2.313806265592575073e-01
-3.661232069134712219e-02
8.385533094406127930e-02
-8.388082683086395264e-02
1.782811135053634644e-01
1.526751071214675903e-01
-5.680216476321220398e-02
8.286267518997192383e-02
-1.766097247600555420e-01
3.672746242955327034e-03
9.880167245864868164e-02
8.890727534890174866e-03
1.184740588068962097e-01
1.012156382203102112e-01
1.220635473728179932e-01
-6.333409249782562256e-02
1.004763022065162659e-01
1.005339547991752625e-01
-2.194076031446456909e-02
-1.569736897945404053e-01
9.417547285556793213e-02
-7.907407358288764954e-03
8.432362973690032959e-02
-3.255087882280349731e-02
-6.638727616518735886e-03
-1.344011425971984863e-01
6.827393174171447754e-02
-5.745805427432060242e-02
2.917430400848388672e-01
6.588578969240188599e-02
-2.434051409363746643e-02
-1.972021609544754028e-01
-1.026806309819221497e-01
-1.738691516220569611e-02
1.097374111413955688e-01
-4.020016640424728394e-02
-7.712897658348083496e-02
5.397625640034675598e-02
1.095522120594978333e-01
-6.310098618268966675e-02
-4.042801260948181152e-02
3.734206780791282654e-02
2.116239070892333984e-02
-1.764260381460189819e-01
9.060437232255935669e-02
1.036712154746055603e-01
6.258798390626907349e-02
-1.738069057464599609e-01
2.454633824527263641e-03
-1.420610249042510986e-01
-1.914077065885066986e-02
8.085704594850540161e-02
2.300727963447570801e-01
5.370256304740905762e-02
6.176892668008804321e-02
2.602912187576293945e-01
-1.557604968547821045e-01
1.462498158216476440e-01
2.138504832983016968e-01
4.326718300580978394e-02
-6.310271471738815308e-02
9.480289369821548462e-02
1.293114423751831055e-01
1.340041905641555786e-01
6.237800419330596924e-02
-4.475057125091552734e-03
1.611297130584716797e-01
-2.009442746639251709e-01
-7.699349522590637207e-02
-1.406826972961425781e-01
-1.284049749374389648e-01
2.039786614477634430e-02
3.895835950970649719e-02
-5.139618739485740662e-02
-9.245708584785461426e-02
-1.026129424571990967e-01
-6.687746196985244751e-02
-1.460145562887191772e-01
5.767698585987091064e-02
-1.130177006125450134e-01
-2.881689183413982391e-02
-1.505471915006637573e-01
-1.413969136774539948e-02
-7.366719096899032593e-02
1.304555833339691162e-01
-1.275358349084854126e-01
1.812356859445571899e-01
-5.348732322454452515e-02
9.187316894531250000e-02
-7.951264083385467529e-02
1.351070310920476913e-02
4.755127429962158203e-02
1.326747983694076538e-02
-1.003386005759239197e-01
-3.382055833935737610e-02
-2.358351796865463257e-01
7.829634845256805420e-02
-1.073065306991338730e-02
-1.662633195519447327e-02
-1.195919290184974670e-01
-1.921951398253440857e-02
2.715832740068435669e-02
3.002471663057804108e-02
-5.701122805476188660e-02
-1.288568228483200073e-01
-1.729825697839260101e-02
-2.045448170974850655e-03
-2.008762657642364502e-01
-5.997329205274581909e-02
2.563516795635223389e-02
7.773260120302438736e-03
1.155116856098175049e-01
-4.718074202537536621e-02
-1.573267728090286255e-01
-1.787148602306842804e-02
1.810475438833236694e-01
6.031154468655586243e-02
5.547334253787994385e-02
1.978667974472045898e-01
6.988124549388885498e-02
-8.423753082752227783e-02
5.280882120132446289e-02
-4.315514490008354187e-02
-5.224088951945304871e-02
9.314762428402900696e-03
6.036659702658653259e-02
-1.394855678081512451e-01
2.429056912660598755e-03
1.729810386896133423e-01
1.574438810348510742e-01
3.911796212196350098e-02
-2.031097114086151123e-01
1.289138197898864746e-01
8.673797547817230225e-02
-1.369242519140243530e-01
1.030908823013305664e-01
-1.089047044515609741e-01
1.729486137628555298e-01
1.458703428506851196e-01
1.963251084089279175e-02
-6.609761714935302734e-02
-2.865907251834869385e-01
1.622337847948074341e-02
-4.959518089890480042e-03
1.057173982262611389e-01
-1.061460524797439575e-01
-1.831405609846115112e-01
-9.506243467330932617e-02
1.570159792900085449e-01
-2.159612998366355896e-02
-1.615546941757202148e-01
7.434746623039245605e-02
1.519535388797521591e-02
2.155983587726950645e-03
-9.282653778791427612e-02
-6.958943605422973633e-02
-1.176881864666938782e-01
-7.222902774810791016e-02
8.213031291961669922e-02
1.889494806528091431e-01
-1.397020928561687469e-02
1.252736803144216537e-02
6.052382662892341614e-02
-4.517171159386634827e-02
-2.623020857572555542e-02
-2.627802826464176178e-02
1.255363374948501587e-01
8.027122169733047485e-02
-1.003016605973243713e-01
-7.344854623079299927e-02
-1.938040181994438171e-02
6.662017852067947388e-02
-8.586739003658294678e-02
8.305388689041137695e-02
4.976347088813781738e-02
3.398271277546882629e-02
-1.218923181295394897e-01
8.306434750556945801e-02
4.437942430377006531e-02
-1.516197249293327332e-02
-1.492316871881484985e-01
-2.163166925311088562e-02
3.760468447580933571e-03
3.706730902194976807e-02
-1.986413262784481049e-02
-1.094124838709831238e-01
3.417082875967025757e-02
-1.096927560865879059e-03
-5.086116865277290344e-02
-1.024868264794349670e-01
-6.810120493173599243e-02
3.681107237935066223e-02
1.240111067891120911e-01
-1.097683887928724289e-02
-5.923936888575553894e-02
-5.545984581112861633e-02
-1.277664005756378174e-01
9.131883084774017334e-02
-3.612231835722923279e-02
-7.359120994806289673e-02
-5.350409448146820068e-02
-1.229284610599279404e-02
2.038218826055526733e-01
-1.873282715678215027e-02
-1.069393381476402283e-01
-9.825189411640167236e-02
-5.758609622716903687e-02
-4.765026271343231201e-02
-5.270856246352195740e-02
8.659870922565460205e-02
-7.465671747922897339e-03
5.022909492254257202e-02
8.881465531885623932e-03
1.297291088849306107e-02
-8.861241489648818970e-02
-5.915340967476367950e-03
-1.915488950908184052e-02
6.056714430451393127e-02
-1.835884898900985718e-02
-1.642733514308929443e-01
-3.059041313827037811e-02
-3.640712052583694458e-02
6.648074835538864136e-02
5.871677398681640625e-02
-3.074301872402429581e-03
-1.212406232953071594e-01
-7.964017987251281738e-02
-4.163851588964462280e-02
4.411060735583305359e-02
-5.335038155317306519e-02
9.277633577585220337e-02
7.769139483571052551e-03
4.444089531898498535e-02
3.683232888579368591e-02
-7.185881957411766052e-03
-3.638833388686180115e-02
2.760950475931167603e-03
1.515224855393171310e-02
3.037003986537456512e-02
-1.139645501971244812e-01
-8.223778009414672852e-02
6.159122288227081299e-02
1.097944378852844238e-01
-2.172587513923645020e-01
6.795160472393035889e-02
4.472297802567481995e-02
-2.870709076523780823e-02
4.021198675036430359e-02
1.414293888956308365e-02
-6.060784682631492615e-02
4.874989017844200134e-02
9.808554314076900482e-03
-3.234884142875671387e-02
-6.755032390356063843e-02
1.729277670383453369e-01
-2.098254486918449402e-02
6.926563382148742676e-02
4.590184614062309265e-02
3.438743203878402710e-02
-2.203059010207653046e-02
-2.526581883430480957e-01
-6.356137990951538086e-02
-9.124494343996047974e-02
2.550891637802124023e-01
-9.972682595252990723e-02
1.040132045745849609e-01
-1.693325191736221313e-01
2.077015675604343414e-02
-5.311514437198638916e-02
2.558171562850475311e-02
-1.906016618013381958e-01
-2.013448178768157959e-01
1.084744435502216220e-04
7.143100257962942123e-03
-4.601111169904470444e-03
1.073922961950302124e-02
4.743008688092231750e-02
-4.021594300866127014e-02
5.597245693206787109e-02
5.982393398880958557e-02
9.164636582136154175e-02
3.608143329620361328e-02
8.878531306982040405e-02
-6.141615658998489380e-02
2.357878955081105232e-03
1.578974872827529907e-01
-3.157509863376617432e-02
-1.330257803201675415e-01
1.076153218746185303e-01
-5.799350142478942871e-02
-7.189784198999404907e-02
-8.400792628526687622e-02
1.359683722257614136e-01
1.069379076361656189e-01
1.616278290748596191e-01
-2.440984696149826050e-01
1.090395078063011169e-01
-1.439705304801464081e-02
4.705687612295150757e-02
4.654580354690551758e-02
1.279960572719573975e-01
1.509197354316711426e-01
9.471490234136581421e-02
2.359175868332386017e-02
-9.002593159675598145e-02
2.487362734973430634e-02
1.101520434021949768e-01
-3.040819764137268066e-01
2.700400352478027344e-02
-1.301588863134384155e-01
-6.267275661230087280e-02
-9.890585392713546753e-02
7.414503395557403564e-02
-1.297903656959533691e-01
-1.233679950237274170e-01
2.306321403011679649e-03
1.792891174554824829e-01
8.133250474929809570e-02
1.342255808413028717e-02
-6.768586486577987671e-02
-5.546559765934944153e-02
-6.728760898113250732e-02
4.265273734927177429e-02
1.911738365888595581e-01
-3.056681016460061073e-03
1.726408898830413818e-01
3.066970407962799072e-01
-1.849430799484252930e-01
1.241742670536041260e-01
2.561135217547416687e-03
5.112724751234054565e-02
7.873019576072692871e-02
8.425886742770671844e-03
2.978025376796722412e-02
-7.214599847793579102e-02
-8.833074569702148438e-02
1.089970320463180542e-01
9.910776466131210327e-02
3.381145000457763672e-02
7.020013034343719482e-02
7.998364046216011047e-03
2.276114746928215027e-02
8.377899974584579468e-02
-4.503713175654411316e-02
-5.580304935574531555e-02
3.421456739306449890e-02
-8.192881941795349121e-03
7.275522500276565552e-02
-3.514327108860015869e-02
3.693955764174461365e-02
6.413048505783081055e-02
6.424273829907178879e-03
-7.615340501070022583e-02
1.397856175899505615e-01
-4.395414609462022781e-03
1.349402815103530884e-01
-5.646700784564018250e-02
-1.961160078644752502e-02
1.150234788656234741e-01
-1.639998257160186768e-01
-3.679331764578819275e-02
6.401756405830383301e-02
-4.351141105871647596e-04
-9.552505612373352051e-02
5.859547480940818787e-02
-1.831535845994949341e-01
-1.025849431753158569e-01
-7.940331101417541504e-02
1.347630321979522705e-01
-4.246284440159797668e-02
1.286635361611843109e-02
-8.829875290393829346e-02
1.376437097787857056e-01
9.384554624557495117e-02
-3.937384113669395447e-02
8.619014918804168701e-02
-9.505309909582138062e-02
1.918001621961593628e-01
3.343402221798896790e-02
-1.495512109249830246e-02
7.987030595541000366e-02
-7.188047165982425213e-04
1.525904238224029541e-01
3.607663139700889587e-02
1.468954328447580338e-02
-1.705230325460433960e-01
2.072996459901332855e-03
5.056904256343841553e-02
2.382537275552749634e-01
-7.959615439176559448e-02
1.942251250147819519e-02
8.823072910308837891e-02
4.210730269551277161e-02
-1.737072318792343140e-02
4.538708180189132690e-02
-5.800404772162437439e-02
-8.222912251949310303e-02
-8.857025951147079468e-02
-3.682629903778433800e-03
-1.896644830703735352e-01
1.920538991689682007e-01
1.866320706903934479e-02
-1.500313729047775269e-01
4.184774588793516159e-04
8.615009486675262451e-02
-1.661460846662521362e-01
8.908613026142120361e-02
-7.484020292758941650e-02
-6.144365668296813965e-02
3.498381748795509338e-02
5.374539270997047424e-02
1.489592939615249634e-01
-2.488353475928306580e-02
7.994350045919418335e-02
-1.187161952257156372e-01
2.124800086021423340e-01
-2.221885882318019867e-02
-9.568428993225097656e-02
-2.783969789743423462e-02
-9.889721870422363281e-02
-1.321690380573272705e-01
-1.850947290658950806e-01
-8.322793245315551758e-02
5.253100022673606873e-02
1.182772144675254822e-01
3.906228020787239075e-02
1.182878315448760986e-01
1.610890626907348633e-01
5.126976966857910156e-02
-3.869945555925369263e-02
1.776604354381561279e-01
1.279254704713821411e-01
-9.493195265531539917e-02
9.008464403450489044e-03
7.650800049304962158e-02
-7.238018512725830078e-02
-1.499008089303970337e-01
5.430325493216514587e-02
4.403271526098251343e-02
-7.863711565732955933e-02
2.115583606064319611e-02
2.524717152118682861e-02
4.140640050172805786e-02
-9.479537606239318848e-02
-1.327993124723434448e-01
-9.800935536623001099e-02
-8.160352706909179688e-02
2.661970444023609161e-02
-4.512534663081169128e-02
1.943532973527908325e-01
-1.123328655958175659e-01
2.596991360187530518e-01
1.741501875221729279e-02
-1.090776100754737854e-01
9.677389636635780334e-03
-2.113763242959976196e-03
4.168113321065902710e-02
3.611763939261436462e-02
-5.525894463062286377e-03
6.200808659195899963e-02
1.731085777282714844e-01
-5.972928833216428757e-03
-6.164193525910377502e-02
9.683281183242797852e-02
-6.095938757061958313e-02
1.613256186246871948e-01
-3.862127289175987244e-02
1.791565492749214172e-02
9.783618152141571045e-02
-1.078523322939872742e-01
-1.436577141284942627e-01
-6.006320938467979431e-02
-3.127186093479394913e-03
8.866392821073532104e-02
-2.493001669645309448e-01
8.027022704482078552e-03
9.250556677579879761e-02
2.723807841539382935e-02
-4.790621995925903320e-02
-1.527630686759948730e-01
9.684029221534729004e-02
-5.381490662693977356e-02
4.446619004011154175e-02
2.720621880143880844e-03
7.948815822601318359e-02
-1.561773940920829773e-02
-9.728486090898513794e-02
6.125206872820854187e-02
-8.788900822401046753e-02
6.477712839841842651e-02
4.722037352621555328e-03
1.379180401563644409e-01
-1.028232797980308533e-01
6.800659000873565674e-02
-3.897082060575485229e-02
-5.988594144582748413e-02
-5.267050862312316895e-02
8.491767942905426025e-02
8.201162517070770264e-02
2.681882120668888092e-02
1.063419971615076065e-03
8.238680660724639893e-02
-7.580337673425674438e-02
-4.954169690608978271e-02
-1.768651008605957031e-01
1.868591606616973877e-01
-1.007699966430664062e-01
2.390159666538238525e-01
-3.728357702493667603e-02
-2.937626093626022339e-02
-3.423430770635604858e-02
1.101686246693134308e-02
-6.886746734380722046e-02
-2.175161149352788925e-03
8.123409934341907501e-03
2.011838555335998535e-02
5.481297895312309265e-02
-9.303653240203857422e-02
7.531817257404327393e-02
5.536075308918952942e-02
-4.133700206875801086e-02
-3.987153759226202965e-04
1.129986718297004700e-01
-1.014672126621007919e-02
8.676256984472274780e-02
1.564630270004272461e-01
-9.392543882131576538e-02
9.368077665567398071e-02
-5.845084786415100098e-02
-2.559314109385013580e-02
2.485490031540393829e-02
-1.382191479206085205e-01
6.282350420951843262e-02
1.416618525981903076e-01
8.020634949207305908e-02
2.610998153686523438e-01
2.814551293849945068e-01
9.032709151506423950e-02
-2.263490110635757446e-02
-7.863597571849822998e-02
9.951472282409667969e-03
-5.521148443222045898e-02
2.479167422279715538e-03
1.384472101926803589e-02
1.321350336074829102e-01
-5.144217517226934433e-03
-1.290782354772090912e-02
6.769323348999023438e-02
2.142739109694957733e-02
-1.018193513154983521e-01
1.902458444237709045e-02
1.149277314543724060e-01
7.672622799873352051e-02
-7.276254892349243164e-02
7.164321839809417725e-02
9.739499539136886597e-02
-2.831459045410156250e-02
-2.559123635292053223e-01
6.178231537342071533e-02
-1.863505877554416656e-02
3.549798205494880676e-02
-1.728319562971591949e-02
-2.962090261280536652e-02
9.712402522563934326e-02
-1.240870058536529541e-01
1.087892651557922363e-01
5.011329799890518188e-02
1.813660003244876862e-02
9.669728577136993408e-03
6.453090906143188477e-02
1.824139989912509918e-02
-2.908390164375305176e-01
-5.736615881323814392e-02
-7.912117242813110352e-02
9.910579770803451538e-02
2.810045890510082245e-02
-2.415130380541086197e-03
3.698322456330060959e-03
2.277847565710544586e-02
3.248738497495651245e-02
9.259072691202163696e-02
1.946576684713363647e-02
1.061260625720024109e-01
-3.821164742112159729e-02
-1.176095083355903625e-01
-1.294343471527099609e-01
2.359691858291625977e-01
9.200673550367355347e-02
1.722794622182846069e-01
1.063524037599563599e-01
-1.037832116708159447e-03
9.185146540403366089e-03
-1.329847723245620728e-01
-1.226645186543464661e-01
2.363058272749185562e-03
8.099297061562538147e-03
2.682851068675518036e-02
-1.426149811595678329e-02
-2.387488074600696564e-02
2.053424715995788574e-02
4.314122721552848816e-03
4.334947559982538223e-03
1.572880707681179047e-02
1.296376064419746399e-02
-1.576338522136211395e-02
-1.574618667364120483e-01
-1.505559682846069336e-02
1.282375156879425049e-01
-3.196090087294578552e-02
4.393430426716804504e-02
-7.767059653997421265e-02
-3.154095634818077087e-02
7.568053156137466431e-02
8.882294595241546631e-02
5.511591956019401550e-02
2.471482008695602417e-02
-4.741499945521354675e-02
-7.944208569824695587e-03
2.757778950035572052e-02
1.084160953760147095e-01
1.529366225004196167e-01
-3.677756190299987793e-01
6.109966337680816650e-02
1.929017156362533569e-01
2.128117084503173828e-01
-2.327303588390350342e-02
1.959051191806793213e-01
-1.257119178771972656e-01
-7.534473389387130737e-02
-1.866213828325271606e-01
3.616861999034881592e-02
-2.749682404100894928e-02
-1.180121973156929016e-01
9.115464985370635986e-02
-2.965525388717651367e-01
-2.094145165756344795e-03
3.495103493332862854e-02
2.364627271890640259e-01
4.348141700029373169e-02
3.949723765254020691e-02
-1.091092601418495178e-01
-5.954697355628013611e-02
1.381025314331054688e-01
2.263032086193561554e-02
-2.203266918659210205e-01
3.282499685883522034e-02
8.547014743089675903e-02
1.371214538812637329e-01
-1.756547838449478149e-01
-1.829456686973571777e-01
-1.047309264540672302e-01
6.893943250179290771e-02
-7.741604000329971313e-02
-3.514966368675231934e-02
-1.929583773016929626e-02
-1.076462492346763611e-01
-9.602458029985427856e-02
1.567194461822509766e-01
3.986777365207672119e-02
-2.979624550789594650e-03
1.000772938132286072e-01
-6.500937789678573608e-02
3.289218246936798096e-02
-1.737370491027832031e-01
-1.624154448509216309e-01
-8.372730016708374023e-02
1.051524654030799866e-01
8.580341003835201263e-03
-5.007256940007209778e-02
2.369949966669082642e-02
-2.907550148665904999e-02
-9.534664452075958252e-02
7.580912113189697266e-02
5.416194722056388855e-02
3.863701224327087402e-02
-1.229916289448738098e-01
-5.962987244129180908e-02
2.205769419670104980e-01
2.644369378685951233e-02
-2.395479008555412292e-02
-6.830741185694932938e-03
5.792623758316040039e-02
-3.905787467956542969e-01
-4.824759438633918762e-03
2.072212845087051392e-01
6.603825092315673828e-02
2.263979166746139526e-01
-5.467795208096504211e-02
-6.276294589042663574e-02
-1.983307301998138428e-01
-8.111516386270523071e-02
-3.168020248413085938e-01
-6.741736829280853271e-02
2.266473025083541870e-01
1.415596064180135727e-02
-8.188203722238540649e-02
1.635337173938751221e-01
1.865338981151580811e-01
-1.265232171863317490e-02
-3.357642516493797302e-02
-1.607325673103332520e-01
9.253087453544139862e-03
-1.490613073110580444e-01
4.222087562084197998e-02
2.770618908107280731e-02
-1.852949261665344238e-01
-5.645577609539031982e-02
7.686980068683624268e-02
7.969775795936584473e-02
2.308449596166610718e-01
5.752799287438392639e-02
2.972773835062980652e-02
2.350469678640365601e-02
-1.627739518880844116e-01
5.234776809811592102e-02
-1.437293142080307007e-01
-1.847912371158599854e-01
-6.843803822994232178e-02
-3.818865120410919189e-02
3.903404623270034790e-02
-3.844586014747619629e-02
1.036817878484725952e-01
-1.690407693386077881e-01
-1.480417419224977493e-02
-1.029159799218177795e-01
-3.490870818495750427e-02
-2.841854840517044067e-02
1.969271339476108551e-02
-1.695762127637863159e-01
-1.694296151399612427e-01
1.941616088151931763e-02
-4.551886022090911865e-02
-2.190658822655677795e-02
-2.045796960592269897e-01
-2.192973047494888306e-01
5.738046765327453613e-02
-3.661465644836425781e-02
3.985693678259849548e-03
-2.855530381202697754e-02
7.495020329952239990e-02
-2.105901250615715981e-03
-1.094850227236747742e-01
2.132350206375122070e-01
3.380592539906501770e-02
3.033934719860553741e-02
-5.931577831506729126e-02
4.433800932019948959e-03
-1.813521832227706909e-01
1.816776543855667114e-01
1.292429119348526001e-01
-6.099848449230194092e-02
3.861208632588386536e-02
2.073062360286712646e-01
5.052543058991432190e-02
-2.180605567991733551e-02
-1.866516917943954468e-01
2.357316948473453522e-02
2.027249783277511597e-01
-1.422434002161026001e-01
-3.465760499238967896e-02
1.593652963638305664e-01
1.738143526017665863e-02
1.391431223601102829e-02
-5.366906523704528809e-02
5.143936723470687866e-02
-1.284127086400985718e-01
5.878865718841552734e-02
7.259894907474517822e-02
1.079783067107200623e-01
-1.716820001602172852e-01
1.761649176478385925e-02
8.247721195220947266e-02
2.102023512125015259e-01
2.341000363230705261e-03
-4.420546069741249084e-02
-7.086613029241561890e-02
-1.480117067694664001e-02
7.449702918529510498e-02
1.126891970634460449e-01
-1.353695094585418701e-01
9.327885508537292480e-02
4.093899577856063843e-02
1.078258529305458069e-01
3.293191315606236458e-03
-5.322825908660888672e-02
5.668100714683532715e-02
9.407278150320053101e-02
-1.246647015213966370e-01
-3.781986190006136894e-03
1.777880452573299408e-02
-1.614625006914138794e-01
-2.885941416025161743e-02
9.242638945579528809e-03
-3.194126486778259277e-02
-1.282650511711835861e-02
-6.429650634527206421e-02
1.988156735897064209e-01
2.146886140108108521e-01
1.324146706610918045e-02
-5.991949886083602905e-02
-5.965044349431991577e-02
-1.037931963801383972e-01
-3.482060879468917847e-02
6.192838400602340698e-02
1.043078824877738953e-01
1.598533801734447479e-02
9.414256364107131958e-02
-7.788525521755218506e-02
-6.693617999553680420e-02
-7.707931101322174072e-02
-2.390358597040176392e-02
-6.929550319910049438e-02
2.060432918369770050e-02
2.013792842626571655e-01
-1.644035056233406067e-02
-1.573729813098907471e-01
1.186790019273757935e-01
-8.415430784225463867e-03
-3.420889377593994141e-02
-1.191010549664497375e-01
-2.004698477685451508e-02
5.439515411853790283e-02
4.614518955349922180e-02
-1.139722988009452820e-01
-7.679773867130279541e-02
-8.669853955507278442e-02
-1.071952357888221741e-01
-3.833666443824768066e-02
-2.147203311324119568e-02
1.334217656403779984e-02
6.244349107146263123e-02
-6.758123636245727539e-02
9.382255375385284424e-03
-8.373922854661941528e-02
-1.515875458717346191e-01
1.185007318854331970e-01
-3.420123085379600525e-02
-5.640491843223571777e-02
1.293893605470657349e-01
1.566536426544189453e-01
-5.203887820243835449e-02
2.962090447545051575e-02
2.096718922257423401e-02
-5.946148559451103210e-02
7.850684225559234619e-02
7.080411165952682495e-02
-3.106145001947879791e-02
-7.020863890647888184e-02
1.274688839912414551e-01
1.069776266813278198e-01
-4.524695500731468201e-02
-5.568596348166465759e-02
-6.395190954208374023e-02
1.369384825229644775e-01
1.076889336109161377e-01
1.515608727931976318e-01
3.512664511799812317e-02
-3.862953279167413712e-03
1.010598428547382355e-02
1.071904692798852921e-02
9.172204136848449707e-02
5.970880389213562012e-02
2.169229649007320404e-02
7.706338167190551758e-02
3.698242083191871643e-02
-1.372028589248657227e-01
-1.747763901948928833e-01
-5.461556464433670044e-02
1.244642212986946106e-01
-5.414050444960594177e-02
-8.355961740016937256e-02
7.023340463638305664e-02
-9.223355352878570557e-02
-1.480503827333450317e-01
2.478619366884231567e-01
-2.723184041678905487e-02
1.530666463077068329e-02
-2.337856218218803406e-02
-4.775959253311157227e-02
-7.885997742414474487e-02
1.422758251428604126e-01
9.416232258081436157e-02
-1.275824457406997681e-01
-1.250750422477722168e-01
3.663305565714836121e-02
-6.687865406274795532e-02
1.185411810874938965e-01
-9.922442585229873657e-02
-1.089098304510116577e-02
2.433826476335525513e-01
8.911148458719253540e-02
-6.622224580496549606e-03
2.549082227051258087e-02
-1.408624202013015747e-01
-1.366399880498647690e-02
-2.174587249755859375e-01
4.679504781961441040e-02
4.003859125077724457e-03
-6.785481423139572144e-02
2.003556936979293823e-01
-1.099467873573303223e-01
-9.294602274894714355e-02
-4.291835054755210876e-02
-1.150349006056785583e-01
-9.356787055730819702e-02
-1.113753095269203186e-01
-1.511497050523757935e-01
1.109032109379768372e-01
4.412283748388290405e-02
8.135298639535903931e-02
-1.443695835769176483e-02
7.438554614782333374e-02
-2.251470237970352173e-01
5.727917328476905823e-02
1.155748814344406128e-01
1.388764232397079468e-01
-1.296266317367553711e-01
1.841164231300354004e-01
1.972790509462356567e-01
4.562407266348600388e-03
2.435025572776794434e-02
4.417260736227035522e-02
-2.350385300815105438e-02
-8.079686015844345093e-02
1.123085394501686096e-01
-3.255977854132652283e-02
3.382808342576026917e-02
7.524359226226806641e-02
2.975807711482048035e-02
1.580966264009475708e-01
7.507102936506271362e-02
1.223026514053344727e-01
-7.672173529863357544e-02
7.870440185070037842e-02
5.518002063035964966e-02
2.283570542931556702e-02
4.283185116946697235e-03
-7.641000300645828247e-02
-1.327553857117891312e-02
-1.017129607498645782e-02
-5.744757875800132751e-02
6.767538189888000488e-02
-7.564783841371536255e-02
8.502203226089477539e-02
1.962096095085144043e-01
5.452707037329673767e-02
-9.688165783882141113e-02
7.548701018095016479e-02
6.465797871351242065e-02
3.276127972640097141e-05
-1.907396465539932251e-01
-3.810852393507957458e-02
-7.003854215145111084e-02
-4.912092909216880798e-02
-6.162182986736297607e-02
-8.896831423044204712e-02
-8.794507384300231934e-02
-3.175419196486473083e-02
-9.995543211698532104e-02
-1.947117149829864502e-01
-3.344573080539703369e-02
-8.862201124429702759e-02
-6.687340140342712402e-02
4.587058722972869873e-02
-1.815297454595565796e-01
6.458228081464767456e-02
1.196894142776727676e-02
-5.481736734509468079e-02
1.434219330549240112e-01
1.093830391764640808e-01
2.251970209181308746e-02
-2.504381164908409119e-02
3.802682831883430481e-02
-7.392766326665878296e-02
1.609795242547988892e-01
-9.757708013057708740e-02
2.864122204482555389e-02
-8.904539793729782104e-02
8.280714601278305054e-02
1.243307441473007202e-01
-1.228351891040802002e-01
1.132939383387565613e-01
-2.575622498989105225e-02
9.409490972757339478e-02
-5.790081247687339783e-02
2.235891669988632202e-01
1.277479529380798340e-01
-2.353613730520009995e-03
-4.074823483824729919e-02
-6.572755426168441772e-02
4.798630252480506897e-02
5.145397037267684937e-02
-5.963204056024551392e-02
1.378391589969396591e-02
-1.647938191890716553e-01
-3.824120759963989258e-02
1.042604446411132812e-01
1.458286195993423462e-01
-9.554546326398849487e-02
6.819951534271240234e-02
-2.110022902488708496e-01
9.023681282997131348e-02
-2.327050268650054932e-02
4.773751273751258850e-02
-1.067145317792892456e-01
1.189331114292144775e-01
-7.454017549753189087e-02
-1.989749968051910400e-01
7.543783634901046753e-02
4.747653007507324219e-01
9.469761699438095093e-02
-9.414839744567871094e-02
-4.356210306286811829e-02
-1.509782522916793823e-01
-3.319063037633895874e-02
-9.805178642272949219e-02
7.272559683769941330e-03
2.464439347386360168e-02
2.026112517341971397e-03
1.204382777214050293e-01
1.353785991668701172e-01
-1.328020691871643066e-01
2.718862518668174744e-02
4.496640563011169434e-01
1.317505240440368652e-01
-1.090678721666336060e-01
4.078501090407371521e-02
1.105170324444770813e-01
1.568221747875213623e-01
-6.451741792261600494e-03
2.188180573284626007e-02
9.778987616300582886e-02
-4.031073302030563354e-02
9.715549647808074951e-02
2.482511699199676514e-01
7.138223201036453247e-02
2.304752124473452568e-03
9.309944510459899902e-02
1.419557780027389526e-01
-5.068251118063926697e-02
8.393382653594017029e-03
4.451150447130203247e-02
-5.409731715917587280e-02
2.454699575901031494e-02
2.650501430034637451e-01
1.089273951947689056e-02
2.222127653658390045e-02
6.609270721673965454e-02
-4.383045807480812073e-02
-2.082446962594985962e-01
-6.729580461978912354e-02
-3.030236065387725830e-01
-3.313925117254257202e-02
2.119811624288558960e-01
5.236200690269470215e-01
3.897688910365104675e-02
2.241752482950687408e-02
7.050581276416778564e-02
-5.070576444268226624e-02
1.296732723712921143e-01
-1.043726950883865356e-01
3.820432722568511963e-02
-3.862674534320831299e-02
2.370810136198997498e-02
7.445452362298965454e-02
-1.067044883966445923e-01
-6.280857603996992111e-03
1.596013307571411133e-01
-9.988959878683090210e-02
-4.796525463461875916e-03
-1.613187193870544434e-01
9.747260063886642456e-02
5.080965161323547363e-02
7.699220627546310425e-02
1.782687306404113770e-01
-1.000355184078216553e-01
8.048985153436660767e-02
-9.876452386379241943e-02
2.779755555093288422e-02
-2.082502096891403198e-02
7.180201262235641479e-02
3.001345554366707802e-03
-1.014015078544616699e-01
7.082785665988922119e-02
-1.353049576282501221e-01
8.269606530666351318e-02
-7.297042757272720337e-02
-1.937604695558547974e-02
6.922591943293809891e-03
-1.491205394268035889e-01
-1.564740017056465149e-02
-2.017605490982532501e-02
9.302188456058502197e-02
-5.693666636943817139e-02
2.147300913929939270e-02
-9.334445744752883911e-02
-3.151218965649604797e-02
-1.672625839710235596e-01
1.853747293353080750e-02
1.769319772720336914e-01
3.454087078571319580e-01
-1.102483421564102173e-01
1.109584271907806396e-01
2.856676876544952393e-01
-2.898441851139068604e-01
-2.118298038840293884e-02
1.156486123800277710e-01
1.641582995653152466e-01
-9.026429802179336548e-02
1.868024915456771851e-01
-3.237758949398994446e-02
-7.352536916732788086e-02
-2.043918473646044731e-03
9.975001215934753418e-02
-6.761462986469268799e-02
-7.614093273878097534e-02
2.774580381810665131e-02
-1.210254151374101639e-03
1.931401938199996948e-01
-1.009782701730728149e-01
2.397968247532844543e-02
3.478837385773658752e-02
-8.047323673963546753e-02
-5.207747220993041992e-02
-7.268960028886795044e-02
1.849217861890792847e-01
8.511202782392501831e-02
-1.152320280671119690e-01
1.019633933901786804e-01
-1.270011961460113525e-01
1.166639998555183411e-01
-1.190006732940673828e-01
4.235119745135307312e-02
-1.252991408109664917e-01
-2.227065861225128174e-01
-5.957915261387825012e-02
-7.574916630983352661e-02
5.478302761912345886e-02
5.587984342128038406e-03
2.061343938112258911e-01
3.990092314779758453e-03
2.347383648157119751e-01
1.862856149673461914e-01
9.552589058876037598e-01
-2.716953866183757782e-03
-8.033217862248420715e-03
-5.238967388868331909e-02
-4.177758470177650452e-02
1.816866248846054077e-01
-6.426982581615447998e-02
-2.135740965604782104e-01
5.832774564623832703e-02
5.282350629568099976e-02
-1.163392215967178345e-01
1.181619018316268921e-01
-2.769993245601654053e-02
-3.616289421916007996e-02
-3.316574171185493469e-02
7.361938059329986572e-02
1.660466939210891724e-01
6.744796782732009888e-02
-1.610939204692840576e-01
8.471561223268508911e-02
4.470100253820419312e-02
3.415705263614654541e-02
1.446939259767532349e-01
1.574308127164840698e-01
-1.254134811460971832e-02
-2.659022510051727295e-01
-1.437038779258728027e-01
9.015631675720214844e-02
-7.877181470394134521e-02
-1.565792709589004517e-01
1.986387670040130615e-01
2.573624849319458008e-01
6.011167075484991074e-03
-4.894772171974182129e-02
1.495341397821903229e-02
2.278431318700313568e-02
1.350474059581756592e-01
-1.322672218084335327e-01
2.913224697113037109e-01
-2.422942779958248138e-02
-2.380644977092742920e-01
2.014217078685760498e-01
-7.900963723659515381e-02
-4.439875110983848572e-02
-4.555383324623107910e-02
-7.232466340065002441e-02
-1.410619020462036133e-01
4.312817007303237915e-02
1.142009571194648743e-01
1.381297856569290161e-01
-1.284779049456119537e-02
-1.059285998344421387e-01
-2.291563339531421661e-02
-1.394788473844528198e-01
-9.605220519006252289e-03
-4.449501633644104004e-02
-7.063132524490356445e-02
-2.442297758534550667e-03
3.619454801082611084e-02
-1.774240881204605103e-01
-2.602246962487697601e-02
-1.138201802968978882e-01
6.158363074064254761e-02
-2.960835397243499756e-01
-1.294930279254913330e-01
-1.648993343114852905e-01
-6.123764067888259888e-02
7.667966932058334351e-02
-8.445988595485687256e-02
-2.725172638893127441e-01
4.713827278465032578e-03
-1.898291409015655518e-01
1.035215333104133606e-01
7.180640846490859985e-02
-3.166084364056587219e-02
1.489822566509246826e-01
2.133889049291610718e-01
1.947092711925506592e-01
3.320859745144844055e-03
2.007355391979217529e-01
2.916010022163391113e-01
-1.067493557929992676e-01
3.099265992641448975e-01
-1.259319484233856201e-01
-1.696762442588806152e-01
2.440935522317886353e-01
3.091582097113132477e-02
-1.603935062885284424e-01
-2.707732617855072021e-01
1.252030134201049805e-01
3.205331414937973022e-02
2.150126397609710693e-01
-4.574830457568168640e-02
-1.548483129590749741e-02
-2.803775109350681305e-02
1.016759201884269714e-01
-3.568983078002929688e-02
1.610191315412521362e-01
1.905709952116012573e-01
7.254263013601303101e-02
-3.758302330970764160e-02
-2.290789969265460968e-02
2.879754602909088135e-01
-1.412083804607391357e-01
-3.018674440681934357e-02
-2.430804632604122162e-02
-5.735572800040245056e-02
5.243814364075660706e-02
-9.956773370504379272e-03
1.143417879939079285e-02
4.226962104439735413e-02
1.633803732693195343e-02
3.074274770915508270e-02
-1.080710589885711670e-01
1.375772953033447266e-01
5.274346470832824707e-02
-2.035631239414215088e-02
-2.008406631648540497e-02
3.259363025426864624e-02
6.792133301496505737e-02
-6.973545067012310028e-03
-1.168745458126068115e-01
-6.017900630831718445e-02
1.633789390325546265e-02
-4.724886268377304077e-02
5.097831413149833679e-02
-9.657768160104751587e-02
-6.539310514926910400e-02
-3.591448068618774414e-02
5.793546512722969055e-02
2.488621138036251068e-02
-8.585809729993343353e-03
2.327323332428932190e-02
6.440294533967971802e-02
-1.593344099819660187e-02
-4.967436939477920532e-02
-2.009918913245201111e-02
-8.568603545427322388e-02
-5.825159698724746704e-02
-3.233195748180150986e-03
7.631387561559677124e-02
-6.637536734342575073e-02
9.300085157155990601e-02
8.156994730234146118e-02
-5.354940518736839294e-02
-1.339095737785100937e-02
-9.097471088171005249e-02
5.352511256933212280e-02
-7.774848490953445435e-02
-6.199274212121963501e-02
-6.835444271564483643e-02
1.605960167944431305e-02
1.560478471219539642e-02
2.420501783490180969e-02
1.405958235263824463e-01
8.543855696916580200e-02
1.271880865097045898e-01
-6.331780552864074707e-02
-1.116425916552543640e-01
5.210603773593902588e-02
4.099994432181119919e-03
8.392430096864700317e-02
-9.707387536764144897e-02
-2.452456392347812653e-02
-1.074084416031837463e-01
-7.818675041198730469e-02
1.020881757140159607e-01
3.998553007841110229e-02
5.651782825589179993e-02
3.821954131126403809e-02
-4.965236037969589233e-02
4.792195186018943787e-02
-2.852686215192079544e-03
-7.399155199527740479e-02
-3.937883302569389343e-02
1.516669690608978271e-01
1.498494893312454224e-01
4.422235116362571716e-02
9.781968593597412109e-02
-5.439551547169685364e-02
-7.489863783121109009e-02
7.634728401899337769e-02
1.127005293965339661e-01
-1.174264997243881226e-01
-7.771338522434234619e-02
9.715927392244338989e-02
-1.855313032865524292e-02
-3.331650793552398682e-02
-5.311262980103492737e-02
-2.014459110796451569e-02
-7.824959233403205872e-03
-5.493459850549697876e-02
-9.447008371353149414e-02
-8.542969077825546265e-02
1.125594824552536011e-01
-1.193378353491425514e-03
-8.368774503469467163e-02
1.633657515048980713e-02
-4.263583570718765259e-02
3.755292668938636780e-02
1.019191741943359375e-01
4.059734567999839783e-02
-7.603586185723543167e-03
-5.389101803302764893e-02
-9.994873404502868652e-02
8.720362931489944458e-02
-9.017343819141387939e-02
-6.877794116735458374e-02
-1.043864712119102478e-01
2.737092599272727966e-02
-6.263740826398134232e-03
-5.448163300752639771e-02
-7.039477676153182983e-02
-4.255545511841773987e-02
-2.116872742772102356e-02
-1.342127472162246704e-01
-4.672933742403984070e-02
7.708853110671043396e-03
6.465543061494827271e-02
-1.231546401977539062e-01
-3.036538884043693542e-02
-5.338634848594665527e-01
-7.026672363281250000e-02
-1.742397993803024292e-01
-3.938070535659790039e-01
-1.981355696916580200e-01
8.247195184230804443e-02
-1.758872531354427338e-02
-2.262664139270782471e-01
-6.778890639543533325e-02
-6.054992228746414185e-02
-9.103485196828842163e-02
3.667729198932647705e-01
-9.877222031354904175e-02
-1.263142526149749756e-01
-2.192472666501998901e-01
1.860550642013549805e-01
2.863111160695552826e-02
3.185112401843070984e-02
-2.178667336702346802e-01
-1.024227812886238098e-01
7.843577116727828979e-02
-2.630341947078704834e-01
5.832103639841079712e-02
-3.805387299507856369e-03
6.625861674547195435e-02
1.833886653184890747e-01
8.149873465299606323e-02
3.425660356879234314e-02
-1.166083142161369324e-01
3.347159326076507568e-01
3.289384543895721436e-01
1.364064067602157593e-01
-1.998074948787689209e-01
2.982357144355773926e-01
2.036378234624862671e-01
-8.832746744155883789e-02
1.370180398225784302e-01
1.036880612373352051e-01
-2.030357122421264648e-01
-3.705550432205200195e-01
-1.623751968145370483e-01
-2.581652402877807617e-01
4.031749069690704346e-02
1.417160183191299438e-01
-1.855361163616180420e-01
4.875356331467628479e-02
-3.358555138111114502e-01
4.214792978018522263e-03
-3.323096632957458496e-01
8.117162436246871948e-02
-2.401498891413211823e-02
2.634536027908325195e-01
-1.520714461803436279e-01
-1.130519583821296692e-01
-1.165089830756187439e-01
9.424553811550140381e-02
-1.673988997936248779e-01
1.765221655368804932e-01
4.418370872735977173e-02
3.236328065395355225e-02
2.636263966560363770e-01
1.259949803352355957e-01
-1.621492803096771240e-01
6.165223941206932068e-02
-5.165846645832061768e-02
-1.300208121538162231e-01
4.152134433388710022e-02
-1.676664948463439941e-01
6.677214801311492920e-02
-4.555926322937011719e-01
-2.280154079198837280e-01
-2.850482761859893799e-01
1.890573650598526001e-01
-5.716554075479507446e-02
-1.980981826782226562e-01
-1.063218712806701660e-01
2.333400696516036987e-01
4.526064172387123108e-02
-1.267426162958145142e-01
1.137860789895057678e-01
-2.394155040383338928e-02
5.980142951011657715e-02
4.542784020304679871e-02
1.204298585653305054e-01
-1.571927368640899658e-01
-2.927350699901580811e-01
-6.671449635177850723e-03
3.316632704809308052e-03
-2.010163068771362305e-01
-3.111363649368286133e-01
-1.158477365970611572e-01
-2.199058234691619873e-02
6.036993861198425293e-02
-1.913199424743652344e-01
-5.995844304561614990e-02
1.932869851589202881e-01
2.381777204573154449e-02
-1.735586374998092651e-01
4.083498194813728333e-02
-9.210301935672760010e-02
-1.836292147636413574e-01
2.563160955905914307e-01
-2.924364432692527771e-02
-1.283438354730606079e-01
2.561071217060089111e-01
6.302414089441299438e-02
-8.744660019874572754e-02
-1.967823207378387451e-01
1.057728528976440430e-01
-7.704447954893112183e-03
4.580875486135482788e-02
-2.346550673246383667e-01
3.132474124431610107e-01
3.747707605361938477e-01
-3.785013854503631592e-01
1.715064644813537598e-01
6.117133796215057373e-02
3.203493952751159668e-01
-6.382327526807785034e-02
1.013820767402648926e-01
-6.829300522804260254e-02
1.954964101314544678e-01
9.299028664827346802e-02
-7.098602503538131714e-02
-6.101967394351959229e-02
-6.891502439975738525e-02
4.640668630599975586e-02
5.624314770102500916e-02
3.206624463200569153e-02
8.244349062442779541e-02
-6.055585294961929321e-02
1.895685493946075439e-01
2.507769316434860229e-02
-1.814101040363311768e-01
-7.774049788713455200e-02
9.078840911388397217e-02
-2.109203636646270752e-01
-1.145726814866065979e-01
-1.531420648097991943e-01
-2.004730999469757080e-01
2.265308201313018799e-01
-1.474442780017852783e-01
5.262631922960281372e-02
5.837556347250938416e-02
4.051172360777854919e-02
-5.756812170147895813e-02
1.156343296170234680e-01
6.480215489864349365e-02
1.127285957336425781e-01
1.676893979310989380e-01
-1.562751829624176025e-02
5.792859196662902832e-02
-7.188808917999267578e-02
1.197216883301734924e-01
-2.205888554453849792e-02
6.688982248306274414e-02
4.801543802022933960e-02
9.822144359350204468e-02
-2.543436586856842041e-01
4.896192997694015503e-02
2.918578451499342918e-03
-1.513979882001876831e-01
3.823342546820640564e-02
3.404081240296363831e-02
-1.361514031887054443e-01
1.961527317762374878e-01
-1.227810233831405640e-01
7.878787815570831299e-02
-1.251176446676254272e-01
-8.233050815761089325e-03
-4.115430638194084167e-02
1.897443830966949463e-01
-6.586995907127857208e-03
-7.905052043497562408e-03
-9.870576858520507812e-02
1.122165843844413757e-01
2.781099267303943634e-02
5.283355712890625000e-02
-2.866798825562000275e-02
2.527755126357078552e-02
-7.877894490957260132e-02
2.728402912616729736e-01
-1.144693884998559952e-02
9.780300408601760864e-02
6.707528978586196899e-02
-7.418325543403625488e-02
1.720854197628796101e-03
2.045186795294284821e-02
-1.450040098279714584e-02
2.377793379127979279e-02
9.712471067905426025e-02
-5.312940478324890137e-02
1.226480752229690552e-01
5.079292505979537964e-02
2.942297141999006271e-04
1.252793986350297928e-02
9.668377041816711426e-02
-2.540775015950202942e-02
-5.894834920763969421e-02
1.387588828802108765e-01
4.106375575065612793e-02
3.656731173396110535e-02
-1.376133784651756287e-02
7.126566767692565918e-02
-1.136755291372537613e-02
1.902478747069835663e-02
2.933968603610992432e-02
3.833021596074104309e-02
1.399140655994415283e-01
-7.730149198323488235e-03
-4.130921885371208191e-02
-1.135600954294204712e-01
1.134248375892639160e-01
-1.394454985857009888e-01
1.194560006260871887e-01
9.082023054361343384e-02
-1.669451445341110229e-01
3.423752635717391968e-02
5.319263041019439697e-02
9.072508662939071655e-02
-2.319161742925643921e-01
2.897619642317295074e-02
3.208510950207710266e-02
-3.822963312268257141e-02
-6.276198476552963257e-02
-7.185939699411392212e-02
-6.727702170610427856e-02
4.657096695154905319e-03
6.002603843808174133e-02
-2.439014986157417297e-02
-1.498290896415710449e-01
1.615625224076211452e-03
1.446632146835327148e-01
4.811222851276397705e-02
3.306648880243301392e-02
3.447222709655761719e-02
-5.291687324643135071e-02
-7.856277376413345337e-02
1.800770461559295654e-01
-2.571248076856136322e-02
3.433414399623870850e-01
1.255173701792955399e-03
-9.088690578937530518e-02
9.243243932723999023e-02
-1.310649365186691284e-01
-1.335296779870986938e-01
-1.593631505966186523e-01
1.600214093923568726e-01
2.175190150737762451e-01
1.339044421911239624e-01
2.553446404635906219e-02
3.719207644462585449e-01
1.061691530048847198e-02
-2.263833582401275635e-01
1.504354625940322876e-01
-1.852393597364425659e-01
7.561349123716354370e-02
1.154843270778656006e-01
1.311860233545303345e-01
2.155475616455078125e-01
-7.263217121362686157e-02
1.529777795076370239e-01
2.558703422546386719e-01
8.216646313667297363e-02
-7.222606986761093140e-02
-6.286115199327468872e-02
-3.580097109079360962e-02
-1.193307638168334961e-01
3.815318271517753601e-02
-2.761798165738582611e-02
-9.820048511028289795e-02
-1.660210937261581421e-01
-1.075704246759414673e-01
2.436887621879577637e-01
-1.207740753889083862e-01
-3.218748793005943298e-02
-1.539892107248306274e-01
-1.880744099617004395e-01
-4.079233407974243164e-01
3.807852789759635925e-02
2.735227905213832855e-02
4.628542810678482056e-02
-1.025819852948188782e-01
-7.683303207159042358e-02
-2.487847208976745605e-02
3.029488027095794678e-01
-5.411222204566001892e-02
-2.495073825120925903e-01
1.496591866016387939e-01
-5.350657701492309570e-01
-2.901406884193420410e-01
-7.434518635272979736e-02
5.885484069585800171e-02
2.173554003238677979e-01
2.748676240444183350e-01
-3.853380680084228516e-02
3.711258247494697571e-02
-1.554294079542160034e-01
2.709660306572914124e-02
-2.912797033786773682e-01
-2.808925211429595947e-01
2.856095880270004272e-02
2.014635205268859863e-01
-9.639818221330642700e-02
1.154129430651664734e-01
2.127748131752014160e-01
2.045668512582778931e-01
1.145595386624336243e-01
-2.151819877326488495e-03
-6.644744426012039185e-02
-1.208307519555091858e-01
1.713471263647079468e-01
7.158824056386947632e-02
1.694665476679801941e-02
-4.169097542762756348e-02
-8.460977673530578613e-02
-6.896929442882537842e-02
2.359786070883274078e-02
2.589131891727447510e-01
-2.827299237251281738e-01
9.017609059810638428e-02
-5.082333460450172424e-02
-6.823114235885441303e-04
7.652763277292251587e-02
1.254584938287734985e-01
1.853801310062408447e-01
2.144462615251541138e-01
-2.321351915597915649e-01
-3.557129576802253723e-02
-2.526037395000457764e-01
2.445473372936248779e-01
-6.782042235136032104e-02
-1.219427436590194702e-01
2.785460948944091797e-01
1.870195716619491577e-01
1.046918556094169617e-01
-3.856160864233970642e-02
-1.979003399610519409e-01
-2.509670257568359375e-01
-6.236458942294120789e-02
2.498220838606357574e-02
-1.445573475211858749e-02
-1.796732246875762939e-01
-5.338849127292633057e-02
3.219386190176010132e-02
9.373368322849273682e-02
-5.432718619704246521e-02
-3.052419982850551605e-02
-1.111725643277168274e-01
3.410902917385101318e-01
-2.513329088687896729e-01
1.502403318881988525e-01
-2.104067951440811157e-01
-1.759302914142608643e-01
8.161383122205734253e-02
6.698815524578094482e-02
-2.358381450176239014e-02
6.144583225250244141e-02
-1.336346715688705444e-01
-1.078856289386749268e-01
-3.589235246181488037e-03
-9.502919018268585205e-02
1.418602168560028076e-01
-1.072840467095375061e-01
-7.711489498615264893e-02
3.990478441119194031e-02
5.634867772459983826e-02
5.912409722805023193e-02
2.813912369310855865e-02
1.210411861538887024e-01
-1.585552841424942017e-02
1.397894024848937988e-01
-8.396267145872116089e-02
1.747182160615921021e-01
4.850575700402259827e-02
1.208846271038055420e-02
-6.671256572008132935e-02
-2.453691959381103516e-01
-2.488452643156051636e-01
3.359219804406166077e-02
2.017604000866413116e-02
-2.137676812708377838e-02
2.349651604890823364e-01
-3.253202140331268311e-02
6.235943362116813660e-02
2.223097346723079681e-02
1.806397177278995514e-02
-6.954136490821838379e-02
1.398507598787546158e-02
5.616869032382965088e-02
-5.723800882697105408e-02
-5.121110379695892334e-02
-1.374093741178512573e-01
2.096502184867858887e-01
4.856365174055099487e-02
6.799755245447158813e-02
-4.544204473495483398e-02
-8.921139687299728394e-02
-1.222879812121391296e-01
-5.487768724560737610e-02
-2.472001165151596069e-01
-1.492706984281539917e-01
9.996791183948516846e-02
1.987291872501373291e-02
-4.759062826633453369e-02
-2.102626413106918335e-01
-1.163239255547523499e-01
1.333609521389007568e-01
-7.438668608665466309e-02
1.114924326539039612e-01
-1.832828298211097717e-02
4.170797392725944519e-02
9.248359501361846924e-02
1.030268147587776184e-01
-8.889910764992237091e-03
-8.215820044279098511e-02
1.006695106625556946e-01
1.515550725162029266e-02
-2.254184149205684662e-02
-3.075467236340045929e-02
-2.108368277549743652e-01
-1.168265715241432190e-01
1.343336850404739380e-01
1.135505922138690948e-02
9.258839488029479980e-02
-1.127148605883121490e-02
3.669214248657226562e-02
1.165380924940109253e-01
-6.325037032365798950e-02
-2.570688426494598389e-01
-1.060480177402496338e-01
-1.267318278551101685e-01
-6.226147059351205826e-03
-2.291135024279356003e-03
-1.283548921346664429e-01
-2.708340808749198914e-02
3.546270728111267090e-02
2.150780335068702698e-02
4.605327174067497253e-02
-1.417216807603836060e-01
-6.445235759019851685e-02
4.308516159653663635e-02
-1.139039546251296997e-01
1.424385141581296921e-02
-9.308368712663650513e-02
1.877512782812118530e-02
1.154173910617828369e-01
-4.255517199635505676e-02
-4.415054991841316223e-02
-1.167902648448944092e-01
5.014705285429954529e-02
-2.528237923979759216e-02
1.088565438985824585e-01
-8.028398454189300537e-02
-8.078371733427047729e-02
7.605736702680587769e-02
-4.114225506782531738e-02
2.970157656818628311e-03
-7.202319800853729248e-02
1.288432329893112183e-01
-2.301066219806671143e-01
1.036143209785223007e-02
4.472579807043075562e-02
-1.996173858642578125e-01
-4.591715335845947266e-02
1.111993193626403809e-01
-9.525066614151000977e-02
1.413783029420301318e-04
2.618823014199733734e-02
9.415356814861297607e-02
-2.132834196090698242e-01
-1.796561293303966522e-02
9.652307629585266113e-02
-1.087423935532569885e-01
-3.493801876902580261e-02
7.053042948246002197e-02
-2.347980439662933350e-02
9.083297103643417358e-02
-1.133390143513679504e-02
-2.598015405237674713e-02
6.976966559886932373e-02
-1.837192289531230927e-02
1.057239174842834473e-01
-2.511255443096160889e-02
5.211241543292999268e-02
-1.031712349504232407e-02
-8.022409677505493164e-02
-8.796104043722152710e-02
-4.700290039181709290e-02
-1.492371689528226852e-02
4.691612347960472107e-02
4.250225611031055450e-03
5.558225885033607483e-02
-4.191292077302932739e-02
1.121518388390541077e-02
5.735209211707115173e-02
-1.148672178387641907e-01
-2.728198468685150146e-02
-6.754422932863235474e-02
-2.617558240890502930e-01
9.870697557926177979e-02
3.051931038498878479e-02
2.504857443273067474e-02
1.962121874094009399e-01
-3.022802807390689850e-02
1.668026596307754517e-01
4.944318532943725586e-02
5.756555870175361633e-02
-1.475881189107894897e-01
1.331687122583389282e-01
-4.440028592944145203e-02
7.059569656848907471e-02
-1.303901374340057373e-01
3.776342375203967094e-03
-2.391924522817134857e-02
5.024299770593643188e-02
8.650632947683334351e-02
3.329116478562355042e-02
-1.013574451208114624e-01
4.598996788263320923e-02
-5.935570597648620605e-02
-4.860041663050651550e-02
-7.222266495227813721e-02
8.548200875520706177e-02
2.372882328927516937e-02
5.160578340291976929e-02
-6.909646838903427124e-02
9.998805075883865356e-02
-4.580964520573616028e-02
5.176686868071556091e-02
-3.164801001548767090e-02
1.297111064195632935e-01
-5.347677320241928101e-02
7.086413353681564331e-02
-1.823301985859870911e-02
1.324840337038040161e-01
1.833653748035430908e-01
-3.240742161870002747e-02
-6.638284027576446533e-02
1.139204055070877075e-01
-9.660126268863677979e-02
6.341327726840972900e-02
1.235915422439575195e-01
3.783691674470901489e-02
9.984183311462402344e-02
1.482781954109668732e-02
-3.296336159110069275e-02
-9.011039882898330688e-02
8.697732537984848022e-02
2.052314952015876770e-02
2.228152565658092499e-02
-6.147542595863342285e-02
1.665233634412288666e-02
8.432590961456298828e-02
-5.800445377826690674e-02
-1.070915237069129944e-01
4.465866461396217346e-02
1.071988791227340698e-02
1.284631043672561646e-01
1.145748198032379150e-01
-1.312313973903656006e-01
-1.081524067558348179e-03
2.665980160236358643e-02
-6.966285407543182373e-02
-6.252656131982803345e-02
-4.314296320080757141e-02
-1.041535437107086182e-01
2.919286862015724182e-02
6.689530611038208008e-02
-1.102335676550865173e-01
2.194471210241317749e-01
-4.888173937797546387e-02
2.059384621679782867e-02
2.108686231076717377e-02
-2.965727820992469788e-02
-1.235499605536460876e-01
-2.160005420446395874e-01
-3.537963703274726868e-02
-3.384741768240928650e-02
-3.390204608440399170e-01
8.327383548021316528e-02
2.533861696720123291e-01
4.633923247456550598e-02
-1.083979308605194092e-01
-1.878201961517333984e-01
-1.483422983437776566e-02
3.593153879046440125e-02
2.076782099902629852e-02
-3.117194026708602905e-02
-4.690237343311309814e-02
-8.270695060491561890e-02
5.382240191102027893e-02
-4.393453523516654968e-02
-5.204017739742994308e-03
1.238534450531005859e-01
-1.592460870742797852e-01
-1.297217756509780884e-01
1.536835078150033951e-02
5.945410951972007751e-02
9.030289016664028168e-03
2.062622271478176117e-02
-2.469271123409271240e-01
7.530864328145980835e-02
1.040295660495758057e-01
-2.174187600612640381e-01
2.228661067783832550e-02
-1.072674393653869629e-01
2.410868853330612183e-01
-5.252612009644508362e-02
-4.957479983568191528e-02
2.041398584842681885e-01
-1.251634657382965088e-01
-1.360203791409730911e-02
-9.489326179027557373e-02
-1.460451073944568634e-02
-1.893008500337600708e-01
1.196406688541173935e-02
3.487067669630050659e-02
-1.778640896081924438e-01
-2.357638776302337646e-01
6.857051514089107513e-03
1.687453836202621460e-01
5.265809223055839539e-02
-9.407315403223037720e-02
-6.197653710842132568e-02
6.964105367660522461e-02
-6.488241255283355713e-02
-9.079894423484802246e-02
6.872465461492538452e-02
-1.207795441150665283e-01
-2.211714237928390503e-01
-2.749944329261779785e-01
-2.915319502353668213e-01
-8.706284314393997192e-02
-1.175542697310447693e-01
6.971263885498046875e-02
-1.204683706164360046e-01
-7.034134864807128906e-02
1.588067859411239624e-01
-4.997867345809936523e-02
-2.567590586841106415e-02
-1.167430132627487183e-01
-5.584278702735900879e-02
-3.885463997721672058e-02
8.186089806258678436e-03
1.921752840280532837e-01
-6.140505522489547729e-02
-1.776892393827438354e-01
1.290285140275955200e-01
-8.916066586971282959e-02
-1.581571400165557861e-01
-1.937103867530822754e-01
-5.429225042462348938e-02
5.842098221182823181e-02
1.784737110137939453e-01
-1.216840073466300964e-01
5.086071416735649109e-02
-2.554462105035781860e-02
1.316584199666976929e-01
-1.293986737728118896e-01
-4.517676308751106262e-02
1.905226260423660278e-01
-1.017017662525177002e-01
-1.622599363327026367e-01
-2.336215414106845856e-02
1.086648181080818176e-02
-2.365288697183132172e-02
2.260225452482700348e-02
-1.415957603603601456e-02
-6.025446578860282898e-02
-1.370739489793777466e-01
-6.518769264221191406e-02
-5.150745436549186707e-02
-4.915701597929000854e-02
-6.509750336408615112e-02
5.325506627559661865e-02
1.355272084474563599e-01
1.928487867116928101e-01
3.516238033771514893e-01
-4.587239027023315430e-02
