3.260706737637519836e-02
-8.561408147215843201e-03
-1.758539490401744843e-02
1.112628430128097534e-01
1.462933123111724854e-01
3.034449741244316101e-02
-4.772269725799560547e-02
2.047744207084178925e-02
-5.047977715730667114e-02
-1.920597441494464874e-02
-1.024506054818630219e-02
4.439093917608261108e-02
1.747021637856960297e-02
2.532745003700256348e-01
-1.559335589408874512e-01
-3.885819613933563232e-01
-6.545672565698623657e-02
8.220596611499786377e-02
-3.257811367511749268e-01
3.577722311019897461e-01
-7.738298922777175903e-02
3.059005737304687500e-01
-1.259964555501937866e-01
-3.237980417907238007e-04
1.014452986419200897e-02
3.459991514682769775e-02
1.793402135372161865e-01
-3.087215498089790344e-02
9.432312846183776855e-02
-1.856237649917602539e-02
1.790904402732849121e-01
-8.017533458769321442e-03
-9.029815346002578735e-02
-1.549299061298370361e-02
-4.923407435417175293e-01
3.709287047386169434e-01
4.908370226621627808e-02
-5.520455911755561829e-02
5.484657734632492065e-02
2.226569876074790955e-02
-1.095053851604461670e-01
-2.791081182658672333e-02
-1.100537925958633423e-01
1.657315790653228760e-01
-9.321313351392745972e-02
-9.627994149923324585e-04
-3.140322268009185791e-01
-1.339518278837203979e-01
-2.825764566659927368e-02
8.809182047843933105e-02
-7.453137543052434921e-03
2.014808207750320435e-01
8.616058528423309326e-02
-9.336940944194793701e-02
4.936273396015167236e-02
1.538122296333312988e-01
6.854346394538879395e-02
1.242205053567886353e-01
1.804623901844024658e-01
5.793431028723716736e-02
-2.348055839538574219e-01
5.800130218267440796e-02
-5.095981061458587646e-02
1.508160531520843506e-01
-1.096105203032493591e-02
-2.481030076742172241e-01
-2.986261844635009766e-01
3.225557133555412292e-02
-1.277106404304504395e-01
-4.191380739212036133e-02
7.776113599538803101e-02
1.522195488214492798e-01
-2.825354933738708496e-01
-3.799949586391448975e-02
-8.782628923654556274e-03
-6.042966246604919434e-02
9.010885842144489288e-03
-2.408814579248428345e-01
2.603771910071372986e-02
9.366981685161590576e-02
3.791573457419872284e-03
9.814704768359661102e-03
1.114859059453010559e-01
-8.641989529132843018e-02
-6.287673115730285645e-02
-4.925420507788658142e-03
6.746654957532882690e-02
3.491839393973350525e-02
1.142717003822326660e-01
-9.448717534542083740e-02
-1.591898798942565918e-01
-5.803917348384857178e-02
-2.003922164440155029e-01
-3.664268553256988525e-02
1.470878720283508301e-01
-5.955658107995986938e-02
1.370702683925628662e-02
1.856408417224884033e-01
1.676429510116577148e-01
2.122443318367004395e-01
1.838712990283966064e-01
-2.695481181144714355e-01
-5.877554416656494141e-01
1.522505879402160645e-01
-1.560332924127578735e-01
-2.218075990676879883e-01
2.029051631689071655e-01
-2.548736520111560822e-04
-9.374088607728481293e-03
-4.275629669427871704e-02
6.915244460105895996e-02
-1.110177487134933472e-03
8.828201144933700562e-02
2.501237206161022186e-02
1.040333211421966553e-01
-3.054734319448471069e-03
1.388388127088546753e-01
1.842418611049652100e-01
4.275194555521011353e-02
2.465989813208580017e-02
