1.323011331260204315e-02
-6.765292584896087646e-02
-7.456644624471664429e-02
-2.088403888046741486e-02
1.730219274759292603e-02
-1.028951257467269897e-01
3.868245333433151245e-02
-4.163761914242058992e-04
8.566151373088359833e-03
-1.660471782088279724e-02
3.933304920792579651e-02
-1.174964359961450100e-03
2.611230127513408661e-02
2.442352473735809326e-02
2.870252355933189392e-02
4.174666851758956909e-02
1.138377655297517776e-02
4.530321806669235229e-02
-5.020792596042156219e-04
-5.346142686903476715e-03
4.958312958478927612e-02
-7.242773473262786865e-02
3.299745148979127407e-04
-3.605338558554649353e-02
-1.517886389046907425e-02
-6.214804481714963913e-03
1.821695454418659210e-02
3.469635546207427979e-02
4.640616476535797119e-02
-1.980778202414512634e-02
-1.448838505893945694e-02
-2.096129767596721649e-02
-4.097609594464302063e-02
-8.094053715467453003e-02
2.511589415371417999e-02
2.623586915433406830e-02
-1.530671492218971252e-02
8.679682505317032337e-04
-3.551804646849632263e-02
-7.577604800462722778e-02
-5.643936991691589355e-02
1.293931156396865845e-02
-7.502257823944091797e-03
-5.369942635297775269e-02
-6.177982781082391739e-03
5.916866660118103027e-02
1.902182400226593018e-02
2.658710815012454987e-02
-1.331334002315998077e-02
-6.500247865915298462e-02
