1.436611264944076538e-01
8.020441234111785889e-02
-2.372992634773254395e-01
6.099882069975137711e-03
-2.029827535152435303e-01
4.263527225703001022e-03
-1.504375040531158447e-01
2.579003274440765381e-01
1.581887342035770416e-02
2.396201193332672119e-01
1.704193800687789917e-01
2.206061929464340210e-01
3.857920169830322266e-01
2.666930854320526123e-01
2.451108843088150024e-01
7.098495960235595703e-02
-1.928871870040893555e-01
1.877911984920501709e-01
-2.349160462617874146e-01
-3.878481686115264893e-01
-8.577485382556915283e-02
-6.791071593761444092e-02
2.919787764549255371e-01
6.020616888999938965e-01
6.767839789390563965e-01
-2.176256775856018066e-01
-1.182886734604835510e-01
6.628588587045669556e-02
1.466579139232635498e-01
-9.391930699348449707e-01
-4.389137923717498779e-01
-3.914165794849395752e-01
-3.662491738796234131e-01
-1.924509257078170776e-01
-7.081779241561889648e-01
1.469610184431076050e-01
-3.078484237194061279e-01
1.925888359546661377e-01
2.020829468965530396e-01
1.005171015858650208e-01
-2.154611423611640930e-02
-2.264337800443172455e-02
-2.776324450969696045e-01
-6.706648468971252441e-01
-2.274106144905090332e-01
1.094739213585853577e-01
7.104235887527465820e-02
-2.717587351799011230e-01
-1.812975108623504639e-01
1.832819581031799316e-01
-2.051192894577980042e-02
-3.077501356601715088e-01
1.776363104581832886e-01
2.045728862285614014e-01
4.107043147087097168e-01
-1.207395493984222412e-01
-7.397868484258651733e-02
-6.221575289964675903e-02
-2.705628275871276855e-01
-1.880656182765960693e-01
-3.939930200576782227e-01
1.879667863249778748e-02
-2.788085341453552246e-01
-3.869344294071197510e-01
-5.826646089553833008e-01
2.332164943218231201e-01
1.260604560375213623e-01
2.868978083133697510e-01
9.511321550235152245e-04
3.009611666202545166e-01
-2.044977098703384399e-01
-3.764429092407226562e-01
-5.407064408063888550e-02
2.199630588293075562e-01
-1.168479397892951965e-01
-1.819720417261123657e-01
-2.478075399994850159e-02
-2.970787286758422852e-01
-1.140337362885475159e-01
9.831856191158294678e-02
-8.251544088125228882e-02
-1.583847403526306152e-01
2.323101609945297241e-01
-3.047365546226501465e-01
-1.030559837818145752e-01
1.704197376966476440e-02
3.335825800895690918e-01
-1.632917821407318115e-01
2.608937919139862061e-01
2.766923010349273682e-01
-2.281914204359054565e-01
1.871344819664955139e-02
2.125813364982604980e-01
-1.169582307338714600e-01
1.810199767351150513e-02
7.006236165761947632e-02
-4.368036985397338867e-01
-1.074218675494194031e-01
-1.409002989530563354e-01
-2.374172955751419067e-01
1.646904051303863525e-01
-1.926089227199554443e-01
2.799933552742004395e-01
-1.294676661491394043e-01
2.184255123138427734e-01
3.409723564982414246e-02
1.873394995927810669e-01
3.047154843807220459e-01
-2.444713860750198364e-01
2.027560919523239136e-01
-2.258210033178329468e-01
-2.153072133660316467e-02
-1.766876727342605591e-01
9.988038241863250732e-02
-1.322595775127410889e-01
-2.570992112159729004e-01
1.111757755279541016e-01
-1.773846335709095001e-02
-2.047794759273529053e-01
2.083576768636703491e-01
-1.346823871135711670e-01
2.681660950183868408e-01
3.251453340053558350e-01
2.798441350460052490e-01
-1.138543616980314255e-02
-5.334077775478363037e-02
-3.948127031326293945e-01
2.381269633769989014e-02
2.049306929111480713e-01
1.992698758840560913e-01
-2.794768512248992920e-01
-7.797531783580780029e-02
-2.710715495049953461e-02
2.794069051742553711e-01
1.250407192856073380e-02
-6.560362875461578369e-02
7.549339532852172852e-02
-1.676872372627258301e-01
-3.346377909183502197e-01
2.611355483531951904e-01
-1.307613551616668701e-01
-1.367185562849044800e-01
-9.137988090515136719e-02
2.688943147659301758e-01
-6.395466625690460205e-02
4.683401435613632202e-02
-8.509643375873565674e-02
-3.501322492957115173e-02
1.256205588579177856e-01
2.688590884208679199e-01
-9.686651825904846191e-02
-3.467706264927983284e-03
-1.753286868333816528e-01
-1.211194470524787903e-01
-1.259331852197647095e-01
2.311000674962997437e-01
-1.017689928412437439e-01
-3.314231634140014648e-01
-2.111668586730957031e-01
2.151563018560409546e-01
-3.269601147621870041e-03
3.185807168483734131e-01
-2.339527755975723267e-01
2.859756946563720703e-01
-3.701336085796356201e-01
-1.766528636217117310e-01
-3.626345992088317871e-01
-1.250172108411788940e-01
8.761422336101531982e-02
2.886524796485900879e-01
-2.616081535816192627e-01
-2.128615528345108032e-01
-1.600911617279052734e-01
2.351044565439224243e-01
-7.495629787445068359e-02
1.140969395637512207e-01
1.797988712787628174e-01
-2.118567228317260742e-01
-2.116503715515136719e-01
3.185622394084930420e-01
-9.765965491533279419e-02
-3.843129873275756836e-01
2.087051421403884888e-01
-2.517541870474815369e-02
6.830751150846481323e-02
-1.198636367917060852e-01
6.398256123065948486e-02
-3.416392505168914795e-01
-2.094158530235290527e-02
-2.053268700838088989e-01
-1.572004854679107666e-01
1.363049149513244629e-01
8.697028458118438721e-02
7.781533896923065186e-02
1.247166469693183899e-01
-5.359651148319244385e-02
-3.246246874332427979e-01
1.697963327169418335e-01
3.503265976905822754e-01
-5.255593061447143555e-01
-3.197974264621734619e-01
-8.783034235239028931e-02
1.670960634946823120e-01
-2.641920745372772217e-01
2.974956296384334564e-04
2.195585072040557861e-01
1.135979220271110535e-01
9.342053532600402832e-02
1.833962649106979370e-01
7.441674917936325073e-02
7.032332569360733032e-02
-1.987270265817642212e-02
-5.918343737721443176e-02
-3.183881044387817383e-01
3.704760670661926270e-01
-6.917881369590759277e-01
-2.905168831348419189e-01
2.161240577697753906e-01
2.597179263830184937e-02
-5.284361243247985840e-01
1.447862833738327026e-01
-3.841066360473632812e-01
3.004057705402374268e-01
-2.486524432897567749e-01
3.486511856317520142e-02
-4.260665923357009888e-02
2.703620791435241699e-01
-2.432093471288681030e-01
-6.611932814121246338e-02
6.662116944789886475e-02
4.705544710159301758e-01
-1.513416022062301636e-01
3.832706511020660400e-01
1.968053430318832397e-01
3.442908823490142822e-01
3.487419188022613525e-01
3.806442916393280029e-01
1.615994721651077271e-01
-3.963723182678222656e-01
-3.931074142456054688e-01
-2.962043881416320801e-01
-6.843151524662971497e-03
-2.275354266166687012e-01
8.283197879791259766e-02
1.952071189880371094e-01
-6.094697117805480957e-01
2.491271495819091797e-01
2.632503807544708252e-01
-2.916650176048278809e-01
-1.725255399942398071e-01
1.066401675343513489e-01
1.471029669046401978e-01
2.692445516586303711e-01
-4.695453867316246033e-02
1.832330375909805298e-01
-3.918474167585372925e-02
-2.298856824636459351e-01
1.889026374556124210e-03
1.318634450435638428e-01
1.445860117673873901e-01
-1.189086288213729858e-01
1.807381361722946167e-01
-4.239292144775390625e-01
-2.808437943458557129e-01
-3.270169198513031006e-01
2.687623798847198486e-01
2.285625040531158447e-02
-5.457274988293647766e-02
6.300644576549530029e-02
1.864622384309768677e-01
1.080087199807167053e-01
-1.658485382795333862e-01
1.303585469722747803e-01
-1.092175766825675964e-01
1.771450787782669067e-01
2.183913290500640869e-01
-3.063396811485290527e-01
-1.455706954002380371e-01
-1.458201110363006592e-01
6.649296730756759644e-02
1.667291224002838135e-01
-6.479351222515106201e-02
-1.484883278608322144e-01
2.132741063833236694e-01
9.417847730219364166e-03
-1.009360477328300476e-01
-4.314555600285530090e-02
-3.949491083621978760e-01
2.859958447515964508e-02
2.331608980894088745e-01
-2.142416872084140778e-02
1.347337663173675537e-01
2.917996644973754883e-01
-3.330850899219512939e-01
5.129674077033996582e-01
3.051361069083213806e-02
7.392994314432144165e-02
-1.055844351649284363e-01
-4.870705306529998779e-01
1.731079220771789551e-01
1.148444712162017822e-01
5.864010751247406006e-02
2.316275388002395630e-01
1.774347722530364990e-01
2.308509498834609985e-01
-1.044448465108871460e-01
1.632816046476364136e-01
-1.831430196762084961e-01
-5.242464691400527954e-02
1.649048738181591034e-02
1.090889498591423035e-01
-1.259422153234481812e-01
-1.115169003605842590e-01
8.769242465496063232e-02
2.066699042916297913e-02
-3.876707553863525391e-01
-4.078200161457061768e-01
1.598908305168151855e-01
-6.516095250844955444e-02
-3.639817237854003906e-01
1.722872853279113770e-01
-9.041227400302886963e-02
-4.489213228225708008e-01
1.330896466970443726e-01
-7.195631973445415497e-03
2.332154065370559692e-01
-1.237034052610397339e-01
4.230293631553649902e-02
2.452787160873413086e-01
4.001955091953277588e-01
3.350302875041961670e-01
-1.435365229845046997e-01
2.773310840129852295e-01
-1.834379434585571289e-01
4.004075825214385986e-01
-2.583751678466796875e-01
-1.986617036163806915e-02
2.967466115951538086e-01
-1.305160373449325562e-01
-3.113335371017456055e-01
9.261085838079452515e-02
7.405606657266616821e-02
2.458958029747009277e-01
3.300087749958038330e-01
-1.412512362003326416e-01
5.878869295120239258e-01
1.381994932889938354e-01
1.779137998819351196e-01
1.947290003299713135e-01
1.706261485815048218e-01
-2.499511092901229858e-01
2.262848615646362305e-01
2.129675149917602539e-01
-2.134389281272888184e-01
-3.323276042938232422e-01
-1.725270003080368042e-01
-9.494806826114654541e-02
4.144607856869697571e-02
-1.977555602788925171e-01
1.796288490295410156e-01
3.176257386803627014e-02
-1.938106417655944824e-01
2.799867279827594757e-02
-3.302933871746063232e-01
2.609151899814605713e-01
3.287709355354309082e-01
-4.510076045989990234e-01
2.472229301929473877e-01
-5.053232237696647644e-02
-2.708638012409210205e-01
5.206346511840820312e-01
7.454032450914382935e-02
-2.251158952713012695e-01
3.705659508705139160e-02
-1.098135262727737427e-01
6.033037304878234863e-01
-3.060168325901031494e-01
2.273237556219100952e-01
9.763196110725402832e-02
-7.779590785503387451e-02
4.791183024644851685e-02
-2.652461826801300049e-01
1.206988468766212463e-01
2.898719608783721924e-01
4.424176812171936035e-01
2.044970402494072914e-03
-2.114889472723007202e-01
-2.387500554323196411e-01
3.022242486476898193e-01
-3.657962083816528320e-01
7.146637886762619019e-02
1.623069941997528076e-01
1.474530100822448730e-01
-1.527545750141143799e-01
2.884722054004669189e-01
1.562928855419158936e-01
9.794679470360279083e-03
-7.647933810949325562e-02
-1.482955068349838257e-01
-4.676482379436492920e-01
1.969315409660339355e-01
1.613648384809494019e-01
-3.299130201339721680e-01
2.231727987527847290e-01
-1.859934814274311066e-02
-9.052006900310516357e-02
6.706065684556961060e-02
5.323865264654159546e-02
2.285254597663879395e-01
-3.491120934486389160e-01
-6.204187273979187012e-01
2.672389447689056396e-01
-3.420535624027252197e-01
-1.574079096317291260e-01
4.288370534777641296e-02
8.807997703552246094e-01
2.212235629558563232e-01
-1.336017698049545288e-01
2.291252464056015015e-01
3.819121420383453369e-01
2.965735495090484619e-01
-3.769198954105377197e-01
1.956037431955337524e-01
-2.095159888267517090e-01
-1.104260236024856567e-02
1.937263756990432739e-01
-2.590772323310375214e-02
9.627105295658111572e-02
2.106312215328216553e-01
-1.974918693304061890e-01
-1.724215224385261536e-02
-5.470316857099533081e-02
-4.238313436508178711e-01
-2.580181360244750977e-01
-4.905025362968444824e-01
-2.085199356079101562e-01
2.112393528223037720e-01
-2.198384255170822144e-01
-2.746772468090057373e-01
3.062721490859985352e-01
1.902105063199996948e-01
-2.190911620855331421e-01
2.202173322439193726e-01
3.546686097979545593e-02
1.592566221952438354e-01
3.345204591751098633e-01
-1.274724453687667847e-01
-3.460481390357017517e-02
-3.358843326568603516e-01
-2.888142168521881104e-01
7.169011980295181274e-02
1.600654721260070801e-01
1.857938915491104126e-01
-2.892073690891265869e-01
-2.758224606513977051e-01
2.785730548202991486e-02
2.726928330957889557e-02
-3.771949931979179382e-02
-9.250988811254501343e-02
1.724471002817153931e-01
-8.331950008869171143e-02
1.097981780767440796e-01
1.246697455644607544e-01
-1.367365866899490356e-01
1.238097772002220154e-01
3.094824254512786865e-01
-9.191340208053588867e-02
-6.376653164625167847e-02
-3.197146579623222351e-02
2.115998268127441406e-01
3.217736780643463135e-01
-1.718740612268447876e-01
-2.776764929294586182e-01
-3.293457031250000000e-01
-5.120679140090942383e-01
3.152347803115844727e-01
2.576224803924560547e-01
5.011203512549400330e-02
-1.194339320063591003e-01
5.965500697493553162e-02
9.432039409875869751e-02
1.833329349756240845e-01
9.638863056898117065e-02
2.272124588489532471e-01
3.013581931591033936e-01
-1.433480381965637207e-01
-6.350675225257873535e-01
-2.534156739711761475e-01
-3.964972123503684998e-02
7.573359459638595581e-02
-1.352727711200714111e-01
1.992391496896743774e-01
1.828884929418563843e-01
1.542427837848663330e-01
3.490669429302215576e-01
8.646090514957904816e-03
-2.421832531690597534e-01
-3.675243556499481201e-01
3.549395799636840820e-01
-1.556858420372009277e-01
