-7.145472168922424316e-01
7.473890483379364014e-02
3.256527483463287354e-01
-1.039542071521282196e-02
1.392293125391006470e-01
5.046933516860008240e-02
-2.416081279516220093e-01
1.216786280274391174e-01
-5.791515111923217773e-01
1.793168187141418457e-01
-6.056901812553405762e-02
-7.173881866037845612e-03
-4.245828092098236084e-02
2.477306127548217773e-01
1.293025314807891846e-01
-1.682677865028381348e-01
-1.051970198750495911e-01
1.124295145273208618e-01
-8.380823135375976562e-01
-4.859471321105957031e-01
2.170515060424804688e-01
2.297680228948593140e-01
-2.978307604789733887e-01
1.041258573532104492e-01
-2.091864794492721558e-01
-5.079318303614854813e-03
-5.028601884841918945e-01
1.370570957660675049e-01
1.048029661178588867e-01
-1.102215722203254700e-01
-2.296402007341384888e-01
2.152153253555297852e-01
-1.510456651449203491e-01
1.004783995449542999e-02
-2.461431622505187988e-01
2.271654456853866577e-01
2.372924685478210449e-01
1.274762302637100220e-01
-1.814258992671966553e-01
-8.661784231662750244e-02
-1.487613320350646973e-01
-7.089021801948547363e-01
3.212152719497680664e-01
-2.334633916616439819e-01
9.174982458353042603e-02
-5.145335104316473007e-03
-6.482044458389282227e-01
-6.496164202690124512e-02
2.331919409334659576e-02
-2.613918781280517578e-01
-3.893858492374420166e-01
-2.596473991870880127e-01
4.585715234279632568e-01
-3.389545977115631104e-01
-5.696776881814002991e-02
-7.100962400436401367e-01
-1.871412843465805054e-01
-1.214237689971923828e+00
-4.528045654296875000e-01
9.000840783119201660e-02
-2.948624491691589355e-01
-2.426943331956863403e-01
-2.271999791264533997e-02
4.086495339870452881e-01
-1.481015235185623169e-01
1.444295346736907959e-01
-7.808975577354431152e-01
-6.716440916061401367e-01
3.724780082702636719e-01
-1.811552643775939941e-01
-8.309745043516159058e-02
-4.705692082643508911e-02
-1.969439387321472168e-01
1.434754878282546997e-01
2.400253564119338989e-01
1.014813967049121857e-02
1.045698896050453186e-01
2.606129944324493408e-01
-7.343738526105880737e-02
-1.079363934695720673e-02
8.991696685552597046e-02
1.376727223396301270e-01
-9.146006107330322266e-01
-1.653390824794769287e-01
-2.061846293509006500e-02
2.370761781930923462e-01
-5.395484566688537598e-01
2.177263796329498291e-01
3.656533956527709961e-01
6.572341173887252808e-02
2.240043282508850098e-01
-3.079620599746704102e-01
3.826987147331237793e-01
1.611689329147338867e-01
-9.193629026412963867e-02
5.888828262686729431e-02
-1.830975264310836792e-01
-4.361077249050140381e-01
1.277580261230468750e-01
-1.644522696733474731e-01
-8.070595860481262207e-01
-2.383432388305664062e-01
-6.744590997695922852e-01
-1.263967156410217285e-01
1.130392551422119141e-01
-2.837103009223937988e-01
-4.660470485687255859e-01
4.125013649463653564e-01
-1.384652499109506607e-02
-2.727035582065582275e-01
6.127167493104934692e-02
-4.547285735607147217e-01
1.428123116493225098e-01
3.063189797103404999e-02
5.674489587545394897e-02
2.264221385121345520e-02
-2.439790517091751099e-01
-5.385715961456298828e-01
3.240367770195007324e-01
2.312190979719161987e-01
