-2.376333951950073242e+00
-9.733108878135681152e-01
-2.625725567340850830e-01
2.654562294483184814e-01
-3.190177381038665771e-01
5.103181675076484680e-02
3.902401626110076904e-01
-2.364422976970672607e-01
-6.639549136161804199e-02
1.470472663640975952e-01
-4.060664772987365723e-01
2.563076913356781006e-01
1.000944375991821289e+00
2.023258507251739502e-01
-1.161032319068908691e-01
3.995350599288940430e-01
1.808483302593231201e-01
1.387669891119003296e-01
-3.337952494621276855e-01
-1.470358610153198242e+00
-4.863445162773132324e-01
-1.476816087961196899e-01
-9.100986123085021973e-01
-4.332796204835176468e-03
-3.930068314075469971e-01
5.210277438163757324e-01
-2.840391099452972412e-01
3.694236278533935547e-01
-2.382797300815582275e-01
1.732389628887176514e-01
1.658966898918151855e+00
2.357467412948608398e-01
1.570241749286651611e-01
-1.616272032260894775e-01
-4.856749624013900757e-02
-1.997075527906417847e-01
4.658321142196655273e-01
-1.044624328613281250e+00
-1.182578921318054199e+00
-5.087002515792846680e-01
-7.017856836318969727e-02
-1.850268542766571045e-01
-5.457071661949157715e-01
3.556536436080932617e-01
3.036309182643890381e-01
-6.845204532146453857e-02
6.674707531929016113e-01
8.326990604400634766e-01
3.085125684738159180e-01
-1.861564368009567261e-01
1.173199057579040527e+00
9.247699975967407227e-01
1.096884235739707947e-01
-2.477540969848632812e-01
-8.158730864524841309e-01
-6.606152281165122986e-03
-6.687562167644500732e-02
3.149010613560676575e-02
-1.348553299903869629e-01
-7.290574908256530762e-02
6.207519173622131348e-01
-6.607620716094970703e-01
-1.253437250852584839e-01
-1.815517316572368145e-03
2.650409638881683350e-01
-7.920774817466735840e-01
2.061846554279327393e-01
-1.397281646728515625e+00
1.989331245422363281e-01
4.514007270336151123e-01
2.935253381729125977e-01
4.064996913075447083e-02
9.712545275688171387e-01
-5.403706431388854980e-01
2.638970911502838135e-01
-2.474698424339294434e-01
3.970328271389007568e-01
1.735142707824707031e+00
-9.854959249496459961e-01
7.587624192237854004e-01
-1.818563342094421387e-01
1.152445897459983826e-01
4.098691418766975403e-02
6.920737624168395996e-01
2.913028001785278320e-01
1.953106224536895752e-01
4.347445070743560791e-01
6.047403216361999512e-01
-8.700743913650512695e-01
2.862529158592224121e-01
-2.252870351076126099e-01
-4.980546832084655762e-01
8.722296953201293945e-01
3.923848867416381836e-01
-6.783257722854614258e-01
-4.095234572887420654e-01
1.882092654705047607e-01
6.498185396194458008e-01
2.554946243762969971e-01
4.679816365242004395e-01
3.270672559738159180e-01
3.359629213809967041e-01
1.719869077205657959e-01
-9.761296510696411133e-01
8.550077080726623535e-01
2.582770884037017822e-01
-4.361504316329956055e-01
-5.359990000724792480e-01
-2.743720412254333496e-01
-1.970267742872238159e-01
1.187061905860900879e+00
1.899617165327072144e-01
9.394682943820953369e-02
-3.661546111106872559e-01
-3.301722109317779541e-01
1.379558444023132324e-01
5.290805101394653320e-01
-6.412155032157897949e-01
8.893273472785949707e-01
4.323131591081619263e-02
-2.857887744903564453e-01
-7.392843812704086304e-02
2.431165575981140137e-01
-1.051147282123565674e-02
-4.363133013248443604e-01
1.069177538156509399e-01
-8.528298139572143555e-02
3.550981283187866211e-01
-2.788845449686050415e-02
2.492137849330902100e-01
1.679098159074783325e-01
4.432579874992370605e-01
2.938350737094879150e-01
1.778085976839065552e-01
-5.583284497261047363e-01
3.314433693885803223e-01
-1.843205094337463379e-01
-3.776445053517818451e-03
-3.337629079818725586e+00
2.075257450342178345e-01
4.071063548326492310e-02
-3.915286064147949219e-02
5.594538897275924683e-02
-5.633489042520523071e-02
2.101790010929107666e-01
3.179828822612762451e-01
6.576760206371545792e-03
-7.502043992280960083e-02
-2.785559296607971191e-01
1.555290669202804565e-01
1.276954561471939087e-01
-3.925432860851287842e-01
-1.307806465774774551e-02
3.260021209716796875e-01
-4.768768846988677979e-01
-3.217833340167999268e-01
-4.200063943862915039e-01
1.085854619741439819e-01
-4.190495610237121582e-01
6.395841389894485474e-02
3.603914752602577209e-02
3.434373140335083008e-01
1.865582168102264404e-02
-2.248393058776855469e+00
8.076735138893127441e-01
-6.541492938995361328e-01
2.773200511932373047e+00
-1.436455845832824707e-01
-1.024552658200263977e-01
-1.673736125230789185e-01
8.390416204929351807e-02
6.826781630516052246e-01
-3.939828574657440186e-01
6.020882865414023399e-04
-4.890906438231468201e-02
4.271908700466156006e-01
1.550931632518768311e-01
-7.130337357521057129e-01
-3.937714993953704834e-01
2.986080758273601532e-02
1.604930043220520020e+00
-5.612549781799316406e-01
-5.579813718795776367e-01
-4.273898005485534668e-01
2.244406938552856445e-01
-1.200543940067291260e-01
2.785930931568145752e-01
2.370573878288269043e-01
-8.426010608673095703e-02
7.335214614868164062e-01
-2.762246131896972656e-01
-4.341297969222068787e-02
3.026998639106750488e-01
-1.261653006076812744e-01
9.212088584899902344e-02
1.623779535293579102e-01
-4.468199014663696289e-01
-6.209723949432373047e-01
-1.136627271771430969e-01
8.061261773109436035e-01
-1.138701885938644409e-01
4.833233356475830078e-01
-6.851998567581176758e-01
-9.023374319076538086e-02
-4.950643777847290039e-01
-1.616915911436080933e-01
-5.035903677344322205e-02
7.139502465724945068e-02
-1.542845815420150757e-01
3.914206027984619141e-01
4.495706856250762939e-01
-3.642881214618682861e-01
-7.730048149824142456e-02
-5.943091586232185364e-02
3.247269615530967712e-02
8.881883323192596436e-02
-2.275311946868896484e-01
7.023923993110656738e-01
-2.954431772232055664e-01
-4.937526583671569824e-01
4.596883654594421387e-01
1.981781870126724243e-01
-3.358696222305297852e+00
4.024459362030029297e+00
-1.650483757257461548e-01
4.547528456896543503e-03
-3.955562710762023926e-01
2.409608662128448486e-01
-4.552539587020874023e-01
2.469564080238342285e-01
2.588814795017242432e-01
2.338919043540954590e-01
1.068579316139221191e+00
2.009199745953083038e-02
-4.544727504253387451e-02
1.969937831163406372e-01
1.641461253166198730e-01
1.282213568687438965e+00
-8.346145749092102051e-01
-8.647836446762084961e-01
6.007919311523437500e-01
3.241458535194396973e-01
4.974884912371635437e-03
-8.945478796958923340e-01
2.735353112220764160e-01
5.909990072250366211e-01
5.342056751251220703e-01
-6.453356146812438965e-02
-8.172581344842910767e-02
1.711996942758560181e-01
6.097022891044616699e-01
-4.040403291583061218e-02
-4.114802181720733643e-02
-2.685230076313018799e-01
-7.908015251159667969e-01
-4.184752106666564941e-01
-2.272759079933166504e-01
-1.405303250066936016e-03
7.690505981445312500e-01
7.113492488861083984e-01
3.977709710597991943e-01
-1.260732561349868774e-01
-3.554166555404663086e-01
-6.962897628545761108e-02
-5.023525357246398926e-01
7.178574800491333008e-01
-6.632763743400573730e-01
-7.270103096961975098e-01
1.867943406105041504e-01
-8.665442466735839844e-01
-1.687439531087875366e-01
-3.969995975494384766e-01
4.214324355125427246e-01
3.457169234752655029e-01
2.499523758888244629e-02
-4.857068508863449097e-02
2.221913784742355347e-01
2.855691909790039062e-01
-3.647242784500122070e-01
3.446373939514160156e-01
-1.583680808544158936e-01
-6.864782571792602539e-01
-2.007187604904174805e-01
2.129140943288803101e-01
-3.572349250316619873e-02
1.498095244169235229e-01
-1.330940365791320801e+00
-1.253137588500976562e-01
1.529226005077362061e-01
5.637233257293701172e-01
-1.785888373851776123e-01
-1.192971110343933105e+00
4.801310002803802490e-01
-1.302141249179840088e-01
3.039276003837585449e-01
6.860417723655700684e-01
4.547597765922546387e-01
6.076566576957702637e-01
1.873639672994613647e-01
-6.349926441907882690e-02
-6.213436722755432129e-01
-2.827843837440013885e-02
6.445635557174682617e-01
-3.083662092685699463e-01
-1.320536434650421143e-01
6.309248208999633789e-01
4.177734553813934326e-01
-4.657080471515655518e-01
5.202423930168151855e-01
3.107986748218536377e-01
-6.625952720642089844e-01
-2.156774848699569702e-01
5.209038853645324707e-01
1.893250495195388794e-01
-1.168824583292007446e-01
3.626923263072967529e-01
-1.133442893624305725e-01
1.736063361167907715e-01
2.993682920932769775e-01
-1.510208249092102051e-01
-3.592326492071151733e-02
4.911772012710571289e-01
-2.293326556682586670e-01
8.296384811401367188e-01
-5.270870402455329895e-02
-6.730548739433288574e-01
-8.673312067985534668e-01
1.070636510848999023e-01
-7.999522686004638672e-01
2.215166389942169189e-02
4.073804616928100586e-01
1.265427768230438232e-01
2.102052122354507446e-01
8.857918977737426758e-01
5.157926082611083984e-01
-9.715683758258819580e-02
-3.199707269668579102e-01
7.828399538993835449e-01
1.038218617439270020e+00
-7.190704345703125000e-01
1.268291592597961426e+00
-4.012641608715057373e-01
2.025976926088333130e-01
-9.644038975238800049e-02
-1.627851128578186035e-01
1.981874555349349976e-01
6.973929405212402344e-01
2.820680104196071625e-02
9.971927106380462646e-02
2.763938903808593750e-01
-5.070023536682128906e-01
-1.625074028968811035e+00
-3.253109008073806763e-02
7.295243740081787109e-01
1.025230050086975098e+00
-1.848638653755187988e-01
1.225188970565795898e+00
-1.654982268810272217e-01
4.014785587787628174e-02
-1.805055141448974609e-02
-5.438902974128723145e-02
2.516333758831024170e-01
-2.115436643362045288e-02
-2.769582271575927734e-01
-6.303236633539199829e-02
5.953003764152526855e-01
3.563775122165679932e-01
-1.607532799243927002e-01
3.359609246253967285e-01
4.122677743434906006e-01
-3.330912441015243530e-02
4.426685869693756104e-01
4.504168778657913208e-02
9.806623309850692749e-02
5.624785423278808594e-01
-6.645264476537704468e-02
1.515146940946578979e-01
-1.121344193816184998e-01
-3.226386785507202148e+00
1.792263798415660858e-02
-1.726935356855392456e-01
5.152744054794311523e-02
7.970782518386840820e-01
-6.329991817474365234e-01
5.366787314414978027e-01
-4.137755334377288818e-01
-1.525339722633361816e+00
3.505928218364715576e-01
-1.294255256652832031e-01
-2.362872660160064697e-01
-1.815599948167800903e-01
3.479693830013275146e-01
5.539620518684387207e-01
-2.703675627708435059e-01
5.310502052307128906e-01
-9.420654922723770142e-02
-2.305813431739807129e-01
-4.382670223712921143e-01
-1.702400743961334229e-01
-1.152821257710456848e-02
-7.945442944765090942e-02
1.808305382728576660e-01
-3.681058809161186218e-02
-2.010260581970214844e+00
-1.380836069583892822e-01
2.545580267906188965e-01
4.096776962280273438e+00
3.338279128074645996e-01
5.698838457465171814e-02
4.798683151602745056e-02
2.629636041820049286e-02
-4.084905385971069336e-01
6.783640384674072266e-02
3.621020615100860596e-01
4.669059514999389648e-01
2.778861820697784424e-01
4.070775210857391357e-01
-5.218732953071594238e-01
-3.503970503807067871e-01
-1.268957257270812988e-01
9.560555219650268555e-01
-5.138694047927856445e-01
2.487870901823043823e-01
-7.547823786735534668e-01
-6.880249381065368652e-01
1.941232532262802124e-01
1.180118992924690247e-01
1.295110583305358887e-01
-1.572357267141342163e-01
-3.296591341495513916e-01
-7.411685585975646973e-01
-1.268923431634902954e-01
-1.206197589635848999e-01
1.380788832902908325e-01
-1.251355171203613281e+00
-4.703120887279510498e-01
3.224680423736572266e-01
-6.047286391258239746e-01
2.663335502147674561e-01
-1.569881290197372437e-01
-2.006452977657318115e-01
1.012357234954833984e+00
5.852807760238647461e-01
-5.826523303985595703e-01
-1.403556764125823975e-01
7.659600675106048584e-02
6.405583024024963379e-01
-4.403496980667114258e-01
3.915076255798339844e-01
-6.431562900543212891e-01
-1.341900676488876343e-01
4.806995987892150879e-01
-4.642693698406219482e-01
-3.397352993488311768e-02
-1.099618226289749146e-01
-1.648969948291778564e-01
-6.055424809455871582e-01
5.422068834304809570e-01
1.584760993719100952e-01
7.192748039960861206e-02
-7.766193896532058716e-02
8.755942583084106445e-01
-3.964381933212280273e+00
5.242848873138427734e+00
-7.412170171737670898e-01
9.822825342416763306e-02
8.793381601572036743e-02
-6.741850972175598145e-01
-2.540057003498077393e-01
-2.662761211395263672e-01
-6.523953676223754883e-01
-4.731728732585906982e-01
4.715247750282287598e-01
-4.523373842239379883e-01
1.208789064548909664e-03
7.762479782104492188e-01
-3.760030865669250488e-01
2.929594039916992188e+00
-1.211031302809715271e-01
-2.099008299410343170e-02
-5.060135722160339355e-01
6.356760859489440918e-01
-6.961382031440734863e-01
2.435520477592945099e-02
-6.017983704805374146e-02
1.485976725816726685e-01
2.369457781314849854e-01
-1.118052657693624496e-02
-6.565847992897033691e-01
-8.603093773126602173e-02
-4.114836752414703369e-01
3.501881062984466553e-01
-2.402579635381698608e-01
3.011167943477630615e-01
6.271403431892395020e-01
5.426002144813537598e-01
-4.455476105213165283e-01
3.638122975826263428e-01
-2.669126093387603760e-01
4.838190600275993347e-02
-1.628315895795822144e-01
-8.887492865324020386e-02
-2.456761151552200317e-01
-4.127910435199737549e-01
-7.008734941482543945e-01
-3.793776035308837891e-01
-1.361048221588134766e-01
-9.371089339256286621e-01
-2.365095168352127075e-02
-1.092621803283691406e+00
-4.722590744495391846e-01
-3.475823104381561279e-01
-1.617914736270904541e-01
8.271163105964660645e-01
-3.177376091480255127e-01
6.620071828365325928e-02
-1.283476650714874268e-01
-4.836851954460144043e-01
-5.882592126727104187e-02
-2.126541547477245331e-02
1.135450154542922974e-01
-7.541405558586120605e-01
-3.201564252376556396e-01
-2.522785365581512451e-01
-8.134117126464843750e-01
5.600060224533081055e-01
-6.788136810064315796e-02
-8.480879664421081543e-01
7.389322519302368164e-01
-3.099867701530456543e-01
1.456437855958938599e-01
-3.035748302936553955e-01
-5.549920350313186646e-02
-6.685278415679931641e-01
-4.742271006107330322e-01
-9.794520139694213867e-01
-4.800866842269897461e-01
-2.009730339050292969e-01
2.125056385993957520e-01
-4.872699081897735596e-02
6.543540954589843750e-01
1.543666571378707886e-01
9.370914846658706665e-02
-1.688859462738037109e-01
-5.600304603576660156e-01
4.768963158130645752e-01
4.114968776702880859e-01
-2.913399934768676758e-01
2.743156440556049347e-02
-8.354275822639465332e-01
-2.666280567646026611e-01
1.755777597427368164e-01
-6.592399626970291138e-02
-4.539638459682464600e-01
1.014441177248954773e-01
7.186607122421264648e-01
3.646168112754821777e-01
2.946491837501525879e-01
-5.378477573394775391e-01
1.433635354042053223e-01
3.009339570999145508e-01
-3.494211137294769287e-01
-3.968058824539184570e-01
4.618583023548126221e-01
-2.284379154443740845e-01
3.069319427013397217e-01
-7.501040101051330566e-01
-3.738315701484680176e-01
1.920549273490905762e-01
-8.307746052742004395e-01
4.365675896406173706e-02
-1.098921895027160645e-01
-7.112041115760803223e-01
4.230209290981292725e-01
5.380949974060058594e-01
1.876941621303558350e-01
-2.995699346065521240e-01
-8.664209842681884766e-01
3.475739955902099609e-01
1.325155724771320820e-03
-2.794389426708221436e-01
-2.851252853870391846e-01
-5.828452110290527344e-01
-3.543593287467956543e-01
-9.673845171928405762e-01
3.973107933998107910e-01
-5.419179797172546387e-01
-4.371996521949768066e-01
5.189133882522583008e-01
-6.096050739288330078e-01
-1.612945646047592163e-01
-4.634488523006439209e-01
-4.777003228664398193e-01
-1.461399346590042114e-01
-5.080059170722961426e-01
1.470333188772201538e-01
-6.125534772872924805e-01
-4.455703496932983398e-01
5.257511883974075317e-02
7.854351997375488281e-01
5.797209218144416809e-02
-8.748836815357208252e-03
4.015006870031356812e-02
4.996764659881591797e-01
5.107601284980773926e-01
1.722182147204875946e-02
7.999803870916366577e-02
-6.298123858869075775e-03
3.451142609119415283e-01
1.725986450910568237e-01
5.265291333198547363e-01
-7.269196957349777222e-02
3.515939712524414062e-01
-3.441697657108306885e-01
1.957646012306213379e-01
2.227777242660522461e-01
-1.360287964344024658e-01
-1.692281216382980347e-01
-4.739933311939239502e-01
-2.398415207862854004e-01
-4.157698899507522583e-02
-1.094972640275955200e-01
5.621788501739501953e-01
-5.439653992652893066e-01
8.560925722122192383e-02
-8.070407062768936157e-02
5.415197610855102539e-01
2.485200315713882446e-01
-5.866392254829406738e-01
1.669099740684032440e-02
7.916700094938278198e-02
1.581590175628662109e-01
-1.770135611295700073e-01
2.760665118694305420e-01
-4.822852909564971924e-01
5.121460556983947754e-02
-1.065752580761909485e-01
2.202994823455810547e-01
-2.310091108083724976e-01
-7.204555869102478027e-01
-8.479397743940353394e-02
1.858565360307693481e-01
-1.756731420755386353e-01
-1.056395769119262695e-01
7.749944329261779785e-01
4.295706152915954590e-01
-4.057949036359786987e-02
-5.822427868843078613e-01
5.655870959162712097e-02
-1.379346996545791626e-01
-4.858450293540954590e-01
3.982424437999725342e-01
4.052055180072784424e-01
2.207962572574615479e-01
-3.127173781394958496e-01
-4.125045835971832275e-01
6.083601713180541992e-01
-5.604554414749145508e-01
-3.749249875545501709e-01
-2.947379946708679199e-01
5.606405064463615417e-02
1.629833579063415527e-01
7.804477214813232422e-01
6.011515259742736816e-01
-6.938294172286987305e-01
-2.441744804382324219e-01
-9.127387404441833496e-02
3.832715153694152832e-01
4.236818552017211914e-01
4.098303318023681641e-01
-6.331618428230285645e-01
2.100946009159088135e-01
-4.893065094947814941e-01
-1.226968094706535339e-01
-3.408772349357604980e-01
-5.575346946716308594e-01
7.872236967086791992e-01
-3.293794095516204834e-01
-6.328532844781875610e-02
6.226183772087097168e-01
3.650393784046173096e-01
-1.356925368309020996e-01
3.011335730552673340e-01
4.178144335746765137e-01
-5.778598189353942871e-01
-3.021994829177856445e-01
5.151698589324951172e-01
1.723810732364654541e-01
-1.988946646451950073e-01
7.469746470451354980e-01
4.720729291439056396e-01
5.594965815544128418e-01
6.416761130094528198e-02
-4.691685438156127930e-01
2.115367166697978973e-02
3.315706253051757812e-01
-3.339698314666748047e-01
-5.188034772872924805e-01
-7.955315709114074707e-02
4.867035448551177979e-01
-2.092427313327789307e-01
-3.352058827877044678e-01
3.603455722332000732e-01
-2.368101030588150024e-01
6.915749609470367432e-02
-1.199448257684707642e-01
-3.337391912937164307e-01
1.120301723480224609e+00
-1.250449270009994507e-01
6.043588370084762573e-02
3.292849361896514893e-01
-6.403633393347263336e-03
6.881625056266784668e-01
-6.698075681924819946e-02
-2.044910639524459839e-01
-5.636513829231262207e-01
3.092379868030548096e-01
4.117359817028045654e-01
-1.660085320472717285e-01
2.803789973258972168e-01
-1.974936127662658691e-01
-3.629468753933906555e-02
-1.964796036481857300e-01
7.971560955047607422e-02
7.027942687273025513e-02
-1.840552687644958496e-01
5.443158000707626343e-02
-7.258726656436920166e-02
-2.140088379383087158e-02
-1.602901220321655273e-01
-2.720994316041469574e-02
-2.874794974923133850e-02
-1.817533373832702637e-02
-7.197856158018112183e-02
-2.307537794113159180e-01
-4.715724885463714600e-01
-4.399696737527847290e-02
1.067688241600990295e-01
-9.108786284923553467e-02
-2.978259325027465820e-01
1.907438635826110840e-01
2.199059277772903442e-01
-4.298084229230880737e-02
-3.136108517646789551e-01
1.907210201025009155e-01
-6.839959323406219482e-02
-9.874648600816726685e-02
-3.834627196192741394e-02
1.105012651532888412e-02
2.080693095922470093e-02
-1.765182018280029297e-01
-1.867508739233016968e-01
-4.116340279579162598e-01
9.716749191284179688e-02
4.079038649797439575e-02
1.992807537317276001e-01
-1.720178872346878052e-01
-1.819916814565658569e-01
-1.292472183704376221e-01
6.989628076553344727e-02
-3.049946576356887817e-02
-1.951323300600051880e-01
2.113683521747589111e-01
2.750330865383148193e-01
-8.315658569335937500e-02
4.407705739140510559e-02
-2.203958332538604736e-01
-1.417049765586853027e-01
-1.579907834529876709e-01
-2.311467379331588745e-01
-1.602471917867660522e-01
-2.385722398757934570e-01
5.435786247253417969e-01
-2.730545997619628906e-01
-2.842396683990955353e-02
-1.391299627721309662e-02
-8.726058900356292725e-02
-1.667221486568450928e-01
-3.379766047000885010e-01
-2.257531881332397461e-01
-3.385893628001213074e-02
-2.588850259780883789e-01
1.087253838777542114e-01
-3.499005436897277832e-01
-1.121822223067283630e-01
-3.699549240991473198e-03
7.030801475048065186e-02
3.140903264284133911e-02
-7.036500424146652222e-02
-9.919487684965133667e-02
1.195870861411094666e-01
-3.211330473423004150e-01
6.514275074005126953e-02
-3.792552053928375244e-01
6.920442730188369751e-02
-1.932780295610427856e-01
5.101150646805763245e-02
-9.818015992641448975e-02
9.181153774261474609e-02
4.472747817635536194e-02
-5.157922580838203430e-02
8.347198367118835449e-02
-3.816218972206115723e-01
-4.499718546867370605e-01
-3.420134261250495911e-02
-2.187274582684040070e-02
2.120846807956695557e-01
1.981300860643386841e-02
2.258965522050857544e-01
5.477885156869888306e-02
1.607395410537719727e-01
2.416113764047622681e-01
-2.585347294807434082e-01
8.020155131816864014e-02
-1.298657655715942383e-01
1.559348311275243759e-02
-1.782924830913543701e-01
-1.979218125343322754e-01
3.380557894706726074e-01
1.413677930831909180e-01
2.541917264461517334e-01
3.717355802655220032e-02
-1.787140816450119019e-01
-1.005986705422401428e-01
2.737269401550292969e-01
4.085848107933998108e-02
-1.700717806816101074e-01
-5.185608938336372375e-02
-3.290731087327003479e-02
-3.238250911235809326e-01
5.535532161593437195e-02
1.407929658889770508e-01
4.420762509107589722e-02
-2.043090015649795532e-01
2.552216649055480957e-01
2.844991721212863922e-02
-8.211115747690200806e-02
-2.062028273940086365e-02
-5.855021625757217407e-02
-8.239375799894332886e-02
2.357620596885681152e-01
3.718712031841278076e-01
-7.149417698383331299e-02
2.486313432455062866e-01
6.897097826004028320e-02
-3.210500478744506836e-01
9.977983683347702026e-02
-2.204632312059402466e-01
-1.657506823539733887e-01
-1.422521322965621948e-01
1.733508706092834473e-01
1.333021670579910278e-01
-1.318424046039581299e-01
2.655245065689086914e-01
-1.200185716152191162e-01
4.535553231835365295e-02
2.354881493374705315e-03
-1.484269350767135620e-01
-1.193057000637054443e-01
-7.246056199073791504e-02
-2.053814381361007690e-01
-1.779879927635192871e-01
2.797386944293975830e-01
4.227812960743904114e-02
-1.276020407676696777e-01
1.101861447095870972e-01
1.023309454321861267e-01
-1.302973330020904541e-01
3.829709440469741821e-02
3.104638122022151947e-02
1.354398876428604126e-01
1.906716376543045044e-01
-9.595698863267898560e-02
1.427620500326156616e-01
-5.932931602001190186e-02
1.217071041464805603e-01
6.813391111791133881e-03
1.833416372537612915e-01
7.730293273925781250e-02
1.318190395832061768e-01
-4.135372042655944824e-01
-1.079266369342803955e-01
1.369538307189941406e-01
7.080667465925216675e-02
1.344625651836395264e-01
1.990148127079010010e-01
4.760709777474403381e-02
2.813059687614440918e-01
9.084079414606094360e-03
-5.465787053108215332e-01
-1.121998578310012817e-01
-3.826963901519775391e-02
-2.559524774551391602e-01
1.405155658721923828e-01
5.145388469099998474e-02
3.209554255008697510e-01
2.537133917212486267e-02
-1.667566597461700439e-02
-2.310487926006317139e-01
-3.660362064838409424e-01
1.626553088426589966e-01
-1.287105083465576172e-01
-1.926726996898651123e-01
-1.756570935249328613e-01
5.062631145119667053e-02
-2.605352364480495453e-02
1.552760601043701172e-01
7.775648683309555054e-02
-1.311655044555664062e-01
1.616973280906677246e-01
-2.435420751571655273e-01
-2.476779930293560028e-02
1.074563860893249512e-01
-2.672069966793060303e-01
3.056042641401290894e-02
5.883190035820007324e-02
-1.337415128946304321e-01
7.461044192314147949e-02
6.929148733615875244e-02
8.066186308860778809e-02
-1.439462304115295410e-01
1.737272292375564575e-01
3.624884039163589478e-02
-1.369969546794891357e-01
2.063248604536056519e-01
6.844854354858398438e-02
-1.606035977602005005e-01
-8.590783923864364624e-02
-6.694994866847991943e-02
-3.143401443958282471e-01
4.672964289784431458e-02
-8.354186266660690308e-02
1.641683280467987061e-01
2.108577638864517212e-02
-1.821098178625106812e-01
-1.425304859876632690e-01
-6.616933643817901611e-02
-3.296791762113571167e-02
-2.717664837837219238e-01
5.159341692924499512e-01
1.102507412433624268e-01
6.616684049367904663e-02
-1.994327455759048462e-02
1.996107771992683411e-02
-2.988213002681732178e-01
-1.636333530768752098e-03
1.107625104486942291e-02
4.321524500846862793e-02
3.754118457436561584e-02
-2.863930165767669678e-01
-1.794893145561218262e-01
-1.461379230022430420e-02
4.478188455104827881e-01
-5.900678411126136780e-02
-1.458638906478881836e-01
-3.704589232802391052e-02
1.776818484067916870e-01
1.132775470614433289e-01
2.247339785099029541e-01
2.435684390366077423e-02
9.222619235515594482e-02
-5.177218466997146606e-02
-6.911953538656234741e-02
1.538219749927520752e-01
-1.033936738967895508e-01
1.314045041799545288e-01
-3.375348402187228203e-03
-4.831803962588310242e-02
-1.106092855334281921e-01
1.038707271218299866e-01
6.711047142744064331e-02
7.282699644565582275e-02
1.941474080085754395e-01
7.505093514919281006e-02
1.605239361524581909e-01
8.285767398774623871e-04
-1.136797592043876648e-01
-1.613069027662277222e-01
1.077292673289775848e-02
1.574389189481735229e-01
-5.675512924790382385e-02
-2.019830234348773956e-02
-9.790207445621490479e-02
-6.031425297260284424e-02
1.153492033481597900e-01
7.532171905040740967e-02
-1.778887808322906494e-01
4.753427952527999878e-02
-1.406004000455141068e-02
-5.269704014062881470e-02
-7.951786369085311890e-02
2.458261884748935699e-02
-1.676869392395019531e-02
-1.016303971409797668e-01
1.970907747745513916e-01
2.008361518383026123e-01
-2.107563763856887817e-01
-5.364639684557914734e-02
-1.694897003471851349e-02
-3.753899037837982178e-02
-5.822174623608589172e-02
-1.719696633517742157e-02
2.815116345882415771e-01
5.267060920596122742e-02
4.563507065176963806e-02
-5.623652786016464233e-02
2.369481697678565979e-02
-9.614735096693038940e-02
-1.304119676351547241e-01
4.668291658163070679e-02
6.452102679759263992e-03
-3.347033634781837463e-02
1.728131808340549469e-02
-1.500778347253799438e-01
-2.829486504197120667e-02
3.109456598758697510e-01
-1.603059284389019012e-02
-8.962987922132015228e-03
1.139528825879096985e-01
-1.475267410278320312e-01
3.612547367811203003e-02
-1.789739727973937988e-02
1.545100808143615723e-01
1.428799629211425781e-01
1.707456856966018677e-01
-1.054919045418500900e-02
1.275461912155151367e-01
-1.468777805566787720e-01
-3.007537126541137695e-02
1.228080093860626221e-01
-1.120085641741752625e-01
1.467154920101165771e-01
-2.118085697293281555e-02
-7.348502427339553833e-02
2.535392642021179199e-01
-1.210440248250961304e-01
-5.280429869890213013e-02
1.435815095901489258e-01
9.472443722188472748e-03
-1.335337013006210327e-01
-1.301478594541549683e-01
2.655638009309768677e-02
1.619699597358703613e-01
-2.912778556346893311e-01
3.660228103399276733e-02
-1.128075271844863892e-01
-7.194981724023818970e-02
-4.710207227617502213e-03
1.956618018448352814e-02
-2.303670793771743774e-01
6.139437854290008545e-02
8.045019954442977905e-02
1.107943877577781677e-01
3.537899255752563477e-02
2.730955183506011963e-01
-5.119144916534423828e-02
-1.050698533654212952e-01
6.279667466878890991e-02
1.187555640935897827e-01
-1.226653344929218292e-02
3.399957418441772461e-01
-1.877578906714916229e-02
-6.435628980398178101e-02
1.106811314821243286e-01
7.792237401008605957e-02
7.064499706029891968e-02
1.305945515632629395e-01
-4.580675810575485229e-02
7.787013310007750988e-04
-4.540862143039703369e-02
2.459137141704559326e-01
1.569355279207229614e-01
2.244164794683456421e-01
1.569942981004714966e-01
-8.281721733510494232e-03
3.104135952889919281e-02
1.500483304262161255e-01
1.675315797328948975e-01
-5.255186930298805237e-03
2.362397313117980957e-02
1.972321420907974243e-01
5.664550140500068665e-02
-1.693153530359268188e-01
-2.164365649223327637e-01
-3.075359761714935303e-02
-3.553129434585571289e-01
-2.159152179956436157e-01
-4.811137914657592773e-02
-1.122753024101257324e-01
-6.237279623746871948e-02
-6.041163951158523560e-02
1.585487648844718933e-02
-3.786497563123703003e-02
-4.538768902420997620e-03
-5.134696140885353088e-02
-1.241422370076179504e-01
-5.667020007967948914e-02
-4.076093062758445740e-02
8.534102886915206909e-02
6.346845626831054688e-02
9.275960177183151245e-02
7.724960148334503174e-02
1.325379963964223862e-02
-2.204088419675827026e-01
1.815299987792968750e-01
-6.578261405229568481e-02
-6.639355421066284180e-02
-6.525149196386337280e-02
6.493607908487319946e-02
-7.584626227617263794e-02
-1.882924735546112061e-01
-8.669251948595046997e-02
-1.854124367237091064e-01
-5.858052172698080540e-04
-9.939483553171157837e-02
1.192077919840812683e-01
-5.344857927411794662e-03
-2.117537111043930054e-01
-1.274020969867706299e-01
-4.413707181811332703e-02
1.770067662000656128e-01
-7.605767995119094849e-02
2.139527909457683563e-02
-5.177348107099533081e-02
1.474414858967065811e-02
-7.160203158855438232e-02
-1.742109507322311401e-01
-1.289685815572738647e-01
-7.233594357967376709e-02
-1.843985617160797119e-01
-1.856841892004013062e-01
-1.249225661158561707e-01
-3.701789975166320801e-01
8.127795159816741943e-02
6.740542501211166382e-02
-1.515356451272964478e-01
-8.216103166341781616e-02
2.238611876964569092e-01
-9.471020847558975220e-02
-3.514805138111114502e-01
-8.112356066703796387e-02
1.409272998571395874e-01
7.276701182126998901e-02
-1.500495076179504395e-01
8.947929739952087402e-02
1.792223006486892700e-01
4.377442598342895508e-02
1.629212647676467896e-01
1.151503622531890869e-02
-8.095725625753402710e-02
-7.504282891750335693e-02
-8.807622641324996948e-02
-5.655825510621070862e-02
2.286501042544841766e-02
-1.389892697334289551e-01
1.278955042362213135e-01
-6.340748816728591919e-02
7.052610069513320923e-02
-1.273752003908157349e-01
1.496388167142868042e-01
-1.260476112365722656e-01
-5.401258543133735657e-02
-1.217637863010168076e-02
-9.975305199623107910e-02
7.744459435343742371e-03
2.534316480159759521e-01
-2.087371945381164551e-01
5.241608619689941406e-02
3.336323797702789307e-01
1.092329025268554688e-01
6.810573488473892212e-02
-5.815049260854721069e-02
-3.027159534394741058e-02
-2.727610990405082703e-02
-2.036093175411224365e-01
-1.411366760730743408e-01
-9.508894383907318115e-02
-2.060146480798721313e-01
-1.228056177496910095e-01
1.429248601198196411e-01
-4.025810956954956055e-01
7.667730748653411865e-02
7.747842371463775635e-02
-2.936089970171451569e-02
1.027138009667396545e-01
-2.006773203611373901e-01
-2.226735837757587433e-02
-3.669845461845397949e-01
-1.860621734522283077e-03
-1.282979547977447510e-01
7.667293772101402283e-03
5.798542872071266174e-02
1.316239535808563232e-01
8.764196187257766724e-02
1.407658308744430542e-01
8.125415444374084473e-02
-1.914688646793365479e-01
7.105249166488647461e-02
-5.402467027306556702e-02
-1.630692044273018837e-03
2.068248204886913300e-02
4.159524664282798767e-02
4.002749174833297729e-02
1.882346570491790771e-01
1.294701099395751953e-01
1.239104866981506348e-01
4.516527696978300810e-04
1.424055397510528564e-01
8.668881654739379883e-02
-1.599842123687267303e-02
1.363531947135925293e-01
1.751509755849838257e-01
-1.051449775695800781e-02
8.749297261238098145e-02
4.151063412427902222e-02
-1.856156811118125916e-02
1.717225909233093262e-01
3.866153955459594727e-02
-1.429216265678405762e-01
7.858262956142425537e-02
1.020297780632972717e-01
3.652452304959297180e-02
5.242395773530006409e-02
9.473933279514312744e-02
1.103786230087280273e-01
1.038530021905899048e-01
4.843641817569732666e-02
-7.251627743244171143e-02
1.125943213701248169e-01
-1.206404119729995728e-01
2.700130082666873932e-02
4.928629100322723389e-02
-5.108538642525672913e-02
5.312644690275192261e-02
4.997347667813301086e-02
-1.168221905827522278e-01
-2.073012851178646088e-02
5.392551049590110779e-02
-4.266466945409774780e-02
-1.003404036164283752e-01
3.344213068485260010e-01
1.757341325283050537e-01
2.060686647891998291e-01
6.420661509037017822e-02
-8.618941158056259155e-02
-6.769602000713348389e-02
1.000349316745996475e-02
-1.477481126785278320e-01
6.093840301036834717e-02
3.463752269744873047e-01
7.687861472368240356e-02
-2.146429568529129028e-01
1.789190471172332764e-01
-1.292901039123535156e-01
4.499319940805435181e-02
-1.060385257005691528e-01
3.541504731401801109e-03
-1.028138920664787292e-01
-1.350243538618087769e-01
3.754508495330810547e-01
-6.283284723758697510e-02
-7.784016430377960205e-02
1.502703577280044556e-01
2.963991165161132812e-01
4.921696335077285767e-02
-3.801901265978813171e-02
-7.779776584357023239e-03
8.935573510825634003e-03
1.539981812238693237e-01
1.524410443380475044e-03
1.239488795399665833e-01
2.404840439558029175e-01
4.131714999675750732e-02
9.192826598882675171e-02
1.232810243964195251e-01
1.009041890501976013e-01
2.221816182136535645e-01
1.015282422304153442e-02
-2.219050750136375427e-02
-2.081278115510940552e-01
1.010524854063987732e-01
4.704808443784713745e-02
1.438944041728973389e-01
-1.014867704361677170e-02
2.165337949991226196e-01
-4.270881786942481995e-02
1.994716823101043701e-01
-3.551116958260536194e-02
1.731089800596237183e-01
1.033202484250068665e-01
9.984058886766433716e-02
1.175926998257637024e-01
-1.777648627758026123e-01
8.863819390535354614e-02
-1.037610769271850586e-01
9.280651807785034180e-02
9.165180847048759460e-03
6.267333775758743286e-02
9.437245130538940430e-02
5.343817174434661865e-03
3.460624814033508301e-01
1.199718564748764038e-01
-1.021033152937889099e-01
-9.842824190855026245e-02
-1.839490956626832485e-03
-3.072850406169891357e-01
1.898494213819503784e-01
-5.737925320863723755e-02
4.848971962928771973e-02
-1.668660491704940796e-01
2.737922407686710358e-02
-6.303174793720245361e-02
-2.498939447104930878e-02
-6.215750798583030701e-02
3.639846295118331909e-02
-1.170084476470947266e-01
3.393740393221378326e-03
-9.936435520648956299e-02
1.143021881580352783e-01
4.391629621386528015e-02
1.087350249290466309e-01
2.416329681873321533e-01
1.143921911716461182e-01
-8.725199848413467407e-02
2.040873616933822632e-01
7.555766962468624115e-03
2.898121476173400879e-01
-2.788359224796295166e-01
6.316785514354705811e-02
1.753229647874832153e-03
-1.414380073547363281e-01
-2.632069028913974762e-02
5.132584273815155029e-02
5.812566876411437988e-01
-1.014746055006980896e-01
-2.144244499504566193e-02
3.147242590785026550e-02
1.425367593765258789e-01
1.047100201249122620e-01
-1.237272471189498901e-01
7.671025115996599197e-03
1.197408363223075867e-01
1.765649020671844482e-02
3.361507877707481384e-02
-4.013744741678237915e-02
8.952765166759490967e-02
9.501224383711814880e-03
2.615749239921569824e-01
-7.923949509859085083e-02
-2.101103365421295166e-01
-1.148204058408737183e-01
1.200186386704444885e-01
1.745422929525375366e-01
4.886525124311447144e-02
7.915626466274261475e-02
3.775416910648345947e-01
3.364597633481025696e-02
-1.290419548749923706e-01
2.315573543310165405e-01
3.302904963493347168e-02
-4.562487006187438965e-01
-1.325251460075378418e-01
2.644087970256805420e-01
-2.163173258304595947e-02
-4.782430455088615417e-02
-1.354729756712913513e-04
-1.687827520072460175e-03
1.657122820615768433e-01
1.725022122263908386e-02
-3.538118302822113037e-01
-1.408300399780273438e-01
2.124094963073730469e-01
5.000170320272445679e-02
-1.259378641843795776e-01
5.170966684818267822e-02
1.612656116485595703e-01
1.157971918582916260e-01
6.497422233223915100e-03
2.072085440158843994e-01
-2.554165720939636230e-01
6.685554981231689453e-02
-6.446103751659393311e-02
4.970694333314895630e-02
-1.631110459566116333e-01
3.820579499006271362e-02
-2.400976717472076416e-01
-1.098803617060184479e-02
-1.282476186752319336e-01
-2.345058321952819824e-02
1.386114656925201416e-01
2.486659288406372070e-01
-1.778928190469741821e-01
1.051002740859985352e-01
4.234458878636360168e-02
7.455509901046752930e-02
-1.618362367153167725e-01
2.379052788019180298e-01
-5.213774368166923523e-02
-3.207775577902793884e-02
-5.574400722980499268e-02
-1.486012339591979980e-01
1.188088208436965942e-03
1.120388731360435486e-01
2.288851886987686157e-02
-2.658692896366119385e-01
-9.238737821578979492e-02
5.251392722129821777e-01
-9.359824471175670624e-03
-2.917665839195251465e-01
-6.650674343109130859e-02
1.424717307090759277e-01
1.900757402181625366e-01
-3.111572861671447754e-01
-5.008539557456970215e-02
2.103500813245773315e-01
-3.703283891081809998e-02
3.190635889768600464e-02
4.491162672638893127e-02
-2.436437159776687622e-01
-3.115698695182800293e-01
6.975747942924499512e-01
2.411367446184158325e-01
5.184126272797584534e-02
-1.175467371940612793e-01
-2.530431747436523438e-01
1.507030129432678223e-01
7.723260670900344849e-02
2.810165286064147949e-02
8.854373544454574585e-02
2.148473411798477173e-01
-6.478561554104089737e-03
5.380379036068916321e-02
8.911799639463424683e-03
2.317649722099304199e-01
1.835007518529891968e-01
1.176743656396865845e-01
3.513953089714050293e-01
1.625272482633590698e-01
1.106293685734272003e-02
1.182584557682275772e-03
-7.225407660007476807e-02
1.654560267925262451e-01
-2.064052969217300415e-01
-2.544274739921092987e-02
2.059337049722671509e-01
-1.501669138669967651e-01
-1.534713208675384521e-01
1.745199412107467651e-01
-3.566572368144989014e-01
-2.373790554702281952e-02
-1.517590135335922241e-03
5.494168028235435486e-02
7.925903797149658203e-02
-2.650994956493377686e-01
7.807548344135284424e-02
5.464444402605295181e-04
-4.792952910065650940e-02
-1.457552313804626465e-01
2.635232731699943542e-02
-1.295948922634124756e-01
3.438052907586097717e-02
-1.892828568816184998e-02
-2.444954961538314819e-01
-1.577231884002685547e-01
1.074690520763397217e-01
7.885167002677917480e-02
-3.415397554636001587e-02
4.964075610041618347e-02
-4.632781073451042175e-02
-9.701765328645706177e-02
1.333209276199340820e-01
8.014038950204849243e-02
-1.377134174108505249e-01
1.949435472488403320e-02
-4.444889724254608154e-02
6.448053568601608276e-02
-3.251066431403160095e-02
-6.664878875017166138e-02
1.368855684995651245e-01
-1.703609973192214966e-01
-4.372800141572952271e-02
-3.000448085367679596e-02
3.987487405538558960e-02
3.643167391419410706e-02
1.571199111640453339e-02
-2.692256569862365723e-01
-5.360369756817817688e-02
-2.035877406597137451e-01
-4.422463476657867432e-03
-1.193916052579879761e-02
-1.179167255759239197e-01
-1.056055724620819092e-01
-8.090078085660934448e-02
2.620519697666168213e-01
-1.460481621325016022e-02
-2.528847455978393555e-01
-7.896551489830017090e-02
-4.736313223838806152e-02
8.870721608400344849e-02
2.134536579251289368e-02
1.568496674299240112e-01
-7.736369222402572632e-02
-3.076463043689727783e-01
-1.336729675531387329e-01
1.492080045863986015e-03
2.565417885780334473e-01
2.565618604421615601e-02
1.660259366035461426e-01
1.933380216360092163e-01
-9.260062873363494873e-02
-2.361016534268856049e-02
-1.372950524091720581e-01
1.265454143285751343e-01
-1.496966183185577393e-01
-2.153887748718261719e-01
-3.215940203517675400e-03
-6.428141146898269653e-02
-6.750944256782531738e-02
-9.529697149991989136e-02
-6.134659796953201294e-02
-6.201171781867742538e-03
-2.733654975891113281e-01
-1.717162318527698517e-02
-8.061264641582965851e-03
-1.600711792707443237e-01
2.208930999040603638e-02
-9.335086494684219360e-02
-1.693575531244277954e-01
-3.363554924726486206e-02
-1.239828690886497498e-01
6.540853064507246017e-03
1.626495644450187683e-02
-9.193140082061290741e-03
-1.906259804964065552e-01
-2.168419212102890015e-02
-4.734894931316375732e-01
9.942372143268585205e-02
-1.359905749559402466e-01
1.053789854049682617e-01
3.326923549175262451e-01
8.728242665529251099e-02
1.230959668755531311e-01
3.870821371674537659e-02
-4.762737452983856201e-02
1.157787069678306580e-01
1.509068459272384644e-01
8.938941359519958496e-02
-1.529924720525741577e-01
-3.804882615804672241e-02
-1.698299311101436615e-02
2.902183234691619873e-01
-1.251855641603469849e-01
-2.001147717237472534e-02
7.749778032302856445e-02
-5.268965288996696472e-02
-6.533876992762088776e-03
-1.863778680562973022e-01
2.524336241185665131e-02
-1.727644205093383789e-01
-2.121911197900772095e-01
2.548491582274436951e-02
-8.078478276729583740e-02
-1.592868268489837646e-01
1.033980026841163635e-02
-2.775988578796386719e-01
1.260488480329513550e-01
1.108677908778190613e-01
1.479666978120803833e-01
-3.952641040086746216e-02
-1.474565118551254272e-01
1.443039998412132263e-02
-6.324487924575805664e-02
-1.017906516790390015e-01
2.448553144931793213e-01
2.329695597290992737e-02
-3.942345455288887024e-02
1.153064593672752380e-01
-3.893767669796943665e-02
-1.319843232631683350e-01
4.693871438503265381e-01
-9.876372665166854858e-02
-3.446033596992492676e-01
-1.246326416730880737e-01
-6.859523802995681763e-02
-6.855778396129608154e-02
8.629570901393890381e-02
-2.096168100833892822e-01
1.146189793944358826e-01
6.830368191003799438e-02
1.097715720534324646e-01
-7.482007890939712524e-02
-2.888539806008338928e-02
-5.835444852709770203e-02
1.591750979423522949e-02
6.382181495428085327e-02
1.142349019646644592e-01
-7.808782905340194702e-02
-1.946609467267990112e-01
-1.306988671422004700e-02
-1.929019838571548462e-01
-6.739459186792373657e-02
4.659255221486091614e-02
-3.891713544726371765e-02
-4.000014811754226685e-02
3.444113582372665405e-02
5.484630540013313293e-02
-3.636665642261505127e-01
-2.967232838273048401e-02
5.667033139616250992e-03
2.801039218902587891e-01
3.983752727508544922e-01
-4.946941509842872620e-02
-9.121986478567123413e-02
-3.078598678112030029e-01
-2.884243056178092957e-02
-8.655484020709991455e-02
-1.416856199502944946e-01
5.095826461911201477e-02
-2.034680843353271484e-01
-1.506837159395217896e-01
-1.533297300338745117e-01
-1.261917948722839355e-01
-1.782754510641098022e-01
-2.105524092912673950e-01
6.769666075706481934e-02
-6.773400306701660156e-02
-1.080302000045776367e-01
1.294965744018554688e-01
-1.285334825515747070e-01
8.642354607582092285e-02
7.044560462236404419e-02
2.647752761840820312e-01
2.110341377556324005e-02
-2.066130042076110840e-01
2.779594436287879944e-02
-1.540286093950271606e-01
1.299412697553634644e-01
6.877235323190689087e-02
7.665088027715682983e-02
1.135863363742828369e-02
-1.526146009564399719e-02
5.604215338826179504e-02
1.641471385955810547e-01
-1.276807673275470734e-02
-4.844638332724571228e-02
1.347483843564987183e-01
2.144372090697288513e-02
-2.181620895862579346e-02
-3.894501924514770508e-01
-6.406870484352111816e-02
-8.679340779781341553e-02
-9.436836838722229004e-02
5.149565264582633972e-02
5.811557546257972717e-02
-1.195205748081207275e-01
8.523100055754184723e-03
1.871183514595031738e-01
3.210326731204986572e-01
-9.306140244007110596e-02
1.323446929454803467e-01
-3.312087953090667725e-01
6.034085992723703384e-03
-3.551802039146423340e-02
8.057887665927410126e-03
-2.817507088184356689e-01
-1.923582553863525391e-01
8.888325653970241547e-03
3.535169064998626709e-01
-2.778382599353790283e-01
-9.230418130755424500e-03
-1.713858544826507568e-01
-1.888635605573654175e-01
3.847511857748031616e-02
-7.531385868787765503e-02
-1.017600521445274353e-01
-1.120848953723907471e-01
1.221049763262271881e-02
-1.075476258993148804e-01
1.025209389626979828e-02
-4.616676305886358023e-04
-1.161490753293037415e-01
-7.067972421646118164e-02
-1.073716282844543457e-01
-8.929978311061859131e-02
1.238348241895437241e-02
-1.719256788492202759e-01
-2.321956604719161987e-01
-1.218060851097106934e-01
1.769411712884902954e-01
1.183784753084182739e-01
4.891564846038818359e-01
6.860618293285369873e-02
-7.659852504730224609e-02
8.220931887626647949e-02
-1.266203820705413818e-01
2.274851053953170776e-01
1.515189409255981445e-01
1.612999290227890015e-01
5.817195866256952286e-03
-2.640795521438121796e-02
9.360575675964355469e-02
-1.434562444686889648e+00
7.086734473705291748e-02
-7.893512956798076630e-03
-1.773326075635850430e-03
-8.678615838289260864e-02
-6.473332643508911133e-02
5.058788228780031204e-03
1.913716048002243042e-01
2.030637860298156738e-01
-1.206419542431831360e-01
-1.681357622146606445e-01
-2.363340109586715698e-01
1.759607903659343719e-02
-1.777853667736053467e-01
-3.796399831771850586e-01
-2.414753884077072144e-01
-3.474112227559089661e-02
1.435964852571487427e-01
-2.721243351697921753e-02
1.091372609138488770e+00
5.794199183583259583e-02
1.204878687858581543e-01
-3.167403340339660645e-01
2.853589057922363281e-01
1.266162842512130737e-01
-9.001639485359191895e-02
6.605899333953857422e-02
9.242159128189086914e-02
1.050636246800422668e-01
1.732781529426574707e-01
2.504204772412776947e-02
3.420726954936981201e-01
1.947314292192459106e-01
1.487262248992919922e-01
1.193690747022628784e-01
-1.387352049350738525e-01
-2.907442152500152588e-01
2.478887289762496948e-01
2.792495489120483398e-01
-1.592482626438140869e-02
1.932092383503913879e-02
-3.025581240653991699e-01
3.741106018424034119e-02
-1.745744049549102783e-01
1.156158745288848877e-01
1.249290555715560913e-01
1.096480935811996460e-01
2.673833966255187988e-01
2.893323004245758057e-01
1.651852726936340332e-01
7.132394611835479736e-02
-1.417244225740432739e-01
-1.036277189850807190e-01
6.987262517213821411e-03
1.894687414169311523e-01
3.253478184342384338e-02
3.637142181396484375e-01
9.791132062673568726e-02
2.802660167217254639e-01
-1.646172851324081421e-01
-9.905389696359634399e-02
-3.244784474372863770e-02
5.833085998892784119e-02
-3.292252421379089355e-01
-8.457540720701217651e-02
2.219858579337596893e-02
2.094848006963729858e-01
3.750317171216011047e-02
4.401767253875732422e-02
-9.501425549387931824e-03
2.309213876724243164e-01
-4.959410801529884338e-02
-3.161925822496414185e-02
-1.720434427261352539e-01
2.443507872521877289e-02
3.114997446537017822e-01
-1.230447962880134583e-01
-1.408117860555648804e-01
-1.333596259355545044e-01
-4.404394626617431641e-01
-3.063104450702667236e-01
-1.346994936466217041e-01
-7.780457846820354462e-03
1.018014028668403625e-01
2.700419425964355469e-01
-1.610369384288787842e-01
-2.848914125934243202e-03
-2.640147134661674500e-02
2.417074143886566162e-01
1.254885494709014893e-01
1.887818574905395508e-01
-2.921427488327026367e-01
3.018769435584545135e-02
-1.644265255890786648e-03
5.320480093359947205e-02
5.511172115802764893e-02
8.280402421951293945e-02
2.060691118240356445e-01
-2.037316709756851196e-01
-1.170272752642631531e-01
-2.749957144260406494e-01
5.826014280319213867e-02
-8.062363602221012115e-03
-3.104375898838043213e-01
8.009232580661773682e-02
3.965482115745544434e-01
-1.469842642545700073e-01
1.712855249643325806e-01
1.798863410949707031e-01
1.089754998683929443e-01
-1.596701517701148987e-02
1.550373584032058716e-01
-1.167481020092964172e-01
4.710223376750946045e-01
2.562955915927886963e-01
3.213330358266830444e-02
1.388017535209655762e-01
1.022504419088363647e-01
-4.754516482353210449e-02
-1.663728505373001099e-01
-2.047491073608398438e-01
-1.724401414394378662e-01
1.425276398658752441e-01
1.094603240489959717e-01
-1.864582449197769165e-01
-1.218450069427490234e-01
7.784079015254974365e-02
-4.871081188321113586e-02
7.214394211769104004e-02
-3.818137943744659424e-01
1.510676648467779160e-02
1.666803471744060516e-02
-2.659486532211303711e-01
2.318338006734848022e-01
6.710764020681381226e-03
2.464708872139453888e-02
8.018431067466735840e-02
-5.258060060441493988e-03
-9.247053414583206177e-02
1.960536688566207886e-01
1.230130791664123535e-01
-1.040942817926406860e-01
-2.306779474020004272e-01
3.292313516139984131e-01
2.430500090122222900e-02
1.865451335906982422e-01
8.186578005552291870e-02
1.311493963003158569e-01
-1.660759560763835907e-02
-9.628818370401859283e-03
2.024300545454025269e-01
-1.303261071443557739e-01
-1.513528451323509216e-02
2.652224339544773102e-02
2.230412662029266357e-01
4.945392906665802002e-02
3.806602209806442261e-02
6.865226477384567261e-02
-9.216178208589553833e-02
5.329175619408488274e-04
-2.463648840785026550e-02
3.573577404022216797e-01
2.390977144241333008e-01
-2.498319745063781738e-02
7.088982313871383667e-02
-1.680766604840755463e-02
-1.697671115398406982e-01
2.946036309003829956e-02
3.644030541181564331e-02
-2.688558027148246765e-02
3.613987863063812256e-01
-1.998068243265151978e-01
4.654685035347938538e-02
8.297329396009445190e-02
6.905581802129745483e-02
-4.412933886051177979e-01
1.014246717095375061e-01
1.098265945911407471e-01
8.597677201032638550e-02
-3.120750654488801956e-03
8.239320665597915649e-02
2.999675273895263672e-01
7.466088980436325073e-02
1.583143323659896851e-01
-3.890665248036384583e-02
4.501865059137344360e-02
-9.935025125741958618e-02
4.650241881608963013e-02
2.688380181789398193e-01
-1.125828400254249573e-01
2.751770019531250000e-01
2.647709846496582031e-01
1.330311447381973267e-01
1.013718694448471069e-01
3.512052074074745178e-02
-8.191326260566711426e-02
4.480999335646629333e-02
-2.863388955593109131e-01
1.645122021436691284e-01
1.281614452600479126e-01
-1.961338967084884644e-01
4.814830794930458069e-02
8.467476069927215576e-02
-1.230294555425643921e-01
-5.477185919880867004e-02
1.427929699420928955e-01
1.487686038017272949e-01
-6.132785603404045105e-02
1.304275989532470703e-01
-2.010331153869628906e-01
1.471284031867980957e-01
-3.672548336908221245e-03
2.745218761265277863e-02
3.571701794862747192e-02
3.802701532840728760e-01
2.050689309835433960e-01
7.280169427394866943e-02
1.361687779426574707e-01
1.610106080770492554e-01
7.677567750215530396e-02
7.740679383277893066e-02
-4.058371484279632568e-02
-1.127556040883064270e-01
-4.466550052165985107e-02
1.680147647857666016e-01
1.181544288992881775e-01
1.389710605144500732e-01
-1.404263526201248169e-01
-1.164194718003273010e-01
-5.536456126719713211e-03
1.448682397603988647e-01
1.530583351850509644e-01
6.122329086065292358e-02
1.111622005701065063e-01
-1.675415933132171631e-01
9.859628230333328247e-02
-6.272583734244108200e-03
-1.091467812657356262e-01
-1.579563468694686890e-01
1.317550614476203918e-02
1.235000044107437134e-01
2.635254263877868652e-01
-1.013729870319366455e-01
-1.312185376882553101e-01
-3.320854739286005497e-04
-2.247334569692611694e-01
6.088114529848098755e-02
-4.885075148195028305e-03
3.993235528469085693e-01
3.512747958302497864e-02
-4.189025610685348511e-02
6.920730811543762684e-04
7.174392044544219971e-02
5.397124215960502625e-03
-5.898571610450744629e-01
-1.071933582425117493e-01
-1.840678602457046509e-01
4.864097386598587036e-02
-1.985214650630950928e-01
4.380620419979095459e-01
1.225815862417221069e-01
1.566843241453170776e-01
1.808859109878540039e-01
-2.701637335121631622e-02
7.936428487300872803e-02
-2.695206105709075928e-01
-2.507029287517070770e-02
-4.422926530241966248e-02
1.584464907646179199e-01
3.562255203723907471e-02
-4.431883394718170166e-01
-3.056269697844982147e-02
1.908296048641204834e-01
-3.765071928501129150e-02
-3.762311935424804688e-01
-8.743096888065338135e-02
8.559841662645339966e-03
3.417966365814208984e-01
2.589060068130493164e-01
-5.872214213013648987e-02
-8.460585772991180420e-02
-1.295221410691738129e-02
1.523104608058929443e-01
-2.872826345264911652e-02
7.568943500518798828e-02
1.589742451906204224e-01
7.443518191576004028e-02
1.695533245801925659e-01
2.250434756278991699e-01
1.918427795171737671e-01
2.633139193058013916e-01
-8.575701713562011719e-02
-1.581253856420516968e-01
1.263772249221801758e-01
4.064403846859931946e-02
6.282489746809005737e-02
3.111436367034912109e-01
2.580042229965329170e-03
6.210631877183914185e-02
-5.837514530867338181e-03
6.690537184476852417e-02
2.257801294326782227e-01
3.864879310131072998e-01
6.558664143085479736e-02
-2.496597617864608765e-01
2.589615881443023682e-01
-6.267376244068145752e-02
1.704870760440826416e-01
2.278289347887039185e-01
2.356523834168910980e-02
1.757508963346481323e-01
-2.908578217029571533e-01
1.334771662950515747e-01
9.364228695631027222e-02
-1.043139472603797913e-01
-8.238015696406364441e-03
7.735060900449752808e-02
2.768877148628234863e-01
-1.099415943026542664e-01
2.428800314664840698e-01
4.502169042825698853e-02
-2.137641757726669312e-01
-8.593811839818954468e-02
-8.694238215684890747e-02
1.840234920382499695e-02
1.233120709657669067e-01
-1.412677764892578125e-01
8.727037161588668823e-02
9.966009110212326050e-02
6.031400337815284729e-02
-5.441742390394210815e-02
-4.309220984578132629e-02
8.989899419248104095e-03
-7.873459905385971069e-02
7.472675293684005737e-02
1.596891731023788452e-01
-1.027516424655914307e-01
2.070606313645839691e-02
9.144444763660430908e-02
5.407015606760978699e-02
-1.146882772445678711e-01
1.415317207574844360e-01
-3.410769999027252197e-02
6.028779596090316772e-02
2.279738336801528931e-01
9.351401776075363159e-02
1.532993465662002563e-01
1.416231095790863037e-01
1.111388206481933594e-02
-9.346219897270202637e-02
1.012037843465805054e-01
7.937833666801452637e-02
-1.862414032220840454e-01
1.695001870393753052e-01
1.530379056930541992e-01
2.484016418457031250e-01
9.160469472408294678e-02
-2.778402902185916901e-02
1.090502664446830750e-01
1.109469532966613770e-01
2.444654554128646851e-01
-9.343365579843521118e-02
1.243990808725357056e-01
8.600620925426483154e-02
4.794323444366455078e-02
2.093179076910018921e-01
1.581388860940933228e-01
6.313076615333557129e-02
1.126235499978065491e-01
-1.712135970592498779e-01
2.003650367259979248e-01
2.476712875068187714e-02
4.426069557666778564e-02
7.418172061443328857e-02
-1.249020546674728394e-01
1.703343689441680908e-01
2.308498471975326538e-01
2.733507566154003143e-02
1.035219579935073853e-01
-8.282648399472236633e-03
7.558421790599822998e-02
1.071456596255302429e-01
1.443446800112724304e-02
-1.555737257003784180e-01
-4.471679276321083307e-04
-1.330850180238485336e-02
1.041911020874977112e-01
1.060671359300613403e-01
2.775190174579620361e-01
-5.447516962885856628e-02
4.517697095870971680e-01
2.490892857313156128e-01
-4.606763646006584167e-02
1.352513395249843597e-02
5.018140375614166260e-02
1.325372755527496338e-01
-9.075927734375000000e-02
1.479054242372512817e-01
3.475793004035949707e-01
3.613670915365219116e-02
6.244743987917900085e-02
2.646955549716949463e-01
-3.995821624994277954e-02
1.362084299325942993e-01
-4.594770073890686035e-02
2.533490769565105438e-02
4.171907901763916016e-02
2.613310515880584717e-01
-1.104392930865287781e-01
3.288558870553970337e-02
-2.029395550489425659e-01
3.662588447332382202e-02
3.341698944568634033e-01
1.538853943347930908e-01
-1.327660400420427322e-02
-6.356059759855270386e-02
2.636516392230987549e-01
3.960367292165756226e-02
1.731693185865879059e-02
6.299253553152084351e-02
1.563320755958557129e-01
1.056577041745185852e-01
-4.735809937119483948e-02
1.813182532787322998e-01
-8.225652575492858887e-02
-1.905672252178192139e-02
1.979665160179138184e-01
1.236056014895439148e-01
2.253132760524749756e-01
6.797534227371215820e-02
1.562141925096511841e-01
1.145034655928611755e-01
-4.427093081176280975e-04
-2.775317728519439697e-01
1.061007604002952576e-01
3.547744825482368469e-02
-9.045347571372985840e-02
2.072262614965438843e-01
2.843062207102775574e-02
5.050423145294189453e-01
-3.884823918342590332e-01
-1.334829330444335938e-01
5.883525684475898743e-02
-7.054852321743965149e-03
7.942955195903778076e-02
2.147840708494186401e-02
-1.341031044721603394e-01
1.425194204784929752e-05
-1.237711831927299500e-01
2.940362989902496338e-01
1.849850714206695557e-01
3.427367284893989563e-02
-7.278361916542053223e-02
1.937496811151504517e-01
2.604862302541732788e-02
1.439085155725479126e-01
3.218496590852737427e-02
1.442218720912933350e-01
-5.325112491846084595e-02
5.392635241150856018e-02
-2.331277132034301758e-01
-7.530482485890388489e-03
-8.448129892349243164e-02
1.138150766491889954e-01
-1.641203612089157104e-01
-8.215519785881042480e-02
-9.907453320920467377e-03
3.698403760790824890e-02
-1.229096017777919769e-02
1.189808174967765808e-01
-8.250565081834793091e-02
-1.002875268459320068e-01
-6.523760408163070679e-02
1.350158751010894775e-01
-5.964487418532371521e-02
-2.006695419549942017e-01
-1.480847299098968506e-01
3.222743049263954163e-02
-1.367294639348983765e-01
-6.492460519075393677e-02
-1.822942048311233521e-01
8.860813081264495850e-02
-2.484692633152008057e-01
-1.833999715745449066e-02
2.813886851072311401e-03
-1.216029748320579529e-02
-2.195308953523635864e-01
-1.237488165497779846e-01
-1.799554098397493362e-03
-4.570307582616806030e-02
-2.021542191505432129e-01
-2.105524092912673950e-01
4.932750016450881958e-03
-5.852420255541801453e-02
8.430869132280349731e-02
3.533096238970756531e-02
1.150182634592056274e-01
1.280868519097566605e-02
-2.135441266000270844e-02
-1.406756639480590820e-01
-8.127284049987792969e-02
-1.067782640457153320e-01
-3.558073937892913818e-02
8.453192561864852905e-02
-6.344175338745117188e-02
4.497193545103073120e-02
9.507825970649719238e-02
-4.786231555044651031e-03
-2.659490704536437988e-01
-1.297219395637512207e-01
-2.073731832206249237e-02
-1.517734825611114502e-01
1.669328063726425171e-01
1.667214184999465942e-02
-2.454635649919509888e-01
-3.796125948429107666e-02
-5.750050023198127747e-02
-2.351367175579071045e-01
-4.246386289596557617e-01
-1.000332087278366089e-01
2.904499694705009460e-02
-2.897310815751552582e-02
-2.092745006084442139e-01
5.733689665794372559e-02
1.606987603008747101e-02
8.836757391691207886e-02
-1.219511702656745911e-01
-2.824436128139495850e-02
-3.600978851318359375e-02
-1.206527799367904663e-01
-6.137610226869583130e-02
4.826017841696739197e-02
5.131369829177856445e-02
-3.369130427017807961e-03
2.240465283393859863e-01
-2.418522834777832031e-01
-5.835716053843498230e-02
-8.404135704040527344e-02
2.601896040141582489e-02
-4.750852659344673157e-02
5.292459577322006226e-02
-7.786267995834350586e-02
-2.282207459211349487e-01
-1.719422489404678345e-01
-9.726792573928833008e-02
4.519880749285221100e-03
-2.014284580945968628e-01
6.152324751019477844e-02
3.622480854392051697e-02
1.942460797727108002e-02
-8.499592542648315430e-03
-3.353779762983322144e-02
-5.229036509990692139e-02
6.040660664439201355e-03
-1.385689079761505127e-01
-3.120828792452812195e-02
-1.617901213467121124e-02
-5.302349478006362915e-02
9.132549166679382324e-02
-4.426962435245513916e-01
8.781041949987411499e-02
9.294512867927551270e-02
1.009047031402587891e-01
7.074571400880813599e-02
3.315727785229682922e-02
-8.975207805633544922e-02
-3.790872544050216675e-02
-7.409388571977615356e-02
-1.450983285903930664e-01
-6.969182193279266357e-02
8.647353388369083405e-03
1.595666855573654175e-01
3.821000084280967712e-02
-2.492166496813297272e-02
1.590291112661361694e-01
-1.069290637969970703e-01
-2.131310664117336273e-02
-1.355972439050674438e-01
-2.929287031292915344e-02
2.097777724266052246e-01
-3.335257247090339661e-02
1.715701967477798462e-01
1.269554942846298218e-01
8.017463237047195435e-02
-2.201468497514724731e-01
-3.939631953835487366e-02
2.996101975440979004e-01
1.774827763438224792e-02
-1.342782527208328247e-01
-1.040158718824386597e-01
-5.136637017130851746e-03
9.874886274337768555e-02
-9.098846465349197388e-02
-1.873157732188701630e-02
1.035036593675613403e-01
1.067235171794891357e-01
9.424076974391937256e-02
6.243693083524703979e-02
1.538890451192855835e-01
6.912983953952789307e-02
2.151455581188201904e-01
-1.556256879121065140e-02
3.199626877903938293e-02
-4.033951833844184875e-02
1.484924554824829102e-01
2.196833193302154541e-01
2.131561934947967529e-01
6.286893784999847412e-02
1.173990312963724136e-03
-1.137836501002311707e-01
2.388263642787933350e-01
-1.580280251801013947e-02
1.366380900144577026e-01
6.574336439371109009e-02
7.525950670242309570e-02
-4.788768291473388672e-02
1.188850477337837219e-01
-1.226184889674186707e-01
4.998401552438735962e-02
3.035944886505603790e-03
1.347769051790237427e-01
5.949115753173828125e-02
-1.038271561264991760e-01
-1.809610240161418915e-02
-5.622238665819168091e-02
-2.250876873731613159e-01
-3.102324903011322021e-01
2.478706277906894684e-02
8.967698365449905396e-02
5.867775529623031616e-02
-3.438084200024604797e-02
-1.856178790330886841e-01
-8.276693522930145264e-02
-5.785306543111801147e-02
6.477820128202438354e-02
4.776372388005256653e-02
-1.363436877727508545e-02
1.360853016376495361e-01
1.053613424301147461e-01
-6.883005052804946899e-02
-7.343789190053939819e-02
-4.706666991114616394e-02
1.070716083049774170e-01
3.279753401875495911e-02
1.371554285287857056e-01
5.106422677636146545e-02
6.249120086431503296e-02
5.522984638810157776e-02
1.734706759452819824e-01
5.142714083194732666e-02
3.894140124320983887e-01
2.814967334270477295e-01
7.117668539285659790e-02
-7.839464396238327026e-02
9.832833707332611084e-02
-3.774998337030410767e-02
1.206409856677055359e-01
1.274658441543579102e-01
-5.390866473317146301e-02
-5.392718315124511719e-02
1.286502480506896973e-01
-5.021065473556518555e-02
1.059214845299720764e-01
5.776321887969970703e-02
-5.365315079689025879e-02
4.901546612381935120e-02
-9.081466495990753174e-02
2.215123176574707031e-01
-2.851835265755653381e-02
-2.840671688318252563e-02
1.300435420125722885e-02
-6.109190359711647034e-02
5.735336616635322571e-02
2.240678109228610992e-02
1.196872964501380920e-01
-6.387158483266830444e-02
-1.203889679163694382e-02
9.597961604595184326e-02
3.153559863567352295e-01
2.616508901119232178e-01
6.675805151462554932e-02
-6.786878686398267746e-03
3.182855993509292603e-02
4.105789214372634888e-02
-7.349780760705471039e-03
3.264136016368865967e-01
-3.814654424786567688e-02
-1.561221294105052948e-02
-1.884763091802597046e-01
2.003423273563385010e-01
4.872988164424896240e-02
-6.248548626899719238e-02
-1.299414932727813721e-01
-7.520599290728569031e-03
1.183826103806495667e-01
6.484752520918846130e-03
2.145961076021194458e-01
1.674683541059494019e-01
-2.268232852220535278e-01
9.565574675798416138e-02
-1.364490389823913574e-01
2.478401735424995422e-02
-2.201176732778549194e-01
-1.528878360986709595e-01
8.251891285181045532e-02
-7.837729901075363159e-02
-3.116077780723571777e-01
2.012879699468612671e-01
7.046303153038024902e-02
1.921106427907943726e-01
-8.838063478469848633e-02
-6.898174434900283813e-02
3.869748115539550781e-01
2.220016904175281525e-02
-3.078860417008399963e-02
-4.118423536419868469e-02
1.533779222518205643e-02
9.839407354593276978e-02
1.088802590966224670e-01
1.673431694507598877e-02
-7.197119295597076416e-02
-1.089376658201217651e-01
1.380139868706464767e-02
8.353554457426071167e-02
-2.162980437278747559e-01
-6.110845878720283508e-02
-3.314637765288352966e-02
9.178883582353591919e-02
1.018373072147369385e-01
2.430401593446731567e-01
-1.554250419139862061e-01
6.844002753496170044e-02
1.136319041252136230e-01
-7.556849741376936436e-04
7.420790195465087891e-02
5.598583444952964783e-02
-1.940937638282775879e-01
1.158237755298614502e-01
6.167645379900932312e-02
5.758156627416610718e-02
-6.158193945884704590e-02
-1.293173432350158691e-01
7.052559871226549149e-03
2.157538682222366333e-01
4.437611252069473267e-02
1.005190424621105194e-04
-7.630124688148498535e-02
-1.957092881202697754e-01
-1.143059879541397095e-01
-3.134783357381820679e-02
-7.632114738225936890e-02
3.969203680753707886e-02
-5.361356586217880249e-02
-7.295375689864158630e-04
2.385836541652679443e-01
3.614363446831703186e-02
6.666953861713409424e-02
-1.616487205028533936e-01
3.563234582543373108e-02
-5.652134865522384644e-02
-1.523848623037338257e-01
4.483074545860290527e-01
1.718823462724685669e-01
2.368055731058120728e-01
1.556819230318069458e-01
1.207365915179252625e-01
3.890402615070343018e-02
-1.774224340915679932e-01
2.236997475847601891e-03
1.585909724235534668e-01
1.362931542098522186e-02
-1.070569306612014771e-01
1.470807641744613647e-01
3.387230038642883301e-01
-7.100627571344375610e-02
7.585655152797698975e-02
-3.574596717953681946e-02
-5.979277566075325012e-02
-7.498668134212493896e-02
6.184087693691253662e-02
2.353113703429698944e-02
-6.166852638125419617e-02
-1.084285974502563477e-01
2.407092601060867310e-02
-1.627788096666336060e-01
1.570997089147567749e-01
1.039261147379875183e-01
-1.202293410897254944e-01
6.258891522884368896e-02
2.766624391078948975e-01
-1.583077944815158844e-02
-1.919494122266769409e-01
2.726601250469684601e-02
1.918704062700271606e-01
3.049847483634948730e-02
6.840647757053375244e-02
2.415089309215545654e-02
-1.174992546439170837e-01
2.392723709344863892e-01
1.151911765336990356e-01
4.328590631484985352e-02
-9.354617446660995483e-02
3.360183164477348328e-02
1.223782449960708618e-01
-3.017766214907169342e-02
-1.565169990062713623e-01
-5.524737387895584106e-02
1.967369951307773590e-02
-4.873657599091529846e-02
1.979213804006576538e-01
-3.225256130099296570e-02
4.332218468189239502e-01
7.194003462791442871e-02
-2.986287325620651245e-02
9.068492799997329712e-02
-2.448741495609283447e-01
4.638464376330375671e-02
6.888848543167114258e-02
-4.912571515887975693e-03
-3.477448970079421997e-02
6.024258956313133240e-02
1.249246969819068909e-01
-4.235152155160903931e-02
1.602568896487355232e-03
-2.820328772068023682e-01
2.617024183273315430e-01
-1.711643934249877930e-01
-1.037554815411567688e-01
1.046620458364486694e-01
5.245183408260345459e-02
4.026139155030250549e-02
1.628428101539611816e-01
-2.403428545221686363e-03
1.715127527713775635e-01
1.081900820136070251e-01
3.898387774825096130e-02
-1.770447939634323120e-02
-7.174336165189743042e-02
-2.669056653976440430e-01
-2.062248997390270233e-02
-8.311478495597839355e-01
1.460456661880016327e-02
1.198526620864868164e-01
6.929610669612884521e-02
2.870532684028148651e-02
-6.947174202650785446e-03
-1.170271933078765869e-01
4.273340851068496704e-02
1.681907624006271362e-01
7.796789705753326416e-02
-7.442536950111389160e-02
-9.657861292362213135e-02
4.456353187561035156e-02
1.168578714132308960e-01
1.654817759990692139e-01
1.209820583462715149e-01
-1.913096904754638672e-01
1.086507067084312439e-01
8.563554845750331879e-03
6.960849165916442871e-01
-5.155269429087638855e-02
1.131402403116226196e-01
-3.424429893493652344e-02
-3.635113239288330078e-01
-6.558547914028167725e-02
7.563444226980209351e-02
3.160059154033660889e-01
4.526038169860839844e-01
9.633574634790420532e-02
-3.148010000586509705e-02
1.226134896278381348e-01
-6.519963741302490234e-01
-2.067779749631881714e-01
-1.896668225526809692e-02
2.178419817937538028e-04
2.181807719171047211e-02
-5.553033947944641113e-02
2.216747030615806580e-02
2.572577595710754395e-01
2.136476337909698486e-02
1.393949687480926514e-01
2.532255463302135468e-02
-1.189655959606170654e-01
2.461454719305038452e-01
-2.201451957225799561e-01
1.074340939521789551e-01
-7.453249394893646240e-02
4.209653660655021667e-02
5.123499035835266113e-02
2.457188814878463745e-02
-8.398038893938064575e-02
-7.470215111970901489e-02
2.764441370964050293e-01
-4.931967705488204956e-03
1.961950957775115967e-01
8.423664420843124390e-02
1.719012707471847534e-01
9.282324463129043579e-02
9.794162958860397339e-02
3.205233216285705566e-01
-3.175998479127883911e-02
-2.057887166738510132e-01
4.283066093921661377e-02
-1.402101516723632812e-01
1.166694536805152893e-01
1.317936778068542480e-01
-1.637035012245178223e-01
3.382601961493492126e-02
6.549012660980224609e-02
1.184512581676244736e-02
9.407965093851089478e-02
9.226049482822418213e-02
-9.982547163963317871e-02
1.825876533985137939e-01
-7.628329563885927200e-03
8.142729848623275757e-02
1.713621020317077637e-01
-5.959678441286087036e-02
8.267106860876083374e-02
-2.861098647117614746e-01
8.921940624713897705e-02
2.962474478408694267e-03
-2.093970403075218201e-02
-1.881507337093353271e-01
1.341386586427688599e-01
2.866479158401489258e-01
-2.463516034185886383e-02
1.409882307052612305e-01
8.016239106655120850e-02
-2.197528779506683350e-01
6.513338070362806320e-03
-1.159877330064773560e-01
-5.021693930029869080e-02
-1.584658026695251465e-01
-2.344240099191665649e-01
-1.573109924793243408e-01
8.371604233980178833e-02
-2.767068743705749512e-01
9.645767509937286377e-02
2.221638560295104980e-01
-8.979438990354537964e-02
-5.680175498127937317e-02
1.342263654805719852e-03
-8.021567016839981079e-02
9.560428559780120850e-02
-3.136613219976425171e-02
-2.068824507296085358e-02
-9.212628938257694244e-03
-1.381101552397012711e-02
-1.177802458405494690e-01
1.563234925270080566e-01
9.860389679670333862e-02
-1.747264862060546875e-01
6.441545486450195312e-02
-1.058506295084953308e-01
-8.866596221923828125e-02
-1.012641042470932007e-01
5.202795937657356262e-02
8.604516275227069855e-03
1.378141194581985474e-01
-5.478496104478836060e-02
-1.772348582744598389e-01
-4.070195183157920837e-02
-9.412429481744766235e-02
-2.414305321872234344e-02
-3.212038427591323853e-02
-1.411992311477661133e-01
-4.803423210978507996e-02
6.849568337202072144e-02
-6.368917971849441528e-02
-1.400568485260009766e-01
-2.150989472866058350e-01
7.749308645725250244e-02
5.413663014769554138e-02
-4.375228285789489746e-02
-5.593223869800567627e-02
7.725799828767776489e-02
6.800749339163303375e-03
-2.322961203753948212e-02
1.448049098253250122e-01
-1.260163038969039917e-01
2.555915117263793945e-01
3.713548183441162109e-02
2.688029706478118896e-01
-9.116117656230926514e-02
-1.266904175281524658e-01
-1.563867181539535522e-01
1.608121767640113831e-02
1.660182178020477295e-01
-1.219561621546745300e-01
-3.175272047519683838e-01
-5.003188550472259521e-02
1.325027346611022949e-01
-1.134434267878532410e-01
-3.841837644577026367e-01
3.285101382061839104e-03
-2.994063310325145721e-02
4.074185714125633240e-02
1.505935341119766235e-01
-1.228257119655609131e-01
-7.138026505708694458e-02
-1.097280234098434448e-01
-1.773484498262405396e-01
-2.258989363908767700e-01
-1.680196635425090790e-02
3.435732051730155945e-02
-5.617853626608848572e-02
1.588653475046157837e-01
-1.159434579312801361e-02
2.319895327091217041e-01
6.756087392568588257e-02
1.873281747102737427e-01
1.314652860164642334e-01
1.697447896003723145e-01
-2.298437245190143585e-02
-1.374107599258422852e-01
-2.137820422649383545e-01
7.382742315530776978e-02
-1.065535247325897217e-01
-2.257381379604339600e-01
8.379790931940078735e-03
-1.508978474885225296e-02
1.372236758470535278e-01
-6.675527244806289673e-02
-1.536523550748825073e-01
-9.820874780416488647e-02
-1.487376987934112549e-01
2.691483870148658752e-02
-7.243947684764862061e-02
-7.646814733743667603e-02
-1.040641143918037415e-01
1.218760386109352112e-01
-9.953843429684638977e-03
1.367882937192916870e-01
-8.661996573209762573e-02
5.207816511392593384e-02
-1.011748239398002625e-01
1.434741169214248657e-01
-1.596323549747467041e-01
-1.735979914665222168e-01
5.576128512620925903e-02
-9.599127620458602905e-02
1.640116982161998749e-02
6.856779009103775024e-02
9.288724511861801147e-02
-1.685281246900558472e-01
1.379631608724594116e-01
-1.038289740681648254e-01
7.736203819513320923e-02
1.195126324892044067e-01
2.193846157751977444e-04
-8.008422702550888062e-02
2.056871308013796806e-03
-1.497876271605491638e-02
-1.004848331212997437e-01
-3.151457384228706360e-02
2.574203163385391235e-02
-1.130760163068771362e-01
-2.438315749168395996e-01
-1.500429771840572357e-02
1.238586567342281342e-02
2.226007357239723206e-02
1.202731579542160034e-01
-5.163139849901199341e-02
1.114571988582611084e-01
5.141706764698028564e-02
-8.769922703504562378e-02
1.095278188586235046e-01
-2.302287332713603973e-02
-3.230859041213989258e-01
-1.726699769496917725e-01
-1.394319832324981689e-01
-7.529930770397186279e-02
-3.356812894344329834e-02
-4.903776571154594421e-02
7.441052049398422241e-02
3.104826621711254120e-02
2.339889295399188995e-02
1.078533846884965897e-02
-1.120326817035675049e-01
7.773777097463607788e-02
-1.086292490363121033e-01
8.502386510372161865e-03
-3.217917084693908691e-01
-1.842709444463253021e-02
-3.008086383342742920e-01
-4.641762003302574158e-02
-2.811319008469581604e-02
-1.345581710338592529e-01
8.276190492324531078e-04
-1.384713500738143921e-01
-1.389720290899276733e-01
-1.195328086614608765e-01
5.394439399242401123e-02
3.302483260631561279e-02
-5.136845260858535767e-02
-1.342987865209579468e-01
-1.280812621116638184e-01
-6.235129386186599731e-02
-1.104904264211654663e-01
1.122739613056182861e-01
-2.686974704265594482e-01
5.701269488781690598e-03
3.609686717391014099e-02
5.352253839373588562e-02
9.806577861309051514e-02
1.112963482737541199e-01
-2.733267098665237427e-02
2.751259207725524902e-01
-2.301773428916931152e-02
4.821068644523620605e-01
3.526983857154846191e-01
-3.165939152240753174e-01
2.860464528203010559e-02
3.287794440984725952e-02
-3.549456596374511719e-02
-1.739272475242614746e-01
2.791543006896972656e-01
-2.646552026271820068e-01
3.031439706683158875e-02
4.082527384161949158e-02
-1.830421537160873413e-01
4.269988536834716797e-01
-2.531745433807373047e-01
-7.404219359159469604e-02
-5.607975646853446960e-02
3.128401190042495728e-02
-8.926896750926971436e-02
-1.293514389544725418e-02
-5.675286427140235901e-02
-1.064010858535766602e-01
1.158174797892570496e-01
-2.082136571407318115e-01
-2.200247049331665039e-01
-5.601860582828521729e-02
2.101619094610214233e-01
2.979594171047210693e-01
1.489706616848707199e-02
-3.875106200575828552e-02
-2.299413979053497314e-01
-1.075758114457130432e-01
2.060624063014984131e-01
1.197298467159271240e-01
-4.013970494270324707e-02
1.437552738934755325e-02
2.758164145052433014e-02
1.495971232652664185e-01
5.240110680460929871e-02
-8.495435863733291626e-02
-1.022275909781455994e-01
-1.101992875337600708e-01
-1.021233201026916504e-01
-7.292478810995817184e-03
1.545598655939102173e-01
-1.216560006141662598e-01
9.285913407802581787e-02
-4.192913696169853210e-02
-5.060127377510070801e-02
-4.508502185344696045e-01
6.704643834382295609e-03
-1.614450663328170776e-01
1.622744798660278320e-01
-7.940529286861419678e-02
-5.398951470851898193e-02
1.414833366870880127e-01
2.101787179708480835e-01
-5.905530229210853577e-02
-2.044124156236648560e-01
3.949759900569915771e-02
-2.946116328239440918e-01
4.616807028651237488e-02
-2.495520561933517456e-01
-1.641245335340499878e-01
2.728644311428070068e-01
-7.630320638418197632e-02
1.127286255359649658e-01
-1.090427488088607788e-02
2.174318879842758179e-01
1.266105324029922485e-01
-3.676774203777313232e-01
-2.038216739892959595e-01
2.069314941763877869e-02
-1.686983704566955566e-01
-2.669087350368499756e-01
1.332762837409973145e-01
-9.696249663829803467e-02
6.264718621969223022e-02
-3.056835010647773743e-02
-2.340279072523117065e-01
-8.600875735282897949e-02
-1.427829861640930176e-01
-2.283218502998352051e-01
-1.563633680343627930e-01
1.338817626237869263e-01
-1.787958480417728424e-02
2.039250135421752930e-01
-7.785658538341522217e-02
4.816414788365364075e-03
-3.076982498168945312e-01
7.361636310815811157e-02
1.615464091300964355e-01
-1.927710026502609253e-01
-2.890028655529022217e-01
2.593385577201843262e-01
1.937594264745712280e-01
-7.312997430562973022e-02
-1.503701955080032349e-01
5.586187168955802917e-02
1.137344613671302795e-01
7.916107028722763062e-02
-1.377436816692352295e-01
2.604002878069877625e-02
7.375178486108779907e-02
-2.180889397859573364e-01
1.416312009096145630e-01
4.293548688292503357e-02
1.922649890184402466e-01
1.022438853979110718e-01
-2.113593071699142456e-01
-2.750209271907806396e-01
-1.239230632781982422e-01
8.545711636543273926e-02
-1.241027414798736572e-01
-2.139785885810852051e-01
2.024761736392974854e-01
-2.514993250370025635e-01
-1.488279700279235840e-01
-1.101903840899467468e-01
4.415943101048469543e-02
-8.854140527546405792e-03
1.998682506382465363e-03
-2.894163690507411957e-02
-4.379285573959350586e-01
2.737420052289962769e-02
-5.172350257635116577e-02
-2.786800963804125786e-03
-3.040755689144134521e-01
-1.802995353937149048e-01
2.628181688487529755e-02
2.349970862269401550e-02
8.687332272529602051e-02
-1.304353624582290649e-01
-1.949812918901443481e-01
8.023699373006820679e-02
1.118195708841085434e-02
-1.330724060535430908e-01
-3.167061805725097656e-01
3.144094645977020264e-01
7.044556550681591034e-03
-4.386187717318534851e-02
-1.354349255561828613e-01
2.366942912340164185e-01
1.912779510021209717e-01
-4.260257184505462646e-01
1.376558244228363037e-01
-1.504741758108139038e-01
2.032578438520431519e-01
1.131247580051422119e-01
-1.052240747958421707e-02
-8.167001605033874512e-02
-2.278578467667102814e-02
-5.291883349418640137e-01
-3.074707686901092529e-01
-2.015927582979202271e-01
1.227564662694931030e-01
-3.158711791038513184e-01
-1.257985532283782959e-01
7.834342308342456818e-03
-6.989879999309778214e-03
-1.119601801037788391e-01
-2.361023873090744019e-01
-5.563588812947273254e-02
2.782768756151199341e-02
1.737961769104003906e-01
6.548440456390380859e-02
1.170273795723915100e-01
9.556714445352554321e-02
-3.890891671180725098e-01
2.374811470508575439e-02
2.005183547735214233e-01
-2.144963108003139496e-02
8.071683347225189209e-02
2.793934009969234467e-02
-4.168758541345596313e-02
-2.116824984550476074e-01
-1.339621394872665405e-01
1.772754490375518799e-01
-4.264600574970245361e-02
-8.452725410461425781e-01
5.363499745726585388e-02
-8.241567015647888184e-02
3.348977863788604736e-01
4.749320074915885925e-02
-2.819708734750747681e-02
-4.690805822610855103e-02
-2.102736942470073700e-02
-5.667410045862197876e-02
-6.124030053615570068e-02
1.317013204097747803e-01
-3.711144030094146729e-01
-7.479665428400039673e-02
-2.067490071058273315e-01
9.476963430643081665e-02
1.447440832853317261e-01
-8.659414201974868774e-02
-3.268058225512504578e-02
1.781809143722057343e-02
-5.400013923645019531e-02
-3.476569801568984985e-02
-6.825369782745838165e-03
7.355522830039262772e-03
2.052196264266967773e-01
1.321627944707870483e-01
-1.384927928447723389e-01
-3.535237312316894531e-01
5.295241624116897583e-02
2.777748107910156250e-01
5.923910066485404968e-02
-3.443000614643096924e-01
-3.043793141841888428e-03
7.094081640243530273e-01
-8.055163919925689697e-02
-1.263522505760192871e-01
7.759443949908018112e-03
3.534694388508796692e-02
-9.198599494993686676e-03
-3.252248838543891907e-02
-1.153438314795494080e-01
2.449837885797023773e-02
-1.291681081056594849e-01
-1.774141192436218262e-01
-1.078882887959480286e-01
-2.920028008520603180e-02
-1.323953121900558472e-01
1.541084796190261841e-01
4.266125150024890900e-03
1.634230762720108032e-01
-7.090180180966854095e-03
-1.805855184793472290e-01
-3.653674721717834473e-01
-1.197010502219200134e-01
1.343473345041275024e-01
-8.217062801122665405e-02
-1.330741047859191895e-01
3.905522078275680542e-02
-1.018966920673847198e-02
-8.474925905466079712e-02
-2.034051567316055298e-01
-2.423288673162460327e-01
6.215472240000963211e-03
-2.771133482456207275e-01
7.940441370010375977e-02
-9.448248893022537231e-02
2.369246445596218109e-02
-3.367280662059783936e-01
-7.612097263336181641e-02
-2.615452110767364502e-01
-3.921602666378021240e-01
7.851088047027587891e-02
-9.921106696128845215e-02
1.028662621974945068e-01
-1.140879816375672817e-03
-2.966336905956268311e-01
-7.939215004444122314e-02
-5.933907628059387207e-02
6.604123860597610474e-02
-3.110699057579040527e-01
-6.279351562261581421e-02
-6.306056678295135498e-02
-6.732194870710372925e-02
-2.791122198104858398e-01
1.780590265989303589e-01
-7.712085545063018799e-02
-8.416278660297393799e-02
3.837922587990760803e-02
1.632617563009262085e-01
5.060335621237754822e-02
-1.324901431798934937e-01
-1.875290125608444214e-01
-1.706459969282150269e-01
1.684377342462539673e-01
-1.888604462146759033e-01
-2.422610223293304443e-01
-3.655007481575012207e-02
-1.614579409360885620e-01
3.168594092130661011e-03
-1.861908584833145142e-01
4.383685812354087830e-02
-1.220974475145339966e-01
4.581372067332267761e-02
-6.282801926136016846e-02
-8.349493145942687988e-02
-2.886204607784748077e-02
1.776907294988632202e-01
-2.450355589389801025e-01
-1.016016602516174316e-01
-3.712932467460632324e-01
1.798167638480663300e-02
5.248285457491874695e-02
1.111194416880607605e-01
1.899372339248657227e-01
-1.924763321876525879e-01
-1.032586917281150818e-01
1.048848479986190796e-01
-2.277789860963821411e-01
-2.729494869709014893e-01
-1.006170585751533508e-01
9.487348049879074097e-02
-1.339660882949829102e-01
1.211971342563629150e-01
-9.818831086158752441e-02
-3.284602612257003784e-02
-7.221505790948867798e-02
2.114769220352172852e-01
-1.687017232179641724e-01
-1.189638450741767883e-01
-6.553453952074050903e-02
-6.223353371024131775e-02
-2.212347388267517090e-01
-8.967745304107666016e-02
3.061804175376892090e-02
-6.173716858029365540e-02
-1.983871459960937500e-01
-1.375315636396408081e-01
3.216651082038879395e-02
-5.487169697880744934e-02
-3.788352012634277344e-02
-5.314441397786140442e-02
-6.928829848766326904e-02
1.416633725166320801e-01
-5.205161869525909424e-03
-7.885474711656570435e-02
6.201287731528282166e-02
-7.793551683425903320e-02
-4.002500697970390320e-02
-8.638830482959747314e-02
2.330889925360679626e-02
-2.306586131453514099e-02
-9.814848750829696655e-02
-8.105335384607315063e-02
-1.023138761520385742e-01
-7.917990535497665405e-02
-8.642578125000000000e-02
-1.208453923463821411e-01
-9.617894142866134644e-02
1.492271944880485535e-02
-1.546610891819000244e-01
-2.409105002880096436e-02
3.748144954442977905e-02
-1.027557551860809326e-01
-1.548678576946258545e-01
-3.068773448467254639e-01
-6.467377394437789917e-02
1.523712128400802612e-01
9.986059367656707764e-02
-9.941367805004119873e-02
-1.677730977535247803e-01
-3.720860928297042847e-02
-1.366922724992036819e-02
4.331346601247787476e-02
-6.367123126983642578e-02
1.832792721688747406e-02
-2.005364280194044113e-03
7.851781696081161499e-02
8.303506672382354736e-02
3.740147873759269714e-02
-1.754979938268661499e-01
-1.599782556295394897e-01
8.001055568456649780e-02
8.632097393274307251e-02
-1.094068214297294617e-01
-1.872644871473312378e-01
-6.100710108876228333e-02
1.587304659187793732e-02
-1.562597453594207764e-01
6.499789655208587646e-02
1.653921306133270264e-01
-1.081015244126319885e-01
-1.976452618837356567e-01
1.511375010013580322e-01
-1.015667170286178589e-01
1.004210487008094788e-01
-3.747409209609031677e-02
-7.563702017068862915e-02
-5.990079045295715332e-02
-1.461883913725614548e-02
-9.119272977113723755e-02
-5.618565902113914490e-02
-7.548940926790237427e-02
-7.243613153696060181e-02
7.141783833503723145e-02
-8.672281354665756226e-02
1.548722833395004272e-01
7.194569706916809082e-02
-7.414201647043228149e-02
-2.487187273800373077e-02
7.755058351904153824e-03
-3.195581585168838501e-02
-5.321882665157318115e-02
-1.220625340938568115e-01
-1.681197285652160645e-01
1.984552145004272461e-01
8.870123326778411865e-02
-5.229812115430831909e-02
-1.799414008855819702e-01
-2.061030082404613495e-02
3.082590643316507339e-03
-1.453493982553482056e-01
6.865362171083688736e-03
-1.664064079523086548e-02
5.654002353549003601e-02
-1.851758509874343872e-01
2.770527824759483337e-02
-6.471207737922668457e-02
2.344710007309913635e-02
6.061129737645387650e-03
8.655461668968200684e-02
-6.918830424547195435e-02
3.863104432821273804e-02
-2.921428978443145752e-01
1.875212937593460083e-01
1.900435835123062134e-01
1.603020280599594116e-01
5.422836169600486755e-03
-1.741519123315811157e-01
-9.329741448163986206e-02
-1.978451199829578400e-02
-1.056854501366615295e-01
-3.576904833316802979e-01
-2.584880590438842773e-01
-1.510624680668115616e-02
-1.584871299564838409e-02
3.128854185342788696e-02
-1.628705416806042194e-03
1.533508598804473877e-01
-2.482682615518569946e-01
1.772339222952723503e-03
-2.670756541192531586e-02
1.624546945095062256e-02
6.838164757937192917e-03
1.408603936433792114e-01
-4.783669710159301758e-01
4.926624894142150879e-01
-1.402339190244674683e-01
-2.496473193168640137e-01
3.454098403453826904e-01
2.324186712503433228e-01
-1.580116450786590576e-01
-2.475789785385131836e-01
-3.861667513847351074e-01
-2.974319159984588623e-01
2.000151425600051880e-01
-2.028950005769729614e-01
1.831318624317646027e-02
-5.805836617946624756e-02
-2.136216685175895691e-02
1.904997378587722778e-01
6.104984879493713379e-02
7.946826517581939697e-02
3.641892373561859131e-01
-3.496555145829916000e-03
-1.819374561309814453e-01
-2.423451244831085205e-01
-9.876897186040878296e-02
-1.501387655735015869e-01
6.041025519371032715e-01
5.876734852790832520e-02
9.699337184429168701e-02
2.540750503540039062e-01
-2.789156436920166016e-01
-2.452902346849441528e-01
-2.021717727184295654e-01
1.741461455821990967e-02
2.249753568321466446e-03
1.221291869878768921e-01
2.848709747195243835e-02
-2.247444540262222290e-01
-2.067281752824783325e-01
1.081513147801160812e-02
9.379775524139404297e-01
2.567555010318756104e-01
7.988362014293670654e-02
2.290597409009933472e-01
-4.681721702218055725e-02
-1.462458372116088867e-01
-3.098918125033378601e-02
-2.861029207706451416e-01
-2.377062290906906128e-02
8.686742186546325684e-02
-1.004905477166175842e-01
-5.423880219459533691e-01
-5.606868863105773926e-01
-4.346457123756408691e-01
6.964505463838577271e-02
-3.214142322540283203e-01
-1.595036983489990234e-01
6.701648980379104614e-02
1.414560526609420776e-01
2.069699317216873169e-01
-2.680059969425201416e-01
1.187513172626495361e-01
-2.096889466047286987e-01
8.367915451526641846e-02
1.078127771615982056e-01
1.625983864068984985e-01
-1.011073812842369080e-01
6.715787947177886963e-02
2.096629738807678223e-01
-8.395314961671829224e-02
6.677575409412384033e-02
9.696027636528015137e-02
1.215146481990814209e-01
8.056442439556121826e-02
-3.073908984661102295e-01
7.513551414012908936e-02
2.174545079469680786e-01
1.710132807493209839e-01
8.726475387811660767e-02
-2.430575489997863770e-01
1.976624503731727600e-02
-2.518273890018463135e-01
-1.955909579992294312e-01
1.771925836801528931e-01
-7.282477617263793945e-02
3.956473171710968018e-01
2.901954054832458496e-01
-3.868357241153717041e-01
4.198617115616798401e-02
3.752185404300689697e-02
1.705544441938400269e-01
-2.014541998505592346e-02
-5.287348031997680664e-01
3.622735142707824707e-01
2.590725123882293701e-01
-2.826842665672302246e-01
-1.598441740497946739e-03
-4.501093551516532898e-02
1.552906073629856110e-02
-1.903927326202392578e-01
-6.107772141695022583e-02
-1.497131884098052979e-01
2.720564305782318115e-01
2.617314457893371582e-01
-4.384835958480834961e-01
1.152804046869277954e-01
1.725118458271026611e-01
1.357975602149963379e-01
1.421394199132919312e-01
-3.939509764313697815e-02
1.570803672075271606e-01
-1.981931328773498535e-01
-3.012562096118927002e-01
-4.957732856273651123e-01
-1.949360668659210205e-01
-3.513209521770477295e-01
-3.154894113540649414e-01
-8.572601526975631714e-02
4.178922623395919800e-03
-1.015928909182548523e-01
-1.294125616550445557e-01
4.888626560568809509e-02
-9.493906795978546143e-02
-7.478701323270797729e-02
-2.455709725618362427e-01
1.789024472236633301e-02
5.669010430574417114e-02
3.150739520788192749e-02
-3.313811495900154114e-02
2.678520791232585907e-02
6.115015968680381775e-02
1.761613637208938599e-01
-1.007743179798126221e-01
9.044302254915237427e-02
4.153338372707366943e-01
2.134422212839126587e-01
1.251911222934722900e-01
-1.899026520550251007e-02
-3.337065875530242920e-02
4.514626041054725647e-02
6.408330053091049194e-02
-5.102101564407348633e-01
9.130939096212387085e-02
8.683294802904129028e-02
1.213898360729217529e-01
2.211616635322570801e-01
-5.942723155021667480e-02
7.385229319334030151e-02
-1.125989109277725220e-02
-3.016429767012596130e-02
-3.304260596632957458e-02
1.303439587354660034e-01
-8.086930960416793823e-02
-4.049305245280265808e-02
-1.232124790549278259e-01
-2.937566041946411133e-01
6.180118769407272339e-02
-3.568489104509353638e-03
1.352967917919158936e-01
-2.264917828142642975e-02
1.089909076690673828e-01
-4.717687144875526428e-02
4.018967226147651672e-02
-5.700981710106134415e-03
-1.377618964761495590e-02
1.318355053663253784e-01
-5.282962322235107422e-02
1.924555562436580658e-02
9.282771497964859009e-02
-5.305934697389602661e-02
1.516196280717849731e-01
-3.682914078235626221e-01
1.417526006698608398e-01
3.484959602355957031e-01
4.651075974106788635e-02
1.034301519393920898e-01
-3.389827907085418701e-02
-2.668672800064086914e-01
-2.224693149328231812e-01
5.661141127347946167e-02
-1.398440077900886536e-02
4.678902775049209595e-02
-6.769283115863800049e-02
2.496447563171386719e-01
-2.797339111566543579e-02
-1.053704991936683655e-01
9.921650588512420654e-02
1.394879519939422607e-01
3.083727955818176270e-01
2.667587809264659882e-02
3.346375888213515282e-03
-1.487816423177719116e-01
-5.854892358183860779e-02
2.139174789190292358e-01
2.812979742884635925e-02
1.276714205741882324e-01
-3.604997321963310242e-02
-5.792076885700225830e-02
1.137956827878952026e-01
1.729239523410797119e-01
1.234611943364143372e-01
-1.237532123923301697e-01
-3.399975225329399109e-02
8.595691621303558350e-02
5.523389577865600586e-02
3.760949373245239258e-01
2.031061798334121704e-01
-9.184277802705764771e-02
1.616794466972351074e-01
-7.995738089084625244e-02
-3.005059622228145599e-02
1.022673100233078003e-01
2.723775431513786316e-02
-1.470828615128993988e-02
-4.281954839825630188e-02
2.855536714196205139e-02
7.989905774593353271e-02
2.135921269655227661e-02
-9.959232062101364136e-02
1.670887321233749390e-01
7.889818400144577026e-02
-1.270192414522171021e-01
9.418119676411151886e-03
2.115091681480407715e-02
-3.473725616931915283e-01
2.420702874660491943e-01
-1.504544615745544434e-01
1.090221330523490906e-01
-5.246152728796005249e-02
1.077072471380233765e-01
-2.875714376568794250e-02
-8.108364790678024292e-02
-1.829826086759567261e-02
-1.986460089683532715e-01
-1.205183044075965881e-01
3.367259353399276733e-02
2.746556699275970459e-02
3.601008281111717224e-02
1.515616178512573242e-01
5.386865511536598206e-02
-3.373603150248527527e-02
-2.520613372325897217e-01
3.117993474006652832e-01
1.375140845775604248e-01
-2.622253894805908203e-01
-2.925575077533721924e-01
4.624864459037780762e-01
-4.685209691524505615e-02
-1.154928505420684814e-01
5.185489356517791748e-02
-1.040083914995193481e-01
2.728065848350524902e-01
2.407873421907424927e-01
1.774694025516510010e-01
4.374389648437500000e-01
-2.588200755417346954e-02
-3.946512043476104736e-01
-1.306177377700805664e-01
-2.507018670439720154e-02
-1.814776286482810974e-02
-2.362079359591007233e-02
-2.067383751273155212e-02
-2.323864251375198364e-01
1.316493097692728043e-02
8.667938411235809326e-02
1.182144433259963989e-01
-1.230048239231109619e-01
2.432393133640289307e-01
9.996127337217330933e-02
-9.805103391408920288e-02
-2.987619675695896149e-02
2.429932951927185059e-01
-5.712357908487319946e-02
-8.473769761621952057e-03
2.666064500808715820e-01
9.317277371883392334e-02
-1.314214617013931274e-01
2.821691930294036865e-01
1.181947346776723862e-02
-2.914758026599884033e-02
4.075407385826110840e-01
9.526760876178741455e-02
2.896574437618255615e-01
-4.410681501030921936e-02
3.071082532405853271e-01
-7.289806753396987915e-02
1.411627680063247681e-01
1.387988328933715820e-01
-3.525383770465850830e-02
2.103277444839477539e-01
2.723515965044498444e-02
-1.145003214478492737e-01
-1.144676120020449162e-03
-5.990552250295877457e-03
-2.424264550209045410e-01
-1.735018938779830933e-01
-3.901473432779312134e-02
1.672407612204551697e-02
8.753933012485504150e-02
1.207761168479919434e-01
-9.362705796957015991e-02
-3.140277266502380371e-01
3.583533167839050293e-01
2.196062952280044556e-01
1.619444787502288818e-01
1.553177833557128906e-02
1.795899420976638794e-01
-3.913031518459320068e-01
-3.704875707626342773e-02
4.888298735022544861e-02
2.446920238435268402e-02
-2.124073207378387451e-01
-1.719218865036964417e-02
1.514637023210525513e-01
2.670834958553314209e-01
1.352444291114807129e-01
-2.109041512012481689e-01
2.112640738487243652e-01
1.065319925546646118e-01
-8.248819410800933838e-02
1.044065877795219421e-02
1.170416176319122314e-01
-1.495594084262847900e-01
-1.007820218801498413e-01
-1.488066166639328003e-01
2.449723705649375916e-02
-1.606169529259204865e-02
4.856935888528823853e-02
-3.621002286672592163e-02
7.265187799930572510e-02
-1.438001543283462524e-01
6.261987984180450439e-02
1.521979868412017822e-01
1.292162835597991943e-01
3.179343640804290771e-01
-2.688898518681526184e-02
-1.256791055202484131e-01
-1.313223540782928467e-01
4.805521667003631592e-02
-9.490452706813812256e-03
8.913254141807556152e-01
7.763806730508804321e-02
-1.449135988950729370e-01
-7.856208831071853638e-02
-3.645763397216796875e-01
-2.211099714040756226e-01
6.694878637790679932e-02
2.088637053966522217e-01
-9.138189256191253662e-03
-2.443694919347763062e-01
5.582444369792938232e-02
-4.527972638607025146e-01
1.500355750322341919e-01
1.716069430112838745e-01
-2.938406467437744141e-01
3.294219076633453369e-02
1.912849992513656616e-01
6.416377425193786621e-02
2.716190516948699951e-01
-3.137200176715850830e-01
-4.420511424541473389e-02
3.603091835975646973e-02
4.292982220649719238e-01
4.470078647136688232e-01
1.166545599699020386e-01
-1.394511573016643524e-02
5.680219084024429321e-02
2.083483487367630005e-01
-2.242264598608016968e-01
1.150958910584449768e-01
3.203910775482654572e-03
6.858555227518081665e-02
4.345553368330001831e-02
1.346552670001983643e-01
1.546656936407089233e-01
-4.255158305168151855e-01
-1.733415061607956886e-03
-4.525315016508102417e-02
2.870650263503193855e-03
-6.388296931982040405e-02
9.643539786338806152e-02
-1.382587850093841553e-01
1.172920241951942444e-01
6.216442212462425232e-02
1.573441028594970703e-01
2.729103900492191315e-02
-4.075063765048980713e-02
-1.196295395493507385e-01
5.431876331567764282e-02
-3.323976323008537292e-02
-1.423142198473215103e-02
4.014276340603828430e-02
4.591201245784759521e-02
1.441221684217453003e-01
1.186513807624578476e-02
1.651680916547775269e-01
1.129725575447082520e-01
1.628725230693817139e-02
2.074362188577651978e-01
-1.927138864994049072e-02
4.170256853103637695e-01
1.873012930154800415e-01
9.682829678058624268e-02
-5.159418284893035889e-02
-1.153104752302169800e-01
2.169701159000396729e-01
-1.593995243310928345e-01
-2.833016514778137207e-01
1.736425608396530151e-01
2.804715931415557861e-01
-1.228340715169906616e-01
2.733700871467590332e-01
2.547112293541431427e-02
5.004052072763442993e-03
-4.371160268783569336e-02
-2.594346702098846436e-01
-1.315641701221466064e-01
-2.278839051723480225e-01
-2.532636933028697968e-02
1.134146824479103088e-01
-2.493867427110671997e-01
2.817579172551631927e-02
2.532520592212677002e-01
3.095183372497558594e-01
2.153910398483276367e-01
-3.450230881571769714e-02
1.434340626001358032e-01
-2.085493877530097961e-02
5.223637819290161133e-02
-7.137668132781982422e-02
3.894538879394531250e-01
-8.607287704944610596e-02
-3.458029776811599731e-02
7.066653668880462646e-02
1.898321509361267090e-01
4.866666346788406372e-02
-8.984141051769256592e-02
-1.133596897125244141e-01
-5.918763577938079834e-02
-1.302147507667541504e-01
1.792612373828887939e-01
2.715398557484149933e-02
-1.626836210489273071e-01
2.737068235874176025e-01
1.487443149089813232e-01
3.366558626294136047e-02
-9.289754554629325867e-03
3.015419840812683105e-01
1.306965649127960205e-01
-3.487011417746543884e-02
7.262814324349164963e-03
4.133934080600738525e-01
5.805125460028648376e-02
-8.962333202362060547e-02
9.045626223087310791e-02
2.128025144338607788e-01
-1.523988842964172363e-01
9.243932366371154785e-02
3.619306683540344238e-01
2.659152448177337646e-01
-2.465312369167804718e-02
-1.123426407575607300e-01
-3.772788867354393005e-02
-1.306206434965133667e-01
3.821621090173721313e-02
9.277630597352981567e-02
1.885463148355484009e-01
5.176522955298423767e-02
1.833275854587554932e-01
4.298899695277214050e-02
-4.500001668930053711e-02
-1.021273881196975708e-01
-6.432007998228073120e-02
-9.301774948835372925e-02
-8.575385808944702148e-02
-1.877577044069766998e-02
3.362202942371368408e-01
-4.977386817336082458e-02
-3.460149466991424561e-02
1.017754226922988892e-01
1.427693665027618408e-01
-5.469295382499694824e-02
6.504679098725318909e-03
1.403951346874237061e-01
-9.593612700700759888e-02
6.192563846707344055e-02
-8.819930255413055420e-02
-1.475257575511932373e-01
1.120226904749870300e-01
5.402848869562149048e-02
1.138749718666076660e-01
-5.847306549549102783e-02
-8.739928156137466431e-02
-1.321636885404586792e-01
3.906163573265075684e-02
1.770086139440536499e-01
1.200088858604431152e-01
-1.796383112668991089e-01
-1.293612718582153320e-01
6.009066477417945862e-02
-6.658625602722167969e-02
-5.470086336135864258e-01
9.653910994529724121e-03
7.449011504650115967e-02
-1.315785665065050125e-02
2.942124195396900177e-02
6.757479906082153320e-02
1.296161562204360962e-01
4.984407499432563782e-02
-1.107378080487251282e-01
-2.879282832145690918e-02
7.855886220932006836e-02
-3.100250065326690674e-01
3.026430681347846985e-02
-8.710866793990135193e-03
-2.012364417314529419e-01
4.282820504158735275e-03
3.303222358226776123e-02
-8.647738397121429443e-02
-1.392439194023609161e-02
3.273530900478363037e-01
1.597349643707275391e-01
1.092426944524049759e-03
1.275814604014158249e-02
1.888462007045745850e-01
6.474724505096673965e-04
-1.435488611459732056e-01
1.849788278341293335e-01
1.914895176887512207e-01
1.413871645927429199e-01
6.353911757469177246e-02
6.384325772523880005e-02
-8.303621411323547363e-02
-1.911130696535110474e-01
4.617672786116600037e-02
2.541430890560150146e-01
4.315108992159366608e-03
-1.271640807390213013e-01
1.451137661933898926e-01
-1.870442181825637817e-01
4.100310057401657104e-02
5.831712484359741211e-02
3.580703586339950562e-02
1.650979667901992798e-01
1.501209586858749390e-01
-3.523788973689079285e-02
-2.638884447515010834e-02
-5.446380376815795898e-02
1.534973084926605225e-01
-1.328644528985023499e-02
5.637592449784278870e-02
6.519538164138793945e-02
-2.261879295110702515e-02
-2.964162267744541168e-02
-3.715221211314201355e-02
-2.518676817417144775e-01
1.266144961118698120e-01
4.505586251616477966e-02
-4.690154269337654114e-02
-2.730828523635864258e-02
9.507846832275390625e-02
-1.069763377308845520e-01
-8.372868597507476807e-02
1.244121138006448746e-02
-1.189141944050788879e-01
8.995167911052703857e-02
-9.991637617349624634e-02
-8.929306268692016602e-02
-7.595617324113845825e-02
2.873531356453895569e-02
-6.243442744016647339e-02
4.181575030088424683e-02
-1.586624607443809509e-02
9.552025049924850464e-02
-9.284088015556335449e-02
-5.776919052004814148e-02
1.455537825822830200e-01
1.560543030500411987e-01
1.940715499222278595e-02
3.968792408704757690e-02
-4.966942593455314636e-02
-8.489875495433807373e-02
-8.596312254667282104e-02
5.634770169854164124e-02
-1.697093620896339417e-02
1.337327212095260620e-01
3.043791279196739197e-02
1.157160922884941101e-01
-8.280453085899353027e-02
2.638216316699981689e-01
3.010633774101734161e-02
-1.125222072005271912e-01
-6.733523309230804443e-02
5.755808949470520020e-02
-1.371037364006042480e-01
-3.103332221508026123e-01
-1.868409514427185059e-01
-8.746150135993957520e-02
2.341362535953521729e-01
2.904112637042999268e-01
1.528530567884445190e-01
-1.129979044198989868e-01
2.932251244783401489e-02
-2.373085618019104004e-01
-3.698789179325103760e-01
2.474921345710754395e-01
3.703572154045104980e-01
7.165063023567199707e-01
6.703308969736099243e-02
1.653357744216918945e-01
-5.238107591867446899e-02
1.187506690621376038e-01
-3.753837049007415771e-01
-1.375358700752258301e-01
4.125872850418090820e-01
2.248955070972442627e-01
3.557542264461517334e-01
-4.721516072750091553e-01
-3.814155235886573792e-02
1.447509974241256714e-01
1.186774447560310364e-01
-1.687233299016952515e-01
1.130164340138435364e-01
-1.059064269065856934e-01
4.181716442108154297e-01
1.898557394742965698e-01
-7.861816883087158203e-02
-1.622776538133621216e-01
8.178973197937011719e-02
1.919218599796295166e-01
1.244330853223800659e-01
-2.195978611707687378e-01
8.068121671676635742e-01
1.594938188791275024e-01
4.612384364008903503e-02
-7.526406645774841309e-02
1.116512119770050049e-01
2.134719789028167725e-01
-1.036207843571901321e-02
-1.065238751471042633e-02
-3.633455932140350342e-01
-1.916619576513767242e-02
2.458162754774093628e-01
-2.930771708488464355e-01
-8.298819512128829956e-02
1.809701621532440186e-01
1.485697329044342041e-01
2.337648868560791016e-01
1.419703066349029541e-01
5.227478221058845520e-02
2.270711511373519897e-01
4.935947060585021973e-01
6.464085727930068970e-02
-1.614229381084442139e-01
1.308985501527786255e-01
2.889411449432373047e-01
-6.435073167085647583e-02
1.950096637010574341e-01
-5.876990966498851776e-03
-2.112294733524322510e-02
1.330607533454895020e-01
3.691789135336875916e-02
5.559566020965576172e-01
-1.314024776220321655e-01
3.000743687152862549e-01
6.729444861412048340e-02
-1.778449416160583496e-01
1.744106858968734741e-01
7.038003802299499512e-01
-1.882536858320236206e-01
8.404941856861114502e-02
-1.184761449694633484e-01
2.031391710042953491e-01
2.967006266117095947e-01
1.760198920965194702e-02
-9.285171329975128174e-02
1.187299042940139771e-01
-1.646727621555328369e-01
8.860038965940475464e-02
5.753595232963562012e-01
9.743006527423858643e-02
1.367775350809097290e-01
