1.607638970017433167e-02
7.912928611040115356e-02
-2.188805304467678070e-02
1.681478321552276611e-01
1.102223321795463562e-01
9.159612655639648438e-02
9.734208136796951294e-02
4.063311815261840820e-01
6.882743537425994873e-02
7.031781226396560669e-02
1.006928980350494385e-01
2.197455465793609619e-01
-7.986363768577575684e-02
3.170589208602905273e-01
1.147793978452682495e-01
3.944780230522155762e-01
3.357528522610664368e-02
2.099467366933822632e-01
-1.847337745130062103e-02
-1.681591570377349854e-02
1.137550175189971924e-01
8.577374219894409180e-01
1.456124037504196167e-01
-4.880511201918125153e-03
1.563544869422912598e-01
1.882272362709045410e-01
8.276829868555068970e-02
2.365247905254364014e-01
1.369936168193817139e-01
-2.379974126815795898e-01
-5.029215943068265915e-03
1.477968543767929077e-01
1.216074004769325256e-01
1.460620611906051636e-01
3.437181115150451660e-01
5.631424784660339355e-01
-3.971654921770095825e-02
-1.700842082500457764e-01
-9.546611458063125610e-02
-1.727400273084640503e-01
-2.741456329822540283e-01
4.520569741725921631e-02
3.790160119533538818e-01
1.705317571759223938e-02
-1.045131683349609375e-02
1.062238439917564392e-01
2.429519593715667725e-02
1.585633903741836548e-01
1.378026902675628662e-01
2.022903710603713989e-01
1.130003333091735840e-01
4.202291369438171387e-02
3.343310356140136719e-01
-9.766760282218456268e-03
1.423461139202117920e-01
2.532969713211059570e-01
1.416562348604202271e-01
3.331145942211151123e-01
-2.173377424478530884e-01
5.144683271646499634e-02
8.982826024293899536e-02
1.035744138062000275e-02
3.207143843173980713e-01
2.639150619506835938e-01
7.923492230474948883e-03
1.880465000867843628e-01
2.355766594409942627e-01
7.076334953308105469e-02
1.131915450096130371e-01
1.027316376566886902e-01
1.246366873383522034e-01
2.447399795055389404e-01
5.387027263641357422e-01
2.142310291528701782e-01
-9.471350908279418945e-02
1.733201742172241211e-01
3.813652694225311279e-02
2.497379034757614136e-01
-6.119941826909780502e-03
1.830361485481262207e-01
1.933270096778869629e-01
2.672366201877593994e-01
2.224044799804687500e-01
1.961351186037063599e-01
2.401334196329116821e-01
9.141402691602706909e-02
4.963867738842964172e-02
1.951032280921936035e-01
1.523786634206771851e-01
1.524278670549392700e-01
2.097429782152175903e-01
4.467932283878326416e-01
8.248971775174140930e-03
1.042835488915443420e-01
-3.186397626996040344e-02
1.647313833236694336e-01
1.292823441326618195e-02
-2.523602917790412903e-02
3.050863742828369141e-01
3.123336434364318848e-01
4.194591939449310303e-01
2.430689930915832520e-01
1.372201740741729736e-01
-1.190712973475456238e-01
-3.143413364887237549e-02
-2.358565293252468109e-02
3.599317073822021484e-01
-1.217658966779708862e-01
1.257506161928176880e-01
-1.367970462888479233e-02
3.327008336782455444e-02
-9.436869062483310699e-03
-8.467337489128112793e-02
-6.805115938186645508e-02
1.663798391819000244e-01
9.559259563684463501e-02
1.276002526283264160e-01
-1.053835973143577576e-01
2.669679224491119385e-01
-3.107172064483165741e-02
