-1.187548600137233734e-02
3.156247437000274658e-01
-2.979674637317657471e-01
6.582304090261459351e-02
-1.062626913189888000e-01
-5.576685070991516113e-01
-5.494494736194610596e-02
4.602654278278350830e-01
-1.229544170200824738e-02
1.672548614442348480e-02
3.715626299381256104e-01
2.117367386817932129e-01
-2.796228043735027313e-02
-4.053641259670257568e-01
-2.108231335878372192e-01
-3.755768835544586182e-01
-3.729028105735778809e-01
-1.117641851305961609e-01
3.078461587429046631e-01
2.350167930126190186e-01
1.221901550889015198e-01
1.286765336990356445e-01
1.570965796709060669e-01
-1.830490119755268097e-02
-1.012911319732666016e+00
3.270465135574340820e-01
-3.944050073623657227e-01
1.814307123422622681e-01
-1.612121462821960449e-01
-1.703092455863952637e-01
-4.013032913208007812e-01
3.559368848800659180e-02
-1.176765908894594759e-05
1.741540282964706421e-01
6.902907788753509521e-02
-1.915167202241718769e-03
2.844967842102050781e-01
-3.918459713459014893e-01
1.627068221569061279e-01
1.361230611801147461e-01
1.633327305316925049e-01
-1.693790107965469360e-01
1.292096567340195179e-03
-4.614588916301727295e-01
-2.486823648214340210e-01
-2.239245659438893199e-04
-2.662720978260040283e-01
1.778699159622192383e-01
4.299400448799133301e-01
2.151267653971444815e-05
-1.299984008073806763e-01
-1.445497870445251465e-01
9.555509677738882601e-06
5.814022421836853027e-01
-2.676428854465484619e-01
1.694012731313705444e-01
2.291778326034545898e-01
-3.400731384754180908e-01
-2.752448059618473053e-02
1.217435076832771301e-01
7.473034929716959596e-05
1.676394790410995483e-01
8.947302587330341339e-03
-2.078113257884979248e-01
-6.228519082069396973e-01
1.772579997777938843e-01
6.381521373987197876e-02
4.195536077022552490e-01
-7.003314793109893799e-02
-4.277984201908111572e-01
9.079621732234954834e-02
-4.814190417528152466e-02
-3.604515790939331055e-01
-3.299530595541000366e-02
5.363357067108154297e-01
-4.741021692752838135e-01
-2.442937791347503662e-01
-2.224287688732147217e-01
3.988766670227050781e-01
3.209087997674942017e-02
3.458024859428405762e-01
-1.717478930950164795e-01
-1.357037127017974854e-01
-2.255916893482208252e-01
-5.990375205874443054e-02
1.950228512287139893e-01
-4.048639163374900818e-02
-4.122956395149230957e-01
-3.063134104013442993e-02
7.068100571632385254e-02
2.584948241710662842e-01
4.158306866884231567e-02
-2.180050015449523926e-01
9.886377483780961484e-06
-3.757348060607910156e-01
2.314252853393554688e-01
-8.653301000595092773e-02
-2.127789109945297241e-01
2.072078436613082886e-01
9.509857743978500366e-02
6.773515790700912476e-02
-3.029571287333965302e-02
2.976053953170776367e-01
-4.309555888175964355e-01
-2.128022164106369019e-02
1.603754071766161360e-07
1.178899258375167847e-01
4.865953028202056885e-01
-5.182539224624633789e-01
-6.176060438156127930e-01
-9.815249592065811157e-02
1.097107157111167908e-01
1.771509945392608643e-01
-3.568668067455291748e-01
5.223584771156311035e-01
-3.773196076508611441e-04
1.648844033479690552e-01
2.826793491840362549e-01
3.797690942883491516e-02
-5.720368623733520508e-01
-1.692891865968704224e-01
3.643167614936828613e-01
-2.236005216836929321e-01
5.721007008105516434e-03
3.881559371948242188e-01
2.628283761441707611e-02
2.656699120998382568e-01
2.956055104732513428e-02
-7.479517459869384766e-01
5.482293367385864258e-01
-4.596617817878723145e-01
-2.435501962900161743e-01
2.141255289316177368e-01
2.445284575223922729e-01
2.017679959535598755e-01
4.047502297908067703e-03
2.410529702901840210e-01
-3.651358559727668762e-02
-1.504920870065689087e-01
3.162398934364318848e-02
-1.042128726840019226e-01
2.461664676666259766e-01
-5.038914084434509277e-01
1.387690454721450806e-01
-1.583390980958938599e-01
-1.833443343639373779e-02
1.411163210868835449e-01
-1.687181293964385986e-01
-4.004446268081665039e-01
5.935653448104858398e-01
4.489060044288635254e-01
6.992246210575103760e-02
3.245081007480621338e-01
-5.897936224937438965e-01
-3.151312470436096191e-01
-5.917927622795104980e-02
-3.861370682716369629e-01
3.657868206501007080e-01
7.082505524158477783e-02
1.275147646665573120e-01
