//Numpy array shape [96]
//Min -0.940004348755
//Max 1.284704923630
//Number of zeros 0

#ifndef B2_H_
#define B2_H_

#ifndef __SYNTHESIS__
gru_bias_t b2[96];
#else
gru_bias_t b2[96] = {0.1583352238, 0.3148038983, 1.1988480091, 0.3308611214, 0.2578161359, 0.1280743778, 0.1182140931, 0.5241666436, 0.8273749948, 0.6691678762, 0.2392184287, 0.0401172452, 0.3834998608, 0.2377343178, 0.4218954444, 0.6381996870, 0.1864720583, -0.0673643425, 0.0115111945, -0.2586870193, 0.8887419105, 0.4615851343, 1.2847049236, 0.5717933774, 0.3378554583, 0.0582450069, 0.6153697968, 0.0023165585, 0.2278999090, 0.3761531711, 0.0491187721, 0.1599658430, -0.2369816750, -0.3168705404, 0.1416346878, 0.1520774364, -0.1914850622, 0.1344674677, -0.2524959445, 0.6204513907, -0.2739027441, -0.7664754987, -0.2223590761, -0.3379817009, -0.0493735150, 0.0024689368, 0.0362855680, -0.3975933194, -0.1948427856, -0.8118029833, -0.2681525648, -0.3812721968, -0.1827348173, -0.4299461544, -0.2577533424, -0.6708390713, -0.5463328362, -0.3039855063, 0.1664827913, 0.1001143903, 0.1678603441, -0.9400043488, -0.4702156186, -0.0769084245, 0.1672476083, -0.0097063212, -0.0301381238, 0.1115010306, 0.1137815490, -0.0651598647, -0.1797723025, -0.0877709687, 0.1873308271, -0.0048999591, -0.0578909218, 0.0302930716, -0.1162227243, -0.0900554284, -0.0321845710, 0.0597767420, 0.0554851070, -0.0164975282, -0.0759939328, -0.0920915827, -0.0940830857, -0.0413254611, -0.0350692347, 0.0506078191, 0.0605970100, 0.0313034579, -0.0890224501, 0.0126702348, 0.0651748329, -0.0369309522, 0.0383642092, -0.0328720659};

#endif

#endif
