0.49079454
-1.1204377
-0.05260832
-0.8369264
-0.81829536
-0.4388269
-0.46971446
0.14766112
-0.84481555
-0.67776597
0.6705533
-0.47943744
-0.038564034
0.26002622
0.2573019
0.45823693
-0.08165285
-0.34071475
0.041604195
-0.05382605
-0.13324499
-0.5730991
0.2744942
0.74983984
-0.22305833
0.07911708
-0.23695965
-0.11448637
-0.010607675
0.6335583
-0.35775453
0.43801677
-0.33729804
-0.24223505
-0.060303204
-0.25241497
0.007965456
0.3513764
0.010348047
0.16588834
0.09114235
0.15024075
0.35047176
0.13349798
0.1060501
-0.32065848
0.52214766
-0.18792094
0.2582117
0.1838337
1.2182579
-0.015210399
0.7681601
-0.79646283
0.7293841
0.39535952
-0.40275994
-0.6872103
0.137194
-0.28878012
0.95356584
-0.19804148
-0.65389705
-0.072969764
0.3151063
0.29015675
-1.0061733
-0.1018375
-0.033325396
-0.21401134
0.28664112
-0.548067
0.12530339
-0.1900766
0.15848349
-0.030639192
-0.19498587
-1.1718345
0.45169282
-0.0041964906
0.6005447
0.13743787
0.06899128
-0.7770352
-0.6464598
-0.575887
-0.62569237
1.1274576
-0.5575256
-0.05821743
0.43531495
-0.026248686
-0.045722526
0.41186163
-0.21249785
1.2191914
1.2818205
-1.4228718
-0.25928265
-0.12775852
0.4932035
0.37864703
0.6306413
0.68447685
-0.63915145
-1.4256307
0.44795385
0.1404975
-0.30027977
-0.10291381
0.44849744
0.2758428
-0.6769968
0.8687383
-0.91766906
0.0958371
0.11421581
-0.39032334
0.45530736
-0.63827866
0.4321108
-0.2893933
0.07791508
0.07583688
0.21857297
0.010566505
-0.14959238
-0.1140381
0.043568913
0.039440148
-0.29956776
0.23810719
0.23823132
0.023348676
0.002304778
0.86127627
0.11083336
0.08283857
-0.34784424
0.34320635
0.36009532
0.09714837
0.544096
-0.15847474
-0.03267089
0.1717378
0.09231369
0.15576012
-0.20114757
0.26200747
0.06598676
0.47334096
0.24479216
0.4518084
-0.13336875
0.23937427
0.014790078
0.24712491
0.11274322
0.2104909
0.17957893
-0.1364594
0.45275405
0.11879999
0.15781671
0.025164498
-0.458249
0.10773975
-0.17078504
-0.1256089
-0.19250403
0.18898112
0.014742893
-0.056558054
-0.14969265
-0.016776428
0.1458448
-0.1253662
-0.55007446
0.035739806
-1.1724703
-0.057895444
0.21964732
0.66156673
0.006820461
0.05126331
0.07543448
0.24958992
-0.6517129
-0.19343929
0.09701617
-0.12971243
-0.1913624
0.05346206
-0.0045192996
0.16019697
0.31613633
0.17121902
0.01251329
0.15145327
-0.39039785
-0.088374436
-0.24978118
-0.568187
0.040054467
0.17964959
0.2017731
0.24266495
0.09622137
0.13878
0.8597135
-0.1666285
0.3581806
-0.07882002
-0.4064264
0.07559704
-0.29575086
-0.051495444
0.081317686
0.08501288
0.6656501
-0.18390155
-0.081922404
-0.09084073
-0.004611511
-0.0925707
-0.10478191
0.25972813
0.4354425
0.30303842
0.17322943
0.057090882
0.48477024
0.08189644
0.08282864
-0.042123675
-0.24333604
0.43738207
-0.6493342
0.055853806
-0.39475423
-1.2026533
0.043121446
-0.043069623
1.0404763
1.9648514
0.2750978
-0.49151313
0.22449416
0.15708655
-0.048310716
0.3573401
-1.891796
0.2752181
-0.33098528
0.115680255
-0.85004336
0.66729045
0.1655017
0.26009074
0.8293879
-0.2543346
-0.30544588
1.1330056
-0.081547596
-0.8272137
-0.33251482
-0.8439085
-0.61138433
0.52821344
0.08251089
-0.030367387
-0.4257275
0.92086494
-0.88670385
-0.060542658
-0.88686466
0.28651133
-0.072256126
-0.39150983
0.26320398
-0.630711
0.18171431
-0.12972212
-0.38843766
0.11795727
0.04572371
-0.28212878
-1.1478105
-0.06545374
1.2653464
0.6091734
0.56536555
1.1499156
1.4718084
0.27050358
-0.062696315
1.1102455
0.22840083
-0.099374585
0.94213814
0.5278157
0.09562477
0.6700066
-0.9049977
-0.18477418
1.0573306
-0.024576264
0.13896425
0.18758957
-1.9150863
0.10987313
0.3343236
0.0004948095
0.2607168
-0.6181075
0.2614554
0.23520483
0.253428
-1.1966382
0.44378152
-0.38749894
0.005380969
0.21743569
-0.2922811
-0.0028058938
-0.7498146
-0.9978869
-1.1873988
0.02123621
-0.044650488
0.60520935
-0.4514958
-1.9182914
0.092021756
0.5466629
-0.7450927
-0.11140944
0.3137622
0.99958295
-0.022252588
0.101544075
0.04347243
0.22989951
0.14691256
0.5062298
0.2782353
-0.52337575
-0.2568015
-0.42061958
-0.075692154
-0.03201657
-0.53169787
-2.84874
-0.13926025
-0.3500069
-1.1683674
0.72416013
-0.096424505
0.37780514
0.5224223
-0.065706946
-0.878361
0.04291351
-0.6896387
1.0970895
-0.78366417
0.96924514
-0.52198654
-0.7210296
0.49844414
0.07750784
1.4984933
-0.0032454524
0.45841205
0.21976514
0.7729461
0.8539053
-0.17103016
-0.3372829
0.22281763
0.5821473
-0.110163935
0.0032379222
0.067032434
-0.7197956
0.0799879
-0.11297542
-0.23934677
0.45634136
-0.67494017
0.27784577
0.1315697
-0.5365347
-0.9504231
0.069649
-0.4667156
0.14863458
-0.49009365
0.12501529
0.0036706633
0.5263868
-0.16588584
0.16207503
0.08765954
0.07607915
0.11035297
0.12354599
-0.29094237
0.023906497
-0.30499655
-0.41658276
0.09581469
0.0008090544
-0.586586
-0.5913352
-0.083340354
0.39729437
0.052926037
0.24292281
-0.06955042
0.063748814
-0.135788
-0.03849993
-0.934404
-0.19630983
0.17291589
-0.13327007
-0.09629048
-0.9048078
0.19892283
-0.0045420937
-0.38205498
-0.11169863
-0.5577134
0.22638063
-0.18022008
0.15293096
-0.036553916
0.6806078
0.34760922
-0.78046936
0.13216622
-0.04191968
0.13055253
-0.91085577
-0.63078225
-0.10833373
-0.2527374
0.08318595
-0.7468246
-0.6417268
-0.40888077
-0.21270032
-0.041266203
0.8483763
-0.27969047
-0.12574562
0.3069654
0.09084021
0.51674277
0.30378535
0.19667177
-0.07090055
0.3172628
-0.6446353
0.03800548
0.21748663
-0.41925243
0.8033949
-0.06270392
-0.20077859
-0.11642094
0.5044032
0.20359494
0.53678894
-0.099860124
0.16984597
-0.20320961
-0.08185341
0.38426185
-0.808004
-0.15241025
-0.05717062
0.4596069
0.5872524
0.3254664
-0.036630742
0.2977432
0.099863276
0.45095047
-0.20113267
0.037109982
0.17555422
0.27232483
-0.8470444
0.11198959
-0.48549917
0.57574636
-0.2774339
0.5279131
-0.53406686
0.56625897
0.5330168
-0.7117153
0.4972278
-0.3034893
0.44090694
0.12408291
0.10896617
-0.17932738
0.55419534
-0.76736844
0.46450272
-0.06608587
-0.62228936
0.029060962
-0.37613985
-0.76772106
-0.23944297
-0.32732072
0.29323515
0.11401945
-0.06163402
0.009344165
-0.072646625
-0.5982446
0.3297372
-0.023156228
-0.39043954
-0.27165842
-0.24761313
0.5783708
-0.5495178
-0.39144066
-0.012095241
0.2898517
-0.13231671
0.4551724
-0.17100342
-0.5252173
0.20356232
-0.46663544
-0.41124928
0.2155344
0.2807188
-0.094819434
-0.12225831
-0.013062999
0.6547769
-0.095215745
-0.41200542
0.07874801
-0.5842018
-0.41809586
-0.42565018
0.14379613
-0.21365061
0.52928615
0.6465175
0.6252985
-0.044071786
-0.50501555
-0.21024817
0.027453806
0.23140967
-0.31349137
0.74734515
0.49047625
0.4269685
-0.25392574
-1.0271052
0.63023514
-0.51596665
-0.36745852
-0.42941803
-0.13172817
-0.057578575
0.19655168
-0.30195835
-0.9920743
0.30832988
-0.3454835
0.525688
-0.27493387
-0.03781882
0.015674267
0.15904813
0.11926229
-0.12144804
-0.4557038
-0.8151081
-0.567527
-0.64632213
-0.05101755
0.3972229
0.08360036
-0.4056666
-0.74074787
0.46097687
-0.10311026
-0.2942643
0.014920641
0.49851927
-0.18883823
-0.1313752
-0.057018965
-0.5191996
0.18107028
-0.01557003
-0.26844603
-0.14088228
0.13599883
0.09871322
0.124989524
-0.20278946
0.0034430702
-0.3139172
0.15314431
0.019379355
0.19222
0.47394213
-0.36863336
0.18054253
0.00519243
0.6135909
-0.12515546
0.059061196
-0.19704044
0.30568063
0.21833484
0.31045505
-0.23643397
0.22974843
0.26488072
-0.07015714
-0.097103804
-0.043872505
-0.3514572
-0.6952174
-0.36674222
-0.19737138
-0.42729294
-0.32285303
0.258359
0.18482642
0.015716376
-0.066023245
-0.15579326
-0.38948086
-0.15509939
0.07837346
-0.27551892
0.03961424
0.07158846
0.6897606
0.19930734
-0.010357842
-0.33755556
0.21727824
-0.70709616
0.010541358
0.26202464
-0.40141317
0.2947361
0.75570965
-0.23839268
-0.093832806
-0.2886766
0.26962328
-0.0067432933
-0.682127
0.3372256
0.30886376
0.13171166
0.51246387
0.2384987
0.59058815
0.4074263
0.6761807
0.6008541
-0.08903313
0.15612891
-0.21271197
0.11694281
0.294066
-0.37381762
-0.16613197
-0.2619239
0.24466039
0.0652845
-0.024338424
0.015479719
0.07453443
0.16493209
0.065311685
-0.23920925
0.06597261
-0.028692082
0.16904177
0.5664722
0.1878925
0.2382725
-0.3312572
0.20647573
-0.40825462
0.4288078
-0.44014207
-0.49198812
-0.7815194
-0.55568284
-0.45123136
-0.11267284
0.010265078
0.3927001
0.22783986
-0.26762846
-0.46165478
-0.20044664
-0.23617385
-0.13602395
0.23711132
0.4883169
-0.16843322
-0.22203773
0.5119108
-0.21420316
-0.5935959
-0.08803301
0.12521818
0.17233387
0.2938387
0.8516886
-0.24550712
0.22195634
0.06584716
0.5023338
-0.2124378
-0.5878315
-0.042292286
0.61428154
2.094003
0.08448853
0.115086354
-0.44503254
0.3618902
1.1704924
-0.6062873
0.30052066
0.03173997
0.3087009
0.9973829
-0.059772056
0.28678915
-0.28024969
-0.32216322
-0.100255
-0.5763444
0.07967506
0.0660971
0.2352729
-0.3809145
-0.15539959
-1.9916062
1.4072927
0.7550875
0.24588431
-2.213532
-0.15496072
0.25265315
0.25510812
-0.9112171
-0.5638919
-1.134893
0.24167198
-0.47638878
-0.08891829
0.028368942
0.1940128
-0.5683546
-0.49880263
-0.51990986
-0.22226343
0.30899245
0.2385076
0.2192803
-0.29911643
-0.19277377
-0.4388705
0.04232396
0.2072116
-0.22758125
-0.44537994
0.013945317
0.050705712
0.6523255
-0.08880247
-0.20202847
0.81974036
0.09652174
-0.2550224
0.3398283
1.567713
0.11961388
0.14427282
0.05325267
0.084183976
-0.8251167
1.3604425
-1.4387146
0.44632554
0.43749073
0.32738256
-0.48325798
-0.1904228
0.05590651
0.057618756
0.07817435
-0.6071365
-0.10331317
-0.48739386
0.32022935
-0.27939722
-0.15244527
-1.0747424
-0.23288973
-0.25809166
-0.51034766
0.20593427
0.7513615
0.3797489
0.83998704
0.50529027
0.3505898
-0.4141679
0.11765456
-0.030821208
0.4724154
-0.28099388
0.2558218
0.3902024
0.28135154
-0.06263931
0.44959053
0.040198397
0.2392595
0.16301489
-0.38830307
-0.64587325
-0.046822567
0.2563513
0.11876068
-0.30050516
-0.37788686
-0.57286716
-0.52017546
-0.14699456
0.13057844
-0.2864575
-0.20440064
-0.4364075
0.8312275
0.3931357
0.69179577
0.09455159
1.2055876
-0.7759031
0.10287236
0.027329922
0.03322339
0.40595186
-0.53642875
0.03547245
-0.11309337
-0.17364183
-0.30940497
0.33346385
0.5845856
-0.45598188
0.14295839
0.33158407
0.4380897
-0.21655892
0.31402308
0.07886101
-0.096124865
0.7779212
0.26957276
-0.37267378
0.09583297
0.8203854
-0.31387857
-0.29679018
0.20107889
-0.7242562
0.8789549
-0.06897158
0.29088232
0.07722167
-0.89420664
-0.22229394
-0.5758761
0.010171379
-0.6081009
0.06755592
-0.2027721
0.48400658
-0.22394206
-0.068777576
0.41399002
-0.34606218
0.43524846
0.12358254
0.18491466
0.38240913
0.36781982
-0.060887538
-0.774691
-0.6534702
0.32404637
-0.82777464
-0.36529604
0.19220382
0.085547216
0.45976108
-0.10732723
-0.030356105
0.7156175
-0.35341159
0.8392519
-0.5825373
0.3335395
0.5255919
-0.5086367
-0.059317347
-0.038882777
-0.35186157
0.26888746
0.7339318
0.47559384
0.17415693
-0.060281724
-0.18275505
-0.051235065
0.10771131
0.3753827
-0.4100377
-0.49145538
-0.2157608
-0.9056439
0.0936069
0.19386686
-0.14648603
-0.114645794
0.15981793
-0.6445317
0.3444675
0.07156762
0.59442973
0.057560887
0.042275235
-0.9423642
0.88680595
-0.015313088
-0.22505985
0.3227503
-0.5060131
0.26492915
0.071511365
0.38873833
0.76219857
0.44503734
0.82912743
-0.27219757
-0.19559164
-0.40141693
-0.08876309
0.20568232
-1.0803533
0.3820599
0.055046204
0.29030895
0.053000074
-0.26354507
-0.44449556
-0.051498044
0.29097602
-0.15118693
0.07934767
0.19918959
0.48616827
-0.26425627
0.59496665
-0.20338348
-0.102695785
0.6934589
0.06806902
-0.15946054
-0.43287688
0.5492144
0.4118008
0.35893667
0.6025701
0.4613759
0.4498465
-0.16103515
0.13810736
0.4570171
-0.055902474
-0.1955113
-0.22516476
-0.22681895
-0.2094917
0.46390808
-0.31515938
-0.36451778
-0.19027282
-1.1212977
-0.44862318
0.038322937
-0.35922801
-0.066526815
0.3793799
-0.65840673
0.2507592
-0.19557938
-0.2352666
-0.09083484
0.3187008
0.21517973
0.23958711
0.3114535
0.09023141
-0.13310228
-0.4719319
0.75349534
0.16500326
0.14067355
0.019452667
1.0306939
0.064020105
-0.9929296
0.18108432
0.2166323
0.43378356
-0.5232127
-0.9085244
0.07597007
0.1526159
0.13867491
0.40998453
-0.5277415
0.064614095
1.1062427
0.0037866498
0.001498228
0.3038643
-0.048907448
0.15511267
-0.17622091
0.38237157
-0.26087904
-0.070243515
-0.27635625
0.17106108
0.36824495
0.88381904
-1.0341501
-0.8438138
0.3077602
-0.004316576
0.6783605
-1.0525975
0.9106788
-0.009903931
0.22388117
-0.17308436
-0.8345343
0.3804512
0.104811706
-0.3453135
0.34767506
-0.27732798
-0.11091655
0.62129134
-0.17594662
0.31250224
-0.05390386
-0.17116763
0.2365325
0.25937808
-0.117867775
-0.28069633
-0.106648825
-0.056801356
0.2514274
-0.34635612
-0.010829538
0.0801589
0.628442
-0.007678609
-0.09429647
-0.1217226
0.21446916
0.102158554
1.0691578
0.32625383
0.44229028
-0.0491572
-1.0749459
0.18734795
-0.47395617
-0.82516795
0.057096407
0.38494644
0.68668705
0.0022519883
0.022518195
-0.22350764
0.21799293
0.46843874
0.38169512
0.27731866
-0.26201087
-0.13432378
0.20575924
0.23686929
-0.41518825
-0.38626772
-0.09768829
-0.19721213
0.25309098
0.15169522
0.1364033
0.2680443
-0.018825794
0.18499905
0.2251027
0.45364946
-0.1320264
0.5451405
-0.8760044
0.1036056
0.4115149
-0.05672186
0.24530087
-0.11768965
-0.47828406
-0.23277
-0.38893577
0.07738729
-0.004656388
0.18829964
0.19164453
0.109727904
-0.6056024
0.59092987
-0.37142622
0.26291555
0.05158293
0.6159732
-0.23889814
-0.20243585
0.16782132
-0.17427963
0.3892138
-0.14240451
0.07094267
0.20409542
-0.36221603
-0.49682757
0.5748146
0.19528525
0.045578923
-0.10823277
0.3622766
0.58956546
0.17238589
-0.134718
-0.48252454
-0.12522654
-0.26045063
-0.059179045
-0.09668499
-0.02023945
-0.63106734
0.2557794
-0.10558042
0.24840705
0.4118767
-0.061934564
-0.5037415
0.21555725
-0.6603339
0.49906734
-0.063853584
0.76600456
0.9778543
0.31810334
-0.43947598
-0.88237786
-0.18270148
0.21760617
0.67978597
-0.68021804
0.05814856
0.4582988
-0.271247
-0.27789125
-0.21075797
-0.08043918
1.4758285
-0.31712642
-0.07280815
-0.05422469
-0.0015383847
0.046121385
0.274619
0.84373283
1.2496897
-0.96189785
-0.39314643
-1.4855213
0.42302385
0.6105162
-0.81321555
-0.32289186
-0.3371094
-0.059374366
2.5260904
-0.240412
0.11104119
-0.15673856
0.50874436
0.20391783
1.0776455
-0.06403762
-0.3244144
0.66320026
0.039741367
1.2469287
0.5402453
0.81485444
-0.16048612
-0.33556357
-0.340683
-0.2630466
0.034219824
-0.5233141
-0.06700073
-0.628591
-0.0148246605
-0.39961922
-0.07590933
0.40540305
0.2762511
0.2797322
-0.65861195
-0.9035897
-0.2610286
0.10616282
2.0432763
0.052797757
0.8794251
-0.097233154
-0.5367472
0.30836958
-0.0016361731
0.1895199
-0.14198112
-0.48739377
0.015982917
0.07594727
-0.040821724
0.22442544
0.09183144
0.13857123
0.3354173
-0.1383435
0.20302512
0.4152748
-0.69107926
-0.24472189
0.6419006
0.24507241
-0.095671095
-0.10750349
-0.3742553
-0.074779294
-0.01476968
0.6004823
0.9158148
0.048542395
0.0013528039
-0.1265255
-0.10328289
-0.08288476
0.15210469
-0.08823118
0.12283196
0.32224283
-0.029548043
-0.015813876
0.040002696
0.012944963
-0.19141386
-0.49413958
0.039361365
-1.0364293
0.03574197
-0.3946837
-1.5643328
-0.05932695
-0.79836404
-0.0758296
0.54182416
0.026832702
0.53639376
-0.15020642
0.11028541
-0.18362287
-0.8072207
-1.1378819
-0.1023041
-0.94903475
1.0036639
-0.23245712
-0.09666125
-0.891822
0.37513328
0.4911063
0.07912738
0.8772037
0.18530616
0.103470065
0.33819726
-0.3357095
0.48006842
-1.0229677
-0.0043026
0.8323826
1.0719376
0.007374795
-0.06429819
-0.2195042
-0.6128901
-0.24247362
0.3315978
-0.29161254
0.40002072
-0.13151176
0.75985444
0.32380402
0.14367501
0.30603307
-0.3668245
0.14226915
-0.15880395
0.6695225
-0.8832782
0.66208524
-0.67898184
0.052208025
0.4003803
-0.4490854
0.16653459
-0.49620786
0.124781646
-0.59031063
-0.39849353
-0.44161344
0.37506023
-0.13282277
0.17764841
-0.44577172
-0.39891657
0.24759986
-1.3109959
-0.15408811
-0.47435418
0.16465598
0.10891423
0.004396119
-0.17666867
-0.01869368
0.06188774
0.6194419
0.14711247
0.30892432
-0.4127079
-0.053857647
-0.5982265
-1.0105523
0.34953833
0.35802427
0.22624838
-0.5434033
0.27875417
-0.5817397
0.87609875
-0.7983308
-0.69580585
0.3419888
-0.10673259
-0.010699964
0.29317102
-0.4595944
0.24416709
-0.0043522427
-0.38439873
-0.3050548
0.8015899
0.6178646
0.042185128
-0.22038837
-0.40976542
0.22706452
0.11576705
-0.15854387
0.53651404
0.2858172
0.27986938
0.22150661
-0.32443696
-0.05925678
0.20963763
0.5599665
-0.023547156
0.13563803
-0.40354556
0.3622434
0.9893279
-0.0030752707
0.064592585
1.0397482
0.38314202
-0.070821345
1.1980453
0.3316359
0.3752381
0.0043579596
-0.10688871
0.36524487
-0.21528135
-0.43348244
0.81949234
-0.38373467
-0.6371972
0.40320176
0.46731183
0.63752794
0.2502554
-0.23411582
-0.075700186
-0.57228345
-0.39861837
0.1426512
0.3748608
-0.6837153
-0.2269546
-0.13712475
0.32898352
-0.01613314
-0.48710877
-0.28036356
0.37539944
0.7525623
0.00306156
0.0028116875
-0.25412586
-0.09564827
0.30788678
-0.12033925
-0.13391677
-0.55484045
-0.046837397
-0.13350508
0.13440326
0.090690866
-0.116505764
0.07093983
0.320404
0.25899345
-0.7195141
0.029668408
-0.27741978
-0.4015502
0.36215147
-0.30578426
-0.0108301705
0.090284
0.4788749
-0.3666931
-0.5435032
0.37375757
-0.614354
-0.24358077
0.599379
0.5145783
-0.24834934
0.38141668
0.24958614
0.43101963
0.3084549
0.102118246
0.087120675
0.34306702
0.009084523
0.82712036
0.43743283
0.088705085
0.20424266
0.37438762
-0.18436313
-0.50493133
0.23897673
0.40462288
-0.055806108
0.29473507
0.15683046
0.6428308
-0.2377009
-0.18609592
0.4833625
-0.34871888
0.08432626
0.06354092
-0.15750276
-0.2746659
0.61176723
-0.3450581
0.22688088
0.28580493
0.58228654
0.079726525
0.46347898
0.10784586
0.5112874
0.6503189
-0.12269992
0.11614848
0.25329497
-0.40453923
0.22288297
-0.36930126
0.12130575
-0.02416772
0.6057802
0.20311326
-0.29831302
-0.17628756
-0.31821126
0.12936108
0.7955731
0.13691169
0.06306401
-0.48436472
0.14541988
-0.15917684
-0.60111016
-0.044779036
0.41060725
-0.21093372
0.18478957
0.47147262
0.3713871
0.12321501
0.60734695
0.30392474
-0.12535387
0.4763404
-0.14783959
-0.030594626
0.1470228
-0.21416311
0.17653736
-0.014764957
-0.13414137
-0.17054473
-0.012328174
-0.32181573
-0.39294654
0.10639274
-0.005683718
-0.015853165
0.7278048
-0.4150738
0.18137486
-0.015076793
-0.25890493
-0.62165046
-0.25400877
0.24004298
0.026756002
-0.052331146
0.16906245
-0.18996659
0.66456723
0.3268935
0.15390593
0.24282244
0.12149161
0.48373488
0.22771253
-0.19422585
0.108154245
0.7159543
-0.0841081
0.44385105
0.31841773
-0.030714953
0.25969076
0.35365552
-0.0065209847
0.12148425
-0.0017919262
0.05211128
-0.02573947
0.17147683
-0.30619675
-0.14436105
0.009068437
0.04410162
-0.20380616
-0.03757327
-0.9458233
0.61176926
0.07245175
0.12669618
0.1791952
-0.04752974
0.32549208
0.023322083
-0.062508106
0.58656234
-0.36297464
-0.1293142
-0.12851037
-0.07419515
-0.74711883
0.050334737
0.015767746
-0.18481073
0.16551541
0.18866752
-0.24392065
-0.23753764
-0.3325914
0.15490095
-0.33832136
-0.2615729
-0.4403708
0.028742453
-0.084706284
-0.21808714
-0.29180276
-0.016268395
-0.012628873
0.17572317
-0.0804378
-0.039059278
-0.6319912
-0.015395451
-0.12059875
0.31878686
0.09745703
-0.16344757
0.08947952
-0.1383006
-0.7629636
0.24010365
0.050873205
0.07281112
-0.046550147
-0.12602274
-0.017175548
-0.14129058
0.18710841
-0.50234646
0.13883813
0.015820215
-0.31379503
0.6297447
0.7317942
0.175867
0.5562339
0.22624145
0.3201376
0.37021032
-0.03453588
0.14717926
0.29114875
-0.57167256
0.15697542
0.5504094
-0.11540413
0.37398455
0.015677782
0.66298574
-0.10392051
-0.78954124
2.7860353
-0.41973332
0.2976911
0.24842018
0.89772815
1.5309367
-0.0058531715
-0.3734363
-0.01510498
0.21593468
0.44200194
0.114821255
1.023304
-1.0627493
-0.7387976
0.14749835
0.5429014
-0.6198706
0.5548513
-0.262807
-0.5331823
-0.18813609
-3.5630527
2.4949093
-0.5091106
0.18231396
-3.1387658
0.07809409
-0.62391096
-0.633234
-1.0396285
-0.2496343
-2.7409801
-0.23277871
0.05770211
0.12967323
-0.07860843
0.3131842
0.22893016
0.7263116
-0.9989763
0.70331126
-0.3722881
-0.5176598
0.97819394
0.0032246043
0.13215068
0.03303
0.10201748
0.82208943
-0.027978105
0.45879117
-0.3036323
0.60290855
0.3342061
0.049115732
-0.22887924
1.5499723
-0.5352275
0.18732078
-0.16163206
1.2555094
0.8736383
-0.2160841
-0.0768273
-0.18603617
0.2083017
1.1905165
-0.9913475
-0.602446
-0.122273184
0.68854344
0.40079746
0.43642506
0.013562862
-0.049304012
-0.07485695
0.37799883
0.11881694
0.6910322
-0.28950366
0.162903
-0.09896748
0.17962457
-0.48678467
-0.012290932
0.43130454
0.45097175
0.6966684
0.32080156
0.9026951
0.6629726
0.9242418
0.13783595
-0.005611288
0.1610814
0.15480043
-0.62725097
-0.002008936
-0.10425723
0.022985565
0.27866805
0.10267909
-0.033154402
-0.14474817
-0.41692382
0.40504044
0.41279468
-0.005784786
0.07346269
0.53049034
0.02936493
-0.10068726
-0.1650291
-0.119070284
-0.4643979
0.12341033
0.15686539
-0.9948355
-0.14371467
0.9498849
-0.4095451
-0.82197726
-0.01709023
1.1963961
0.73384464
-0.33326733
0.17331071
0.021148672
-0.23095438
-0.04234462
0.19501042
-0.6587029
-0.09426808
0.6289604
-0.7311875
1.0152442
0.2533955
0.2605938
0.032014072
-0.3885516
0.09337882
-0.12435227
0.6591052
-0.79957587
0.11681762
-0.26755834
0.0004497442
0.31829545
0.46030942
-0.3975775
-0.37023592
-0.15060486
0.5924056
-0.12579884
0.16169186
-0.26049256
0.06892265
-0.030887233
-0.21868414
-0.3385342
-0.56622493
0.20337683
-0.01611022
-0.10428094
0.08287916
0.104264006
0.37923205
-0.14797391
0.44474038
-0.1931013
0.020632192
-0.092154495
-0.27581868
-0.021074446
-0.01745069
-0.4279346
0.4890087
-0.20184533
0.16194317
0.40694958
0.41124234
0.15745091
-0.72002906
0.0064193327
0.1431754
-0.6577958
-0.4551291
-0.42063227
0.14972097
0.26715726
0.8887337
0.2558116
-0.50645643
-0.53406936
0.08401192
-0.23376985
-0.7067057
-0.73172945
0.5581079
0.0007190147
0.059457246
-0.09507011
0.15658596
-0.5270872
0.4752935
0.3884121
0.08573331
-0.7857177
0.2332299
0.094573684
-0.05998733
0.07459712
-0.26232612
-0.07933119
-0.15657818
0.6310424
-0.24402067
0.48337543
0.34662625
0.23644
0.91399103
-0.33506462
0.1715738
0.43347466
-0.20563722
0.14763239
-0.8187399
0.501474
0.46495867
0.25756478
0.12960939
-0.111867465
0.2156365
-0.6839466
-0.31420574
-0.40958792
-0.06551792
-1.030343
0.13366838
-0.1941828
-0.17114417
-0.2364018
-0.31734815
0.035807747
-0.33890805
-0.35884392
-0.43654513
0.48213002
-0.39412227
-0.45268187
-0.23983203
-0.38331205
0.6482859
0.4267583
0.86643755
0.4127818
0.34776187
-0.7401377
0.96938246
-0.40950906
0.5246041
0.20734733
0.0031596462
-0.42114618
-0.44555494
-0.09320254
0.29162928
0.7739251
0.2554931
-0.2773819
0.07153282
0.01444746
-0.14265403
-1.0018011
0.40077323
0.3439164
0.33290312
0.32710204
-0.1832197
0.31542063
0.48138243
-0.55776864
0.5172553
1.0297573
0.9177683
-0.30886766
-0.6373659
0.0027488868
0.5067023
-0.24651931
0.03414155
0.5528185
0.00035980623
0.63590026
0.7630464
-0.61425436
0.26626086
-0.00075087254
-0.098766804
-0.13216834
-0.40412813
-0.2822869
-0.34698755
0.45366654
0.43205985
-0.49324182
0.4592653
0.49629042
-0.53223526
-0.778506
0.5768854
-0.16821605
0.24859022
0.4790578
0.018519305
-0.13728338
-0.314682
-0.07279185
-0.14662024
-0.3093858
-0.14269078
-0.6172857
-0.32714236
-0.14776148
-0.38967603
-0.6269161
-0.13493788
0.85567844
-0.055462513
-0.20469491
-0.3616181
0.42981336
0.3411346
-0.28322226
-0.37528777
-0.78420234
-0.5457338
-0.082726374
0.735054
-0.50769365
-0.40378958
-0.23350312
-0.31877387
-0.3538392
-0.5508739
0.28860092
0.06321538
-0.84846234
-0.3284528
-0.054421276
-0.63259804
-0.60792595
-0.46198258
0.08506187
-0.1291031
-0.0023692055
0.26543084
-0.008926448
-0.3714459
-0.1017737
0.2218794
-0.26492068
-0.21340512
0.33751184
0.07298814
0.2759386
-0.5561643
-0.4381721
-0.634151
-0.07600954
-0.92947644
0.06895342
0.055020228
-0.76621854
0.17964657
0.29325053
-0.3414195
-0.220635
-0.013251801
-0.13360162
-0.020547984
-0.35720134
0.28353825
0.15093894
0.09575066
-0.16428818
-0.3210061
-0.70633036
-0.45159572
-0.41627327
0.21328096
-0.33931717
-0.33906496
-0.35673445
-0.17066571
-0.27126378
-0.17371282
-0.80380607
-0.91005397
-0.46182472
-0.42363957
0.23462027
0.77639216
-0.13420601
0.027240776
-0.032396395
0.27909133
0.008345269
-0.091071896
-0.1016908
-0.08920038
0.028432993
0.2233695
0.18427551
0.80576754
-0.21944565
0.09657099
-0.07219329
-0.7360784
0.07253005
-0.09121396
0.5248465
-0.05899527
-0.15620527
0.24448258
-0.6950348
-0.47451222
0.40422925
-0.071082436
0.07567672
-0.21532094
0.295199
0.757621
-0.13002895
0.56718034
-0.47946504
0.22126599
0.32380155
0.5092526
0.5741919
-0.022987003
0.27185613
0.50689125
0.17541787
0.19058505
0.27085546
0.06827977
-0.17843369
-0.1729258
-0.23117854
0.21866219
-0.39831167
-0.3319479
-0.46858037
0.56639564
0.13930671
0.7398021
0.22180897
-0.04420547
-0.24418388
0.38933212
0.547589
0.0916619
-0.020177316
0.15906315
-0.12882115
0.011212805
-0.78634304
0.41348636
-0.0024086512
-0.13561828
0.37436867
-0.48203993
0.5016145
-0.1413793
-0.43905362
0.21358444
-0.10531
0.15494698
0.04154543
-0.109136134
-0.052503075
0.33073255
-0.47869194
0.4863063
0.121807784
-0.45536706
-0.0947747
0.3117585
0.27713335
0.21066369
0.12388529
0.55457264
-0.06387753
0.0022319683
0.093359105
-0.058538433
-0.113991864
-0.6289427
0.6679182
0.12331633
0.045188263
-0.27036294
-0.37537745
-0.34427756
0.17121474
0.345118
-0.49064055
-0.22446884
0.66757435
-0.1253034
-0.1492511
0.3619606
-0.3301788
-0.13908342
-0.02012322
0.38213986
-0.10688538
-0.6002588
0.025617877
-0.25676987
-0.46808317
-0.6717599
0.09694349
-0.47703502
0.10050818
-0.2566722
-0.5904863
-0.35305202
0.2577149
0.33050746
0.107005
-0.3496701
-0.30668646
-0.10170339
-0.4737651
0.4279275
-0.08927465
0.083822854
0.07686021
0.2718634
0.59595984
-0.3474767
0.015444399
0.45363984
-0.09875365
0.29583734
0.3005078
0.281101
0.5604471
0.20115599
0.083140135
0.5469273
-0.124425456
-0.19550441
0.26331833
-0.13008091
0.5086121
-0.21186066
0.38199598
0.26390168
0.11084592
0.10757302
0.41520298
0.3678344
-0.16584519
-0.5290712
-0.5176609
-0.8414964
0.2500135
-0.20782936
-0.0059462856
0.3541564
0.2604982
-0.44152936
-0.036713127
-0.71680766
0.11482863
0.083252326
-0.06797909
-0.26322958
-0.2217035
0.10277501
0.13376276
-0.21533671
-0.34882903
-0.37178457
-0.22573222
-0.6628415
0.20371297
-0.438417
0.43184912
0.3000108
-0.12698732
0.64811593
-0.17055589
-0.15025151
-0.17297438
-0.132829
-0.0031322
-0.4091345
-0.10226062
-0.7163505
0.22601222
0.10180796
-0.61456466
-0.6340286
0.029435517
-0.5654741
-0.7057036
0.3523041
0.21786219
0.3472215
-0.0071609295
0.50522983
0.47808027
0.36721516
0.22732413
-0.4789362
-0.109617196
-0.20408975
-0.14405392
0.35251474
-0.3879561
-0.0873523
0.19503142
0.6189232
-0.85492396
-0.18174669
-0.07896245
0.2552138
0.6790548
0.46691057
-0.03973465
0.2855393
-0.31866798
-0.8964838
0.044094026
-0.4469576
0.14893438
0.65862733
0.10932677
-0.042583242
-0.58120716
0.4421302
-0.18060035
-0.23827557
-0.85824484
0.19765584
-0.01663394
-0.29909533
-0.5050613
0.06986391
0.1562159
0.16538118
-0.75345796
-0.33698115
0.55103093
0.2842832
-0.35240775
0.38044363
-0.039240237
-0.36328214
-0.9056083
0.14420497
0.13789526
-0.15755628
-0.73495215
-0.49527282
-0.04737222
0.026003225
0.34034154
0.07625628
-0.36341327
0.0050146845
0.41400543
0.24112259
0.6961208
-0.68846524
-0.19874848
0.13615426
-0.11544234
0.52422833
0.54852533
0.5483939
1.0302913
0.07496407
0.46663922
0.7607273
0.3503156
0.36862785
0.25043464
0.01397854
0.44740444
-0.24028291
-0.060339835
0.66045
-0.29554167
0.81278235
0.18537585
-0.30137703
0.5459373
0.21680652
0.35548618
0.16095914
-0.4359423
0.3075712
-1.2073187
0.0452164
-0.11560772
-0.31664374
-0.6348601
0.42486146
0.3652687
0.62874717
-0.29975906
-0.48108298
0.25263122
0.10566581
0.7227693
-0.5746426
-0.48490372
0.8043987
0.09944336
-0.29227385
-0.06958195
0.15640084
-0.21294314
0.29506445
0.18432516
0.18141636
-0.03394029
-0.55620456
0.48999897
0.0044755396
-0.72844505
-0.47799167
-0.24275197
0.5218974
0.48558304
-0.22277233
-0.41436186
-0.008314673
0.5327581
0.037818242
0.042797998
-0.2548383
0.24861106
-0.020809257
-0.1507745
-0.46288902
0.43444312
-0.7403206
-0.6563223
-0.21446286
-0.10612341
0.42599386
-0.11180411
-0.06891226
-0.59296304
-0.19288571
1.1801932
0.012532152
0.44796026
-0.2969299
0.18823206
0.5292186
-0.008300992
-0.44669107
0.9487687
-0.0043617073
0.059983864
-0.86655223
-0.16152094
-0.4171011
0.7426097
-0.04559605
-0.67407566
-0.2997045
0.14677745
-0.070903465
-0.21980077
0.12553938
-0.20204291
-0.49580035
-0.21698567
-0.2886558
0.377152
0.71766984
0.18251675
0.12262626
0.23494507
0.6612393
0.24054529
0.398
0.36329597
0.24952456
-0.39947474
-0.46884072
0.5785346
-0.06023543
0.07235336
-0.6453993
0.15676543
0.2995878
0.07763523
-0.14950877
0.11565892
0.60377055
0.047181122
0.5550096
-0.24763633
-0.24261165
0.31137308
-0.34036842
-0.34655967
0.04429013
-0.2789489
-0.22600883
-0.35741693
0.21655734
0.039495658
-0.17055176
-0.047994904
0.27168643
-0.12538569
-0.1452195
0.0064579616
0.18321763
0.18942013
-0.33624053
0.5768216
-0.5873192
-0.35037553
0.18271348
-0.059625257
0.17262116
0.24636683
0.064688526
-0.18210568
-0.22360682
0.37436563
-0.46636647
0.18862985
0.18746135
-0.0009021261
-0.45683625
-0.060608476
-0.4707265
0.04282714
0.08760963
-0.016823372
0.14462371
-0.0558418
0.64383376
-0.2743898
0.18784034
-0.50957894
0.09274059
-0.31361887
-0.37289906
0.094102725
0.12711795
-0.1775578
-0.825265
0.11408383
-0.19892733
0.49901676
-0.00889621
0.4410035
-0.1425118
-0.24224094
0.077668644
-0.4555376
-0.28516132
0.1475726
-0.23902299
0.16362154
0.029943677
-0.08420572
0.25343052
-0.43454686
0.04677785
-0.0992181
-0.05115719
0.010321964
0.28855923
-0.48654723
0.00599894
-0.6490535
-0.393093
0.1613453
-0.21122065
-0.25260398
0.28382546
0.26604113
0.036638126
0.18170242
-0.3759934
0.62916595
-0.49041587
-0.3091549
0.20534137
0.5952724
0.38450873
0.32811645
0.27967334
-0.385164
-0.023935849
0.15253176
0.2634974
0.16046417
0.26126456
0.14865309
-0.39656055
-0.5261132
-0.2610061
-0.5729376
0.19136831
-0.21283953
0.15355018
0.105623454
0.065052666
-0.88723016
-0.45353463
0.12213443
0.060601704
0.8469679
-0.8169351
0.44431925
0.25239825
-0.010461449
0.16157845
0.028489033
-0.10753727
0.16092207
-0.46506882
0.494645
-0.22353014
-0.18466434
0.18114088
-0.3753808
-0.052278373
0.05396006
0.6787296
-0.55965525
-0.2646313
-0.036083493
0.5713249
0.09111563
-0.1947996
-0.27664426
0.38054413
0.09603096
-0.10414818
-0.02366305
0.25579324
-0.1694272
-0.22983658
0.08478296
-0.15502568
-0.09134002
0.1821843
-0.12088006
-0.07883144
-0.1145666
-0.3911032
-0.04550539
-0.1389423
0.3084928
-0.21092965
-0.13461027
-0.20284618
-0.30736947
1.1703026
0.46446827
-0.064010985
-0.0033280188
0.38391942
-0.51397157
0.7353703
0.0573782
0.55764353
-0.050609898
-0.048967894
-0.00047805576
-0.080306426
-0.35410538
0.0434286
0.00036204112
-0.13637549
0.0009532027
-0.36040747
0.46875754
-0.4226195
-0.014225097
0.15387563
-0.27150688
0.37677762
-0.15183417
0.22391687
-0.3306302
-0.37555417
-0.043230187
0.25434873
0.13285196
-0.032891165
-0.37068754
-0.02117095
-0.021699898
-0.015300999
0.06459329
0.32430676
-0.05999567
0.21847628
0.28823218
0.5710634
0.03265386
0.44642046
-0.03813247
0.3069872
0.3175163
-0.11769532
-0.041295968
0.23098192
-0.50758237
-0.60004365
0.57981515
-0.71901065
-0.4745256
-0.2080837
0.1068866
0.37306944
-0.15002769
-0.3568232
0.018233925
0.5398182
0.22753252
0.28741407
-0.09429084
-0.00016578016
0.051342603
-0.45228213
-0.38649416
0.06769814
-0.18966208
-0.35536036
0.18280478
0.19946325
-0.18489285
0.7079342
0.023554511
0.39593282
0.70795023
-0.21041253
-0.85011446
-0.26165122
0.2316882
0.5802194
0.08492654
0.22357935
0.107724145
0.23250924
-0.54568386
-0.04512919
0.50872105
-0.24725868
0.10322251
-0.22586621
-0.28155383
0.009816655
0.040753238
-0.31991044
0.11646153
0.23433599
-0.24663168
0.19277455
0.9763843
0.0035461755
-0.65350074
0.48514426
0.798386
-0.29565278
0.5054679
-0.37735835
0.6210736
0.47182846
-0.4254173
0.042366654
-0.061698932
-0.46886298
-0.028809806
0.20385855
-0.21032336
0.1861201
-0.7258735
-0.379754
0.043932617
0.6631296
-0.47768065
-0.0036873708
0.104274414
-0.034276307
0.2597093
-0.39856634
-0.1625938
-0.21884586
0.34599662
0.4121764
-0.47998485
-0.14504153
0.22218877
0.44051224
-0.2514574
0.21160962
-0.34918052
0.23188934
0.19340087
-0.4753117
-0.12557307
-0.43803814
0.34694192
-0.4641497
-0.86208534
-0.51851463
0.044042807
0.2761302
-0.20977412
-0.108768426
0.4799152
0.7789942
-0.22307846
0.07559746
-0.2663295
-0.28473496
-0.24144554
0.36528194
-0.6266303
0.59083825
0.07913242
-0.3889317
-0.6224501
-0.7845981
0.053865656
0.26574653
-0.46297958
-0.4819503
-0.319597
-0.029439125
-0.37681612
0.2562218
-0.6710944
0.6037046
-0.27349716
0.39708552
0.34052226
-0.50899166
0.27013287
0.81549865
0.7367164
-0.2747611
-0.84791356
-0.99671614
0.6284267
0.12637012
-0.09722657
0.15353003
0.41975775
0.52107525
-0.20360827
0.09333207
-0.38258803
-0.37894452
-0.83646584
-0.43334785
-0.6476805
-0.16395459
-0.6595477
-0.1512722
0.16262484
-0.22720727
-0.07399791
-0.040293917
0.057959426
-0.09136906
-0.0018183115
0.034556363
-0.25809374
0.01779582
-0.03271294
-0.08779956
-0.11356956
0.13532875
0.20864715
-0.13839217
-0.107166804
-0.056210373
-0.061794333
0.03936182
0.2504173
-0.1337074
-0.113612555
-0.16636615
-0.10016766
0.027711613
-0.21873155
0.2293104
0.25155163
0.026182985
-0.110756606
0.074057125
-0.07795159
-0.039089642
-0.0527881
0.35865402
0.026081713
-0.1185977
0.08985439
0.049760018
0.21371691
-0.07581217
-0.08469926
-0.09938537
-0.023682678
-0.09847284
-0.14103
-0.055085395
0.058680516
-0.021416208
-0.18584326
-0.25002125
-0.005704665
0.06301582
-0.06521876
0.07729868
-0.17741814
-0.36989418
0.024195764
-0.03215833
-0.034358706
0.056839712
-0.1321456
-0.057615153
-0.22375338
0.08251671
0.25735822
0.06880169
0.1813383
0.15695396
-0.1930462
0.11575198
0.04140848
-0.11770126
-0.025235988
-0.033080306
-0.1871175
0.08079239
0.09014038
-0.1710097
-0.23643078
-0.26235506
-0.0065816753
0.11817621
-0.005319351
-0.07470536
-0.22548766
0.20042995
0.013607103
0.43590486
-0.11080358
-0.049037557
0.089195706
-0.31591564
0.18833645
-0.15551654
-0.25150552
-0.067268975
0.17273478
-0.0022551343
0.15278052
-0.08355558
-0.29810587
-0.21341366
0.11898204
-0.019297926
-0.27008435
0.09110783
-0.055254105
0.041394394
-0.007254236
-0.07230164
0.025786547
-0.17820367
-0.08849466
-0.19377866
-0.4197906
-0.07601446
-0.0037988483
-0.061277308
0.061777536
-0.26037937
-0.16861962
0.042980567
-0.15591286
-0.25769868
0.037327163
-0.003503131
-0.09664648
0.0950374
0.03891972
0.0727659
-0.042680744
0.07108743
-0.038661044
0.042338885
-0.053066853
-0.24155465
-0.014596202
-0.022007262
0.04299555
-0.23827337
0.06358911
-0.1888363
0.050208226
0.037725322
-0.004032842
-0.08575913
-0.028809646
-0.02637455
-0.1908925
-0.15279384
0.085412696
0.21825913
-0.025168657
-0.025457384
0.21613246
-0.089971066
-0.022594137
0.050880957
-0.19267723
-0.08548226
0.14271946
0.07518243
-0.23359711
-0.19035174
0.0035008113
-0.03531993
-0.06431453
0.013701894
0.032895617
0.1106081
0.03873141
0.0015084511
-0.0803316
-0.025042873
0.11468676
0.1354092
-0.08410854
-0.019676648
0.20158733
-0.02318415
0.025520634
-0.0745552
-0.13557777
0.040129162
-0.13912565
-0.08725148
-0.0381708
0.058021303
0.026831392
-0.16338606
-0.095715255
0.032982614
-0.09360829
0.030138409
-0.14318503
-0.027827702
-0.046512723
-0.10141062
-0.25626326
-0.40481648
0.060127195
0.054237366
0.059358474
0.00020514261
-0.038442846
0.15500689
0.0107061695
0.03706338
-0.02343884
0.072529845
0.023428258
-0.1506884
-0.10044041
0.0440418
-0.1388879
-0.1333769
-0.08370797
0.0749868
-0.09268837
-0.09291144
-0.0058975015
-0.2128318
-0.04898924
-0.012350383
0.04709015
0.060105465
0.048639935
-0.12744479
-0.011656525
-0.102943115
0.10217341
0.0043985057
-0.010864201
-0.090374604
-0.09943284
-0.06585168
-0.24330258
0.03371762
0.029669773
0.099694066
0.063389145
0.06110531
-0.029891938
0.10405872
-0.031897623
0.034182232
-0.09635082
0.025967855
0.04593684
-0.035329882
-0.06730271
-0.06973051
-0.009615241
0.13431796
0.03477483
-0.122943066
0.11200132
-0.045492873
-0.06982847
-0.08152292
-0.04756748
-0.033970956
-0.038904764
0.051378712
-0.11240476
0.0789777
0.12458266
0.115727186
-0.099675275
-0.0013688152
0.10341259
0.029784206
-0.00076719583
-0.004166526
0.035365473
-0.004612171
0.09517881
-0.026729697
-0.046440635
0.0010645993
-0.02131982
0.04216942
-0.041275755
-0.2842945
-0.011159603
-0.10956662
0.01890309
0.06154012
-0.03506125
0.1837029
0.016106596
0.059986617
-0.023918949
-0.092911705
0.04926037
-0.14169069
0.019017436
0.07316206
0.09501053
0.042839702
0.053287107
-0.08718945
-0.008363411
0.13974091
-0.004649567
0.061469253
0.03819341
0.055972073
-0.03783693
0.12604772
-0.09450821
-0.061902292
0.04631851
-0.0667973
-0.1088926
0.12253091
0.086969994
-0.107570305
0.040760107
0.12036428
-0.008602012
-0.028591359
0.079510055
0.07364012
-0.13060361
-0.030839229
-0.0325408
0.040318303
0.040404636
-0.07521859
-0.062102295
-0.056891583
-0.019775672
-0.091554485
-0.052252073
0.023461299
-0.04558749
0.010785436
-0.07498112
-0.017901335
0.0737942
-0.010571392
0.11118879
-0.061136663
-0.006326879
0.057632025
0.17707908
-0.052550886
-0.09031429
-0.02623556
0.005502119
0.08531302
0.018279128
-0.07042254
0.022668496
0.1196724
-0.018193929
-0.12130951
0.106051765
0.035167392
-0.07637539
-0.0089907665
-0.09882769
-0.31348825
0.112765096
0.13341816
-0.2867145
-0.10814299
-0.21284828
0.030586883
0.16167581
-0.28961325
-0.15720212
-0.30023706
-0.027388532
-0.3464167
-0.22756885
-0.051304746
-0.013662629
-0.20888127
-0.08132498
-0.07864337
-0.10844267
-0.00634971
-0.051493645
0.16774507
-0.14671525
-0.031085595
-0.046725646
0.045340825
0.03175185
-0.20245188
-0.19068873
-0.16250636
0.08197216
-0.15584517
-0.113633856
-0.066390865
-0.05966918
-0.01381265
-0.106217474
-0.055375617
0.0015589143
0.17634739
-0.048056047
-0.17030674
-0.103570886
-0.011405005
-0.08180936
-0.00799447
-0.23744231
-0.13006751
0.02919236
0.0331301
-0.044721466
-0.0792477
-0.018141562
-0.13980821
-0.060568195
-0.051761635
0.07743365
0.09639369
-0.29645643
0.30976823
-0.056492433
-0.20282878
-0.050287545
-0.14095083
-0.28761888
-0.052354854
0.0935064
-0.13200448
-0.0150708845
-0.03563465
-0.54017115
0.114336796
-0.103307344
-0.047236305
0.0051855114
-0.10091166
-0.24445494
-0.0820323
0.025992319
0.03997615
-0.16840553
-0.2048706
0.025695654
-0.1759424
-0.10564078
-0.010224587
0.038651027
-0.11628732
-0.09764375
-0.11660948
-0.38559902
-0.081439205
0.24867639
-0.14818427
-0.0726873
-0.17024454
-0.21112284
-0.1430563
0.058069114
-0.16331747
0.0042704847
0.053548116
0.038399458
-0.15263382
-0.06500296
-0.1414304
-0.120264515
-0.10162902
-0.25370994
-0.28763786
-0.08130786
-0.17788623
-0.2520775
0.09537277
-0.086692914
0.30998278
-0.17196798
-0.15575907
0.45999655
-0.36104795
-0.18192893
0.044250865
-0.07078161
0.16649072
-0.26431584
0.7528165
-0.0014548403
-0.17443784
-0.20507133
0.07200999
0.08986237
0.0916949
-0.23949109
-0.31805214
-0.045371793
-0.1796041
-0.04756542
-0.089264534
0.14078216
0.11457281
-0.038687453
0.18327588
0.047338087
-0.17959873
0.088232264
0.2102742
0.061260242
0.2809023
0.12958889
0.03403118
0.048224937
0.11478518
-0.18238457
-0.15716285
-0.02534471
-0.22083046
0.15296423
0.18489663
-0.08469848
0.012732234
0.2668711
-0.27322236
-0.043047085
0.24787746
0.102724776
0.3647564
0.21649122
0.6112836
0.08093734
0.026531052
0.51454
-0.25749648
-0.056797095
0.2430085
-0.059632104
0.15760931
-0.09592806
0.3189511
-0.21196462
0.06872712
0.029707216
0.059003945
-0.2413757
0.15578203
0.017405357
0.29046592
0.23382077
-0.065620124
-0.11113778
0.10000941
-0.17453448
-0.099146344
-0.24557522
-0.097715236
-0.02853659
0.20467527
-0.119241536
-0.10964701
0.020214742
0.26339352
0.034046218
0.42689216
0.051954012
-0.31627476
-0.32208514
0.06382818
0.09322969
-0.022132758
0.47614902
-0.0061182682
-0.06443105
0.006264459
0.3430758
0.344774
-0.044659503
-0.27870443
0.111848235
-0.045631293
-0.06866468
0.12900771
-0.018441567
0.047955982
-0.003921074
-0.05286334
0.05301116
0.012633749
0.49791026
0.3485393
-0.07788502
0.11741814
-0.19520786
-0.15721242
-0.09168181
-0.04047332
-0.041476227
0.13228297
-0.04391752
-0.19877468
-0.027854253
-0.019365463
0.115731105
0.041089993
-0.09115144
0.10157071
0.09233616
-0.17843069
-0.0023930501
0.19083454
-0.090784825
-0.08221813
0.003751176
-0.17487106
0.03481837
0.19235054
-0.2416305
0.19918126
-0.35389224
-0.17054673
-0.094874784
-0.32968557
-0.03610261
-0.14823447
-0.19374663
-0.0425763
-0.089551196
-0.08760943
0.067792155
-0.077396
-0.15770598
-0.069851585
-0.51788956
-0.36623392
-0.008075783
-0.116396345
-0.24517989
-0.020820191
0.11852938
-0.0336318
0.08775266
0.0052115256
-0.09967095
-0.2796175
0.061621826
-0.5459242
0.020086223
-0.30203927
-0.2562062
-0.16460367
0.15951288
-0.13462299
-0.44820172
0.12750378
-0.10440951
0.14442052
-0.020583939
-0.2117631
-0.4582628
0.1113515
0.045241345
-0.16043232
-0.10221666
-0.22003157
-0.2595403
-0.16979827
-0.0013959118
0.022098435
0.45758617
0.041515276
0.29492834
0.06560177
-0.109970264
-0.043294515
0.03828259
0.009811444
-0.244261
-0.08024217
-0.02986275
0.009414204
0.11258039
-0.13262272
0.1324542
-0.09779366
-0.5729668
-0.47227964
-0.21118894
0.13346644
-0.25320724
-0.081557095
0.29887056
-0.027627064
-0.06449502
-0.044763185
-0.34164542
0.07567409
0.15221165
-0.0048357504
0.08638894
-0.14458407
-0.26761258
-0.032299787
-0.13271515
-0.15670544
0.09582987
-0.05248307
-0.17018665
-0.1743456
-0.5491836
0.01188985
-0.03247047
-0.023012694
0.012023025
0.19815475
0.19431673
-0.06372036
0.055212203
0.023100523
-0.004102641
-0.00251678
-0.056825392
-0.062269736
0.08098476
-0.13043545
-0.1349735
-0.13553777
0.0002778572
0.067734875
-0.093673214
-0.10329815
0.23089981
0.03856378
-0.028945277
0.13388494
-0.04569232
0.008096937
0.030772146
0.07077955
0.04187681
0.19955131
0.02496721
-0.048623294
-0.0033910803
-0.18136859
0.06720682
0.08266205
0.057359654
0.015511388
0.018486833
0.044987526
-0.04402458
0.0265578
0.23953517
0.12916718
0.081307136
0.057262897
0.056353286
0.06831567
-0.15224041
-0.17591979
-0.0034085435
0.1674593
0.06941082
-0.19861187
-0.11290439
0.033509262
-0.14606318
-0.033023134
-0.04017909
-0.020676242
-0.052965574
0.12467603
0.00842367
0.0916771
0.082887374
0.05190357
0.13688585
0.05385571
-0.02984567
0.088420674
-0.06291867
-0.19013216
0.2010027
0.021740476
0.22226077
-0.06588744
-0.013696132
-0.024052072
0.13434511
0.015048471
-0.105521046
-0.03111559
0.021335805
-0.07228425
-0.05343374
0.073346935
0.10639369
0.036698394
0.08985239
-0.16735658
-0.06686852
-0.17660432
-0.1308367
0.095363155
-0.06488795
-0.019213375
0.24981302
0.09132581
0.093027934
0.16020964
-0.09401865
-0.24337192
-0.084649734
0.06306526
-0.0056301868
0.11151672
-0.010516107
-0.07187859
-0.082980976
-0.05118886
-0.046918754
0.13950342
-0.032175448
-0.090471186
-0.06972695
0.01832915
0.058266472
0.0011090394
0.10181327
-0.0778685
0.042708047
0.10135804
0.18483162
-0.124450706
-0.022195114
0.27727395
0.047660243
0.15322834
-0.099778965
-0.2255501
0.19078891
-0.2433999
0.03907243
0.10160783
0.18873908
-0.03741002
0.15186775
0.07267511
0.18767913
-0.15448704
-0.056862734
0.010533011
0.08295035
-0.12383026
-0.005916327
0.05813135
0.21834075
0.16780122
-0.34325632
0.13943177
-0.19014859
0.12462682
-0.047138147
-0.14027481
-0.14614001
-0.084478654
0.19521955
0.13956909
0.06760931
-0.06854962
-0.10467159
0.26608488
0.00519357
-0.13739991
0.18034586
-0.3306698
-0.060804423
-0.10055667
0.4166526
0.26576665
0.11398815
-0.017358873
0.3170673
-0.5253817
-0.014720276
0.034438346
0.22491688
0.09075214
-0.012937192
0.25623986
0.1566251
-0.027811639
-0.26670554
0.008449347
0.069559656
0.32289624
-0.047567733
-0.09475731
-0.33559906
-0.00017161039
0.16279201
-0.30166703
-0.020091174
0.10722151
-0.31312567
-0.03180716
0.008999445
-0.01890692
0.29804367
-0.063563794
0.052141692
-0.013721084
-0.17225651
-0.023292959
0.1069613
-0.2723306
-0.08392165
0.3753002
0.14524876
-0.06376865
-0.080570385
-0.22010222
0.23818836
-0.1378046
-0.19218585
-0.058836013
-0.06613491
-0.090624206
0.19897054
-0.123690754
0.012487138
0.06421305
-0.044756044
0.16897713
0.024001185
0.006551314
0.117106
0.0033412217
-0.10854985
-0.04670153
-0.23928517
0.09712433
-0.13534929
-0.1494682
0.049753062
0.045713942
-0.15224041
0.11901299
-0.068050615
0.06551483
0.095695265
-0.10196816
0.1758767
-0.29684278
-0.07141834
0.098042056
-0.016131487
0.08990317
0.11193164
0.22346053
0.06081146
0.14023611
0.22911307
-0.065307654
0.30695978
-0.1753763
0.13814226
-0.06806768
-0.07399648
-0.12374927
-0.2140114
0.07934613
0.008998288
-0.13518684
0.1832286
-0.12334412
0.097261935
-0.108825676
0.1443633
0.16898221
0.10740004
0.17742811
0.10346568
0.12557115
0.22874889
-0.024623483
0.14069906
0.2534966
-0.07183891
0.23837842
-0.0033916305
-0.23658949
-0.15205665
-0.1291649
0.039791174
0.08720357
0.34880313
0.13242121
-0.093903475
-0.14938258
0.113144584
-0.013700046
-0.08802589
0.17273755
0.029915778
-0.049912244
0.0004346639
-0.061373226
-0.08866015
0.19910356
0.03417348
-0.05905951
0.07194642
0.20494743
0.049969286
0.015057422
0.22337787
0.07624191
-0.06970196
-0.0482357
0.034522366
0.15558247
0.24015187
-0.048034325
0.0015462392
-0.12580866
0.17071232
-3.4309676e-05
0.09085802
0.15939547
0.023710182
-0.012134271
0.4463248
0.0036241456
0.10096851
0.35499346
-0.015501837
-0.2805317
0.09064225
0.008685543
0.036724463
-0.11734905
0.004972413
0.075704835
-0.45878616
0.29026124
0.28880832
-0.16029942
0.0036153307
0.109499864
-0.11128839
-0.012229967
0.15442222
-0.055984445
0.049112696
0.16481204
0.052162908
0.17223288
0.084081024
0.04571943
0.008094091
-0.010332191
0.037859663
-0.2268368
0.096070476
0.25105137
0.08311559
0.31870645
-0.20186952
-0.0783705
-0.14778617
0.19751793
-0.0047898376
0.19540016
0.027000247
-0.07403813
-0.014457817
-0.016479554
0.18325295
0.036218513
0.21214676
0.2745674
-0.23665144
-0.0004670385
0.09778066
-0.05384487
0.03415947
-0.057798382
0.17392936
-0.040799666
-0.20795691
0.14343762
0.14487816
-0.14953592
-0.040780492
0.034472857
0.037322853
-0.13712822
0.13067524
-0.12447268
0.21104994
-0.089223064
-0.066440135
0.14518328
0.10083876
0.011086683
0.123506546
0.070751965
-0.028895462
0.13463508
0.083713904
0.054304548
0.21115217
0.2225071
0.08356379
-0.069488674
0.09871706
-0.031491444
-0.0010061105
-0.0012860908
0.04078014
-0.086507805
0.089446455
-0.061333172
0.0611585
0.22482696
-0.10259643
0.10435226
0.040596116
-0.06599185
-0.06774192
0.113159575
-0.01644527
-0.14804368
0.35058326
0.02925229
0.033994958
0.1942929
-0.16654232
0.031534486
0.010657386
-0.13767183
-0.06587019
0.20316596
0.34033132
0.034644805
0.020894142
-0.23462184
-0.13873778
0.029040527
0.04088147
-0.058009528
-0.17755026
0.03803412
0.052482065
0.24898109
0.16022973
0.13282856
-0.008550866
0.03840371
0.2309717
0.16576439
-0.06542558
0.26676464
0.49100032
0.06741986
0.2727686
-0.06479883
-0.18397516
0.017539155
-0.0062832087
0.014481488
0.23856828
0.160404
0.116558224
0.26992282
0.10406311
0.111223266
0.08369671
0.09335232
0.2810483
0.039486792
-0.028536739
-0.033343617
-0.101175144
-0.007201835
0.075388044
0.02538995
0.13783152
0.14981817
-0.005864468
0.30183288
-0.16364191
0.1301954
-0.104781024
0.034507055
-0.043059953
-0.058885954
-0.066646054
-0.1287586
-0.0020652597
-0.26474288
-0.13535339
-0.0049954713
-0.102611266
0.026806906
0.02320188
-0.11325441
0.05179314
-0.056617405
0.026060065
0.080727726
-0.068823375
-0.03571341
-0.03313409
0.045040995
0.012126965
0.09128312
0.019988082
-0.06717755
0.04286258
0.01604532
0.0927214
0.06552501
0.1220206
-0.004646715
0.12227988
0.16827726
0.01642367
0.017370092
0.022350442
-0.14316678
-0.030319734
0.030187303
0.021958245
-0.13319968
-0.07439207
-0.06630242
0.040473226
-0.040767603
0.10793646
0.12735024
-0.029566031
0.0032845242
0.045545124
0.016986884
0.060809776
-0.009298634
-0.016185204
0.056578368
0.02252205
-0.048158374
-0.026454778
-0.032704215
0.06588919
-0.18627834
-0.013606439
-0.14932945
-0.037852928
-0.043796662
-0.02313197
-0.09440373
0.12707865
0.11448151
0.17822237
0.03145721
0.08365462
0.17220427
-0.013961187
0.04168648
-0.038035024
-0.09870136
-0.23263146
-0.12730397
0.095117
-0.0029474315
0.05148284
-0.027083268
-0.010138625
-0.09032962
0.005804714
0.12333111
0.05696807
-0.04950763
0.059937492
0.078851864
0.047744077
0.05662356
-0.21262874
0.0051749283
-0.0056978664
-0.055854615
-0.0994919
-0.0710527
-0.12149529
-0.106736295
-0.09060165
-0.10405365
-0.111747906
0.119769156
0.0674169
-0.074602395
0.01654677
0.020701801
0.043764353
-0.0033189121
0.035766494
0.07803211
0.005712294
0.04045913
0.008834544
0.05928152
0.0966055
0.006346673
0.009389702
-0.030455213
-0.019707344
-0.05789869
0.14101978
0.17556581
0.1422514
0.1292363
-0.018090993
-0.02430756
0.16163996
-0.0664123
0.03796197
-0.18903223
0.16896856
-0.06362789
-0.30283558
0.05755301
0.13695094
-0.26186034
-0.0032472692
0.109478
0.06586199
0.019754952
0.26580504
0.16485849
0.15327641
0.048884712
0.043742623
0.10834616
0.12667167
-0.13278493
0.01991131
-0.06917017
-0.005353268
0.2089804
0.10192159
-0.1909032
0.17502902
0.013423434
-0.0020683634
0.016142115
0.2514973
0.020718528
-0.041705534
-0.026457056
0.049365003
-0.1379637
-0.026929686
0.09967514
0.015340182
0.1070473
-0.15681699
0.030985305
-0.067733735
0.14389841
-0.11172506
-0.008835621
0.24652979
0.006456674
0.09181964
0.10491824
0.19809742
0.006397127
-0.04259491
0.18076156
0.102088936
-0.059949912
-0.02853874
0.1593453
0.16653907
-0.092846885
0.10342611
0.038853478
-0.09445893
0.20131986
0.09164344
0.0027010674
-0.21084058
0.048019517
0.23044185
0.20437057
-0.015808398
-0.026559517
0.08139832
0.0035436787
0.119706996
-0.051899068
0.14067502
-0.0888207
0.13866712
0.0001227863
0.33134335
-0.024302058
0.14809664
-0.03566717
-0.022437518
0.046197362
0.17173001
0.036511898
0.19831797
0.23350562
-0.09079622
-0.0077448436
0.030402854
0.056534637
0.2270804
-0.037559662
-0.027668377
0.06944396
0.05852016
-0.045184802
0.1103641
0.034944892
0.4012541
-0.07921784
-0.07793963
0.035794206
0.0071124323
-0.047148176
0.1428612
0.038125705
0.11585297
0.008382244
-0.15828447
-0.20024906
-0.008383216
-0.13563117
-0.02273107
0.122140445
-0.046995893
0.0074550374
-0.012247906
-0.14654861
0.2221321
0.054592974
0.027300725
0.040486798
-0.050842788
0.015564602
-0.038663793
-0.14361231
-0.17605077
-0.14476421
-0.044354558
0.028399803
0.10316382
-0.19364977
0.16793235
0.16950424
-0.124951586
-0.07180348
-0.0041767587
-0.1907773
-0.018149104
-0.054727435
0.046605423
-0.09669984
0.06806859
0.021763274
-0.21284631
0.0066240174
-0.09689917
0.11529251
-0.06256524
-0.012804503
0.018331543
-0.04599845
-0.13156666
-0.039483145
0.0032764361
-0.0054228655
-0.07459914
-0.05052582
-0.104713075
-0.12537652
-0.04489328
0.015020799
-0.041634556
-0.14900714
0.04326411
-0.095147714
-0.15710583
0.025558814
0.16754642
-0.013894181
-0.014700217
0.115280576
0.10426906
-0.14040518
0.027995136
0.15037741
-0.088002
0.040958263
0.07084812
-0.118932426
0.058922246
0.0065839374
-0.060422495
0.022857876
0.061715297
0.04982383
-0.06382113
0.041955277
-0.15943334
-0.03173905
-0.041376647
-0.08160872
-0.24716295
-0.06962282
-0.062063117
-0.08799568
0.06401239
-0.13357905
-0.20783107
0.18415906
0.0030838337
-0.0039176904
-0.05558653
-0.04805918
-0.06687936
-0.08518427
0.11324064
0.056879405
-0.14366844
-0.09459958
-0.05052458
-0.06247781
-0.040138092
0.0033157924
-0.0231188
-0.19192785
-0.12406195
0.10887191
0.091444805
-0.13838522
-0.32045937
0.060265347
0.09592272
-0.033064153
-0.00982935
-0.11061325
0.099248946
-0.21273188
0.0025660386
-0.016596828
-0.11333613
0.1074078
-0.07442973
-0.19809654
0.017011803
-0.10376266
0.014329305
-0.0045113685
-0.019118791
0.005368503
-0.020960432
0.051765762
-0.08540156
0.0054320195
0.0042170417
-0.09670155
0.17828356
0.05458174
-0.115631126
-0.052028697
-0.12058096
0.3572771
0.05832026
-0.10165121
0.11317252
-0.07348219
0.039212406
-0.076109886
-0.05452152
-0.064345665
-0.03291017
-0.023241779
-0.25448912
-0.005144306
-0.09558079
0.04122696
-0.12278305
0.030857565
0.106568016
0.07055747
-0.0073497305
0.031830538
0.11569599
0.08667844
-0.044070736
0.045819808
0.042744998
-0.024113296
0.101765096
-0.0156206135
-0.106612496
-0.06252633
0.022471322
-0.02919096
-0.010237733
-0.12091712
-0.12813208
-0.10899758
-0.09132282
-0.10662809
-0.011286819
-0.11096211
-0.14660968
0.08196041
0.02508888
0.05831947
-0.08504899
-0.124090806
-0.18128067
-0.24487157
-0.048536316
-0.15202484
0.12679525
-0.10888139
-0.06686707
-0.17477989
0.08215027
0.026337178
-0.11868776
-0.0863262
-0.13342062
0.04606926
-0.13032538
0.0013581298
0.057774108
-0.13294962
0.017680623
0.21351999
-0.053132962
0.02503004
-0.09974774
-0.14597496
-0.012554103
-0.018128043
-0.031054176
0.04394341
-0.022744242
-0.13444889
-0.1932318
0.041890442
-0.018862447
-0.14590529
-0.027382933
-0.095855646
0.032432314
-0.020272117
0.09893403
0.021477569
-0.022080805
-0.086812764
-0.056433804
-0.088228576
-0.007114143
-0.21990262
-0.20478463
0.06530875
0.08190058
-0.021740686
0.10475768
0.037692472
0.007991769
-0.045546237
-0.0781854
-0.039770726
0.02721394
-0.013274236
0.018841088
-0.0056893784
-0.029209312
0.043269034
-0.01681648
-0.093846284
0.02937219
-0.03698443
-0.017191494
0.06013512
0.044410117
-0.0008967761
0.07683487
-0.023604825
-0.047724634
0.04389586
0.029895434
-0.0046113823
0.009851603
0.015699409
-0.018309848
-0.015240576
0.08235618
0.017730338
0.038411852
-0.13341613
-0.15023772
-0.120095395
0.022471959
-0.071465656
0.015534575
-0.06448214
0.07704111
0.07783854
0.08294517
-0.038803317
-0.051574197
-0.0120481495
-0.12589493
0.03336212
-0.09888203
0.12682886
0.023770034
-0.10539485
-0.02123109
-0.013537104
0.069927834
-0.07614229
-0.08990636
-0.17699392
0.0040849005
-0.0072191623
-0.011509933
-0.18357296
0.028903145
0.08077323
-0.104476266
-0.016157249
0.051801614
0.038967375
0.005319529
-0.04034105
-0.040029984
0.028587196
-0.01476148
0.10121122
-0.05863891
0.0247965
0.04080228
0.031441845
0.07546277
-0.0075941533
0.056265194
0.048338674
-0.029613253
0.04492035
-0.14418542
-0.055472314
0.018776491
0.022652525
0.050859097
-0.09840105
-0.011364677
0.010195062
-0.02830474
-0.04558962
-0.07737012
0.03897326
-0.02942573
0.025428759
-0.067037754
0.018683383
0.012518593
0.0411578
-0.061849814
0.005273799
0.072361924
0.003045967
-0.06278936
0.0010625956
0.04239342
-0.026311496
-0.06407307
-0.0007612003
0.07286637
0.0032973348
0.008332517
0.0274585
-0.012868494
-0.0761161
0.114191025
-0.119753376
-0.19022655
-0.21558204
-0.08118422
-0.053847644
-0.010914084
-0.21614543
-0.23903577
0.018547405
-0.006908497
-0.066282876
-0.16738921
0.041372187
-0.012864256
-0.06680894
-0.14717503
-0.061631262
-0.006063456
-0.048656244
0.10909238
0.051194392
-0.10424942
-0.11254677
-0.015392278
-0.03218354
0.12602846
0.04196236
-0.06590562
-0.06671691
-0.12120221
-0.20268036
0.021347802
-0.24753669
-0.001181366
-0.20666339
0.054590747
-0.12503754
-0.20559675
0.010194181
-0.016848397
0.023193417
-0.10016854
-0.059875675
-0.074734464
-0.008043439
0.00040666413
-0.1743869
-0.15273944
-0.06663239
-0.06822841
0.050219968
-0.13891265
-0.08512502
-0.026665034
-0.059870165
-0.2077115
-0.041268345
-0.041026037
-0.00046792038
-0.13339266
-0.13334522
-0.046061337
-0.0890776
-0.04413614
-0.051534858
-0.080813244
-0.2648115
-0.14753097
-0.09830584
-0.080215245
-0.129094
-0.13074246
-0.14394379
-0.12939356
-0.075425096
-0.09742762
-0.02645079
-0.19484356
-0.10769123
-0.0145288175
-0.07501428
-0.10919641
-0.13843156
-0.08804869
-0.21358116
-0.09583528
-0.095664866
-0.23045363
-0.18360299
-0.11783868
0.10829328
-0.055661947
-0.09435441
-0.15244567
-0.19979933
-0.120562054
0.074568495
-0.17203516
0.051028725
-0.16633376
-0.043868154
-0.13768919
-0.0069961804
-0.055304486
0.06890745
-0.082982704
-0.020852683
-0.019537171
-0.0488354
0.06248948
-0.010999051
-0.16572337
-0.14712699
-0.05186859
-0.04346895
0.04584623
-0.011451547
-0.09275672
-0.08885327
-0.18251447
-0.05003391
0.0016486384
-0.122029796
0.16036138
-0.07522592
0.0783525
-0.17888097
-0.30841884
-0.24083804
0.1142669
0.13181692
-0.2897639
-0.024337767
0.09264772
-0.12716791
-0.053108975
0.2486473
0.24850017
0.24561125
0.16856368
0.019038808
-0.1600289
-0.16234913
-0.13169356
0.17151535
0.015016396
-0.12738535
0.20979299
-0.2586923
-0.057948455
-0.12666002
-0.15915933
-0.031946998
0.016474124
-0.12664963
-0.15807277
-0.20315541
0.036095563
0.18139233
-0.22848833
-0.086822785
0.10733128
0.11713835
-0.18651007
0.037867695
0.047540423
-0.056542177
-0.11332323
-0.12885989
-0.0065602856
-0.28885773
0.12632594
-0.088652864
-0.09101794
-0.18454337
-0.26811826
0.26369447
-0.092058465
-0.23219979
-0.016910823
-0.011417731
-0.078801684
-0.14184247
-0.23866338
0.003767533
-0.24057865
-0.024393523
-0.078019276
-0.0069400235
0.07991028
-0.12977095
-0.07608337
-0.12052623
0.12725547
0.0072814417
0.32788512
0.062784255
-0.10930575
-0.16816701
-0.057139546
-0.2186887
0.03806448
-0.01902373
-0.27608153
-0.1947924
-0.19656089
0.047711693
-0.18456192
-0.3205088
-0.12652081
-0.067834325
0.08582701
-0.039008852
-0.34333214
-0.036089692
-0.024319932
0.06754839
-0.11195105
-0.18564147
-0.16298293
-0.17822208
-0.26357812
-0.046908
-0.15227348
-0.19529048
-0.065324545
-0.100823626
-0.10206364
0.09084018
-0.079289556
0.07877553
-0.047985613
-0.16776033
-0.027384164
-0.09559797
0.27214226
-0.15797961
0.22924007
-0.13841948
0.07334651
-0.145176
0.08683342
0.10119931
-0.03555099
0.17868663
-0.0044009504
-0.1806962
0.08296113
0.036030676
-0.058665846
-0.038610972
0.14811413
-0.027033579
0.031003792
0.052151836
-0.08563639
-0.3207676
-0.004354352
-0.070624545
0.18060422
-0.046302363
-0.07121432
-0.14631973
0.03336361
0.123956196
-0.09591625
0.06405926
-0.19037856
-0.061919488
0.13420536
0.098319374
-0.09803156
-0.13425241
-0.06373743
0.06650588
0.29912406
-0.02368922
0.023310933
-0.028659554
0.1225202
-0.0420406
0.027730884
-0.21737655
0.038453706
-0.01237891
-0.08223775
0.051977888
0.0672708
0.111660406
0.06852576
0.007936565
0.071311906
0.14863989
0.0692459
-0.022049852
0.26058778
0.04942834
-0.017233059
0.20292844
-0.11694055
0.20270388
-0.016624484
0.031525508
0.000973722
0.11149709
0.060147148
0.037552066
0.16491538
0.040968794
0.04641901
0.10370905
-0.09108123
0.08736119
0.06749533
-0.0150973275
-0.012748349
-0.073821135
-0.08696822
-0.14585748
0.03584984
-0.07315373
-0.029547777
0.0543505
-0.062226918
0.12791862
-0.07282064
0.056561317
-0.036685687
0.05747216
0.044845067
-0.26384526
-0.13975011
-0.16892199
0.06497518
0.06840991
-0.17277205
0.119627275
0.06241793
-0.075380996
-0.11248207
0.09639986
-0.07952602
0.19442688
0.16966443
-0.00512894
-0.023861865
0.12439179
0.024517793
-0.121293694
0.16107973
-0.07472058
-0.3429784
-0.06694425
0.045139927
0.2734726
-0.22265679
-0.12515995
0.0769413
-0.06943524
-0.06264915
-0.13924581
-0.12711361
0.1812934
-0.13354644
0.009384088
-0.0816698
-0.016645078
-0.012412247
0.08215149
-0.06570733
0.011673234
0.02685972
-0.010906191
0.027890153
0.2668646
-0.0008279044
0.17236009
0.06327795
-0.12831461
0.004065263
0.15767992
-0.074135765
-0.18294938
0.14483148
-0.012576125
-0.08249466
0.07545139
-0.034271874
-0.08669672
0.003584165
-0.0570206
0.01201545
-0.07415715
-0.12855977
0.102357626
-0.0072907684
0.033182736
-0.12549156
0.0027812284
-0.03478024
0.08807986
-0.024071842
0.06549535
0.040278494
-0.16317184
-0.022324992
-0.052547492
0.09813432
-0.008870711
0.15884474
-0.023325276
0.02103564
0.009491865
-0.055033367
-0.016560694
-0.088362254
0.21339989
-0.082237855
0.0776817
-0.05048448
0.049262136
-0.03164092
0.089762375
0.12042715
0.093740866
0.17010735
0.14342214
-0.05803079
0.079571724
-0.033935584
0.061616696
0.002563476
0.18832973
0.036855996
0.0493125
0.05041103
-0.08321103
0.014161326
0.14910986
-0.052424856
-0.021047322
-0.11210486
0.08989966
-0.016849553
0.07517206
-0.013620021
-0.005680893
-0.14802615
0.039211407
-0.0793804
-0.047823947
-0.090111464
-0.14019662
0.036947194
0.0047064107
-0.19500479
0.026282215
-0.1068011
0.038980354
0.0006773477
-0.1126105
0.12406698
-0.047448304
-0.027404357
-0.037300795
-0.09155798
0.07514244
-0.048164736
0.09635241
-0.043939684
-0.107315764
0.0053913463
0.0031111725
0.012235424
0.09891599
-0.15394561
-0.014982576
0.009377053
-0.008920176
0.0013948003
0.078076206
0.10610041
0.08616366
-0.12592793
0.13557926
-0.045239028
-0.12889476
0.15369369
-0.059260838
-0.021617815
0.001199193
0.18372548
0.01994166
0.0570221
0.07740496
-0.062388036
0.08734477
-0.03551162
-0.09113844
-0.13604033
-0.3436296
-0.16801128
-0.22686774
0.13469835
0.047225498
-0.03591137
0.10825887
-0.16838808
-0.03120147
0.0020845775
0.68727005
-0.082026795
0.18541665
-0.04905203
0.05785409
-0.08138816
-0.052848004
0.00607583
-0.052774988
0.005716559
-0.07750659
0.08221032
0.02514864
-0.09184385
0.042355128
0.10388975
-0.07586577
0.042094946
-0.008861288
0.04123652
-0.02041834
-0.0108639095
0.0686809
-0.055509973
-0.03969241
0.19896333
-0.018552385
-0.06547118
0.019209709
0.084113225
0.068083696
0.027247123
-0.008917881
0.014079566
0.059874676
0.11560064
0.18677342
0.100275114
0.35944027
-0.029778643
-0.13415304
-0.11050068
0.13660383
0.06698741
-0.053144753
0.007906377
0.028690236
-0.107282706
0.13426217
0.026704352
-0.080183595
-0.09869187
0.015768714
0.060649253
0.072164744
-0.023139294
-0.012959597
-0.016876735
0.025870098
-0.009147403
-0.056292996
-0.10733017
0.15203857
0.018896459
0.07244417
0.16904722
0.11127155
-0.021432156
-0.01897081
-0.16938502
0.059753675
-0.044002227
0.20053856
0.13816038
-0.0971333
0.075373955
-0.12711139
-0.12659258
0.194406
0.03239193
-0.10288196
-0.29481542
0.050095867
0.0032409108
0.43079332
-0.12154817
0.11048572
0.10661668
-0.14045759
-0.04480079
0.22755711
0.004045254
0.39650348
0.76892424
-0.08625379
-0.066784196
-0.19453572
0.25419837
-0.038831282
0.19095974
-0.033486184
-0.37586993
-0.23236145
-0.05859044
-0.2265817
0.03113105
-0.15535478
0.30281994
0.2527161
0.27393007
0.22443052
0.08937062
-0.07535292
0.07150601
0.24840957
-0.09789397
-0.2641886
-0.049404696
-0.3321507
-0.21396373
-0.03465983
0.15150152
0.31859213
0.22653653
0.06593252
-0.15804069
-0.05983769
-0.09767385
0.004013296
-0.18748567
0.084892854
0.2776578
0.0449921
-0.0024769858
-0.28727287
0.21524182
-0.178964
-0.00019703651
-0.021095693
0.12115452
-0.028470032
0.3450025
0.17664169
0.02869766
-0.19626723
-0.55030626
-0.0013276846
-0.26888925
-0.29252717
0.49240354
-0.052139916
-0.24621457
-0.19199021
0.28526002
0.12881236
-0.4021102
-0.04467723
-0.20319691
0.18796568
0.11470907
0.13221677
-0.145055
0.025408713
-0.020330502
-0.15058838
-0.1376175
0.054689944
-0.08139773
-0.4848007
-0.2357006
-0.07948782
0.33289155
-0.18215063
-0.38740426
-0.2641917
-0.10850514
0.5140414
-0.45817763
-0.17160057
-0.08154459
-0.17581049
0.061374065
0.17906748
-0.27721104
-0.2415216
0.30987027
-0.06537054
0.18783602
-0.0143541815
-0.090327285
-0.27302167
-0.16666926
-0.09540616
-0.11489432
0.09548971
-0.03477407
0.105222225
0.22663614
0.30473816
0.214489
0.10112977
0.12832402
0.1941881
0.11284481
-0.08094717
-0.00029068056
0.057426486
0.17358382
0.18047523
0.051578976
-0.36353275
-0.046665028
-0.09385491
0.055248078
-0.051050495
-0.1343178
0.29355025
-0.32488337
-0.044541974
-0.3781988
-0.14552096
0.07125047
-0.2235879
-0.08310543
-0.040873203
-0.03252873
0.2749148
-0.19991623
-0.11465458
-0.3491945
-0.17281142
0.18062194
0.08512229
-0.0597774
-0.20736726
-0.07319913
0.1653239
-0.18056475
0.27272046
0.14540434
-0.011110955
-0.042704314
-0.33337674
-0.4537256
-0.17693867
0.028758967
0.20862971
-0.19209969
-0.020190183
0.13691585
0.018459452
-0.15380235
-0.27209705
0.026984097
0.017832676
-0.035065304
0.1586665
0.058347765
0.045392387
-0.02026438
0.029336123
-0.32233274
-0.09535166
-0.0052361274
0.16027221
0.2222422
-0.21914995
0.09401434
0.23738466
-0.35298452
-0.008706102
-0.009201535
-0.14073354
-0.18322374
-0.032523602
0.24859291
0.20128922
-0.02252603
-0.28887087
-0.09129817
0.024970543
-0.12740332
-0.03599363
-0.055150438
0.16713297
0.028202062
0.06642571
-0.029359184
0.13126834
0.17736663
0.2701433
-0.28304788
0.059361923
0.07799824
0.18591619
-0.123713024
-0.7221676
-0.17551316
0.32777512
0.15577742
-0.13695262
-0.31166
-0.00038453902
0.2090833
0.03400607
-0.0068859053
0.21202323
0.21540026
0.017974028
0.090480186
0.11901091
0.041682087
-0.24883883
0.122079566
-0.18639849
0.063946344
0.06727604
-0.03397031
-0.15458
-0.36192888
-0.04689855
-0.4405861
0.1631024
-0.084880434
0.2120068
-0.06755934
0.1880832
0.14029384
0.011846063
-0.00089263514
-0.12507378
0.0016017276
0.008186616
-0.17917155
-0.14328061
0.14440434
-0.20201366
0.07506688
-0.3432963
-0.08709071
0.05984931
0.097391814
-0.0919778
0.018702358
0.028277177
-0.033729244
-0.07058507
0.03546798
-0.047448277
-0.060880814
0.09060694
-0.08285014
0.09587132
0.14539628
-0.10690634
0.1101968
-0.020846447
0.030559523
-0.18360674
-0.061591703
-0.23463833
-0.09334914
-0.006157749
-0.1848321
0.055371832
0.19607292
0.13169646
-0.18575121
-0.00984231
-0.045616966
-0.0071176556
-0.13413428
-0.15775841
0.08940829
-0.01636605
0.028701006
0.049703173
-0.044580217
-0.010373217
0.049840584
-0.13850152
-0.051767524
-0.09793852
0.0002140469
0.07890171
-0.22530384
0.124705076
0.0322375
-0.09935257
0.024102047
0.04205927
-0.20891301
0.08440033
0.07483348
-0.05745404
0.29735813
0.111286186
0.16807677
-0.12471739
0.006658605
-0.066569775
0.21850988
-0.0028584278
-0.019534478
-0.035963494
-0.06005428
0.030431548
0.10552396
0.11632527
0.048219997
0.06754067
-0.01266965
0.020136898
-0.24404539
-0.12940682
0.15950514
-0.17993131
0.07881728
-0.05147713
0.06893406
-0.03488091
0.16891304
-0.027364388
-0.15460728
-0.23998894
-0.30075625
0.14528643
0.03605585
0.09147065
0.15899387
-0.31590012
0.0027197232
-0.102359295
-0.055747133
0.0906508
0.11628979
-0.07720753
-0.11668434
-0.0431276
0.018209258
-0.10205909
0.19068335
0.006511203
0.0021098307
-0.023722671
-0.016231213
-0.0079366155
-0.120101534
0.03996163
0.29278266
-0.22998844
0.23668025
0.20611122
0.056891367
0.19638342
-0.0067548724
0.11070275
-0.28635907
0.115811154
-0.32094425
0.074533924
0.10762491
0.028526783
-0.015208108
0.1498015
-0.061853375
0.17228079
0.13081951
0.0022308887
0.34431377
-0.121615395
0.14144541
0.07573191
0.08373998
0.18484639
-0.05840049
0.13753706
-0.24587652
0.110238895
-0.042804588
0.14425911
0.0074478784
-0.21588774
-0.10549182
0.23962286
-0.22436315
0.22443946
0.06365094
0.11727702
0.17037253
-0.08261379
0.07586982
0.15789388
0.055539917
-0.021714013
0.082325794
0.21597001
0.06046304
0.090599805
0.18501395
0.09696138
0.1317427
-0.012153757
0.019013971
0.06540876
0.06611088
-0.07493981
0.043264274
0.09614647
0.07801041
-0.059256632
-0.14857611
0.043443885
0.10713551
-0.1845672
-0.01065212
0.21613978
0.014134028
-0.22431335
0.081177324
0.15868561
0.039390087
0.11549752
-0.06579503
-0.11642271
0.35010353
0.048239518
0.016684651
-0.042703785
-0.018406557
0.21811843
0.1304419
0.07071108
0.034935243
-0.043411497
0.20941637
-0.29394388
0.02696403
0.28309068
0.10290935
0.089317426
-0.0018971483
0.11813656
0.10512117
0.064768426
0.45734388
0.009139223
0.03685336
0.11055476
-0.11263504
0.10808656
0.051942546
0.023015132
0.07080165
0.054971237
0.096712686
0.1232009
-0.0064224373
0.05400425
-0.001663243
0.032394208
0.12507169
0.2895162
0.032293327
-0.021595767
-0.044207137
0.22712126
0.30983394
-0.010300244
-0.017705688
-0.03900232
-0.03563643
-0.055374175
0.02196227
0.00283684
0.04624469
-0.006948343
0.1612226
0.06314573
0.0089600105
-0.27126375
-0.0007170895
0.016982663
0.012766632
-0.19005834
0.08427533
-0.09709792
0.020262364
0.14855653
-0.0015139147
0.01943993
0.24449798
0.19498734
0.12676373
-0.0034067181
0.11756669
0.25349277
0.11611902
-0.016605565
0.14731021
-0.16653776
0.102056935
-0.049378216
-0.091960125
0.15319438
-0.15161628
0.007994232
-0.40169615
0.090749115
0.24533127
0.064002655
0.023949316
-0.04292733
0.16672067
0.043807283
-0.0287187
0.22027032
-0.017704172
-0.09138241
-0.047977213
-0.0072118
-0.13323489
-0.020290716
0.020580113
-0.05384364
-0.11031258
0.11549669
0.024365745
0.0019556868
-0.14531341
-0.09324133
0.1622988
0.024899334
0.10379494
-0.075941846
-0.017407263
-0.17780507
-0.044867713
-0.05564785
0.114812605
0.05707802
-0.08693655
0.08885819
0.053116065
-0.11373409
-0.039999533
-0.13746393
0.096520066
0.17372426
-0.02006998
-0.018503932
-0.013941649
0.20658869
-0.0031307167
0.015751759
-0.020727199
-0.02458015
0.0961292
0.040922176
0.14540292
-0.09702171
-0.20651829
-0.020872576
-0.036590077
0.054214466
-0.28691274
0.09263041
-0.110616036
0.13124566
0.12300903
-0.051085126
0.046690956
-0.178528
0.050612114
-0.18202315
0.104615174
-0.027117873
0.023250919
-0.05658894
-0.12882468
0.041496634
0.054916546
0.06096317
-0.10816902
-0.07519672
-0.15704781
-0.23917039
0.11563937
0.04732527
0.057311002
0.021398623
0.040920917
0.13664511
-0.16542132
-0.02172205
-0.15616935
-0.17454952
0.109881274
-0.09313207
-0.09365499
0.04881503
0.008335953
-0.13702534
0.08860177
0.016415622
0.001382513
-0.08260798
0.020562757
0.017687963
-0.04017606
0.05362073
0.0145213865
0.14215611
0.007356276
-0.06191477
-0.07251951
0.08042354
0.2840043
-0.071335636
0.037025224
0.12338627
0.040854942
0.10326261
0.13589141
-0.032478295
0.03440413
0.07167882
-0.11658408
0.035370078
0.032550063
0.11325183
-0.11448915
0.002879475
-0.066552006
0.003801069
0.012107198
-0.102578714
-0.043854155
0.16376944
-0.09068583
0.065939955
0.057055745
0.0041354876
0.1110152
0.0042973477
0.15961947
0.062781714
0.12109144
-0.1550275
0.014887976
-0.13654314
0.2846593
-0.00031578072
0.009082103
0.032351993
-0.05696137
0.08520089
0.1273912
0.031833
0.027034264
-0.046222124
-0.14740862
-0.08005243
-0.06122948
-0.11035258
-0.06352135
0.046373505
-0.10693239
-0.09254056
0.036175583
-0.09110608
-0.07161685
0.024594687
-0.12435648
0.08428954
-0.03158354
0.13368477
-0.02057727
-0.1009385
0.0438917
-0.22288378
-0.15831716
0.040042624
-0.059967745
0.04151567
0.17467192
-0.09815186
0.06377333
0.20630786
-0.1008157
-0.097105585
-0.071443595
0.02964751
0.041223876
0.16095056
0.097854115
0.005433645
-0.11025418
-0.009387608
0.14846003
0.10378524
0.021069208
0.13649802
-0.00330764
-0.018025108
0.14574093
-0.19599676
0.0090874415
0.068978466
0.09465934
0.22806163
-0.13572858
-0.15000224
0.0528413
0.06768688
0.01794063
0.07737623
0.23094365
-0.013228563
0.024975348
-0.11346675
0.1597674
0.038559698
-0.083514966
-0.057700105
0.06629499
-0.023336453
0.13805477
0.033459146
-0.07229337
0.0034196777
-0.0003590233
0.05471723
-0.08291873
0.13053083
0.00081436173
0.07617277
0.0327543
-0.03984608
-0.056393836
0.16003285
-0.03746867
0.07585974
0.13459016
-0.0394256
-0.063060604
-0.05281864
-0.07795074
-0.116543524
-0.094243646
-0.021739185
0.10509969
0.0845383
-0.017820744
-0.017259203
-0.031040559
0.029965786
0.01905176
-0.065260954
0.047492765
0.07416898
0.08145309
0.022568144
0.026485477
-0.01971297
0.09679634
-0.12154198
-0.010414022
-0.23979978
0.0044144066
-0.1493674
-0.014737867
0.004081824
0.0086228745
-0.11007858
-0.11325598
0.05787473
-0.00013375861
0.09221069
-0.009138973
0.07315833
-0.047201596
-0.092573315
-0.023856368
0.0053030727
0.04877146
-0.124727435
-0.15259413
-0.11635648
0.063503705
-0.05115767
-0.0076673264
-0.013405836
0.041156765
-0.020360278
-0.019478254
0.13046645
0.030196538
0.104882754
-0.04639672
0.041875686
0.014037152
-0.025692733
0.117936976
0.117790654
0.20742854
-0.052702073
-0.02143246
-0.09389802
-0.0810319
0.050122526
-0.055344686
0.027547324
-0.042161465
-0.15496719
0.059008274
0.034200255
0.0012601541
-0.04760432
-0.0032546525
-0.012177494
-0.093578614
0.041301668
-0.03262158
0.13884702
0.04032096
0.08738795
0.01996296
-0.046157833
0.12233801
-0.06410854
0.22274444
-0.08562231
0.008087477
-0.048435744
-0.07153793
-0.108673975
0.08172007
0.07116368
-0.08599351
0.03498477
-0.27794167
-0.061076224
0.05537518
0.07975658
-0.04282248
-0.12294898
0.12565
0.0339991
-0.19441444
0.16977188
0.030595902
0.09471085
-0.007727347
-0.16107799
0.11744723
0.061119758
0.20544533
-0.037349533
0.090720885
-0.4587154
-0.041657776
-0.12786552
0.026251376
-0.05974366
-0.11762841
-0.034940157
-0.12888518
-0.0061694486
0.06505295
-0.00675537
-0.1403664
-0.24350013
-0.10135748
-0.14773956
-0.27768406
-0.07842914
-0.09633263
-0.10951973
-0.03028282
-0.0013482732
-0.15158871
-0.08649727
-0.07777737
-0.049814418
0.03346938
0.0444433
-0.1578455
-0.05596704
-0.14869875
-0.33103713
0.13861628
-0.13905397
-0.028650325
-0.2843071
-0.24438514
-0.15354063
0.0049045277
-0.049720123
-0.07072928
0.08335319
-0.12699623
-0.06357627
-0.18287002
-0.10534998
-0.038293757
-0.12539585
-0.21112193
-0.12985212
-0.049474407
-0.11693337
-0.08577806
0.025050797
-0.12714551
0.04336151
-0.048955873
0.10538178
0.00504022
-0.058818318
0.004019118
0.09108174
-0.40911797
0.08502653
-0.11016877
-0.19391775
-0.01110721
-0.03368776
-0.1275506
0.04239235
-0.021272473
-0.17049973
-0.10002114
-0.18976198
0.021081146
0.19465911
0.07751545
-0.00995496
-0.0055008605
-0.21563579
-0.113701664
-0.046864487
-0.098771274
-0.18887205
0.07699644
-0.16684318
-0.02251555
-0.10311432
0.046633486
-0.027105097
-0.012696044
-0.066033505
0.2353534
-0.078676485
-0.08208679
-0.05419597
0.052700493
-0.10569307
-0.13631718
0.11722173
-0.12940823
0.09008301
-0.07499537
0.17516938
-0.0281345
0.21786
-0.015831118
-0.025322482
0.03599594
-0.18637335
-0.13780335
-0.017466014
0.029337136
-0.10977399
-0.14404675
-0.3167045
-0.044907898
-0.2094379
-0.043873705
0.15642528
0.03344076
-0.08934567
0.063270286
-0.033786487
0.033234987
-0.0028851805
-0.16220286
-0.03812076
0.020335436
0.06811407
0.09438718
0.18626307
-0.053883083
-0.06011084
0.008263261
0.14373152
0.07019472
-0.24750672
-0.043048058
-0.04895171
0.026487267
-0.17565304
0.17627624
-0.04632943
-0.08965966
-0.09012863
-0.21048148
-0.05279993
-0.052852932
-0.17976412
-0.09171862
0.010394008
-0.050714817
-0.0054000886
-0.16118425
-0.15579763
0.007862464
0.0034272717
0.2525984
-0.059801046
0.046561275
0.14844248
-0.028017987
0.006858113
-0.05138008
-0.0077702333
-0.1830535
0.072145246
-0.09704493
-0.081542164
-0.2895214
0.1706385
-0.24027014
0.03853112
-0.040572263
-0.04731911
-0.05822229
-0.07983091
0.07980992
-0.1781664
-0.060786083
-0.0028895799
-0.07961853
0.12701637
0.044866562
-0.07560823
-0.22425991
-0.087701716
0.07199139
-0.18988964
0.10243323
0.05501281
-0.031159254
-0.05568762
-0.18247509
-0.033462916
-0.043975852
-0.12908868
-0.017049938
0.0693633
-0.035880197
0.23924908
0.0065859114
-0.11532322
0.23933588
-0.008735566
-0.051867
-0.041578762
0.1210295
0.10309366
-0.023542762
-0.01925131
-0.09712983
0.07640249
0.055794884
-0.04147032
-0.008148523
0.053284977
0.016635913
0.065769374
0.06295132
0.04309012
0.03907347
-0.06410388
0.14963083
0.008769002
0.016436184
0.022099955
0.051428333
-0.060430426
0.09398485
-0.037308227
0.07983748
0.058298055
0.010536606
0.03062833
0.0145004885
0.013450839
-0.00031683725
0.16258806
0.059661437
-0.036320407
0.016358817
-0.02311009
-0.062449243
0.26490754
0.13540162
0.050431527
0.036002908
-0.21665257
-0.0043687825
0.047451656
0.046080243
-0.062279448
0.034846324
0.26478124
-0.0120537765
0.37466452
0.07751313
-0.052129388
-0.02774632
-0.014721511
0.07087528
0.01489101
-0.025000963
-0.01523366
0.00910807
0.21432517
-0.22938246
0.0605975
-0.01937341
-0.18088435
0.1412031
0.19987106
0.19206756
0.0035825348
0.097649075
0.092851005
0.077534206
-0.015550806
-0.043814823
0.038356215
-0.054146007
-0.11797943
0.0014637427
-0.06146555
0.018277064
-0.25148118
0.13564
0.08768018
-0.08087011
0.030459527
-0.09680846
0.035553396
-0.04527215
0.20802331
0.04623475
0.066823855
-0.026205324
0.052267227
0.11607216
-0.10630751
0.20856473
0.09580948
0.042747356
0.10665343
0.32281065
-0.0064431527
0.1244146
-0.008610846
0.046019346
0.017690748
0.094301395
-0.07068149
-0.17984347
0.22956751
0.053583644
0.029823896
-0.008462117
0.015989572
-0.09781309
-0.22046037
0.010829307
0.09822246
-0.10963988
-0.16966444
-0.07619253
-0.051526345
0.037938498
-0.049000446
-0.062214836
-0.03423399
0.14909852
0.0323218
0.06677914
0.16174224
0.105871685
-0.017340453
0.035245195
-0.021460246
-0.024432525
0.13690986
-0.010074528
0.039125875
0.06983213
0.001642423
-0.12094371
-0.045294654
0.1382519
-0.10978468
0.013273739
0.03733822
-0.045836255
0.064133205
0.02351967
0.0063427687
-0.09215573
-0.08347711
0.071995705
0.00288516
-0.07244953
0.0010789727
0.0035385694
-0.17873503
-0.12744518
0.017062208
0.029998433
-0.09643518
-0.018918088
0.07435796
0.054554686
-0.0035190838
-0.013810939
0.015896231
0.052087
0.09742565
0.102267735
-0.1538494
0.0056128805
-0.02531001
0.05071669
0.007873493
-0.07968528
0.048799533
-0.007074588
0.017711135
-0.04692694
0.10570018
-0.10667656
0.14395386
-0.06689587
0.113110155
0.015361438
0.058185283
0.2292112
-0.05872296
-0.03448218
-0.11211669
0.05632143
0.020629963
-0.010207008
-0.006648265
0.06340413
0.014914204
-0.102666944
0.00839944
0.0580194
0.038262308
-0.03869546
-0.042598557
0.14064564
0.058882885
0.038643625
-0.08680657
0.014134141
-0.03217604
0.041793846
0.0296039
0.026831685
0.03413014
0.11207304
-0.08257832
0.12106556
0.117251165
0.017327543
-0.08204385
-0.009771581
-0.05633204
0.12075252
0.07960814
-0.025305804
0.004592358
0.06949652
-0.075212725
-0.116572395
-0.06970866
0.063634954
0.05095733
-0.052120626
0.009652588
-0.04394683
-0.18644665
0.12597835
0.06992792
0.009610917
-0.03519619
0.004266554
0.110882565
-0.0020200098
0.18158013
0.03414281
0.0782511
0.078232296
0.0269694
-0.113141075
0.14665304
-0.03006334
-0.086960755
0.057066172
0.0010326226
0.025906729
0.02166164
0.100639194
-0.06408206
0.049348112
-0.06790331
0.1025315
-0.08252717
0.1336032
0.080349505
0.020568253
-0.06039052
0.012190871
0.007395043
0.038383275
0.09387809
0.11204264
0.06316176
0.06511597
0.12508728
0.068847254
-0.0045898836
0.05005917
0.065512605
-0.108648725
0.07593779
-0.13036038
0.06251597
0.15103725
0.04364622
-0.14766692
0.043735605
0.25095367
-0.023357632
-0.046333566
0.051966563
-0.010925431
0.014069046
-0.033857137
-0.1261048
0.004349808
-0.029919527
-0.015794052
-0.058841396
-0.039912358
-0.0067123575
-0.01031653
0.036657624
0.07066432
0.021708827
0.0100262575
0.038148876
0.19724359
0.0014192159
-0.026835086
-0.026273662
-0.046569094
0.04012422
0.13241553
0.05854893
-0.106925964
-0.0012308371
-0.08432403
-0.10105416
0.056755267
0.04713024
-0.07653975
-0.011461506
0.089778066
-0.06228108
0.07362385
-0.0011045727
-0.060115542
0.06716081
0.026199391
0.061369184
-0.03461291
0.11768125
0.0779958
-0.3345735
-0.12777977
-0.014410071
-0.008210772
0.03950689
0.04262166
-0.04508519
-0.10714582
-0.037972316
-0.09590715
0.094756186
0.17061152
-0.1085489
-0.04209439
-0.06231479
-0.15990408
-0.0340699
-0.035840362
0.041087233
-0.0913104
-0.043055013
0.019409772
-0.27135357
-0.03591225
0.06341325
0.02416862
0.008402066
-0.018799016
-0.022461418
-0.01871693
-0.15457287
-0.11735927
-0.09372304
0.055793308
0.053279266
-0.34041914
-0.33295926
0.2482092
-0.050519314
0.28675392
-0.008746181
-0.17634223
-0.082120694
0.14392564
0.18468843
-0.043759357
0.22063181
-0.026352637
0.03181017
0.1863833
0.20444651
0.09980869
-0.01967344
-0.16343853
0.02223845
-0.0748482
-0.010884109
-0.044196635
0.054963034
-0.12721954
-0.07518372
0.04291858
-0.16331989
0.050605252
-0.14245442
-0.08424829
-0.24396053
-0.25151032
0.00846301
0.21644035
-0.07952213
0.074192435
-0.22260003
-0.19799466
-0.17227452
-0.08447123
0.05570676
0.050404508
-0.41762507
-0.008297587
-0.07443832
0.27591547
-0.008920367
-0.13813278
-0.036512204
-0.16534586
-0.062178046
0.08096571
-0.026237994
0.021347877
0.30895904
-0.05827286
-0.16200927
0.12902832
0.059058867
-0.34139222
-0.062668465
-0.08044703
-0.1320976
-0.16524611
-0.10516844
-0.188385
0.0088939285
-0.031900726
0.23639068
0.12495145
-0.03654939
-0.4466464
-0.41877937
-0.15685286
0.07944844
-0.12606896
-0.34917378
-0.2531034
0.1216535
0.20817704
-0.11081961
0.20731379
-0.21281165
0.03805852
-0.15650962
0.28004062
-0.106475525
-0.12179057
-0.064175434
-0.0300942
0.09732955
0.69438434
-0.18636377
-0.22713152
-0.3089571
-0.064206295
0.08244748
0.026841491
0.03952831
0.019667843
-0.066880465
0.050895277
-0.23301414
0.002295272
0.18986216
-0.16779913
0.23499115
-0.11570998
0.14251244
-0.1757694
0.09345314
0.024359401
0.1404137
-0.013917683
-0.23085415
-0.07073975
-0.19438611
0.119786486
-0.14337686
-0.064155266
0.00089069497
0.13788597
-0.021241006
0.091923244
0.040319804
-0.009331431
0.035841454
0.00046869527
0.049746677
0.05910316
0.12846248
0.051335003
0.12952751
0.09560615
-0.025833493
0.12378508
-0.15073964
0.13714322
-0.0423362
0.09633546
0.022595854
0.08617692
-0.13890646
-0.008979769
0.0676105
0.17877507
-0.04000921
0.07755088
0.18554536
0.23299965
0.22940338
0.003122258
-0.09274788
0.36769065
0.056797303
0.040600337
-0.15625593
0.1971023
-0.12113766
0.19718365
-0.1762639
0.09852051
-0.058265056
0.082202256
-0.097243965
0.11157864
0.05763971
-0.19455521
0.18480599
-0.031105855
-0.03308708
-0.035266723
-0.15428756
-0.16314737
0.3286917
0.12486036
0.0707825
0.44683307
0.07231862
0.07087821
0.15364964
0.18543637
-0.14544183
-0.08565706
0.17968515
0.15973264
0.14928897
-0.011327893
0.047617152
0.08905103
0.10910916
-0.40442827
-0.11362579
0.05603289
0.22746673
0.031965174
0.32661194
-0.056448225
0.1346096
0.16074501
0.0036012114
-0.06434059
0.2555396
0.016645875
0.06494656
0.21933451
-0.21236557
0.35308814
-0.09624488
-0.08986769
-0.26843822
0.2951237
0.12866096
-0.030458884
-0.14372402
-0.17058954
0.122370094
-0.094095804
-0.1493267
0.23041463
0.18492608
0.03685781
-0.026809407
-0.036873966
0.24320649
0.16918713
0.19430421
0.1258075
0.16783395
0.00340802
-0.19964914
0.07490687
-0.08644411
0.008857491
-0.048174765
-0.0389948
0.05110952
-0.059673544
0.05634159
-0.0011324332
0.14534904
-0.007910422
0.041038252
-0.15300348
0.06526291
-0.012226534
0.0412297
-0.057774637
-0.12503998
-0.12117272
0.084854886
0.031640675
-0.078052044
-0.09677897
0.04916377
-0.107596494
0.01896739
0.011596286
-0.07808463
-0.02174079
-0.10646609
-0.05061684
0.08237284
0.09640653
0.028021522
0.04179184
-0.018193068
0.024800953
-0.085008346
0.015031087
-0.19565621
-0.21539219
-0.0042692632
-0.040679578
0.01934381
-0.006573671
0.010354642
-0.02385616
-0.016699838
-0.118371785
0.021148384
0.033413984
-0.026664278
0.09175859
0.058839824
-0.03300648
0.13063584
0.09895215
0.17258777
-0.054249454
-0.012419906
0.022394508
-0.18256305
-0.07034709
-0.09991715
0.01852238
-0.060879298
0.120156825
-0.042418525
-0.1416799
-0.0009941849
0.03743046
0.052532475
-0.18234333
-0.09305899
0.0027689831
0.12035567
-0.14695382
0.053126097
0.058065396
0.14859729
-0.0441649
-0.1526034
-0.0031597177
0.0032845438
-0.017065056
0.08178715
-0.097849816
0.16306344
0.1064782
-0.05249633
0.08103462
0.107432276
0.08169639
-0.10429774
-0.1367341
-0.07611024
-0.09455572
-0.076525055
-0.03153211
-0.05383802
0.113172345
0.018913908
-0.010541545
-0.16367802
-0.022268979
0.09449185
0.24167211
0.00898099
0.20272866
-0.14167419
0.026835764
-0.012654927
-0.14896716
-0.060640085
-0.006306931
0.13570052
-0.029138174
0.17996049
-0.014641047
0.023210961
0.056330625
0.032725528
0.07250737
-0.035480354
-0.04260509
-0.029398937
0.13493745
0.038952645
-0.09979409
0.1923121
-0.009993123
0.027163627
0.012875806
-0.06322873
-0.013571494
0.06434143
0.18836188
-0.012097915
-0.018595064
-0.11142892
0.109299116
-0.072001316
-0.099260844
-0.046084687
0.20196174
-0.08516602
-0.15506695
-0.032700907
0.0894307
0.2547318
-0.054786757
0.06728529
-0.0026306552
0.15083751
-0.1404419
-0.067486994
0.0071250503
-0.085990585
0.08141115
-0.16371943
0.06348507
-0.1033655
0.07062543
0.17659056
0.008559721
-0.119050145
-0.08992514
-0.14542021
-0.11595869
0.0166912
-0.20934427
-0.051548578
0.004793728
0.10113912
-0.352404
-0.028118176
-0.21386938
0.14988002
0.06703366
-0.14437513
-0.021341804
-0.027937712
0.02743972
-0.11649774
0.07743761
0.111264564
0.2652713
0.04954236
-0.09053647
0.046231702
0.017309602
-0.09655658
-0.07094548
-0.17118625
-0.00888824
0.08657257
-0.03450323
-0.010989997
0.05098514
-0.16422468
-0.013200019
0.007751363
-0.104366995
0.18672714
-0.01548406
0.010569817
-0.07480112
-0.07781835
0.18982458
0.08637231
-0.04038448
0.1773368
0.15648955
-0.042706843
-0.09258807
0.18250675
-0.030778952
-0.043142635
-0.08357422
0.04155872
-0.007709221
-0.07073584
-0.09769845
0.036750272
-0.036897488
0.11866848
-0.11420442
0.02594738
0.12551874
-0.12210427
0.08070276
0.008566639
-0.04162892
0.071438566
-0.07590716
-0.10204912
0.22859648
0.055570822
0.00027851606
0.056772403
-0.08856538
0.10290924
-0.07107818
0.10517426
0.036938846
0.13915624
-0.05016641
-0.07206658
0.20873366
-0.2947205
-0.15775591
-0.031650674
0.7176119
0.23927803
0.15392669
-0.18542604
0.112841256
-0.04518527
0.041854393
0.075021
-0.055338893
-0.073888026
-0.09623018
0.06376586
0.09891199
-0.014916357
0.22128823
0.021988185
-0.059242345
0.075164445
-0.10069233
-0.13440098
0.21520074
-0.089904346
-0.16070578
-0.1202783
-0.06621396
0.04486328
-0.01989448
0.14344437
0.023587536
0.12485753
-0.056977186
-0.1223099
-0.26449424
0.024936294
0.14758193
-0.17044458
-0.19751556
-0.23931254
0.062224295
-0.042754173
0.1343392
0.010355119
0.02945175
0.044086665
-0.0013653631
0.093193516
0.12598687
0.0057850056
-0.07908853
-0.13965924
-0.0974462
0.27189267
0.110230975
0.1946668
-0.17796502
-0.07361998
0.12086945
0.049985018
0.0014844894
-0.21319053
0.117280774
0.022400117
0.17460598
0.27684605
-0.11531689
-0.009226136
-0.08641194
0.0092707295
-0.10531413
-0.13822688
0.19945993
-0.118982114
-0.023035558
0.00435594
0.06500805
0.099009216
-0.033308838
0.126243
0.17588134
-0.0043045324
-0.27463704
0.063622944
-0.09184149
-0.046640556
-0.03888823
-0.10224674
-0.11776639
-0.12925899
0.15012626
0.010538139
-0.069018215
-0.12578686
-0.086603984
-0.11086457
0.03249222
-0.15539359
-0.017542351
-0.15260606
0.09400089
0.1604164
-0.01405525
-0.06350735
0.0047170226
-0.18220013
0.2813045
0.06307019
-0.11256914
0.030187378
-0.4828193
-0.32861647
0.26421043
0.085424244
0.15228136
-0.2435467
0.18385613
0.09552928
-0.10299081
-0.013269734
-0.04598644
0.044784334
0.060917884
0.023065468
-0.10379164
-0.1920199
-0.14895178
-0.07031092
0.09903916
-0.00987576
-0.060531195
0.21931341
-0.39392266
-0.24357054
0.1343271
-0.023222294
-0.011066378
0.061427113
0.11621643
-0.13645773
-0.08687285
-0.059968486
-0.2202555
0.056024667
-0.05447231
-0.11616834
-0.19962229
0.00835117
-0.2116768
-0.052212298
-0.20372318
0.018643422
0.03411351
0.075495794
0.010014372
-0.06854988
-0.16096716
-0.11056466
0.037290696
-0.022471575
0.030561091
-0.09211869
-0.2033528
-0.17023185
0.046734814
-0.11869609
0.05917828
-0.053190105
-0.057816334
0.085773684
0.07925083
-0.35711035
-0.14045906
-0.091577
0.031997617
-0.18562853
0.03062886
-0.2743849
-0.19934998
0.023323068
0.103323035
0.021776201
-0.04122452
-0.3520374
-0.16479072
0.04337154
-0.31866384
0.06533049
-0.021760186
0.14819698
-0.18315378
0.05315308
-0.13052574
-0.037494864
-0.12340977
-0.026533004
0.08180678
0.09920537
0.060930494
0.029375661
-0.031801447
-0.37148622
0.01873428
-0.13677001
-0.028199688
-0.26458472
-0.16589612
0.062161747
-0.050733063
0.022831878
0.034142293
0.051918127
-0.3552191
0.11943448
-0.19599771
-0.103539005
0.0028472415
-0.18995336
0.23399742
-0.13946599
0.24055144
-0.009247191
-0.028933283
0.10725308
-0.12219665
-0.1340243
-0.36275375
-0.11085932
-0.06578465
-0.07280913
0.04418687
0.01005153
0.13527043
-0.054601934
-0.030072032
-0.12504311
0.007558354
-0.08410348
0.022486392
0.017400714
0.05550745
0.13442224
0.30139092
-0.14966398
-0.04056988
-0.11654269
0.13091558
-0.07191426
0.061766014
-0.08611904
0.07562361
-0.114904895
0.020119883
-0.01827511
-0.011229181
-0.10768411
-0.04882227
-0.016302392
-0.041172065
-0.035183754
-0.035036188
0.10521123
0.017651895
0.049836688
0.13706058
-0.043448605
-0.00032142812
0.21493405
-0.005721954
0.04221571
-0.0014868509
-0.05589365
-0.09705411
0.08016263
-0.2112463
0.11785036
0.00508984
-0.022470903
-0.07172244
0.002067976
-0.025044974
0.019828286
-0.0027887018
0.055809718
-0.20518075
-0.0219697
-0.07274927
-0.023289694
0.11198497
-0.06028487
-0.06958378
-0.12513654
0.014474132
-0.12782343
0.07326721
-0.045042235
-0.09027342
-0.018413343
0.1472755
0.0063173156
0.0740382
-0.0084949825
-0.24134117
0.010697622
0.016193077
0.015098308
0.021988751
-0.14390223
-0.004324664
-0.015420415
0.1335062
0.16609651
-0.088827305
-0.11616181
0.053958815
-0.08928918
0.04109417
0.037353784
0.0051329117
0.12718016
0.069781005
-0.04591082
0.11374601
-0.20681152
-0.08474387
0.03465222
-0.0072648665
-0.05711568
-0.16467397
-0.21062678
0.13956401
0.11487508
-0.04012203
0.121356875
-0.12959875
-0.05214467
-0.026338406
-0.011868981
-0.014545375
-0.06408088
-0.007919855
-0.007440075
-0.030186575
0.01878591
0.025722899
-0.16316858
-0.07234361
-0.0988497
0.012556346
0.072556466
0.044060115
0.098818995
0.101547174
-0.04659948
0.16955678
-0.20497072
0.020740833
0.051631548
-0.047071952
-0.076207004
0.013125376
0.059144128
0.031282548
0.09943028
-0.064222574
-0.16371007
-0.34134474
0.038841765
0.06443755
0.104730725
0.008019027
-0.087871484
-0.024840876
-0.34632215
-0.11922968
-0.1419164
0.04655843
-0.004845568
-0.2535277
-0.08385521
-0.10460607
-0.27165163
-0.2407349
-0.012702478
0.011660277
-0.15715243
-0.045482956
-0.030508773
-0.14712785
0.0645958
-0.3706868
-0.17170596
0.09385802
-0.00591463
-0.2759089
-0.18983474
-0.23814017
-0.22206594
0.015967397
-0.07073002
-0.17538165
-0.0523569
0.030783478
-0.09710252
0.0212693
0.017450405
0.055761494
-0.14928739
0.06463224
0.021228142
0.034607723
-0.05645466
-0.062776595
0.19712909
-0.006130854
-0.101247534
-0.018469691
-0.07940284
-0.09648606
0.033507477
-0.026390532
-0.14171356
0.01939825
-0.19165768
0.105863735
0.29061836
-0.35947335
0.11087359
-0.054068714
-0.08541651
0.12292156
-0.23309757
-0.14367528
-0.2210291
-0.1350537
0.020227904
-0.043820336
-0.052402142
-0.036763698
0.1452572
-0.087111205
-0.018887712
-0.036821492
-0.27071214
0.15754272
-0.12207159
-0.20550509
-0.053990863
0.015848823
-0.000669943
-0.021198722
-0.17049704
-0.42430037
0.05289094
-0.13096656
-0.04385632
-0.29585588
-0.07235734
0.027873002
-0.036397636
0.080030255
-0.10907878
0.08979441
0.029008098
0.017732168
-0.276056
-0.32556057
0.0012138188
-0.21658477
-0.04093132
-0.14139226
-0.07118194
0.022228617
-0.26279017
-0.1351054
-0.091898695
-0.061266396
0.28849584
-0.18590797
0.066178046
0.12085021
0.06562142
0.27157015
-0.0031294022
-0.005327406
-0.06893959
0.07179488
0.18310715
-0.07389512
0.120213516
0.10315755
0.1810995
-0.019061496
-0.09084182
-0.0869456
0.103813976
-0.07797918
0.31101447
-0.1551683
-0.19338791
0.0842734
0.42071053
0.013409112
0.0916477
-0.002976925
-0.12294489
-0.04527957
-0.16055115
0.01660914
-0.19473657
-0.12060936
-0.121152624
0.15831606
-0.18213649
0.10522892
-0.060901605
-0.09398945
-0.17268576
-0.016782444
0.010104254
0.04893491
-0.16979781
-0.097842276
-0.111608535
0.22305077
-0.14467335
0.24898367
-0.21184815
0.007882321
-0.033408985
0.090362914
0.32681954
-0.0061844685
-0.11319373
0.05344196
-0.24684004
0.21459243
-0.028538544
0.06596576
0.11409891
0.21760638
0.2295021
-0.032228682
-0.020461472
-0.1446129
-0.30315945
0.08852346
0.07513518
0.085192025
-0.04370076
0.03139417
-0.20106293
-0.09010599
0.07531225
-0.04129649
-0.29146194
-0.21610479
0.14278002
0.0008875354
-0.0073195724
0.120310836
-0.13568349
0.07360791
0.26226386
0.22803782
0.057702158
-0.3463791
0.08386607
-0.06844699
-0.03354533
0.0051684547
-0.07519819
-0.0996366
-0.07523964
0.064599805
0.15257603
0.022827558
0.021632358
0.0056901434
-0.040966842
-0.021927003
-0.027879791
-0.10908366
-0.013112792
0.024114773
0.20796947
-0.29862106
-0.11035846
-0.04310589
-0.2649459
0.39234316
-0.016429624
0.07691692
0.30047962
-0.026180832
0.0852041
0.17162448
0.022602798
0.038761713
0.17637828
0.1907785
0.089660905
0.4774416
0.113178246
-0.022513883
0.16001756
-0.0032300237
0.011096529
0.08852572
0.054962546
-0.06062686
0.11728348
-0.034086067
0.066784345
0.08044852
-0.041901164
-0.001535367
0.11224302
0.11061187
-0.077450655
0.04738443
0.004064957
-0.055195123
-0.11799503
0.024210868
-0.299184
0.030414425
0.38773128
0.17283742
-0.12485488
0.09957265
0.13493133
-0.12584072
-0.040566124
0.21860425
0.13293841
0.11995653
0.031624064
0.10807289
0.009634888
0.18254855
0.02852192
-0.13432556
0.014791556
-0.07538967
0.06528162
0.06526756
0.20283811
0.052181
0.103607886
0.020845765
-0.0233117
0.19339162
-0.3106715
0.06006345
0.035559155
0.017941613
0.19903126
0.060659103
0.10492986
0.35595694
0.182026
0.122208506
0.016343655
0.27049825
0.23111443
-0.06798256
-0.010364235
-0.020029211
-0.13522579
0.2561906
0.07242635
-0.09475971
-0.16277884
0.10621159
0.1843356
0.06782383
0.21082252
0.10356631
0.08341133
-0.2442359
0.022694023
0.15732865
0.06033272
0.35791814
-0.16764101
0.18472086
-0.14140217
0.26523092
-0.035196092
0.19769895
0.17717475
0.060004916
0.2478354
-0.036355425
0.18177395
-0.053720877
0.093806714
0.09996215
0.12978597
-0.0048471154
0.21978343
0.0029736105
0.014058745
0.049914446
-0.0143471025
0.094726786
0.15956146
0.04023342
0.06766951
0.09343255
0.12792918
0.05324447
-0.043219376
-0.055337794
0.001439988
-0.100829706
0.029200789
0.06980045
-0.18285446
-0.016665902
0.13145326
0.11640173
0.09180045
-0.003214478
-0.047868792
-0.027509214
0.031083379
-0.0044338633
0.028506575
0.011805066
-0.11955763
0.06208254
-0.014289853
0.037664216
0.012169721
0.12450605
-0.034833454
0.008652721
0.10365927
-0.07884175
0.06463308
-0.0026937579
-0.021852175
-0.22462115
0.086175166
-0.032307737
-0.009813063
0.05173832
-0.047875576
-0.12077882
-0.0020043377
-0.0108199
-0.015235065
0.1461394
-0.041934624
-0.04336786
-0.061366305
0.059921343
0.06662857
0.0309341
0.07950118
0.071622126
-0.053646166
0.03345862
0.13985783
0.07785511
-0.029364249
0.0062881447
0.0047256523
0.059148733
-0.18236889
-0.060748532
-0.0072891302
-0.08847819
-0.010983247
0.17857753
-0.033535946
0.05394581
0.14533266
-0.12734593
0.037720982
-0.20359829
-0.03444412
0.055652536
-0.0645072
-0.09871769
0.09721313
0.08867229
-0.018391697
-0.32351023
-0.06559945
0.07435339
-0.0631913
-0.010528445
-0.036317933
-0.049610373
0.09254737
0.031001069
0.0018845741
0.0643729
-0.036254164
0.08988751
-0.0649727
-0.080604166
0.008705463
-0.07650572
-0.07756456
0.09925856
0.18150003
0.124412894
-0.14516373
-0.20168227
0.029844325
-0.08488489
0.14904243
0.050778937
-3.649984e-05
-0.054818567
-0.078522086
0.00024548947
0.066301316
-0.03567055
-0.17119683
0.032717247
0.07064295
-0.03178152
0.026934428
-0.001709193
-0.18735896
0.025848942
-0.015421311
0.1188401
-0.004826767
-0.16716677
0.037553806
0.041103322
0.091971695
-0.1042305
0.24152194
0.12587291
-0.021378724
0.15330932
0.017852852
-0.025584476
-0.0860076
-0.04709896
-0.0077970056
-0.038098652
-0.033767577
0.042080086
0.34296545
0.040199887
0.12953511
0.0019156651
0.025857704
-0.103537895
-0.04461745
0.05698671
0.08639271
0.058671743
0.024843907
0.07351537
-0.06790841
-0.06194457
0.06775445
-0.037093166
0.22855082
0.11697255
-0.19843395
0.024803279
0.22015952
-0.00428067
0.025058346
0.14436977
0.022968385
-0.07423214
0.074929595
-0.014122127
-0.09995492
0.050294753
-0.0352207
-0.015235289
0.09689273
-0.060231537
-0.09017399
-0.14521588
0.15955889
0.06857496
-0.05438764
-0.045961753
-0.008512545
-0.029529085
-0.06622682
0.072169594
0.12158784
0.013524896
0.15775129
0.101571046
0.1593585
0.071371466
0.27986202
0.18701841
-0.023377556
0.16286248
0.015221675
-0.25968447
0.1301715
-0.07947831
-0.054639444
-0.02460798
0.02594378
-0.1334746
0.114569366
-0.042749383
0.06986542
-0.09022622
0.12527435
0.22188081
0.2262148
-0.26404095
0.044702202
0.12039426
0.07531942
0.04749735
0.17131677
-0.11829886
0.051365126
0.058123436
-0.081752546
0.055780504
-0.04663896
-0.14664428
-0.25787878
-0.011994907
0.037148666
-0.06476129
-0.120263375
0.08900432
0.07824241
0.0013554235
0.027074812
0.026745668
-0.013767436
0.032957323
0.004948967
0.1841906
0.043357607
0.1619761
-0.09230287
-0.03074336
0.40892282
0.069565035
0.071209535
0.05815902
-0.14573945
-0.11874492
0.077212356
-0.41929945
0.3306196
0.23215878
0.013353064
0.37593833
-0.10817209
0.06183054
-0.45255363
0.040027797
0.09221385
-0.049859002
0.23992066
-0.049069148
-0.030010633
0.14706059
-0.24943374
-0.23287977
-0.1411477
-0.27943096
0.15741843
0.084242284
0.023245335
0.06765468
0.14179419
-0.1952564
-0.01000866
-0.06785256
-0.0006906781
-0.005184514
-0.037499115
0.0038937435
0.053895775
0.012553986
0.12375107
0.2605186
0.17442991
0.048329983
0.11238516
0.012842512
-0.16393636
0.001253176
0.020978894
-0.22285286
-0.19470243
0.045815323
0.04096193
-0.019270377
0.0200721
-0.3722833
0.12157033
0.10308432
0.13797975
0.38420734
-0.047858927
0.04463785
0.11428038
0.06312163
0.06220929
0.06530618
0.08692697
0.10237631
0.017680425
0.24316664
-0.057548556
0.04618281
0.023662088
0.1211016
0.1051855
0.23389587
0.11661608
0.18397975
-0.008816837
0.13255696
0.16262302
-0.026128855
0.18861254
0.04940004
-0.1370115
0.15173987
0.1325032
0.08342766
0.08129383
0.10540327
-0.089901
-0.09718937
0.15882996
0.21321657
-0.0369011
-0.009400972
0.055070043
0.17201312
0.07954434
0.4305669
-0.0020496643
0.042963587
0.047004614
0.21286204
0.22970928
0.037282605
0.02406818
-0.037761357
-0.014829001
0.008901378
0.16766869
0.20636559
0.18535085
0.008994837
-0.034221552
-0.32356027
0.13880667
0.02562059
-0.051944837
0.23066436
0.0908694
-0.258941
-0.0030282666
-0.03455345
-0.14664315
-0.11183687
-0.2417291
0.2720717
0.08645735
-0.20606188
0.036786046
0.02477042
-0.11598176
-0.010812832
0.17519179
0.024781499
0.05333164
0.042221908
-0.2577258
0.010619665
-0.08966509
-0.10143476
0.117094636
0.3251658
0.06538001
-0.09796136
-0.17074992
-0.24329092
-0.28721657
-0.04229445
-0.010714281
0.0708305
-0.034788046
-0.07233231
-0.050612856
0.01180767
0.055335898
0.09430692
-0.056316897
-0.18262024
-0.25869483
-0.077632174
-0.0071932958
0.092450306
-0.041139413
0.04924904
-0.076830775
-0.0025384086
-0.1985123
0.25263935
-0.11865395
-0.15873723
-0.20603526
0.04723872
-0.08224822
0.21447663
0.12070427
-0.04186741
-0.04280411
-0.25287205
-0.31139386
-0.045246884
-0.08188911
0.020481605
-0.0726942
-0.20850341
0.26826662
-0.19320396
0.11331413
0.10817251
-0.032449476
0.23318607
-0.2000436
0.04071915
-0.018743804
-0.03964622
-0.22533455
-0.19722852
-0.10272049
-0.050210506
-0.02084239
0.12309776
0.03503193
0.059509005
-0.22702032
-0.054183286
0.08356662
-0.027781107
-0.01622475
-0.08024599
0.103173845
0.22371624
-0.10888483
-0.040937833
-0.079210326
-0.07149579
0.023519848
0.0069167065
-0.06655924
-0.13038675
0.013451509
0.11649025
0.0875612
-0.009026656
-0.02090035
0.07090078
0.17576262
0.08442278
-0.10081503
-0.122618206
-0.27291387
-0.03020786
0.13280448
0.1412644
-0.11172659
0.023376012
0.12662587
0.11527585
-0.18390438
-0.20153628
0.10969659
-0.0821484
0.12914753
-0.037086714
0.20494738
-0.032258008
0.07362949
-0.059845395
0.049658954
-0.12608701
0.08945178
-0.006785771
0.09112261
-0.051262133
0.13149971
0.014962822
-0.05254227
-0.06910615
0.024887037
0.009862635
-0.10250402
0.019057333
-0.024044828
0.06912784
-0.05674637
-0.09483889
-0.09287615
-0.053622667
0.09735917
0.14988784
0.09302593
0.06950783
0.02367172
0.0034789261
0.12017388
0.067266814
0.003094647
0.19411452
0.1588445
-0.4121816
-0.05685364
0.083343074
0.04444649
-0.11966646
-0.01533663
0.036632955
-0.022699729
-0.1918766
0.074946366
0.064662285
0.07350846
0.03167968
0.11248079
-0.047134407
0.06042359
0.04539957
0.047435105
-0.004505177
-0.038600802
0.12721172
-0.3103536
0.13119859
-0.030081447
-0.045718983
-0.1769956
-0.057629097
-0.11753219
-0.09194085
-0.10171518
0.0076097427
0.021202976
-0.065512784
0.07262761
0.10378687
0.06304266
-0.16741797
0.067508705
0.0958744
0.0065576537
0.09013561
-0.041880462
0.12093591
0.02650515
0.025229149
-0.010134746
0.055508994
0.081541985
0.15724984
0.015266064
0.10083377
0.08038866
-0.00082744675
-0.10871389
-0.09748807
0.031944074
0.018225862
-0.09987802
0.15531015
0.021006811
0.100630164
-0.1118557
-0.051357307
0.02908251
-0.062527746
0.0745467
0.026269581
0.06390685
0.010387889
0.077479124
0.08915442
0.059838213
0.054467116
-0.050555717
0.02506686
-0.06266548
-0.04838011
0.045572426
0.06004756
-0.011522786
0.19498225
0.01546622
0.020091403
-0.08961242
-0.08595588
0.12552923
-0.2493672
-0.1625005
0.15695763
0.13652322
0.03189888
-0.084594615
0.105066754
0.037368402
-0.09151043
0.17546313
-0.08468385
0.15962128
0.034082837
-0.046056516
-0.038628146
-0.18063834
-0.010944226
-0.07229681
0.22628376
0.057441033
-0.056092475
-0.09515968
-0.11299955
-0.20285115
-0.013421687
0.016687915
0.016627384
-0.119226225
-0.17831668
-0.028840397
-0.050705
-0.034074966
0.077013515
