//Numpy array shape [64]
//Min -0.119976013899
//Max 0.153121203184
//Number of zeros 0

#ifndef B3_H_
#define B3_H_

#ifndef __SYNTHESIS__
model_default_t b3[64];
#else
model_default_t b3[64] = {0.0262816884, -0.0213980209, -0.0486030355, 0.0621903390, 0.0150803169, -0.0333687700, 0.0869130939, -0.1199760139, 0.1158570424, -0.0369791314, 0.0567121916, -0.0440166593, -0.0193794668, -0.0409447961, 0.0280889776, 0.1224078238, -0.0625780448, -0.0171497818, 0.0289253779, 0.0521932095, 0.0988021716, 0.0538254604, 0.1214733794, 0.0261676274, -0.0202114545, 0.0094520561, 0.0822256878, 0.1531212032, 0.0355518423, 0.1009233296, 0.0549607463, 0.0527435057, 0.0413179509, 0.0917241424, -0.0461082049, -0.0054707406, -0.0928530470, -0.0463724956, 0.0497352295, 0.0726964027, 0.0468822196, 0.0339091867, 0.0451731980, -0.0616389848, 0.0402940772, -0.0275651254, 0.0814472958, 0.0328462832, 0.0771238282, -0.0273381807, 0.0763882026, -0.0742364526, 0.0689872578, 0.0162984673, 0.0723619610, 0.0294886697, 0.0403138250, 0.0365762562, -0.0436191484, 0.0647474229, 0.0028295896, -0.0344501399, 0.1122122854, 0.0379095487};

#endif

#endif
